# w1
-0.477 0.200 -0.552 1.181 -1.030 0.206 -0.008 1.151 -0.309 -0.677 0.058 -0.025 -1.246 0.442 1.442 -0.455 -1.134 1.686 1.384 0.538 -0.441 -0.021 0.548 -1.460 -1.523 0.931 -0.956 2.428 -0.447 0.861 1.724 0.958 -1.317 -2.003 -1.518 -1.151 -1.518 2.235 1.058 0.161 1.419 0.658 -1.054 -0.025 -1.651 -1.157 -1.177 -0.387 -0.699 -0.277 0.562 0.127 0.500 -0.965 -1.409 -1.290 -0.119 -1.654 -1.411 0.076 1.892 1.044 -0.839 1.406 -0.123 -1.736 -0.752 0.123 0.393 -0.933 0.012 -0.060 -1.314 -0.349 0.316 -0.586 0.814 -0.240 -0.478 1.363 -1.023 -0.368 -1.658 -0.962 0.436 -1.299 -2.377 -0.253 -1.083 1.312 -0.059 -1.047 0.243 -1.156 1.463 0.589 -0.420 0.410 -1.426 0.074
-0.208 0.671 0.222 1.332 -0.384 1.060 -0.215 2.252 1.457 0.423 1.052 0.498 0.669 0.491 0.215 -0.376 0.746 -0.897 1.637 1.739 -0.159 -0.092 0.436 0.205 -0.283 0.498 -0.637 -1.071 1.966 0.109 0.286 2.404 -1.484 1.934 0.981 -0.835 0.589 -0.613 0.451 -0.605 -0.406 -0.039 1.432 -0.540 -0.773 1.551 -1.039 -0.571 -0.638 0.286 1.501 -0.434 0.506 0.403 -1.462 0.523 -0.634 -1.678 0.084 0.337 -0.275 0.012 -1.126 1.597 0.058 0.132 -0.824 0.571 -1.087 0.074 0.795 2.296 1.867 -0.269 -1.277 0.457 -0.565 -0.224 -0.758 -0.365 -1.029 -0.086 -0.170 -1.775 0.365 0.565 0.774 0.383 0.216 -1.086 -0.935 -0.258 0.019 -1.567 0.367 -0.965 0.685 0.411 -1.708 0.828
1.230 -0.022 -0.789 0.956 0.814 -0.590 -0.691 1.195 -0.625 0.414 0.596 0.567 1.180 0.757 1.768 -0.332 0.892 -1.476 1.548 -0.357 -0.562 -0.150 0.182 -0.629 -0.779 1.057 -0.389 1.980 0.197 1.220 0.766 -2.296 1.467 -0.112 -0.876 1.257 -0.037 -0.293 0.130 -1.186 -0.373 0.756 1.326 0.265 -1.930 -0.800 1.117 -0.044 0.515 -0.988 -0.971 -0.328 0.515 2.845 1.235 -0.239 1.301 0.224 -0.234 -0.432 0.276 -1.630 0.001 0.468 0.544 0.317 -0.549 0.333 1.715 0.049 -0.392 0.710 -0.912 0.967 -0.778 -0.351 -1.705 -0.278 -0.105 -0.387 -0.175 -0.866 -1.560 -1.113 1.965 0.065 0.521 -1.350 -1.129 -0.709 -0.445 0.190 0.046 0.469 1.741 0.482 -0.854 2.480 0.315 0.620
1.994 0.567 1.450 -0.540 -2.087 -0.093 -0.476 -1.168 -1.209 0.256 -0.113 -1.428 0.322 -1.924 -1.451 0.000 1.185 0.818 -1.348 0.808 0.846 0.384 0.551 -3.257 0.031 1.557 0.178 -1.092 0.307 -0.631 0.805 1.457 -1.364 -0.880 0.096 0.706 -1.424 2.041 -0.051 -0.099 0.221 0.265 3.152 -0.208 -0.762 -1.449 0.531 0.064 0.128 -0.508 -0.359 0.063 1.116 -0.464 0.366 1.617 -0.034 0.496 0.081 1.622 -1.238 1.105 -1.403 0.036 0.171 -1.062 -0.907 0.639 -0.793 0.222 1.550 -0.122 -0.546 -0.631 -0.277 0.212 0.410 0.175 -0.312 0.611 -1.580 0.262 0.318 0.277 -0.280 -1.146 1.425 0.753 -0.128 -1.346 0.793 1.343 0.449 -0.677 1.877 -1.043 0.308 1.327 1.250 -0.785
-0.965 -0.903 1.301 0.745 1.254 -1.531 0.937 -1.054 -1.852 -0.142 1.855 0.729 -0.738 -1.043 -0.725 -1.223 1.824 0.491 0.344 -0.595 0.523 -0.129 -0.603 -0.585 -0.476 -1.695 -1.175 -0.939 2.292 1.163 1.188 1.045 -2.192 -1.163 1.006 -1.760 -2.073 -0.614 0.071 0.047 1.112 0.684 -0.563 -1.959 -0.775 -1.124 -0.491 -0.946 -0.327 0.200 0.348 -0.301 -0.729 0.001 -1.740 0.020 -0.722 -0.721 0.255 -0.931 -0.379 1.499 1.312 0.446 -0.395 -0.827 0.025 0.726 0.558 0.160 0.682 0.697 0.671 0.877 -0.212 -0.117 -1.290 -1.100 1.425 1.181 0.431 0.385 0.051 1.486 -0.287 -0.718 0.873 0.081 -1.612 -0.195 -1.713 -0.558 -0.594 -0.322 0.680 2.369 -0.360 -0.806 0.839 -0.016
-1.006 -0.132 0.945 -1.961 0.783 0.215 -0.306 -1.057 0.263 -0.428 -0.104 -1.669 0.040 1.468 -0.042 1.096 -0.951 1.255 1.474 -3.192 0.815 -0.004 1.017 -0.084 0.635 0.597 -0.072 -0.410 1.324 0.582 0.831 1.520 0.453 -0.626 -0.176 1.479 -1.090 -2.859 -1.648 -1.716 -0.531 -0.696 1.107 -0.892 0.798 2.051 -0.740 1.111 0.272 -1.798 -0.200 0.023 1.398 1.447 -2.531 -1.967 -2.585 -0.369 -0.407 0.994 0.909 0.826 0.276 0.600 0.287 0.305 -0.583 -0.503 0.963 -1.376 0.090 1.487 -0.599 0.403 0.165 0.594 -0.851 0.492 -0.883 -0.004 0.207 -2.039 0.545 1.031 0.810 0.016 -0.244 -0.111 -1.093 0.198 -0.167 -1.124 -0.064 1.453 0.671 -0.167 0.462 -0.898 0.055 -0.783
-0.699 -1.311 0.669 -0.265 -0.133 0.971 1.263 0.581 0.269 0.450 1.112 -0.626 0.937 1.648 0.156 -0.841 2.078 0.454 0.722 -0.691 -0.547 0.859 -0.260 0.754 0.463 1.554 -0.563 -0.447 -0.999 -1.559 -1.404 0.177 0.637 1.439 -1.072 1.151 0.230 1.295 0.415 -0.128 -1.894 0.275 0.257 0.685 2.570 0.266 0.412 0.665 0.206 -1.790 -0.492 1.288 -0.596 2.134 0.140 -0.336 -1.615 -1.797 1.512 1.401 0.005 -1.545 -0.063 -1.216 -0.582 0.197 0.814 0.180 -0.533 -1.819 -0.322 0.151 -2.354 0.363 -0.025 2.233 -1.741 -0.222 1.391 0.544 -1.659 -0.192 -2.201 0.852 1.349 -1.564 0.021 0.195 0.053 0.785 0.597 0.472 1.196 -0.593 0.300 -0.259 -0.930 0.654 1.003 -0.083
-0.510 -1.817 0.667 0.323 0.070 1.755 1.041 0.194 -0.325 -1.196 -0.167 -0.522 -0.945 -0.121 1.397 0.614 0.330 0.168 -1.064 -0.057 -0.456 -1.368 -0.518 1.582 -1.045 -1.274 -0.706 -0.709 1.886 0.862 0.812 0.699 -1.611 -1.355 0.818 1.109 1.529 0.187 -0.620 1.494 0.412 -1.912 0.108 -0.132 0.042 1.472 -0.286 0.373 -0.733 0.880 0.048 1.488 0.417 -0.145 -0.695 0.038 -0.048 1.622 0.111 1.534 -0.260 -0.569 1.363 -0.500 -0.423 -0.231 0.159 1.162 -0.419 -1.324 0.528 1.147 -0.732 0.356 1.093 1.197 -0.267 -0.149 1.052 -0.128 -0.073 -1.007 0.761 0.158 0.458 -0.478 -0.872 -1.547 0.714 1.192 -1.144 -0.376 -1.750 -0.882 1.172 -1.644 0.804 -0.515 -0.907 0.648
0.027 0.400 -1.407 -0.711 0.619 0.914 -0.467 -0.800 -0.327 -2.175 -1.114 0.712 0.631 -1.519 1.444 -1.278 0.949 0.476 -0.409 0.039 -0.346 0.503 -0.273 0.171 -0.024 1.923 1.287 0.052 -0.343 0.257 -1.555 0.555 -0.419 0.263 -0.339 -0.539 1.236 -0.352 -0.853 0.906 0.101 -1.115 0.344 0.519 1.254 1.463 1.396 -1.054 -1.855 0.835 -0.461 -0.188 0.803 0.072 0.690 1.420 0.389 1.323 -0.808 1.066 0.858 0.593 -0.336 -0.599 -1.041 0.317 -0.153 0.865 -0.093 -0.452 -2.656 -1.012 2.089 1.700 0.524 1.524 1.068 0.454 -1.454 -1.311 0.482 -1.166 -0.691 0.285 -0.790 0.298 -0.565 -0.039 -1.093 0.319 0.160 -1.605 0.748 0.911 -0.360 -0.844 0.383 -0.622 1.196 1.055
-1.332 -0.719 -1.041 -0.232 -0.882 1.416 -0.612 -0.626 0.939 -0.808 -1.322 -1.294 1.279 -0.104 0.694 0.904 -2.267 0.001 0.670 0.500 0.193 -0.203 1.213 -0.672 -1.313 -0.012 0.719 0.544 -0.527 1.120 1.616 -0.406 -0.251 0.997 -1.642 -0.791 1.184 1.270 -0.012 -1.701 -0.874 0.311 2.215 -1.178 -0.012 -2.080 -0.509 1.281 0.316 -0.196 -0.011 -0.546 -0.891 0.405 -2.044 0.598 0.206 -0.385 0.477 -0.244 -1.084 -0.602 -1.061 -0.008 -2.012 -1.382 -0.630 0.534 -0.522 0.738 0.177 0.200 -0.491 -0.962 -0.824 0.736 -1.576 -1.839 -0.388 0.498 0.459 2.819 -0.140 -0.489 1.012 -0.463 1.641 -1.574 -0.282 2.535 0.980 -0.378 0.234 0.172 0.141 -1.272 -0.307 -0.810 0.878 0.690
2.166 0.469 1.498 0.291 0.918 -0.936 0.103 -0.178 2.044 -0.070 1.465 -1.906 0.163 -1.464 1.198 -0.237 -0.894 0.022 -0.666 -0.889 -0.055 0.203 -0.005 1.940 -1.002 -1.174 -0.760 2.044 -0.711 -0.739 -0.596 -0.378 -0.233 -0.030 -0.927 1.816 -0.767 -0.996 -1.236 0.449 2.165 0.323 -1.136 1.361 -0.066 1.438 -1.743 1.640 0.899 -0.555 -1.876 -0.092 0.381 -1.238 -0.138 1.277 1.039 0.375 -0.066 0.980 0.953 0.823 1.376 0.220 -0.142 0.733 -1.094 0.569 0.582 0.704 -1.283 2.274 -1.515 -0.904 0.916 -0.982 -0.085 -0.422 0.516 -0.442 -0.195 -1.673 -0.012 -0.350 -0.382 -1.446 1.013 -1.101 0.125 0.425 0.491 1.271 1.025 0.940 0.337 -0.061 0.561 -2.080 0.256 0.156
-0.380 2.055 0.547 0.869 -0.176 -1.434 -1.833 0.829 -0.996 0.528 1.829 -0.542 -0.939 1.931 0.650 -0.968 0.607 -0.516 -0.241 0.007 1.385 -0.580 -2.487 -1.545 -0.259 1.373 0.487 0.894 -1.089 -0.027 -0.877 0.031 -0.616 -2.403 -0.279 0.200 -0.523 -0.016 -1.012 0.453 -1.358 0.331 -0.844 2.473 0.054 1.756 0.279 -0.661 0.669 -0.290 -1.509 0.218 -3.194 0.940 2.222 0.952 0.214 -1.681 0.226 0.408 -0.137 -0.946 -0.519 1.040 0.796 0.610 1.512 0.584 -0.274 0.617 -0.306 -0.170 0.374 -0.815 0.379 0.849 -2.105 -0.347 0.330 0.205 1.399 -0.272 -2.773 -1.091 -0.042 -0.847 -0.820 -0.228 -0.734 -0.677 1.056 0.977 0.118 1.149 0.300 -0.509 2.408 0.104 1.068 1.143
0.434 1.561 1.307 0.862 0.343 -0.746 -0.051 -0.373 -1.377 1.583 -1.351 0.296 1.317 0.304 0.308 -1.047 -0.298 0.927 -0.507 0.763 1.740 -1.401 0.100 -1.095 -1.014 2.006 -0.974 1.240 -0.530 0.292 -0.337 0.452 -0.585 -1.023 -0.600 -0.786 -0.780 -0.187 0.068 0.551 -0.543 0.531 0.739 -0.700 -0.560 1.217 0.946 2.640 -2.480 -0.754 -1.193 1.527 0.351 -0.246 1.124 1.065 -0.730 -0.131 0.199 1.048 -1.095 0.085 -0.085 -1.190 0.273 0.902 -1.332 -0.661 0.400 -1.071 1.820 0.736 -0.151 0.763 0.193 -0.900 -0.911 0.486 0.147 0.408 0.147 -2.066 -0.835 -0.995 0.303 0.022 -0.306 2.478 0.494 -3.104 -0.916 -0.765 0.577 0.630 -0.133 1.724 -1.089 0.271 -0.904 1.227
0.195 1.016 -0.174 -0.697 -1.461 0.114 -2.149 -0.146 0.790 1.456 -0.755 -1.816 0.096 1.081 0.773 -1.364 -0.481 -0.034 -1.206 -1.818 -0.063 -0.609 -1.153 0.273 -0.131 -0.513 -0.444 -0.921 -0.904 0.591 -1.474 0.407 -0.467 -0.427 0.826 1.894 -0.496 -0.221 -0.832 -0.181 -0.874 1.057 -0.279 0.260 -0.280 0.515 0.988 1.197 0.990 1.008 0.553 -0.331 0.189 -0.015 0.079 -0.287 0.902 -0.072 -0.564 1.440 -0.015 0.465 -0.155 0.250 -1.182 -0.250 1.939 -0.424 0.112 1.837 0.812 0.792 0.518 -0.940 0.753 -0.802 -0.729 -0.099 -1.156 -1.281 -0.918 1.547 -0.625 0.149 -0.118 -1.591 0.185 0.742 0.828 0.203 -1.010 -0.369 0.106 0.425 0.259 0.497 -0.455 0.318 0.417 -0.239
1.098 0.177 -0.159 -0.912 0.202 0.133 2.196 -1.352 0.309 -0.786 2.817 1.495 -1.929 0.202 1.200 -0.464 -0.774 1.264 1.911 -0.045 1.127 -0.668 1.253 0.197 2.049 -0.413 0.991 0.201 0.582 0.004 0.883 -1.384 -0.104 1.247 -0.007 -1.069 0.083 -0.361 -0.232 0.310 0.384 -0.416 0.486 -1.090 -1.875 0.394 -0.287 1.129 0.534 -0.308 -0.442 -0.131 -1.279 0.168 0.950 0.081 0.210 0.474 0.900 -1.353 -0.858 0.530 0.342 0.977 0.579 -2.465 -0.057 1.301 -1.358 -1.463 0.890 0.855 -0.472 -1.708 -2.422 0.915 0.533 -0.081 1.201 -0.393 -0.172 0.232 1.236 -2.154 -0.813 1.770 0.704 -0.788 0.669 -1.540 0.702 0.346 1.073 1.308 1.358 1.781 0.324 1.171 1.860 0.509
-1.246 0.901 -0.392 -0.309 0.985 -0.632 0.462 -1.685 -0.028 -0.215 -0.086 0.835 -0.107 -1.206 0.290 1.488 0.409 -1.581 0.255 0.840 -1.341 -0.582 -0.578 -0.271 0.537 0.057 -1.471 -1.985 -0.297 0.901 1.168 0.927 0.826 -0.538 -0.577 -0.909 -1.021 -2.963 -1.834 1.796 -0.025 0.433 2.942 0.577 1.204 0.206 -1.020 0.432 -0.602 0.114 1.072 0.748 -0.750 0.215 -0.929 0.621 0.111 0.461 1.410 -0.352 -0.973 1.496 1.115 -0.421 -0.465 0.932 1.587 0.306 0.209 0.071 -0.902 -1.816 -1.426 1.181 0.126 -0.418 -0.361 -1.719 2.088 -0.956 0.301 0.343 -0.639 -1.692 -0.467 -0.012 1.052 0.077 1.249 -1.738 -0.186 -0.452 -0.652 1.829 1.135 0.004 0.060 -0.183 -0.192 0.255
-1.427 -0.198 0.364 -0.123 1.377 -0.108 1.250 1.093 -0.060 -0.237 -0.221 0.607 -0.849 0.948 0.131 -1.880 -0.561 1.531 0.647 -0.537 -0.499 1.157 0.430 1.326 0.975 0.381 1.243 -0.978 -0.341 -0.250 0.826 -1.398 -0.485 0.800 0.299 -0.704 0.508 0.944 -0.525 -0.360 -0.917 -0.409 -0.057 -0.681 0.561 -0.892 0.010 1.040 0.438 -0.884 0.309 1.177 0.310 -0.434 0.002 0.930 -0.488 -1.345 0.397 0.136 -0.478 -0.627 1.883 0.343 0.797 1.044 0.256 1.401 -0.868 -1.051 1.158 -0.244 2.187 -0.921 -0.325 0.764 1.349 -1.661 -1.819 -0.175 0.596 -1.246 2.015 -0.100 0.722 0.125 1.717 0.812 -0.231 1.411 0.071 0.029 1.116 -0.057 -1.018 0.742 0.546 -0.977 0.709 0.087
-1.777 -1.141 1.512 0.335 1.057 0.152 -0.357 0.225 0.088 2.774 -0.287 0.920 -0.022 0.359 -1.534 0.439 -0.345 0.129 1.999 0.264 -0.496 -1.704 0.541 -1.027 0.882 -0.720 -0.531 -0.770 -1.282 -0.698 1.666 -0.510 0.843 0.748 -0.609 0.956 0.722 -0.242 1.867 -1.809 0.431 -0.685 -0.149 1.888 0.396 0.764 -2.988 0.432 1.335 -0.753 0.942 -0.510 -0.104 -0.474 -0.109 -0.347 0.302 -2.126 2.529 0.847 0.069 0.434 -3.207 0.349 0.590 -0.248 0.266 0.348 -0.653 -2.137 2.158 1.481 -1.210 1.407 1.119 -0.110 0.867 0.913 0.724 -1.058 -0.554 -0.050 -1.461 0.234 -0.722 0.875 0.628 -1.977 0.144 1.950 0.638 -0.271 0.701 1.870 0.275 -2.243 1.220 -2.537 -0.509 1.214
-0.894 1.148 -2.138 -0.501 0.109 0.326 1.572 -2.341 -1.264 0.906 0.490 -0.967 0.560 -0.562 -0.603 -1.010 -0.853 2.826 -0.851 -0.494 1.461 0.258 -0.813 -0.218 -0.041 -0.046 1.141 2.758 0.879 0.279 -0.243 -1.606 0.500 0.292 -1.651 -0.159 -0.461 -0.413 0.064 0.602 -0.280 0.937 -0.539 -1.771 -0.366 -0.159 -1.777 -0.351 -0.231 -0.246 1.445 1.171 0.118 0.351 -1.584 0.498 0.347 -0.940 1.039 0.779 0.470 -1.655 -0.771 -0.088 1.774 1.890 0.735 1.273 1.274 -1.493 -0.227 1.018 0.203 -0.767 0.102 -1.159 -0.811 1.590 -0.498 -1.231 -1.485 -0.649 -1.143 0.536 -0.303 1.429 0.283 0.915 -1.382 -0.775 0.646 0.481 1.304 -0.115 -0.061 -0.219 -0.734 -0.814 0.285 -1.591
-0.357 0.688 0.764 0.338 -1.744 0.867 0.116 -0.121 -1.432 0.384 -0.396 -1.270 0.300 0.127 -1.083 2.529 0.617 0.152 0.355 1.394 0.309 1.860 -2.875 0.147 1.143 0.061 1.636 -0.819 -2.228 0.317 1.426 -0.986 -2.241 0.183 -0.673 -0.331 1.328 0.814 0.925 -1.831 -0.776 0.041 2.388 1.671 -0.248 -1.615 -0.764 1.032 0.706 0.469 1.634 -0.499 0.511 0.146 1.919 0.096 -1.776 -0.402 0.724 0.309 -1.153 -0.117 -0.494 -0.203 0.008 -0.925 -1.854 0.438 2.040 -0.210 -0.489 1.494 -0.204 1.997 1.582 -1.291 0.551 0.621 0.593 -0.379 1.231 0.699 0.769 0.014 0.087 -1.238 0.990 1.264 0.139 -1.642 -1.512 0.323 -0.922 3.492 0.093 -1.442 0.020 -0.573 0.637 0.112
0.630 -1.008 0.600 -0.614 -0.999 1.314 -0.606 -0.284 -0.654 -0.174 -0.244 -0.146 0.763 0.615 0.181 -2.140 0.553 -0.419 -0.545 -1.656 1.002 -1.863 0.809 -0.933 0.664 0.582 -0.480 -0.201 -1.389 -0.035 0.202 0.182 0.316 -0.264 -1.479 -0.338 -0.666 -0.016 0.676 1.482 0.046 -0.587 0.854 0.365 -0.431 0.700 -0.079 0.535 -3.113 -2.447 -0.645 0.531 -0.082 0.128 0.283 1.244 -0.535 1.513 -1.869 0.103 0.940 -0.229 0.818 -1.069 -0.369 -0.323 0.142 -0.386 -0.003 1.499 1.517 0.232 -0.178 0.351 -0.237 0.796 0.717 -0.939 -1.128 0.386 -1.071 0.998 -0.759 2.245 0.091 -1.372 -0.109 1.349 -0.400 0.595 -0.728 -0.586 -1.497 1.309 -0.266 -1.459 -0.388 1.654 -0.975 -0.283
-0.390 -0.605 0.998 0.739 0.430 -0.051 -0.818 0.464 -1.399 0.128 0.248 -0.702 0.305 -0.633 -0.747 1.221 0.770 -0.912 -0.828 0.712 0.932 0.690 -0.100 0.867 1.637 2.037 2.079 1.967 1.079 0.158 -1.007 -0.182 0.949 0.006 0.433 -0.505 0.230 0.792 -1.196 0.177 0.532 -1.244 0.222 0.522 -0.966 -0.447 0.164 -0.237 1.220 0.479 -1.176 -0.549 1.353 -1.518 1.017 0.898 0.432 0.930 0.501 0.388 -1.211 -0.978 -0.639 -0.782 1.083 -1.008 0.927 0.731 -2.076 0.245 1.716 1.030 1.433 0.465 -1.140 0.008 1.264 -1.267 -0.856 1.324 1.555 -0.309 -1.359 -0.427 -3.152 -1.251 -0.277 0.881 -2.387 -1.883 -0.237 1.301 0.171 -1.351 -0.994 -1.526 1.847 1.180 -1.785 2.635
0.447 -0.411 -0.289 -1.250 0.433 0.310 0.143 0.566 0.532 0.578 2.355 2.252 -0.493 -1.496 -0.439 0.634 0.510 -0.838 0.197 -0.177 -1.540 -0.452 -0.860 0.076 1.989 1.255 0.814 0.698 -1.022 1.877 -0.384 0.043 -1.850 -0.612 -0.248 -0.497 0.124 0.053 0.411 -0.421 0.790 0.231 -0.520 -0.087 -0.297 -1.952 -0.499 -1.277 -1.055 2.618 -0.399 2.218 -0.556 0.514 -0.577 0.891 0.631 -0.878 -0.118 0.621 -0.238 -1.493 0.054 0.864 -1.028 1.011 0.366 0.307 1.386 2.175 0.222 0.789 -1.368 -0.283 -0.861 1.403 2.912 0.770 0.064 -1.011 0.864 0.462 0.491 0.217 -0.257 -1.909 -0.014 0.073 0.385 -0.681 -1.395 -0.421 -0.616 0.924 0.514 1.411 0.664 -2.010 0.385 -0.267
0.412 0.763 -0.910 -0.108 -0.109 -0.771 -1.214 -0.605 -2.241 0.822 0.750 1.186 -1.258 -0.911 -1.750 2.346 -1.296 1.174 -0.235 0.806 -1.626 1.249 -0.385 0.232 0.234 -0.760 0.525 1.007 0.718 2.055 0.741 1.818 -1.310 1.052 -0.110 -0.812 -0.565 -0.860 -1.008 -0.120 -0.123 -0.821 0.190 0.563 -0.593 0.637 0.056 -0.455 -0.255 -1.277 0.615 0.642 -0.043 0.561 0.106 0.439 0.159 -1.096 -1.989 -0.973 0.808 -0.852 1.119 -1.263 2.565 -0.057 -1.117 -1.489 0.064 0.502 -1.596 -1.051 -0.765 0.420 -0.007 -1.580 -2.192 0.278 0.689 0.599 -0.152 -1.417 -0.932 -0.316 0.719 -1.628 -0.662 -0.246 0.211 0.051 1.342 -0.231 0.268 0.420 0.916 0.356 1.321 -0.448 -0.096 1.729
-1.568 -0.743 0.544 0.025 2.746 0.475 0.273 -1.013 1.040 0.225 1.825 -0.577 0.044 0.957 -1.376 -0.770 0.425 0.236 -1.379 -1.131 -1.639 -0.441 -0.570 -0.782 -0.605 -2.155 -0.681 0.409 -1.802 0.950 -0.746 2.427 0.119 0.441 -0.100 -0.274 0.303 0.166 2.453 -1.095 -0.579 -1.643 -0.387 1.010 -1.389 1.497 -1.356 0.515 0.030 0.584 -0.304 0.307 -1.342 -0.054 0.328 -0.064 -0.596 0.688 1.174 -0.258 0.322 -1.424 0.681 -0.030 0.652 -0.286 0.476 -0.882 -1.098 -1.000 -0.315 0.667 0.366 1.817 -0.436 1.318 -0.007 1.637 -0.933 -0.741 1.660 0.216 1.019 0.191 -0.376 -0.466 -0.182 0.081 0.146 1.163 -0.816 -1.025 2.092 0.164 -1.531 -0.039 -0.041 -0.454 0.542 -0.831
-0.031 0.696 0.354 0.182 -0.238 -1.425 0.602 0.482 0.980 0.488 0.699 -1.496 0.162 -0.958 0.341 1.531 -1.203 0.262 -0.211 -0.574 -1.129 2.617 0.556 1.403 -1.011 -2.336 -0.138 1.279 -0.207 -0.447 1.285 1.921 0.125 -0.366 -1.237 -1.925 2.269 0.116 1.371 -0.713 -0.286 -0.573 0.993 0.528 -0.416 0.760 0.691 -0.299 0.082 0.215 -0.617 -1.136 1.612 -0.467 -0.225 -1.362 1.222 -0.000 -1.277 0.291 0.045 1.248 -0.756 -1.221 0.474 -0.568 0.840 0.272 -0.906 1.071 1.741 -0.561 -0.458 0.015 -0.102 -0.815 -0.166 -1.384 -0.366 2.386 -1.009 -0.351 -2.202 -0.767 0.965 -0.338 -2.055 -1.035 0.390 0.022 0.948 -0.733 0.515 0.148 -0.094 -0.202 -0.444 -0.763 0.022 -2.054
-0.885 -1.234 -0.155 0.589 0.453 1.208 -1.068 1.254 0.586 0.422 0.528 -2.056 -0.208 0.852 -0.049 0.317 0.149 0.747 -0.133 -1.177 1.912 -0.591 -0.680 0.556 0.526 2.371 -1.390 0.990 0.407 0.805 -0.351 0.274 0.760 -1.935 -1.122 -0.621 -0.559 0.181 0.765 1.120 -1.289 -0.700 0.179 0.440 1.670 -0.948 -1.149 1.095 -0.060 1.103 0.608 -0.480 0.847 -0.258 0.738 -0.893 -0.330 -0.353 0.571 -0.391 -0.935 0.987 0.075 0.542 0.194 0.259 0.042 -0.230 -2.203 -1.375 0.923 0.214 -0.224 1.113 -0.242 1.083 -0.531 -1.101 0.284 -2.786 -1.000 0.504 0.114 0.735 -0.223 0.660 0.982 -0.121 -0.738 -0.354 0.762 -0.918 -0.012 1.292 0.520 0.137 0.128 0.529 0.400 0.862
0.453 -1.015 1.276 1.397 -1.379 -0.103 0.458 1.848 -0.165 -0.481 0.287 0.124 -0.461 -0.220 1.289 0.529 0.553 0.765 0.456 -0.450 -0.853 -0.642 -0.433 0.783 -0.622 -1.436 -0.543 1.466 0.181 -1.830 0.082 -1.510 0.673 1.955 -0.168 -3.295 -0.473 -1.223 -0.517 -0.378 -1.776 0.799 -0.215 0.998 0.077 -0.755 -0.323 0.730 0.699 0.584 0.096 -1.184 0.547 0.326 1.284 -0.075 1.519 -0.449 -1.264 0.332 0.146 -0.587 0.213 0.945 -0.490 -0.214 -0.848 -1.306 0.436 0.145 -1.202 -1.744 -0.665 -0.599 0.813 -0.178 0.019 -0.634 -0.378 0.107 0.181 0.147 0.030 -1.300 0.087 0.893 -0.893 -0.331 0.662 0.015 1.401 0.553 -1.497 0.122 -0.434 -1.432 -0.330 -1.174 0.041 1.458
-0.456 1.781 -0.686 -0.355 0.885 -0.701 0.478 0.908 -1.894 -0.175 1.250 -0.089 -0.235 -1.790 -0.651 -0.468 0.218 -1.121 -1.324 -0.420 -1.977 1.456 0.600 -0.624 0.887 -0.701 -1.808 0.827 1.307 1.412 -1.024 -0.036 -0.358 0.406 0.309 -0.657 1.784 0.046 -0.377 0.029 1.211 0.283 -0.286 -0.325 -1.233 -0.109 -0.284 0.294 1.474 -0.979 -1.136 -0.401 -2.139 -0.980 1.099 -0.237 -0.606 1.604 0.550 -1.134 -0.042 -0.263 -0.496 0.807 -0.225 0.289 -1.068 1.140 0.508 -0.325 -0.975 0.280 -0.276 1.134 -1.140 0.885 0.287 -0.121 2.045 -2.370 1.776 -0.477 0.461 -0.718 0.537 0.104 0.130 1.310 0.041 0.594 0.438 -0.678 -0.148 0.301 -2.056 -1.165 0.511 -0.074 1.235 1.793
-0.976 0.891 1.082 0.411 0.471 0.675 -1.069 0.211 0.645 -0.070 -0.792 -0.123 0.134 -1.022 0.927 1.021 1.334 -0.468 0.154 0.460 0.731 0.342 -1.294 -0.866 -0.689 2.259 0.484 1.407 -0.942 -0.160 -0.413 -0.614 -0.680 1.953 -0.378 -0.040 -0.652 0.121 0.604 0.868 -2.204 0.121 0.868 1.257 0.602 -1.779 1.882 -1.441 -0.082 1.645 0.803 0.231 -0.196 -1.396 -0.617 0.673 0.398 0.079 -0.536 -0.487 -0.832 -0.884 -1.215 -0.394 -0.511 -1.643 -0.582 0.421 0.090 -0.239 -0.486 0.500 0.025 0.053 -0.644 -0.823 0.168 -0.773 0.659 1.825 -1.901 -0.398 0.889 0.089 -2.329 0.561 -0.214 0.105 1.355 0.539 0.629 0.516 1.683 -1.137 1.779 -0.724 -0.306 -0.443 -0.554 0.403
0.770 0.520 -0.492 1.075 -0.823 0.460 -0.233 1.552 -0.654 -0.404 0.694 -0.393 0.129 -1.399 -1.982 0.120 0.680 0.533 -0.060 0.453 0.598 0.422 0.593 0.778 0.215 -1.979 0.090 0.886 -0.281 -1.002 0.925 -0.033 -0.478 -0.124 0.299 -2.709 -0.785 0.671 -0.001 0.508 -0.274 -2.028 0.380 1.170 1.346 0.168 0.642 -3.022 0.097 0.604 -0.921 -0.199 -0.356 -0.316 0.268 1.179 2.097 0.399 0.509 1.452 -1.265 0.582 0.687 0.891 0.770 -0.487 2.557 -0.180 1.142 2.194 -1.429 0.144 1.382 -1.622 -1.165 0.283 -0.995 1.640 0.798 0.330 -0.296 -0.590 0.716 0.293 -1.332 -0.286 0.561 0.294 1.607 -1.544 0.588 -0.004 -2.634 -0.451 0.235 -0.859 0.477 0.879 -0.582 -0.576
2.498 -0.176 1.318 2.059 -0.620 -0.842 0.234 1.013 -0.619 -1.184 -0.419 -0.583 0.427 1.146 0.798 -0.343 -0.073 -0.249 -0.490 1.226 -0.113 -1.122 0.700 -0.881 0.502 1.190 1.631 -0.180 -1.716 -0.405 1.505 0.615 1.150 1.998 1.018 -0.177 0.912 -1.346 1.214 0.081 -0.954 0.328 0.972 -0.402 0.098 0.053 0.492 0.681 0.124 0.399 -0.516 -0.351 -0.345 -0.975 -0.255 1.767 0.161 -2.294 0.403 -0.246 1.569 -1.480 -0.026 -1.078 0.125 -1.663 0.226 -1.225 -1.295 -0.637 0.036 1.226 -0.673 -0.143 0.808 1.179 0.386 -0.611 0.911 -0.712 -0.737 -0.322 -1.393 0.693 -0.941 0.136 0.782 0.362 1.203 -0.526 -0.497 1.544 1.076 -0.019 0.335 -2.210 1.776 1.253 -0.145 -0.748
-0.717 -0.916 -1.094 0.445 -0.131 -1.311 0.545 0.226 0.854 -0.655 0.780 -0.823 -0.671 2.048 -2.221 -0.564 -0.679 -0.199 0.325 -0.076 1.107 2.772 0.494 0.681 1.177 0.877 -1.381 1.262 0.096 -2.287 -0.453 1.780 -0.629 0.115 -0.583 -1.277 -0.896 0.466 -0.335 -1.031 0.034 1.324 0.166 0.160 0.542 -0.743 0.423 1.639 1.858 -1.272 -0.326 2.009 1.025 -1.339 1.392 -1.356 -0.124 -0.987 0.557 -0.160 -0.357 0.100 -1.435 -1.276 -0.625 1.743 1.344 0.244 -1.473 -0.580 0.165 1.481 -0.004 -1.507 0.004 -2.208 -0.515 0.522 0.254 1.564 -1.964 -0.230 -0.999 -1.656 -0.213 -1.642 -0.636 -0.088 -0.666 -1.103 -0.481 0.298 -0.667 -0.694 -0.216 -0.420 -0.026 -0.367 0.275 0.239
-0.070 1.348 1.239 0.690 1.569 -2.207 -0.037 -0.311 0.102 0.689 -0.787 -0.728 -0.861 -0.591 -2.277 -0.147 -0.771 0.488 0.645 0.100 0.625 -0.538 0.401 -0.072 -0.295 -1.555 -0.088 -0.071 -1.029 1.194 -0.264 -1.455 -0.571 0.932 -1.635 -0.102 -0.611 0.559 -0.372 -0.453 0.296 0.990 0.713 0.588 0.524 0.354 0.023 0.245 0.454 1.221 -1.339 0.605 0.713 -0.242 -0.281 0.061 -1.021 -0.210 0.153 -0.318 -0.216 -0.519 -0.159 2.093 -0.716 -2.010 1.559 0.243 -1.387 -0.871 1.274 0.931 0.191 -0.692 1.473 0.702 0.782 0.521 1.476 -1.507 0.914 1.034 -0.427 -0.735 0.680 0.636 -0.747 2.274 -0.036 0.538 0.421 0.875 -0.039 -1.686 1.096 -1.201 -0.964 0.367 0.534 0.289
1.040 0.570 -0.498 1.443 0.384 -1.050 -0.702 -1.378 0.755 0.752 -0.310 -0.764 -0.540 0.717 -0.396 0.068 -0.413 0.742 1.243 0.054 0.418 -0.902 0.317 0.146 0.074 -0.240 -0.279 -1.018 0.422 -1.070 1.497 -2.359 0.332 -0.481 -1.555 1.802 -0.977 0.750 -1.087 -1.120 -0.652 -0.134 0.858 -1.300 -0.134 1.063 1.211 -1.993 -1.324 0.807 2.503 -0.273 1.883 -0.800 0.064 0.815 -0.485 0.628 0.356 -0.155 -0.353 -1.432 1.059 1.257 0.076 0.790 -0.882 -0.777 1.292 -0.431 0.809 0.212 0.885 -1.103 1.896 1.003 -0.189 -0.795 -0.858 -1.566 1.497 1.920 -0.048 0.074 -0.653 -1.636 0.024 0.796 -0.285 -0.989 -0.868 0.188 -0.968 0.099 -0.403 0.425 0.900 0.663 -0.933 0.449
0.018 -1.188 -0.309 1.096 1.634 1.413 0.307 -2.122 -0.985 -0.556 -0.430 -0.268 -0.776 -1.431 0.555 1.830 -0.181 -0.251 -0.163 0.861 -1.405 -3.017 -2.007 -0.490 0.239 0.141 0.071 -0.977 -0.553 -1.129 2.582 0.216 0.731 1.352 1.621 0.520 -0.137 0.767 1.089 -0.415 -2.140 1.581 0.344 2.045 -0.721 -0.591 1.780 0.144 -1.012 0.354 -0.182 -0.688 -0.342 -0.492 -0.240 0.409 0.358 -1.041 0.339 0.787 1.327 1.233 -1.586 -0.168 0.234 1.410 0.593 -1.467 -0.132 0.469 2.590 -0.678 -1.945 1.046 -0.070 -1.229 0.859 0.253 0.663 1.104 -0.614 -0.215 0.789 0.515 0.997 -0.263 -0.369 -1.546 -0.159 1.237 -0.758 -0.508 0.685 0.692 0.837 -0.370 -0.074 0.352 -1.306 0.410
0.221 -1.383 -0.857 -1.351 -0.535 -1.505 -1.348 0.370 -0.048 0.091 -1.648 0.809 0.138 0.197 1.180 -1.237 0.610 0.634 -0.277 -1.259 0.358 0.576 -0.775 -0.109 -0.304 -0.628 0.573 0.066 -1.140 0.688 0.201 -0.452 -0.522 -0.476 -2.662 -0.235 0.037 0.395 -0.841 -0.549 -0.305 0.754 0.262 -1.033 -1.359 -0.821 -0.167 -0.804 1.209 1.717 -1.219 -0.485 0.200 0.329 -0.470 -0.635 -1.906 -0.105 -0.096 -1.471 -1.036 -0.711 1.045 1.614 -0.024 -0.583 -0.065 0.886 -0.890 1.340 0.127 -0.679 -2.186 -0.698 0.625 0.295 -0.929 0.196 -0.169 2.772 0.956 -0.113 0.212 -1.418 -1.699 1.774 0.012 -1.481 0.883 -1.536 0.363 0.517 -1.636 2.353 0.229 0.004 0.548 -1.679 0.432 0.841
-0.872 -0.486 -0.508 -1.493 -0.530 1.753 2.134 -0.414 0.877 -1.565 -1.184 -0.054 1.876 -2.198 -1.948 -0.945 -0.016 -1.478 -1.681 1.024 -0.491 -0.511 -1.806 0.164 -0.020 0.206 0.303 -0.303 0.090 -1.188 1.666 0.355 -0.314 -0.868 -0.746 -0.482 0.792 -0.447 -1.818 0.314 -1.051 1.027 -0.179 -0.612 0.272 1.278 1.485 0.679 -1.428 0.062 -0.553 0.047 -0.890 0.840 0.344 -0.289 0.015 1.316 0.550 1.104 -1.210 1.258 0.045 -0.780 -0.469 0.366 -2.060 -1.024 -0.327 -0.207 0.601 0.324 -0.432 -0.341 0.111 1.230 -0.225 -0.813 1.660 -0.076 -0.138 -0.015 0.201 -0.651 -1.021 0.451 0.331 0.081 0.563 -0.702 0.276 -0.103 -0.087 0.797 0.287 1.700 1.819 1.440 0.722 -1.117
0.530 0.135 0.678 -0.257 0.026 -1.399 -0.894 0.268 0.700 1.764 0.034 0.946 0.189 -0.901 -2.017 1.616 1.421 -1.224 1.200 0.088 -1.314 1.004 1.136 -0.066 1.923 1.059 0.383 0.866 0.183 0.337 -0.365 -1.107 -0.596 0.998 0.469 -2.474 0.586 -1.407 -1.168 0.212 0.354 -0.323 -0.188 1.087 0.357 0.750 0.489 1.629 0.840 -0.574 0.292 -1.817 -0.313 0.966 1.805 0.251 -0.442 0.783 -1.280 -0.135 -0.947 -1.439 0.310 0.798 -1.159 -0.022 -0.306 1.121 1.995 0.188 0.910 0.396 0.004 0.152 1.744 0.596 -0.103 -0.541 -0.366 -0.804 0.519 1.274 0.402 2.161 0.254 1.718 -1.139 0.753 0.012 -0.371 1.394 -1.895 0.385 0.052 -0.254 -0.045 -1.003 -2.381 -1.417 0.468
-0.136 -0.490 -0.702 0.628 1.181 0.963 0.580 0.513 -0.734 -1.252 -0.539 1.550 0.017 1.399 -0.285 -2.193 -0.790 -1.033 -0.540 0.311 0.216 -0.552 0.731 0.024 1.063 0.114 -0.404 -1.771 0.576 -0.285 -0.621 -0.726 -1.501 -0.880 -0.281 0.426 -1.465 -0.546 0.933 0.539 1.301 0.890 1.916 0.118 0.919 -0.511 -0.815 0.446 0.231 -0.095 -2.344 -0.647 0.113 1.077 -0.907 1.842 -1.390 -0.259 0.167 -0.541 -0.881 -2.094 -0.217 -1.772 -0.661 0.646 0.896 -0.743 -0.032 -0.320 1.048 -1.915 -1.946 -0.019 -0.185 -0.483 1.653 -0.274 -2.067 0.077 -1.059 -0.815 1.187 -0.420 2.268 -1.869 0.640 0.765 0.104 0.242 -0.180 0.703 1.453 -1.838 0.068 -0.082 0.288 0.345 -1.312 0.164
1.639 0.672 -0.433 0.725 0.457 0.883 0.756 -0.705 0.755 0.151 0.444 -0.039 -0.157 -0.570 -0.657 -1.114 -1.243 0.764 0.468 -0.326 -1.593 -0.167 -0.431 -0.097 1.082 0.197 1.192 -1.270 0.429 -0.261 1.196 0.180 0.851 0.549 -1.616 -1.188 0.303 2.605 0.341 0.288 -1.248 -0.287 -0.609 -1.826 1.337 -0.814 -1.208 1.063 0.358 -0.644 -1.340 0.171 -0.528 -1.078 0.124 -0.159 0.535 0.392 0.330 1.066 -2.284 -0.523 1.141 0.107 0.490 -0.060 -1.270 -2.003 1.115 0.119 -0.110 -0.479 0.751 1.796 -0.763 0.648 -1.141 0.121 0.573 -0.293 1.109 -0.811 0.168 0.511 0.417 0.082 0.397 0.522 -1.907 -0.876 1.519 0.086 1.154 -1.698 3.402 -1.213 -0.896 0.199 1.020 0.919
-1.215 2.287 1.427 1.332 -0.393 -0.419 1.077 -0.187 0.736 0.209 0.193 0.230 -1.403 1.798 0.662 -0.583 2.231 -0.946 -1.518 -0.389 1.050 -2.077 0.487 1.370 -0.072 0.777 -0.342 0.922 1.732 0.440 -0.691 -0.277 0.548 -0.903 -0.322 0.464 -2.636 0.789 -0.242 0.300 0.133 -2.786 0.513 -0.952 -0.246 -0.075 -1.050 0.340 0.946 -1.360 0.647 0.849 0.718 0.728 -0.191 0.612 1.354 -1.219 2.948 0.907 -0.432 2.570 -1.055 0.301 1.073 -1.371 0.749 -1.993 1.609 -1.047 0.212 -0.259 -0.290 0.833 0.377 -0.555 1.412 -0.081 -0.290 0.431 1.025 0.096 -0.595 -0.049 0.212 0.382 -1.912 0.875 -0.904 0.102 -0.179 -1.784 -0.253 -0.843 1.630 -0.598 -0.902 0.116 0.280 -0.619
1.399 -0.658 -0.486 -0.344 0.301 -0.449 1.038 0.586 -0.342 0.522 0.970 0.051 0.125 0.923 0.084 1.850 -0.490 -0.150 0.818 0.708 -2.506 0.994 1.295 0.037 1.074 0.014 -1.685 0.147 -0.241 0.528 0.059 -0.838 0.031 0.741 1.233 -1.277 0.499 1.212 -1.034 -0.939 0.401 -0.383 -0.347 0.390 0.895 -1.565 0.440 1.084 -0.191 -1.083 -0.404 0.479 -0.271 1.028 -0.094 0.477 -0.254 -0.949 -0.310 -1.188 -1.023 -0.397 -0.196 -0.613 -1.535 0.482 0.550 0.030 -0.732 2.093 0.644 -0.119 -0.440 -1.923 0.682 -0.097 1.305 -1.279 1.769 -0.975 -0.322 -0.075 -1.552 -0.496 -0.850 1.054 0.355 0.451 0.038 0.518 0.353 0.111 -0.405 -0.552 0.604 0.880 -0.536 1.684 0.527 1.461
1.109 0.603 1.183 0.206 1.802 0.242 -0.669 0.409 0.406 0.338 0.239 0.210 1.482 -0.989 1.574 -0.405 1.001 0.771 -0.074 0.899 0.423 1.285 -1.007 -0.448 1.077 -0.469 0.374 1.066 1.196 -1.101 0.971 -0.196 -0.237 0.937 -0.172 0.589 0.156 0.586 1.429 -0.838 0.787 -2.430 0.160 1.172 1.436 0.417 -0.254 1.296 -1.164 -1.449 -0.142 0.118 -0.155 -2.213 0.601 -0.572 1.571 -1.998 0.180 0.198 -0.090 -0.234 -0.266 1.363 -0.226 -0.857 2.175 -0.538 -1.309 0.497 -0.775 2.138 0.723 1.358 1.746 1.373 0.694 0.844 0.805 2.137 1.825 -2.463 0.126 0.722 -1.818 -1.720 0.029 0.812 0.556 1.264 0.922 1.239 0.157 -0.132 0.353 1.406 0.305 -0.401 0.713 0.070
0.011 -0.674 1.084 0.219 0.629 -0.718 -0.255 0.091 0.511 -0.917 0.833 -0.345 1.093 1.419 -1.581 1.106 0.624 1.091 0.545 0.932 -1.159 -0.784 -1.099 0.697 -1.361 1.070 0.098 -0.403 0.392 -1.367 -0.473 0.726 -0.602 1.087 1.509 0.142 -0.936 -0.376 -0.273 1.337 0.308 -1.866 0.083 0.352 0.758 0.095 0.080 0.714 0.374 -0.746 0.936 0.050 0.794 -0.020 1.507 1.424 -0.850 0.682 -0.680 0.199 0.544 -0.846 -0.683 1.186 -1.250 0.825 0.437 0.186 0.400 -0.423 0.318 -0.184 0.707 0.456 0.338 1.081 0.099 1.775 -1.414 1.131 0.445 -1.291 -0.725 0.987 -0.481 -0.321 -1.197 -1.181 1.994 -0.705 1.206 0.882 0.790 1.071 0.029 -1.192 -0.256 -0.472 -0.515 -0.671
-0.282 -0.280 1.683 0.076 -0.210 0.392 -1.181 0.147 1.137 0.901 -0.784 -2.429 0.561 -0.937 -1.405 0.206 -1.362 0.485 0.223 1.215 -0.484 0.112 0.451 0.971 2.366 0.710 -1.182 0.721 0.091 -1.270 0.635 -0.043 -0.450 -1.202 -1.630 0.732 2.027 -0.019 0.072 -0.592 -0.844 -0.552 0.349 0.691 -0.079 0.583 0.669 -0.248 0.066 0.231 -0.563 0.030 -0.182 0.399 0.683 -0.036 -0.684 1.178 0.397 -0.633 0.955 -0.632 0.654 0.290 -1.669 0.715 -0.680 2.499 -0.991 -0.393 0.349 -0.870 -0.067 -1.024 -1.822 -0.755 0.838 -0.360 0.950 -0.802 -0.326 -1.722 0.309 0.665 0.959 0.449 -0.213 0.121 -1.280 -0.419 -3.812 -0.072 0.912 0.038 -1.061 1.406 -2.686 -0.747 -0.543 0.501
-0.191 -0.944 0.102 0.459 -0.877 1.166 0.672 -0.738 -1.141 0.386 0.256 1.037 -0.154 -0.169 -1.065 -1.725 0.609 -0.058 -0.325 1.170 -0.521 0.183 -0.735 -0.812 -2.534 -0.125 1.598 -0.341 -1.265 -0.213 0.593 -0.071 0.828 -0.908 0.613 -0.562 -0.104 0.090 -0.288 -0.930 -0.026 -0.768 0.128 -1.178 2.273 0.266 -0.702 0.317 -0.801 -0.940 -1.228 0.925 0.256 1.281 0.680 -1.211 0.150 0.010 1.338 -0.224 0.779 1.303 -0.070 -0.695 0.930 0.739 -0.693 1.210 -1.175 -1.654 1.567 0.436 -2.295 -0.174 0.206 1.283 -0.801 -0.846 2.007 0.086 0.507 -0.172 -0.736 0.078 1.904 1.092 -0.161 -0.467 0.592 -0.016 -0.170 -1.781 1.324 -0.350 -0.527 -0.618 0.625 -1.021 1.460 1.984
-0.891 -1.140 -1.762 -1.500 -1.194 0.384 -1.904 -0.791 2.764 -0.560 -0.732 0.684 -1.025 0.066 -0.886 -0.083 -0.834 -0.107 -0.338 -0.188 -0.492 0.187 0.786 -0.152 0.492 -0.146 0.271 -0.434 0.017 0.761 2.182 0.840 -0.458 0.021 -0.054 0.301 0.486 -0.377 -0.370 0.466 1.656 0.353 -0.468 1.543 -1.321 -1.023 -2.090 -0.154 0.589 -0.789 0.186 0.094 0.227 -0.769 -0.983 -0.534 1.110 0.930 -0.074 -0.895 -0.747 1.521 -0.101 0.299 1.432 0.997 -0.342 0.805 0.828 0.931 0.664 1.021 -0.388 0.282 0.277 -0.405 -2.669 -0.160 0.311 -1.276 0.875 0.709 -0.227 -1.180 -2.324 2.420 1.226 -0.308 -0.265 -0.412 -0.865 1.384 0.752 0.412 0.597 -0.085 0.003 -0.184 0.957 0.910
-0.851 1.839 -1.738 -0.144 -0.116 -0.351 -0.389 -0.246 -1.847 0.035 0.860 -0.484 0.305 -1.782 0.993 0.103 -0.367 -0.672 1.662 0.132 -1.747 -0.735 0.417 0.497 0.905 0.123 0.318 1.443 0.838 -0.909 1.583 0.496 -2.287 -0.743 -1.126 0.584 0.614 -0.210 -0.756 1.111 0.612 1.464 -0.872 -2.313 0.469 -0.238 1.370 0.353 0.199 -0.946 1.274 -0.129 1.038 1.176 0.612 0.211 -0.020 0.844 0.311 0.431 -0.906 -0.265 -0.206 1.098 -0.911 1.445 0.471 1.172 2.386 0.477 0.567 -0.297 -0.849 0.613 1.078 -2.568 1.367 -0.530 0.500 -0.534 0.811 0.962 1.096 1.029 -0.014 -1.129 0.085 -0.933 -0.441 -1.556 -1.275 -0.867 -0.600 0.583 -0.297 1.444 0.231 -0.520 0.394 0.123
-1.503 -1.738 0.151 -1.803 1.788 -0.300 -1.353 0.069 0.001 0.574 0.724 1.270 1.068 -0.570 1.521 -0.051 0.592 0.532 -0.728 0.190 1.015 0.766 0.286 -3.049 0.228 -0.799 -0.557 0.750 2.103 -0.003 -0.332 0.269 1.742 1.475 -1.450 -0.577 -1.223 -1.821 -0.086 -0.041 1.292 0.083 0.295 0.357 -0.179 -0.588 -0.199 -1.361 -0.589 -1.600 -0.906 -0.125 0.580 -0.738 -0.282 -0.111 -0.044 -0.123 -1.420 0.304 0.274 3.405 1.806 -0.416 -1.306 -0.581 2.822 1.066 0.068 -0.756 1.074 -0.553 0.831 -0.219 0.724 -0.457 -0.979 0.527 -0.056 -0.765 1.491 -0.784 -0.753 -0.397 -1.128 -0.250 -0.866 -0.529 0.934 -0.385 0.560 1.240 -0.600 1.641 0.056 0.182 0.173 -1.067 0.418 -2.757
-0.438 0.494 -0.001 -1.315 -1.083 0.294 -0.169 -1.700 -1.494 1.714 1.602 0.394 -1.022 -1.052 -0.218 1.012 0.662 0.963 -0.256 -0.737 -1.033 -0.521 0.527 0.155 -0.792 -0.015 0.254 -0.531 -1.067 0.050 0.126 0.280 2.779 -0.231 -0.513 -1.711 -1.702 0.930 -1.721 1.649 -1.747 0.237 -0.811 -0.440 -0.349 -0.937 -0.290 -1.269 0.442 -0.281 -0.226 0.147 0.355 0.449 -0.124 -1.738 -0.861 -0.326 0.293 -1.547 -0.338 -0.151 -0.334 0.021 -0.239 0.307 -0.835 -0.502 -1.667 -0.164 -1.418 -0.213 -0.417 0.714 -0.451 -2.499 -0.147 0.059 -0.119 -0.370 0.210 -0.655 -0.108 -0.437 0.162 -0.298 -1.050 -0.110 -1.882 -0.567 0.624 -0.855 0.480 1.286 -0.259 -1.538 -0.180 0.829 1.192 -0.660
-0.658 1.392 -0.878 -0.129 0.201 -0.180 0.817 0.342 1.330 0.298 0.344 1.249 0.159 1.694 0.825 -0.163 0.369 1.320 -0.259 -0.100 -0.147 1.325 1.296 1.050 -0.271 -0.296 -1.219 0.425 1.248 0.882 0.874 -1.223 -0.797 -1.545 0.257 -0.494 0.533 0.332 0.064 1.258 -1.648 -1.611 0.817 0.551 0.525 -0.236 0.699 -1.684 0.550 0.027 0.515 1.039 -0.186 -0.270 -0.192 -0.256 -1.188 0.576 -0.205 -0.701 1.260 -1.352 -0.586 0.865 -1.346 -0.870 -1.589 0.495 0.042 -0.051 0.223 0.587 -0.488 -0.384 -1.099 -2.073 -0.087 -0.780 -1.339 -0.992 -1.421 0.598 -0.822 0.210 -0.542 -0.106 -1.315 0.488 1.136 -0.017 -1.302 -0.879 -0.827 -0.978 -0.957 -1.728 0.144 0.756 0.263 -0.526
0.262 0.031 0.607 -0.852 0.295 -0.585 -0.633 -0.953 -1.027 -1.272 0.409 -0.128 0.883 1.607 -0.245 0.768 0.368 0.357 -0.123 -1.169 0.512 1.371 0.627 0.442 0.427 0.023 -0.214 -0.294 1.058 -1.516 0.559 0.158 -1.936 0.881 0.377 0.524 -0.184 0.226 -0.086 0.760 -1.149 -0.876 -1.183 0.180 -0.777 0.539 -0.654 -1.673 0.785 0.294 0.475 0.829 1.425 -1.118 0.350 1.169 0.753 0.206 -1.002 -1.629 0.278 -2.110 -0.738 -0.763 -0.448 1.477 -0.575 -0.597 0.501 0.306 1.650 -1.038 -0.756 0.050 -0.194 -1.137 1.067 -2.570 -1.197 -1.570 0.642 -0.927 1.395 -0.250 -0.066 -1.439 -0.295 -0.052 -1.680 -1.781 -0.187 0.422 -0.088 -1.214 0.564 -0.389 -0.018 -0.172 0.705 -1.335
0.318 0.015 1.301 -0.653 0.957 -0.834 -1.704 -0.932 -1.250 -0.604 0.107 0.141 0.939 -1.361 0.321 0.633 0.193 0.564 -1.941 0.253 0.385 -0.654 -0.612 -0.625 -0.135 -1.424 -0.609 1.061 0.481 0.616 1.411 0.516 -0.770 -0.646 -0.243 -2.217 1.074 0.415 -0.840 -0.299 -0.202 -1.626 0.948 -0.150 -1.853 0.573 -1.427 0.812 -1.519 1.068 0.832 0.322 0.342 -0.058 -1.100 -0.031 -0.829 0.219 0.240 -0.508 0.528 -0.299 1.531 0.875 0.426 0.020 0.105 -0.716 -1.002 -2.480 -1.229 1.652 -0.223 -0.625 0.011 0.435 1.552 1.525 0.084 0.827 -0.022 -0.417 -0.951 1.194 0.033 0.766 1.096 1.159 0.204 -0.944 -0.467 0.273 0.107 -0.435 -0.714 -0.797 -0.340 -0.562 -1.205 0.414
0.140 0.255 -0.698 -0.226 -2.526 0.149 1.018 0.276 1.404 0.549 -0.699 0.359 0.111 -0.993 -0.855 -0.271 1.492 0.522 -0.025 0.053 -0.044 -0.900 0.235 -0.565 -0.956 0.523 0.738 1.906 -1.079 -0.062 -1.899 -0.047 0.658 -0.846 -0.153 0.813 -0.026 0.238 0.845 -0.109 -0.740 0.960 -0.462 -1.655 -1.107 0.789 0.164 0.955 2.007 -0.287 -1.228 -0.330 -1.239 0.128 -0.527 -2.030 -0.225 0.097 -1.040 0.905 0.894 0.448 -0.128 -1.431 0.583 -0.818 0.673 -0.160 0.082 1.800 -0.779 1.848 -1.447 -0.350 0.503 0.144 -0.321 1.004 -1.739 0.150 0.293 -0.690 -0.426 1.143 0.524 1.226 0.280 -0.995 -0.845 -0.057 -1.233 0.146 0.381 1.537 -0.575 -0.130 -0.871 0.780 -0.691 0.102
0.359 0.829 1.536 1.299 -1.292 0.458 0.366 -0.685 -1.871 -0.339 0.290 1.059 -0.504 0.015 -1.904 1.037 -0.071 0.110 -0.604 1.660 -2.058 -1.454 -1.743 1.721 1.029 -1.182 1.885 1.459 1.542 1.056 0.974 0.023 0.107 -1.139 -0.137 0.167 -0.287 -1.291 -0.644 -0.098 0.202 -1.408 0.253 -0.031 -0.659 1.410 -0.362 0.992 0.542 0.190 0.027 0.641 -0.532 0.439 -1.482 0.378 0.794 0.060 -0.665 1.834 1.149 0.722 0.686 -1.602 -1.958 -0.303 -0.120 1.355 0.968 0.816 0.575 -0.689 0.236 -1.628 -1.175 0.120 -0.598 0.469 -0.877 0.661 0.032 -1.946 -0.589 -0.091 -1.538 1.103 -0.066 0.479 0.651 0.092 0.484 1.807 2.038 1.559 0.785 0.860 0.348 1.795 -2.013 0.918
-0.043 -0.261 -3.177 0.104 -0.526 0.653 -0.006 -1.586 0.435 0.403 0.182 -0.162 0.768 0.036 1.756 -0.166 0.839 0.147 -1.192 -1.447 -1.308 2.479 1.184 -0.382 1.590 1.106 0.027 0.188 0.105 0.294 -0.264 -0.105 -1.665 -0.649 0.528 -0.048 1.418 0.043 -1.840 0.751 -0.676 -1.171 -1.097 -1.004 -0.621 -1.161 -0.545 1.115 -0.348 0.353 1.003 0.094 0.278 -0.150 -0.397 -1.425 0.991 0.455 -0.300 1.146 -0.313 1.475 1.080 -1.243 1.777 0.552 -0.588 -1.134 -0.059 -0.085 0.094 1.137 0.255 -0.641 0.113 -0.913 -0.686 -1.422 1.124 -0.436 0.563 0.203 -0.416 -0.120 0.853 0.540 -0.457 0.726 -0.812 -1.567 0.056 -0.119 -2.220 1.961 -1.052 0.236 -1.463 -2.274 -0.969 -0.883
-0.661 1.314 -1.402 1.446 0.379 0.178 -0.648 0.943 -0.625 0.661 -2.960 0.389 0.635 -0.799 -2.079 -1.814 0.075 0.955 -0.232 -0.015 1.445 -0.296 1.298 -0.423 -2.455 2.854 0.361 0.622 0.142 1.534 0.641 -0.633 -1.005 -0.510 0.273 0.002 1.550 -0.587 -1.240 1.340 -1.607 -0.235 -0.576 -0.302 0.348 -1.265 1.841 1.038 -0.257 -0.809 0.052 0.868 -0.264 -0.797 1.579 -1.596 -0.454 0.457 1.156 0.594 0.469 -1.389 -0.008 0.080 -0.514 1.927 -1.188 -0.156 0.242 0.840 0.664 -0.041 -0.723 2.092 -0.326 -0.106 0.171 -0.693 0.121 -0.933 -0.006 1.257 0.172 -1.666 -2.429 0.871 0.030 -0.196 -0.087 0.355 -0.887 -0.208 0.705 1.337 -0.281 -0.807 0.731 1.039 -0.107 -1.118
-2.499 -0.060 0.775 -1.107 0.175 -0.435 -0.201 -0.509 -0.870 1.011 -0.493 -0.340 -1.043 0.346 -1.046 0.967 0.570 1.093 -1.777 0.090 -0.676 1.823 -0.770 -1.116 -0.068 0.365 -0.263 -0.002 -1.224 1.464 0.524 2.086 2.062 0.551 -1.820 0.842 -0.655 2.300 -0.579 -0.530 -0.236 -0.138 0.313 -0.427 0.900 0.815 0.009 0.013 -0.172 -1.538 0.519 -1.039 0.613 -1.355 -1.283 -2.505 -0.133 -0.352 -1.006 0.992 0.657 0.212 1.483 0.794 -0.732 -1.424 -1.659 -1.112 -0.090 -1.167 0.122 0.048 0.603 0.553 -0.874 0.503 -0.182 0.913 -2.585 0.945 -1.127 0.956 -2.471 0.456 0.581 0.239 1.660 0.357 -0.193 -1.150 -0.454 -0.058 -0.446 -0.451 0.619 0.127 -1.200 0.286 -0.704 -1.281
2.204 -0.588 1.473 -1.381 -0.492 -0.925 -2.871 0.132 0.653 0.104 -0.576 0.671 -0.091 0.994 0.838 -0.256 0.605 0.351 -0.865 0.052 -1.530 0.677 0.650 0.533 0.438 -1.012 -1.355 1.245 2.457 0.536 0.366 -0.021 -0.666 0.819 -0.027 -0.297 -0.137 0.242 -0.273 -0.270 0.525 0.538 0.888 0.032 0.113 0.533 -1.282 0.492 -0.057 0.545 0.237 -0.178 -0.173 1.147 -0.162 1.521 -0.598 -0.355 -1.359 -0.638 1.637 0.240 0.522 -0.404 0.370 1.111 0.056 0.912 -2.165 -1.194 -0.095 1.279 -0.065 -0.792 0.213 0.384 -0.183 -0.564 -1.784 -0.697 0.587 -1.559 -0.419 -1.278 -0.903 0.249 0.937 -1.027 0.006 -0.788 -1.973 -0.185 -1.716 1.318 0.651 1.183 -1.379 0.984 0.229 -0.292
-2.016 0.042 -2.137 -0.670 -0.498 1.206 -0.843 0.156 -2.026 1.306 0.814 2.174 0.818 0.870 0.125 0.163 0.570 0.090 1.054 -0.836 -0.983 0.878 -0.935 -0.291 1.786 -0.172 1.120 -0.465 0.475 -0.609 -1.338 -1.696 0.570 -1.067 -0.121 -0.423 0.239 2.402 -0.126 -0.477 -0.397 0.016 -0.092 0.774 -0.597 1.647 -0.867 1.605 0.229 0.517 -1.141 1.047 0.419 -1.670 3.171 0.094 0.658 -0.890 -1.145 0.723 -1.465 -0.201 -1.050 1.882 0.119 -1.227 -1.227 -0.403 0.362 1.126 0.196 1.540 0.835 -0.781 -0.059 1.232 -0.265 -0.541 1.382 -1.178 1.906 -0.235 0.277 -0.694 -0.430 -1.443 -1.497 1.661 -0.060 -1.232 0.613 0.735 0.953 -0.621 1.166 0.442 1.124 0.984 -0.436 0.779
0.671 -0.362 1.302 -0.030 0.194 3.693 1.417 -0.123 0.602 -0.661 0.182 -0.501 0.060 0.979 0.693 -0.082 2.670 0.848 -0.845 0.714 1.061 0.351 -0.409 -0.055 -1.582 0.220 -0.700 -1.327 0.070 0.687 -0.131 -1.979 -0.345 -0.339 1.161 -0.372 -0.031 -0.801 -1.200 -0.730 0.249 -1.995 2.332 1.606 0.026 -0.687 -0.841 0.806 -0.973 1.395 0.561 -0.228 -0.576 -1.405 0.328 -0.348 1.387 0.043 -0.975 0.555 -0.659 -0.725 1.080 0.427 -0.191 0.961 -0.583 -1.663 1.241 -0.781 -0.324 2.447 0.342 -1.542 2.201 0.814 0.041 -0.576 1.240 -0.861 1.560 1.164 0.015 -0.331 0.786 -0.353 -0.868 0.679 -0.874 -0.084 1.913 1.463 -0.676 0.582 -0.562 0.365 0.649 0.009 0.860 0.096
-0.070 -0.115 0.241 0.087 0.597 0.845 -0.126 -1.022 0.513 -0.366 0.365 -1.531 -0.761 -0.274 0.487 0.158 -1.600 -0.479 0.440 1.060 0.455 0.174 0.695 0.132 -0.375 0.358 1.535 0.847 -0.767 -1.950 1.922 -0.380 -0.898 -0.707 -1.763 1.597 -0.032 1.090 0.402 2.119 -1.305 -0.185 -0.188 0.403 0.219 2.049 -0.908 2.291 -0.261 -0.297 1.488 1.139 1.272 -0.471 0.328 -0.160 -0.848 0.608 1.226 -0.659 -0.997 -2.028 -0.742 -0.125 -0.325 -0.659 0.057 1.714 0.826 0.492 1.868 -0.094 -0.164 0.440 0.560 0.440 -2.296 -0.479 0.102 0.843 -0.474 0.086 2.190 -1.043 -1.855 -1.487 0.341 -0.441 0.766 -0.964 1.062 -0.822 0.034 -0.630 1.778 0.287 -2.008 0.609 -0.947 0.542
1.232 0.439 0.901 -0.267 -0.661 0.606 -2.963 -1.140 0.424 -1.157 0.209 0.716 -0.787 0.125 0.581 0.637 0.265 -0.726 -1.530 1.901 -1.101 -1.415 0.466 -0.683 -0.185 -0.046 -0.070 -0.197 0.185 0.175 2.421 0.621 0.211 0.996 0.915 0.368 1.787 0.052 -0.981 0.423 -0.264 -0.778 -1.077 1.382 -0.158 -0.473 -0.410 -1.015 0.758 -0.435 0.518 -0.502 1.138 2.014 -0.316 0.915 0.345 1.175 0.871 -1.755 -0.005 0.082 0.231 -0.391 -0.506 0.853 1.229 -0.052 1.404 -0.025 -0.493 -0.726 -0.043 0.920 -0.231 0.756 -0.376 1.652 -0.645 -1.190 0.031 -0.105 -0.677 1.016 -1.100 -0.560 0.812 -0.276 -0.856 -0.791 2.413 -0.617 1.236 1.328 1.322 0.465 0.379 0.235 -0.995 1.559
0.263 1.232 0.126 -0.341 2.635 0.161 -1.214 0.946 -0.439 1.328 1.413 0.955 0.394 0.539 -0.654 0.364 -0.997 -1.766 0.761 -1.279 0.428 -0.235 -0.091 -0.021 1.873 0.816 2.875 0.355 1.461 1.088 0.134 0.023 -0.432 0.220 -0.020 0.722 0.664 0.817 0.106 -0.116 1.340 -0.622 -0.086 -0.267 -1.379 1.144 0.201 1.937 -2.219 -0.662 -0.556 -0.686 0.027 -0.868 -0.220 1.028 -0.216 0.937 -0.290 -0.183 -0.928 -1.101 0.197 1.180 -1.225 -0.214 0.328 1.931 -0.196 -1.990 1.300 1.837 1.368 0.274 -0.378 0.224 -1.433 -1.195 0.489 1.390 -0.646 -1.704 0.464 1.152 1.260 -0.469 -1.067 1.172 0.568 0.713 0.278 1.208 1.219 0.580 0.049 0.312 -0.860 -0.786 -1.518 0.068
-0.235 -0.569 0.354 1.144 0.727 -0.037 -0.932 -0.915 2.139 -1.060 -0.256 -0.747 -1.661 0.427 -2.332 0.951 -1.800 -0.127 1.807 -0.836 2.150 0.752 1.019 0.165 0.712 0.956 1.819 -0.982 1.314 -1.902 0.071 -1.281 -0.547 0.369 -0.557 -1.322 0.585 0.379 -0.653 -0.486 -0.291 1.503 0.641 -1.959 -0.502 0.179 -0.158 -0.487 1.331 -0.530 -2.084 0.318 -1.370 0.196 -0.204 -0.719 1.793 0.217 -1.641 1.501 -0.346 0.476 -1.708 1.422 0.363 -0.003 2.329 -0.345 -1.147 1.861 0.401 -1.961 1.041 -1.487 1.751 0.630 -1.038 -0.926 0.694 -0.129 0.359 2.119 0.052 -0.518 -0.436 0.480 -0.163 0.136 -1.329 1.101 0.301 1.231 -0.171 -0.889 0.053 2.116 -1.022 -0.941 -0.048 0.494
0.417 -0.857 -0.178 0.034 0.429 0.955 0.973 1.065 -0.411 -0.704 -0.304 -0.092 -1.045 0.086 0.941 -0.013 1.200 0.164 1.480 -1.471 -2.691 0.325 0.014 0.406 -0.479 0.777 0.383 2.281 -1.130 -1.069 0.842 -0.208 0.504 0.792 1.923 -1.085 1.318 2.449 0.423 1.505 -0.170 0.528 -0.247 -0.953 -0.359 0.191 -0.750 0.256 0.201 -0.264 -1.160 -0.885 -0.524 0.165 1.097 -1.524 -0.275 -0.328 -1.104 0.899 0.236 0.461 -0.987 0.874 0.466 -0.380 -1.523 -0.419 1.223 0.261 -0.636 0.992 -1.091 -0.956 1.320 0.925 0.454 -2.170 0.868 0.144 0.283 -0.131 -0.962 -1.631 -0.682 0.014 -0.299 -1.150 0.074 -0.404 -1.156 -0.592 0.288 0.230 0.458 0.761 -0.302 0.573 0.767 -0.035
0.830 -1.001 -0.866 -2.296 0.084 0.319 -1.500 0.905 1.073 -1.696 0.686 0.317 -0.826 -0.802 0.489 -0.998 0.392 1.037 0.388 -0.620 1.009 1.145 -0.959 -1.088 -0.371 -0.964 -0.756 -0.527 0.980 0.568 -0.147 0.459 -0.272 1.488 0.984 0.712 -0.421 -1.604 0.952 0.058 -0.521 1.041 0.388 0.978 -0.693 0.315 1.197 -0.640 -0.435 -1.372 -0.383 0.641 -0.778 -1.196 -1.085 -1.124 -1.555 -2.301 -1.609 -0.382 -0.922 0.326 0.323 -0.647 -0.280 1.310 -1.519 2.798 -0.473 -0.353 0.290 -0.197 0.412 0.374 0.578 -2.138 -0.709 1.608 -0.376 0.858 0.196 0.006 -0.261 -0.607 -0.953 -0.543 -1.109 1.311 -0.996 -0.070 0.485 -1.827 -1.218 0.035 -0.594 -1.202 0.139 0.580 -0.955 -1.010
2.281 -0.024 -1.584 -0.501 0.443 -0.855 0.104 -1.894 -0.408 -0.080 0.709 -1.841 -1.389 -0.040 -1.396 0.960 1.140 -0.370 0.431 -0.321 1.735 -1.572 -0.413 -0.365 1.481 -0.451 0.363 0.607 -0.123 0.867 -0.148 -0.551 0.198 0.705 2.625 0.495 0.049 -0.499 3.198 1.534 -1.497 -1.291 -1.332 1.386 -0.157 0.155 -0.410 0.163 -1.501 -0.222 -1.322 -1.014 -1.003 -0.077 -0.090 -0.153 -2.182 -1.338 -0.782 -1.801 -0.124 -0.597 -0.230 0.444 -0.779 -0.005 0.957 -0.195 -0.425 -0.784 -0.660 -1.554 -0.378 0.586 1.861 0.066 -0.494 -0.288 1.231 0.301 -0.447 -0.387 0.454 -1.822 -0.417 -1.812 0.801 -0.652 -1.372 -0.132 0.594 -0.139 -0.945 0.155 -1.287 -0.824 -0.374 0.129 -0.121 -0.509
-0.671 -0.476 -0.193 1.124 -1.197 -0.005 -0.339 -0.330 -0.319 0.480 -0.033 -1.415 -0.080 -0.214 1.185 0.227 -1.332 0.261 -0.747 0.717 0.172 1.788 1.163 0.987 -0.595 -1.227 0.404 -0.659 1.705 -0.856 1.537 0.449 0.833 0.565 -0.886 -0.003 -1.612 -0.760 -1.185 -0.577 0.214 -1.591 -0.620 0.450 0.152 -0.360 1.902 0.241 -1.024 -0.146 -0.286 -0.994 -0.395 0.138 -0.477 -0.964 -1.643 1.738 -0.576 -0.603 -0.634 0.145 1.503 -0.935 -0.230 0.378 -0.108 -1.659 -0.686 0.890 -0.543 -0.976 -0.649 1.018 -0.036 -0.475 -0.255 -1.725 0.062 -0.178 0.198 -0.180 -1.209 -0.094 -0.672 0.782 0.026 -0.353 0.578 1.843 1.110 0.196 -1.583 -0.719 -1.178 1.051 2.709 -1.712 -1.073 0.027
0.939 0.484 0.431 0.411 -0.767 0.104 1.011 -0.056 -0.788 1.467 1.190 -0.587 -0.451 -0.388 -0.257 0.385 1.557 0.637 0.109 0.782 0.825 -0.459 -0.562 1.155 -0.256 -0.631 -0.496 -0.290 -0.173 1.631 0.410 0.809 -0.252 1.188 1.535 0.103 -0.411 -0.744 -0.429 -0.743 1.788 2.666 -1.541 0.860 0.906 -1.226 -1.315 0.559 0.246 -0.078 3.650 0.181 -0.801 0.181 0.214 2.093 0.034 -0.449 -1.564 -0.354 0.210 -1.198 -0.405 0.156 -0.170 -0.844 0.271 1.117 -0.066 1.322 1.381 1.775 -0.867 0.850 0.020 1.499 -0.759 0.406 0.419 1.208 0.314 1.107 -0.334 -0.843 -0.611 1.037 1.050 0.925 0.050 1.031 -1.457 0.122 -0.262 -0.225 1.511 1.758 0.941 -0.297 0.001 0.359
2.040 0.452 0.016 0.585 1.098 0.023 0.033 -0.781 0.721 0.817 -1.912 0.479 0.705 0.786 -1.708 0.299 -1.270 -0.241 0.697 -0.389 0.657 0.352 0.263 2.092 1.769 -1.054 -0.339 -1.399 -1.323 0.993 -0.586 1.457 1.679 -2.054 -0.778 -0.946 0.075 0.959 -0.027 -0.322 -0.023 -0.785 -0.384 0.705 -2.161 0.313 1.166 -0.618 -2.016 0.782 -0.638 -0.562 -0.677 1.485 -1.220 1.033 -1.704 0.877 0.039 -1.000 -1.188 -0.090 -0.903 0.034 1.082 -0.146 0.264 0.093 0.181 0.475 0.200 1.290 0.595 0.352 1.039 -0.644 0.691 0.085 -0.441 0.257 1.806 -0.084 0.309 0.179 -0.859 0.562 0.417 -0.107 0.737 -0.232 -1.444 1.266 -0.472 -0.457 0.630 -0.731 -0.551 -2.856 -0.260 0.345
-2.816 1.386 0.557 -0.363 -0.764 -0.743 0.224 -0.144 1.278 1.028 0.213 -0.504 0.735 -0.107 -1.013 0.859 -0.688 -0.683 0.091 -1.075 1.942 -0.496 -0.973 0.642 -0.067 -0.053 -0.001 1.555 -0.902 -1.276 0.876 0.071 -0.731 1.444 0.339 -0.770 -0.970 -0.765 -1.836 0.539 1.912 -0.036 -1.087 0.438 0.347 0.381 -2.034 -0.410 0.196 0.621 -0.554 -0.645 0.549 0.176 0.305 -0.862 -0.219 -1.481 -0.152 -0.007 0.491 -0.174 1.021 -0.657 -1.176 0.794 -0.406 0.395 1.254 0.953 1.072 0.532 0.414 0.397 -1.060 1.256 -1.789 -0.460 -0.286 -1.238 1.538 -0.181 1.365 0.376 -0.606 0.320 0.446 0.403 -0.407 -0.588 1.772 -0.246 -0.137 -0.659 -1.311 0.475 -0.582 0.910 -0.979 0.072
0.493 1.214 -0.045 -1.070 0.478 -0.153 0.245 0.915 1.390 -0.539 0.116 -0.094 -1.121 0.082 -0.097 1.043 0.820 0.104 0.302 -0.049 0.694 -0.905 0.645 1.575 0.607 0.657 2.076 0.354 -0.800 2.446 -0.803 1.514 -0.844 0.237 -0.217 0.555 0.351 -0.265 1.116 -0.690 -1.652 -0.859 -0.204 -0.194 -0.963 2.442 0.773 -2.495 0.756 -0.333 -0.184 0.545 0.676 0.080 -0.194 0.326 1.067 0.127 0.452 -0.083 -0.297 1.317 1.819 -1.068 -2.327 0.336 -0.480 0.380 0.139 1.429 -1.244 -0.119 -1.319 -0.940 -1.569 0.386 -1.104 -0.249 1.875 -0.668 1.549 -0.307 0.890 -0.699 0.154 -1.522 -0.513 -0.474 0.771 -0.257 -0.921 -0.461 -0.047 -1.433 -0.875 1.017 -0.057 0.137 0.377 -1.049
0.695 -0.812 1.732 -0.146 1.569 -0.831 0.398 -3.279 -0.087 -0.386 -0.036 0.598 2.093 0.817 -0.111 -2.693 0.903 -0.205 1.797 -0.791 -0.837 -0.785 -0.164 -0.814 0.717 -0.185 1.115 -1.220 0.959 1.351 -0.667 -0.045 -0.069 -0.489 -1.015 -0.578 1.445 0.741 -0.442 -0.040 -1.932 0.446 0.516 1.572 1.585 -1.520 -1.717 -1.173 0.128 -0.178 -2.100 1.091 0.156 0.917 -1.812 -1.076 -1.235 0.124 -1.505 -0.850 -0.022 -0.173 0.308 0.513 -0.309 -0.530 -0.836 -0.562 -0.449 1.036 -0.721 -2.157 0.679 -1.602 -0.394 -0.406 -0.431 0.512 0.539 -0.026 -0.586 -1.896 0.691 -0.820 0.923 0.150 0.769 0.129 0.152 0.793 0.467 -0.462 0.077 0.845 -0.353 -0.665 2.905 -0.263 -0.211 0.853
1.025 -0.121 0.627 0.214 1.169 1.540 -0.589 -0.972 0.682 2.848 -0.670 -0.009 -1.664 0.500 -0.921 1.707 -1.616 1.463 0.192 -0.842 1.432 0.901 0.309 0.505 0.342 0.908 -0.521 1.163 -0.796 0.037 0.990 0.324 2.065 0.014 2.290 0.012 -0.256 -1.774 -1.261 0.503 1.843 -2.223 0.032 2.510 0.583 1.203 -1.511 0.462 0.396 0.412 -2.329 -1.436 -0.853 0.238 2.576 0.446 -0.068 0.695 -0.216 0.959 -1.018 0.619 1.890 0.444 0.247 -0.695 -0.114 -0.558 1.371 0.297 -0.800 0.517 2.142 1.372 -0.850 -0.773 -0.145 0.295 0.438 0.085 -0.378 2.527 -0.941 0.156 -0.282 0.647 0.595 -0.227 -0.422 -1.527 0.401 1.149 0.908 -1.662 -0.513 2.018 -0.035 -1.180 -1.537 0.927
0.438 0.265 -0.813 0.612 -0.068 -0.284 0.721 -0.018 -0.432 0.102 -0.310 -0.813 -0.573 -1.525 0.720 -1.669 -0.218 -0.171 -1.215 -1.019 1.015 0.247 0.076 0.372 0.972 0.503 -0.351 -0.852 0.001 -1.168 0.055 -0.477 0.215 0.717 0.416 0.675 1.968 -0.021 -0.795 1.114 -2.116 0.671 -0.071 0.916 0.249 -0.195 0.341 1.418 -0.234 0.247 0.392 -0.678 0.105 -0.621 -0.154 -0.774 1.540 -0.058 0.154 1.174 -1.081 0.904 1.136 0.363 -1.004 -1.422 -0.501 0.607 -0.394 1.323 -1.916 0.045 0.326 -1.830 1.342 0.490 -0.452 1.068 -1.368 -0.499 0.181 0.110 0.445 0.841 0.813 0.092 0.143 -1.655 1.361 -1.596 -0.319 -0.416 1.242 0.356 1.453 0.142 0.577 2.422 1.325 -0.559
0.834 -0.178 0.527 0.554 0.128 0.619 -0.910 0.162 -1.150 0.988 0.030 1.027 -0.006 -0.133 0.488 1.481 1.954 2.829 0.357 -1.608 0.295 0.017 1.110 -0.085 -1.129 0.709 0.323 -0.414 -0.483 -1.334 1.544 1.763 0.955 -0.884 2.568 0.971 1.144 0.204 -0.071 -0.966 0.487 0.422 -0.093 1.100 0.961 -0.333 -1.363 0.028 -0.499 -0.888 -0.922 0.203 0.967 1.300 -0.701 -1.368 -0.381 0.478 0.521 -0.528 -0.826 -0.307 -1.274 -0.169 -0.273 -0.743 0.471 0.454 2.232 0.615 -0.143 -0.829 1.048 -0.250 1.366 -1.348 -0.118 -0.243 0.282 -1.816 -2.292 2.517 -0.266 -0.301 1.291 0.730 0.573 1.168 -0.062 1.195 -1.380 -1.038 0.263 0.663 0.601 -2.563 -2.112 -0.292 -2.571 1.462
1.013 1.400 1.650 0.111 -0.724 -1.542 -2.122 0.105 -0.725 2.142 0.537 -1.245 -0.509 2.166 -0.116 -0.526 0.358 -0.206 -0.077 0.320 -0.476 0.613 1.999 -0.520 1.930 1.153 -1.116 0.064 0.795 1.516 0.744 -0.605 -0.043 -1.754 -1.574 0.209 -0.801 0.563 0.532 0.581 0.154 -0.838 0.373 -0.128 2.012 -0.952 0.426 -1.332 0.332 -0.448 1.555 1.093 -0.420 -0.730 0.856 1.531 -1.410 -0.305 -1.499 -1.136 0.780 -0.090 -1.307 0.136 -0.432 0.075 -1.205 0.656 -0.530 -1.603 -2.105 -0.305 -0.565 -0.041 0.004 -1.577 1.062 1.356 -0.290 0.224 0.194 0.741 0.380 0.636 -0.081 -1.629 -1.281 -0.511 -0.335 0.605 -0.185 -1.469 0.468 -0.012 0.908 1.180 -0.667 -0.447 -0.078 1.244
0.774 0.068 0.227 -2.295 0.850 -0.143 1.901 1.227 -0.168 -0.523 1.672 0.961 -0.350 -0.736 -0.315 -0.742 -0.187 -0.067 -0.324 -0.026 0.405 -0.543 -0.137 -0.512 -0.493 -1.189 -0.160 0.148 0.296 1.684 -1.536 -0.042 1.728 1.206 -0.057 -0.215 1.133 0.677 0.158 -1.800 1.055 -0.281 -0.709 0.044 0.358 2.478 1.526 0.453 0.766 0.625 0.014 -0.879 -0.718 -0.378 0.135 -0.267 1.095 2.140 0.608 0.990 2.075 0.787 -0.185 0.272 -0.313 0.389 0.571 -1.271 1.424 1.235 -0.210 -0.627 -1.090 -0.771 0.061 -1.382 1.075 0.050 1.146 1.076 2.246 0.761 1.311 -1.708 0.509 -0.032 2.300 -1.063 -0.122 0.917 1.407 -0.759 -1.483 -0.521 0.586 -0.174 -0.836 -0.678 0.792 0.964
0.222 0.806 -1.346 2.197 -0.899 0.458 0.147 0.918 1.958 0.402 -0.524 -0.444 -1.032 -1.182 0.762 0.222 -0.942 -0.725 0.124 0.676 -0.463 0.842 2.419 1.520 -0.812 0.215 0.387 0.774 -0.348 -1.441 -0.478 1.328 -1.218 0.479 -1.655 0.589 -0.899 2.256 -0.082 -0.609 -0.383 0.577 -1.391 -0.512 -1.172 -0.701 0.805 -1.301 -1.475 -0.549 -0.389 -0.511 0.373 0.708 -0.812 -1.787 0.204 -0.830 1.045 0.091 -0.446 -0.130 -2.038 -1.144 -0.073 1.075 -0.128 0.051 -0.160 0.504 0.616 0.211 -0.522 -1.613 0.674 -0.349 -1.372 0.324 0.558 -1.065 1.057 0.985 0.252 0.725 -1.605 -0.419 -1.308 0.010 1.610 0.466 0.381 -0.192 -0.019 -0.060 -0.227 1.047 0.780 0.108 0.833 -1.772
-0.951 -1.793 -2.344 0.479 -0.462 1.664 0.031 2.098 -0.088 -0.491 0.461 -0.915 1.747 1.246 -0.005 -0.309 0.924 -0.906 -1.249 0.484 0.250 0.729 -1.141 -1.269 1.471 -0.158 -1.808 -0.598 -1.090 -0.553 1.195 0.662 -0.411 -0.235 0.791 -0.293 0.845 -1.331 -0.425 0.230 0.903 0.206 -0.486 -1.248 -1.383 0.252 -1.297 1.080 1.620 0.755 -0.518 0.573 0.721 -2.564 -1.120 -1.093 -1.092 0.882 -0.370 -1.400 -1.549 0.829 -0.349 0.225 1.196 -0.393 -1.528 1.011 -0.700 -0.181 0.185 0.213 -1.242 -0.016 -0.262 3.000 -1.245 -0.316 0.653 0.939 -1.706 1.025 0.421 0.389 -1.537 -0.461 -0.509 -1.147 -0.787 -0.624 -0.041 -0.105 -1.451 0.666 1.350 -2.979 -0.643 0.683 0.099 -1.558
-0.768 0.045 -2.168 -0.057 -0.989 0.842 1.572 -0.648 -0.410 -1.277 -0.381 0.683 0.546 -1.434 -0.421 1.834 -1.234 -0.335 1.207 -0.014 -0.129 -0.479 0.731 -0.101 1.184 -0.720 0.102 -0.110 1.707 -1.475 -0.691 0.104 -1.047 0.643 -0.002 -0.944 0.904 0.234 -1.143 -0.205 -0.829 2.362 0.655 -0.910 -1.012 0.044 1.364 -0.342 0.627 -1.227 0.823 -0.427 -1.240 0.878 -1.397 2.052 1.465 0.007 -0.127 1.012 -1.126 -0.147 -0.331 0.395 -0.207 0.431 0.573 -0.821 -1.492 0.213 0.144 0.375 -1.476 -1.615 0.673 0.195 1.692 1.394 0.101 -0.536 1.369 1.911 -0.742 0.292 0.006 -1.526 0.210 -1.574 0.006 1.019 -0.332 -0.257 -0.196 1.360 -0.829 -0.662 1.236 0.970 -2.256 -0.831
1.199 0.325 -0.838 -2.023 0.279 -2.163 0.921 0.050 -2.227 1.018 0.185 -0.817 2.675 1.137 0.022 0.476 0.766 -1.108 -1.752 -1.814 0.592 -0.233 -1.425 -0.164 -0.081 -0.498 0.286 0.557 0.341 1.210 0.849 -2.280 -0.550 -0.087 2.412 0.552 0.666 -0.249 0.738 -0.051 0.447 -1.829 1.098 -0.668 0.103 1.243 1.259 0.439 -0.278 -1.426 -1.892 -0.698 -0.237 0.896 -1.041 1.314 -0.431 1.695 -1.082 -0.202 0.051 0.647 0.978 0.318 -0.779 -2.145 -1.306 -0.015 -0.288 -0.826 0.415 0.795 2.811 -0.193 0.309 -0.426 0.635 -0.429 -0.162 -1.083 -1.137 -0.921 0.696 1.977 0.504 0.021 -0.153 1.235 -0.695 -1.340 -0.114 -0.031 -0.606 -0.831 -0.548 -1.256 -0.675 0.557 -1.850 -1.469
0.947 -0.692 0.089 0.980 1.304 1.628 -0.120 0.822 -0.315 -0.638 -0.745 0.701 0.149 0.957 0.529 -1.968 -1.554 0.951 -0.113 0.687 -0.694 0.779 0.063 -0.388 -1.410 -0.238 -0.195 0.464 0.044 0.568 -0.393 -0.446 0.413 -1.751 -1.116 -0.454 0.909 -0.235 -1.582 0.894 -0.623 -0.158 0.406 -0.621 -1.411 0.240 0.060 0.815 -0.279 0.194 -0.548 0.663 -0.370 -1.052 0.867 -2.213 1.504 0.961 0.966 -1.330 0.317 -2.050 0.245 2.077 -0.371 -1.286 -0.324 0.418 -1.031 0.365 0.874 1.150 1.462 0.362 -0.666 -0.652 -1.764 0.357 0.212 -0.107 -0.943 -1.965 -1.924 -2.221 2.583 0.160 0.237 0.825 0.550 -0.728 1.529 -1.490 -0.374 -1.408 -0.162 -0.116 0.222 1.464 0.701 -1.400
1.570 0.240 -0.091 -0.136 0.117 0.042 -0.674 1.057 2.404 -0.487 1.002 -0.610 -1.183 0.802 -1.575 -1.506 0.385 -1.100 -0.281 -0.613 0.059 0.771 -1.070 0.307 0.943 1.020 0.059 -2.052 -0.838 -0.489 0.165 1.161 1.296 -0.080 -1.311 -0.426 0.749 0.769 1.289 -0.627 -0.279 0.889 -0.437 -0.881 -0.719 0.385 -0.039 -0.961 -0.009 -1.717 -0.478 1.423 -0.405 -0.146 1.026 0.852 -0.361 0.202 0.169 -0.295 1.015 0.946 0.369 0.044 -0.633 -0.988 1.223 0.591 0.494 0.151 0.993 0.798 -0.995 -0.833 -2.174 1.294 1.456 0.303 -0.161 0.597 0.452 1.321 2.132 -1.041 -0.347 -1.616 0.967 -0.350 -0.709 -1.924 -0.987 0.516 1.829 1.337 1.269 -0.608 -0.421 -0.597 0.321 -0.232
1.122 -0.367 0.090 0.438 1.773 0.830 1.950 0.193 -1.681 0.667 1.455 -2.445 -1.742 -0.638 1.080 -1.131 -0.575 1.382 -0.772 -0.251 -0.228 -0.126 0.037 -0.001 0.242 -0.062 -0.789 1.337 -0.047 0.681 1.004 0.462 0.576 -0.253 -1.406 0.301 -0.768 -1.831 -1.425 1.508 0.800 -0.796 0.692 0.420 -0.211 2.182 -0.145 -0.464 0.056 0.648 -1.836 -1.009 0.205 -0.568 -1.803 -0.398 1.860 -0.499 0.880 2.132 0.626 -2.193 -0.466 0.724 0.762 -1.281 1.815 -1.792 0.567 -0.300 0.750 -1.078 -0.963 -0.298 0.906 -1.883 -1.273 -0.371 0.636 0.196 -0.706 -0.878 -0.494 -1.758 -1.262 -0.599 -0.968 -2.372 0.327 0.091 0.939 1.214 1.362 1.204 0.651 0.625 -0.353 0.032 1.159 -0.253
0.351 -0.998 0.219 -0.880 1.495 -0.851 1.167 1.364 -0.898 -1.114 -1.459 -0.227 1.062 -0.711 -1.502 -0.846 -0.467 0.362 -0.593 2.168 0.541 0.456 -0.759 0.052 -0.995 -0.466 2.706 -2.268 1.379 -1.278 -0.046 0.088 1.535 -0.381 0.543 -0.760 -0.459 -0.118 0.576 0.783 -0.099 -0.474 0.597 1.326 -0.553 -2.538 -1.292 -2.023 0.799 -0.967 -2.170 0.392 0.219 -0.202 2.120 0.826 0.549 -1.117 0.077 0.353 0.389 -0.386 0.501 0.446 -0.161 0.874 -0.383 1.969 1.540 -1.561 -1.720 0.282 -1.230 -1.398 -0.865 -2.546 1.124 -0.658 0.143 0.380 0.563 -0.322 -2.641 0.326 -0.186 -0.042 0.028 0.348 0.036 0.176 -0.872 -0.052 1.104 -0.899 -0.743 -2.099 -0.382 0.077 1.193 -1.578
0.317 -1.023 -1.502 -2.296 -0.788 -1.164 -2.686 -0.984 -0.167 0.151 0.986 0.101 -1.849 -0.152 -0.377 -2.008 -0.681 -1.081 0.761 0.275 -0.600 2.912 -3.982 0.003 1.849 -0.023 -1.173 -0.790 -2.446 0.387 -0.146 -0.158 0.901 1.079 1.325 1.216 -0.411 0.550 1.505 -0.150 -1.046 -1.492 -0.417 0.326 0.325 1.860 1.277 0.978 0.414 -0.071 1.109 -2.101 1.580 0.096 0.759 0.243 0.328 1.344 1.044 -0.989 -2.215 0.056 0.968 -1.374 -2.299 0.414 -0.573 1.419 -0.138 0.402 0.358 0.030 0.225 1.808 1.385 -0.032 -0.113 -1.395 -0.815 0.527 -2.800 -1.566 -0.325 -0.156 1.002 -0.779 -1.246 0.436 -0.200 0.033 -2.695 -0.534 0.055 0.625 1.324 1.190 1.545 -0.229 1.043 -0.776
-1.320 -0.975 0.123 0.302 1.120 0.920 0.170 -1.699 0.964 0.414 0.455 -2.222 -1.165 0.640 1.357 -1.377 0.734 -0.155 -0.314 1.961 -0.006 0.652 -0.025 -1.539 0.150 -0.556 0.214 -0.073 0.373 2.047 -0.832 2.850 -1.929 -0.533 -0.035 0.424 0.758 -0.105 -1.938 0.114 -0.893 1.097 -1.128 -1.330 1.010 -0.376 1.077 -0.199 0.201 -0.555 2.560 0.100 1.902 -1.672 -0.328 0.938 0.175 0.479 -1.945 -1.088 0.509 1.141 -0.531 -0.513 1.577 1.778 1.441 -0.279 0.709 0.600 -0.561 -0.799 -1.300 -0.008 -0.255 -0.069 1.030 -2.129 -0.097 -1.218 0.735 0.987 -0.584 1.695 -0.053 -1.026 -0.725 -1.798 1.486 1.109 0.094 -0.725 1.144 -0.296 2.103 1.392 -0.365 -0.656 -1.266 0.268
0.264 -0.076 -1.472 0.220 -1.999 -0.462 2.012 -0.292 1.176 0.121 -0.055 -1.216 -0.472 -0.963 -0.771 0.188 0.148 0.818 -0.497 0.286 0.657 0.825 -0.159 0.208 1.471 -0.405 0.178 0.983 0.329 -1.936 0.388 1.601 -1.709 1.073 0.643 1.505 0.585 -0.910 0.921 -0.571 -0.927 2.022 -1.509 -1.523 -0.431 -0.442 -1.794 -0.484 -0.189 -0.589 0.018 -0.527 1.877 -0.222 0.276 -0.170 -0.354 -0.780 -0.245 -0.836 0.267 -0.836 0.443 0.389 -0.656 0.397 -1.270 -0.239 -0.416 -0.128 2.581 -1.126 -1.572 1.761 1.492 0.402 -0.355 -0.850 -1.773 0.433 1.432 -1.709 0.400 0.102 0.959 -0.123 -1.611 1.808 -1.392 0.673 0.523 -0.575 -0.051 -0.028 -0.666 0.257 -0.062 1.418 0.203 0.791
0.996 -1.049 -0.396 -1.322 -0.659 -0.299 0.203 -0.356 -0.566 -0.524 0.419 -3.110 -1.795 0.621 -0.080 1.255 0.748 -1.318 0.584 -0.569 1.783 -0.278 -1.630 0.110 -1.504 0.105 0.304 -1.591 -1.156 -1.548 1.398 -0.009 1.097 0.805 -0.107 -1.323 -0.083 -1.135 -0.829 0.543 0.083 -2.202 0.804 1.066 -0.515 0.412 1.116 -1.950 0.707 -0.767 -0.574 1.088 0.856 0.397 0.489 -2.064 -0.085 -2.503 0.576 0.143 0.907 -0.242 -0.254 0.432 0.288 0.110 0.198 1.106 0.745 -0.299 1.556 0.191 -0.099 -1.001 0.250 0.319 0.298 -1.673 -1.769 0.746 -0.722 -0.526 -0.378 0.423 -0.258 0.850 -0.321 0.209 -0.393 -0.088 -1.223 0.003 -0.850 1.330 0.135 0.854 0.087 -0.657 0.292 1.530
-0.455 -2.078 -0.949 1.464 0.486 0.326 -0.250 -0.422 -1.012 1.133 0.451 -0.481 1.415 0.227 0.474 0.079 -1.093 0.136 -0.349 -0.611 -1.256 0.844 0.160 -0.244 -0.443 -1.551 -1.007 -0.717 0.979 0.106 1.246 0.271 0.711 -0.258 1.376 -0.662 -0.382 -0.734 1.819 -1.090 1.198 -0.675 0.121 -0.225 0.483 0.044 0.773 -0.365 -0.420 -0.016 -0.679 0.532 0.881 0.344 0.970 1.123 -0.949 1.544 -1.036 -0.522 -0.968 -0.328 0.482 1.683 0.454 0.219 -0.721 0.700 -0.008 0.086 2.056 -0.642 -0.726 -2.210 -0.365 -0.600 -0.725 0.017 0.702 0.670 0.694 1.058 0.384 -0.092 -1.127 -0.475 -1.159 -1.199 0.419 0.931 0.347 -0.624 -0.248 -0.241 0.820 1.541 -1.546 -0.860 -0.282 -0.331
0.493 1.818 1.400 0.395 -1.800 -2.534 -0.854 0.151 0.152 -0.900 -1.792 0.751 0.782 -0.971 -0.616 -0.953 -0.397 -0.033 1.041 -2.208 -0.244 -1.274 1.437 -0.226 -0.813 -0.326 0.358 1.339 0.391 0.831 0.712 1.008 -0.243 -0.497 -0.067 -1.201 -1.713 -1.460 1.034 1.549 -2.030 -1.082 -0.990 1.357 -0.620 0.858 -1.463 -1.446 -0.292 -0.455 -0.676 0.725 0.381 1.178 1.990 -0.797 0.162 0.127 0.655 -1.032 0.482 -1.098 -1.416 -0.353 0.831 0.958 -1.042 0.612 -0.930 -0.538 0.372 -0.975 1.047 1.361 -0.408 -0.647 1.114 1.256 1.416 -0.915 0.843 -0.232 0.615 -1.078 0.316 0.093 -0.850 0.440 0.568 -1.336 0.068 -0.282 0.914 -0.943 -2.135 0.832 -0.286 0.094 -0.192 0.043
-0.997 2.419 -0.652 0.903 0.389 -0.868 -2.183 -0.977 -1.233 -1.729 1.216 -0.459 0.713 -0.811 1.344 -1.814 -0.299 -0.358 2.172 1.494 1.744 -1.201 -0.437 0.636 -0.538 0.459 0.014 -0.971 0.572 0.551 0.272 2.131 0.793 -1.728 -0.024 -2.012 -1.207 0.866 -0.529 -0.826 0.511 0.731 -0.665 0.167 0.684 -0.286 0.235 0.239 -0.219 0.665 1.230 1.786 -0.268 -0.806 -0.704 0.416 0.766 -1.120 0.110 0.346 0.132 0.095 -0.498 -1.116 0.293 -0.818 0.416 -1.382 -1.543 -0.738 -2.058 -0.143 0.595 -0.291 0.717 -1.012 0.234 -0.663 -1.465 -1.280 0.932 0.402 -0.945 -1.012 0.535 0.294 -0.831 -1.066 -0.135 -0.754 -0.119 -1.438 -0.680 0.627 0.637 0.808 1.177 -1.413 0.045 1.494
0.696 0.464 -0.741 0.904 0.405 -0.082 -1.555 -0.462 -0.479 -0.987 -1.152 -0.403 1.054 0.022 -0.455 -0.398 -0.455 -0.015 0.594 1.454 0.158 0.300 0.123 0.075 -0.028 0.106 0.435 1.913 0.213 1.849 -1.373 0.516 -0.346 1.593 -0.346 0.156 1.822 -1.280 -0.817 -0.684 -1.014 1.501 2.331 -0.289 0.814 -0.622 1.235 -0.250 2.328 -0.618 1.704 -1.555 1.092 -2.533 -0.434 -0.878 0.621 -0.505 -0.457 -1.300 1.759 0.545 0.513 -0.868 -0.636 0.741 0.615 -0.627 1.710 0.064 0.693 -0.119 -0.306 -0.601 0.179 -0.556 0.224 0.692 0.383 -0.571 1.345 0.731 0.948 1.590 -1.129 0.842 0.984 0.625 -2.387 -0.176 -0.534 1.768 -0.046 -0.350 -1.238 1.140 0.477 -0.940 -0.909 -0.243
-1.134 -2.332 0.459 0.595 0.714 -0.645 0.381 0.969 0.847 1.991 0.681 -1.473 0.373 0.607 0.831 -0.558 0.396 0.297 -0.947 -0.093 -1.097 -0.216 0.397 2.393 -0.160 0.267 -0.843 1.391 0.197 1.134 -0.197 -1.122 -1.404 0.317 0.296 1.850 -0.271 0.697 -0.282 1.548 -0.095 -0.160 -0.312 -0.867 1.666 0.608 1.355 -0.056 0.200 -0.659 1.798 -0.172 -0.615 0.746 -0.172 0.875 -1.018 1.322 1.045 -0.363 -0.099 -0.620 0.141 0.101 0.401 -0.562 -0.673 -0.109 -1.594 -0.725 -0.100 1.408 0.908 0.285 1.070 1.558 -1.002 -0.809 0.072 -1.485 0.134 0.030 0.200 -1.973 -2.695 0.555 0.247 -0.876 -1.275 0.062 0.725 -1.827 -0.709 -0.054 -0.274 0.494 0.309 -0.305 -0.125 -0.958
0.149 -0.236 0.678 0.465 0.392 0.493 0.633 -1.046 0.022 -1.030 0.490 0.963 2.080 -0.876 0.147 -1.948 -0.174 -0.668 0.333 0.662 -0.379 -1.268 -0.342 -0.858 0.401 0.612 -0.108 -0.292 -0.197 -0.355 1.029 -1.130 -0.769 -1.358 -0.739 0.380 -0.400 0.161 0.253 -0.445 -1.014 -0.812 -0.073 -0.944 0.051 -1.204 -0.102 -1.988 -1.573 -1.084 -0.458 0.568 -0.075 -1.486 -0.492 -0.226 1.660 -1.711 -1.569 -0.934 0.972 0.254 1.437 -0.019 -1.718 -0.565 0.503 -2.237 -0.369 -0.759 -1.649 0.098 -1.316 0.547 -0.202 -0.017 1.377 0.555 -0.451 1.008 -0.321 0.344 0.938 -0.008 1.249 0.164 -0.594 -0.748 0.503 -0.078 -2.115 0.639 -0.607 0.598 0.033 0.804 0.626 1.371 1.011 -0.025
0.191 0.589 -1.723 0.698 0.392 -0.230 -0.312 0.262 -1.104 -0.408 -0.982 0.361 0.174 2.228 -0.282 0.165 -0.850 1.047 0.637 -1.742 -1.182 -0.113 0.040 -0.067 0.643 -1.610 -0.422 -0.068 -1.233 -1.080 0.616 0.722 -0.431 1.260 0.070 0.575 -2.312 -0.810 0.519 0.079 -0.314 -1.149 0.068 -0.967 0.572 1.626 -0.958 -0.099 0.300 -0.104 -1.868 1.583 -0.638 1.513 1.292 -0.554 0.280 -1.070 0.852 -0.452 0.185 -0.616 0.972 0.038 -0.733 -0.462 -1.773 0.811 -0.870 -0.257 -0.908 -1.539 0.933 -0.016 -1.215 -2.020 1.193 0.894 0.564 0.826 -1.638 1.400 0.079 -1.397 -0.670 0.596 -0.219 -0.000 -0.020 0.266 -0.944 0.464 -1.330 -0.084 -0.499 -0.820 0.562 -1.689 -0.603 0.056
2.110 1.993 -1.796 0.739 1.451 -1.297 0.054 -0.001 -1.232 -0.333 0.309 -0.751 -0.369 -0.252 -0.113 0.428 0.857 0.540 0.551 -0.344 0.074 -0.565 0.948 -2.063 -0.618 -1.477 -0.640 -0.482 0.131 -1.061 -1.343 0.479 1.100 -0.847 -1.437 0.363 0.542 -0.154 -2.039 0.160 -0.291 1.536 -0.470 -0.408 -0.151 -0.435 -1.247 1.313 -1.747 -1.578 -2.059 0.247 2.048 -1.406 -2.148 -0.074 -1.120 -2.667 0.224 1.031 -0.214 0.901 1.497 -0.406 0.838 0.145 0.122 -1.018 -0.829 -1.379 -0.307 -2.765 0.063 -1.312 0.075 -0.680 0.860 -0.460 0.129 -3.131 1.331 1.120 -0.077 -0.246 -0.382 1.490 -0.362 0.540 -1.000 0.474 0.720 -0.681 -0.396 2.386 0.622 0.648 -2.302 1.966 0.327 0.204
-1.270 0.525 0.296 0.904 -0.632 0.757 1.033 1.462 -0.298 0.077 0.123 2.062 0.537 0.419 1.230 0.940 -1.278 -1.662 0.053 -0.861 0.262 0.938 0.579 -0.633 -0.239 -0.037 0.438 1.686 -0.076 -1.515 -2.102 1.361 -0.246 0.225 -1.033 -1.001 0.356 -0.561 0.620 0.189 -0.319 -0.123 -1.072 -0.767 -0.548 0.155 -2.150 -0.828 1.447 0.263 0.980 0.370 1.213 0.150 -0.027 0.491 1.100 -2.560 1.169 -1.705 0.155 0.647 1.185 1.281 -2.026 1.410 1.630 0.806 -0.387 -0.978 0.325 -1.815 0.675 0.071 0.608 -0.694 -1.374 1.485 -0.109 0.375 -0.775 1.029 1.631 -0.275 -1.303 -0.896 -0.964 -0.697 -1.322 1.078 -1.905 -0.631 -0.726 -1.556 -0.731 0.171 -0.182 -0.016 -0.231 0.951
-1.570 1.106 0.521 -1.680 0.638 -0.922 2.483 0.469 0.411 0.789 -0.433 0.433 0.699 1.312 0.027 -0.124 1.011 0.468 -0.535 -1.172 -0.313 0.532 0.818 2.094 -0.410 1.179 -0.085 0.688 -1.491 -0.748 1.599 -0.472 0.687 0.445 1.155 -0.416 1.093 0.997 0.090 1.410 0.051 -1.787 -1.459 -0.273 2.738 -0.509 -0.030 -0.634 -1.172 0.702 -1.614 1.799 0.797 1.277 -0.497 -0.492 -0.949 0.050 -0.296 -1.417 -0.812 0.733 0.507 1.604 1.137 -0.334 0.190 0.069 0.046 -0.971 -2.569 -0.417 1.686 0.760 -0.371 0.921 -0.226 0.954 -0.451 0.815 2.080 0.396 -0.622 -0.175 1.238 0.996 -1.145 -2.103 0.912 0.773 -0.511 -1.019 1.580 -0.122 0.339 0.398 -0.662 -0.175 1.593 0.645
2.578 -1.067 -0.107 -0.458 2.209 0.737 -0.159 -0.314 -1.244 1.505 -0.437 1.731 0.234 0.968 1.226 -0.417 -1.535 -1.780 -1.437 -1.877 0.956 -0.962 -2.042 -1.084 1.647 -0.838 -0.095 -0.911 -0.113 0.430 -0.883 -0.259 -0.566 1.213 -0.312 0.351 -0.846 -1.070 -1.369 1.413 1.437 -0.101 0.089 -0.055 -1.490 -1.701 -0.506 -0.154 -0.530 -0.042 2.029 0.040 0.882 1.693 1.921 -0.738 0.670 1.454 -1.190 1.084 -1.971 -1.308 0.945 -1.269 -2.585 1.579 0.858 -2.197 -0.531 -0.194 0.527 -0.303 -0.483 1.015 -0.576 -0.144 -1.085 0.382 -1.335 0.588 -1.037 0.834 0.188 -1.305 0.833 0.135 0.750 -0.421 0.887 -1.654 -0.870 -1.736 -0.517 -0.622 -1.378 -0.574 -2.072 0.449 -0.634 0.572
-0.127 0.234 0.575 0.675 -0.389 -1.287 1.363 -0.918 -0.631 1.339 -0.033 -0.160 -0.676 0.788 1.214 -0.646 -0.393 -2.116 -1.752 -0.453 0.951 -0.769 0.422 -1.142 -1.619 0.243 -0.627 0.824 1.672 -1.634 -1.771 1.999 -0.372 -0.760 0.006 1.714 -0.276 -1.956 0.939 1.094 -0.008 -1.652 1.602 0.331 0.785 1.221 -0.132 -0.385 0.989 0.795 -0.516 1.057 -1.041 0.548 1.177 -0.376 0.081 0.408 0.326 -0.399 0.702 0.600 -0.225 1.797 -1.384 0.370 -0.260 1.371 -1.629 0.070 -0.013 1.346 1.115 -1.642 -0.379 -0.781 0.484 0.573 0.122 0.817 -0.103 1.059 0.843 0.728 0.390 0.954 0.580 -0.646 -1.090 0.465 1.428 2.437 0.119 1.411 -0.748 -0.467 0.759 0.075 2.476 -0.931
0.495 -0.716 1.340 -0.165 0.563 -0.997 0.451 2.018 0.200 -0.218 -1.448 0.873 -2.551 -0.895 1.979 1.870 -0.112 -0.691 -0.292 -0.704 0.876 0.225 -0.155 -0.126 0.180 -0.573 0.518 1.120 0.068 1.080 -1.420 -0.483 0.401 0.553 1.173 0.740 0.450 -0.054 0.963 0.629 1.650 -0.417 1.865 1.940 -1.809 1.413 0.805 0.328 1.013 0.341 0.682 1.073 -0.209 -0.206 2.266 0.119 -1.040 0.383 0.660 0.777 1.956 0.119 -1.619 1.480 -0.573 -0.581 1.499 -1.379 -0.282 -1.177 0.095 -0.892 -1.422 0.426 -0.312 0.836 0.275 1.766 1.384 -0.126 -1.109 -0.611 0.033 0.138 1.588 -0.209 -1.153 -0.152 0.576 1.289 -0.902 -0.378 -0.071 -0.948 -0.460 1.815 -0.188 0.995 -0.134 1.549
0.226 -0.408 -1.998 0.064 2.153 0.547 0.816 -1.090 1.784 -0.318 -0.945 -1.603 0.207 -1.615 -0.353 -0.475 -1.934 0.199 0.304 1.332 2.687 1.688 -0.298 0.583 0.303 0.480 -0.147 1.086 -0.677 -1.911 -1.027 -0.772 1.698 -1.471 -0.129 -0.763 -0.109 0.423 -0.824 -0.496 0.109 0.531 -0.519 0.967 1.448 0.331 1.355 -0.413 -0.128 1.387 -0.654 -1.076 1.108 -1.689 -0.821 0.002 1.533 -1.110 1.508 1.022 0.653 0.101 -0.919 -1.890 0.313 0.676 -1.482 0.344 -0.094 -0.284 0.422 -0.697 1.134 0.905 -0.470 -2.480 -0.689 -0.042 -2.138 -0.143 0.259 -0.339 -2.534 -1.617 -0.364 0.828 -1.117 -0.289 -0.557 0.902 -2.533 0.932 -0.060 -0.862 0.805 0.736 0.123 0.199 0.914 -0.059
-1.536 1.663 0.805 -0.966 -0.637 -2.030 1.447 0.116 -0.507 1.503 0.860 1.132 -1.222 -2.415 0.946 -0.469 0.025 1.486 1.271 -2.200 -1.349 0.767 -1.044 -0.530 0.004 0.778 1.092 0.139 0.904 0.479 -1.682 -0.207 -0.102 -2.123 0.374 0.314 -0.740 0.800 -0.661 1.477 0.046 0.299 -0.005 -0.588 -0.838 -0.320 1.918 -2.518 -0.054 0.016 -0.394 -0.513 0.078 1.111 1.051 1.080 1.479 0.170 -0.826 -2.180 -1.190 0.886 -0.076 1.318 -1.240 0.374 1.168 -0.063 -0.275 -0.928 0.356 0.741 -2.093 0.551 -1.057 -0.435 -0.103 -0.891 -0.105 0.262 1.234 -0.944 0.002 1.155 -0.855 1.457 1.827 -0.310 -0.461 -0.431 -1.022 0.195 0.262 -0.285 0.569 0.554 0.295 -0.577 0.559 0.888
-0.122 -1.064 0.983 -0.899 0.995 -0.158 -0.127 -0.214 1.288 0.555 0.156 -0.076 -1.099 1.026 0.008 -0.267 0.319 0.742 0.613 -0.614 0.568 0.374 -0.224 -1.034 -0.027 -0.209 -1.101 -2.436 -1.168 0.039 0.839 0.099 -0.156 -0.402 -0.703 1.376 -0.899 -1.882 0.562 0.450 0.540 0.345 -0.046 -1.582 0.261 1.821 -0.392 -0.358 -0.275 -1.087 -0.786 -2.469 -1.547 -1.479 0.842 0.854 -2.167 -0.034 1.054 2.176 1.594 -0.262 -0.138 -0.260 -0.177 1.332 1.045 -0.649 0.220 -1.295 0.503 0.065 0.798 1.257 -0.174 0.395 0.135 -0.611 -0.326 0.609 -1.383 -0.531 -0.553 0.832 -2.073 1.099 -0.899 -0.237 -0.557 0.570 -0.716 -0.278 -1.953 0.436 -2.073 -1.849 -0.626 -0.104 0.498 -0.508
-0.006 -0.015 0.305 -0.305 0.954 0.962 0.046 -0.420 -0.731 -1.203 0.173 -0.273 -1.060 1.474 -0.552 1.016 -0.344 -0.204 -0.481 -0.367 0.482 0.184 0.890 -2.516 1.633 -1.036 -0.654 -1.266 -0.094 0.237 0.738 0.013 -0.766 1.542 -0.466 0.698 -0.800 -0.013 -0.174 1.054 -0.387 -0.852 1.520 0.347 0.804 0.008 -0.232 1.247 0.941 0.202 2.512 0.151 -0.838 2.091 -1.880 -0.363 -1.153 0.806 1.550 1.032 -0.372 -0.356 -0.945 -0.521 -0.135 -0.172 0.845 0.610 -0.790 0.080 -1.119 0.261 -0.098 -0.344 -1.729 1.323 -0.069 0.223 0.793 0.239 -1.151 -0.949 -0.891 0.866 -0.258 -0.008 0.336 -1.111 -2.661 -0.477 -1.133 -0.547 0.984 0.276 -0.249 -0.359 1.129 0.954 -1.839 -0.297
-1.110 -0.112 -0.113 -0.478 -1.262 0.386 2.378 0.339 0.248 1.824 -1.278 0.620 -1.458 -1.196 0.587 0.453 -0.564 1.214 -0.913 -0.176 2.086 -0.835 -1.981 0.003 1.583 0.047 -1.921 -0.008 1.025 -0.524 0.891 0.778 -0.191 0.000 1.157 -0.435 0.430 -0.366 0.106 -0.393 0.870 -0.293 -1.843 0.162 0.500 -0.462 1.124 0.429 -0.126 1.994 -1.449 0.062 -0.296 -0.102 2.237 -0.067 1.287 1.221 -1.700 -1.618 -1.035 -0.111 -1.760 0.280 1.417 1.349 -2.226 1.660 0.614 -0.204 -1.101 -1.868 -1.210 0.074 0.990 -0.417 0.712 -1.319 0.033 -0.702 0.110 1.375 0.975 -0.164 0.792 -0.638 1.133 -1.130 1.930 -0.199 0.850 -1.236 -0.256 -0.546 1.375 -0.501 -0.336 1.082 0.427 -0.602
1.043 -0.398 1.366 0.157 -0.368 0.561 2.093 2.489 -0.257 1.881 -0.064 -0.036 0.157 0.901 0.130 -0.145 0.160 1.104 0.317 1.486 -0.196 -1.033 -0.531 1.678 0.375 -0.342 0.023 -0.416 0.700 -1.147 0.538 -0.916 0.611 0.236 -0.478 -0.660 0.654 -0.181 0.648 0.673 -2.743 -1.260 -1.947 0.361 -0.233 1.592 -0.092 0.008 1.391 -0.031 -0.662 -2.525 -0.631 1.022 1.017 0.775 -0.440 -0.885 0.027 -1.784 0.501 -1.135 0.447 -1.864 1.086 0.646 -0.833 0.531 -0.160 -0.229 -1.420 -0.403 0.158 1.429 0.331 -0.241 0.201 0.997 0.348 -0.206 -0.847 -1.246 -0.170 0.422 0.751 -1.182 -0.647 1.186 -0.810 -0.004 0.663 1.026 -1.372 1.535 -1.219 1.125 0.990 -0.030 0.078 -1.564
2.021 -1.713 1.830 -1.555 -0.586 0.464 0.884 0.196 0.697 0.619 0.725 0.447 0.108 -0.313 1.344 0.461 -0.662 -0.109 -0.922 -0.301 0.995 0.131 -0.760 -1.243 0.011 1.311 0.548 0.561 -1.840 -0.036 -1.324 -0.108 0.587 2.025 -1.195 -0.038 0.288 -0.302 -0.888 1.977 -0.130 1.331 -0.114 -0.721 1.188 -0.934 -0.352 0.340 0.061 0.725 -0.290 1.755 -0.187 -0.583 -0.757 1.678 0.480 2.468 -0.734 1.138 0.638 2.315 -0.011 0.381 -0.928 0.742 -0.400 -0.561 -0.578 -0.527 1.576 -0.352 -1.098 0.449 0.850 0.464 0.427 -0.156 -2.688 0.230 1.805 -0.569 0.751 0.624 -2.020 1.626 1.641 -1.105 -1.504 -0.733 1.177 -0.401 0.322 0.157 0.648 0.604 -2.071 0.912 -0.954 -0.873
-0.316 0.002 0.902 -0.149 0.181 0.629 0.891 -1.240 0.642 0.648 -0.181 -1.766 1.121 -2.331 -0.349 0.684 -0.472 -0.891 1.039 -0.810 -1.674 0.539 1.130 0.528 1.349 0.299 -2.148 0.772 1.124 -2.613 -1.033 1.221 0.694 -0.058 -0.398 -0.864 -1.001 0.065 -0.775 0.681 -1.292 -1.521 -0.723 -1.191 0.722 -0.683 1.102 -0.665 1.662 -0.294 0.092 -0.224 1.580 1.115 0.713 -1.079 -0.706 -1.263 -2.237 0.416 -0.009 0.568 1.125 -0.777 -0.232 0.559 -0.346 -0.548 -0.088 -1.367 1.017 2.869 -0.348 1.505 0.036 -0.198 0.462 0.036 -0.328 0.919 1.760 -0.484 1.835 -1.927 -0.875 -1.011 0.153 -1.167 -0.009 1.645 0.307 1.423 0.011 -0.481 0.122 0.690 0.162 1.147 1.231 -0.065
1.166 -0.622 1.078 -0.677 -1.868 -1.189 -0.354 -1.127 0.145 0.216 -0.189 -0.893 0.563 -0.717 0.372 -0.237 0.074 0.511 0.727 1.292 -0.327 0.677 1.103 0.237 0.142 -0.771 1.118 1.685 0.493 1.609 0.358 0.114 0.713 -1.203 0.278 -0.196 0.545 -1.141 1.002 -0.860 0.363 0.102 -1.838 0.911 -1.086 -0.040 2.163 -0.839 1.541 0.457 0.237 0.235 -0.796 0.711 0.631 0.189 -0.103 -0.754 -0.390 0.113 -0.845 -0.247 -0.275 -2.034 -0.163 1.188 -0.546 -0.052 -0.847 -2.689 -0.447 -0.473 0.609 -1.621 -1.252 -0.166 -0.721 -0.346 -1.293 -0.261 -0.202 1.276 1.046 0.860 0.730 -0.392 -0.747 0.295 0.360 0.087 0.215 -0.648 0.965 -0.863 0.666 0.080 -0.256 0.512 0.495 0.633
-0.308 -1.073 0.386 -0.161 -1.724 -0.517 0.642 -0.933 1.569 -1.411 -0.838 1.791 0.177 -1.488 -0.516 0.317 0.252 0.790 -0.645 0.810 0.022 1.907 -0.438 1.363 0.621 -0.001 -0.606 0.040 -0.301 1.019 0.568 -2.297 -0.810 -0.309 -1.473 -0.245 0.277 0.368 0.071 1.044 -1.588 -0.747 -0.099 -0.094 -0.774 -0.680 0.172 0.048 -1.545 0.522 0.970 0.409 1.036 0.596 -2.048 -0.619 -0.278 -0.778 -0.022 -0.764 -0.277 1.282 1.237 1.033 0.326 0.533 0.462 0.850 0.169 0.775 1.058 -2.370 -1.074 0.149 0.451 -0.022 -0.389 -0.268 1.592 0.625 1.124 0.301 0.164 1.043 -0.309 -0.930 0.130 0.997 -0.495 -0.521 0.483 -0.808 -0.919 -1.002 -0.801 0.312 -0.412 -0.851 0.640 -0.436
0.341 0.608 -0.486 -0.080 -2.033 0.523 2.983 -0.535 0.882 -0.638 0.899 -0.472 -0.242 -1.019 1.716 -0.262 -0.088 0.231 1.165 1.436 0.394 2.435 0.341 1.070 0.882 0.200 -0.909 1.188 -0.778 1.176 0.503 -0.364 -0.922 0.240 1.183 -0.494 -1.054 0.223 -0.061 1.081 2.184 0.165 1.686 -2.013 0.680 0.168 -0.077 -0.985 -1.496 0.169 1.306 -1.039 -2.988 1.050 0.069 0.628 0.523 -0.689 -0.985 0.150 0.018 0.549 0.550 -0.720 -1.367 -1.277 0.092 -0.411 0.616 1.254 -0.346 1.084 -0.340 -1.817 0.532 -0.853 0.656 2.021 -0.323 1.001 -1.643 0.860 -0.823 -0.387 1.922 0.790 0.063 -1.331 0.654 1.677 0.295 1.639 -1.822 -0.088 0.445 -1.222 0.017 0.316 0.553 0.346
1.049 -0.229 -0.902 -1.397 0.796 -0.071 -0.036 -0.186 0.243 1.355 -0.166 0.991 0.490 0.595 -0.479 -0.259 -0.683 0.517 -0.443 -0.499 0.522 -1.676 0.711 0.822 0.594 0.133 -1.528 0.309 0.785 -0.869 1.229 -1.228 0.630 2.724 -0.506 0.206 -0.501 1.252 -0.651 -1.071 0.115 0.646 0.709 -0.373 -0.524 -0.635 1.966 2.025 -0.784 -0.329 0.130 -0.452 -0.477 0.184 -0.973 -1.499 0.810 0.673 -3.451 -0.121 0.087 -0.548 1.074 0.953 0.969 0.241 -2.186 -0.760 0.333 0.125 -0.501 1.545 0.078 1.350 -0.551 -2.949 -0.575 -0.802 0.316 -0.071 -0.143 0.694 -0.871 -1.498 -0.152 -0.576 1.068 1.728 -1.731 0.067 -0.322 -0.756 -1.077 0.647 -0.196 0.064 -0.165 -0.825 -0.208 -0.825
-0.320 -0.314 -0.519 0.004 0.727 -0.685 -1.319 0.991 -1.177 1.285 0.039 -1.271 -0.371 0.966 -0.398 0.066 0.847 -2.187 0.519 0.187 -0.642 0.341 -2.083 0.600 0.177 0.752 -0.457 2.164 -0.908 1.452 -0.237 -0.023 0.750 -0.122 1.096 -0.526 -1.295 0.229 0.165 0.346 -1.118 -1.782 1.061 2.077 -1.655 0.743 -0.686 -0.937 0.088 -1.150 -0.323 -0.846 0.854 -0.378 1.756 1.830 -1.140 0.210 -1.568 -1.074 -0.016 1.797 -1.555 0.537 0.479 -1.097 0.034 -0.454 -0.109 -0.011 -1.907 0.486 0.544 -0.982 1.393 -0.860 -0.834 0.381 -0.929 -1.284 -0.675 -1.139 -0.711 -0.863 1.756 -2.221 0.335 -1.192 -2.271 0.785 0.557 0.456 -0.027 -0.483 1.195 0.090 -0.142 -0.064 0.030 -0.536
0.343 -0.457 0.620 -0.760 0.713 0.722 -0.812 0.855 -0.781 -0.502 1.032 -0.686 0.431 0.474 -1.090 1.396 -0.440 1.251 -0.645 1.222 0.931 -1.562 -0.042 0.953 -0.774 0.706 0.686 0.270 1.575 -0.858 -0.834 1.097 -1.258 0.527 1.797 -0.633 -0.706 1.144 0.933 -0.887 -0.293 0.561 -0.227 -0.302 0.542 -0.544 0.072 -0.773 1.346 -0.369 -0.117 -0.539 -0.518 -0.101 0.110 -1.240 -0.022 -0.912 -1.139 -0.027 0.741 -1.124 -1.467 1.010 -1.924 -0.441 -0.354 -0.172 0.776 -2.138 1.638 -0.067 -0.710 -0.161 -0.331 0.938 1.128 -1.126 -1.060 -0.802 1.738 1.039 1.053 0.635 0.899 0.255 -0.552 0.138 1.985 0.299 0.019 -0.461 0.262 0.959 -0.932 0.700 -0.142 0.219 -0.254 0.543
-0.017 1.363 -0.752 -1.160 -0.540 -0.290 -1.428 -0.842 -0.532 -1.287 0.285 -0.259 -0.927 0.216 1.980 -1.307 0.178 -0.288 1.616 0.680 -1.792 -1.445 2.477 0.549 -1.240 0.046 -1.491 0.331 1.302 0.247 1.317 -0.387 -1.038 -0.382 -1.019 -0.025 1.201 1.070 -1.241 1.341 -0.296 0.425 1.523 -0.492 0.051 0.535 -0.005 0.217 -0.264 -0.941 0.357 2.413 0.909 1.172 -0.116 -0.022 -0.412 1.984 0.091 -1.238 0.354 -0.769 0.432 -0.250 -0.410 1.906 -1.098 -1.470 -0.088 -2.308 0.393 -0.174 1.218 -1.618 -0.589 0.029 0.393 0.742 0.437 2.670 0.139 -2.152 -0.160 -0.537 -0.411 0.734 -1.246 0.934 0.242 0.811 -0.333 -0.358 -1.774 -0.932 -0.079 0.987 0.287 1.261 1.072 -0.624
1.267 -1.219 -0.546 0.994 -1.128 0.752 -0.001 -0.672 0.304 -0.051 1.188 0.888 -2.288 -1.136 0.575 2.414 0.745 0.564 -0.207 0.490 1.183 -0.110 -1.403 -0.067 0.385 1.720 -0.680 0.851 1.175 -0.117 -1.412 0.091 0.019 -0.738 0.532 0.102 -0.606 0.587 0.516 -0.369 0.101 1.261 -0.320 0.731 -0.669 0.485 -0.480 -0.680 -0.614 -0.292 -0.905 -1.419 0.822 0.576 1.066 -0.495 -0.028 0.525 0.665 -1.024 -0.097 0.101 0.232 -0.437 -1.183 -1.308 0.956 -0.440 0.806 1.270 0.008 -1.328 0.894 -1.300 0.114 1.592 0.508 -1.655 0.503 1.124 1.473 0.136 -0.908 0.888 0.257 1.056 -0.485 1.388 -0.210 0.275 -0.706 0.861 1.214 0.267 -0.475 -1.050 -1.067 0.275 -1.683 0.396
1.930 0.200 -0.349 -1.414 -0.162 0.938 0.142 -0.955 0.639 -0.274 -0.538 -2.035 0.994 -0.832 0.701 0.373 -0.436 -0.992 -0.595 0.067 0.826 -0.049 -0.676 1.874 0.061 1.559 0.096 -1.266 -1.346 0.362 -0.289 -0.529 -0.922 0.836 -1.121 -1.670 1.151 -1.045 0.493 -0.077 -0.303 3.428 0.348 -0.680 0.159 1.695 -0.604 -0.241 -1.296 -2.772 0.108 2.052 1.330 0.913 -0.374 0.589 -0.876 0.921 -1.589 -0.886 -2.156 0.030 0.778 0.679 -0.206 -0.401 -1.236 -0.057 -0.504 0.091 0.734 -0.811 -0.543 -0.739 0.007 -0.106 -0.873 1.821 -2.157 -0.132 0.422 1.543 -1.922 0.219 -0.591 -2.178 -1.115 -1.307 0.158 0.252 -0.469 -0.281 -0.783 -0.604 -0.943 0.192 1.449 -0.228 0.062 0.311
0.375 -0.223 0.905 0.435 -0.125 0.423 0.321 0.210 -1.709 1.228 -0.228 1.033 -1.812 0.255 0.485 -0.191 -0.134 -0.018 1.014 0.102 0.762 -0.272 3.208 -1.500 -0.807 1.194 -1.057 -1.675 0.239 0.307 -1.002 0.274 -0.925 0.707 0.401 0.191 0.512 -1.040 -0.486 0.391 0.652 0.171 -0.666 -0.319 -2.279 -0.903 0.256 0.748 0.661 -1.250 0.419 0.149 0.831 -1.231 0.711 0.914 -0.721 -0.539 -0.089 1.505 0.547 -1.994 -0.488 1.730 0.767 2.278 -1.819 -1.202 -1.189 0.211 1.792 -0.620 0.496 0.240 -0.156 -0.340 1.528 0.026 -0.747 0.344 0.181 -1.283 -0.387 -0.477 1.040 -0.355 0.800 0.538 0.201 -0.309 -0.973 -0.490 1.615 -1.840 -0.767 1.507 -0.196 -0.699 -0.096 -0.051
0.127 0.277 0.267 0.752 -0.506 -1.210 -0.169 -0.575 -1.655 0.509 -1.572 -0.041 1.525 -0.362 -0.996 1.142 -0.127 0.220 -0.057 -1.163 -0.254 -0.431 1.661 -0.484 -1.120 0.989 -0.746 -1.227 0.096 -0.233 -1.979 -0.973 -0.836 0.531 -2.017 1.560 -0.361 -1.097 0.228 1.143 0.940 -1.260 -1.766 0.997 -0.318 -0.097 0.566 0.735 -1.115 -0.993 1.291 1.875 -1.825 0.589 -1.837 -0.028 -1.736 -0.028 -0.826 0.553 -1.211 -0.310 0.107 0.375 1.339 0.177 0.087 0.067 1.024 -0.573 0.193 0.284 -0.330 0.192 -0.894 1.100 -0.636 0.186 -0.410 -0.838 -0.460 -0.016 -0.737 -1.105 -0.892 1.108 -0.642 -1.117 0.322 -0.098 0.359 -0.254 1.844 0.180 -0.967 -0.365 0.276 -1.274 -0.352 1.450
0.250 1.644 -0.813 -1.293 0.221 2.674 0.168 -0.736 0.740 -0.903 0.635 -1.155 -1.471 0.156 1.914 0.878 0.406 -0.062 0.220 0.178 2.348 0.751 0.925 -1.442 -1.652 -0.317 -0.259 -0.307 -0.293 0.484 -1.491 0.181 -0.518 0.628 0.667 0.779 -0.388 0.082 0.436 -1.352 -0.691 -0.042 0.805 0.983 -1.036 -0.045 0.225 -0.444 -1.020 -1.920 -0.263 0.699 -1.284 0.677 -0.585 0.517 0.762 0.731 0.938 -0.832 -0.856 0.352 -0.350 2.076 1.582 0.844 -0.227 -0.490 -0.695 1.320 -0.857 1.598 2.892 -0.877 -1.612 -1.446 0.152 -0.032 -0.033 -1.080 1.204 -0.405 -0.924 -0.829 -0.343 -2.422 0.678 0.635 0.295 -0.665 0.118 0.168 0.474 -1.293 -0.166 0.541 -0.815 -0.816 0.399 -0.211
1.015 -0.324 -0.726 -1.234 -1.733 -1.128 2.338 -0.881 -0.463 1.394 1.533 0.738 -0.984 0.490 -1.140 -1.702 -1.143 0.335 0.421 0.631 0.945 -0.690 0.858 -0.655 -0.059 0.539 0.536 1.564 -2.019 0.449 -1.297 -1.042 0.143 0.219 1.209 -1.418 0.818 -1.376 2.644 -0.892 0.476 -0.221 1.004 -0.802 2.144 -1.142 -1.037 0.035 1.129 -1.212 -0.079 -0.338 0.395 0.077 0.685 -1.233 0.625 -0.238 0.148 -1.155 -1.085 0.204 0.473 0.472 2.125 0.360 -0.140 -2.219 -0.270 0.478 -0.194 -0.412 -0.076 -0.474 0.880 -1.116 0.799 -2.550 1.328 0.293 -1.674 0.951 0.165 -0.378 0.132 0.798 -0.207 0.596 -0.621 0.417 0.376 0.205 -1.188 0.720 0.494 0.542 -0.730 -1.253 0.435 -0.018
0.807 2.138 -1.414 0.816 -0.243 -0.578 -1.987 -0.462 -0.549 0.094 -0.677 0.656 -0.496 0.621 -0.678 0.990 -0.738 0.556 1.869 -1.121 0.370 -0.085 -1.208 0.286 -0.875 1.512 -0.035 -0.731 1.837 0.058 0.232 -0.365 1.811 -0.272 -1.181 -1.476 -1.293 -1.703 -0.172 -0.024 -1.066 -0.672 -1.267 -0.027 -0.435 -1.217 -1.206 -1.210 0.179 -1.272 -0.333 -1.171 -0.430 -1.880 0.007 0.246 -0.721 -0.142 0.320 -0.712 0.459 -2.966 0.371 0.692 -2.297 1.032 -0.951 1.361 -1.947 -0.785 0.969 -0.517 -0.715 0.761 -0.034 -1.026 0.197 -1.944 -1.397 0.546 0.951 0.458 -0.807 -1.468 1.349 0.978 -0.654 -1.428 -0.782 0.655 0.651 0.946 0.440 -1.047 0.888 0.517 -0.129 -0.312 -0.159 0.240
-1.170 1.513 0.809 0.305 2.789 -1.704 0.857 -1.223 0.123 0.316 1.147 -1.269 -1.072 -0.644 1.987 0.392 -0.297 -0.034 1.048 1.537 -0.393 0.148 1.687 -1.412 -0.356 -0.930 0.578 -0.936 -0.102 0.902 0.488 -0.279 -1.977 1.267 -0.302 -0.710 1.432 -1.255 -0.133 0.022 -0.975 -1.713 0.373 0.365 -0.775 -0.637 0.887 -0.103 0.417 1.614 0.955 1.087 -0.139 -0.353 -0.391 -1.404 0.740 -0.336 0.008 -0.875 0.781 0.215 0.867 0.785 2.078 -0.092 0.290 -1.156 0.351 -1.490 -1.254 2.213 -0.586 0.654 1.203 1.381 -0.394 0.412 1.335 -0.315 0.433 -0.068 -0.056 0.363 1.053 1.468 0.905 0.777 0.834 0.882 -0.280 -0.441 1.157 -0.706 -0.820 -0.388 -3.009 0.348 -0.423 -0.284
-1.162 -1.559 -0.829 0.641 0.178 -0.304 1.905 -1.081 0.442 0.285 2.633 2.398 -0.558 0.687 0.595 -1.161 1.432 1.680 0.643 0.141 1.056 0.339 0.454 2.353 -1.056 -0.583 -0.401 -1.977 0.588 0.290 1.402 -0.647 1.847 -0.621 1.514 -2.157 0.471 0.299 1.598 2.327 0.028 -0.945 -0.731 1.508 0.478 -0.283 -0.712 -1.379 -0.128 -0.064 1.639 1.458 -0.242 1.611 -0.555 0.850 -0.498 -0.094 -0.500 1.186 -0.732 0.470 -1.582 -0.792 0.331 1.085 -1.337 -0.329 0.484 1.075 0.743 -0.071 0.015 -1.851 1.517 -1.830 -0.299 -0.414 -0.340 0.104 -1.065 0.310 0.436 -0.718 -1.237 0.550 0.151 -1.769 1.194 0.263 -0.412 0.671 -0.652 0.760 0.853 -0.361 -0.949 0.387 1.335 -1.087
0.914 -1.050 -0.820 -0.676 -0.169 0.276 0.843 -0.035 -0.618 -1.240 -0.015 2.246 0.384 1.396 -0.898 -0.813 -0.031 0.381 -1.242 -0.929 -0.191 -2.160 0.995 -1.909 0.450 -0.441 0.892 0.431 -0.111 -0.646 1.798 -0.874 0.834 0.293 1.411 1.285 -0.539 -1.655 1.923 -0.960 0.968 0.033 0.123 3.079 -1.671 1.185 -0.040 0.182 0.237 -1.099 -0.277 -0.976 -0.657 0.467 1.498 -1.779 -1.139 -0.262 0.323 0.235 0.160 -0.925 -1.910 0.034 -0.798 -0.226 -0.469 0.788 -1.481 1.364 -0.432 0.192 -1.772 1.579 2.106 -1.118 0.263 -2.166 -1.622 -0.795 -0.879 0.828 -2.610 0.542 2.061 -0.297 0.461 -0.827 0.744 0.010 -2.221 -0.337 2.000 -0.970 -0.063 -1.394 -0.820 -0.866 -0.396 0.011
0.411 -0.777 0.852 -1.641 -0.744 -0.125 -1.649 -0.001 -0.954 1.479 -0.017 0.121 -0.357 -0.795 -0.340 -0.790 1.589 0.770 -1.468 1.567 -0.149 -0.899 0.690 -0.195 -0.236 1.378 0.025 -0.635 -0.054 0.804 -1.448 -0.713 -0.752 -0.209 0.348 -0.675 -1.371 -0.701 -0.664 0.788 0.580 0.530 1.108 -0.128 0.423 -1.647 0.061 0.383 -0.203 0.166 -0.608 -0.195 -0.850 0.783 -1.093 0.146 -1.272 -1.014 -0.728 3.022 1.301 0.518 0.148 1.093 0.985 -0.997 0.629 0.586 -0.104 2.086 -0.078 0.566 -0.853 -0.799 0.798 0.240 0.497 1.808 -0.652 -0.706 -0.118 -0.377 -1.837 -0.565 -1.108 -0.174 1.848 -1.074 -0.172 1.788 -0.694 0.237 -1.558 1.323 -0.372 -0.350 -0.202 0.188 -0.567 -1.065
-2.838 -1.303 -0.799 -0.585 0.326 0.574 0.811 0.367 0.572 -1.506 -2.467 1.552 0.611 -0.251 -0.130 0.003 0.187 1.862 -0.810 1.223 0.421 0.114 -0.268 -0.272 1.851 1.334 -0.520 -1.395 0.310 -0.264 0.236 -0.232 -0.548 0.265 0.098 -1.296 1.440 -0.131 -1.154 -0.731 1.813 -0.342 0.185 -0.397 -0.754 0.701 -1.015 -0.324 0.466 -0.086 1.114 -2.044 -1.312 1.357 0.276 1.266 1.434 1.225 -1.219 0.963 -0.075 -0.499 -0.373 -1.836 -1.163 -1.234 -2.553 0.997 0.736 -0.151 -1.205 0.617 1.476 2.141 1.873 -1.226 -0.594 -1.197 -2.133 0.297 0.820 0.415 -0.252 -1.070 -0.952 0.365 1.886 0.723 0.587 0.869 0.746 -0.898 -0.285 1.302 0.166 -1.829 -0.514 0.551 -0.052 -0.130
1.017 -0.904 0.401 -0.397 -2.543 1.071 1.484 1.775 -0.284 -0.319 -0.503 -1.920 -1.028 -0.235 -2.001 0.790 -0.676 0.237 1.757 -1.617 0.718 -0.775 1.462 -0.161 -0.022 0.027 0.578 1.185 2.122 1.013 -1.320 -1.022 -1.169 -1.642 -1.524 -0.584 -0.500 0.023 0.821 1.135 -1.005 0.140 0.077 0.853 0.078 0.605 0.041 0.038 0.626 0.993 1.074 -1.497 -0.061 -0.947 0.556 0.422 1.321 -0.758 -0.399 -1.650 0.757 0.489 -0.332 -0.290 -0.749 0.357 -0.457 0.165 -0.345 1.867 -0.806 -1.557 -1.606 1.276 -2.319 -2.231 1.159 1.378 0.076 -0.629 -0.114 1.526 -1.751 -1.420 1.189 -1.396 1.319 0.711 1.088 -1.063 -0.707 -0.428 0.744 0.546 -1.295 1.348 1.409 0.491 0.219 -2.720
1.032 -1.945 -0.779 -0.092 -0.242 -0.589 0.410 -0.109 0.192 -1.028 -0.304 -1.226 1.184 0.352 -0.383 1.230 0.051 0.939 1.228 1.417 -1.806 -0.845 0.744 -0.493 -1.322 -0.567 0.834 0.440 -0.931 -0.444 0.186 2.267 0.729 -0.137 0.249 -2.786 -0.076 -0.556 0.738 1.292 -0.195 1.615 -0.579 0.695 0.273 1.930 0.586 -1.385 -0.259 -0.361 -1.050 -0.729 1.446 -1.003 -1.020 0.341 0.774 0.419 0.077 0.216 -0.291 -0.198 -0.659 -2.503 -0.528 1.781 1.842 0.350 0.682 -0.182 -0.818 0.560 0.018 -0.598 -0.416 -1.343 0.588 0.990 0.681 1.518 -0.074 -0.018 1.163 1.419 -0.946 -1.556 0.155 0.080 -1.874 -0.660 -0.440 0.046 2.089 -0.958 0.586 1.834 -1.269 0.061 -0.861 0.078
-1.957 -0.538 -0.390 -0.601 -1.120 -0.051 -2.550 -2.227 0.161 1.457 -1.370 0.920 -1.525 0.270 0.063 0.006 -1.170 0.564 0.642 -0.364 -0.566 0.801 -0.871 0.098 -0.427 0.329 0.594 0.313 -0.420 -2.667 -0.430 0.223 -0.035 -1.844 0.311 0.436 -0.375 -0.910 0.785 1.315 -0.510 -1.848 1.287 0.142 -1.736 -0.289 1.051 -0.022 1.506 0.359 1.413 1.312 0.971 -0.605 0.866 1.381 -2.078 0.272 0.028 -1.076 -1.661 1.175 -1.413 0.563 0.026 0.971 -1.982 0.337 -0.463 -0.227 -0.467 0.912 0.263 0.322 -1.182 -1.058 -1.011 -1.608 0.944 -0.713 -1.067 0.380 -0.160 -0.371 -0.468 0.233 0.335 -0.184 0.814 -0.648 0.030 1.020 -0.287 -1.030 1.197 0.393 -0.337 -0.791 1.607 0.096
-1.838 0.332 0.899 1.174 -0.710 -0.303 -0.542 -0.600 0.260 2.341 -0.052 -1.759 -0.990 2.060 -0.390 0.579 0.713 -1.402 -1.407 -0.431 -0.324 -0.724 -0.374 -0.033 -1.453 -1.194 -1.466 2.149 1.838 2.615 -0.484 -0.216 0.388 -0.981 -1.079 -0.275 0.134 2.408 0.702 -1.339 -0.133 -1.574 -1.602 1.083 -1.424 -1.446 -0.124 0.019 0.809 0.511 0.152 1.345 0.467 -2.066 -0.351 -2.743 -0.216 -1.358 -0.713 0.614 -1.418 -0.618 -0.641 2.487 0.121 0.193 -0.367 -0.688 0.333 2.674 -0.670 1.845 -0.840 -0.849 0.957 -0.586 0.095 0.032 -0.289 0.092 -1.093 1.198 -0.370 0.561 -0.032 -0.033 0.965 1.293 1.734 0.686 0.040 0.010 -0.186 0.766 -0.101 0.741 0.786 0.214 0.941 -0.070
1.658 0.583 -0.441 0.644 -0.428 -0.822 -2.185 -1.432 0.551 0.040 -1.023 -0.402 1.082 -0.669 -0.924 0.300 0.849 0.616 0.349 1.436 0.954 -0.691 -1.096 0.691 0.685 -1.830 -0.366 -0.003 0.287 0.037 -0.156 -1.276 -0.107 0.556 0.100 0.026 -0.692 -0.711 -0.155 -0.618 1.177 0.674 -0.155 -0.289 -0.135 -2.404 -0.623 1.084 -1.294 -0.703 0.332 -0.246 -0.813 1.486 -0.570 1.257 1.040 -0.658 1.111 0.357 0.972 0.399 -0.419 0.832 -0.720 0.497 0.050 -0.763 0.485 -0.430 -2.401 1.072 -1.180 -2.375 -0.399 1.183 0.214 -0.062 0.878 1.226 -0.414 -0.442 -0.624 -0.756 0.135 -0.494 0.714 -1.030 2.136 -2.484 -3.210 -1.004 -1.767 1.548 0.718 0.891 2.790 0.163 -0.451 1.491
0.423 0.832 -0.287 1.760 0.753 1.078 0.021 -0.914 -0.210 -0.034 1.143 -0.292 1.186 0.763 0.502 0.734 -0.629 0.279 -0.845 -0.605 -0.370 0.661 -0.797 1.025 -0.190 -1.896 0.240 0.075 -0.769 -1.060 -0.934 0.358 -0.997 -0.325 2.062 0.100 -1.061 -0.251 -1.449 1.730 0.342 -0.929 0.045 1.101 0.099 1.357 -1.608 0.432 -0.860 0.764 -0.126 -1.508 -1.034 -0.905 -0.491 -0.535 1.027 -1.093 -0.074 1.804 -0.144 -1.175 0.251 0.789 -0.808 -2.076 -1.047 0.441 -0.632 0.344 -1.263 1.191 -0.530 -1.290 0.871 -0.865 1.817 0.457 0.610 0.222 0.393 -0.736 -1.110 -1.016 1.110 -2.242 -0.664 -0.584 -1.372 -1.219 -0.101 0.956 0.346 0.427 0.548 -1.310 0.037 0.633 -0.029 0.321
-1.455 -0.557 -0.824 -2.314 0.873 0.068 0.752 -0.366 -1.243 -1.600 1.721 0.622 0.840 -1.970 1.956 -0.556 0.117 1.205 0.071 0.563 -0.218 -0.182 0.523 -0.792 -0.584 -0.791 0.644 -0.161 0.761 -0.726 -0.946 0.751 0.532 -2.373 -1.653 -1.877 0.308 2.768 -0.898 -0.834 -1.293 -0.605 0.032 0.220 0.325 -0.091 0.913 1.057 -1.550 0.216 -1.174 -1.933 0.613 -2.418 1.696 -1.371 0.495 0.442 0.969 -0.984 -0.319 -0.799 -0.163 0.620 -0.856 2.285 -0.027 -1.103 2.734 1.078 -0.345 -0.623 0.709 0.246 0.633 -0.236 0.552 0.332 -0.622 -0.282 -0.316 0.547 1.443 0.025 -1.045 1.411 -1.133 -0.516 0.597 1.401 2.180 -0.243 -0.082 1.062 1.084 -0.400 1.275 0.825 1.294 -0.329
0.648 0.337 -0.420 1.226 0.843 1.293 -2.000 0.378 1.470 -0.803 0.515 -0.588 -0.069 0.886 0.527 -1.239 -0.553 2.205 -1.147 -1.150 1.828 0.852 -0.298 0.245 -0.197 -0.764 -0.457 -0.295 0.973 -0.216 0.460 0.367 0.474 -1.915 1.070 -1.130 -0.308 0.274 0.762 0.534 -0.576 0.481 0.619 0.868 -0.724 -0.860 0.304 -0.227 1.350 -0.566 1.759 -1.084 -0.812 -0.927 -1.703 -0.337 -0.208 -1.358 -1.453 0.346 -1.156 -0.072 0.418 -1.151 0.639 -0.215 0.846 0.496 -0.520 -1.494 -0.460 -0.039 -0.053 0.965 -0.111 1.838 0.766 0.086 -0.076 -0.243 -0.617 0.840 0.026 -0.457 -0.751 -0.652 -0.124 0.189 0.683 0.416 -1.072 0.109 0.832 1.535 -1.776 0.842 0.082 1.452 0.842 -0.731
-0.612 0.979 -0.247 0.597 0.373 0.942 1.250 0.238 0.861 -0.866 -1.387 -0.844 0.722 -1.050 -0.579 2.057 1.145 -0.487 0.020 0.603 0.673 -0.370 1.169 -1.448 0.292 0.076 -1.282 1.048 1.388 0.619 -0.234 -0.531 2.133 0.387 0.122 0.168 0.928 0.507 -0.552 -2.153 1.746 0.074 -1.054 0.049 -1.251 1.425 -0.777 0.051 -1.081 -0.909 -0.790 -0.154 0.393 -0.169 1.267 0.842 -0.077 0.564 1.029 -0.210 -1.386 1.017 -0.809 -0.092 -0.002 -1.365 -0.384 0.137 0.142 -0.986 -0.871 0.446 -0.637 1.339 1.428 1.605 0.827 -3.192 -1.011 0.035 0.658 0.242 -1.010 -0.586 0.730 0.333 0.436 -0.040 0.048 0.279 0.395 0.443 -1.379 0.456 0.821 -2.019 1.053 -1.187 0.308 -0.742
-0.016 -0.974 0.711 0.272 -0.755 -1.103 -0.276 -1.560 -0.947 -0.734 1.900 -0.162 2.083 -0.177 -0.756 0.793 -1.448 1.787 -0.811 0.394 -0.625 0.705 -1.669 -0.532 1.261 1.461 -0.626 0.374 1.309 -1.506 0.816 0.429 0.539 -0.676 -0.501 0.897 1.145 -1.303 1.627 -1.672 -2.267 -1.097 0.134 0.630 -0.283 0.686 -0.825 -1.874 -2.321 1.982 -0.538 1.129 0.308 -1.567 -0.809 0.552 0.715 -0.104 -0.434 1.107 0.474 0.512 0.861 -0.752 -0.810 0.593 0.195 -0.360 -0.382 0.154 1.034 -0.648 -1.244 -1.929 0.267 0.742 -0.635 -0.085 -0.425 -0.257 0.717 -0.585 -1.008 0.866 0.357 0.099 -2.300 -0.530 -0.715 -0.229 1.335 -0.751 -0.915 -0.440 -1.094 0.280 0.679 1.633 0.728 -0.220
0.109 -0.458 -1.394 -0.443 -0.986 0.875 -0.603 -0.276 -0.007 -0.427 0.372 1.218 -0.062 -0.574 -0.301 0.466 0.622 0.034 -0.767 -0.901 2.577 -0.960 1.134 1.156 -0.487 0.293 -1.938 -1.532 0.717 -0.613 -0.197 2.213 0.636 -0.481 0.326 -1.681 -1.073 -0.922 -0.297 2.050 0.241 -0.922 0.009 0.667 -0.433 1.297 0.022 -0.733 -1.353 0.390 0.870 -0.759 0.009 -0.294 -1.414 1.910 -0.956 1.124 0.863 -0.101 -0.318 0.902 1.252 -1.474 1.152 -0.874 0.869 0.358 -0.490 -1.006 -0.110 0.406 0.976 -0.509 2.324 -1.683 -0.625 0.851 1.034 0.080 -1.074 -0.740 1.266 1.391 0.167 -0.347 -0.621 0.560 2.405 -0.125 2.103 -1.495 -0.713 0.202 0.079 0.233 0.799 -2.102 -0.882 0.442
1.481 1.944 -1.247 0.832 -0.341 -0.209 -0.885 -0.508 0.780 -0.404 1.167 1.396 0.344 0.074 -0.841 1.758 1.416 0.481 1.338 0.109 -0.321 -0.037 0.417 -1.173 2.594 0.748 -0.775 0.863 1.323 -2.457 0.284 0.339 1.403 -1.219 0.922 0.747 0.694 -0.225 0.944 -0.175 -0.938 -0.475 1.919 -0.942 1.411 0.882 0.881 1.101 -0.747 0.250 -0.813 -1.722 1.613 -0.217 0.377 -0.484 1.288 0.208 0.461 -1.459 -1.948 2.248 -1.073 -0.962 -0.621 0.554 -1.398 -0.379 0.332 1.497 -0.220 -1.380 1.446 -0.538 -1.036 -0.006 0.486 -0.243 0.640 -0.995 0.264 0.231 -1.088 -0.292 0.069 1.046 2.222 -0.723 -0.022 0.511 -1.388 -0.089 -0.308 -0.339 0.256 -0.319 -0.457 0.287 -0.619 1.118
0.083 -1.359 -0.999 1.814 0.273 0.135 0.220 -0.321 1.285 -0.871 -2.017 0.454 1.680 0.225 -1.420 -0.364 -1.681 1.600 0.513 -0.879 1.191 -0.051 1.283 1.083 1.286 1.243 0.450 1.410 1.187 0.877 -1.424 -0.863 -1.014 1.036 -1.084 0.477 0.549 -1.434 -0.321 0.437 0.215 1.906 0.438 0.081 -0.675 -0.713 0.618 -1.082 0.854 0.501 -0.235 0.198 0.791 -0.199 -0.263 -0.998 0.438 -1.310 0.086 0.578 -1.515 0.291 0.807 0.824 2.178 -0.172 0.609 -0.172 0.342 -1.256 -1.321 0.695 0.780 0.944 -0.724 -0.107 1.485 0.371 -0.805 -0.575 -1.057 1.330 0.690 0.779 0.202 -0.928 -0.636 2.171 0.537 0.408 0.400 -1.824 1.468 -1.754 -0.186 -0.393 -0.973 -0.143 0.810 0.835
0.128 2.937 1.009 0.351 1.345 0.340 0.256 -1.126 0.468 -1.590 -1.491 -0.884 0.170 1.657 0.862 0.860 -1.661 1.461 1.683 1.744 -1.566 0.517 -2.271 -1.795 -0.391 -0.698 0.600 -1.382 -0.298 0.022 0.948 0.618 -0.453 -1.564 -0.210 -0.570 0.421 -0.049 -1.373 0.596 0.386 0.022 -0.333 3.175 1.814 -2.100 1.045 -0.218 0.103 1.052 1.154 -1.033 0.650 -1.286 -0.132 -0.453 -1.718 -0.941 0.330 1.510 -0.746 -0.776 1.390 -0.595 1.246 -1.419 -1.184 -0.974 -0.760 0.021 -0.497 0.351 -0.668 0.190 0.015 1.370 0.693 -0.603 2.001 -0.611 -0.555 0.694 -0.157 0.829 -1.804 -1.326 0.221 -0.730 1.117 -0.048 -0.622 -0.442 -0.102 -0.132 1.691 -0.424 -0.278 -0.132 0.300 -0.618
0.708 0.242 -1.155 0.989 0.888 0.121 0.308 0.353 -1.578 -0.270 -1.509 -0.370 -0.973 0.455 2.016 -0.311 -0.356 1.354 1.287 0.758 1.396 -0.219 -0.045 0.225 0.228 -0.362 -0.656 0.862 -1.157 -0.251 0.672 0.835 -1.030 0.675 -0.735 0.407 1.133 0.900 -0.056 1.179 -0.234 0.100 0.038 -0.346 0.197 -0.107 -1.148 0.705 -0.069 1.238 -0.018 -0.566 1.719 -0.272 0.548 -0.468 0.602 -0.253 1.523 1.288 -0.568 -0.960 2.887 -0.022 0.043 1.943 -0.334 -0.809 -0.478 1.056 -0.738 -0.227 -0.980 0.624 0.036 -0.433 0.607 -0.667 0.728 -0.599 -1.834 1.111 0.637 0.040 -0.609 -0.183 1.421 -0.686 0.192 -0.331 0.152 -0.120 0.126 -0.207 0.745 -0.471 1.112 1.355 0.789 0.482
0.501 0.330 1.045 -1.839 0.303 -0.430 -0.126 1.522 -0.652 0.509 -0.712 0.539 0.039 -0.439 -0.985 1.122 -0.403 -0.534 -0.611 -1.335 -0.307 -0.338 0.296 0.699 0.723 -1.039 0.984 -0.312 0.364 1.165 -0.396 -0.271 -0.010 0.182 0.169 -0.116 -1.389 -2.017 -0.002 -1.133 -0.824 1.663 0.834 1.263 -0.604 0.227 0.152 -1.020 1.039 -0.157 0.974 0.743 -0.234 -0.040 0.513 -0.772 -1.174 -0.963 0.706 -0.304 -0.543 -0.038 -0.930 1.359 0.509 -0.548 1.095 0.564 0.643 0.776 0.594 -0.193 0.583 -0.390 -1.774 -0.173 -0.265 -0.847 -0.877 0.061 -1.345 -0.173 0.474 0.109 0.588 0.484 -0.556 1.768 -0.901 -0.172 0.252 -0.370 0.179 -0.561 -0.165 0.999 0.236 -0.146 -1.139 1.913
-0.454 1.203 -1.477 0.736 -0.450 -0.859 0.917 1.033 0.351 0.701 0.994 -1.330 -0.939 0.586 -1.646 0.006 1.494 -1.137 -1.305 1.012 0.275 1.727 -0.615 0.620 0.056 0.385 0.610 1.042 -0.868 -1.070 -1.457 0.735 0.664 -0.346 0.293 -0.803 -0.740 -0.754 1.766 -0.506 0.462 0.049 -0.728 0.484 -1.053 -0.803 0.656 -0.129 0.561 1.477 0.469 0.388 -0.502 -0.790 0.941 0.191 -0.585 -0.372 -0.002 -0.778 0.490 -0.855 -0.360 0.003 0.863 -1.083 -0.951 1.143 -0.009 -1.253 -1.541 -0.238 0.887 0.633 -0.844 -2.040 1.309 -0.419 -0.500 0.086 0.149 -1.212 0.267 0.812 0.320 -0.031 0.203 -0.468 -0.833 -0.022 -0.142 -0.664 -0.708 2.389 -0.482 -1.100 0.434 0.668 -0.307 2.030
-0.205 0.370 1.312 0.998 0.159 -2.088 0.259 -0.530 1.502 0.152 -0.288 -0.243 0.715 -0.305 -0.249 0.149 -0.884 0.503 -1.369 -0.244 0.531 -0.592 1.681 0.162 0.643 0.433 -1.547 0.193 0.582 0.304 -0.638 -0.625 -1.562 0.672 0.870 0.512 0.508 -0.338 -0.670 0.131 -0.311 1.461 1.299 -0.067 -1.044 2.237 -1.056 -1.197 0.190 0.306 -0.303 0.977 -0.412 0.289 1.502 1.979 -1.204 0.034 -1.104 0.712 -1.428 -1.251 -0.049 -0.780 2.759 -0.979 -0.163 -2.104 0.476 1.104 0.128 -0.720 0.777 0.419 0.637 0.656 -0.498 -0.394 -0.846 -0.471 -1.111 -0.164 0.284 -1.606 0.247 0.660 0.639 -0.270 -0.975 0.217 1.137 -0.743 0.938 -1.012 -0.287 0.058 2.207 1.311 -1.456 -1.274
-0.486 -0.524 0.256 1.695 2.227 1.278 -0.366 -2.180 0.592 -0.603 -1.516 -2.260 -0.745 -0.008 1.767 1.542 -0.338 0.542 -0.643 0.915 -0.308 1.222 -1.611 -1.062 -0.478 -0.439 1.535 0.509 0.157 1.854 -0.675 -0.265 -1.053 1.298 0.324 2.179 0.029 -0.833 0.793 0.993 1.214 -0.287 0.067 -0.699 -0.521 1.429 -0.665 -0.530 -0.486 -0.010 1.436 -0.856 0.421 1.245 -0.734 -0.945 -0.669 -0.083 1.093 -0.239 0.264 -0.570 -1.111 -1.423 -0.959 1.408 -0.035 -1.550 -0.271 -0.893 -0.574 0.068 -0.297 -0.795 -0.480 -1.981 -0.531 0.545 0.733 0.519 -0.708 1.132 -0.531 1.443 -0.071 0.240 1.030 -0.898 0.023 0.322 -0.607 -0.504 1.259 -0.801 0.163 -1.368 -0.118 1.030 -0.229 -0.627
0.643 -0.124 0.896 -0.107 -0.673 -0.543 0.065 0.425 -1.972 -0.052 0.075 0.556 0.323 0.666 -0.662 0.321 0.735 -0.085 0.406 0.014 1.047 -0.541 -0.859 0.449 0.560 1.312 0.004 -0.395 -0.692 0.639 0.180 -0.084 -0.340 0.139 0.123 0.289 0.068 -0.304 0.095 -0.611 0.116 0.440 0.500 0.128 0.160 0.894 0.107 -0.549 -0.770 0.209 1.725 -1.523 -0.296 1.085 1.099 0.396 -0.031 -1.052 -0.788 0.892 0.639 -0.401 -0.807 -0.557 -0.878 -2.706 -1.736 0.572 -0.446 -0.747 -1.306 0.361 0.879 0.807 -0.697 -0.215 0.042 0.174 -1.020 -0.992 0.352 -0.265 -2.479 0.539 0.500 0.020 -0.603 -0.976 -0.433 1.220 -0.117 1.697 0.659 0.445 0.800 1.237 -0.323 -0.125 -1.269 -0.551
1.658 1.862 0.316 2.605 1.169 0.227 0.281 -0.746 -0.465 1.223 0.217 0.066 -0.943 0.727 -0.183 1.770 -0.062 -0.975 0.092 1.343 -0.796 -1.120 0.268 -0.269 -0.682 -0.578 -0.703 1.126 0.777 -0.956 -0.859 0.659 0.078 0.163 -0.791 0.295 1.841 -0.505 0.128 1.191 -0.975 0.437 -0.318 -0.247 0.449 -1.609 1.771 -0.780 -1.477 -1.314 -0.920 0.241 1.276 0.283 0.555 0.051 -0.558 0.104 -0.026 -0.910 -0.257 -0.377 -1.382 1.176 -1.298 0.180 0.299 0.506 -0.157 0.458 -0.218 -0.831 -0.155 -0.032 0.955 -0.950 1.101 1.240 -1.697 -0.131 -1.898 -0.671 -1.253 -1.418 -0.207 0.053 -0.529 -1.323 -1.225 -0.395 -0.160 0.184 -0.184 -0.608 0.746 0.892 -0.548 1.709 0.114 0.375
