# w1
1.130 -0.202 1.197 -0.541 0.918 -1.060 -0.647 1.144 -0.336 -0.434 0.789 0.763 0.627 0.396 -0.395 -0.459 -2.921 0.855 0.045 -0.649 0.743 0.305 0.180 1.080 -1.214 -1.269 -0.967 -0.553 -0.315 -1.642 0.437 0.550 0.854 -1.430 -0.940 0.364 -1.136 -0.727 0.037 -0.103 0.430 -0.088 -0.257 -1.314 -1.530 0.259 0.233 0.548 1.396 -0.473 0.378 0.741 -0.397 0.650 0.703 0.006 -1.944 -0.881 0.071 1.426 -0.789 1.804 0.786 -1.131 -1.216 1.850 0.042 1.613 0.953 0.976 1.237 0.155 -1.501 -0.237 1.391 -1.194 -1.943 -0.409 1.046 1.302 -0.794 1.064 -0.271 -0.803 -0.534 0.315 1.111 -0.052 0.063 1.093 0.557 -0.220 -0.619 -0.068 -1.601 1.749 -0.027 0.912 -2.267 -0.935
-0.237 -1.712 0.803 -0.113 -2.279 0.531 -0.155 0.408 -0.109 0.901 0.623 1.345 0.994 1.499 0.715 0.261 -1.003 0.379 0.659 -2.316 -0.695 1.329 -0.832 -2.042 -0.661 0.375 1.360 -0.070 0.464 0.324 -0.710 0.594 0.608 -0.750 -0.406 -2.186 0.550 -1.021 0.366 -0.949 2.323 0.186 -0.670 -0.775 -0.368 0.458 -0.219 -0.725 0.753 -1.106 -0.315 -1.076 -0.469 0.875 -1.548 -0.681 0.714 -1.235 -0.440 0.008 -1.249 -1.179 0.397 0.231 -0.997 0.607 -1.242 1.813 -0.125 -0.963 -1.237 0.106 -0.036 -0.282 0.498 1.660 0.356 0.501 -0.972 -2.130 -1.045 0.222 0.326 0.101 0.376 0.061 0.408 -0.669 0.673 0.460 -1.279 -1.744 -0.372 0.639 -2.173 -1.158 1.744 0.483 -0.166 -0.367
0.514 0.793 -0.953 -0.008 -0.524 1.866 1.467 0.105 1.049 -0.804 0.185 0.041 0.563 0.927 -1.233 -0.675 0.705 -0.343 0.223 0.862 0.586 -0.766 0.691 1.388 -1.244 -0.935 -0.961 -1.601 0.093 -0.270 0.053 0.725 -0.662 -2.092 -0.509 0.287 0.406 -0.032 2.555 1.670 -0.734 -0.723 -0.294 -0.488 -0.394 0.106 0.220 1.170 -0.193 -0.396 1.229 -0.508 -1.276 -0.045 -0.308 -3.277 -1.363 -0.374 0.938 0.436 0.322 0.684 -0.487 2.098 -0.034 -0.162 -1.114 -0.127 -0.759 -0.237 0.432 0.280 0.522 1.625 0.021 -1.759 0.636 0.614 0.718 -1.188 -0.552 -1.424 0.112 0.721 -0.895 -0.294 1.051 -0.663 1.611 0.899 1.065 2.211 0.058 0.937 -0.793 -0.538 0.703 -0.016 0.505 1.170
0.364 1.571 0.855 1.406 1.662 -0.283 -1.559 0.198 0.742 -0.426 -0.584 -0.772 0.785 -1.524 0.523 -1.182 -1.511 -0.803 -0.920 0.104 1.579 -1.279 0.643 0.332 -1.794 0.853 1.242 -1.811 2.316 0.541 1.831 -0.497 0.205 -1.304 -0.083 0.842 -0.027 1.334 1.446 2.078 -1.101 0.250 0.731 0.366 0.994 0.390 0.942 -0.208 -1.385 -0.147 -0.840 -1.143 -0.201 -0.668 -0.597 -0.170 -1.495 1.246 -0.151 -0.293 -0.289 0.879 0.907 -0.061 -1.477 1.481 0.642 -0.092 -0.181 0.954 -2.030 -0.444 0.048 -0.201 1.451 -0.868 1.535 -0.742 -2.288 -2.661 -0.541 1.970 -0.180 0.864 0.229 -1.310 -0.885 -2.190 1.915 1.029 1.453 -0.655 -1.245 2.276 1.890 0.766 0.582 -0.707 0.280 0.028
-0.395 0.168 -1.143 -1.443 0.904 1.579 0.594 0.165 -1.671 -1.165 -1.517 -0.507 0.552 -1.827 0.356 1.568 0.605 2.064 -1.201 -0.871 -0.077 0.207 0.246 -0.303 -1.868 0.143 0.108 0.369 1.004 2.092 0.115 0.893 0.247 1.079 0.378 -0.662 0.596 -0.533 0.335 0.451 -0.398 -0.091 0.146 1.358 1.923 0.253 -0.307 0.487 -0.254 0.458 0.012 1.406 0.607 0.002 0.034 -1.164 1.425 0.349 0.267 -0.511 0.112 -0.504 -0.063 -1.320 -0.268 1.686 0.668 0.568 -0.874 -0.558 0.535 -0.762 -1.214 -0.350 -1.338 -3.804 -0.818 0.118 0.139 0.746 -0.443 -1.303 -0.238 -0.437 0.640 1.241 0.163 -1.072 2.138 0.700 -1.143 -0.036 0.989 0.607 -0.472 -1.491 0.306 0.196 -1.627 -1.070
0.006 -0.415 0.004 -0.176 -0.222 -0.575 -1.274 -0.968 -0.735 0.504 -0.793 0.092 1.073 1.639 2.076 0.784 0.325 -0.265 0.299 -0.791 -0.374 0.394 1.460 1.355 0.893 -0.117 -0.370 -1.244 0.574 -1.317 -1.631 -0.355 0.742 2.072 0.233 -1.572 -0.712 -1.091 -0.505 0.783 -0.096 -0.176 -0.177 -2.928 -1.626 -0.627 2.687 0.167 0.087 -1.619 -1.442 0.020 0.227 -0.391 1.144 -1.071 -2.418 0.531 -0.757 1.251 0.072 0.167 1.109 -1.128 -0.325 0.781 0.210 -0.733 0.037 1.578 0.668 1.925 0.548 -0.231 -0.666 -0.194 -1.080 0.645 0.985 -1.340 -0.290 -0.242 0.780 0.550 -1.334 2.592 -0.635 -0.247 0.020 -1.586 1.174 0.240 -0.529 0.819 0.590 2.088 -2.163 0.515 -1.353 -2.352
0.829 -0.863 0.339 1.650 0.416 0.576 -0.270 0.733 -0.017 -0.670 -0.391 -0.431 1.608 -0.307 -0.014 0.153 1.459 -0.726 -1.318 -0.040 1.010 -0.033 0.237 0.827 -0.770 -0.305 1.564 -0.670 1.762 0.031 -0.605 -1.749 0.692 -2.139 -0.984 -0.797 0.271 0.392 1.724 2.038 0.752 0.363 -2.019 -2.161 0.593 0.244 0.257 -0.428 -1.254 -0.650 -0.750 0.163 0.103 -0.198 -0.688 -2.282 0.792 -0.123 0.203 -0.112 1.514 0.961 -0.882 0.937 3.341 -0.299 0.391 0.752 -0.469 0.985 -0.729 1.038 -1.350 1.339 -0.376 -0.694 0.047 -0.257 -1.839 -0.720 0.248 -0.551 1.946 -0.502 -1.476 -0.536 0.392 -0.153 0.752 -0.679 0.198 -0.534 -2.936 0.605 0.952 1.008 2.274 1.029 0.995 0.048
-0.296 -2.527 1.435 1.429 1.143 0.904 -0.820 0.973 -0.237 -0.772 0.023 0.335 -0.842 0.254 -0.901 1.033 0.855 -0.175 1.203 0.710 -2.335 0.199 -1.464 -0.534 0.955 0.342 -0.579 0.586 0.435 -1.089 -0.231 -0.583 -0.234 2.190 1.070 -1.699 0.481 0.502 1.962 -0.331 -0.057 -0.198 0.902 0.000 0.614 -0.515 1.722 -0.594 0.608 0.782 0.351 -0.859 -0.141 -0.281 0.603 0.686 1.310 1.554 0.386 2.052 -0.094 -0.061 -1.305 -0.109 1.005 -1.766 1.717 0.956 1.278 -1.892 -1.045 0.356 -1.516 -1.841 0.073 -1.752 2.317 2.266 -0.380 -0.061 0.926 -1.176 -1.042 -0.732 -0.867 -0.441 0.717 0.078 1.306 1.635 0.698 -1.147 -0.408 -0.644 1.152 0.291 0.823 0.096 -0.023 -1.187
0.442 1.342 0.834 0.283 -0.898 1.342 0.680 -1.991 -1.758 0.170 -1.523 -1.737 -0.206 2.386 -1.524 1.236 1.931 0.497 -0.310 -1.266 -1.557 0.384 0.910 -1.048 0.628 1.566 -2.361 0.734 2.070 -0.060 0.824 0.758 0.507 -0.837 0.171 0.224 0.028 0.419 0.638 -0.843 0.297 0.772 0.766 0.862 -0.598 -0.832 0.136 -0.657 0.253 -1.385 -1.043 0.046 0.187 0.555 0.969 1.024 1.071 1.963 -0.076 0.277 -0.738 2.157 0.682 -0.622 0.206 -0.906 -0.443 -1.094 -0.427 1.340 -0.688 0.439 0.190 -0.253 0.360 0.402 0.946 0.847 -0.991 0.117 -2.261 0.604 2.441 0.990 0.647 0.459 -0.227 0.117 -0.499 1.767 -1.367 0.185 -0.494 0.108 -1.012 -0.583 0.958 1.012 1.163 0.345
0.542 -1.362 2.270 -1.115 0.723 0.515 0.672 -1.194 -0.148 -0.444 -0.720 0.127 0.379 -0.353 -0.506 0.654 0.579 -0.747 0.966 -0.327 0.688 -0.721 -0.611 1.724 0.570 -0.850 -0.163 -0.822 -0.704 -0.821 -1.345 -1.137 0.828 0.610 -0.211 -2.115 0.739 -0.812 -1.239 -0.102 1.738 -1.044 -0.720 0.969 -1.954 -0.257 -0.723 -0.891 0.071 0.093 0.167 -1.108 -0.839 -0.630 0.825 -2.291 -0.931 0.957 -0.803 -1.060 -0.204 -0.267 1.632 -0.905 0.767 0.134 -0.239 0.146 -0.536 -1.352 -1.238 -0.363 0.323 -0.081 -0.752 0.536 1.045 -0.990 0.049 -2.197 0.647 0.464 -0.151 0.026 1.260 0.139 -1.035 0.278 -0.539 -0.800 0.534 0.264 0.134 -1.078 1.209 1.077 0.483 2.056 -1.228 0.660
-2.129 -2.516 0.680 1.503 -1.366 0.042 0.277 -0.184 -0.505 -0.501 1.058 -0.752 -1.084 0.909 -0.350 0.053 -1.373 -1.302 1.319 -0.383 -0.710 3.449 -1.807 -1.382 -0.110 0.945 0.630 -1.335 -0.411 0.329 0.686 0.304 1.755 1.094 -0.422 -1.542 -0.754 0.089 -0.232 1.242 0.180 0.086 -0.149 -0.791 -0.475 -0.151 0.844 1.620 0.272 -0.034 -0.897 -0.019 -0.498 0.833 0.216 -1.229 -0.149 0.037 0.231 -0.324 -0.667 -1.590 -0.735 1.317 0.538 -1.531 0.990 1.626 1.250 -2.466 0.490 0.120 -1.156 0.842 -0.772 -1.893 -0.269 -0.387 -0.559 -0.609 -0.076 -1.471 0.724 0.281 -1.984 0.566 -0.586 0.095 -0.321 -0.644 1.675 -1.548 -0.210 0.843 -1.057 1.432 0.666 1.286 0.852 -0.408
0.377 0.628 1.101 -0.818 -0.970 0.157 1.270 -0.810 0.413 -1.576 0.900 0.928 -0.214 -0.054 -1.165 0.663 0.619 -1.753 -0.215 -0.905 -1.082 0.198 0.721 0.917 -0.616 -0.652 -2.133 0.384 -0.351 0.332 1.288 -1.024 -0.516 0.414 -1.460 0.120 -1.076 1.189 0.048 -1.549 -0.414 -0.119 0.274 0.493 -0.229 -0.195 -0.512 -1.722 0.339 0.813 0.130 0.658 1.340 -0.561 -0.969 1.591 -0.382 -0.480 0.975 -0.453 1.184 1.483 -1.010 -0.416 -0.982 -0.905 2.756 -0.019 0.014 0.679 0.748 -1.222 0.089 -1.421 0.542 -1.086 0.957 -0.599 0.253 0.830 -1.200 0.565 0.572 -0.537 1.283 1.001 -0.624 0.505 1.336 -0.190 -0.365 -0.627 1.213 -1.246 0.521 0.785 0.421 0.461 -0.930 0.163
-2.840 0.239 0.025 -1.286 0.554 -0.619 -1.504 -0.125 -0.422 -0.303 0.425 -0.777 -0.474 0.479 0.010 -1.329 -0.564 0.025 -0.796 1.798 1.098 1.768 1.260 -0.005 2.723 -0.967 -1.131 0.686 0.341 -1.609 -1.516 -2.376 -0.744 0.369 1.494 0.388 0.191 1.498 -1.181 0.863 -0.773 -0.229 1.986 1.626 -0.580 -0.665 -0.385 -0.196 2.388 -0.722 2.531 2.312 0.588 0.595 0.489 -0.237 -1.720 -0.153 1.644 -0.683 -1.071 0.790 -0.825 -0.126 -0.413 1.970 -0.245 -0.947 0.611 0.232 0.712 1.061 0.793 0.766 -1.808 -0.732 1.449 1.214 0.187 1.959 -0.405 1.106 -0.266 -0.049 -0.332 -0.132 0.844 -0.497 -0.768 -0.991 0.164 -0.861 0.187 -0.560 0.413 -1.210 1.172 -0.845 -0.530 0.520
1.523 1.066 -0.141 0.189 -0.361 0.003 1.776 -3.780 0.670 0.872 0.949 0.392 0.097 -0.452 -1.278 -0.044 0.154 -0.588 1.483 -0.778 1.218 0.850 -0.250 0.579 -0.180 -1.271 -0.123 0.834 -1.000 0.084 -0.275 0.023 1.576 0.340 0.470 -0.540 1.969 -0.222 -0.969 -1.083 2.514 1.015 0.339 -0.131 1.223 1.594 -0.723 0.868 -0.437 0.318 -0.607 0.037 0.420 0.487 -0.088 0.846 0.847 0.282 0.669 1.421 -0.858 -0.898 0.607 -0.778 1.266 -1.234 0.520 -1.409 -0.644 1.633 -0.543 -1.021 1.137 1.400 -0.400 1.892 -1.053 -1.229 -0.884 -1.963 -0.559 0.547 2.393 -0.487 0.317 0.112 -0.086 0.498 0.398 0.129 -1.813 -0.928 -1.119 -0.300 -1.778 -1.320 0.681 0.236 1.557 -1.762
0.161 0.088 1.662 -0.891 0.719 0.392 -1.072 -0.829 1.199 0.930 -0.544 -0.292 -2.319 -0.170 -0.245 0.392 0.050 0.478 -1.167 0.745 -0.333 -0.779 -0.397 2.689 0.515 2.669 -1.975 -1.499 0.358 -1.212 0.665 0.415 -1.406 0.132 -0.464 1.112 -0.370 -0.837 -0.618 -0.160 0.887 0.386 -0.005 -1.334 0.098 0.314 0.781 -0.521 -0.160 -0.123 -0.982 -0.763 0.877 -0.346 -0.030 0.385 -0.569 -0.750 -1.930 1.182 0.237 0.941 2.044 0.321 0.264 -0.176 2.017 -1.288 -1.405 -1.857 -1.387 -0.666 1.543 -1.557 0.475 -0.209 0.516 0.067 0.277 1.340 0.260 0.039 -1.552 -2.288 0.588 0.359 1.818 1.311 1.285 0.053 -0.551 0.454 1.181 -0.617 -0.065 0.335 -0.500 -1.669 0.453 -2.099
0.296 0.331 0.433 -1.520 -1.291 -0.855 0.583 0.531 -1.295 1.530 1.444 -0.018 -0.093 -0.899 0.852 0.460 -0.340 0.242 0.401 -2.249 -0.563 0.457 0.002 1.130 1.014 1.413 1.725 2.457 1.020 -0.563 0.926 0.145 0.443 -0.161 -0.379 -1.161 1.014 -0.384 -0.204 0.916 0.730 1.030 1.110 -0.894 -0.531 1.692 -0.710 1.493 -0.284 0.117 2.009 -0.978 -1.426 -0.847 -0.147 0.150 -0.372 -0.755 -0.484 -2.269 -0.238 1.181 1.427 -0.333 0.448 -2.386 0.489 1.499 0.866 1.812 0.974 -1.396 1.545 -0.071 1.862 -0.619 -0.100 0.263 -0.443 -1.048 -1.753 1.459 0.805 0.647 -0.181 -0.464 0.090 0.009 0.635 -0.361 -0.955 -0.718 -1.413 -0.675 0.624 1.374 -0.265 -0.521 -0.077 1.971
-2.563 -0.212 -1.908 0.202 0.847 -1.131 0.658 0.261 -0.360 -0.467 0.358 -0.453 -0.050 -0.948 1.037 0.796 -2.013 0.087 1.524 0.775 -0.434 -0.287 0.643 0.222 1.316 -0.326 -0.588 0.194 -1.110 -0.244 0.897 -1.407 0.619 -2.809 0.761 1.040 0.579 1.062 1.150 -1.685 0.016 -1.205 -1.464 -0.147 -1.523 -0.417 -0.931 1.579 0.981 0.807 0.947 0.772 -0.557 1.120 -1.662 0.403 -0.526 0.150 -0.286 -0.014 0.156 -0.995 -0.284 -0.937 -0.950 -0.410 -0.654 -1.065 -0.726 0.707 -0.522 0.161 -0.366 0.286 0.755 -1.131 -1.170 -0.273 1.619 -0.010 -0.106 -1.080 1.554 0.805 0.754 0.361 1.879 1.460 -0.540 -0.715 -0.392 0.645 1.542 -1.660 1.032 0.664 -0.685 0.633 0.218 -1.382
0.171 -0.205 1.932 -0.946 -0.705 -1.042 1.138 2.485 -0.363 -0.096 -0.552 -1.163 0.137 0.299 -0.068 0.620 -1.186 0.963 -1.255 -1.075 -1.657 -0.304 -0.178 -1.800 0.375 -1.743 1.487 -0.860 -1.066 0.586 0.455 0.344 -0.799 0.021 0.842 -0.446 -1.611 0.178 1.458 0.834 0.011 -1.742 0.001 0.687 0.249 1.380 -0.041 0.797 -0.434 -0.159 -0.346 -0.858 0.559 -0.463 0.211 -0.101 0.420 0.268 -0.425 -0.388 1.218 0.235 0.638 2.150 0.159 0.546 -1.736 0.153 1.207 0.768 0.089 2.496 1.537 -1.226 -1.229 1.339 -0.484 -0.776 -0.041 -0.836 0.879 -1.400 -0.026 -0.770 -0.995 -0.251 -0.696 1.735 1.533 0.066 -1.690 -2.254 -0.052 0.537 0.467 0.672 -1.221 -0.431 -0.237 -0.201
-0.295 -0.643 -0.102 -0.539 -1.563 0.281 -1.173 -0.820 0.582 -1.254 -0.079 1.609 0.724 -0.621 1.150 -0.446 0.014 -0.470 1.491 -1.050 -1.119 -1.271 0.692 0.765 0.479 -1.541 0.164 -0.081 -0.033 -0.791 -0.234 -0.065 -1.415 1.294 -0.886 0.189 1.173 -0.619 0.945 -1.522 -2.158 -0.149 -2.333 -0.171 -0.100 -0.273 0.740 -1.078 0.569 0.921 0.454 -2.278 -0.883 -0.433 0.754 0.835 0.637 0.648 -1.481 0.704 0.988 -1.075 -0.376 -0.433 2.005 0.133 -1.917 -0.399 -1.930 0.908 0.417 -0.831 -0.350 1.795 -0.794 0.173 -1.435 0.463 -0.242 0.401 0.236 1.746 -0.156 -0.936 0.916 -1.452 -0.047 1.430 1.459 -0.039 0.921 -0.749 1.109 0.938 1.447 -0.555 -0.506 -0.245 -0.323 -0.232
0.471 -1.783 0.954 0.157 1.898 -1.069 0.757 0.766 -1.555 -0.678 0.195 0.454 -0.514 0.354 1.353 -1.058 0.377 0.861 0.616 1.573 -1.713 -0.805 0.416 0.563 1.354 -0.060 -1.623 -0.599 2.500 -2.502 -0.774 -0.147 -0.617 -0.286 0.806 -0.953 -1.252 -0.431 0.347 -0.880 -1.329 -0.416 -0.360 -0.435 0.077 0.035 2.225 0.384 1.135 0.547 0.014 -0.307 -0.809 2.024 0.085 1.287 0.445 1.275 1.434 0.606 -2.194 -1.209 -0.366 -0.512 0.974 0.621 0.477 0.482 -0.779 -0.583 0.157 0.871 0.731 0.599 0.285 0.184 -0.108 -0.647 -0.507 0.889 -0.008 0.870 1.461 1.976 0.920 0.962 -1.368 -0.275 -0.421 -0.347 -0.048 -0.653 1.228 0.820 2.690 -0.211 -0.701 0.358 -0.547 -0.830
1.299 0.834 -1.224 0.512 0.661 -0.465 0.699 0.799 -0.447 1.268 0.843 -0.417 -1.010 2.479 -0.501 1.449 -0.814 1.086 0.169 -0.102 -3.078 -0.244 0.356 0.735 -1.115 0.162 -0.370 2.909 0.924 -0.437 0.714 1.028 -0.715 0.952 -0.776 -0.609 0.379 0.018 0.600 1.831 -1.076 0.255 3.111 -0.089 -1.594 -1.404 -0.465 -0.640 -0.436 -0.711 1.679 -0.265 -0.821 -1.631 0.149 -0.555 -2.507 0.863 -1.193 0.394 0.888 -0.941 -1.978 1.544 0.784 -0.103 -0.370 -1.137 -1.429 0.164 -0.949 -0.535 0.183 -0.578 0.328 -0.613 0.232 -0.663 1.312 -0.293 -0.382 -1.003 0.958 0.273 -0.302 0.739 -0.976 1.079 -1.416 -0.630 -0.434 0.129 -0.179 -1.402 -0.794 0.203 0.841 -0.562 1.161 0.897
0.084 0.710 0.681 -1.573 -0.524 0.897 -0.412 -0.015 -1.170 0.387 -0.234 -0.662 -1.170 2.671 -1.471 -0.867 -1.664 -0.371 0.673 0.523 1.581 -0.100 0.994 -1.740 -1.160 1.536 -1.095 -0.178 1.733 -2.374 -0.817 0.394 0.458 -0.231 -0.195 0.335 -1.104 -0.439 0.738 0.333 -0.369 0.478 -0.205 1.074 0.966 1.862 0.362 0.691 0.026 -0.863 -1.188 0.597 -0.853 -0.163 0.264 2.462 -0.220 -0.396 -1.007 0.075 0.516 -0.879 -1.098 0.768 -1.829 0.196 -0.076 0.617 0.111 -0.693 -0.568 0.325 -0.214 -1.209 -0.182 -0.354 -0.268 0.779 1.258 1.020 -0.678 -0.460 0.632 0.100 -0.535 1.021 -0.059 -0.192 0.321 0.432 0.286 2.174 1.049 -0.908 0.402 -0.975 1.098 -0.606 0.074 0.484
-0.977 -0.299 -1.185 -0.546 0.798 -1.372 1.637 -0.963 -0.103 -0.285 1.173 -0.781 1.499 -1.979 -0.468 -0.783 -0.737 -1.245 -1.937 -0.266 0.292 -1.074 -0.698 0.346 0.164 0.336 1.272 -1.022 0.608 0.846 -1.756 -0.096 0.480 1.108 0.086 0.216 -0.148 0.104 -1.225 0.196 0.775 -0.011 0.396 -0.167 -0.666 -0.855 0.141 -1.756 1.930 -0.452 -0.904 1.274 0.794 1.085 1.987 0.588 -0.165 0.187 -2.615 -1.002 -0.449 -0.833 0.722 0.379 -2.946 -0.074 0.524 -1.660 -0.518 -0.321 -1.015 1.099 -0.232 -0.065 0.060 1.135 -0.661 -0.183 -2.032 1.376 -0.987 1.775 0.357 2.358 -0.183 -0.512 -0.559 -1.796 -0.620 2.250 0.202 -0.651 -0.185 -0.634 0.670 0.367 -1.157 -0.380 1.377 0.043
-0.587 -0.639 1.556 0.635 -0.011 -0.376 -0.495 -1.578 -1.754 -0.382 0.388 1.711 1.507 -0.055 0.118 0.721 0.072 -0.029 0.674 -0.795 -1.176 0.602 1.032 -1.210 0.076 0.904 -0.268 0.243 0.177 0.187 -0.029 0.943 -1.245 1.004 1.903 -1.393 -0.528 2.218 0.408 -0.566 0.278 1.580 0.973 1.263 -0.241 -0.036 -0.457 -1.533 0.417 0.701 0.356 0.599 0.764 0.970 -0.265 -0.905 -1.098 -0.757 -1.467 -1.291 -1.874 -0.059 0.037 -0.823 -1.049 -0.856 -0.139 0.924 -1.305 2.028 1.964 -1.908 -0.710 0.518 1.217 -0.537 -0.597 0.309 -0.417 0.889 0.969 0.606 -0.221 1.162 0.515 0.974 -0.271 -1.325 0.732 -0.106 -0.416 0.345 -0.319 1.517 -3.267 1.010 -0.455 -0.188 -0.003 0.470
1.312 0.067 0.476 -0.512 -1.535 1.248 0.830 -0.936 0.220 0.144 1.947 0.498 -0.831 1.759 -0.204 -0.244 0.349 1.218 1.111 1.613 -0.125 1.073 0.405 -1.021 1.036 0.331 0.978 0.331 0.009 -0.031 0.448 -1.073 1.360 -0.333 -0.677 -1.238 1.840 -1.732 -0.359 2.313 -0.074 0.201 -0.232 -1.492 0.021 2.367 -1.001 0.137 -0.471 -1.483 1.663 -0.083 0.720 -1.485 0.413 0.063 0.256 -0.494 0.457 -0.260 0.757 0.480 1.090 1.116 -1.434 1.036 -1.452 1.668 0.742 0.313 1.461 0.437 0.389 1.182 -1.329 -0.113 -0.669 0.395 -0.437 0.312 -1.249 0.241 -1.262 0.138 -0.074 -0.663 1.069 1.064 -0.421 0.805 0.950 1.453 1.932 -0.101 1.118 2.107 -0.148 1.052 0.540 1.305
1.269 0.269 -1.562 0.738 -0.557 0.489 -0.962 -0.108 0.670 0.802 -1.514 0.029 0.962 0.508 -0.171 0.950 1.358 0.400 -0.193 -0.362 -0.515 -1.925 -0.478 -1.806 -0.218 1.115 -1.544 1.281 -2.055 2.148 -0.289 0.441 -0.813 2.089 0.683 0.446 0.057 0.411 2.682 0.943 1.034 0.615 1.346 -1.851 0.934 0.994 0.197 -1.283 -0.088 -0.121 -0.847 -1.741 0.435 0.221 1.624 -0.049 -0.937 0.471 0.423 -0.410 -1.111 0.590 0.817 -0.665 -0.301 0.654 1.100 -0.944 1.564 -0.558 1.458 1.050 -0.986 0.286 -2.937 -0.638 -0.116 0.164 0.117 -3.418 0.284 0.378 -0.264 0.257 -1.284 -1.739 -0.820 -1.581 -0.065 -0.956 0.053 -0.774 -0.333 0.429 0.205 1.180 1.535 -0.183 0.892 -1.343
-1.771 1.826 -0.440 -1.978 1.015 -1.023 -0.187 -1.402 -0.613 -0.751 -0.980 0.792 -0.582 1.705 -0.502 -0.605 0.190 0.856 -0.615 -1.460 0.915 -0.726 0.603 -0.755 1.066 -0.890 -1.174 0.969 -0.327 2.682 1.007 1.270 0.555 -0.351 -0.785 0.479 -0.286 -1.165 0.971 -0.480 -0.226 0.463 0.761 0.842 0.155 0.423 0.218 0.279 -0.830 0.182 -1.172 -0.559 1.749 -0.436 -0.289 -1.446 -0.493 1.407 0.820 -0.874 -0.848 -0.419 -0.399 -0.406 0.969 -2.230 1.234 0.294 -0.518 -0.124 0.183 0.132 2.126 -0.214 -0.946 -3.137 1.242 0.847 0.261 0.693 0.776 -0.004 0.485 -0.633 1.410 -1.271 -1.033 -1.104 -0.292 -0.420 -0.609 0.345 -1.443 -0.449 0.114 0.959 -0.822 1.232 -0.807 -0.042
-0.664 0.222 0.343 0.028 1.295 0.595 1.679 0.676 0.905 -1.880 -0.420 -1.492 0.434 0.319 0.114 -0.591 1.364 1.465 0.210 0.305 0.234 -0.850 -1.561 0.124 3.080 -1.337 -1.086 1.135 1.230 -0.577 0.011 0.169 0.833 0.342 0.826 0.913 -1.038 -1.527 2.098 1.203 -0.294 -0.164 0.175 1.801 0.246 -0.117 0.466 -0.706 -1.062 -0.598 -0.861 1.104 1.703 0.101 0.949 -1.207 0.983 -0.044 0.717 0.650 0.345 0.534 -0.881 0.829 0.396 -0.990 0.049 -1.480 0.740 0.697 -0.922 -0.060 0.263 1.569 -0.715 -0.114 -0.660 -0.086 0.026 -0.405 -0.669 1.931 1.534 0.290 -2.882 0.467 0.384 -0.111 -0.234 -0.459 0.312 2.053 -1.654 0.506 -0.752 0.806 1.398 1.043 -0.564 0.135
2.076 1.349 0.373 0.419 -1.709 -1.883 -1.390 0.349 -0.693 0.654 1.399 -0.659 0.696 -0.885 -0.665 0.359 -0.946 -1.026 -0.542 0.120 1.314 -0.038 0.162 -0.260 1.007 0.832 -1.114 0.645 0.194 0.595 -1.360 1.118 -0.828 1.270 -0.242 0.676 0.334 0.253 -1.165 -2.951 0.526 -1.574 0.041 -0.254 2.058 -0.390 0.274 1.396 0.944 0.436 -0.309 -0.669 -0.108 -0.482 0.085 1.664 1.925 0.157 0.446 -1.123 -1.147 0.537 0.206 -1.125 1.115 -0.617 0.702 0.360 -0.093 -0.300 -0.003 -0.534 0.127 -1.363 0.136 1.882 -0.245 -0.740 0.763 1.293 0.405 1.013 0.418 -0.011 -0.103 -0.440 0.487 0.486 1.115 -0.535 1.613 0.148 1.345 0.871 0.324 -1.182 -1.217 1.264 0.355 0.815
1.305 -0.297 0.655 -0.765 -0.298 -1.005 0.504 1.536 -2.138 -0.264 -0.350 -0.647 1.170 -0.687 -0.587 -0.183 0.789 -0.945 2.295 -1.045 0.427 1.404 0.835 0.030 0.802 0.413 0.637 -0.760 -0.695 0.175 -0.327 -0.473 0.039 1.838 -0.110 -1.085 1.702 -1.370 0.195 0.720 -0.008 -0.582 0.732 -2.593 0.299 2.125 -0.016 -1.223 1.306 0.785 0.000 -0.551 -1.268 -0.850 0.655 -1.772 -0.214 0.792 0.869 0.318 0.543 -1.540 -0.593 -0.414 -0.297 -1.030 -0.123 -1.773 -0.321 -0.300 0.050 1.443 -1.290 -1.385 0.950 1.256 -0.140 -0.915 0.064 1.096 2.562 -0.708 0.284 -0.102 0.627 -0.020 2.666 0.290 0.458 0.626 -0.444 0.391 0.539 0.675 -0.821 1.898 -2.182 -0.997 0.641 0.645
-0.729 0.393 0.297 0.340 0.471 -1.666 1.583 -1.462 0.166 -0.658 -0.706 0.952 -1.705 -0.224 0.298 -1.103 -0.845 -1.176 -0.613 -0.472 0.071 0.533 -0.290 -0.431 -1.960 -0.079 0.213 2.622 0.367 0.548 -0.044 0.818 -0.835 -1.200 -0.450 0.695 -0.241 -1.568 1.566 -0.076 1.085 -1.202 1.428 0.218 -1.237 -1.271 -1.523 -0.553 -1.105 0.030 2.323 -0.300 1.518 -0.163 0.286 -1.430 0.102 0.839 -2.016 0.081 -0.747 -0.217 -0.230 0.752 -1.064 1.134 -0.335 0.777 1.285 0.671 -0.639 0.315 -0.156 -1.640 1.484 0.305 1.862 -0.807 -0.289 0.981 -0.367 0.062 1.118 0.306 0.416 0.899 0.933 -0.266 -0.079 -2.056 -4.015 -0.055 0.015 0.542 0.529 0.560 1.315 -0.679 -0.291 -0.476
0.568 -0.470 0.395 -1.965 0.434 -1.339 -0.140 0.629 -1.399 -1.679 1.243 0.639 1.367 -2.292 0.570 -0.868 -1.930 -0.357 -0.332 2.458 -0.410 -0.036 -0.771 0.573 -0.930 1.496 0.384 0.695 -0.221 -1.261 -1.627 -1.292 0.598 0.693 0.352 -0.294 -1.565 0.861 -0.163 1.075 -0.556 -0.066 -0.792 0.578 1.459 1.195 -0.886 -0.200 0.095 0.618 -1.327 -0.077 0.395 -1.431 -1.286 -0.937 0.357 -0.171 1.904 0.726 -1.053 -1.377 1.879 0.400 0.050 0.887 -0.701 0.523 -1.561 0.379 1.060 -1.565 -0.583 -0.927 -0.880 0.051 0.595 -0.728 -0.675 -0.646 1.601 -1.833 -2.030 0.597 -0.674 -0.181 0.824 1.201 0.472 0.539 1.892 -0.646 -1.372 -0.692 0.574 2.227 -0.080 -1.552 1.012 0.877
0.054 0.439 -0.079 0.014 0.945 -0.524 -0.132 -0.093 0.415 -0.110 0.357 -0.050 -0.687 1.522 0.407 -0.690 -0.011 -1.339 -0.533 0.202 -0.104 -1.066 -0.034 1.614 0.676 1.412 1.056 -1.184 -0.306 -0.780 0.052 -0.666 -0.926 0.257 0.424 -0.514 -0.706 1.591 1.233 -1.385 -1.073 -0.824 1.053 1.466 1.793 0.477 -2.135 -0.043 1.720 -1.188 0.622 -0.698 -0.877 -1.416 -0.398 -0.280 0.505 -0.084 0.558 -0.398 -0.296 -0.273 -0.952 1.006 -0.086 0.973 0.423 0.007 -0.464 1.167 -0.094 -1.939 -0.372 -1.231 -0.552 -0.215 -0.464 -1.041 0.468 0.406 -0.948 0.317 0.425 0.163 1.051 -1.427 0.168 1.193 0.161 0.612 -0.553 -0.448 -1.152 0.363 0.595 -0.008 0.751 2.672 0.413 -0.221
-0.160 -0.193 -0.980 0.294 -1.456 1.582 0.634 1.648 -1.648 -0.174 -3.000 0.166 0.995 -1.662 -0.267 0.823 0.669 0.686 1.066 0.123 -0.486 0.383 -0.726 -1.116 3.051 -0.157 -0.161 0.902 0.809 0.447 -0.561 -1.364 0.423 0.716 -0.278 1.736 -0.144 -0.268 -1.821 0.644 -0.870 0.770 0.337 -1.539 0.745 -0.025 -0.598 1.220 0.561 -1.288 -1.819 -0.791 1.065 -0.186 0.394 0.351 -1.706 -0.078 0.203 1.414 1.447 -0.489 -1.046 -0.210 -0.065 -0.785 2.212 0.283 -0.999 -1.338 -0.588 -0.367 1.528 0.192 0.125 0.647 -0.237 -1.508 0.131 -2.016 -1.453 0.319 -1.168 0.594 -1.024 -1.727 -1.595 0.748 -1.319 -0.186 0.167 -0.895 -0.623 -1.606 0.538 -1.124 -2.374 -0.186 -0.113 1.244
-0.266 0.192 0.762 -0.476 -0.541 0.381 0.916 -0.129 0.667 -0.865 -0.735 -0.145 0.467 -1.461 -0.874 -0.179 1.043 -1.835 1.951 -1.089 -1.044 -0.482 -1.040 0.468 0.928 -0.506 0.147 -0.077 0.300 -0.018 0.359 -0.783 -0.792 1.183 -0.238 1.505 -2.303 2.391 -1.457 -1.909 0.468 -0.884 -0.433 -0.499 -0.010 -0.099 0.593 -0.461 0.757 0.697 0.740 -2.487 1.825 -0.941 -0.347 0.372 -0.727 0.290 0.495 -0.339 0.512 0.773 -0.083 0.601 -2.931 1.927 1.799 -0.156 1.118 -0.717 0.583 1.064 1.700 0.453 0.143 0.785 -0.680 0.071 0.500 0.946 -0.804 1.519 -0.378 1.012 2.343 0.001 -0.433 1.454 -0.721 -1.365 0.296 -1.134 1.055 -0.570 0.391 -0.824 0.189 0.717 -0.129 -0.463
-0.560 -1.232 0.046 -0.118 -0.601 -0.819 1.084 1.469 0.691 0.805 0.008 -0.079 2.400 1.128 -0.543 -0.216 1.576 -0.275 0.131 0.803 1.599 -0.228 -0.113 -0.029 -0.119 -0.465 -0.379 -0.741 -0.476 -1.153 0.022 -1.102 -0.200 -0.154 0.386 -0.297 0.319 -0.502 -0.918 0.374 0.325 0.752 1.379 0.931 -1.050 -2.187 0.861 0.762 1.315 -0.822 1.227 0.005 -0.149 0.062 2.729 -1.724 -0.504 -0.332 0.818 0.331 0.648 -0.550 0.778 0.686 -0.560 -0.775 0.322 -1.238 -1.283 -0.367 1.480 -0.349 -0.087 0.516 0.398 -1.135 -1.109 -0.406 -0.162 0.087 1.667 0.866 -0.415 -0.053 1.253 -0.770 -0.495 0.484 0.172 0.615 0.235 -0.061 -0.916 0.397 -0.575 1.003 -0.334 0.063 0.023 -1.714
-0.490 1.422 0.883 0.754 0.422 -1.914 0.058 -2.179 -0.721 -1.323 -0.999 -0.048 0.882 0.850 0.172 0.778 0.882 0.404 -0.287 0.126 0.763 0.460 -1.123 -1.740 2.602 -0.552 0.425 1.218 0.960 0.067 1.659 1.435 -0.645 1.354 -1.523 -1.676 -0.075 1.363 1.167 -0.485 -0.312 -0.484 0.379 0.875 0.686 1.731 0.016 1.815 -0.326 0.162 0.661 2.079 2.223 -0.914 0.060 -1.012 0.105 -2.561 0.399 0.557 -0.522 0.688 -1.389 1.174 0.558 -1.159 -0.042 1.155 -0.296 0.726 0.143 0.462 -0.265 1.015 -1.856 0.565 -1.859 0.140 1.331 1.406 -0.870 0.522 0.639 0.395 -1.681 -0.140 0.466 -0.639 -1.542 -0.827 -0.948 -0.809 1.094 -0.877 -1.508 1.462 0.737 -0.506 1.342 1.686
0.480 0.573 -0.400 -0.101 1.002 -0.767 -0.373 -1.042 0.059 -1.423 2.033 0.704 -0.939 0.043 0.799 1.148 -0.453 -0.674 0.856 -2.382 1.602 0.132 0.035 -0.484 0.184 0.803 0.558 -3.803 0.071 0.809 -0.255 0.618 0.743 -1.700 0.013 -0.279 -0.029 0.297 0.431 -0.556 0.219 0.558 -2.154 0.121 -1.083 1.204 -0.531 1.214 0.244 1.278 -0.683 -0.893 -0.837 0.692 0.184 0.202 -1.920 -1.533 0.217 -1.075 0.790 -0.671 -0.546 -1.606 0.142 1.036 -0.521 -1.556 1.570 0.546 -0.166 0.421 0.451 -0.510 0.223 1.931 0.683 0.569 -0.261 1.195 0.391 0.723 -0.989 -0.648 0.873 -1.617 -0.062 -0.190 -0.895 -0.477 1.372 1.051 0.147 0.849 0.260 2.049 -0.052 -2.027 -0.501 1.029
-0.213 0.670 -1.119 0.279 -0.260 0.749 0.513 -1.077 1.031 -0.158 1.327 0.206 -0.372 0.588 0.322 -0.152 -0.019 0.587 -0.469 -0.098 0.659 1.486 -0.013 0.133 -0.292 -0.206 0.153 -0.445 0.021 0.723 1.102 -1.180 0.358 -0.653 -0.330 0.907 0.344 0.751 0.251 0.905 -0.728 -1.965 1.237 0.454 -0.412 -0.452 -0.684 2.149 -1.586 0.943 -0.746 -0.332 0.499 0.478 1.336 -1.056 1.434 1.495 2.111 -0.604 0.316 -0.491 -0.413 -0.114 0.200 1.447 -0.876 -1.073 1.601 -1.003 1.581 -0.997 -1.741 0.288 -0.151 -1.276 -1.158 0.627 -0.582 1.108 -0.201 2.117 0.247 1.589 -0.125 0.200 -0.117 0.427 1.315 -0.155 -0.489 -0.846 -1.390 -0.980 -1.124 1.028 -2.321 -0.325 -1.372 -2.279
-1.478 0.060 1.683 -1.772 1.086 -0.793 -0.181 -0.690 1.800 -0.107 1.239 0.546 -0.171 0.575 -0.400 0.681 1.934 -1.212 0.137 1.256 -2.062 1.353 1.645 -0.947 0.059 -0.923 -1.424 -0.348 0.312 0.392 0.583 0.447 -0.834 -0.050 -1.709 -0.404 -0.024 -0.404 0.242 2.361 -0.407 -0.917 -2.394 0.228 -0.986 -1.167 -1.904 -0.512 0.966 2.486 0.946 0.912 2.562 0.372 -1.579 -1.190 0.574 -0.721 -1.023 0.071 1.218 0.002 1.569 -0.575 0.879 0.104 -1.125 0.436 -0.689 -0.006 -1.212 0.674 0.717 0.480 0.817 0.428 -0.033 -1.865 1.064 -0.381 -0.596 -0.370 -0.338 -0.145 -1.494 -0.090 -0.276 0.037 0.762 0.754 0.778 2.036 0.432 0.632 1.520 -0.743 0.595 -0.084 0.867 0.048
0.120 -0.114 1.360 -0.155 0.295 -0.144 0.589 1.300 0.793 -0.120 -0.084 0.500 -0.918 -0.075 -2.206 0.153 1.418 0.251 1.173 -0.554 -0.998 -0.836 1.913 0.439 -0.189 0.487 -0.846 -0.003 -1.473 0.414 -1.785 0.128 0.137 -0.539 -0.806 -0.134 1.188 -1.207 0.797 0.192 1.885 -1.903 0.945 0.371 0.240 -1.226 -1.042 0.521 0.326 1.257 0.458 -1.142 0.773 0.073 -0.275 1.454 0.539 1.229 -0.210 1.388 -1.324 0.376 0.071 0.933 -1.112 -0.073 0.744 0.466 -0.475 -2.102 -0.486 -0.640 -0.565 -0.448 -0.333 1.342 0.128 2.005 -0.522 -0.271 -1.224 1.464 2.148 -0.778 0.081 -0.280 -0.197 -0.877 0.740 0.926 0.030 0.648 -1.483 -1.082 -1.367 1.697 -0.971 -2.176 -1.699 0.524
0.716 -0.931 0.942 -0.303 -0.887 0.821 -0.614 0.067 -0.510 -2.368 1.258 -0.134 0.542 0.313 2.180 0.061 -0.455 -1.022 0.496 0.478 -0.956 0.440 0.023 -0.886 0.337 0.260 -0.678 0.447 -1.324 -1.078 0.677 -0.788 -0.657 0.414 0.237 0.947 0.121 0.578 -0.398 -0.511 -0.680 -1.072 -0.995 2.785 0.372 -0.164 -0.900 0.432 2.095 0.508 -1.031 0.792 -0.069 1.113 0.389 -0.387 0.006 -0.161 0.101 0.478 -0.210 1.538 -0.374 1.816 -0.116 -0.251 -0.372 -0.027 -0.632 -0.602 2.043 0.561 0.392 1.635 -1.165 0.157 0.364 0.094 -1.198 0.305 -0.386 -0.516 0.369 0.937 0.960 0.874 -0.229 1.726 0.135 -1.822 -2.127 0.528 -1.851 0.328 0.012 2.322 -1.808 1.751 0.323 -2.145
0.020 0.720 -1.012 0.222 -1.191 0.817 -1.041 -1.292 -0.696 -0.835 1.095 1.735 0.304 -2.249 -1.203 -0.494 -0.331 0.960 1.391 -0.003 -1.082 0.161 -0.006 -0.130 -0.987 0.433 1.406 0.586 -0.288 -0.699 -1.205 -0.714 -2.235 1.634 0.856 -0.046 1.580 0.187 -2.542 -0.002 0.506 -1.404 -0.908 -0.361 -2.291 0.273 -0.018 -0.749 -0.697 -0.856 -0.184 -1.396 -0.439 -2.014 0.046 0.350 -0.806 -1.213 2.450 0.516 0.252 0.958 0.519 -0.387 0.641 0.340 -0.824 1.439 0.471 1.034 0.051 1.014 0.339 1.054 -0.678 -0.731 0.179 -0.696 -0.429 0.498 -0.461 0.356 0.568 -0.605 1.190 -0.079 -0.144 -0.643 0.060 0.080 -0.865 -0.847 0.685 -0.444 -0.040 0.367 0.988 0.989 -0.328 0.927
0.596 -1.574 0.897 1.057 0.523 0.666 -1.522 -0.418 1.500 0.428 -0.281 1.095 0.048 -0.416 -0.975 -0.740 -2.151 -1.794 0.447 1.913 0.792 -1.844 0.097 0.827 1.576 0.690 1.506 -0.321 -0.819 0.693 -0.477 1.556 -0.101 -0.096 -0.598 -0.636 0.341 0.415 -0.843 -0.167 -1.912 1.534 -1.085 -1.606 1.090 0.906 0.289 1.350 1.164 -0.390 -0.825 2.052 0.006 0.448 0.302 0.053 -0.448 1.460 0.395 1.542 -0.871 1.357 0.261 -0.133 -0.664 1.663 -0.530 0.115 -2.777 1.807 0.132 -1.236 0.246 -2.081 -1.494 0.679 0.458 0.164 0.395 -0.932 0.642 0.003 0.580 -0.108 -1.265 -0.564 -0.153 0.507 2.066 0.725 -0.053 0.041 -0.339 0.511 -0.023 -0.450 -1.037 1.027 -0.399 1.238
0.035 -0.456 0.139 0.280 -0.085 -0.693 -1.041 -0.882 0.481 -0.987 1.331 0.491 0.550 0.123 -0.605 -0.406 0.193 -0.163 0.078 -0.627 2.118 1.782 0.223 1.116 0.321 -0.523 0.847 -1.140 0.614 1.728 -1.433 0.025 0.285 -0.745 0.382 1.358 2.226 -0.636 0.407 0.066 -1.554 0.508 0.600 0.857 1.567 0.121 0.519 -1.261 -1.149 0.567 1.128 0.894 0.744 1.099 1.319 0.209 -1.513 0.781 -0.292 0.752 -0.176 0.994 0.849 -0.677 -2.212 0.835 0.461 0.129 -1.458 0.504 -0.714 2.002 -0.152 0.766 1.441 -1.191 0.802 1.002 0.571 0.912 1.515 -1.419 -0.391 0.998 0.880 0.594 1.519 -2.532 -2.496 1.456 0.663 -1.050 -1.260 1.337 1.162 0.736 -0.722 -0.673 1.916 0.205
-0.558 0.438 -0.629 -0.734 0.591 0.523 -0.984 -2.179 -0.620 2.109 -0.201 1.237 -0.064 -1.115 0.267 -0.320 0.773 -0.018 0.531 2.227 -0.048 1.087 0.607 0.474 0.268 -1.001 -1.166 0.141 0.089 -1.911 0.090 0.021 -0.976 -0.399 0.293 -1.490 0.909 -1.539 -0.228 1.328 -0.316 0.845 0.101 0.780 -0.208 -0.023 -0.991 1.145 1.832 -0.647 2.608 0.158 -0.271 1.519 0.332 -0.586 -0.184 -0.053 0.372 0.666 -0.621 0.495 0.715 0.532 -0.979 -0.518 -2.247 1.225 -1.994 1.184 -1.296 -0.053 0.738 -1.678 -0.229 1.166 1.451 0.573 0.214 0.377 1.058 0.120 0.069 0.656 0.015 0.142 0.339 -0.470 1.125 -0.186 0.287 -0.474 -0.121 -1.051 0.341 0.258 -1.060 -0.075 1.968 0.833
1.711 -0.114 1.082 1.073 -1.442 -1.119 1.419 1.172 0.077 -1.105 1.188 -0.290 -0.125 -0.213 0.703 -0.867 -0.624 0.158 1.211 -0.584 1.623 -0.233 -0.985 0.748 0.142 -1.753 1.005 0.382 0.810 0.619 -0.449 0.324 -0.401 -0.090 0.486 0.438 0.395 0.069 0.023 0.868 -0.059 -0.100 0.267 -0.102 -0.827 0.306 -0.509 -1.121 -1.422 0.322 -0.460 1.051 -1.520 -0.094 -0.306 0.105 0.026 -0.686 1.475 -0.045 -0.062 0.016 -0.022 0.689 0.797 -1.016 -0.976 2.220 -0.917 0.481 0.481 1.238 -0.649 1.146 0.071 2.448 -0.482 -0.275 -0.128 0.070 0.249 -0.238 -0.332 1.019 0.559 -1.852 1.225 1.423 0.339 0.250 -0.275 -2.370 -0.647 -0.191 1.155 -0.312 1.336 0.416 -0.675 -0.040
0.985 -0.220 0.055 0.546 1.435 1.723 1.668 -1.198 0.707 0.287 -1.145 0.759 -0.016 -0.739 -0.117 -0.520 0.384 -0.825 1.052 0.172 1.103 0.329 -2.834 0.650 -0.910 0.368 -0.685 0.422 0.396 -0.385 -1.124 0.362 0.922 -0.059 -0.939 -0.997 -0.628 0.047 -1.642 -0.427 1.182 -0.775 -0.039 -2.558 2.620 0.754 1.304 -0.185 1.638 -0.206 -0.847 -0.126 1.000 0.559 -0.475 -0.102 0.321 0.293 -0.004 0.194 -0.790 -0.567 0.262 0.034 -1.498 1.026 1.004 1.158 -1.175 -1.623 -3.177 -0.569 0.079 1.179 1.110 0.170 0.015 -2.883 0.481 0.461 0.506 1.832 -0.459 -0.082 -0.005 0.479 -0.157 -0.992 -0.595 0.876 1.137 -1.357 1.068 0.842 -3.473 0.261 0.299 0.342 0.186 -0.041
0.657 -0.112 0.967 -2.064 0.892 0.233 0.162 -0.184 0.307 -0.010 1.849 -0.688 -1.058 -0.179 0.579 -0.194 1.408 -1.157 0.145 -0.720 0.118 -0.491 -0.306 0.701 -0.778 -2.042 0.199 -0.294 0.455 -0.216 -0.713 2.015 0.733 -0.324 -0.199 -2.452 -0.260 0.265 -0.689 -0.118 -0.411 0.015 0.659 -1.856 -2.048 0.125 -0.327 0.407 0.835 0.540 -0.429 1.605 -1.835 -0.224 0.337 0.610 -0.572 0.099 0.012 0.960 -1.714 -0.943 -0.072 -0.869 1.587 -0.989 -1.455 -0.038 -1.179 0.015 0.639 1.551 0.278 -1.100 0.135 0.526 -1.068 -0.398 -0.453 0.300 1.975 -0.209 -0.288 0.296 0.773 -0.591 1.238 -0.046 0.741 0.691 -2.091 1.793 0.652 -0.231 -0.216 0.588 0.293 0.581 -0.245 -0.470
0.908 0.274 -1.052 -1.274 0.425 0.305 -0.035 1.623 -1.355 0.192 -0.645 0.992 0.473 1.583 -0.908 1.544 0.115 1.339 1.362 1.314 -0.805 1.808 2.255 -0.102 -0.878 -0.666 0.347 -1.236 -2.536 0.994 -0.237 0.833 0.734 2.367 0.249 0.304 0.093 0.550 1.712 -0.904 -1.816 -0.592 -0.088 0.155 0.195 0.390 -2.728 1.577 -2.142 0.884 0.874 -0.613 -0.945 0.729 -0.038 0.475 0.365 -0.244 0.986 -1.628 -0.429 -1.134 -0.289 -0.905 -0.582 -1.002 -0.282 -0.688 -1.077 -1.024 -0.213 1.183 0.145 -0.270 0.410 0.120 2.547 -0.324 2.012 -0.458 -1.451 0.687 -1.791 -1.008 1.014 0.008 -1.166 0.218 0.185 0.241 0.565 0.914 0.340 -2.486 -0.227 -0.752 0.062 0.158 0.766 1.830
0.510 -0.466 -0.454 0.549 -1.414 -0.935 0.849 -0.858 0.719 -0.041 0.004 -1.754 0.547 0.048 -0.049 0.277 0.640 0.626 -0.662 0.559 -0.008 -0.387 -1.470 -1.266 1.830 0.333 0.392 0.368 0.971 -0.257 1.468 1.216 -0.421 -0.593 2.075 -0.837 0.265 1.490 0.216 2.044 0.096 -1.870 -1.206 0.732 2.439 -0.339 -0.334 -1.228 -0.663 -0.852 1.253 0.527 0.676 -0.010 -0.147 -0.433 -0.547 -0.797 -0.223 -1.047 -1.609 -1.069 0.570 -1.565 0.371 -0.352 -2.005 -0.814 0.534 1.706 1.513 1.107 -0.507 -0.262 -0.885 0.835 0.136 0.653 0.089 -0.105 3.226 -0.712 0.218 1.912 -1.325 2.132 -0.223 -1.515 -1.265 0.071 1.248 0.155 0.701 -0.435 -0.120 0.762 -0.895 -1.777 0.111 -2.520
1.173 -0.385 -0.490 -0.551 0.463 1.977 0.293 1.212 1.552 1.275 1.660 0.106 -0.326 -0.037 1.790 0.069 -0.038 0.313 -0.519 0.168 0.156 -0.676 0.864 0.706 0.355 -0.005 -0.821 -0.703 -0.358 -0.365 -0.831 0.175 1.100 -0.045 1.126 -0.437 -0.271 -0.298 -1.190 0.168 -0.790 1.600 1.652 -2.426 -0.283 -1.243 -0.490 0.669 -0.983 1.278 -0.535 0.262 0.097 0.137 1.213 0.730 -1.378 0.888 -0.214 -0.023 -0.330 -0.089 0.599 -0.847 0.434 -0.037 1.181 -0.240 1.031 -0.185 -0.617 -2.642 1.022 0.948 0.509 0.250 1.389 -1.493 -1.262 -0.462 -0.256 0.112 -1.083 0.615 0.868 -0.265 0.177 -1.764 0.273 -1.798 0.502 -0.193 -1.023 0.435 -0.537 -0.928 -0.543 0.433 -0.243 -0.227
-1.256 -0.142 -2.111 2.029 0.460 -1.448 -0.399 -0.837 1.205 1.361 0.873 0.462 1.835 -0.081 0.591 -0.980 0.666 0.641 -0.259 -0.248 -0.018 0.910 0.927 -1.502 0.252 0.063 -0.990 -0.568 1.384 0.085 -1.582 0.175 -1.689 0.052 -1.038 -1.117 -0.818 1.114 -0.588 -0.749 0.331 -0.911 0.815 0.472 -1.575 -2.507 1.064 -0.257 0.801 -0.789 -0.127 -0.527 0.626 0.738 0.389 1.260 -1.392 0.655 -1.540 0.571 -0.688 0.945 0.549 0.097 0.678 0.979 -1.596 -0.430 -0.061 0.087 -1.564 -0.200 0.943 -1.096 0.604 0.940 2.193 1.714 1.123 0.927 -1.450 -0.546 -0.265 -0.608 -0.150 0.249 0.238 -0.490 -0.995 -2.358 -0.490 -0.774 0.042 2.007 -0.397 0.654 -1.699 -0.502 0.404 1.305
-1.621 -1.482 -1.206 0.917 -1.437 0.942 -0.441 1.123 0.491 1.433 -1.565 1.216 -0.500 0.768 1.636 -0.481 0.746 -1.363 0.018 -0.141 0.929 -0.963 0.841 0.074 -0.291 0.013 -0.724 -0.895 1.033 -0.038 0.966 0.094 -2.335 0.783 0.198 -0.005 -0.057 -0.475 1.331 0.810 -0.924 -0.894 -1.590 1.011 -0.417 -0.927 -1.014 -0.492 -0.001 -0.523 -0.103 0.101 0.558 0.842 -0.334 -1.209 -1.021 0.892 -0.329 0.398 1.078 1.284 0.054 -1.362 1.361 0.678 -0.727 -1.413 -1.217 -0.258 0.289 -0.781 -0.413 -0.301 0.894 0.188 0.660 -0.335 0.719 0.084 1.470 -0.032 -0.246 -1.778 -0.708 -0.274 -0.329 0.070 -1.389 -1.296 -0.892 0.017 -0.444 -1.421 0.097 1.332 -0.084 -1.352 0.754 -0.371
-0.708 0.787 -0.832 -0.303 -0.282 -0.156 1.244 0.438 0.109 -1.705 -0.438 1.834 2.161 1.065 -0.009 1.408 -0.347 0.801 0.751 -0.736 0.229 -0.851 -0.505 0.689 0.308 1.026 0.605 -0.967 1.337 1.301 -0.806 0.650 0.410 0.767 0.361 1.530 -0.774 0.117 -1.698 0.571 1.332 0.488 1.210 0.608 -0.059 -0.170 0.963 -0.859 0.135 0.848 -0.153 -0.477 0.910 -0.882 0.185 1.218 -0.497 0.668 0.776 -0.572 1.760 -0.593 0.267 -0.985 -0.078 0.282 -1.494 0.642 -0.835 0.647 -0.566 -1.244 -1.023 0.214 -0.619 -0.412 0.101 1.582 -1.558 0.114 0.088 0.475 0.999 1.552 1.343 -1.281 1.135 -1.181 1.394 0.514 0.297 1.585 -2.676 -1.326 -1.658 1.849 1.161 1.433 2.082 2.178
-0.853 -0.083 -0.868 0.374 -1.127 2.198 1.363 1.008 0.521 -1.891 -0.777 0.716 1.038 0.320 -0.236 1.381 0.300 0.810 0.384 0.800 0.225 -1.209 1.287 -0.064 -1.470 0.294 1.262 0.695 0.133 1.689 -1.379 0.537 0.423 -0.033 -0.406 -0.716 1.688 0.705 0.046 -1.860 0.611 -0.281 -0.735 -1.205 -0.043 0.738 0.369 0.295 -0.771 0.163 -1.727 -0.236 -2.134 1.555 -1.062 -1.485 0.366 1.771 0.231 -1.203 -0.417 -0.009 -2.157 0.149 -0.430 -1.700 -0.315 1.428 -0.120 0.670 0.242 -0.782 -0.081 0.761 -0.075 0.031 -0.558 0.209 -0.983 0.840 1.449 0.295 -1.529 1.709 0.712 -0.236 0.843 -0.149 -1.146 2.186 0.854 0.334 0.466 -0.827 0.429 2.214 -1.802 0.412 0.207 0.361
1.272 -1.696 1.145 -1.818 0.469 -0.224 1.037 1.253 -1.278 0.977 -0.028 -0.608 -2.040 0.503 -1.421 -0.695 0.043 0.605 -0.619 -1.500 -0.005 -1.113 -0.052 -1.756 -1.050 2.228 -0.128 -0.217 -0.452 0.390 -2.256 0.152 0.073 0.607 0.583 -0.682 0.133 -0.302 -1.697 0.518 -0.921 2.169 -1.070 -1.402 -0.508 0.063 -0.443 -0.967 -2.526 -0.975 0.275 1.410 -1.211 -1.300 -0.031 0.410 0.164 0.063 0.549 0.326 1.947 0.426 -0.879 1.319 0.484 -0.978 0.005 -0.586 1.230 -1.381 0.157 -1.387 1.596 -1.263 -0.717 0.268 1.513 -0.600 0.017 -1.238 0.684 0.184 -0.037 -1.675 -1.379 0.625 2.116 -1.894 -0.935 -0.852 -1.491 0.450 -0.716 -1.212 1.192 0.102 1.059 -0.779 -0.946 -0.111
-0.988 0.345 1.238 0.466 0.288 -0.406 -1.596 -0.915 0.063 -0.577 1.924 0.263 1.797 -2.047 0.514 -0.524 0.715 1.339 -1.445 -0.063 -0.966 -1.099 0.938 0.917 2.093 0.329 -0.035 1.744 0.628 -1.555 0.115 1.870 0.574 -0.608 -1.381 -1.506 0.919 1.199 0.064 -0.699 0.180 -0.990 0.105 -1.230 -0.504 -0.692 0.393 1.029 -0.305 -0.995 -0.817 -0.676 0.227 1.315 -0.233 -0.695 0.483 0.289 -0.985 -0.008 0.368 0.251 -1.316 -1.166 -0.781 1.515 -0.458 -0.494 -0.903 0.539 0.180 0.560 -0.613 0.902 0.870 -0.463 -1.526 -0.814 -0.570 -1.849 0.314 0.059 -0.336 -0.327 -0.117 0.293 0.079 -0.184 -0.638 1.203 0.594 -1.063 -1.138 0.901 0.670 0.533 -0.856 1.047 0.495 -0.076
-1.164 0.798 -0.142 -0.149 0.380 -0.000 0.322 0.009 0.382 -1.011 -0.200 0.486 1.138 -0.382 -0.974 0.622 -0.658 -0.075 -1.088 -0.840 -0.255 -0.976 -0.806 1.172 1.437 -0.041 1.307 0.982 -1.985 1.520 0.427 1.201 -2.407 -0.589 0.683 0.489 -2.211 0.915 1.753 -0.586 1.036 0.162 -3.014 -0.176 2.509 0.823 -0.958 -1.006 0.514 1.056 0.075 0.048 -0.186 0.754 0.410 -1.002 -1.440 0.874 0.858 -0.184 -0.122 -0.061 -0.161 0.654 -1.563 -0.253 -0.678 0.284 -0.555 -0.944 -1.297 -1.347 1.705 0.336 -0.792 -1.159 0.339 2.161 -1.174 -0.263 1.102 -0.188 0.560 1.245 0.187 1.205 -0.265 1.755 0.390 -1.180 0.460 -0.043 -0.294 -0.196 0.723 1.418 1.207 0.673 1.227 0.321
-0.917 -0.381 0.000 -1.048 0.891 0.833 -1.035 3.235 -1.369 0.043 -0.244 -1.564 0.496 1.288 -0.698 1.474 0.006 1.037 -0.783 -0.164 -0.838 0.478 0.094 1.104 0.914 1.261 0.046 0.332 0.640 -0.330 0.739 -0.102 -2.399 1.659 -0.814 2.316 1.300 -0.721 0.423 0.367 -1.491 -0.343 0.454 -0.573 -0.064 0.783 0.662 1.108 1.345 0.158 0.540 -0.458 0.531 -0.314 -0.579 -0.636 -0.818 0.623 0.619 1.077 0.655 1.268 0.600 0.851 -0.655 -0.532 -0.161 -1.153 -2.888 -0.866 0.904 -0.845 0.628 1.294 0.190 0.699 0.718 1.159 0.181 0.373 -0.582 -0.915 -0.361 -1.030 -0.036 0.404 1.227 -0.668 0.274 -0.318 1.094 0.361 -2.290 0.394 0.147 1.549 0.288 0.066 -1.190 1.203
-1.001 0.135 0.316 -0.325 -0.582 -0.444 -0.231 0.201 -1.284 -0.433 -1.988 0.780 -0.149 -1.517 1.262 0.304 -0.886 1.286 1.235 -0.983 1.921 -1.290 0.887 0.613 -0.561 0.087 0.248 0.347 0.821 -2.017 0.696 1.830 0.121 -1.201 -1.857 -0.182 -0.500 -0.977 -0.012 -0.237 -1.067 -0.320 0.856 0.212 1.616 0.061 0.194 0.665 -1.535 0.086 -0.042 0.819 -0.204 0.738 1.081 -0.475 -1.553 -0.253 -0.513 0.598 -0.244 -0.752 0.580 -1.958 -0.776 0.168 -0.673 -0.241 -0.676 -0.930 -0.282 0.453 -0.715 -0.113 -0.531 1.808 -1.081 0.181 -0.295 1.001 -0.142 -0.282 0.039 0.580 -0.594 -0.924 -0.471 -0.939 -0.492 -0.071 0.045 -0.399 0.433 -0.360 -1.102 -0.784 -0.359 0.081 1.066 -0.198
0.333 -0.813 0.493 -0.502 -1.242 0.050 -0.706 0.392 -0.374 -0.991 1.021 -0.571 0.425 0.040 -0.044 0.767 -0.083 -0.725 -0.903 -1.667 -0.895 1.545 -0.992 -0.328 -1.076 1.495 -0.561 -0.356 1.100 -1.697 0.511 0.742 0.367 0.288 0.041 0.650 -1.858 -0.697 -0.036 1.152 1.066 1.549 1.017 1.263 1.989 -0.295 -0.734 -0.880 0.506 -1.525 0.769 -0.300 -1.231 0.875 0.572 -0.123 1.005 0.206 -0.763 -0.167 -0.172 0.377 1.707 0.708 1.086 0.159 -1.592 1.272 0.496 1.000 -0.420 1.072 0.193 0.461 0.505 -0.953 0.458 -1.115 0.300 0.071 -0.477 -0.599 -0.352 -1.162 -0.149 1.655 2.440 -0.923 0.691 1.197 -1.360 2.086 0.856 -2.174 -0.014 0.920 0.195 0.113 -0.734 -0.662
0.962 1.307 1.193 0.061 -0.019 0.908 -1.491 -0.139 1.562 -1.135 -0.381 -0.744 -0.546 0.601 -1.227 -0.017 -0.358 -0.055 -1.309 -0.576 -0.127 0.629 -2.183 -0.479 -0.649 -1.552 0.385 0.577 -0.789 -0.050 -0.893 -0.884 0.855 -0.423 -1.099 -0.776 -0.879 0.430 0.519 -1.069 1.470 -0.058 -0.147 -0.575 -0.814 -0.219 -0.106 -1.022 -0.341 -1.505 1.042 0.607 -1.227 -0.573 2.010 -0.819 0.747 0.637 -1.977 -0.455 0.191 0.721 -1.724 0.539 1.393 0.351 -0.118 0.023 2.512 -0.673 -1.425 0.014 0.609 1.874 0.249 -0.101 0.195 -0.432 -0.483 1.548 -0.177 1.343 -0.412 0.515 -0.122 -1.279 1.061 0.215 -1.315 0.604 -0.058 2.659 1.806 -1.093 -1.338 -1.097 0.325 1.133 1.878 -0.686
0.098 0.640 -0.862 -0.137 1.059 1.594 0.371 -0.632 -0.199 0.063 -0.522 -0.434 -0.587 0.676 -1.831 -0.928 1.718 -1.824 0.666 -0.854 0.185 1.175 -0.241 -1.431 -0.330 0.333 0.521 -0.387 1.200 -1.389 1.516 -0.248 0.656 -0.589 0.374 -1.888 -1.678 -1.667 0.678 1.382 1.061 -1.009 0.443 0.528 -0.984 1.662 2.495 0.595 0.480 -0.583 -0.556 0.611 0.181 -1.169 -0.879 1.079 -0.855 0.962 0.614 1.647 0.415 0.790 -0.767 0.610 0.096 -0.066 1.650 0.740 -0.444 0.216 0.284 -0.311 -0.021 0.914 0.702 -0.460 -0.297 -0.613 -0.758 0.074 -0.282 0.234 0.817 0.461 1.571 -0.327 0.929 0.138 0.650 -0.927 -0.028 -0.277 -0.823 0.490 1.654 -0.409 -0.043 -0.566 1.799 -0.108
0.139 -2.028 1.581 -1.066 0.169 0.491 1.344 -1.329 -0.793 0.764 1.091 -0.644 -0.609 0.391 -0.660 -0.278 -1.311 0.322 -0.631 -1.889 0.966 1.680 -1.881 -0.486 -1.057 -0.221 0.947 1.685 0.506 0.053 0.022 -0.446 1.322 -0.062 0.256 -0.814 0.626 0.250 -0.284 -0.023 0.318 0.985 -0.178 0.858 0.284 -0.536 -0.526 -2.774 1.280 -0.615 0.144 -1.238 -1.055 -0.334 1.491 0.628 -1.279 0.679 1.145 -2.331 0.727 -1.274 0.667 1.611 -1.088 -0.038 0.898 0.656 0.450 -0.094 -1.858 0.616 0.105 0.980 -1.503 -0.245 2.269 1.208 0.076 0.226 0.328 -0.499 -1.299 -0.264 -1.068 -0.498 -0.238 -1.319 -1.749 0.647 0.601 1.248 1.289 -0.135 0.543 0.338 0.670 -0.390 -0.195 -0.802
-0.802 -0.368 -0.292 -0.540 1.805 0.657 0.706 0.705 -0.643 0.462 1.193 -1.262 -0.518 -0.176 0.595 -0.441 2.754 0.133 -0.366 -0.184 -0.877 1.235 -0.062 0.536 -0.489 0.519 0.375 -0.865 -0.022 0.402 -0.202 0.233 -0.862 1.179 -1.811 1.888 0.082 -1.545 -1.499 -0.808 0.416 0.173 0.379 0.896 -1.310 1.038 0.277 -0.284 0.147 -0.026 0.861 0.665 0.321 -0.637 0.781 -0.561 -0.713 -0.664 1.139 -0.306 -0.086 2.033 0.815 0.930 0.257 0.823 -0.435 -0.778 -1.049 -2.602 0.284 -0.693 0.317 0.433 -2.545 -0.419 -0.737 -0.880 1.168 0.763 1.541 0.923 -0.934 -0.524 0.610 0.423 1.569 -1.635 1.279 0.811 -0.141 0.465 0.442 -0.533 -2.361 -0.210 -0.608 -2.360 -0.282 0.997
0.180 1.229 0.638 -0.770 -1.054 0.214 -0.667 -0.529 0.239 1.072 1.496 0.783 1.597 -1.820 0.679 0.653 0.526 -0.028 -2.179 0.556 1.149 1.888 -2.605 -1.454 1.009 0.631 1.274 -0.052 1.988 -1.764 1.195 0.897 -1.729 -0.626 -0.543 0.699 0.898 -1.721 1.510 -1.138 -0.659 0.602 1.055 0.462 -1.269 0.288 -1.049 0.425 -0.349 -0.181 0.879 0.899 2.059 0.829 -1.394 1.350 0.892 0.763 -0.547 1.577 0.866 0.802 -2.013 0.424 -0.169 -1.279 -0.728 0.380 -0.131 2.125 -0.331 0.098 0.998 -0.301 -0.825 0.609 -0.725 1.042 0.646 -0.659 1.157 -1.795 -0.567 1.887 2.536 0.775 -0.776 -1.422 0.429 -1.807 -0.452 0.034 1.262 -0.748 1.262 0.514 -0.996 0.939 -1.496 0.565
-0.507 -0.860 2.289 0.590 -1.475 -0.676 0.371 -0.719 -0.672 1.137 0.580 0.091 0.436 -0.074 1.623 0.755 2.885 1.724 -1.541 -0.226 -0.186 0.669 0.785 1.001 0.070 0.062 -0.483 -1.761 0.532 1.554 1.253 0.300 -1.163 0.107 -0.956 -0.659 -0.437 0.266 -0.206 1.440 0.474 -0.504 -0.732 2.118 0.498 0.270 -0.135 0.843 -0.215 0.789 0.620 -0.901 -0.376 -0.826 1.893 -0.628 0.615 -0.750 -1.588 -1.447 -0.042 0.827 -0.523 1.416 -0.104 0.462 0.017 -0.786 -1.607 -0.953 -1.125 -0.094 -1.119 -0.293 1.002 -1.627 0.243 -0.909 -1.480 1.044 1.451 -0.399 -0.310 -1.049 1.691 0.903 -1.683 -1.249 0.415 -0.748 0.381 0.781 -0.393 0.236 1.078 -0.057 0.226 0.911 -1.574 0.581
1.158 -0.749 -0.055 0.821 -0.234 0.711 -0.777 -1.249 0.034 1.236 1.243 -1.252 -1.094 -0.963 -0.216 0.715 0.938 2.117 1.193 0.528 0.485 -0.843 -0.070 -0.369 1.146 0.257 -0.051 -0.624 1.654 1.123 -0.125 0.374 -0.473 -1.313 -0.915 0.430 0.758 0.319 0.153 -0.450 0.105 1.270 0.382 0.021 -1.946 -0.182 0.400 -0.035 0.226 -0.021 1.775 -2.037 0.400 0.005 0.598 -0.213 0.805 0.993 0.684 1.028 -0.662 -1.210 0.124 -1.453 1.104 0.692 1.236 -0.100 0.584 0.616 0.208 0.139 1.469 -1.199 -0.312 -0.005 -0.000 0.296 -1.800 0.554 2.228 -0.898 -0.757 -0.559 0.520 0.309 -0.290 0.537 -1.266 0.465 1.110 0.129 -0.920 0.574 -0.101 0.457 -0.468 0.876 -1.436 0.184
-1.187 0.104 -0.693 0.092 -0.658 1.077 0.067 0.240 -0.075 -0.019 1.460 -1.309 -0.194 0.487 -0.471 0.610 -1.028 -0.740 -0.761 -0.246 0.511 -0.170 -0.036 0.579 0.741 -1.193 0.681 1.055 -0.701 -0.873 -0.844 2.318 0.149 -1.571 -0.904 1.361 1.627 0.045 -0.167 2.562 0.125 -0.694 2.249 -1.824 1.573 -1.063 -0.473 -0.412 -0.598 -0.042 0.337 0.358 0.642 -1.131 -0.016 -1.586 0.010 -0.291 -0.233 -1.535 1.164 1.208 -0.736 -1.719 -0.029 -0.707 2.662 3.124 -0.599 -0.271 -0.140 0.647 -0.186 1.118 -1.575 1.702 -0.444 0.316 0.310 -1.145 -0.675 0.088 0.436 -0.651 0.465 -0.424 1.670 0.736 0.790 -0.476 0.052 -1.104 1.571 -1.933 0.005 -2.019 -1.540 -1.363 -1.058 -1.397
-1.518 1.338 -1.322 -2.409 0.302 2.083 0.071 1.737 -0.276 0.491 0.661 -0.372 0.399 1.115 -0.346 0.772 1.528 0.456 -0.096 -0.728 -0.824 0.834 -1.166 0.805 1.262 1.380 1.012 0.562 1.354 -0.318 1.589 0.599 0.270 -0.290 0.674 0.918 1.058 -0.038 -1.795 -1.634 -0.023 -1.750 -0.084 -0.001 1.924 -0.790 0.556 0.364 -0.953 -2.424 -0.111 -0.199 0.939 -0.841 0.768 -0.360 -0.055 2.845 0.731 0.113 0.241 0.394 1.823 0.897 0.240 0.551 0.739 -0.096 0.940 -0.875 -2.712 0.509 0.733 -1.277 0.587 0.419 -1.821 0.503 1.082 0.646 0.588 0.480 -0.510 -0.358 -0.908 -0.965 0.196 0.837 0.011 -0.510 -0.593 0.009 -0.357 -0.297 -1.469 0.263 -0.316 -1.757 -0.401 -0.576
1.540 2.112 1.538 0.323 0.259 0.221 -0.487 -0.751 0.251 0.997 0.852 0.110 -0.206 0.793 1.802 0.079 0.317 0.174 0.154 -1.291 -0.713 -1.019 -0.155 -0.132 -2.326 -0.118 0.889 1.120 -0.123 -0.824 0.691 0.276 0.857 0.858 -1.328 0.136 1.787 -0.005 1.684 0.480 -1.917 -1.523 0.038 -0.951 -1.075 0.439 -1.765 -0.636 -0.977 -1.310 0.657 -2.764 -0.497 0.874 -0.044 1.274 1.314 -0.303 0.301 -1.790 0.756 -0.079 0.538 0.911 -1.182 0.045 0.222 0.645 0.358 -0.360 1.302 -0.985 0.484 1.235 0.904 0.293 1.072 0.574 -0.531 0.881 -0.699 -0.781 1.670 -0.588 0.184 0.433 -0.595 1.276 0.684 0.673 -0.416 0.571 -0.292 -0.938 -1.701 -0.380 0.204 -0.429 -1.308 0.103
0.658 -0.303 -1.526 -0.762 2.488 -1.288 0.447 0.329 0.693 -0.169 1.145 0.538 -1.074 0.785 -1.670 -0.730 0.514 0.864 1.813 0.132 -1.365 1.037 1.157 0.239 -0.121 0.296 2.179 0.780 -1.287 0.564 -0.241 1.549 -1.136 -0.924 0.368 -0.887 -0.767 -0.783 -1.247 -1.785 0.131 -0.774 0.035 2.446 0.711 0.093 0.121 -1.353 0.159 -0.635 0.178 -0.002 -0.621 0.869 1.237 -0.387 -1.187 0.028 -0.379 -0.297 -0.050 0.809 0.972 0.167 0.087 -0.217 -0.643 -0.146 0.328 -1.163 1.590 -0.500 0.389 1.683 0.685 -0.536 3.205 3.053 0.755 -1.058 0.127 0.550 -0.165 -0.902 0.113 0.771 1.216 0.314 0.241 0.879 -0.644 0.661 1.745 -0.601 -0.413 -0.227 -1.420 -0.404 -0.180 0.613
-0.220 0.528 -1.303 0.018 0.170 0.209 -0.547 0.235 -0.639 0.353 0.115 -0.464 -0.313 -1.850 1.544 0.953 2.309 0.905 -1.458 0.697 -0.208 -0.761 -0.845 -0.339 0.326 1.667 0.423 -0.508 -0.543 -0.758 -0.080 -1.041 0.947 -0.872 1.520 -0.444 -1.042 -0.352 0.655 1.338 -1.447 -0.147 0.626 -1.115 -0.028 0.057 -2.238 -0.997 -0.770 -1.941 0.296 -0.133 0.735 0.990 -1.664 -0.006 0.131 -0.566 -0.059 1.724 -0.231 -0.504 -0.344 0.247 -0.739 -1.359 -0.141 -1.571 -2.011 0.378 -0.510 0.122 -0.364 -1.516 1.301 0.556 -1.377 -0.125 -1.561 0.605 0.449 0.593 0.390 0.358 1.255 -0.025 -0.619 -0.555 0.798 -1.575 -1.751 -1.025 0.293 -0.952 -0.584 -0.414 0.333 -0.664 -0.280 -1.429
1.328 -1.081 -0.029 0.211 -1.134 -0.310 1.257 0.128 -1.660 -0.650 0.631 1.434 0.692 -1.689 1.325 -1.465 1.485 -0.326 0.670 -0.057 -1.054 -0.368 -0.901 -1.159 -0.874 0.644 -0.131 -0.151 1.201 0.203 -1.981 -1.106 -0.690 -0.566 1.374 -0.909 0.776 -1.094 -0.578 1.454 0.612 -0.527 1.943 -0.680 1.021 -0.367 -1.133 -0.328 0.814 1.878 -0.875 0.174 1.156 0.704 -1.465 1.042 -2.108 -1.519 -0.135 0.090 -0.028 -0.748 -1.929 1.107 0.990 -0.214 -1.299 -1.656 1.148 0.563 -0.938 -1.934 -0.595 0.202 -0.840 -1.390 1.077 -0.421 -1.369 0.512 1.634 -0.890 0.329 -0.225 -0.445 0.014 1.171 0.469 -0.317 -1.244 0.498 1.872 0.177 -1.194 0.784 0.110 0.170 1.605 0.304 0.154
-1.043 -0.873 0.494 -0.876 -0.410 0.659 -1.339 -1.765 -0.679 -0.308 -2.016 -0.060 0.136 -1.445 0.292 -1.707 2.129 -1.401 -0.257 -0.774 0.571 -0.078 -0.224 0.118 -1.316 -0.062 -0.825 0.920 -1.126 0.966 0.781 -0.778 -1.686 -2.016 -0.423 -0.057 0.764 1.324 1.338 0.835 0.331 -0.383 -1.178 -1.131 -2.313 0.835 0.384 -1.211 -0.319 1.364 0.662 1.360 0.666 -0.157 0.253 1.947 -1.373 -1.153 0.413 0.091 0.442 0.506 0.630 1.245 -0.750 1.943 -0.762 0.010 1.157 -0.631 -1.662 -0.662 0.981 -2.534 -0.662 2.234 -0.407 1.353 -0.909 -0.241 -0.923 0.658 1.246 0.582 0.298 -1.045 -0.004 1.292 1.106 1.104 0.458 0.114 1.706 -1.425 -1.457 -1.689 -2.290 -0.494 1.014 0.593
-0.599 -1.265 0.152 -0.214 -1.317 0.629 0.086 -0.532 1.060 -0.591 0.488 1.103 -0.576 0.545 0.188 0.819 0.670 0.165 -0.542 -0.347 0.438 0.188 0.163 2.493 1.238 -1.684 -0.287 -1.743 -0.034 2.010 1.022 -0.387 1.316 -0.433 -0.340 -0.242 -0.199 1.721 0.624 0.375 0.324 -0.121 -0.996 1.536 0.054 -0.835 -0.110 0.752 1.344 2.986 1.273 0.667 -0.541 -1.066 0.343 -2.307 1.940 0.148 -1.428 -0.815 -0.860 0.488 0.547 1.470 -1.396 0.919 0.161 -0.085 1.037 -0.806 0.918 -0.798 1.168 -0.711 0.491 -0.727 2.058 -0.499 0.385 0.103 -0.379 0.256 -0.215 2.515 0.037 0.218 -0.030 -0.618 0.099 0.266 1.500 2.233 -0.048 -0.519 0.886 1.049 -0.696 0.693 1.793 -1.041
0.037 0.053 0.558 1.118 0.264 -0.015 -1.646 0.586 -0.281 1.531 -0.646 -0.160 0.470 0.922 -0.145 -0.535 -0.459 0.889 -1.735 0.418 1.428 -0.227 -1.512 0.492 -0.958 0.068 0.364 0.315 -1.521 0.516 0.511 1.916 -0.042 -0.891 -2.207 1.727 -0.571 -0.104 0.349 -0.413 -0.326 -0.708 -0.245 0.640 -0.549 -0.657 0.522 0.563 0.881 -1.522 0.046 -0.431 -0.036 1.039 0.155 0.195 -1.741 -1.685 0.010 0.474 -0.680 -0.861 1.054 0.181 -1.364 -1.193 0.587 -0.155 -0.778 1.039 -0.135 0.688 -0.892 1.639 0.905 0.054 -0.629 1.359 0.125 -0.708 0.307 0.931 -1.077 -0.371 -0.188 -0.827 -0.251 0.292 0.747 -2.488 -0.482 -0.276 1.187 -0.218 -0.368 0.263 -0.794 1.779 0.804 -0.361
0.731 -0.954 0.350 0.117 0.690 -0.311 -1.413 -1.744 -0.055 0.140 0.975 -0.227 1.291 1.619 0.738 1.265 1.501 -0.104 -0.369 2.201 0.181 1.654 -1.074 -0.139 -1.074 0.808 0.119 -0.828 0.223 -0.787 1.259 -0.226 1.189 0.687 -1.812 -0.291 -0.171 -1.688 -0.045 -0.564 -0.975 0.393 0.686 0.542 1.039 -0.429 0.080 -1.162 0.401 0.630 -0.514 0.252 0.796 0.097 0.730 0.720 0.725 0.621 -0.349 1.879 1.480 0.429 -0.326 -0.556 0.073 -0.505 -0.839 -0.872 0.999 0.536 0.291 0.530 -1.163 0.017 2.136 -1.353 0.757 0.309 0.903 0.097 0.172 -1.257 -1.736 -0.653 -0.483 -0.201 1.020 1.029 -1.593 0.720 -0.147 0.246 -0.061 -1.009 -0.782 0.181 0.511 -0.729 1.510 0.118
-1.491 -0.370 -0.193 1.504 -0.058 -0.105 0.974 1.322 -0.359 0.328 -1.861 1.784 -0.037 1.809 1.786 1.184 1.665 0.234 -1.432 -1.019 0.297 -0.349 0.534 -0.586 -1.657 -0.597 0.235 -1.373 -2.509 -0.349 0.870 0.096 -0.231 -0.589 1.886 -0.544 -0.232 0.328 1.916 0.492 0.566 -0.148 -0.557 -1.979 -1.487 -0.064 -0.496 0.056 -1.311 -0.204 -0.270 0.301 0.274 0.408 -0.125 1.303 0.841 -1.287 -0.854 -1.205 1.068 0.568 -0.572 -0.882 0.454 0.079 -0.896 1.118 0.396 -0.563 -0.585 0.453 -0.886 -0.288 -0.535 -0.183 1.054 2.264 -0.346 -0.194 0.093 0.449 1.195 0.030 0.441 -0.705 -0.402 -1.220 1.393 -0.338 -0.608 0.336 0.625 -1.234 1.366 -0.075 0.638 -2.136 -0.369 0.589
-0.210 0.019 -0.629 1.317 0.864 -2.499 0.988 -0.749 -0.804 -0.617 1.430 1.263 0.058 0.521 -0.567 -1.509 -0.134 -0.859 -0.438 -0.839 0.222 -0.523 -0.737 -0.851 1.020 0.407 0.222 -0.835 -0.661 0.654 -0.125 -0.273 0.241 0.197 -0.134 1.920 1.396 0.283 -0.341 -0.767 0.196 1.648 0.767 2.121 -0.316 0.650 -1.724 -0.775 0.210 -2.096 0.910 -1.382 -1.948 -0.008 0.413 -0.273 -0.046 -0.942 -0.281 0.481 -0.242 0.794 0.303 -2.236 1.353 0.107 0.073 0.924 -1.960 -0.273 1.084 -1.113 1.288 0.028 -0.902 -1.648 0.265 -0.132 -0.675 0.256 1.407 0.443 1.757 0.550 1.629 0.516 0.037 0.779 -1.237 -1.142 0.222 0.569 -0.853 -2.231 1.220 -0.374 -1.204 -0.269 0.917 0.553
1.437 0.227 -1.319 -0.463 0.487 -0.035 0.138 -0.159 0.755 0.192 -0.185 -0.469 -0.158 0.445 -0.584 -0.054 0.511 0.738 -0.393 1.139 1.127 -0.618 -1.019 -0.516 -0.034 -1.072 -0.836 -0.714 -0.371 0.550 0.848 -0.152 0.465 0.732 1.482 -0.765 -1.508 -0.397 -0.123 -0.072 0.353 -1.153 0.797 -1.071 -0.433 1.340 0.955 -1.019 -1.276 -0.170 -0.305 -1.583 -0.579 -0.607 0.350 -0.645 0.372 0.110 0.712 -0.204 0.166 -0.371 -0.068 1.234 -0.044 0.936 0.959 -0.236 0.268 -2.594 -0.447 0.971 0.499 -1.018 -1.048 1.510 -1.386 0.817 -0.650 -1.060 -0.559 0.692 0.636 1.159 0.497 -1.466 -1.184 -0.333 -0.614 -0.379 -0.370 0.722 -0.045 0.474 0.113 -1.019 0.098 -0.306 -1.460 1.179
-1.448 -0.213 2.019 -0.487 -0.461 -1.295 -1.142 0.007 1.146 -0.488 0.900 2.404 0.899 0.522 0.377 -0.309 0.904 0.571 1.013 -0.365 0.164 -0.459 0.911 -0.274 -1.258 -0.127 -0.862 0.335 -0.695 -0.558 -0.128 0.933 -0.120 0.702 -0.634 0.908 -0.196 0.622 0.660 0.811 1.665 0.583 0.643 1.131 0.981 0.201 -0.008 1.259 -0.167 0.542 1.522 -0.738 -0.734 0.292 1.770 -0.264 -0.129 -0.392 -0.727 0.380 -1.601 0.925 0.461 -3.114 -2.053 1.473 -0.183 -1.864 1.450 -0.497 1.231 -0.703 -0.242 0.240 -0.472 0.933 -0.385 -0.196 -2.179 -0.464 -0.708 0.287 0.633 -0.613 1.106 -0.942 0.458 0.988 1.120 -0.926 0.857 -1.345 0.025 -0.365 -0.461 -2.023 0.993 0.583 -0.244 0.054
0.753 -0.095 0.607 -0.098 -0.301 1.689 0.852 0.170 -0.954 0.553 0.488 -0.215 1.941 -0.046 -0.331 -1.382 0.607 -2.164 -0.888 -0.061 -0.711 -0.229 0.965 -0.434 -2.509 1.029 0.963 -0.465 -2.015 1.385 -2.713 -0.042 0.811 0.435 -0.758 0.606 -0.870 -0.238 0.354 1.688 1.341 -1.425 -0.163 1.572 0.367 -0.686 0.033 -0.178 -0.880 1.263 -0.592 -0.972 -0.092 -0.024 1.356 -1.301 -1.082 -0.095 -0.176 -0.720 0.118 0.897 1.504 -1.390 -0.364 0.318 2.265 0.159 0.355 0.292 -1.683 0.229 -0.971 0.197 0.604 -0.032 0.555 0.659 0.401 0.710 0.261 1.035 -2.211 0.641 -0.722 -0.874 0.801 0.931 0.427 1.073 -2.193 -1.787 -1.760 -1.033 -0.125 -2.377 2.927 0.544 0.260 1.534
0.141 0.698 0.678 0.422 -1.263 -0.558 -0.783 0.052 -1.972 0.777 -0.551 -2.757 -0.050 -0.824 -1.224 -1.646 1.452 -0.260 -1.022 -0.318 1.086 -0.590 0.956 -0.109 -0.598 1.876 -0.952 -1.264 -0.414 -2.160 -0.983 -1.307 1.699 -0.646 -0.300 -1.319 -0.651 1.518 -0.400 1.628 1.267 1.106 -0.331 0.642 0.179 0.100 0.599 1.097 0.229 0.047 2.713 -0.393 1.551 2.099 0.180 0.241 0.756 1.141 -1.368 -0.341 -0.941 -0.122 -0.857 1.234 2.364 1.970 -0.165 1.610 -0.243 -0.315 -0.026 -1.191 1.307 -2.889 1.047 -0.841 1.886 -0.042 0.785 1.331 -1.342 -1.351 -0.425 -0.219 -0.868 -0.950 -1.071 -1.342 -0.868 1.434 0.777 -0.446 -0.503 -0.682 0.643 0.529 2.076 -1.634 -0.311 -0.024
0.175 -0.141 -0.686 2.065 -0.792 -0.633 0.308 -1.199 0.209 -0.101 1.847 0.477 1.240 -0.456 1.325 1.587 1.745 0.144 -1.553 -1.419 0.246 0.182 0.051 0.112 -0.104 -0.689 -0.597 1.833 -0.750 -0.744 1.578 1.282 1.847 0.641 0.202 0.815 -2.063 -1.816 -0.948 1.609 0.561 -0.241 -0.582 0.799 -1.468 0.331 -0.388 -1.759 0.616 -0.516 -1.095 -0.900 0.598 0.534 -0.100 -0.702 0.064 0.986 0.115 1.973 0.187 0.876 -0.845 -2.335 -2.083 -1.089 -1.064 0.534 0.754 -0.405 2.514 0.890 0.174 0.566 -0.130 -0.042 -0.157 -2.129 -0.720 0.371 -0.738 -0.782 0.363 0.681 -1.201 -0.753 -0.784 0.748 1.127 0.842 -1.383 2.076 -1.345 0.120 0.990 0.209 -1.017 1.054 3.498 -0.378
-0.047 0.101 -1.858 0.333 -0.956 -0.980 -0.231 0.017 1.125 -0.292 0.208 0.478 -0.757 -0.362 -0.570 1.464 1.839 -1.879 1.824 0.216 -1.621 1.867 0.355 -1.117 0.959 -0.412 -1.534 -0.664 0.562 0.147 1.696 -0.260 0.774 -1.831 0.465 -1.158 -0.271 1.829 0.654 -0.985 -0.810 0.678 -0.054 -0.154 -0.144 -0.284 0.345 -0.549 -1.531 0.639 -0.935 0.741 -1.701 -0.536 -0.049 -0.613 -2.243 -1.442 -0.274 2.035 -1.350 2.332 -0.372 -1.023 -1.393 0.512 -0.687 0.646 0.635 -0.903 0.050 -0.400 -0.269 -0.247 0.393 1.290 -0.400 -0.298 0.736 -0.902 -0.841 0.010 1.206 0.247 -0.217 -0.759 -2.164 0.673 0.435 -0.608 0.340 0.230 0.803 -0.127 0.250 -0.222 1.715 0.277 1.443 -1.946
-0.066 -0.209 -0.261 -0.449 0.063 -2.490 1.057 0.468 1.304 -1.263 -0.107 0.825 0.460 -1.359 0.136 0.053 -0.864 1.171 -0.631 0.036 -0.769 0.118 -0.789 -0.748 0.707 0.173 1.120 0.772 0.726 1.021 -1.847 1.148 0.161 -0.843 -1.155 -0.884 -0.179 0.070 -0.235 0.702 0.495 1.211 0.734 -0.318 0.617 -1.330 0.617 0.947 -0.203 -1.398 -0.063 -1.391 0.338 2.074 1.245 0.349 -0.598 1.356 1.383 -0.617 -0.923 0.996 0.787 0.245 -2.200 -0.550 0.671 -0.832 -0.199 1.269 0.300 1.130 0.613 -0.565 0.105 0.819 0.553 1.057 0.508 -0.992 -0.754 -0.357 1.789 -0.856 0.502 -0.670 0.206 -1.196 -0.487 -0.093 1.058 -0.495 0.616 -1.317 0.661 0.072 -1.148 0.386 0.313 0.121
-0.676 0.219 -0.546 -0.386 0.076 -0.261 0.213 -0.668 0.585 2.029 -0.521 -0.486 0.026 -0.273 0.883 -0.573 0.164 1.824 1.406 -0.551 -0.441 1.018 2.483 -1.046 0.136 0.114 -2.527 -1.627 -1.111 1.716 -0.796 -1.393 2.976 -0.823 -1.036 -0.710 0.348 -0.269 -0.611 0.632 -1.347 -1.192 -1.452 0.333 -0.773 -1.117 -0.417 0.601 -0.198 -0.538 1.745 0.095 0.898 0.486 0.707 0.814 0.093 0.793 -2.162 -0.114 -0.267 1.849 1.312 -0.888 -1.887 0.139 0.021 0.401 1.700 0.977 -0.666 0.040 1.429 0.678 0.402 -0.242 0.703 -1.990 1.787 1.634 0.359 2.374 -0.053 -1.704 -1.142 0.496 0.804 -1.341 0.451 -0.479 0.218 0.281 1.373 -0.643 0.485 -1.483 0.252 0.730 -0.421 -0.950
0.082 0.241 0.577 -0.824 -1.128 0.578 1.643 -0.599 1.252 -0.704 1.079 -1.488 1.236 0.623 1.084 -0.336 -0.391 -1.688 -1.306 -0.943 -1.360 -0.441 -0.550 1.043 0.092 0.531 -1.378 -0.822 -1.249 -0.521 -1.858 -0.986 1.358 -0.586 0.338 0.059 -0.980 -0.097 -0.118 0.928 0.153 -0.306 -0.141 -0.468 -1.401 -0.207 0.688 -0.671 -1.451 0.852 -0.957 -0.879 0.188 -0.374 -0.600 0.132 0.440 0.606 -0.284 0.331 0.259 1.826 0.197 0.332 -0.673 -0.580 0.054 -0.285 0.292 -2.037 -0.414 1.040 1.096 0.766 -0.912 0.454 -0.638 0.440 -1.445 -1.598 0.107 -2.301 0.185 0.625 0.822 -0.883 -0.385 0.121 -1.060 -0.004 0.758 0.052 -0.604 1.182 1.064 -0.812 0.168 -1.262 -0.059 -0.194
0.188 -0.585 -0.229 0.153 0.386 0.643 -1.860 -1.499 2.025 -0.061 -1.437 -0.395 -0.615 0.911 -1.217 -1.548 -0.017 -0.570 0.120 -1.657 -0.443 -1.532 0.385 1.359 -0.421 -0.288 -0.507 -0.645 0.799 -1.829 -0.046 -0.237 1.142 0.291 -0.705 -1.242 -0.360 -1.504 -0.289 0.010 1.516 -0.442 1.725 0.167 -0.807 -1.299 -0.519 0.266 0.747 0.759 1.112 -1.636 0.471 0.834 0.843 0.570 0.208 -0.619 -0.072 -0.850 -0.368 0.514 0.329 -0.622 1.115 1.554 -0.458 -0.612 -1.420 0.415 -1.156 0.624 0.861 -0.424 -1.166 -0.189 -1.519 0.880 -2.011 -0.904 -0.437 -0.572 -0.064 1.350 -0.183 -0.326 -0.261 0.233 0.733 -0.512 -0.051 2.684 -0.238 -0.138 1.037 -0.829 1.173 0.239 -0.607 -0.454
-0.669 0.486 0.764 0.507 0.751 0.532 0.256 0.035 1.708 -0.316 -1.778 0.608 -1.313 -0.632 1.171 0.053 -0.719 -0.592 0.025 0.109 -1.459 -1.559 -0.090 -1.220 -1.473 1.024 -0.062 0.292 -0.012 -0.875 -1.000 0.649 1.653 -0.052 0.238 -2.473 -0.144 0.530 -1.452 -0.360 0.910 1.112 0.309 -1.466 -0.525 -0.466 2.122 0.327 -0.624 -0.216 0.131 0.556 -2.510 2.346 1.243 0.561 0.982 0.393 0.359 -1.005 0.118 1.409 -1.535 -0.842 0.516 0.158 0.806 0.588 0.875 -1.185 -1.218 -0.532 0.605 0.691 2.540 0.902 0.833 1.801 1.510 1.272 0.395 -0.267 1.304 -0.121 0.673 0.918 0.055 2.074 -1.157 -0.725 -0.722 1.159 -1.521 0.650 0.601 -0.514 -1.023 0.634 0.120 1.710
-0.117 -0.698 -0.053 -1.022 -0.381 -0.205 0.352 -1.008 0.326 2.341 3.023 -0.890 -0.706 1.223 0.150 0.418 -2.186 -0.385 0.019 0.198 0.086 0.266 -1.092 -0.376 -1.893 -1.086 -0.686 -0.788 -0.357 -0.141 -0.543 -0.778 0.533 -0.266 0.236 -0.112 0.411 0.354 -1.285 0.617 0.227 -0.543 -1.624 0.335 -0.641 0.511 1.447 2.836 -1.513 -0.548 0.669 0.192 -0.818 -0.427 0.160 1.773 -0.746 -1.442 -1.346 1.566 -0.445 2.347 -1.632 -0.783 -0.762 -0.987 1.030 0.979 0.044 -0.720 2.368 -2.590 -1.983 1.215 0.907 1.711 1.079 -2.141 0.969 0.191 0.169 0.856 -0.187 -0.450 0.337 -1.949 0.801 -1.035 -0.357 -0.316 -1.115 1.371 -0.205 -0.023 0.834 1.112 0.121 0.064 -1.219 -1.400
-0.607 -0.624 1.689 0.603 0.612 -1.313 0.561 -0.871 -0.577 -1.226 -1.103 0.860 -0.132 0.715 3.409 0.233 1.016 -0.187 1.592 1.945 -0.867 -0.601 -0.738 0.670 -0.637 0.364 -0.947 -0.416 -0.205 0.747 -0.563 0.194 1.358 1.028 -0.718 0.773 -0.688 0.501 -0.100 -0.202 0.923 -0.091 1.338 0.432 -1.074 -1.747 -0.450 -0.630 1.101 0.780 -1.049 -0.181 -0.954 0.943 -0.568 0.488 -0.180 0.949 -0.226 -0.216 0.474 0.218 0.653 -0.271 0.292 -0.438 -0.569 -0.445 0.849 0.592 0.443 0.573 -0.354 1.109 -0.574 -0.837 -1.775 -2.289 -1.026 1.114 -0.158 -0.043 -0.173 0.419 0.902 1.723 0.367 -0.037 -1.927 0.125 -0.133 1.088 -0.539 -1.336 -0.274 0.907 0.738 0.565 -0.215 -1.351
-1.370 0.493 -0.141 -2.199 0.713 -1.514 -1.104 0.170 0.206 2.524 0.741 -0.566 1.073 -0.571 2.293 0.239 0.338 1.010 2.024 -0.786 0.072 -0.449 0.678 -0.595 2.126 0.185 1.759 0.762 -0.793 0.876 -0.881 1.440 0.911 -0.175 0.158 0.074 0.314 -0.741 0.805 -0.997 -1.160 -0.134 2.152 0.567 0.387 0.872 -0.357 1.101 -0.918 1.081 -1.150 -1.401 1.198 0.520 0.701 -1.304 -1.518 1.141 0.195 0.500 1.255 -1.189 -0.274 0.855 -0.799 -0.801 1.235 -1.474 -0.131 0.943 -0.077 0.569 0.495 -0.298 1.779 0.622 0.075 0.439 -1.061 1.338 -0.084 0.348 -0.680 -1.676 1.200 -0.680 -1.045 -1.300 1.905 0.093 2.107 -0.295 -0.607 1.116 1.732 -0.438 -1.350 -0.113 -0.200 -0.033
1.306 -0.547 0.476 0.168 -0.265 0.031 0.351 2.137 0.562 -0.106 -0.900 1.242 0.003 -0.305 0.868 1.544 0.714 0.817 -0.830 1.075 -0.616 -2.258 -0.946 0.053 0.265 0.715 -0.442 0.404 -0.766 -0.586 -2.126 0.570 -1.185 2.009 -0.399 -0.202 -0.745 -1.295 0.359 -0.760 -1.048 0.349 -2.607 0.247 1.253 -0.428 0.088 -0.135 -1.226 0.469 -0.992 0.782 1.146 -0.756 -0.855 0.978 2.503 -1.111 -0.947 0.789 -0.665 0.155 -1.934 0.250 0.131 0.816 1.079 -2.993 -0.066 -0.292 -1.076 1.494 0.312 0.901 0.111 -0.958 -1.039 2.438 -1.306 0.575 -0.786 0.386 0.242 0.680 0.880 -0.443 0.958 -1.150 0.067 -0.202 2.863 0.910 0.650 -0.328 -0.564 -0.487 -0.268 1.278 1.086 2.128
-0.014 0.612 1.327 -0.479 0.433 -0.051 -0.178 0.185 -0.549 0.781 -1.965 -1.463 0.683 0.853 0.200 -1.801 1.185 -0.890 -1.292 -1.253 0.040 1.024 -0.993 -0.371 0.782 0.672 0.055 -0.670 -0.686 0.569 0.025 0.935 -2.260 0.125 0.433 -0.456 0.731 0.372 -0.159 -0.024 -1.236 0.720 -0.722 -0.668 -0.971 1.540 0.496 0.485 -0.056 0.422 -0.385 -1.811 -1.131 0.102 -1.300 -0.199 -0.075 -0.381 0.627 -0.979 0.092 0.030 1.157 1.544 -0.745 -0.715 0.677 -0.239 -0.319 0.749 -0.629 0.070 -0.616 -0.309 -0.909 -0.080 -0.292 0.932 -0.809 -0.684 1.690 -0.984 1.096 0.175 0.465 -0.453 -0.640 0.355 -0.183 -0.561 0.049 0.281 0.424 -0.638 1.458 1.039 0.301 -0.922 0.151 0.379
-1.219 0.643 1.393 -1.734 1.377 0.042 1.305 -0.901 0.856 1.314 0.699 -0.630 -1.945 -0.690 -0.463 2.046 -0.324 0.918 -0.718 -0.419 -0.452 0.904 1.331 0.114 0.094 1.243 0.634 -2.772 -0.750 -1.396 -1.756 1.985 0.741 -1.560 -1.557 0.362 -1.052 0.043 -0.041 -0.101 0.183 -1.496 -1.616 0.062 -0.168 0.958 0.818 2.635 1.702 -2.092 -1.588 0.301 -0.735 -1.321 -0.511 -0.431 0.003 -0.323 -0.248 0.434 1.285 2.127 -0.899 0.113 0.412 0.992 0.804 -0.076 0.538 -0.485 -0.208 0.436 0.857 0.740 0.221 0.460 -0.864 -0.002 -0.358 1.041 0.129 -0.083 -0.121 0.191 -0.556 1.023 -1.033 -0.671 1.281 0.382 1.502 0.165 1.070 -1.478 1.000 0.006 3.235 1.180 -0.607 0.371
0.453 -0.073 -0.648 1.983 -0.439 -0.036 -1.338 1.998 -0.796 -0.158 0.654 -0.413 1.237 -0.019 -0.901 -0.882 -0.634 0.144 0.916 0.498 1.173 -0.013 -0.356 -0.451 0.060 -0.308 -0.720 -1.690 0.823 -0.321 0.375 0.483 0.509 0.275 -0.409 1.014 0.713 0.542 -0.194 0.320 -0.639 -0.663 0.537 -0.073 -0.825 2.241 1.493 0.160 -0.412 0.629 0.774 -1.046 -1.552 -0.364 0.654 -1.700 -2.599 -2.066 1.558 0.779 0.947 1.465 -0.262 -0.204 -1.875 0.202 0.881 -0.529 -0.454 -2.080 0.052 -0.399 0.908 1.434 0.903 0.131 -1.224 -0.469 0.291 -0.032 -1.372 -0.675 -0.473 -0.132 -1.832 0.124 -0.634 -1.146 0.198 0.127 2.865 1.658 0.383 0.415 0.676 0.397 -1.874 0.546 -1.934 -0.447
0.059 -0.241 0.136 0.671 -0.480 0.012 -0.643 -0.976 1.574 -0.158 0.488 1.597 -1.026 0.097 0.355 1.245 -0.830 0.454 0.229 -0.537 0.360 -1.156 -1.004 -0.892 0.639 -0.496 -1.826 0.685 -1.087 0.193 -0.265 -0.250 0.800 0.881 -0.128 -1.046 -0.807 1.068 -1.620 -0.479 -0.071 -0.458 0.258 -0.776 0.223 1.264 0.379 0.226 0.607 0.945 0.562 0.798 0.247 -0.515 -0.783 0.774 -0.505 0.512 -0.104 0.711 -0.053 1.384 -2.093 0.750 0.681 -0.002 0.759 -0.006 0.206 2.387 0.526 0.832 0.058 -0.095 1.065 1.194 1.493 -0.147 -1.067 -1.091 1.464 -0.014 -1.759 0.108 -1.082 0.743 0.501 -0.360 -0.713 0.760 0.079 -0.237 1.205 -2.802 0.197 -1.161 -0.014 0.609 -0.233 -1.063
0.668 -0.457 -0.279 -0.638 1.324 0.575 0.227 -0.268 -0.683 -0.330 2.583 -1.809 -1.061 0.219 0.718 0.225 0.690 -1.261 -1.509 -0.377 -1.365 -0.681 -0.223 -1.180 -0.784 0.492 -1.057 0.713 -0.639 -1.021 -0.609 0.253 0.584 -2.133 0.463 0.746 0.297 0.842 0.129 -0.632 -0.833 0.097 1.172 -2.327 -0.101 3.509 0.068 -0.674 0.135 0.062 -1.787 -1.194 1.302 0.381 -0.154 -1.445 1.437 0.449 -1.824 0.553 -0.767 0.823 -0.209 0.379 1.736 -0.246 -0.247 -0.793 1.098 1.686 -1.229 -1.741 2.029 0.164 -0.025 -0.139 0.685 0.871 -0.822 -0.648 -0.898 0.563 0.728 -0.461 1.009 -1.508 -0.777 -0.385 0.418 1.767 -0.678 -1.177 -0.680 0.400 0.190 1.400 0.804 -0.511 -0.983 0.483
0.008 0.869 -0.629 0.053 -1.547 0.970 0.901 0.738 -0.170 -2.846 1.768 0.005 0.859 0.944 -0.270 -0.314 -0.099 -1.347 -0.094 -0.024 0.686 -0.361 0.463 1.612 0.154 -1.602 -0.856 0.066 -0.865 -0.271 0.573 2.066 -1.051 0.706 -0.555 -0.064 0.292 -0.203 -0.129 0.172 -0.582 -0.627 -0.485 -0.517 -0.747 0.078 0.823 1.429 -0.231 1.374 -0.766 0.240 -0.404 0.825 0.115 -0.839 -0.194 0.784 -0.355 0.118 -0.488 -0.449 -0.240 1.786 -0.244 0.284 1.793 -1.022 2.507 0.143 -1.288 -1.344 0.928 0.001 0.137 -1.074 -0.460 -0.162 1.191 0.510 -0.851 -1.373 -0.112 -0.894 0.307 0.579 -0.549 -0.630 0.763 -0.013 -0.122 0.328 2.107 -1.010 -0.900 1.885 -0.585 -0.607 0.655 0.246
0.671 1.420 -0.067 0.385 -0.015 1.217 -0.960 1.355 -0.164 1.062 0.742 -0.666 -0.564 0.015 0.718 0.173 1.519 0.673 0.016 0.429 -0.862 -1.794 0.901 -0.890 1.465 0.455 -0.957 -0.108 -1.054 -1.069 -0.767 0.931 -1.492 -1.327 -1.560 -0.212 -1.226 0.105 1.123 0.175 0.285 0.802 1.432 -0.480 1.009 -0.940 -2.492 -0.603 -1.220 -0.455 -0.211 0.395 0.077 -0.749 -1.009 1.570 -0.297 -0.271 1.517 -0.289 0.828 1.634 0.567 0.217 0.224 -0.872 0.486 -1.244 -2.224 -0.159 -0.786 -0.420 0.532 1.100 -2.176 -1.451 0.900 1.480 0.612 1.921 1.090 0.439 -0.741 -0.422 -0.411 -0.328 -0.075 1.205 -0.020 -0.009 -0.595 0.550 0.087 1.408 -0.090 1.169 -0.924 -0.933 0.195 -0.164
-1.308 1.012 0.712 1.562 -0.375 -0.532 -2.120 -0.063 -0.455 0.045 0.813 0.295 0.815 0.107 -1.010 0.756 -0.894 -0.481 -0.421 0.323 0.635 -0.551 3.843 -0.685 -0.243 0.307 1.735 0.591 -1.419 -0.003 0.250 -0.738 0.951 -1.068 0.715 -0.563 0.271 -0.270 0.018 -0.576 -1.112 2.694 0.292 0.286 0.728 1.260 -1.263 -0.026 -0.619 -0.702 0.224 -0.022 0.447 -0.689 1.332 -1.570 -0.494 0.358 0.662 -1.722 -0.994 -1.701 -1.258 -0.157 0.149 -0.041 1.034 0.282 -0.215 -0.293 -1.748 0.096 1.119 -1.461 0.453 -0.114 -0.603 0.171 0.035 1.885 0.909 1.583 -0.844 -1.269 -0.531 -0.799 -0.351 -0.007 1.068 1.038 0.719 1.134 -0.387 -1.091 0.410 -0.815 -1.244 0.334 0.959 -0.854
0.126 0.068 -0.453 -0.271 -0.908 -0.986 -0.010 -0.175 1.428 1.489 1.767 -2.176 -1.064 0.614 0.498 0.443 -0.397 0.191 -1.438 -0.329 2.172 -1.236 -0.255 0.460 0.248 0.541 -0.445 -0.505 -0.749 0.151 -0.879 -1.107 1.653 -0.540 -0.315 -0.686 -0.240 -1.196 0.449 0.042 1.230 -0.144 0.226 -0.920 0.303 -1.854 -0.119 0.692 1.422 -1.158 0.405 -0.923 -0.092 0.332 1.323 -0.248 0.653 0.987 0.355 0.270 -0.253 0.607 0.638 0.839 0.276 0.155 1.208 0.856 -1.547 1.885 -1.190 1.235 0.664 1.501 1.857 -0.397 1.074 0.783 -1.439 0.379 -0.833 0.176 1.611 -0.675 -0.200 -0.686 1.259 -2.397 -0.142 0.875 -0.093 -0.471 0.185 -1.378 1.801 -0.792 -0.601 -0.618 -0.729 0.225
-1.014 -2.023 0.249 -0.647 -0.247 1.179 -1.603 2.765 -0.654 0.539 2.207 -2.181 0.370 -0.901 -0.033 -1.084 1.220 -0.806 1.733 1.419 0.133 -0.781 0.136 -0.295 -0.744 0.605 -1.172 0.618 -0.779 -1.547 -0.511 -1.459 -0.036 -0.559 -0.325 1.071 -1.518 0.234 -0.374 -0.466 0.164 -0.832 0.088 -0.856 0.080 -0.586 0.891 0.880 -0.528 1.918 -0.650 0.291 1.294 -0.260 -0.990 -0.948 -0.296 2.000 0.333 1.047 -0.438 -1.362 -0.900 -1.809 0.404 -0.609 -0.924 -0.855 -1.353 -1.168 0.539 1.326 0.784 -0.181 0.031 0.184 -0.269 0.714 1.646 -0.913 -0.808 0.102 0.335 -0.654 -0.957 -1.078 -0.087 -0.116 0.155 -0.988 0.421 -0.044 0.516 -0.137 0.861 -0.361 0.769 1.694 -1.413 -0.691
0.953 -1.442 0.489 -0.872 -0.926 -0.081 0.103 -0.320 -0.445 -0.606 -0.484 -0.319 1.076 0.298 -1.051 0.229 -1.767 -0.540 -1.287 0.397 -0.597 -1.583 -1.135 0.577 2.266 1.551 -1.251 -0.063 -0.016 -1.459 -0.071 -1.799 0.972 -1.287 -0.107 0.603 1.071 -1.197 -1.965 1.306 -2.255 -0.630 0.878 -0.541 -1.478 0.528 2.136 -1.602 -1.342 0.495 -0.197 -0.443 -0.053 -0.074 0.016 -1.370 0.432 -0.368 -0.546 0.465 0.350 0.208 0.140 -1.327 2.137 0.438 -1.906 0.746 -0.008 0.711 0.416 0.200 -0.046 0.052 0.098 0.705 0.252 1.741 0.518 1.380 0.110 -1.258 -2.245 -0.742 1.559 -0.287 -0.608 0.395 0.289 0.294 -0.869 0.394 -0.440 -0.088 0.226 -1.183 -0.893 0.905 0.327 -1.675
0.223 0.936 -0.051 -2.309 -0.278 2.288 -0.555 0.501 1.420 0.319 0.906 0.958 0.635 0.342 1.099 0.590 0.172 -0.544 0.161 -0.229 -0.439 -0.240 -0.522 -0.267 1.393 1.383 -0.683 0.438 -0.450 -0.797 1.143 -0.491 -2.298 -0.647 -1.043 1.178 -1.158 0.370 0.184 0.802 0.013 -1.144 -1.326 0.188 -0.356 -0.939 0.365 -2.039 -1.554 0.778 1.424 1.028 0.063 -1.054 1.365 -0.848 1.094 -0.252 0.114 -0.547 0.032 1.533 0.036 -1.193 0.707 -0.793 -0.325 -0.420 -0.559 1.548 -1.424 1.303 -1.399 1.507 -0.319 1.392 1.221 -0.167 1.267 1.052 -1.157 0.625 1.876 0.533 -0.450 -0.866 0.373 0.872 1.588 1.007 0.303 2.158 0.092 -0.942 0.132 1.620 -0.339 -0.139 0.879 0.636
-0.706 0.686 -0.915 -0.242 -1.212 -1.449 -1.497 -1.027 -0.589 -0.087 -0.760 -0.520 -0.728 1.362 -0.701 0.178 0.043 -0.092 -0.013 0.571 -1.043 1.115 0.306 -0.273 1.198 -1.442 0.015 -0.019 -0.015 -1.263 -1.582 0.504 0.064 0.042 -1.769 1.227 -0.337 -0.870 0.283 1.319 -0.568 -1.157 1.542 -2.314 -2.443 -1.330 0.973 0.792 0.359 -0.049 -0.777 0.944 -3.042 -0.448 -0.752 -0.009 -0.397 -1.706 0.052 1.235 -0.416 0.978 0.814 -2.407 0.367 -0.839 0.034 -0.566 1.193 -0.312 -0.830 0.121 -0.865 -1.183 -1.540 0.220 0.607 0.496 0.327 0.121 -0.727 -1.633 -0.239 -2.219 -1.976 -1.599 -0.265 0.116 0.002 -0.780 -0.587 -1.976 -0.568 0.490 1.082 -0.224 0.005 -0.156 -2.279 0.391
0.933 0.772 0.613 -1.151 2.223 0.757 0.936 -0.307 -1.403 -0.458 -0.572 -0.253 0.721 0.407 0.989 0.880 -0.608 0.093 0.005 0.613 -0.860 0.982 0.380 0.602 -0.560 0.204 0.593 0.262 -0.063 -0.299 -0.689 -0.619 0.206 -0.045 -0.803 0.274 1.234 1.007 0.690 -1.102 -0.928 -0.524 -0.573 -2.787 0.651 -0.373 0.386 0.625 -0.029 1.105 -2.234 1.559 2.078 0.792 -0.423 -1.084 -0.200 -0.172 -0.224 -0.264 -1.044 0.122 0.920 -0.212 0.493 -1.646 -0.297 0.452 0.380 -1.222 -1.354 -1.223 -0.145 0.000 0.224 0.126 -0.874 0.923 0.727 -0.355 1.765 -0.025 -0.224 0.174 -4.015 0.414 -0.144 -0.562 -1.350 1.487 -0.507 1.133 -0.306 1.025 1.388 -0.020 1.010 0.816 0.060 1.202
-1.159 -0.033 -1.344 -0.947 1.505 1.203 1.760 -0.914 2.189 1.318 1.497 -1.848 -0.392 -2.687 0.885 0.522 0.245 0.792 -1.998 0.233 0.022 3.103 1.339 -0.239 -0.249 -0.077 0.115 1.692 1.833 -0.716 1.493 0.141 -1.317 1.280 -0.909 -0.653 0.365 0.486 -0.165 0.459 0.253 0.118 1.072 0.830 -0.405 0.617 0.630 0.129 0.146 0.178 -1.364 0.619 -0.843 2.066 -0.158 0.042 -0.170 1.762 -0.876 3.067 -1.655 0.403 -0.083 0.679 0.669 0.198 0.336 -0.666 -0.556 -1.612 0.151 0.151 -0.674 0.582 1.974 -0.183 -1.589 -0.078 0.976 -0.217 1.164 0.140 1.876 1.361 -0.695 1.610 -0.448 0.383 -1.194 0.159 -0.410 0.227 0.232 0.575 -0.197 -0.728 -1.767 0.374 1.480 -1.673
-1.402 1.388 -0.012 0.614 0.136 0.392 -1.203 -0.948 -0.716 1.572 1.028 0.139 0.659 -0.851 0.073 0.891 -0.736 0.966 0.820 -0.054 -0.134 -0.434 0.098 -0.839 0.221 -0.893 0.910 0.613 0.240 -1.376 0.671 -0.524 0.926 -1.853 0.233 0.870 -1.340 -1.454 1.109 0.279 1.328 0.875 -0.248 1.310 1.890 0.107 0.575 1.209 -1.322 0.616 -1.048 -0.534 1.581 0.503 1.787 1.632 -0.525 0.602 0.117 1.598 -1.505 -0.723 -0.280 0.351 -0.629 -1.537 2.663 1.411 1.630 1.425 -0.894 -1.102 0.047 -0.491 -0.540 -1.321 1.803 1.194 -0.642 0.530 -1.741 -1.562 -1.230 -0.844 -0.005 -0.415 -0.523 -0.981 -0.385 -1.995 -0.316 0.433 0.758 0.164 -1.859 0.541 -0.886 0.689 0.955 -0.167
0.340 0.432 -1.459 1.514 -0.911 1.116 0.506 1.169 -1.354 -0.194 -0.698 -0.765 0.984 -0.320 0.102 0.909 -0.696 -2.056 -0.631 -0.824 -0.571 0.815 -0.256 2.690 -0.611 -0.772 0.737 0.968 0.533 0.700 0.674 0.533 -0.120 -0.610 1.317 0.190 -0.118 -0.282 1.164 0.411 -1.375 0.256 -0.223 1.133 0.726 -0.872 1.713 0.939 1.687 0.373 0.586 0.917 -2.550 0.330 1.314 1.143 1.043 2.449 -1.953 0.884 -0.198 -2.173 0.972 0.574 -0.528 1.685 -2.135 -1.592 -0.115 -1.697 0.914 1.322 -1.140 -0.166 0.843 -0.955 2.576 -0.060 -0.906 0.141 -0.844 -0.154 0.624 0.629 -0.615 0.198 -1.290 -0.013 -0.100 -0.181 -0.295 -0.069 0.796 0.867 1.504 1.935 -1.243 -1.169 0.476 -0.571
-1.567 0.620 -0.387 0.115 -1.046 0.420 0.393 -0.146 -0.845 1.602 0.240 -0.507 -2.064 -2.235 0.383 0.116 1.063 1.007 0.133 -0.633 -0.035 0.384 1.771 -1.410 -0.791 -2.089 -0.372 -0.104 0.020 1.614 1.946 0.820 0.880 0.446 1.336 -0.122 -0.520 -1.012 -0.815 -1.200 -1.172 -0.212 0.845 -0.736 -1.084 0.015 0.917 1.237 0.787 -0.998 -0.448 -0.369 -0.557 1.397 0.537 0.224 0.323 0.002 -0.129 -0.481 1.546 -0.472 0.691 1.779 -1.559 1.889 0.018 -0.161 1.817 -0.211 0.534 -0.697 0.887 0.128 1.051 1.007 0.207 -0.329 0.280 -0.646 -0.819 0.851 0.476 0.055 -0.770 0.059 -0.025 -0.210 0.907 -0.669 1.663 -0.586 -1.058 -0.010 1.187 1.394 -0.047 1.110 -0.102 -0.366
-1.027 0.445 0.231 1.846 -0.075 -1.193 0.203 -0.631 0.538 2.057 0.461 -0.627 -0.261 -0.530 0.565 -1.430 0.078 -0.203 -1.555 1.218 -0.837 -0.350 1.533 1.403 -0.567 2.111 0.515 -0.136 0.896 -0.801 -1.024 0.343 0.009 -0.884 0.168 1.213 0.400 1.204 -0.685 -1.210 -0.185 0.870 -0.285 0.650 0.423 -0.837 -0.263 -0.573 -0.457 1.281 0.672 1.232 0.763 0.621 0.411 0.348 -0.070 -2.447 1.824 0.602 2.026 -0.046 -1.927 0.287 -0.533 0.043 0.350 -0.484 -0.234 -0.474 -0.110 1.431 -0.312 -1.007 -0.113 1.428 -0.191 -2.379 -0.720 -0.382 0.568 -1.366 1.702 0.525 0.498 -0.345 1.549 0.753 0.668 -0.435 -0.706 -0.273 -0.094 -0.572 0.297 0.334 -1.313 -1.350 0.905 -0.268
0.814 1.882 0.061 0.086 -0.011 -0.646 0.284 1.100 -1.750 0.684 -1.595 0.201 -1.510 -1.544 -0.222 -0.174 -0.611 0.711 -1.123 -0.065 0.891 0.904 -0.381 -0.059 0.556 -0.680 -0.797 -0.631 0.429 0.564 0.081 1.085 -0.759 0.490 0.731 0.231 -0.922 -0.280 -0.186 0.859 -2.476 -0.271 0.331 1.126 0.631 0.004 0.069 -0.154 0.392 -1.149 2.512 0.484 0.002 1.302 1.028 0.286 -2.303 -0.284 0.720 1.075 1.243 -0.040 -0.559 -0.215 -0.332 -2.220 0.216 -0.615 -0.367 -0.725 0.129 -2.559 0.863 0.948 0.086 0.517 -0.150 0.033 0.279 1.103 -0.494 1.111 0.700 0.685 -0.922 -0.117 -0.079 -0.947 0.082 -0.134 0.783 -0.412 -1.036 0.472 0.081 1.201 0.941 -1.092 -1.576 0.469
0.116 0.847 -2.370 -1.236 -0.176 0.520 -0.392 -1.240 -0.514 1.328 1.184 -0.309 1.133 0.425 0.451 0.636 1.205 -0.525 -1.183 -0.779 0.384 -1.652 -0.153 -1.017 -0.694 -0.382 0.203 -0.358 -0.425 1.348 0.246 -0.112 0.754 -0.543 1.024 1.397 0.038 -1.426 0.611 -0.257 -0.064 1.039 0.729 1.485 0.051 0.137 0.386 0.160 0.694 -1.023 -0.562 0.257 -0.614 -2.191 -1.541 -0.403 0.741 -0.235 -1.220 -1.803 0.113 0.261 0.560 -1.652 -1.741 1.141 0.574 -1.538 -1.503 -0.715 -0.631 -0.715 -2.127 -0.061 -0.318 -0.998 -0.331 -1.185 1.085 -0.611 -0.659 0.528 -2.357 -0.200 -0.933 0.770 0.173 2.066 -0.192 1.722 0.156 -2.289 0.422 -1.298 -1.117 0.814 0.633 -1.640 1.181 -0.517
-0.328 -0.875 0.306 -1.394 -1.761 0.995 -0.291 -0.084 0.045 -1.043 0.396 -0.531 0.316 1.136 -0.073 -0.610 -0.630 0.645 -0.160 -0.025 0.675 -1.294 -1.397 -0.183 0.510 0.441 -0.661 0.427 -1.671 0.188 0.834 -1.568 -0.735 -0.802 1.215 -0.423 1.033 0.420 -0.795 2.360 0.178 0.558 0.243 -0.176 2.386 -0.252 -0.286 0.114 1.285 -0.810 -0.905 0.264 -1.035 -0.321 0.419 0.617 0.324 -0.819 0.901 -0.610 1.834 0.260 -0.349 0.575 -1.030 1.257 -1.226 0.035 0.432 0.652 0.709 -1.052 -0.946 0.649 1.964 1.288 1.240 -0.010 -0.837 0.272 -1.798 -0.607 0.394 -0.741 0.809 0.650 1.293 2.706 0.427 -0.969 0.792 -0.583 -0.959 -1.210 0.026 -2.438 -1.064 -1.206 -1.866 0.231
0.279 -0.477 -2.518 1.280 1.930 0.603 -1.312 -2.541 0.916 -0.993 0.363 -1.190 -0.925 0.185 -1.762 0.543 0.885 -0.326 -1.280 -0.372 0.719 -0.684 -1.307 0.015 0.122 1.084 0.876 0.019 1.475 0.567 -0.804 -1.673 0.201 0.407 0.039 -0.549 0.768 -0.064 -0.597 0.393 0.464 -1.572 -0.039 1.453 -0.403 1.833 -0.507 0.368 -0.121 0.439 -0.140 -0.226 -1.407 -1.089 -0.662 1.991 1.041 0.084 -0.646 -0.417 -0.501 0.598 0.236 1.796 0.415 0.138 0.974 -0.104 -1.289 -0.108 -0.351 0.258 -2.725 -0.133 -0.486 -0.192 0.413 0.582 0.304 1.044 -1.454 -0.675 0.126 0.668 0.393 -0.359 -0.446 0.215 0.690 0.553 1.713 0.508 -0.910 -0.595 -0.470 -0.334 2.187 -0.965 1.274 -0.077
-0.479 1.674 0.138 0.126 -1.384 -0.397 -0.141 -0.788 2.229 1.703 0.974 -0.749 0.734 0.326 1.206 0.001 0.545 -0.182 2.042 -1.631 0.417 1.271 1.059 -0.391 0.127 -0.601 -1.016 -0.700 0.332 -0.125 -2.878 0.140 -0.963 -0.199 1.759 1.401 -1.214 -1.228 0.244 -0.243 0.240 0.984 0.352 0.761 -0.221 0.061 -0.708 1.593 1.356 -0.393 0.413 1.099 -1.637 1.822 0.590 -0.090 0.836 -0.346 -0.359 0.933 0.521 -2.260 -0.631 1.310 -0.608 -0.196 0.921 -0.063 -1.107 -1.117 -0.394 0.772 -2.342 1.118 1.056 -0.100 0.473 0.434 -1.372 -0.820 0.349 0.745 -0.753 0.281 -0.279 -1.474 0.170 0.168 0.127 0.022 0.055 0.276 1.338 -0.093 0.936 0.466 1.779 -0.106 -0.544 0.809
-0.609 -1.066 -0.985 0.062 -0.949 2.322 -0.871 0.326 -0.076 -0.412 1.031 -0.750 -1.767 -0.133 -0.281 -1.440 -0.013 -0.698 1.240 -0.901 -0.027 -0.106 -0.551 -1.025 -0.371 -0.778 0.305 0.347 -0.468 1.137 1.263 1.557 0.157 0.852 1.369 1.492 -0.901 0.458 -0.329 -0.719 -1.021 0.696 -0.441 -1.385 -2.682 -0.686 0.045 0.512 -0.483 -1.374 0.964 -0.650 1.152 -0.412 -1.898 -0.415 0.870 -1.211 0.713 -0.827 0.960 -0.907 -1.197 0.091 -0.921 -1.188 1.518 -0.852 -0.419 -0.507 -0.180 1.057 -0.935 0.453 0.047 -1.638 -0.111 -0.914 0.102 0.525 0.059 2.056 0.695 0.376 -1.280 -2.399 -1.937 0.217 -1.293 0.550 0.425 -1.120 -0.217 -1.439 -0.461 0.480 -0.427 0.347 -0.757 -0.277
0.306 0.976 -1.775 -0.899 -1.322 -0.734 -0.541 -0.142 0.901 -0.137 1.188 -1.586 -0.117 1.558 -2.246 0.167 1.237 0.046 -0.097 -1.058 0.234 0.819 0.648 -0.980 -0.070 -0.750 1.217 -0.150 -0.302 -0.701 0.544 -1.203 -0.016 1.023 0.182 1.433 -0.053 2.131 -0.652 0.951 1.302 -0.354 -0.090 0.155 -1.205 -1.518 2.293 -0.532 0.365 0.147 0.716 -1.465 -2.283 -0.003 -0.194 -1.094 0.078 0.295 -0.745 1.009 1.395 -0.194 0.092 -0.516 -0.554 0.081 -1.065 -0.069 -1.123 0.610 -2.014 -0.895 0.166 -0.354 0.561 1.427 0.705 -0.696 0.547 -0.681 1.673 -0.631 -2.254 -1.196 0.710 -0.318 -0.651 -0.251 1.415 0.184 -0.542 -0.668 0.423 -1.347 -0.253 -0.451 -0.129 -0.779 -0.094 1.117
0.699 -0.435 0.167 0.340 -1.615 -0.195 -2.430 0.770 -0.335 0.861 1.780 -1.259 1.175 0.968 0.791 -0.190 1.555 2.209 -0.195 2.351 0.465 0.280 0.342 -1.193 2.093 0.777 0.932 -0.460 0.247 0.889 -0.177 0.118 0.900 -1.198 -0.246 -0.554 0.896 1.098 0.126 -1.043 2.398 -0.443 -0.302 0.693 -0.510 -0.715 -0.848 0.865 -0.086 0.394 1.991 0.125 0.094 0.578 -1.171 0.163 -0.478 1.762 0.047 -0.272 -0.318 0.185 1.643 1.177 -0.970 0.217 1.023 0.460 -0.426 1.535 0.282 0.885 -0.325 -0.423 0.441 0.353 -0.499 1.293 -0.785 1.175 0.584 -0.732 -0.553 0.249 -0.250 -1.023 -0.210 -0.026 1.235 0.568 -0.815 0.516 -0.940 0.456 -0.232 0.182 0.966 -0.284 0.046 1.417
-1.944 1.549 0.912 -1.294 -1.314 0.832 0.243 1.121 -0.082 0.154 1.874 -0.947 0.828 -0.710 0.122 -0.591 1.354 2.589 1.668 0.797 -0.984 -0.245 -0.991 0.308 0.007 0.238 0.050 0.591 0.141 1.737 2.533 0.329 1.000 -1.058 -0.557 0.261 0.377 0.562 -0.179 -0.593 1.341 -1.150 -1.493 1.382 -0.322 0.319 0.863 -0.219 0.072 -0.534 1.950 -1.082 -1.177 2.252 1.635 0.467 0.843 0.528 -0.593 1.346 -0.609 0.413 1.263 1.487 -0.367 -0.045 -0.506 1.164 0.002 -0.294 -0.990 0.068 -1.136 1.693 -0.692 1.307 1.204 1.739 -2.589 -1.572 0.937 -0.721 1.688 -0.495 -0.326 0.631 -1.194 0.614 -0.142 0.408 -0.843 2.059 2.356 -2.225 -0.763 -0.876 0.058 -0.139 0.769 0.317
0.440 0.492 1.106 -1.284 1.100 -0.355 0.007 -1.766 0.929 0.749 -0.597 -0.142 -0.672 0.029 -1.173 -1.568 -1.089 -1.252 -1.828 0.342 -0.666 -2.510 -1.226 0.106 0.159 0.480 -0.363 -0.527 -0.710 0.161 -0.169 0.270 0.112 -0.009 -0.743 0.191 -2.234 0.743 0.341 0.425 0.008 -2.497 3.038 0.776 -0.402 0.432 0.707 0.173 -0.483 0.200 -1.252 -0.465 -0.097 0.388 0.976 -0.485 -0.187 0.833 -0.701 -0.446 0.076 0.067 0.447 0.524 0.362 0.928 -0.784 0.073 1.544 0.430 0.760 -1.889 -0.073 -0.047 -0.404 1.373 1.727 -0.253 0.038 -0.506 -0.137 -0.354 -1.134 0.444 -1.914 0.725 1.116 -1.068 3.342 0.115 0.848 0.371 1.936 -1.378 -1.437 1.130 0.616 -0.290 -0.511 -0.001
-1.022 -0.076 0.389 0.910 1.028 0.414 0.011 0.907 -1.729 -0.343 0.601 -0.756 -0.226 -1.402 0.621 -1.087 -0.081 0.085 -1.412 -0.414 -0.306 0.228 -0.392 -0.719 -0.150 -1.001 1.982 -0.217 2.032 -1.247 -0.467 -0.411 0.146 -0.966 -0.374 -0.321 -0.820 1.205 -0.022 0.290 0.641 0.807 -1.152 -0.890 -0.593 2.550 -0.056 -0.025 0.131 0.879 1.747 -0.643 -0.057 0.470 0.071 -0.089 -1.611 0.204 -0.710 1.315 0.142 -0.717 -0.782 -1.343 1.750 1.111 0.535 1.293 -0.464 -1.426 0.683 0.707 -0.565 0.218 0.933 1.491 -1.865 0.119 -0.457 2.290 1.891 -0.447 1.040 1.706 2.176 -0.751 0.364 -0.581 0.570 -1.512 -0.501 0.050 -1.465 1.613 0.016 -0.616 -0.419 0.165 1.069 -0.778
-0.118 -1.896 0.078 1.264 0.077 2.630 -0.642 -0.704 1.138 1.731 -0.493 1.165 -0.603 -0.866 -0.567 -0.103 -2.675 -0.181 0.887 1.656 -0.649 -0.243 -1.612 -1.919 0.047 0.698 0.519 0.498 0.830 -1.554 0.536 -0.718 0.662 0.782 0.292 0.769 0.102 0.943 0.247 0.692 -0.708 -0.092 -1.023 -1.965 2.105 0.244 -0.273 0.108 0.673 0.200 -1.673 -0.437 0.686 0.661 0.206 -2.195 1.099 -1.227 -0.311 0.338 0.394 -0.761 0.147 -0.135 -1.249 2.448 -1.431 -0.692 0.196 -1.008 -1.494 0.942 0.982 -1.108 0.498 -0.528 1.131 -0.791 0.449 0.633 -2.096 -1.091 -0.304 -0.323 2.847 -0.111 -1.143 0.529 -0.027 -0.160 1.070 -0.188 1.234 1.357 0.029 2.320 -0.884 0.256 -0.527 -0.749
-0.400 -0.476 -2.152 1.196 -1.431 -0.019 0.703 -0.431 -0.914 -0.181 0.545 -1.330 0.431 -0.939 1.342 -0.723 0.941 -0.630 -0.012 0.754 0.795 -0.168 -1.072 0.652 -1.302 0.541 -0.478 0.033 -0.251 0.162 0.547 -0.279 0.520 -1.621 1.354 -0.344 -1.534 0.510 0.680 -0.723 0.264 -0.593 -0.347 -0.839 -0.264 1.823 -0.383 -0.864 1.173 1.968 0.548 -0.829 -0.034 -0.747 -1.962 0.438 1.127 0.217 0.265 1.599 1.167 1.393 -0.450 -0.990 1.031 -0.779 -0.970 1.103 -0.937 1.179 -0.144 0.081 0.757 -0.338 1.435 1.167 0.158 0.505 -0.556 0.421 0.204 -1.008 0.250 0.684 1.059 -0.948 0.174 1.132 -0.615 -1.059 -0.630 -0.848 -0.200 0.130 -0.655 -0.946 0.209 0.641 -0.476 -1.210
0.345 -0.121 0.457 -0.027 0.604 -0.255 -1.005 -0.968 2.468 1.214 -1.063 -1.384 -0.126 0.348 -0.051 -0.448 -0.740 0.323 0.132 0.289 -0.065 1.145 -2.326 0.640 -0.434 -1.349 -1.702 -2.223 -0.084 -0.036 0.295 0.634 -0.437 0.450 1.130 0.432 0.367 -0.429 1.943 2.150 0.517 -0.013 1.035 -0.458 -0.699 1.167 -0.298 -1.196 0.552 -1.080 0.375 0.110 -0.995 0.265 -1.122 0.312 -1.133 0.581 -0.563 0.659 -0.093 0.303 -0.232 0.137 -2.048 -0.742 0.500 -1.888 0.550 0.975 -0.884 0.366 -0.517 0.345 1.993 0.113 2.389 -1.154 0.082 0.235 0.221 -0.247 1.397 0.013 1.428 1.242 0.376 -0.732 0.975 0.246 0.672 -0.214 0.443 0.604 -0.344 0.014 0.054 0.393 -0.483 -1.918
-1.166 -0.334 -0.021 1.031 -1.600 -1.739 -0.786 0.587 -0.121 -1.266 -0.894 0.609 0.761 -0.473 0.908 2.303 -0.903 0.627 -0.324 1.091 0.538 -0.931 0.142 -0.396 -0.666 0.677 0.832 0.559 0.130 -0.244 0.988 0.780 0.304 -0.803 -1.454 0.377 0.392 -0.027 -0.122 0.228 -0.630 -0.317 0.004 -0.384 0.035 0.718 0.066 0.186 -0.836 -0.273 0.925 0.114 -1.697 0.246 -1.141 0.189 0.435 -0.287 0.381 0.142 0.451 -0.558 -0.153 -1.526 -0.261 -0.052 -1.166 -0.800 -0.441 -0.843 -0.322 1.039 -1.801 0.781 0.766 0.297 0.859 0.198 -0.241 1.266 0.056 2.337 -2.115 0.174 -0.230 1.340 -1.496 -0.516 0.749 -2.457 -0.762 0.288 -0.559 1.450 0.299 0.203 -1.579 -0.303 -0.364 -0.116
-0.835 0.469 -0.209 2.260 0.141 0.602 -0.563 -1.440 1.800 0.904 -0.156 -1.217 1.923 -0.036 -2.109 1.199 -1.861 -0.720 0.584 -1.725 -1.031 -1.800 0.503 -0.347 -1.220 0.933 0.633 -1.129 -1.078 0.448 0.336 0.520 1.773 -0.684 -1.079 -0.420 -0.186 -0.170 -1.758 0.884 -1.150 0.630 0.701 0.964 -0.926 -1.793 -0.528 0.069 -0.040 0.997 -1.233 -0.418 0.165 1.588 -0.046 -0.243 0.578 1.306 -0.635 -1.115 2.616 0.072 -0.095 -1.196 0.673 1.756 -0.899 -0.322 -0.329 -0.907 1.156 -0.453 -1.304 -0.503 0.310 -0.066 -1.301 1.403 -1.470 -1.426 0.140 0.107 -0.114 -0.804 0.452 -0.741 0.519 1.122 -0.622 -0.836 1.055 0.767 0.385 -0.259 -0.726 0.315 0.433 -1.558 0.322 -1.657
-0.867 -0.769 -0.262 -0.611 0.405 0.301 -1.940 -0.482 0.238 -0.689 0.580 -0.865 -0.798 -0.464 -2.314 0.048 0.774 0.119 -0.679 -0.329 0.499 -0.323 -0.313 0.449 -0.956 -0.538 -0.866 -0.078 -2.268 -0.840 -1.223 1.270 0.126 -2.685 -0.331 0.463 -1.334 0.522 1.811 0.277 0.647 1.985 -1.287 0.176 -0.152 0.020 -0.575 -0.371 0.231 -1.314 1.296 -1.610 -0.125 1.223 -0.312 -0.175 -0.093 -0.950 0.165 -0.330 0.483 -0.188 -0.826 1.321 -0.412 -0.315 -0.518 0.459 1.141 -0.377 -1.401 0.604 0.578 0.256 -0.758 -1.343 -1.256 0.097 -2.463 1.209 -1.049 0.033 0.354 0.531 -0.469 -0.440 -0.395 -0.085 1.311 -0.025 0.682 0.052 0.131 0.425 -0.863 -0.222 2.371 0.833 0.339 -0.491
-1.300 0.741 -1.122 -1.119 -1.023 1.255 0.256 -0.954 -1.523 -0.243 1.022 -0.607 -1.759 0.224 0.292 0.724 -0.480 -1.963 0.084 0.287 1.572 -1.276 -0.025 0.332 0.987 -0.526 0.399 -0.692 -0.593 -0.379 -0.604 -0.127 0.825 1.106 1.267 1.340 -1.691 2.875 0.159 0.604 -0.356 -0.138 1.053 1.106 -2.010 -0.502 0.895 -0.064 -0.758 1.080 -1.308 -0.179 -1.316 -2.005 0.662 1.055 -2.107 -0.078 1.089 -0.210 -1.102 0.603 0.803 -0.575 0.234 0.574 -0.877 -0.161 0.326 -0.363 -1.109 0.705 -1.586 1.734 -0.913 -0.780 1.936 -0.340 -0.708 0.310 -1.263 0.447 -1.317 -1.732 -1.129 -0.656 -1.503 1.080 -0.217 -0.016 0.044 0.931 0.272 -0.983 -0.909 0.195 0.900 -0.077 0.355 -0.568
-0.545 0.421 -0.892 0.339 1.675 -0.791 0.500 -1.813 -0.135 0.634 -0.481 0.355 0.425 1.268 -0.813 1.497 -1.328 -0.498 -1.366 0.211 0.413 0.004 0.053 -0.241 0.588 -0.381 -0.395 -0.545 0.463 1.770 -0.747 0.743 0.305 0.254 -0.420 -0.709 1.079 -0.278 -0.343 -1.434 0.775 0.242 -1.016 0.422 0.320 -0.720 0.531 -1.113 0.681 -0.941 0.652 -0.558 0.134 -0.632 0.092 -1.052 0.788 -0.108 0.206 -0.530 -0.333 0.369 0.414 0.099 0.946 -0.749 -1.621 0.970 -2.370 0.528 -0.038 0.715 0.826 0.689 -0.254 0.999 -1.010 -0.724 -0.761 0.181 -0.775 -0.205 0.074 -0.961 1.763 1.333 -0.579 -0.558 0.208 1.826 -1.407 -1.968 -1.131 1.573 -0.489 -0.418 -1.609 0.308 -0.025 -0.684
0.566 0.497 0.902 1.775 0.361 1.148 -1.087 -0.306 0.402 0.854 0.543 -1.287 -1.201 -0.195 -0.405 1.704 0.137 -1.664 0.472 0.504 -0.981 0.046 -1.510 1.388 -0.972 -0.824 0.570 0.141 0.190 0.485 -0.702 1.173 -1.131 0.781 -1.396 0.301 1.811 0.510 -0.370 -0.133 0.541 0.519 -0.299 1.182 0.967 0.682 0.978 -1.109 -1.115 0.937 -0.204 -1.785 0.937 1.237 -0.264 0.860 -1.206 0.347 0.900 0.083 0.728 -0.023 1.767 0.343 -1.908 -0.613 -0.739 0.748 -1.368 -2.373 -1.323 1.054 -0.736 0.567 0.127 1.120 -0.818 1.670 -0.446 -0.118 0.439 0.758 2.960 -0.222 0.312 -0.060 0.164 1.237 -1.009 0.014 1.066 -1.052 -0.083 -0.233 -0.623 -0.515 0.295 -1.474 1.350 0.586
-1.465 -0.609 0.107 0.146 1.857 1.156 1.188 -0.161 0.137 -0.902 0.232 1.230 -1.449 0.633 -0.388 -0.818 -0.224 -1.204 0.456 0.358 0.576 -0.196 -1.966 -0.842 0.688 0.119 -0.874 0.039 -1.040 1.207 1.310 -0.748 -1.183 0.456 -1.007 0.729 -0.138 1.021 -0.016 0.671 0.217 -0.788 -2.275 -0.164 -0.182 -1.167 1.052 1.357 -1.954 -0.740 -0.135 -0.610 0.144 0.539 -0.654 -0.714 2.044 0.583 0.648 -0.333 -0.132 1.334 -0.727 -1.937 0.459 -0.340 -1.768 0.333 0.778 -0.078 -0.237 0.252 -0.143 0.143 0.061 0.188 0.245 1.784 0.485 -0.117 2.162 2.023 -0.232 1.045 -0.215 -0.824 -0.829 -1.289 -1.254 -0.109 -0.393 0.194 -1.050 0.657 0.044 -0.081 -0.176 2.535 -0.041 0.061
0.342 -0.279 -1.121 1.083 -0.586 -1.319 0.298 -0.001 1.309 0.320 0.284 0.355 -0.388 -0.848 -1.491 0.805 0.434 -1.564 -0.844 0.355 1.147 1.035 0.663 1.287 -0.237 0.383 0.403 1.420 1.322 -1.776 0.053 -0.506 -1.129 -1.678 1.124 0.006 0.544 -1.266 -0.995 -0.832 0.326 1.498 1.144 0.265 -0.626 1.038 1.642 0.638 0.015 0.859 -0.103 -1.026 0.295 -0.026 1.375 0.441 0.128 -0.428 -0.111 -1.308 -0.250 -0.970 -0.104 0.124 -2.168 -0.372 1.461 0.966 0.531 -0.435 1.864 2.189 -0.019 0.460 -0.377 0.681 0.080 -1.263 1.805 0.354 0.235 0.088 -1.449 -1.978 2.279 2.846 -0.002 2.364 0.432 -0.022 0.760 1.089 -0.807 0.320 -0.257 0.838 -1.190 -0.996 0.536 -0.735
-0.831 0.869 -1.015 0.467 -1.761 0.014 0.624 -2.570 1.173 0.281 -0.262 0.623 -1.043 -0.618 0.004 -1.465 0.393 -1.576 0.442 0.645 0.551 -0.084 -0.784 0.062 0.423 0.734 1.308 0.443 -0.611 0.609 0.972 0.264 -2.041 0.583 1.622 0.899 -1.052 -0.044 -0.046 1.189 -1.359 0.637 -1.887 -1.057 -0.123 -0.525 0.505 -1.311 0.532 1.380 -1.027 0.187 -0.496 -0.347 -0.098 0.345 -0.183 -0.494 1.847 0.509 -0.534 -0.505 0.569 1.031 -1.420 0.296 0.081 0.759 1.195 -0.801 -0.942 0.336 1.176 0.315 1.584 0.638 0.843 -1.745 -0.065 -0.416 0.090 0.033 0.922 1.488 0.655 -1.417 1.030 1.443 0.076 -0.849 0.879 1.516 2.281 0.155 -1.964 -0.792 -0.164 -0.364 -0.763 -1.036
-2.040 0.650 -0.479 -0.012 1.300 -0.223 0.504 -0.690 0.159 0.160 0.617 -0.278 0.808 0.078 -0.093 1.558 1.646 0.672 -1.802 -1.551 0.501 -1.024 1.108 1.334 0.337 -0.290 0.520 0.909 -0.933 -0.888 0.067 0.346 -0.227 0.096 -0.743 0.072 -0.762 -0.416 -0.043 -1.211 1.253 -0.082 -0.165 -0.500 0.653 -0.976 1.155 -1.525 0.139 1.636 0.456 0.247 -0.384 -0.414 1.106 -0.423 0.021 -0.499 1.305 0.699 0.719 -1.136 0.390 1.169 0.258 -1.248 1.215 -0.435 -0.379 0.023 1.228 -0.183 0.659 1.219 0.438 0.785 1.054 -1.833 -0.788 0.581 -1.232 0.513 -0.960 -0.528 1.275 0.786 0.127 -0.928 1.080 -0.258 0.879 0.627 0.321 0.221 0.128 0.532 -1.895 -0.351 -0.588 -0.037
-0.582 -0.620 -0.833 0.199 1.514 0.372 -0.313 -0.397 -0.946 -0.380 -1.429 -0.230 -0.454 -0.345 -0.305 1.461 0.531 -0.192 0.287 1.049 -0.113 -0.591 0.265 0.628 -0.187 0.193 1.479 -0.530 0.596 -1.720 0.257 0.036 -0.510 -0.324 -0.587 -1.213 -0.222 1.291 -0.775 0.914 -0.368 0.078 0.299 -0.075 -0.427 0.574 0.303 0.811 0.520 0.893 -0.301 1.352 -0.972 -0.323 -1.160 0.085 0.551 0.028 0.429 -0.790 -1.690 -0.278 2.755 1.771 1.633 1.209 -0.104 -1.520 1.157 -1.415 0.333 0.670 -0.267 0.818 1.331 1.056 -0.582 -1.355 1.007 0.916 -0.376 -1.482 0.211 0.875 -0.902 0.232 1.863 0.892 -0.223 -1.130 0.335 0.731 -0.732 -0.806 -0.952 0.357 2.457 -0.483 1.309 -0.395
-1.061 2.263 0.069 -1.242 -0.867 -0.467 -0.412 0.011 -0.228 0.362 -0.147 -0.516 -0.926 -0.485 0.240 0.590 0.619 0.326 -0.403 -1.461 -0.737 -1.383 -0.479 0.477 -0.520 -1.450 1.658 -1.333 -0.281 0.574 -0.154 -0.909 0.476 -1.240 1.164 0.410 0.310 -0.266 -1.143 -1.164 -0.336 -0.627 -0.779 -2.446 -0.067 0.608 -0.465 -1.986 0.778 -0.348 -1.268 1.477 0.718 -0.866 -0.484 -1.579 -0.728 0.594 -0.254 0.907 -0.212 -1.164 0.557 0.922 -1.239 -1.335 0.463 1.766 -0.485 -0.432 0.238 0.695 -0.468 -2.026 1.016 0.393 1.584 -1.085 -1.121 0.040 -0.871 0.542 -0.197 2.869 1.395 -0.473 0.752 -1.240 -0.166 0.496 1.949 0.386 -0.326 -2.620 0.177 -0.815 1.542 0.762 0.270 -0.950
0.470 1.056 -0.101 -2.040 -0.774 0.281 -1.299 1.830 0.178 0.409 -0.722 -0.148 0.600 0.804 1.706 -0.748 -0.792 0.056 -0.532 0.276 -0.172 0.173 -0.529 0.420 -2.037 0.743 0.780 0.003 0.190 -1.161 -1.637 -0.926 0.453 -0.499 0.203 -0.654 -0.127 0.715 0.452 0.842 0.044 0.629 -0.061 0.411 -1.260 0.974 -0.451 -0.630 -1.583 0.508 1.350 -1.673 -1.072 1.106 0.385 1.487 1.640 -0.062 0.309 0.407 0.824 -1.318 -0.110 -0.538 -0.266 -0.011 0.452 0.311 -0.057 0.793 2.681 0.572 1.136 -0.249 0.571 -0.641 -0.982 2.039 -0.990 -0.110 0.258 0.153 -1.386 0.017 1.212 2.440 -0.588 -0.045 -0.176 -0.260 -0.956 -0.892 -0.240 -1.241 -0.499 0.015 1.677 -0.975 0.144 -0.115
1.709 0.261 -0.404 -0.652 -0.859 -0.958 -2.565 -0.633 0.472 -1.189 0.982 -0.986 -1.597 0.488 -1.209 0.459 -0.950 0.515 0.517 -1.209 0.676 -1.431 -0.972 0.087 -0.781 0.501 -1.218 0.697 -1.046 1.562 0.181 -0.792 0.313 -0.028 0.100 -0.810 0.775 0.680 -0.308 -1.236 -1.508 0.727 0.041 -1.092 0.329 1.449 -0.099 -0.089 -0.276 -1.408 0.144 -1.401 0.653 0.446 -0.511 0.146 -0.061 -0.283 0.382 -0.400 -0.586 -2.236 0.106 -0.463 0.373 -1.199 0.825 0.531 1.239 0.127 -1.836 1.516 1.518 -0.413 -0.183 -0.219 1.009 1.378 0.758 -0.964 -1.149 -0.972 0.756 -0.941 -0.142 1.005 0.118 0.579 -0.397 -0.835 -0.670 0.718 -0.905 -0.061 0.291 -0.953 0.120 -0.250 0.669 0.934
0.391 0.311 -1.321 0.300 1.275 -0.737 0.065 0.100 0.027 1.500 -1.262 0.343 0.541 -0.018 0.426 -0.362 -0.204 -0.183 0.686 -1.549 -0.556 -0.064 -0.671 0.647 -1.020 -1.085 1.188 -3.107 0.527 -1.322 -0.045 1.175 -1.373 0.586 -1.022 0.653 0.053 -0.573 -0.549 0.181 -1.289 -0.474 -0.409 1.531 -0.194 -0.127 0.492 2.613 1.664 -0.626 0.351 0.495 -0.967 -1.018 1.602 -1.404 -0.236 0.813 0.474 0.255 -0.145 -0.131 0.739 -1.066 1.211 -0.786 0.635 -0.270 0.235 0.950 -0.936 2.015 0.639 -0.984 -0.038 -0.241 -0.212 1.941 0.989 0.379 1.154 -1.884 -0.731 0.554 -0.266 -0.428 0.863 -0.882 -0.266 -1.324 -0.170 -1.260 0.312 -0.428 -0.157 -0.742 -1.558 0.795 -0.868 -0.230
0.483 0.684 0.531 0.408 2.075 0.062 0.119 3.182 0.743 -0.356 0.325 1.170 -0.819 -0.363 -0.666 1.308 -1.161 -1.079 -0.895 0.774 -0.414 0.359 -1.892 -0.331 0.169 0.304 1.836 -0.637 1.150 -0.358 -0.133 -0.993 0.196 -1.184 1.643 0.790 -0.947 0.027 2.291 0.166 -0.376 -0.985 -1.704 0.480 1.325 0.416 0.323 -1.023 -0.811 -0.044 -0.792 0.039 1.008 0.357 -0.965 -0.335 1.698 -1.751 0.438 -1.099 0.542 0.489 -1.178 0.414 -0.691 -0.550 2.192 1.295 0.106 -1.340 0.078 1.342 -0.393 0.255 -0.380 -0.121 1.691 -1.248 0.069 -1.361 -0.804 0.242 -1.886 1.302 -1.283 -0.075 -0.030 -0.525 -0.564 1.358 0.316 -0.082 -0.787 0.688 0.161 -1.626 -1.620 0.042 -0.799 0.732
-1.755 0.573 1.761 0.079 1.623 -0.444 1.270 -0.198 -1.085 0.537 1.377 0.736 -1.225 0.261 -0.064 -0.697 -1.717 -0.372 0.666 -0.562 0.492 -0.267 -0.358 -1.507 0.171 1.299 -1.254 0.103 -1.365 -1.090 0.239 -1.333 1.146 1.217 -0.929 0.367 1.062 -0.973 -0.814 1.000 0.448 2.188 -0.931 -1.432 -1.014 0.108 0.380 0.522 0.586 0.859 -0.682 -1.699 -0.742 -1.012 1.273 0.377 0.665 -0.077 -0.745 0.064 1.239 -0.065 -1.253 -1.947 -0.678 -0.976 1.873 -0.245 -0.621 -1.461 0.966 -0.784 -0.443 -0.322 -0.891 -0.318 -2.381 1.386 -1.347 -0.902 -1.246 1.213 -1.711 0.082 0.852 -0.442 0.501 -0.749 0.885 -0.933 0.198 -1.013 1.269 -0.465 -0.647 1.011 -0.557 -0.037 -0.055 1.592
-0.743 -1.626 1.729 -0.731 -0.263 0.719 0.931 -2.268 0.429 -0.997 0.487 0.442 1.243 -0.549 -1.259 0.498 -0.622 0.583 -0.472 -1.057 0.993 -0.527 -0.995 -0.670 1.071 -1.125 -1.107 -0.583 -0.038 -0.315 0.004 -0.092 -0.189 -1.927 -0.320 -0.089 -0.138 0.635 -1.177 0.274 -0.009 -1.203 1.717 -1.361 0.504 -0.917 -0.608 -0.414 1.125 0.373 -0.508 -0.263 1.245 1.110 -1.913 2.066 -0.553 -0.210 0.206 1.324 1.850 -0.248 0.128 -0.603 0.152 -0.830 -0.970 -0.932 -0.230 -2.100 -0.169 -0.170 -1.017 0.322 0.289 -0.006 1.453 0.919 -1.154 0.182 -0.685 0.763 -1.218 0.398 0.900 0.454 -1.574 -0.770 1.655 0.575 0.403 -3.821 -0.880 -0.537 -0.166 -1.164 -0.533 0.102 0.014 0.397
-0.314 -0.152 -0.487 -0.376 -1.137 1.816 1.132 1.096 -0.690 -0.345 0.023 -0.393 -0.620 -2.252 0.837 0.820 0.686 -0.831 0.422 -1.128 -0.305 -0.067 -1.835 -2.116 -0.543 1.095 -1.009 0.476 0.282 -0.840 0.126 -0.848 -2.635 -0.155 1.611 0.938 -0.506 2.113 -1.617 -0.667 -0.549 0.529 0.657 -3.077 -2.201 1.761 -0.388 -0.061 0.082 0.311 0.374 0.961 -1.041 -1.864 1.272 -0.384 1.690 0.445 0.652 1.187 0.180 -0.799 -0.799 0.184 1.689 -1.320 -1.642 -0.778 1.033 1.630 1.253 -0.474 -0.525 -0.062 0.319 -1.107 -1.941 0.512 -0.617 1.918 -1.038 1.798 0.403 0.622 0.573 1.097 -1.310 -0.616 1.454 0.368 0.302 -1.712 -0.920 0.359 -0.849 0.998 -1.215 0.366 -0.130 -0.004
-1.269 -1.227 0.952 -0.884 1.002 -0.636 1.121 1.524 1.762 0.068 -1.380 1.545 -0.096 -0.437 -0.454 0.229 0.365 -1.742 -0.382 1.693 0.967 -1.867 0.976 0.383 0.131 -0.237 0.924 -0.872 -0.369 0.663 -0.311 -0.354 1.243 -0.113 -1.627 -0.054 -0.846 0.419 -0.216 -0.240 1.169 1.789 -0.167 -0.030 0.361 -2.765 0.964 -0.801 -0.510 1.077 -1.773 -0.386 0.116 0.418 0.471 -0.053 -1.463 3.171 -1.467 0.037 0.145 -1.746 -1.494 0.704 -1.811 1.787 -1.408 -0.374 1.099 0.349 0.432 0.373 -1.130 -0.159 0.429 -0.283 -0.019 1.668 0.235 0.303 -1.054 -0.997 -1.834 -0.621 0.646 0.501 0.450 2.047 1.317 -0.041 -0.657 0.326 0.601 -0.716 -0.018 -2.609 0.449 -0.528 -0.251 0.168
-2.186 -0.096 0.569 -0.432 -1.238 0.647 0.764 2.424 0.146 -1.731 -0.046 2.491 0.784 -2.409 -0.941 0.281 0.685 -1.282 -1.087 -1.240 0.621 0.599 -1.721 -0.278 -0.499 -0.934 -0.006 0.217 -0.292 -0.126 0.594 1.658 -0.616 -0.740 0.297 1.287 0.059 0.469 -1.942 0.058 -0.672 -0.353 -0.352 -0.882 -0.804 0.184 0.258 -0.113 0.220 1.631 1.324 1.687 -1.172 -0.350 0.485 -0.216 0.359 -0.089 0.837 1.324 -2.854 -0.233 -1.555 1.606 0.010 -0.261 0.089 -0.667 -1.163 -0.284 0.432 -0.304 1.239 -0.004 -0.284 0.452 -0.842 -0.307 -0.502 -0.527 0.524 -2.436 -0.054 1.186 -1.210 -0.624 0.552 1.912 0.071 1.048 0.090 -0.034 -0.042 -0.101 -0.281 0.346 0.109 0.882 0.905 -0.519
0.836 0.171 -0.508 -0.855 -2.683 -0.251 -1.536 -0.517 0.452 0.870 -1.012 -0.141 -1.711 -1.471 -0.394 0.754 0.832 -0.602 0.400 -1.693 -0.388 -0.413 -1.030 -0.880 0.171 2.002 0.244 1.199 -0.966 -0.269 -1.666 0.705 0.220 -0.269 1.353 -1.361 -1.393 1.158 -1.482 0.652 -0.315 0.541 -0.364 0.786 -0.772 -0.293 -0.042 -1.136 0.968 0.266 1.151 -0.609 0.181 0.125 0.454 0.721 -0.157 1.428 1.416 -0.901 -0.271 0.046 0.240 0.052 1.309 0.689 -0.309 -1.317 1.275 -1.007 0.213 -0.335 0.489 -0.478 -0.022 -1.853 0.415 -1.679 0.092 -0.363 0.255 1.323 -0.712 0.325 0.137 0.527 -1.074 -0.699 0.247 0.347 -0.405 1.426 1.106 -0.741 -0.149 0.584 -0.939 1.014 0.623 -2.415
-0.638 -0.227 0.041 -0.665 0.452 -0.465 -0.045 -0.139 0.970 -0.634 1.240 -0.025 -0.227 1.187 -0.221 1.361 -0.113 -0.821 -0.377 0.337 -1.175 -0.344 -0.380 -0.374 -1.884 -1.538 1.245 0.436 -0.235 0.086 0.424 0.187 -0.393 -0.344 1.180 0.423 0.878 1.206 0.648 0.422 -0.512 0.708 2.032 -0.879 1.471 -0.875 -0.056 -0.910 -0.597 -1.528 -0.815 1.958 1.996 -0.165 1.684 -0.305 -0.231 0.857 0.461 -0.161 -1.632 -1.838 -0.062 0.870 -1.252 -0.779 1.740 -0.246 0.421 0.077 -0.513 0.234 0.697 -0.389 -0.413 -0.401 -1.796 -0.280 -0.352 0.488 -0.442 -0.728 -0.809 2.029 0.622 -1.432 -1.838 -0.830 -1.911 0.699 -0.048 0.749 -0.892 0.335 0.819 0.676 0.951 -2.721 -0.776 0.792
0.160 -0.255 -1.938 0.976 -0.537 -0.896 -0.635 -1.772 0.807 -1.133 0.172 0.550 0.086 -0.513 2.692 -0.157 0.485 -0.776 -1.402 -0.214 -0.075 -0.881 0.497 -0.418 -0.752 1.164 0.536 0.166 1.056 -0.670 1.164 -2.207 -0.795 0.697 -0.407 0.619 -0.883 -0.980 -0.167 1.328 0.525 -0.168 0.623 0.903 -0.920 -0.968 1.423 -0.637 -0.508 0.724 -0.377 -0.251 -1.649 -1.512 -1.303 0.015 -0.918 -0.934 -0.013 0.623 -0.439 -2.014 -0.785 -0.551 -0.458 0.325 0.058 -1.377 0.272 -0.271 -0.060 1.510 0.460 2.018 -0.591 -0.252 0.196 2.144 -0.193 -0.403 0.665 0.161 0.118 -2.811 0.556 1.584 0.095 -0.121 -1.727 0.612 1.152 1.117 -0.143 0.254 -1.174 -1.912 -0.578 -0.176 2.085 1.106
