Time: 30/03/2021 02:31:44
Batch size: 100
Epoch num: 10
Iteration per epoch: 120
Final loss: 2.30106
Train error rate: 0.86658
Test error rate: 0.87587


Initial weight:
# w1_0
-0.124 -1.228 0.972 -0.323 1.643 1.292 1.277 -0.013 1.318 -1.015 0.390 -1.140 0.277 -0.165 1.394 -1.806 -0.444 0.337 -1.938 1.989 -0.767 -0.235 -0.868 0.365 0.315 -1.395 -0.476 1.157 -2.327 0.749 0.126 -0.710 -1.335 -0.025 -0.263 -0.233 -0.852 -2.556 -1.901 0.493 -2.169 0.520 -1.858 2.722 -1.691 0.445 0.018 0.306 -0.455 -0.434 2.076 -1.751 -0.514 0.202 0.469 1.134 1.178 -0.484 -0.163 0.065 -0.561 0.171 0.518 -0.392 -1.373 0.906 0.367 1.047 -0.471 -0.865 0.169 -1.409 -1.161 -0.575 1.365 0.264 -0.185 0.258 -0.371 1.518 -0.126 -2.317 1.115 0.526 0.778 0.431 1.112 0.186 -0.961 0.210 -1.315 0.135 0.154 -0.244 -1.628 -0.476 -0.644 0.416 -0.335 -0.470
-0.058 -0.112 -1.401 1.190 -0.119 -0.483 0.641 -0.859 -0.113 2.760 0.382 -0.489 1.325 0.204 -0.063 0.958 -0.254 -1.021 -0.826 0.045 -1.613 -0.401 1.123 -0.664 -0.661 0.541 -0.591 -0.711 0.128 -0.396 2.337 -1.619 -0.272 2.652 -0.887 0.217 -0.132 1.057 -0.903 -0.975 0.008 1.242 1.680 -0.460 0.839 -0.246 0.037 -0.308 1.261 -0.520 1.747 -1.196 1.153 1.439 1.376 -0.881 0.108 2.283 1.431 -0.044 -0.154 1.324 -0.610 1.351 -0.360 -0.591 -1.120 -1.167 -0.336 1.019 1.178 1.630 0.671 1.778 -0.766 0.602 -1.644 1.083 1.179 -0.591 -0.370 -0.837 -1.206 -0.281 -0.743 0.259 -0.900 0.234 2.218 -1.102 0.920 -0.230 1.305 0.031 1.275 -1.232 -1.207 -0.495 -1.393 -0.207
0.647 1.135 -0.021 0.392 1.741 0.707 0.334 -1.728 -1.020 0.424 -0.510 0.216 -0.280 0.745 0.683 0.340 -1.184 -0.378 -1.164 0.812 0.527 0.812 0.153 1.049 0.595 0.888 1.323 -0.969 0.142 -0.517 -0.541 -0.849 -1.308 -0.605 -0.392 -1.893 -0.985 1.717 0.160 -0.078 1.354 -1.263 -0.402 -0.301 1.091 1.726 0.025 -1.977 -0.230 1.264 0.733 0.266 -0.033 -0.676 1.826 0.092 -0.258 -1.988 -0.183 0.483 -0.170 -0.246 0.537 0.900 -0.123 -0.284 -0.243 0.779 -0.963 1.433 1.630 0.567 0.450 0.349 0.775 0.310 -1.380 0.821 -0.974 0.545 0.378 -0.458 -0.323 -0.209 1.277 1.909 -0.887 0.121 0.592 -0.562 -0.724 0.077 0.214 -0.244 -0.920 -1.089 0.449 0.997 1.467 -0.445
-0.043 -0.153 0.853 1.109 0.880 1.022 0.462 1.059 0.574 2.814 0.678 -1.026 -1.264 -0.661 -0.421 1.959 0.642 -0.676 -0.530 -0.014 -2.583 -0.258 -0.654 -0.664 -2.563 -0.095 -0.428 0.209 0.669 1.257 0.035 -0.376 0.465 1.449 -1.412 1.078 2.178 -1.669 -0.034 0.178 0.708 1.466 -1.284 1.435 -1.549 1.204 -0.119 -0.552 -1.274 -0.243 -0.723 -1.791 -1.611 -0.141 -0.915 0.248 -0.934 -0.696 -1.395 -0.699 0.387 0.383 2.026 -1.033 -0.332 0.079 0.298 0.174 1.180 -0.608 0.184 2.122 0.444 1.102 -0.448 0.967 -0.969 -0.706 -2.969 1.876 1.013 1.868 -1.736 0.387 0.463 1.148 0.463 1.104 -0.975 -0.428 0.959 0.909 1.900 0.065 -0.729 -0.753 -0.086 -0.106 -0.602 -0.115
0.459 -0.161 0.391 0.887 0.399 0.869 1.350 -0.733 -0.441 -0.069 -0.082 0.167 -0.692 0.344 0.189 -0.117 0.203 -0.204 -0.964 1.539 -1.652 0.851 -0.227 -0.582 0.013 0.088 0.686 0.079 -0.036 -1.726 0.549 0.676 0.865 1.366 -0.537 -1.168 -0.484 0.419 0.846 1.220 -0.561 -0.391 0.082 0.094 -0.411 0.468 -0.419 -0.132 0.776 0.023 1.156 -0.480 0.006 -1.033 -1.529 -0.608 -0.279 -0.125 -1.037 -1.330 0.273 0.931 -0.890 -0.718 0.660 -1.599 1.948 1.451 0.707 1.471 0.631 0.412 0.070 0.043 1.100 -0.681 0.754 -1.122 -0.521 0.175 0.016 -0.012 -1.105 1.015 -0.836 0.381 -1.968 0.678 0.313 0.115 -0.400 -0.092 -2.076 1.563 -1.905 0.361 -1.305 0.492 0.277 1.584
0.469 0.296 0.166 1.022 2.225 1.520 1.439 0.157 -0.281 1.974 0.771 -0.710 -0.751 1.065 1.182 0.751 -0.339 0.473 -0.358 0.920 -1.201 -1.717 0.088 0.353 0.592 -0.343 1.315 -0.493 0.040 1.155 -1.306 1.216 -0.312 0.908 0.364 0.775 -0.802 -0.856 -0.502 0.743 -0.596 -0.110 0.181 0.038 0.164 0.007 1.010 -0.458 -0.264 2.023 -0.247 -1.607 -1.136 -0.498 -0.458 1.015 -0.080 0.688 -1.020 1.557 0.460 0.432 0.933 -0.545 -2.523 -0.180 1.560 0.619 0.120 1.690 -0.459 1.427 -1.043 0.850 -0.232 1.353 0.179 -0.152 0.037 -0.793 0.368 -0.711 -0.160 -1.775 0.035 0.004 -0.683 -0.342 -0.062 0.543 -1.310 0.363 0.536 -0.025 -0.482 0.125 -0.048 0.217 0.308 0.291
-0.443 0.882 0.365 -0.021 0.408 1.230 -0.318 0.374 -0.598 0.536 0.399 -1.573 -0.140 0.659 -0.369 0.601 -0.877 0.890 1.261 0.209 0.070 -1.852 -0.466 -0.688 -0.625 0.190 0.517 -1.494 0.942 -0.940 1.253 0.686 -0.722 -0.395 0.974 -0.914 1.215 0.358 -0.236 0.805 -0.167 0.471 -0.955 1.190 1.087 -0.433 -0.653 1.257 -0.401 2.675 0.490 0.442 1.645 0.250 -0.189 0.241 0.643 0.505 -0.448 0.006 -1.430 -0.071 1.473 -0.111 0.906 -1.370 0.099 -0.435 -0.096 1.538 -1.450 0.108 0.925 1.216 -0.556 -1.001 -0.329 -1.207 1.133 -0.127 1.827 -0.629 -0.061 0.906 0.142 1.745 1.159 0.026 3.434 -0.257 -0.452 0.032 0.628 1.474 1.105 -0.485 0.487 -0.981 1.720 -0.195
0.870 1.126 -0.930 -1.130 -0.566 -3.316 -0.611 -0.722 0.778 -1.731 0.638 -0.153 -0.526 -1.269 0.875 -1.432 -0.206 1.482 0.793 -1.400 0.057 -0.617 -1.368 -0.421 2.278 -0.367 -0.701 -0.800 -0.939 1.045 0.848 -0.085 -0.216 -1.827 -0.384 1.648 0.469 -1.991 -0.596 -1.629 0.830 -0.671 -0.395 -0.600 -0.847 1.497 0.390 0.080 0.324 -0.380 -0.125 -0.055 0.254 -0.038 -1.682 0.080 -1.316 1.306 -0.447 0.418 -0.823 0.435 -0.072 0.002 -1.851 1.607 -0.979 -1.528 -0.447 0.022 0.561 0.085 1.481 -2.040 -0.823 -1.504 -0.009 -0.853 -0.425 -0.372 0.246 1.043 -2.029 -0.147 -0.754 0.778 -0.095 -0.299 0.486 0.227 -0.816 -1.656 0.527 1.354 0.462 -0.132 0.928 -0.193 -1.498 -0.838
0.402 -0.975 -0.776 -1.267 -0.331 -0.058 1.374 -0.734 0.795 -0.614 1.169 0.706 2.164 0.184 0.299 1.751 -0.849 0.454 -0.120 -0.845 0.536 -0.470 -0.234 0.560 0.717 -0.084 1.767 -0.271 0.952 0.365 0.810 -1.268 0.959 -1.340 -0.700 0.462 1.817 0.584 0.941 -0.271 -0.387 1.354 -0.359 0.702 2.411 0.087 0.100 -0.040 1.995 0.443 -1.088 0.477 -0.293 0.336 -0.173 -0.343 0.987 0.708 -0.535 -2.476 -0.828 -0.533 0.084 -0.957 0.093 0.776 -1.522 -1.512 -0.283 0.829 -1.242 1.261 1.443 0.064 -0.139 -1.479 -1.348 -2.358 0.547 0.744 -0.663 -1.015 -0.155 -0.867 1.707 0.028 -0.001 0.541 -0.998 -2.864 -1.614 0.473 -0.744 -0.956 -0.202 -0.648 0.225 0.272 -0.920 0.206
1.050 -1.666 0.736 -1.074 1.690 -1.846 -0.195 -1.899 -1.014 -0.233 -0.462 1.432 -0.275 0.194 -0.641 2.054 1.335 -0.492 -0.612 0.970 -1.549 0.220 -0.255 1.159 -0.628 0.104 -0.039 0.764 -0.350 0.916 -0.601 -0.417 -0.357 -0.943 -1.878 0.575 1.048 -0.859 1.161 0.406 0.614 -0.041 1.060 -0.619 0.815 -0.215 -1.749 0.171 -1.524 -0.186 0.104 0.595 1.133 0.570 -0.242 -0.002 -0.644 -1.205 -2.290 -0.397 0.076 -1.278 1.488 -0.550 -0.878 -0.049 0.669 1.951 -0.453 1.204 -0.983 -0.583 0.053 -1.372 -0.460 0.872 -0.030 1.958 -0.244 0.067 0.001 0.652 -1.602 -0.777 -0.318 0.578 0.639 0.292 0.867 0.304 -0.295 1.147 -0.105 -0.710 1.911 0.387 -0.000 -0.855 -0.403 -1.271
-0.619 0.647 -0.975 -0.594 1.457 0.440 1.180 0.009 0.366 -0.666 -0.862 -0.620 -2.533 0.840 -0.509 0.041 -1.932 0.866 -0.362 -0.408 -0.340 0.564 -0.713 -2.411 1.639 0.039 -0.061 -0.457 -0.358 -0.520 -1.505 0.075 -1.084 -0.775 -0.230 -1.145 0.458 -0.153 -0.925 -0.218 0.684 -1.215 -0.543 0.704 0.050 -0.322 -0.428 -0.134 -0.462 1.171 -1.251 0.335 -1.632 1.042 0.893 -0.177 -0.253 -1.061 -0.210 -0.957 0.053 -0.911 0.226 -0.490 -1.277 0.966 0.162 -0.887 -1.127 -0.725 -1.437 0.368 -0.831 0.274 -0.909 0.654 0.677 -1.212 0.322 1.266 1.025 0.296 -1.086 0.362 1.546 1.443 -2.054 1.950 -1.535 0.930 0.587 0.560 0.004 0.364 0.293 -0.761 2.334 0.521 -0.167 1.762
0.047 -1.021 0.128 -1.589 0.966 -0.107 -0.412 0.779 -0.365 -0.100 0.230 1.090 1.004 2.155 1.793 1.171 0.287 0.178 0.717 1.427 0.864 -0.293 0.334 0.318 1.006 -0.066 0.299 -1.228 1.054 0.837 -0.156 0.572 1.288 0.029 -0.942 -0.226 1.232 0.431 -0.792 0.567 -0.127 -0.206 1.167 -1.076 -1.108 0.053 -1.960 -1.057 -1.111 -0.190 -0.059 -1.469 0.137 -1.351 -0.302 0.028 1.753 1.299 0.202 0.560 0.877 0.341 2.373 -0.379 -0.979 0.014 0.626 -0.841 2.037 0.158 -1.561 1.033 -0.529 0.151 1.455 -0.053 -0.722 -1.521 -0.248 0.061 1.007 0.886 0.714 0.141 0.267 0.389 0.128 -1.527 -1.045 0.025 -0.681 0.129 -1.926 -0.547 0.776 0.766 2.431 0.421 0.245 0.642
-1.536 0.580 -0.400 1.375 -1.253 -0.737 0.925 -2.196 0.075 -0.702 -1.657 0.131 1.942 0.782 -0.118 -2.151 -0.741 0.493 -0.661 -1.002 -0.655 0.027 0.295 0.791 -0.287 -0.505 2.259 -0.131 1.480 -1.423 -0.705 -1.275 2.249 -0.636 1.150 0.819 0.726 1.668 0.352 -2.234 1.427 0.654 -1.696 -1.052 2.495 -0.939 0.037 -1.219 0.393 -0.188 1.112 -2.133 -0.280 0.776 -0.332 0.439 2.780 0.840 0.640 0.222 -0.149 -1.065 0.660 0.601 0.046 -0.839 0.368 0.647 -0.202 -1.259 1.381 -0.583 -0.796 -0.263 -0.321 -1.602 2.098 -0.789 0.615 -0.361 0.209 -0.075 0.459 -0.368 -1.897 -2.101 0.734 0.553 -1.498 0.951 1.098 0.772 -1.240 -0.181 -0.849 -0.208 -1.124 -0.617 1.428 0.392
-0.216 0.283 0.366 0.810 -1.758 1.013 -0.824 -0.393 0.255 0.624 -0.636 -1.062 -0.759 -0.015 1.390 0.546 1.376 0.215 1.504 -0.356 -1.183 0.008 1.335 0.123 -1.088 1.698 -0.672 1.394 2.526 -1.292 1.132 -0.338 0.763 1.276 -0.285 0.088 -1.016 -0.726 0.675 -0.452 -0.771 0.576 0.032 0.591 -0.792 -0.675 1.117 0.872 0.843 -0.159 -1.229 0.131 -2.439 -0.770 0.915 -0.627 0.331 -0.695 -0.498 -0.353 0.443 0.298 1.029 -0.765 0.074 1.902 1.442 0.408 -0.575 -0.481 0.419 -0.816 -0.135 -0.532 -1.006 1.480 -0.817 -0.923 1.080 -0.712 -1.888 -0.432 -0.626 0.266 0.718 0.062 0.251 0.764 1.393 0.902 2.051 -0.100 -1.943 -0.826 0.868 0.440 0.113 0.502 2.509 0.414
-2.752 -0.386 0.151 0.640 0.247 0.177 -1.430 1.411 0.260 -0.183 -0.139 -0.643 -1.716 -0.309 -1.167 0.752 -0.188 0.728 1.363 0.244 0.030 -0.855 -0.925 -1.584 1.674 -0.826 0.616 -0.662 0.215 -1.012 -0.314 -1.017 -0.430 -0.240 -0.609 0.318 -0.319 0.295 -0.965 0.816 -0.798 2.079 0.288 -0.878 -1.033 0.054 0.120 -1.692 2.694 0.273 -1.840 -0.728 0.355 -0.635 -0.563 -0.624 -1.407 0.238 -1.050 0.899 -1.085 0.339 -2.260 1.188 -0.656 1.350 1.188 -1.874 0.031 1.883 0.457 0.770 -0.538 0.793 -1.325 -1.030 -0.086 0.440 0.079 0.584 0.408 0.168 0.377 1.223 0.428 0.418 -0.706 -1.991 -1.252 1.834 -0.482 2.274 1.576 -0.758 1.652 0.121 -0.216 -1.059 2.658 -0.914
-1.060 1.107 -1.791 -0.421 -0.592 2.117 0.342 0.608 -0.256 -0.264 -1.309 0.810 1.306 0.419 1.598 0.349 0.596 -0.039 1.793 1.066 0.427 -0.885 -0.655 -1.463 0.389 0.012 0.008 -1.071 1.389 1.057 2.261 1.823 0.307 0.637 -0.870 0.351 0.421 -1.432 1.119 -0.428 0.745 1.208 -1.005 0.207 -1.486 0.034 -1.139 0.519 -1.021 -0.483 -0.514 1.665 0.346 0.451 0.584 1.737 -0.122 1.030 -0.905 -0.309 0.885 0.079 1.291 -1.765 0.324 -0.319 1.906 -0.956 -0.320 -0.193 -0.231 -0.703 -0.662 0.462 -0.522 -2.146 1.335 0.476 -1.066 -0.421 -0.423 0.125 -0.783 0.648 -2.636 0.105 0.858 0.995 -1.042 1.047 -0.018 -0.955 0.007 -0.995 0.066 -0.677 0.573 -0.881 0.419 -1.425
0.644 0.658 -1.637 -0.942 0.038 0.047 0.672 -0.085 -1.122 -0.065 -0.286 -0.104 0.494 -0.200 0.021 -0.412 -0.774 1.384 0.534 3.428 -0.395 -1.090 0.851 0.143 -0.406 0.410 -0.206 -0.463 -0.104 -1.051 0.432 0.873 2.743 0.597 2.032 0.401 0.775 0.412 0.154 0.212 -0.649 0.421 0.934 -1.899 -1.110 0.262 -0.750 -0.984 0.296 -0.772 0.350 -0.210 1.127 0.008 -0.910 -0.979 -1.867 0.757 0.076 0.866 0.388 0.138 -0.795 -0.928 1.528 0.378 0.362 0.073 1.050 -1.417 0.479 -1.113 -1.872 0.362 0.068 -0.820 -1.036 1.651 0.233 0.150 -0.452 0.492 -0.607 0.796 -0.770 0.932 -0.228 0.597 0.461 0.308 0.349 -0.837 -1.397 -0.737 1.949 -1.947 0.098 -0.091 0.327 0.191
0.034 0.823 0.616 1.498 0.469 -1.048 0.957 -1.228 -0.231 0.223 -0.297 1.886 0.616 -1.650 -0.452 -0.491 0.771 1.803 -0.113 1.145 -0.276 0.487 0.703 0.662 0.304 -0.451 0.080 2.052 0.326 0.014 0.329 0.658 -0.364 -1.316 -0.004 -0.301 0.876 -0.677 -2.457 -0.458 -0.091 -0.621 0.274 0.286 0.569 0.320 0.227 0.641 0.904 -1.067 0.205 -2.042 0.832 2.700 -1.169 0.608 -0.177 0.868 -1.018 -0.200 0.773 -0.517 0.696 -0.334 -1.535 -0.801 -0.743 -1.618 0.542 -0.477 -1.568 -1.327 1.533 -0.035 0.148 -0.168 1.042 -0.607 -0.903 -0.112 0.249 -1.094 0.442 -1.035 2.652 1.035 -0.083 0.555 1.521 -0.895 -0.019 -0.124 0.544 1.704 -1.228 -0.986 1.570 -1.535 -1.741 -0.083
-0.334 0.626 -0.198 -1.318 1.923 -0.395 0.683 -0.727 -0.591 1.019 -1.200 0.105 0.181 -0.276 0.654 -1.185 0.875 -0.047 0.305 0.934 -1.173 0.216 -0.837 0.371 0.113 0.587 2.160 1.232 -0.300 1.462 -0.454 -0.007 -0.122 -0.450 1.372 0.138 -0.035 1.194 -1.639 -0.070 -0.388 -0.100 -0.244 -1.253 0.158 0.540 0.812 -1.353 -1.811 0.029 -0.134 0.884 0.168 -0.063 1.063 -0.368 0.410 -0.268 1.870 -0.221 1.052 -0.224 0.115 -1.443 0.225 0.040 0.327 0.272 1.569 0.374 2.424 0.323 -1.445 0.193 -0.654 -0.756 -0.408 0.202 0.000 -0.179 -0.195 -1.871 0.411 0.616 -2.432 -1.921 1.993 -0.040 -0.378 -1.453 -1.073 0.186 -0.785 -1.233 0.518 -0.834 -1.344 0.344 0.450 -0.188
-2.069 -0.208 -0.469 0.483 1.419 -0.379 2.561 1.069 -0.173 -0.431 0.772 0.762 0.366 0.613 -0.670 0.816 1.515 1.557 1.774 0.446 0.827 1.344 0.146 0.379 -1.983 -0.580 -0.450 -0.719 0.824 -0.757 0.201 0.628 -0.654 -1.374 0.727 -0.849 -0.784 -0.415 -0.664 -0.005 -0.604 1.053 -0.637 -0.005 -0.944 -0.715 -0.082 0.948 -0.921 -0.280 -1.755 1.839 0.626 -0.431 -0.574 -0.162 2.003 1.789 1.589 -0.013 -0.490 1.148 0.432 0.181 -0.150 1.753 2.310 -1.538 1.280 -0.143 -0.858 1.515 -0.437 0.267 -0.714 -1.135 -0.688 0.724 -1.804 1.387 0.206 1.848 -0.865 -0.529 -0.288 -0.282 0.350 0.373 -0.375 -0.362 1.243 1.058 -0.511 0.696 -0.028 0.351 -0.023 -0.164 0.122 -0.465
-0.154 -1.251 1.847 -1.161 1.283 0.731 -0.030 0.179 1.080 0.381 -0.568 -1.483 -1.279 2.366 0.355 1.358 0.145 -0.153 1.593 -1.558 -0.297 0.396 1.847 0.155 0.458 0.361 0.693 0.541 0.123 0.103 -1.637 -0.203 -0.987 -0.271 -0.313 -0.175 0.896 -1.130 -0.476 -0.515 -0.069 0.131 -0.984 -0.551 -1.122 1.024 -0.883 1.876 0.820 0.078 1.735 -0.066 0.836 -1.364 0.544 -0.441 -1.423 1.550 0.079 -1.442 0.431 -0.502 -1.257 0.051 -0.088 0.290 0.401 -0.484 -0.082 -0.783 0.630 0.044 0.127 -0.620 2.815 -0.389 -1.838 1.003 1.251 0.545 -0.727 0.739 0.772 -0.178 1.873 1.094 -0.134 -0.271 1.356 0.373 -2.100 -0.854 1.242 -0.478 -0.700 -3.484 -1.153 1.511 -0.315 -0.700
0.279 -0.306 0.112 0.296 2.025 -1.153 -0.552 -0.196 1.214 0.056 -0.165 0.400 -0.956 -1.017 -0.772 1.064 0.236 0.246 -0.135 -1.005 -1.585 -0.428 1.192 -0.859 0.772 0.299 -0.739 0.480 -0.531 0.780 -0.756 0.137 -0.924 -0.240 0.114 -1.606 -0.092 0.970 -0.640 0.417 -0.535 -0.688 -1.114 -0.004 -0.671 -1.639 -1.195 -1.745 -0.785 -0.375 -0.700 0.699 1.090 -1.199 1.048 -0.378 -1.085 -1.559 0.086 0.230 0.278 1.243 0.991 -0.287 -0.310 -0.585 -0.897 -0.088 -0.838 0.251 0.909 0.484 0.135 0.529 -1.024 1.388 2.530 -0.778 -1.465 -0.942 1.012 0.258 -0.852 -0.258 -0.836 -0.652 2.668 -0.202 -0.610 0.805 -1.302 0.684 -0.508 0.024 -1.948 1.079 1.109 -0.051 0.682 -0.156
0.245 0.085 -0.159 1.425 0.202 -0.524 0.924 -0.279 -1.168 0.511 0.201 -0.834 -0.604 1.011 0.447 -0.785 1.085 1.041 -0.078 1.703 0.829 -0.877 0.543 0.326 -0.440 0.437 0.454 -1.101 -1.845 -0.324 0.743 -2.752 -0.664 0.623 0.656 -0.580 -0.538 -0.578 -2.327 -2.856 0.248 1.723 0.268 0.467 -0.107 -0.491 0.929 -0.356 -0.982 -1.229 -0.765 1.092 -0.966 0.499 1.526 -0.948 0.044 0.070 0.219 0.956 1.444 -0.072 -1.034 0.509 0.798 -0.966 0.656 0.757 -0.894 0.671 0.584 -1.608 -0.199 0.205 -0.312 -1.081 1.259 -0.756 -0.598 1.238 0.060 0.356 -0.301 0.607 -0.613 -1.343 -0.144 0.862 -0.445 -0.125 -0.236 0.528 0.564 -0.376 -0.651 0.194 -1.256 -0.607 -0.422 -1.067
0.269 1.583 -2.493 -0.590 0.189 1.154 0.660 0.540 1.495 1.023 1.822 -1.155 -1.323 1.348 -1.182 1.505 -0.547 1.524 1.243 -1.425 2.049 -2.295 0.165 0.399 1.185 0.577 -0.610 0.155 -1.255 -0.041 0.922 1.071 -0.433 1.498 -0.770 0.269 -0.057 -0.628 0.502 0.348 -1.514 0.011 1.080 2.490 -3.246 0.619 2.752 -1.108 -0.504 -0.001 1.076 1.945 0.776 -1.677 -0.213 0.726 0.745 -1.639 -2.735 -0.960 -0.117 -1.119 0.104 -1.086 -0.115 0.006 -1.312 0.460 -0.660 -0.549 -0.200 -2.551 1.322 -0.561 0.199 0.086 0.747 -1.540 2.426 0.383 0.458 -0.192 -0.980 -2.473 0.355 0.199 -0.379 -0.388 0.562 -0.344 1.967 -1.086 0.159 0.250 0.899 -0.064 -1.457 1.229 -0.923 -0.365
1.824 1.613 -1.668 -0.244 -0.434 -0.218 0.852 0.583 0.600 1.456 -2.001 1.775 -0.240 -1.345 1.812 -1.427 0.264 -0.678 -0.981 -1.604 -1.149 -0.471 1.187 -0.038 1.132 -0.829 0.693 0.466 -1.502 1.528 0.096 0.131 -0.983 -0.090 -0.351 0.563 -2.024 -0.434 0.442 1.469 -1.311 0.505 -0.082 -1.385 2.212 0.638 -0.352 0.205 0.317 -0.878 0.781 0.004 -1.346 -0.676 -0.648 -1.371 0.583 0.587 0.482 0.283 -0.345 1.146 -0.378 -0.697 -0.327 -0.795 -1.381 0.654 -1.702 0.376 0.030 -0.151 -1.678 -0.528 -0.240 -0.965 -1.270 -0.752 -0.204 1.186 0.759 0.874 -1.452 0.754 0.745 1.273 0.782 -0.575 -1.560 1.272 0.932 -0.176 0.717 1.519 -0.572 -0.416 -0.722 0.438 0.737 -1.060
1.147 0.460 -0.332 -0.120 0.545 0.413 -1.291 0.102 1.399 -0.720 -1.268 -0.641 -0.712 0.132 0.109 -0.531 -1.372 -0.169 0.458 -1.438 -0.827 0.806 -1.484 0.973 -0.369 1.128 1.529 -0.862 0.786 1.124 1.582 0.798 0.865 3.312 1.293 -1.926 -0.579 0.282 -0.546 -2.192 0.267 -1.406 -0.125 0.227 1.662 1.211 0.512 1.578 -0.853 -1.310 1.655 -0.045 0.190 -0.938 -0.096 -0.308 0.831 0.221 -0.477 -1.383 0.022 -0.199 -0.559 -0.079 -0.351 0.074 -0.962 1.330 0.408 -0.263 -0.934 -0.898 0.533 1.309 0.324 0.246 -1.348 -0.749 -0.436 0.185 -1.173 0.080 -1.267 -1.642 0.005 -0.914 -0.235 2.863 0.241 0.130 0.748 -0.651 0.713 -1.366 -0.121 1.164 0.363 0.602 2.143 0.165
0.419 0.725 -0.322 0.955 -0.310 0.832 -0.264 -0.858 1.616 -0.615 -1.197 0.656 0.276 -0.960 -1.107 -0.383 0.795 0.093 1.246 0.334 -0.908 -0.445 0.141 -0.941 0.106 0.704 -0.582 0.400 -0.822 -0.030 -0.198 -1.600 -1.518 -0.063 0.692 0.865 -0.369 -1.866 0.755 0.569 -2.319 0.626 -0.156 -1.151 1.512 0.220 -0.204 0.568 -0.405 0.054 0.547 1.838 0.308 -0.901 -1.276 -1.704 0.562 0.190 -1.049 -1.441 0.734 -1.482 0.595 -0.111 0.863 0.174 1.562 -1.688 -0.338 -0.339 0.319 -2.221 1.019 -0.652 -0.080 0.291 -0.334 1.548 -0.593 -0.513 -0.363 1.629 1.133 -1.122 -1.557 1.286 -0.350 -0.377 0.112 0.857 0.915 1.809 -1.122 -1.431 1.154 -0.065 -0.560 0.859 0.193 0.344
-1.635 0.370 0.433 1.237 1.075 1.070 0.877 -0.410 1.327 -0.181 -0.672 0.063 0.242 -0.481 -0.489 -0.689 0.377 0.489 -0.102 0.281 -0.748 -0.528 0.646 -0.449 -0.678 1.091 1.561 -0.646 -0.168 2.061 0.923 0.046 0.318 -1.133 -0.600 -1.558 0.123 -0.474 -1.158 0.544 -1.233 1.010 0.446 1.072 0.701 -0.903 -1.234 -0.398 1.042 0.477 0.447 0.590 0.357 0.555 -0.244 0.969 0.964 -0.325 0.056 -0.804 0.523 -0.176 0.568 2.396 0.479 0.616 -1.144 -1.210 0.197 2.119 0.525 -0.188 -1.073 0.347 0.287 -0.181 0.030 1.432 0.397 -0.565 1.666 -0.295 0.623 0.821 1.101 -1.362 -0.388 -0.115 1.045 0.658 -0.009 2.739 -0.351 1.482 1.453 -1.053 -1.620 -1.769 0.489 -0.489
-0.175 0.591 -1.243 0.539 1.960 0.683 0.745 -0.559 -0.404 -0.832 -1.375 -2.767 0.201 -0.968 1.156 -0.399 -1.816 1.371 1.092 0.435 2.116 -0.758 -0.475 1.975 -1.515 -1.382 -1.733 -1.671 -0.666 -0.678 2.057 0.328 -0.143 -0.983 -1.687 0.909 -1.789 0.375 0.942 -0.009 -0.384 0.953 0.314 -0.137 1.129 -0.301 -0.962 -0.240 0.338 -0.100 0.164 0.807 1.395 -0.946 -1.412 0.437 -0.774 -0.023 -1.148 -1.411 0.326 1.711 -0.486 -1.028 -0.697 1.688 -2.310 -0.775 0.842 0.017 -0.545 -0.401 0.494 1.418 -1.512 0.128 0.031 -1.199 -0.587 0.550 0.047 0.665 0.769 -0.998 0.345 0.353 -0.958 1.721 -0.120 -1.565 -1.232 1.204 0.164 1.632 0.672 -0.247 0.991 -0.242 0.903 0.564
-0.307 0.875 1.246 0.511 -1.848 0.306 -0.143 0.446 0.682 -0.335 0.049 -0.194 0.455 0.443 -2.577 0.852 -1.886 -0.252 -0.133 0.697 1.235 -0.750 -1.048 -1.168 -0.987 -1.561 0.336 -1.656 0.876 -0.181 -1.629 -0.352 0.832 -0.616 0.414 -0.450 -0.447 -0.084 1.572 -0.073 0.936 0.446 0.596 -1.937 1.519 -1.406 0.322 -0.559 -0.591 -0.280 0.945 3.727 -0.747 -1.089 -1.038 0.299 -3.289 0.051 1.253 0.782 -0.823 -1.398 -2.004 0.203 -0.177 -0.427 1.214 -0.668 -0.705 1.684 -1.330 0.546 -1.083 -0.250 1.904 1.428 1.351 -0.910 -3.182 -0.341 0.677 -1.712 1.861 0.202 0.278 -1.493 -1.187 1.793 0.432 0.637 1.257 0.873 0.201 -0.380 0.451 0.658 -1.323 0.933 0.610 -1.864
1.255 0.051 -2.340 -1.004 1.537 1.227 0.273 1.736 0.063 2.145 -0.258 -0.722 -0.142 -1.342 -0.310 -0.586 -0.535 0.413 0.440 -0.741 0.174 -2.037 1.239 -1.583 -0.340 0.552 0.339 0.871 -0.099 -0.163 0.691 -0.418 0.285 -0.034 0.217 0.390 0.924 0.263 -0.753 0.758 -0.387 0.764 1.642 -1.436 0.125 -0.247 0.858 -0.396 -1.084 1.440 0.395 -1.169 -0.948 0.732 0.334 -1.096 -0.474 0.088 -2.084 -1.676 -1.036 -1.181 0.211 0.459 -2.206 -0.270 -0.654 -1.480 -0.550 -0.114 -0.601 1.343 0.106 0.066 0.268 -0.753 1.005 -0.496 -1.947 0.756 -0.502 1.003 -0.335 2.881 0.377 0.067 1.252 -0.936 1.012 -2.086 0.272 2.142 0.529 -0.887 0.161 0.829 -1.687 0.136 -1.135 0.327
-1.489 -1.427 0.716 -0.316 1.158 -0.563 -1.305 1.276 -0.149 2.066 0.686 0.706 0.622 0.898 0.217 -1.488 0.153 -0.958 -0.902 0.808 -1.392 0.096 0.025 -1.423 -0.203 1.488 -0.015 0.509 -0.035 1.604 -1.058 0.737 -1.282 -2.586 -0.223 -1.169 -0.064 -0.371 -0.612 -0.863 -1.089 -0.916 1.293 -1.473 -1.730 -1.149 1.928 -2.353 0.399 0.910 1.145 0.193 -3.240 0.692 -1.342 2.081 0.756 1.388 -0.282 0.457 -2.307 -1.668 0.166 0.740 0.236 -0.520 -1.158 0.170 1.343 -1.588 1.797 0.075 -0.495 0.751 -0.031 0.928 0.107 -0.794 0.167 0.494 0.026 0.266 0.364 -0.230 -1.103 -1.090 -0.944 0.748 -0.513 -2.587 -1.103 -0.496 -0.143 0.886 0.716 -0.915 -0.904 -1.088 0.665 -0.392
1.048 -0.523 -0.244 -0.623 0.795 0.617 -0.896 0.510 -0.403 -0.534 -0.333 -0.393 -1.233 0.803 1.088 0.045 -0.939 -0.078 -0.282 2.040 1.836 -1.243 -0.280 0.635 0.955 0.944 0.541 -1.035 -1.054 -0.852 -0.463 0.574 0.491 -0.182 -0.466 0.490 0.615 -0.093 2.694 1.039 -0.862 0.153 0.398 -0.103 1.714 1.093 -0.126 0.818 0.891 1.059 -0.555 0.146 1.163 0.258 -0.485 0.544 -1.328 -1.688 1.054 -0.624 -0.883 0.767 -0.673 -2.077 0.109 -2.340 -1.755 -0.842 0.467 -1.606 1.471 -2.885 0.461 0.044 -0.945 0.463 -1.698 -0.768 -0.587 0.786 1.264 -0.906 0.574 0.538 0.968 -0.140 -0.340 1.530 -0.159 1.208 -1.651 -0.587 -0.675 0.091 0.206 -1.511 -0.332 0.828 0.604 -0.773
0.353 -1.221 1.462 1.177 0.583 -1.232 -0.511 0.593 -0.003 0.461 0.438 1.444 -1.297 -1.660 -0.531 -0.356 0.524 0.041 -0.833 0.688 -0.825 -0.639 -0.740 -0.398 0.033 -1.781 0.463 -0.255 -0.103 0.538 -0.387 0.848 0.747 -0.384 0.266 0.947 -0.650 0.036 0.997 -0.406 -0.647 -0.708 0.371 1.753 -1.057 0.461 1.577 -0.942 -0.419 0.128 2.562 -1.684 0.059 -0.977 -0.249 0.592 -1.539 0.013 0.013 -1.284 0.205 -0.786 1.174 0.859 0.827 0.690 0.726 0.724 -0.420 -0.367 -0.639 0.524 -2.652 -0.672 1.415 -0.886 0.221 0.103 -0.816 -0.002 -1.254 -1.549 1.335 -0.318 1.047 0.310 -1.292 -0.953 0.896 1.206 0.364 0.050 1.410 -1.797 1.067 -0.494 -0.121 -0.205 -0.560 0.924
1.190 -0.838 0.181 0.397 -0.147 -0.081 0.350 -0.658 0.385 0.308 -0.862 -1.348 -0.362 -0.764 -0.836 -1.223 0.227 -2.207 -1.331 0.530 0.141 2.016 0.944 -0.745 0.827 0.728 -1.613 -1.925 0.332 -1.205 -1.838 0.857 1.607 -0.808 1.986 -1.363 -1.936 -0.268 -1.821 0.218 -0.281 0.947 -0.627 0.554 -0.808 -1.448 0.628 1.191 0.855 -1.366 -0.659 0.762 0.591 0.879 -0.418 -0.713 1.388 0.557 2.255 0.721 1.228 1.073 -1.444 0.321 0.085 -0.553 1.649 0.547 -0.183 -0.802 -0.684 -2.647 0.325 0.064 -0.338 -0.447 -1.544 0.838 0.109 0.729 0.058 -2.049 -0.224 -0.435 -1.681 -0.655 -0.706 -0.237 -0.512 0.396 -0.288 -1.054 0.247 1.977 -0.095 -0.675 -0.466 0.011 0.983 -0.822
0.669 -0.825 -0.229 0.294 -0.557 0.252 1.038 0.294 0.493 1.381 1.211 0.270 0.951 -0.725 -1.999 -0.397 -0.065 0.603 -2.439 2.106 -1.162 0.606 0.450 3.167 -0.415 1.797 -1.050 0.752 0.675 -2.188 0.451 -1.001 -1.764 0.246 -0.002 1.643 -0.847 0.972 -0.323 -0.143 1.582 0.950 0.634 -0.904 1.439 1.578 -1.450 0.282 -1.075 0.504 0.754 -1.710 -1.126 -1.041 0.044 -0.421 -0.181 0.053 0.034 -0.921 0.128 -0.284 -0.911 -0.093 -1.909 1.696 -1.565 -0.504 1.010 0.488 0.075 -1.241 0.140 -0.305 0.887 -0.870 0.393 -0.523 -1.065 -1.111 0.217 -2.040 -1.077 -0.581 0.380 -0.448 1.246 -1.229 0.359 -0.179 1.143 0.781 -0.646 1.053 1.019 -0.334 0.685 -0.383 1.018 -0.885
0.389 -0.428 0.052 -1.347 0.968 -0.118 0.710 -0.200 -1.594 -0.868 -0.389 1.291 1.915 1.164 2.138 -1.403 -1.535 0.530 -2.478 -0.538 -0.349 -0.550 -0.159 0.336 -0.227 1.900 0.600 -0.123 0.872 -0.667 0.109 0.272 -0.203 1.256 -1.657 -1.473 0.231 0.109 0.683 0.555 0.365 -0.570 1.188 -1.247 1.688 -0.057 0.798 -0.183 1.881 -1.776 1.531 0.725 0.589 -0.315 -0.259 0.910 0.913 -0.317 1.039 -0.263 -0.028 0.642 1.152 1.088 -0.920 1.455 0.447 0.537 0.696 0.460 1.417 -1.212 -0.856 0.653 -0.155 -0.502 -0.981 -0.598 -0.056 -1.801 -1.130 -0.447 -0.525 2.331 1.124 -1.137 -0.999 -0.440 0.244 -0.094 -2.569 -1.215 0.249 0.731 -0.087 -0.232 1.149 -0.390 0.745 0.258
2.059 -1.757 0.282 -0.216 -1.253 0.318 -0.661 0.095 -0.555 1.046 -0.651 1.227 0.291 1.030 -0.094 0.061 0.488 -0.212 -1.315 2.262 -0.288 -0.911 -1.388 -0.770 -2.976 -1.498 1.486 -0.443 -0.949 -0.785 0.952 -1.590 -1.597 0.192 -0.902 1.337 -2.376 0.022 1.053 -1.486 -0.169 0.250 0.124 0.562 -0.556 -0.940 1.244 1.274 1.681 -0.271 -0.948 0.503 0.482 1.085 -0.752 0.667 1.165 -0.067 0.685 0.335 0.292 -0.496 -0.960 1.576 0.016 -0.164 0.982 -1.323 1.710 -0.188 -0.293 0.118 -0.418 -0.844 0.522 -1.526 -0.881 0.415 -0.709 1.747 -0.288 1.517 -0.723 -1.312 0.172 -0.850 -1.310 1.493 1.187 -1.424 1.314 -1.150 -1.457 1.487 1.392 -1.098 0.264 0.248 -0.006 -0.370
1.155 0.623 0.890 0.772 -0.900 0.571 0.675 0.688 -0.479 0.957 0.730 -0.252 0.322 -0.042 0.681 -0.294 0.196 0.005 0.611 -1.018 -0.259 1.979 -1.440 0.977 0.002 -1.336 0.242 0.522 1.879 -0.332 -0.594 -0.606 0.112 0.133 0.217 -0.616 1.110 0.491 -0.110 -1.069 0.630 -0.575 -1.733 -1.263 -0.742 -1.417 0.592 1.428 0.942 1.705 0.525 0.484 -0.965 -1.435 2.578 1.654 1.875 -1.988 -0.663 -0.140 -0.224 -1.152 1.878 -1.691 0.007 1.056 0.197 -1.004 0.722 0.025 -0.671 -0.960 -0.764 -0.483 -0.229 1.636 -0.405 -0.266 -1.165 -1.462 -1.137 0.012 -0.189 1.054 -0.133 0.866 0.822 -0.479 -0.826 -0.396 0.259 -0.010 0.650 0.342 0.247 -0.631 -1.462 -0.164 -0.505 0.226
0.785 0.131 2.057 -0.370 -1.060 1.318 -0.070 1.048 -1.065 1.546 -0.080 1.084 0.559 -0.703 -1.519 2.566 0.557 1.241 -1.743 -1.451 1.841 2.607 0.538 -0.083 0.041 -0.385 1.335 -0.021 0.877 0.347 -0.141 1.398 -0.870 -0.614 0.265 -1.157 -0.057 -0.662 -1.166 -0.526 1.158 1.494 1.366 -0.888 0.629 1.606 -1.734 0.462 0.881 -0.145 0.268 0.468 -0.581 0.761 1.252 0.374 -0.459 -0.460 0.320 -1.941 -0.205 -0.867 -1.017 -0.863 -1.303 0.845 0.290 0.086 0.514 -0.238 2.841 -0.107 -0.102 0.012 -1.660 -0.758 0.252 -0.417 -0.596 -0.549 -1.341 0.878 1.164 0.170 -0.111 -0.372 -0.953 -0.550 -0.992 0.232 0.049 0.372 0.090 -0.102 -0.363 -0.574 0.660 0.860 0.756 -0.616
1.196 0.874 0.701 1.118 0.422 0.190 -0.789 0.504 1.021 1.525 -0.465 -1.093 -0.379 1.084 -0.440 -0.423 -0.146 -0.311 0.412 -0.289 -0.716 0.273 0.354 0.879 -0.233 -0.800 0.468 -0.104 0.168 1.253 -1.294 0.103 -0.413 0.882 -0.074 -0.516 -0.533 -0.555 -0.337 0.944 0.129 0.556 -1.253 0.561 -2.627 -0.594 -1.611 0.218 -2.587 0.046 1.169 0.506 0.539 0.466 0.916 -1.448 0.636 1.906 -1.710 -1.624 0.235 0.617 -1.033 0.115 0.603 0.993 -0.512 -0.078 0.654 -1.250 2.360 -0.991 0.903 -0.140 2.241 -1.289 -1.509 -0.446 -0.379 -0.461 -0.235 -0.997 -0.771 0.486 0.327 -1.640 0.767 -1.228 0.215 0.744 0.104 -0.274 -1.269 -1.514 0.647 1.274 -1.160 -0.875 0.425 0.349
-3.453 0.854 1.678 -1.998 -1.340 0.121 -0.469 -0.070 -0.101 -0.014 -0.016 1.204 1.322 -0.328 -1.258 0.669 -0.584 -0.151 0.117 -0.790 -0.548 0.886 -0.638 0.800 -0.904 0.009 1.539 1.306 -1.056 0.968 -0.771 -0.001 1.244 0.890 0.288 1.809 -1.563 0.506 0.567 0.148 -1.027 -0.714 -1.511 -0.295 -0.056 -0.229 1.665 0.158 0.585 -0.099 1.810 -0.374 0.121 -1.217 -0.510 -0.989 0.351 -1.965 2.042 -0.588 1.275 -1.136 0.038 0.504 0.152 0.074 0.064 0.855 0.066 1.652 0.022 0.232 -0.201 -0.944 0.027 -0.563 -1.049 -0.316 -1.705 -0.403 -0.831 -0.448 0.258 -0.935 0.055 1.192 -0.847 -0.985 -2.259 0.436 -1.907 -2.000 -2.458 0.851 0.018 -1.534 -0.135 -1.086 -0.584 -0.069
-1.287 1.629 -0.659 0.499 -0.638 1.049 1.054 2.505 0.788 -1.099 -0.075 -0.064 -0.290 -0.882 1.187 -0.046 0.986 1.223 2.220 0.450 -0.640 -0.623 -0.819 -1.144 -0.096 0.358 0.859 -1.087 1.215 -0.904 0.346 0.421 0.517 0.571 -0.391 1.216 0.916 -1.614 -0.131 -0.882 0.445 0.658 0.446 -0.170 -0.917 0.854 1.148 -0.164 -1.088 1.672 -0.079 0.688 -1.047 0.685 1.317 -1.471 -0.681 -0.808 -0.241 -0.124 0.344 0.403 0.413 1.613 -1.114 -1.182 -0.202 0.241 -0.937 0.792 -2.809 1.309 0.779 -0.455 -0.513 0.241 0.471 1.261 0.172 -1.317 -0.929 -1.487 -0.723 -0.978 0.787 0.125 -0.268 -1.131 -0.435 0.458 1.884 0.740 0.005 -0.618 -1.172 1.538 -1.047 -0.876 -0.420 2.219
-0.284 0.460 -0.577 -0.370 1.236 -0.016 0.916 0.697 0.451 -0.993 -0.851 0.021 -1.154 1.152 0.679 -0.706 -1.734 0.147 0.474 0.827 -1.007 0.086 -0.724 0.426 0.759 -0.515 1.665 -0.533 -1.615 -1.312 -0.863 0.788 -0.750 -1.515 0.015 -1.207 -0.642 -0.277 -1.127 0.218 -1.502 0.489 -1.402 1.432 0.270 -1.992 0.983 1.849 -0.414 0.674 -1.366 0.784 1.591 -0.900 -0.701 -1.514 0.726 0.972 0.461 -0.714 -0.622 -0.690 -1.507 -1.197 -1.048 -0.327 1.734 -0.563 0.171 1.554 -0.520 -0.000 -0.106 0.483 -0.124 0.730 -0.480 -0.446 -0.786 0.661 -0.593 0.221 0.115 -0.021 0.312 1.594 0.422 1.186 -0.063 -0.691 -0.704 0.599 1.031 0.316 0.660 0.329 0.288 -0.387 -0.238 -1.575
0.645 -1.198 0.644 -0.797 -1.028 -0.706 -0.540 -0.560 -0.967 1.160 -0.077 0.490 -0.177 0.045 0.078 0.046 -0.412 -1.759 -1.111 0.626 -0.304 0.692 -0.754 0.295 1.891 0.344 1.053 0.518 -0.397 -1.262 -1.150 -1.103 -0.653 -0.421 -1.464 -0.703 0.288 0.480 0.240 -0.478 0.875 -0.794 1.129 -1.090 0.030 -0.265 1.054 0.230 1.153 -0.551 -0.634 -0.436 -0.069 1.289 0.088 -0.463 1.003 -0.752 0.580 -0.726 0.924 -0.159 -0.362 -1.410 -0.314 -0.464 -0.319 0.534 0.065 -1.711 0.866 1.835 -0.206 0.657 0.641 0.086 0.892 -0.060 -1.223 2.078 -0.648 1.650 0.007 0.993 0.314 -0.111 -1.204 0.547 1.524 -0.439 1.403 -0.204 0.170 0.105 -1.342 -1.375 -0.568 1.928 -0.914 1.268
-0.480 1.431 0.477 0.307 -0.385 0.080 -0.593 0.273 -0.572 3.267 -0.730 1.500 -0.288 1.528 1.418 -0.131 0.012 1.394 0.107 0.547 0.231 -0.458 -1.599 0.240 -0.150 -0.239 -0.505 0.887 0.076 -1.388 -0.261 -2.089 -0.365 -0.583 0.379 1.004 -0.350 1.245 0.706 1.208 -1.620 0.815 -0.833 -0.596 -1.392 1.764 0.872 -0.565 -0.051 -0.503 -0.455 -0.934 0.778 0.853 -0.428 -0.628 -1.678 0.424 -0.885 -0.938 0.333 0.947 0.990 1.514 -0.225 -1.383 1.019 0.687 -1.306 0.611 0.294 0.515 -1.023 -1.010 -0.092 -1.565 -0.863 0.321 -0.340 -0.739 0.059 -0.205 -0.746 -0.941 -0.016 -0.778 0.750 0.464 -0.126 1.830 0.575 0.866 1.365 0.410 -1.954 -0.859 -0.543 -1.406 -0.082 -0.250
-1.298 -0.962 -1.248 0.501 1.099 0.617 0.484 0.107 2.046 -0.675 0.778 0.357 0.701 -0.615 -0.207 0.573 -1.648 -1.590 -0.202 1.619 -1.465 -0.079 1.126 -0.512 1.468 1.340 0.274 -0.714 -1.991 1.874 0.059 -0.825 1.500 1.182 1.900 0.840 -0.154 1.563 -0.731 0.284 -0.049 1.979 -0.545 -0.057 -0.196 -1.588 0.329 -1.548 0.649 0.126 0.708 0.246 0.578 -0.203 -1.827 0.006 -1.071 -0.609 0.273 -0.387 0.433 -1.076 -0.260 -1.121 -0.693 -0.377 -1.591 1.143 0.449 -1.612 0.643 0.241 0.119 1.219 -0.311 0.158 0.371 -1.551 2.236 -0.661 -1.213 0.248 -0.048 -0.853 0.959 -0.341 1.570 -0.913 0.493 0.799 -0.994 -2.058 -1.358 -0.106 -0.914 2.027 1.021 0.269 0.845 -0.246
1.114 -0.112 -0.194 -1.141 -0.486 -0.765 0.433 0.740 -1.083 1.060 -1.087 -1.483 -0.677 -1.551 0.299 0.351 1.314 0.922 1.644 -0.366 -1.756 -0.095 -1.086 0.696 2.192 0.976 -0.426 0.936 -0.893 -0.997 2.469 -1.155 -0.169 0.569 -1.263 -0.056 -0.326 0.624 0.014 0.107 -0.670 -0.500 0.080 2.267 -0.529 2.085 -1.184 -0.449 1.217 1.342 -0.398 0.418 -1.541 1.252 -0.151 -0.012 0.617 -1.306 0.606 -0.767 1.105 -0.067 -0.443 -0.224 0.933 -1.158 -1.411 -0.243 -0.091 -0.207 -0.477 -0.754 0.264 0.128 0.719 -0.051 -0.177 1.234 0.012 -1.225 -2.039 0.857 0.901 -1.602 0.340 0.232 0.998 -0.104 0.809 -0.901 -0.909 1.385 0.769 1.041 -0.609 0.869 0.560 1.512 -0.510 0.889
1.465 1.110 -0.740 0.542 0.792 -0.952 0.549 -1.766 0.025 1.347 2.801 -0.300 0.183 -1.832 -0.387 1.869 0.340 -0.395 -0.777 2.115 -0.217 -1.561 -0.926 -0.119 -0.755 -1.605 -0.703 -1.036 3.600 0.378 -1.121 0.531 0.300 -0.128 -0.711 0.929 -0.599 -0.788 0.027 -1.033 0.183 0.178 -0.517 0.540 0.615 1.711 -0.565 0.695 -1.311 -1.649 -1.003 -0.701 0.033 -0.593 -0.486 -0.781 -0.000 0.773 -0.380 -0.228 -0.992 0.395 0.529 0.221 0.752 1.076 0.031 1.024 -0.369 0.778 1.440 1.019 -0.541 -0.610 0.419 -0.837 0.017 -0.622 0.418 0.359 -0.355 0.732 0.346 1.731 -0.979 -1.177 -0.696 -0.713 1.229 -0.773 -0.837 -0.688 -0.992 -1.166 -0.569 0.014 -1.158 -2.629 -1.101 -0.163
1.919 1.233 -0.240 0.580 2.534 -0.477 0.322 -0.587 0.197 1.074 -0.879 -2.082 -0.862 -0.554 1.162 -0.497 -0.014 -0.610 -0.860 0.458 0.883 1.325 1.023 -0.979 1.226 -1.191 -0.146 1.026 -1.662 -1.483 1.809 -0.777 -0.482 -0.884 0.321 -1.375 1.045 0.012 0.087 0.086 1.089 0.538 0.768 0.831 -0.236 -0.293 0.761 0.507 0.307 1.054 -0.169 -0.782 0.102 0.436 0.467 1.254 -0.543 1.480 0.285 -1.428 -1.161 1.719 0.568 0.723 0.660 -0.101 0.335 0.299 0.257 -0.422 0.653 0.897 0.169 0.777 0.410 0.803 -0.814 -0.654 -0.903 -0.205 -2.091 1.059 -0.645 -1.144 -0.404 -0.052 0.535 0.528 -0.013 0.003 0.490 -0.289 1.452 0.197 0.754 -0.605 -2.392 -0.539 0.778 -0.891
0.330 1.046 0.370 -0.791 -0.099 0.567 -1.516 -0.394 -0.062 0.436 -1.110 -1.996 -0.259 1.526 0.254 0.459 -0.461 0.023 0.670 -0.466 -0.139 -1.544 -0.848 -0.371 0.746 0.733 -0.957 -0.390 0.673 -0.290 -0.504 -0.526 1.032 0.082 0.475 -0.011 0.874 0.617 0.871 -0.872 -0.158 0.021 -0.000 0.277 0.660 0.755 0.264 -0.250 -0.590 -0.911 1.017 0.174 -0.050 -1.987 0.761 -0.140 -0.391 0.450 0.620 -0.595 3.311 -0.452 0.894 0.664 -0.654 -0.049 1.286 -0.040 0.993 0.245 -0.819 -0.156 -0.053 -0.712 0.108 0.535 -0.116 0.937 -1.773 0.056 -1.884 0.538 -1.718 0.390 1.971 1.255 0.736 0.205 -0.712 1.357 0.778 -1.338 -0.640 1.918 0.372 -0.262 -0.107 -1.292 0.171 0.434
0.206 1.504 0.359 1.644 -0.641 -2.232 -1.924 -0.155 -0.527 1.349 -0.477 -0.256 0.088 0.646 -1.401 0.340 -1.232 0.291 -0.699 -0.517 -0.092 1.309 1.971 0.820 -0.150 0.625 0.167 0.266 1.878 -0.041 -0.570 1.522 -1.430 0.175 0.627 1.692 -0.282 0.123 -0.922 0.763 -1.330 0.062 -0.025 -0.806 -1.013 0.423 -0.884 -0.141 -0.764 -0.816 -1.695 0.794 -1.540 -0.672 0.885 -0.812 0.442 1.130 0.031 2.569 -0.935 -0.785 0.234 0.038 -0.573 -1.310 0.172 -0.795 -0.477 0.713 -0.539 0.838 -0.349 0.377 0.566 0.241 -0.823 -1.704 -0.607 -2.176 -0.330 1.166 1.437 0.320 -0.218 -0.758 0.623 -0.229 -0.927 0.832 -0.219 0.552 0.164 -1.067 0.332 2.079 -1.941 0.310 1.376 0.410
-0.314 1.619 -0.966 -0.213 -1.598 1.060 -0.089 -1.651 0.371 0.800 0.435 -0.134 -0.279 -0.100 0.182 -0.586 1.284 -0.206 0.912 0.590 0.053 0.365 0.720 0.495 -0.596 -0.693 0.721 0.282 0.401 -1.015 -0.863 0.849 0.312 0.196 -1.802 0.955 -0.460 0.210 -0.947 -0.127 -0.049 1.010 1.458 -0.033 -0.921 -0.011 -0.691 0.891 0.374 -0.023 -1.069 0.957 0.703 -2.292 0.908 -1.308 -1.327 -1.342 0.444 -0.699 0.002 -2.030 1.971 1.003 -0.941 -1.458 -2.296 0.603 0.430 0.335 -0.113 -0.142 -0.488 1.171 1.281 0.058 1.456 1.246 -0.830 0.594 1.682 -0.391 -0.349 -0.355 -1.458 -0.726 -0.124 -1.235 -1.835 -0.528 -0.756 -1.476 1.120 -0.099 -0.280 -0.863 0.789 -0.644 -0.550 -0.144
0.570 -0.653 -0.352 0.218 -1.021 0.949 0.030 0.124 -1.726 -1.309 1.301 -0.336 -1.611 1.929 -1.719 -0.328 -0.100 -2.066 0.769 0.112 0.128 -1.677 -1.329 -0.901 0.468 0.155 0.605 -0.945 -0.710 -1.235 -0.754 0.656 2.729 0.219 0.529 -0.985 1.729 -0.595 -0.313 -0.881 1.049 0.079 -0.671 -1.335 -1.166 -0.552 0.301 -0.191 -1.105 -1.058 -0.767 -1.089 0.355 -0.062 -0.953 1.740 1.457 -0.792 0.593 0.402 -0.411 -0.264 1.832 -0.099 0.377 0.016 -0.906 -0.621 1.564 -0.579 0.571 -0.193 -0.192 0.225 2.146 0.201 0.715 -1.359 -0.344 -0.183 0.649 0.757 -0.688 -0.722 0.863 -1.228 -0.136 -0.534 -0.834 -0.742 1.363 0.515 0.940 -0.416 -0.201 -0.737 -1.071 -0.965 -1.128 -1.399
1.464 0.155 -1.006 1.118 2.435 -0.278 -0.138 0.380 -0.844 0.362 -0.113 3.020 -1.128 0.737 -0.201 -0.666 1.730 0.730 -1.379 1.152 -0.365 -1.244 0.671 -0.952 -0.563 2.091 1.292 -0.218 0.401 -0.391 -1.108 0.591 0.247 -0.719 -0.596 -0.684 -1.796 1.450 1.641 -2.017 -1.130 1.038 0.400 0.798 1.255 -0.018 -0.256 0.779 -2.497 -0.738 -0.638 0.179 -0.290 0.375 0.307 -0.912 1.524 -1.696 -0.801 -1.883 -0.943 1.061 1.082 0.011 -0.101 -1.295 -0.835 0.775 0.093 -0.537 0.263 0.190 -0.290 -0.028 -0.247 -0.193 0.383 1.758 0.538 0.395 0.322 1.530 0.242 0.699 -0.802 -0.816 0.705 0.288 0.168 -0.747 -0.764 0.440 0.180 -1.018 0.309 0.489 0.612 -1.917 0.031 -0.706
0.999 -0.421 0.277 -0.257 0.777 -0.651 0.345 -1.738 -0.252 -0.944 -0.557 -2.352 0.280 -0.927 -1.369 0.400 -0.856 0.829 0.672 1.185 0.461 -1.443 -1.191 -1.049 1.533 -1.016 -0.494 -0.222 1.044 0.063 -0.636 -0.536 0.088 -0.228 -0.883 2.005 1.548 0.785 -1.301 1.017 0.421 -1.693 1.759 1.282 -1.274 -0.412 -1.370 0.058 -0.328 -0.221 0.758 0.295 0.234 0.211 -0.961 1.161 0.960 -0.571 1.349 -1.129 1.465 -1.474 1.241 1.051 -1.376 -0.187 0.469 -1.869 -0.108 -0.253 0.390 1.261 0.949 0.918 -0.546 0.960 -0.118 -1.854 -0.026 0.048 0.159 -0.167 -0.692 -1.194 -0.182 0.491 -0.074 -1.102 0.151 -0.649 1.736 -0.643 -0.379 0.748 -1.902 0.449 -1.917 0.954 -0.009 -2.344
0.417 -0.916 0.399 -0.135 0.169 -0.061 -0.800 0.090 -0.710 -0.053 -0.501 0.200 0.568 -1.281 -0.838 -0.105 -0.837 0.740 -0.382 0.409 -0.059 0.004 -2.133 -0.583 1.864 0.676 -0.495 -0.488 -1.279 -0.976 -0.267 -1.257 -0.240 0.531 -0.516 1.229 1.509 -1.801 1.165 -0.520 -0.060 -0.611 1.233 0.412 0.361 0.168 0.362 1.210 -0.242 -1.112 -2.940 0.236 -0.863 0.697 -1.645 -0.277 0.248 -0.560 -0.296 -0.158 0.997 0.994 1.269 0.179 -0.414 0.022 1.204 0.697 -1.010 -0.794 0.649 0.016 0.245 0.484 0.792 0.167 -0.488 -0.272 -0.698 0.112 -2.196 -1.261 0.440 0.895 -0.001 -1.196 2.405 0.154 2.042 -1.476 -0.349 -0.359 0.431 1.370 0.142 -0.321 -0.386 0.653 1.509 -0.229
-2.260 1.400 0.255 -2.001 0.281 0.593 0.535 0.878 0.051 0.427 0.657 1.490 -0.910 0.666 0.018 -1.299 -2.263 -0.403 -1.439 -0.580 1.581 -0.010 -0.196 -1.186 0.647 -1.010 -0.601 -0.611 -1.201 -0.399 -1.446 0.261 0.454 1.060 1.237 -0.810 0.469 1.407 1.615 -1.658 0.674 -0.280 -1.310 0.304 1.580 1.147 1.971 -0.738 -0.269 -0.546 -0.233 0.049 -1.358 -0.803 -0.420 0.634 0.726 -0.119 0.480 -0.832 -1.381 -0.334 -0.537 -0.612 -1.158 0.974 -1.671 1.019 -0.485 1.168 -0.531 1.950 0.347 1.155 0.150 0.894 -1.622 -0.260 -0.809 -2.211 -0.613 1.071 -1.795 0.786 0.040 -0.187 0.492 -0.857 0.838 0.999 -0.095 0.611 0.761 0.757 -1.907 -1.927 0.109 0.039 -0.421 1.795
-0.061 -0.513 -1.111 -0.906 0.606 0.543 -0.773 -0.672 0.104 0.461 1.023 -0.270 -0.197 0.518 -0.279 1.906 0.610 -1.607 1.140 -0.518 0.444 -0.934 -0.875 0.053 0.121 0.112 0.226 0.509 -0.039 0.739 -0.528 -1.033 -0.012 0.926 -1.572 -0.988 -0.234 1.026 -0.319 -1.435 0.159 0.971 1.762 -0.414 -0.219 0.053 0.245 -1.115 -0.245 -0.637 2.259 -0.991 -1.501 -0.041 1.497 -0.034 1.211 -1.580 -0.087 -0.877 0.611 0.002 0.269 1.103 -1.952 -0.019 0.881 0.304 -0.831 0.835 0.527 0.457 -0.215 -0.303 -0.435 0.531 1.417 -0.283 0.200 1.808 -0.612 1.304 -0.676 -1.477 -1.051 -0.511 0.632 0.840 0.393 0.854 -1.358 1.425 1.589 1.860 0.107 0.432 -0.001 0.368 -0.266 0.105
-0.258 -0.614 -0.138 -0.908 0.062 -0.102 0.307 -0.256 -1.055 -0.557 1.884 0.495 -0.716 1.683 -0.645 0.450 0.749 0.282 -0.279 0.580 -0.579 0.091 2.833 0.974 0.588 -0.708 1.493 0.705 -3.265 0.860 -0.026 -0.976 -0.527 -0.692 1.897 -0.884 1.614 0.275 0.338 0.544 0.067 -0.262 0.395 -1.173 0.959 -1.309 0.512 0.543 -0.094 -0.743 -0.580 -0.857 -0.126 0.771 -1.293 -1.436 1.326 -0.137 -0.643 -2.292 -1.352 0.495 1.097 1.384 -1.251 1.154 -0.255 -0.471 0.125 -0.399 0.061 -0.955 -1.142 0.238 -0.907 0.253 0.034 -0.019 0.040 0.167 -0.907 -0.223 0.094 -0.703 0.336 -1.111 -0.586 0.538 -1.594 -1.556 0.773 0.306 0.526 -0.132 0.079 0.760 1.072 -0.598 -1.152 1.962
-0.486 -0.323 -0.232 -0.778 0.044 -0.133 -0.426 -0.604 -0.891 1.131 0.480 0.151 -1.449 -0.958 -0.234 0.177 -1.071 -0.278 -0.720 -0.651 0.791 0.919 -1.006 0.779 -0.145 0.032 0.785 -0.696 -1.476 -0.986 0.768 -0.224 0.094 -0.638 -1.547 -0.675 -0.767 -0.378 -0.486 0.325 -0.670 -1.375 0.415 0.741 1.930 -1.513 -0.771 0.106 0.101 -1.090 0.521 -0.372 0.469 0.505 0.094 -1.303 0.962 -1.732 0.447 -0.586 0.066 -0.425 -0.424 -0.221 0.444 -1.186 -1.340 -1.974 1.467 -1.090 -0.986 0.282 1.265 -0.133 -0.437 -1.155 -0.308 -0.745 -0.968 -1.525 -0.953 0.478 -0.876 -1.241 -1.553 0.590 0.579 -0.147 -0.232 1.365 0.901 -0.728 0.609 -1.211 1.574 1.350 -1.285 0.177 1.208 0.820
-0.556 -1.758 1.890 -1.530 0.346 0.588 1.011 -1.194 -0.540 0.224 -1.590 -0.818 1.006 0.889 -0.519 -0.670 1.202 0.966 1.426 1.093 1.410 -1.134 -0.438 0.113 -1.466 0.884 0.883 1.140 0.149 -1.544 0.361 -0.697 0.262 0.187 -1.078 -0.724 -0.582 0.335 0.108 0.235 0.788 -0.573 -1.404 1.115 0.053 -0.066 1.277 -0.937 -0.821 -0.587 0.734 -1.460 0.596 -0.959 -1.213 -0.305 -0.810 -0.899 -1.374 -0.488 0.178 -2.528 -1.153 1.556 -0.468 0.461 0.490 -0.749 -0.993 0.192 1.207 -0.920 -1.527 0.028 1.937 1.214 -2.199 1.084 -0.548 -1.003 -0.073 0.924 -1.114 1.244 1.414 0.565 -1.342 -0.635 -0.958 0.243 -1.809 0.146 0.772 0.333 0.716 0.960 0.133 1.551 -0.507 -0.892
-0.078 0.974 -1.282 -0.640 -0.743 -0.372 -1.748 0.358 -0.608 1.496 -1.601 -1.513 -1.151 -0.957 -1.514 0.056 0.893 2.105 0.567 0.144 -0.862 0.612 -0.423 0.262 0.699 0.278 1.581 -0.835 0.201 0.809 -0.206 -0.421 0.151 0.719 0.248 -0.029 -0.683 -0.453 -0.332 0.662 0.660 0.689 0.336 -0.722 -0.513 2.069 0.631 0.479 -0.791 -1.831 -1.269 -0.671 1.153 0.161 0.734 -0.525 0.860 1.295 -0.030 0.698 -0.544 0.365 -0.486 1.400 0.433 0.348 0.573 -0.582 -1.392 0.380 0.765 -1.663 -1.682 -0.795 0.208 -0.181 0.095 -0.426 -0.928 0.888 1.550 2.211 1.429 -0.269 0.052 -0.737 1.351 -0.648 -1.738 -0.870 0.941 -0.080 -0.585 -1.127 -1.393 -0.166 -0.191 0.123 -0.684 -1.029
-0.379 0.553 1.095 1.041 2.455 -1.501 -1.059 1.076 0.442 2.405 0.150 1.422 0.459 -0.786 0.177 0.057 0.662 -2.196 -0.510 0.638 -0.546 0.798 -0.151 0.580 -0.249 -0.253 -1.215 0.141 -0.245 0.498 -0.477 -0.624 -0.921 1.209 2.241 1.197 0.580 -0.066 -1.679 0.319 -0.279 -1.550 0.986 1.304 0.613 -0.840 -0.860 0.188 0.117 -1.889 1.223 0.143 0.926 0.963 -1.405 0.320 -1.412 0.737 -0.244 0.126 -0.765 0.759 -1.288 0.811 0.098 0.521 -0.957 0.711 -0.497 0.545 1.507 0.357 0.697 0.276 1.626 -0.302 0.727 -0.443 2.274 -0.607 0.222 -1.652 2.113 -0.228 0.579 -0.589 0.179 -0.273 1.321 0.831 0.073 0.905 -0.283 -0.190 1.246 0.074 0.287 -0.367 -0.830 0.716
0.797 -1.078 0.112 -0.909 0.320 -1.078 -0.972 -1.241 0.036 -1.077 1.134 0.149 0.849 -0.698 1.228 -0.017 -1.175 -1.238 1.133 0.195 -0.877 0.064 0.462 -1.043 0.505 -0.470 -0.904 -0.050 -0.070 0.072 -0.944 -0.141 -0.948 -0.207 0.317 1.048 0.704 0.522 0.704 1.213 -0.408 -1.698 -0.038 0.532 -1.177 1.315 -0.268 -0.981 0.618 2.120 -0.684 -2.001 1.612 -0.492 -0.626 0.307 -0.649 1.321 1.199 -0.106 -0.208 0.087 0.329 1.311 -1.399 -0.132 -0.821 1.134 -0.556 0.144 0.189 -0.701 0.721 0.011 0.055 -1.113 1.545 -0.910 -0.571 -0.889 -2.886 -0.317 -0.347 -0.547 0.888 0.268 3.400 0.192 -0.520 1.414 0.286 -1.393 -0.318 -0.071 0.728 -0.738 0.235 -0.244 -0.045 0.919
-0.276 -2.199 0.035 1.016 -0.929 0.143 -1.753 0.622 -0.112 0.884 -0.137 0.631 0.373 -0.241 -0.389 1.317 0.656 1.584 -2.308 -1.352 0.663 -0.695 -0.353 -0.273 -0.977 1.129 1.588 0.069 -1.059 -0.311 -0.149 -1.580 -0.483 -0.473 -0.319 0.476 -0.223 0.517 0.864 0.816 -0.215 0.602 0.891 -0.840 0.213 0.762 -0.453 -1.185 -0.878 -0.989 -1.241 0.639 -0.549 -0.136 0.286 -1.526 -0.005 0.274 0.931 0.317 -1.051 0.172 1.719 2.744 -0.662 1.077 0.224 0.924 -0.618 1.502 0.589 -1.245 -0.824 1.257 0.565 -0.853 0.371 0.899 0.606 -0.762 0.369 -0.366 0.366 0.395 1.032 -0.905 0.067 -1.966 -0.423 -1.204 -0.158 -1.144 -1.044 -0.816 -1.122 0.326 1.998 -1.808 -0.095 0.166
-0.304 1.329 0.322 1.128 0.590 1.177 0.229 0.344 0.455 0.517 -2.518 2.279 2.101 0.415 -1.896 0.419 0.264 -0.374 0.064 -1.405 -0.183 0.193 0.128 -0.377 1.695 -1.267 0.289 -0.038 1.576 -1.355 2.118 0.931 1.205 -0.867 -0.110 -1.572 -0.570 -0.337 0.412 0.204 -0.955 -0.498 -1.513 0.487 1.454 -1.120 -1.906 0.518 -0.312 -0.326 0.217 -1.650 -2.334 0.513 1.231 -1.110 -0.602 -0.260 -0.513 -0.277 0.479 2.101 0.064 -1.048 -0.655 0.791 -1.083 0.745 0.416 -1.404 -0.384 -0.213 0.606 0.582 -0.021 -2.147 -1.474 0.059 -0.056 -0.783 -0.434 0.209 -1.622 -0.091 -0.560 -0.405 -0.611 -0.670 0.833 -0.404 1.825 -1.833 -2.505 -0.021 -1.407 -1.152 -1.627 -0.182 -0.188 -1.213
1.974 -0.330 0.286 1.608 0.050 0.140 -0.472 -0.986 1.170 0.860 0.229 0.181 -0.088 -1.284 0.466 0.674 -0.782 -1.989 -0.395 -0.804 0.058 1.310 -0.379 -1.343 -1.989 0.708 -1.360 -1.110 -0.564 1.342 -0.058 -0.443 1.464 0.491 -1.753 0.847 -0.932 0.433 1.243 1.411 -0.026 0.272 -1.969 0.131 -1.472 -0.615 -1.319 0.858 0.766 0.659 0.329 0.880 0.655 0.147 1.204 0.732 0.814 -0.153 0.094 1.123 0.032 -0.549 -1.241 0.125 -1.283 0.419 -1.880 0.841 -0.694 1.250 -0.249 0.045 -0.038 -0.194 0.189 0.358 0.335 0.018 -0.636 -0.076 -0.296 1.812 0.159 -1.672 -0.659 -1.073 1.174 0.132 -0.171 0.559 0.184 1.222 -0.043 -0.698 -1.145 0.270 0.794 -0.037 0.386 -0.318
-1.198 -1.385 0.887 1.782 0.527 -0.626 -0.432 0.188 -0.665 -0.485 0.097 -0.221 -0.125 -0.018 -0.911 -0.801 -1.166 -0.307 0.186 -0.422 0.697 0.565 2.213 -0.493 0.261 -1.164 -0.247 -0.252 -0.604 -0.343 -1.752 -0.555 -0.669 0.349 1.584 0.129 -1.311 -0.047 -1.188 1.379 -0.200 2.234 -0.143 0.299 0.544 -1.510 0.732 -1.101 -0.452 -0.607 -0.616 1.241 -0.623 0.897 -0.874 -2.501 0.193 0.034 -0.057 0.039 -2.546 -0.141 1.826 2.300 0.441 1.274 1.691 0.440 0.608 -0.389 0.740 -0.836 0.295 -0.174 2.473 -0.572 0.551 0.786 -0.489 -0.173 0.375 1.155 -0.385 -1.661 -0.544 -1.294 0.140 -1.076 0.355 -0.287 -0.094 1.020 0.961 -0.972 -1.002 -0.473 0.873 0.751 0.770 -0.229
0.711 0.181 -1.071 -0.710 0.520 -0.123 -0.531 0.691 -0.422 -1.152 0.427 1.932 -1.792 0.402 0.557 1.991 -0.294 1.204 -1.121 0.238 0.906 -0.494 0.447 -0.944 0.203 -0.119 1.600 0.957 -0.037 0.019 0.173 1.942 0.679 -0.254 -1.536 -0.223 -0.347 2.077 -1.269 -2.060 0.058 0.736 -0.126 1.780 0.355 1.016 -0.100 -0.098 1.203 0.645 1.007 0.501 1.639 0.664 -0.670 -0.051 -0.165 -1.249 1.565 0.678 -2.315 -1.349 1.857 0.153 0.152 0.478 0.568 -0.283 -3.176 1.544 -0.300 -0.585 1.099 0.421 0.358 0.098 -1.013 -0.526 0.793 -0.618 0.099 1.377 -0.032 -0.432 -0.310 -1.000 -1.121 -0.347 -0.273 -0.093 0.841 -0.756 0.457 0.828 0.122 -1.396 -0.235 -1.155 -1.727 -2.018
1.505 -2.116 -1.016 -0.975 -0.145 1.635 0.126 -0.212 0.503 -1.685 1.371 1.215 0.873 -1.948 -1.663 -1.490 2.157 -0.476 0.680 0.423 0.049 -0.320 0.303 1.258 -0.050 0.539 0.681 -0.865 -0.499 0.566 -0.367 -0.419 0.274 0.518 0.592 0.213 -0.709 -1.360 0.659 0.161 -1.475 1.842 0.355 0.746 -0.784 -0.914 -1.050 0.357 0.426 0.205 -1.836 -1.145 1.604 -1.081 1.226 1.218 0.138 -0.506 0.144 0.586 1.436 0.165 0.056 -1.650 -0.096 -1.099 1.835 2.005 0.187 0.737 0.655 0.560 -0.831 -0.737 -0.086 0.649 -1.904 -0.671 -0.838 0.051 -0.164 1.135 0.876 0.003 1.719 -1.222 -0.792 -2.186 0.477 -1.137 -0.071 -1.036 -1.398 1.081 -0.348 0.152 -1.273 0.710 1.806 -0.250
-0.192 -1.001 2.071 -2.045 -1.186 1.389 0.541 -1.362 0.492 -2.128 1.051 -0.137 -0.656 -0.098 -0.653 -1.496 -1.993 -0.313 0.518 -2.567 -1.003 -0.090 0.907 0.071 -0.335 -1.770 1.676 -0.556 -0.517 -0.964 1.091 0.942 -0.463 -1.365 0.656 -1.583 0.775 -0.316 2.226 0.713 -0.062 -0.993 1.095 -0.741 0.865 -1.267 0.421 0.792 0.369 0.708 0.266 -1.682 -2.729 2.504 -1.176 0.671 0.783 -0.402 -0.696 0.844 -0.095 -0.279 1.199 -1.062 0.807 -0.656 1.040 -1.563 -1.357 1.184 -0.947 -0.582 0.170 -0.647 0.524 0.441 0.934 -0.199 -0.051 -0.152 0.364 0.326 -0.580 -1.616 0.379 -0.658 -0.837 -0.679 -1.146 -0.069 -1.628 -1.891 -0.503 0.461 -0.053 -0.742 -0.746 2.204 0.884 1.151
0.723 -1.729 1.190 -1.565 -0.809 -2.453 -0.089 0.334 0.083 0.640 -0.261 -0.445 -2.201 2.219 0.859 0.395 -1.193 -0.708 -0.837 0.564 0.055 0.563 1.024 -1.522 -2.476 1.083 -0.288 0.808 1.387 -0.719 -1.301 0.922 -1.743 1.510 -0.587 -0.828 0.555 -0.594 0.475 0.911 -1.855 -2.331 2.207 -1.193 -0.019 -1.680 -0.299 -1.201 -0.668 -0.408 -0.901 -0.708 0.880 1.416 0.493 -0.611 1.769 0.811 0.677 0.831 -1.164 0.081 -1.250 -0.494 -0.169 1.331 -0.182 -2.578 -0.171 1.166 -1.056 1.404 1.255 0.752 -0.274 -0.181 -0.591 -0.667 0.105 2.355 0.520 0.153 -1.140 0.000 -0.212 1.098 0.928 0.222 -1.014 -1.740 -0.273 1.037 -1.969 -1.190 0.690 0.827 -2.396 0.245 0.220 0.587
-0.522 0.511 -0.157 0.760 0.964 1.949 0.569 0.169 0.327 1.448 0.115 -0.016 0.167 0.453 -0.915 0.234 -0.732 1.914 0.366 -0.426 -0.115 -2.546 2.478 -0.666 -0.003 -1.333 -0.569 -0.787 -0.440 0.782 0.003 2.395 0.333 0.757 0.180 0.557 0.118 -0.252 -0.160 -0.069 -0.473 0.430 1.595 -1.386 2.771 -1.473 -0.192 -0.472 0.596 -0.709 0.864 1.067 0.393 0.168 -1.507 -2.009 0.873 0.694 -1.155 -1.294 -1.350 0.368 -1.580 0.889 -1.304 -2.125 0.438 0.166 0.800 1.008 -1.248 -2.223 0.095 0.483 1.397 0.798 -1.641 0.461 0.050 0.576 -1.411 -0.704 -0.827 0.595 1.450 -0.053 0.597 -1.049 -0.579 1.477 -0.681 0.481 -0.295 0.017 -0.813 -0.245 -0.302 -0.809 -1.746 0.507
0.843 0.526 -0.780 0.924 -0.779 0.840 -1.519 -0.217 -0.266 -0.439 0.311 -0.250 -0.628 -0.437 -0.830 1.552 1.194 1.489 0.423 -0.494 0.395 0.701 0.693 -1.130 -1.719 -2.012 1.377 0.247 0.067 0.433 0.088 -0.358 -0.549 -0.308 0.136 0.494 -1.527 0.239 -0.189 -1.356 -0.500 -0.840 0.640 -0.037 0.544 -1.313 0.984 -0.153 0.429 -0.301 -0.577 0.131 -0.310 0.582 -0.095 -0.409 0.091 0.284 1.699 0.449 1.089 2.005 1.927 -0.205 -0.109 1.148 -0.418 0.691 0.223 -1.157 -2.391 2.292 0.001 -0.948 -1.196 -1.131 -1.201 -0.888 -0.714 0.560 1.124 -1.013 -2.864 1.824 1.039 -0.998 0.774 -0.297 0.089 0.603 0.247 -0.035 0.774 -1.114 -0.687 -0.210 -2.914 -2.269 -1.522 -1.301
-0.187 -0.039 -1.278 2.001 1.194 0.181 0.363 -0.015 1.431 1.370 0.615 -0.448 -0.489 0.353 0.495 0.335 -2.229 0.796 -0.410 0.664 0.285 0.232 -0.325 0.138 0.494 0.134 0.579 0.561 -0.793 -2.474 -0.685 0.704 -1.295 -1.806 1.298 0.328 -0.238 -0.542 -2.023 0.396 -0.083 -0.674 0.855 -0.162 0.160 0.482 0.651 -1.285 0.336 -0.666 -0.148 0.506 -0.883 0.817 -0.474 -1.191 0.818 -0.845 1.065 -0.816 -1.381 -0.516 1.032 -1.177 -0.784 -0.978 0.129 -0.518 0.065 0.149 -0.808 -0.927 0.637 -0.692 -1.055 2.121 1.261 -0.367 0.891 0.146 -1.375 0.664 0.893 -0.061 0.280 0.315 -0.204 0.593 0.083 -1.444 0.094 0.364 -0.955 -1.779 1.127 -1.132 0.176 -0.337 1.242 0.390
-0.101 1.157 -0.606 1.315 -0.372 0.829 0.912 -0.153 -1.689 0.614 -0.104 -0.158 1.618 0.446 -0.237 -0.755 -0.252 0.985 -2.223 -1.542 -0.258 0.331 0.911 0.011 -0.579 0.391 0.351 -0.732 0.790 1.037 0.368 -0.691 0.950 0.250 -0.532 -0.318 0.121 -0.247 -0.547 -0.917 0.107 -0.473 -2.077 1.509 0.975 -0.381 1.262 0.817 0.614 0.156 0.537 1.184 0.291 0.010 1.813 0.673 -0.166 0.123 0.219 0.103 0.174 1.175 -1.966 0.384 -0.575 -0.327 0.296 0.051 0.758 0.373 0.532 -0.020 -0.314 -0.846 0.430 0.329 0.119 1.076 1.518 0.424 -2.203 -0.750 0.832 -0.720 0.451 1.209 -1.276 0.986 0.340 1.228 1.746 1.985 0.621 0.145 1.417 -0.257 -0.155 0.434 -0.894 -0.899
0.780 -0.010 -0.203 -0.708 2.272 0.562 0.416 -1.982 -1.545 -2.217 0.428 -0.153 -0.116 -0.249 1.223 -0.487 0.388 0.354 1.048 -0.615 1.112 -0.425 -0.198 0.243 -0.678 0.710 -0.228 1.893 -1.370 -0.948 0.746 -1.768 -2.090 0.578 1.336 1.567 0.438 -0.318 0.915 0.174 -0.276 0.971 0.174 -1.388 0.691 2.004 1.287 -1.404 -0.337 0.017 0.125 -0.259 0.524 -0.366 -0.410 0.676 0.061 -0.058 0.066 -0.061 0.060 0.792 -0.359 -1.131 0.202 -1.003 0.505 -0.213 -0.008 -0.487 0.693 -1.063 -1.155 -1.567 1.587 0.133 0.833 1.337 1.573 -2.794 0.246 0.281 -1.341 1.305 -0.609 0.546 -0.063 0.292 -0.058 -1.490 0.583 -1.518 -0.167 -1.750 0.110 -0.711 -1.610 -0.661 -0.668 -0.362
-0.111 -0.886 0.322 -1.074 0.075 1.412 -0.377 1.794 -0.319 -0.681 1.492 -0.942 -0.487 1.639 -0.959 -0.463 0.829 0.628 0.385 -0.501 -1.328 0.788 1.497 -0.948 -0.340 -0.460 0.035 -0.257 -1.383 2.052 1.370 -1.893 -0.015 -0.524 1.054 1.361 0.517 -0.424 0.469 0.061 0.747 -0.374 1.105 0.451 -0.705 -0.964 -0.490 0.624 0.303 0.518 -2.293 2.204 -1.420 0.679 -0.157 0.508 -0.744 -0.059 0.040 -0.796 -1.366 1.079 0.868 1.762 0.294 0.456 -0.278 0.517 -0.053 0.654 -0.986 1.055 0.739 -0.431 1.112 2.059 -1.480 0.117 -1.403 -0.317 -0.502 1.244 0.349 0.657 -0.522 -0.285 -1.252 -0.642 -0.515 -1.187 -1.262 -0.046 0.686 -1.200 -0.428 0.299 -0.571 -1.014 2.376 -0.467
0.604 -0.824 0.618 -1.123 0.997 0.215 -0.973 -0.828 0.813 -1.684 0.063 1.082 1.364 -1.586 -0.473 0.957 -0.404 -0.553 -1.129 1.351 0.377 -1.227 -0.145 -1.021 0.029 -0.553 -0.381 0.975 1.102 1.406 -0.905 1.381 0.797 0.139 0.805 0.734 0.273 0.572 -0.221 1.813 -0.179 -1.642 0.332 -1.493 -1.988 0.986 1.133 1.085 -0.700 -1.083 1.494 -3.174 -0.017 1.368 -1.546 0.377 1.994 -1.016 0.837 -1.779 0.025 -0.949 0.778 0.628 -0.911 -0.498 0.481 0.802 -2.274 -0.107 -0.250 -2.109 -0.111 -0.157 -1.827 -0.702 1.142 0.931 1.000 0.070 0.891 -1.428 -0.696 0.604 -0.105 -2.027 -0.356 -1.291 0.308 2.425 -0.210 1.570 -0.306 -0.136 2.579 -1.259 1.640 1.014 -0.378 0.044
-0.627 0.408 0.465 0.445 -0.555 -1.293 -1.963 0.562 0.450 -0.624 0.469 0.367 1.380 2.144 -0.786 0.267 -0.023 0.614 0.303 -0.118 -0.596 -2.600 0.054 -0.912 -0.166 -0.924 -0.093 -2.620 0.190 -0.398 -0.039 -0.637 -1.185 0.525 -1.180 0.931 0.907 -0.841 1.455 0.335 0.284 0.303 0.590 0.879 -0.043 1.348 0.967 -1.418 -0.203 2.508 -0.343 -0.848 0.958 0.365 0.588 1.138 -0.610 1.073 0.271 0.472 0.950 -1.807 0.252 2.643 -0.929 1.751 1.218 0.872 0.760 1.171 -2.297 -2.089 -0.119 -1.061 0.119 -1.046 1.992 0.379 1.352 -0.177 0.923 -0.518 0.212 -0.209 0.681 0.469 2.234 -0.970 0.173 -0.558 -0.659 -0.621 0.817 -2.184 0.192 0.549 -0.534 -0.265 -0.490 0.389
0.725 1.401 1.874 0.565 1.229 0.422 0.391 0.841 -0.553 0.247 -0.635 -0.420 -0.414 -0.049 1.238 0.243 -0.327 1.085 0.263 -0.197 0.795 0.983 -1.321 -0.278 1.163 -1.027 -1.516 -0.319 -0.165 -0.979 0.016 -0.120 0.531 -1.823 0.804 -0.017 0.712 0.361 -0.293 -0.546 0.384 -1.498 0.963 0.801 -1.670 0.266 0.514 -0.449 -0.335 -0.211 -0.486 2.199 -1.667 0.845 -0.492 -0.204 -1.089 -0.445 -0.513 0.052 -0.823 0.391 0.531 -0.319 0.404 0.590 -1.760 0.601 -0.385 -1.005 0.479 0.662 0.891 -2.640 -1.385 0.092 0.882 -0.292 0.028 0.769 -0.460 -1.429 -0.377 -0.038 1.953 -0.677 -0.487 0.108 0.833 -0.121 -0.597 0.141 0.246 0.036 -1.160 -1.075 0.379 -1.734 -1.382 1.215
-0.464 1.595 -0.334 -1.549 0.300 0.701 0.213 -0.526 -1.097 -0.154 -0.492 -0.245 -0.231 -0.724 0.086 -1.460 0.346 -0.508 -0.003 -0.729 -0.186 -0.984 -0.205 0.312 -1.992 1.137 -2.153 0.030 0.384 -0.376 1.977 -0.547 2.486 -1.259 -0.056 -0.607 -0.983 -0.142 0.593 1.451 -0.312 -0.903 -0.735 0.720 2.308 0.695 -0.576 0.235 0.520 0.276 -1.659 -1.582 -0.302 -0.512 0.820 0.123 -0.299 -1.558 1.548 -1.091 0.353 -1.224 0.484 -0.548 -0.695 0.198 0.374 -1.729 0.866 -0.500 -0.258 1.630 0.682 -1.872 0.165 2.773 0.123 0.986 -0.441 0.289 -0.541 2.097 -0.337 -0.757 -1.155 -1.361 -0.015 -2.131 -0.563 0.240 -1.070 1.028 1.040 -1.019 0.001 -1.506 -1.084 -0.905 0.869 0.057
-1.046 1.924 -0.197 -0.326 -0.187 0.822 -0.652 1.529 -0.476 1.762 -1.178 0.310 -1.276 -0.172 0.193 -0.835 0.578 -1.060 -0.487 1.120 -0.694 -2.245 0.902 1.410 0.325 -0.911 0.487 -1.105 -1.980 1.161 0.832 -0.059 -1.770 0.535 0.869 1.344 -0.190 0.057 1.976 -0.787 -0.421 1.769 0.772 0.080 1.853 0.331 -0.011 -0.549 -0.207 0.241 -0.052 0.933 0.017 -0.069 0.697 -0.190 0.283 0.873 -0.798 -2.260 -0.574 0.618 0.898 1.749 0.230 -0.020 0.045 -1.753 0.890 -0.727 -0.818 -0.683 1.252 -0.191 0.678 -0.377 -2.103 0.155 -0.752 0.672 2.845 0.778 -0.750 -0.597 0.513 -0.102 0.563 0.022 -0.607 2.071 0.082 -0.912 1.445 0.282 0.742 0.682 1.674 -0.481 -1.000 0.562
0.329 1.904 0.307 0.299 1.237 0.124 -0.963 -1.022 -0.899 -0.873 -0.793 1.156 1.053 -1.802 0.426 1.576 1.984 -0.124 0.076 2.277 -1.776 0.126 0.145 -0.244 -2.812 0.665 -1.010 -1.134 0.139 0.327 0.886 -0.519 0.184 -0.965 -1.843 0.473 0.486 0.002 0.001 -0.919 0.238 -0.307 -0.421 -0.488 1.636 -1.512 -0.455 -0.703 -1.620 -0.245 -0.360 0.122 1.657 -1.026 1.823 -0.498 0.636 0.376 -1.571 -0.895 0.229 -1.614 -1.621 -0.302 0.180 0.950 -0.482 1.547 1.711 0.523 1.565 -0.232 0.203 -1.975 0.921 0.268 -0.438 -1.099 -0.352 -0.252 -0.942 0.884 -1.135 -0.064 -0.599 -1.020 -0.779 0.410 -0.827 0.993 0.539 0.694 0.647 -0.738 -0.178 1.105 2.037 0.126 1.180 -0.187
0.315 -1.439 1.489 -0.230 0.170 -0.760 1.948 0.030 -0.275 -1.682 -0.124 -0.481 0.455 -0.137 -0.436 -0.519 -1.103 -0.364 1.126 -0.212 0.317 0.081 -1.173 0.725 0.096 -1.836 -0.359 -1.411 0.199 1.143 0.355 1.562 0.269 -0.691 -0.222 -0.268 -0.597 -1.208 -2.191 -0.536 -1.516 0.491 -0.097 0.227 0.801 -0.892 0.439 -0.112 1.218 0.012 0.214 -1.788 2.605 0.243 -1.451 0.208 0.076 -0.179 -0.159 0.271 -1.095 -0.369 -1.418 -0.902 -0.401 -1.183 -0.810 -0.067 0.144 -0.733 -1.804 1.075 0.592 0.034 1.089 -0.522 -0.803 0.051 0.005 1.350 -0.044 -0.932 -1.219 0.762 -0.889 -0.782 0.303 -0.068 -1.112 0.533 -0.795 -0.173 -1.354 -1.648 1.355 -0.517 -0.254 0.196 -0.667 0.794
-0.729 0.619 0.914 -1.659 0.100 1.629 -1.564 -1.590 -1.188 -0.974 -1.065 -0.230 -0.540 -1.516 -0.370 -0.209 -0.094 -0.553 -1.067 0.050 -0.885 -2.865 0.741 -1.264 -2.009 -2.151 -1.032 0.461 -0.789 -0.240 -1.752 0.946 -0.681 -0.611 0.663 0.638 0.397 0.878 1.339 -0.046 -0.626 1.102 -0.482 -1.112 -1.102 -1.420 1.523 0.867 0.588 -0.839 0.743 0.430 0.799 2.406 -1.009 -1.150 0.981 -1.478 -0.587 -0.725 -0.062 1.227 -1.402 -0.081 0.458 0.795 0.157 1.213 0.945 -0.344 -0.418 -0.304 -0.235 -0.814 0.923 -0.713 -0.272 0.124 0.397 -1.218 1.496 -0.826 -0.362 1.561 -0.547 -1.548 -0.173 1.455 -0.166 -0.832 -0.986 -0.368 0.384 0.399 0.182 0.249 0.735 0.092 0.472 0.036
0.026 0.411 -0.190 -0.760 -0.413 1.963 -1.695 -1.148 1.060 -0.688 -0.194 -0.942 0.625 1.514 -0.229 0.115 -1.509 0.570 0.463 1.104 -0.111 1.437 -1.175 0.244 -0.804 -0.544 0.694 0.140 -0.056 -0.304 -1.452 0.834 0.025 -1.755 0.498 -0.824 -0.729 0.984 0.465 1.758 -0.167 0.271 0.380 1.033 -1.357 -0.464 -0.820 -0.663 0.467 -1.250 -1.400 -0.563 -0.040 1.064 -0.365 0.030 0.006 -0.048 -0.770 1.608 1.151 -0.565 0.645 0.911 1.047 -0.820 1.016 -0.012 -0.618 -0.637 -1.299 -0.894 0.211 -0.249 0.215 -0.299 0.259 -0.405 -0.449 0.302 0.825 0.746 -1.280 1.793 -0.207 0.201 1.234 2.406 -0.249 -0.291 2.983 0.898 -0.571 -1.823 1.171 1.220 2.391 -0.866 1.486 0.305
-2.337 -0.474 -0.195 1.176 -0.245 -0.447 0.200 -0.985 -1.576 -0.263 0.961 -1.275 0.232 -0.111 0.733 -0.579 -1.050 0.642 0.701 0.658 -0.231 -0.408 0.084 0.610 1.114 0.781 0.827 0.266 0.562 0.814 -0.085 -1.164 -0.055 -0.622 0.303 0.570 0.384 1.031 -1.033 -0.923 -0.250 1.450 0.912 0.732 0.572 0.823 1.175 0.319 -1.084 0.840 0.309 0.522 -0.327 -0.941 0.447 0.425 1.973 0.128 1.171 1.417 2.221 0.198 0.077 -0.059 -0.362 -1.791 -0.892 -0.055 0.677 -0.816 0.836 -0.066 0.915 -0.925 0.670 -0.497 0.237 1.483 1.211 -0.513 0.231 0.494 2.103 -1.461 1.383 -1.407 -0.183 0.798 0.974 -0.524 -0.230 -1.132 0.411 -1.315 -0.042 -1.197 -0.411 0.117 -0.554 -0.841
0.541 -1.272 1.433 0.576 0.472 -0.856 1.956 0.994 -0.845 -1.015 0.081 1.346 -1.046 -0.706 0.249 0.503 -0.437 1.511 -0.043 -1.319 1.375 1.315 2.296 2.853 0.189 -0.385 -0.474 1.498 -0.897 -0.482 -1.415 -0.104 -0.554 0.028 -0.468 -1.045 -0.222 0.423 -1.605 -0.050 0.289 -0.590 -0.182 1.237 1.716 -0.384 2.221 0.146 0.823 -0.150 0.116 0.184 -0.416 1.495 1.477 1.847 0.734 -0.578 -1.601 1.261 0.636 -0.294 0.408 1.800 0.060 -1.273 1.833 -1.380 -0.707 -1.323 1.023 -0.569 -1.504 -0.027 1.433 0.683 0.920 1.202 -0.332 -0.413 -0.432 -0.640 -0.763 -0.150 0.077 -0.539 1.153 -0.666 0.470 0.707 -0.613 -1.561 1.581 -1.655 -0.636 0.289 -0.826 0.450 1.265 -0.359
-0.068 0.692 0.723 -1.142 -0.714 2.098 -1.822 -0.912 0.060 -0.232 0.744 0.709 0.322 0.477 1.563 0.142 0.412 0.004 0.325 -0.188 -1.476 1.651 -1.775 -0.026 -0.753 0.542 -0.069 -1.295 2.187 0.065 1.033 -0.576 1.063 1.150 0.082 1.590 -1.770 0.010 0.924 1.038 2.489 -1.118 -0.031 1.247 -1.621 0.260 0.944 0.290 -0.153 -0.523 2.035 1.632 -0.109 -1.002 -0.054 0.017 0.779 0.154 0.119 -0.045 1.415 0.278 1.192 0.325 -1.361 0.232 -0.759 -0.115 -1.047 -1.374 0.032 0.852 -0.019 1.339 0.813 0.502 0.738 0.287 -0.004 0.657 -0.430 0.347 -0.608 -0.415 -2.025 0.555 1.339 -0.359 0.272 0.231 1.138 -1.034 0.624 -0.636 -0.568 -0.626 0.297 -1.662 -0.546 -0.221
-1.046 -0.000 0.564 -0.372 1.509 -0.289 0.022 -0.490 0.671 -0.992 -1.111 1.074 -0.115 -1.662 2.250 -0.623 -0.388 -0.273 -0.246 0.473 -1.053 1.086 0.743 -1.162 1.083 -0.660 -0.986 -0.321 0.509 1.315 -0.713 -0.774 -0.495 0.407 0.152 -1.887 0.702 -0.816 1.297 -0.925 -1.400 -1.981 0.070 0.517 0.527 0.689 -0.463 1.316 -1.054 -1.495 -1.447 1.034 0.335 -0.796 -0.995 -0.247 -0.083 0.712 -0.683 -0.300 1.602 -1.175 -0.938 -0.518 0.251 1.120 1.487 -1.058 1.008 0.525 -0.280 -0.996 0.574 -1.457 0.446 0.280 -0.458 0.807 0.674 0.516 0.510 -0.071 -1.370 -0.094 -0.780 0.864 0.250 0.087 -0.190 0.122 0.358 -0.237 0.070 1.612 0.311 -1.628 -0.107 2.060 0.250 1.575
-1.735 -1.034 -0.329 -0.938 0.357 -0.095 0.398 -0.523 -0.198 0.112 -0.794 2.053 1.001 -1.844 0.387 -0.498 -0.274 -1.035 -1.927 -0.228 -0.137 0.920 0.325 -0.233 -0.222 1.881 2.578 0.624 0.871 0.448 -1.246 1.114 -0.811 -1.047 0.952 -0.289 0.463 -0.578 -0.620 1.465 -0.491 -1.557 -0.864 -0.179 -0.473 -0.590 -0.533 0.408 -1.462 0.051 1.188 -0.691 -1.135 -0.046 -0.627 -1.358 -0.190 1.678 -2.185 -0.138 -1.175 0.297 0.210 0.841 0.903 -0.857 -2.386 -0.263 1.563 -0.108 -0.464 -1.681 -1.091 0.163 0.892 0.334 0.242 0.352 0.214 -1.405 -0.344 -1.765 0.005 -0.789 0.081 0.537 0.735 -0.094 -0.873 0.417 -0.347 0.261 -1.893 -0.520 0.001 2.273 -0.292 0.120 -0.243 0.846
0.541 -1.134 -1.418 1.704 0.934 1.568 -1.487 0.426 -0.425 1.503 0.174 0.815 0.346 -1.189 0.764 -0.275 1.572 0.255 -0.074 0.949 -0.305 -0.592 2.585 -1.852 -1.165 -0.811 -0.250 1.019 1.323 -0.121 -0.573 0.805 0.213 -0.112 0.240 -2.194 0.166 -1.178 1.208 0.756 0.052 2.640 1.656 0.320 -0.886 -0.484 -1.187 0.259 0.025 0.502 0.816 0.215 -0.162 -0.463 0.420 0.233 -1.394 0.814 0.648 -0.468 -0.480 0.172 0.416 0.543 -0.460 0.042 -0.983 0.168 1.156 2.284 -0.338 -1.022 -0.649 -0.794 1.892 0.084 0.336 -0.953 -0.392 -0.575 0.757 -0.651 -0.980 0.684 -0.214 -0.287 0.438 -0.076 -0.434 -0.175 -1.705 1.217 1.027 1.375 1.143 -0.394 0.248 -3.337 -0.821 -0.340
-2.005 -0.520 0.232 1.363 -0.598 1.605 -0.633 1.175 0.641 -0.808 0.807 -0.039 0.636 0.298 -0.113 1.099 1.703 2.288 0.019 0.571 -1.156 -0.520 0.990 0.224 0.544 1.053 -0.918 -0.859 -0.827 -0.357 0.701 0.098 -0.056 0.999 -1.026 -0.983 1.627 1.064 -1.221 -1.027 1.524 -0.028 -0.228 0.025 0.891 0.105 -1.791 0.202 -1.263 -0.947 -0.514 -1.742 0.019 -0.109 0.001 -1.877 -0.313 0.405 1.608 -1.346 -0.255 0.833 -0.542 0.968 0.522 0.856 0.701 0.867 0.294 -1.149 -0.841 -1.197 0.436 -0.476 0.393 -1.909 0.023 -1.170 -0.360 -0.509 0.512 -0.091 -1.297 -1.579 1.077 -0.482 -0.459 -1.141 -0.443 -0.268 -1.013 -2.474 -1.135 -2.351 -0.242 0.198 -1.328 -0.476 -0.435 -1.272
-0.057 -0.921 0.184 0.285 0.216 -0.013 1.536 -0.184 1.173 -0.712 -0.054 1.654 -0.955 0.869 -0.053 -0.128 -0.730 -0.360 -0.505 -1.339 -0.635 1.138 -0.175 -0.447 0.236 -0.834 1.351 -1.567 0.540 -0.719 0.846 -0.908 -0.650 1.632 1.395 -0.447 -1.036 0.027 0.359 0.774 -1.417 0.670 0.925 -0.115 0.536 -0.572 0.093 1.084 -0.634 -0.250 0.818 0.449 -0.476 -1.589 -2.101 0.667 -0.781 -0.887 0.263 2.689 0.032 -0.302 0.179 -0.314 1.136 1.261 -1.261 -0.415 -0.099 -0.930 1.812 0.138 2.658 -1.703 0.062 0.274 -0.294 -0.188 0.701 1.070 0.644 2.129 -0.230 0.164 -0.282 0.208 1.049 -0.416 0.470 -1.033 -0.463 0.371 -1.061 1.803 -0.386 0.786 0.434 -1.573 -1.671 1.423
-0.050 0.995 -0.634 0.414 1.782 -1.348 -0.835 0.078 1.192 -0.438 1.157 -0.277 -0.592 0.984 1.273 0.153 -0.621 0.001 -1.303 2.940 -0.596 -1.989 -0.332 -0.085 0.516 -0.940 0.607 -1.366 0.337 0.503 0.202 1.980 1.158 0.890 0.698 0.242 -0.677 -0.009 -1.723 1.713 0.998 -0.709 -0.346 -2.174 -0.859 1.596 -0.435 -0.135 -0.757 0.980 0.272 -0.763 -0.001 0.572 0.421 0.165 0.784 -0.994 0.634 1.238 2.289 -3.035 0.449 -1.511 1.075 1.662 0.515 -0.007 0.703 -1.064 -2.614 -0.782 -0.536 0.436 0.097 0.106 -1.006 0.197 -1.068 -1.321 -1.216 0.086 1.224 -0.674 0.919 -0.023 1.553 0.280 0.491 -0.001 0.878 -0.636 -0.511 0.903 -0.502 -0.596 -0.569 -0.341 0.285 0.454
-1.256 0.491 0.417 -1.831 -0.070 -1.659 -0.850 -2.244 -1.119 0.530 -0.186 2.297 -0.312 0.760 -1.704 -0.769 -1.399 -0.689 -0.248 -0.114 0.533 -0.027 -0.659 0.792 0.498 -2.393 -1.092 0.147 1.270 0.177 0.992 -1.018 -0.391 -1.095 1.564 0.069 -1.118 -0.137 -0.571 -0.087 0.989 0.429 0.182 0.258 -0.081 0.634 -0.137 -1.238 -0.116 0.603 -0.476 -0.329 0.064 2.302 1.250 0.106 -0.907 0.076 0.654 -3.805 0.279 -0.612 -0.988 1.618 1.173 -1.030 -0.785 0.576 -0.627 0.169 0.623 0.552 0.642 -1.004 0.302 0.985 -0.818 0.267 0.557 -0.131 -1.784 0.126 -0.399 -0.493 -0.195 -0.447 1.507 -0.921 -0.804 -1.060 0.497 0.349 -1.122 -0.021 -0.581 0.350 -0.629 0.525 0.202 0.663
0.499 -0.646 -0.281 -0.757 0.408 1.347 -0.813 -1.278 -0.044 -0.131 -0.358 0.345 -1.807 -0.791 0.526 0.940 0.045 2.865 1.779 1.252 -0.095 0.535 -0.751 -0.461 -0.987 -1.677 -1.996 -0.200 -1.169 -0.363 0.642 -0.073 1.228 0.276 0.071 -0.455 -0.117 -1.767 -0.309 0.447 0.181 0.221 -0.701 -0.154 -1.131 -0.589 1.129 0.412 -0.154 -0.116 1.967 -1.363 1.094 1.360 -0.636 0.984 0.544 0.422 -1.608 -1.369 0.819 -0.167 2.316 0.205 2.780 -0.193 0.792 1.003 0.444 1.155 0.547 0.879 -1.686 -0.105 -0.416 -0.362 0.429 1.816 0.844 -0.191 1.126 -0.228 -1.460 -1.626 -0.005 1.776 -0.229 -1.026 -0.895 -0.503 -1.783 -0.397 -0.193 -0.650 0.720 0.707 0.082 0.581 0.481 -0.150
-0.347 0.541 1.042 -0.043 1.851 0.080 0.025 -0.469 0.128 0.235 0.613 0.136 -1.203 1.602 -0.271 -1.464 1.050 -0.357 -1.473 -2.128 -0.063 0.250 0.611 -0.520 -2.983 0.272 -1.005 -2.262 -1.173 1.591 0.564 0.117 -0.636 -0.141 -3.027 -0.657 -0.855 0.210 -0.921 0.706 0.033 -0.688 0.891 -0.638 -1.127 0.537 0.820 -1.512 -0.319 -0.342 -0.650 0.327 -1.148 1.362 -0.463 -0.060 -1.321 0.942 0.638 0.858 -0.612 -1.610 -0.015 0.833 0.334 1.402 -0.328 0.119 -0.622 -1.593 -0.115 -1.512 1.259 -0.661 2.110 -0.020 0.284 -0.831 2.869 0.099 -0.106 2.363 1.549 -1.795 0.272 0.747 0.851 -0.293 0.537 1.653 -1.100 1.136 -0.638 -1.413 -0.705 -0.104 -0.054 0.375 -0.796 -1.577
-1.336 -1.177 -0.931 -1.804 -1.029 0.221 -1.176 0.254 0.592 -0.142 1.116 -0.636 0.054 0.440 1.299 0.083 0.406 -1.752 -0.840 -1.129 2.791 -1.118 0.545 -0.398 -0.622 0.316 -0.120 0.003 -0.161 0.390 -1.583 -1.323 -2.237 -0.672 -0.924 0.680 -0.438 -0.490 -0.431 0.741 0.085 0.104 1.622 0.584 -1.511 0.285 -0.621 0.444 0.907 0.376 0.363 -3.051 -1.168 -0.436 -0.804 -1.054 2.259 -1.743 1.155 2.298 2.393 0.127 0.851 -0.651 -0.137 0.895 -0.279 -1.245 0.739 -1.508 -2.265 0.541 -0.042 -0.165 -0.781 1.348 -0.671 -0.928 -0.445 -0.518 0.713 -0.281 -0.663 0.427 0.785 0.083 1.755 0.291 -0.494 -0.765 -0.805 -1.388 0.555 -1.081 0.616 -1.263 -1.010 -0.356 0.734 1.275
1.395 3.163 0.683 2.058 0.511 -0.316 -0.027 0.671 1.537 -0.942 1.019 -0.763 0.462 0.869 -0.328 1.104 -0.882 -0.947 0.749 -0.676 -1.784 -0.719 1.846 -2.051 -1.995 1.157 -0.071 0.865 -0.329 -0.163 -0.918 0.599 0.469 -0.108 0.181 0.652 -0.967 0.528 -0.793 0.405 0.555 0.313 0.578 1.118 1.789 0.776 -0.878 -1.803 0.673 -0.951 -0.639 -0.033 0.170 0.052 2.249 -0.653 0.773 -1.464 -1.042 -0.302 -0.367 -0.642 1.619 0.181 -0.089 -0.320 1.044 -0.933 1.095 -1.642 0.485 0.673 -0.475 -1.277 0.512 1.159 -0.893 1.555 0.999 0.004 1.652 0.787 -0.211 0.377 0.855 -0.931 -1.865 -0.315 1.101 -1.651 -0.183 0.146 0.801 0.591 -0.913 1.231 1.432 -0.998 -1.257 -2.183
1.793 -0.772 2.553 -0.879 -0.506 -0.529 0.808 0.481 -0.567 0.708 -1.830 -0.127 1.032 0.404 -0.870 2.450 0.042 3.051 -0.742 1.763 -0.707 0.602 1.125 -0.455 0.563 0.846 0.645 0.918 0.309 -0.841 0.778 -1.539 -0.286 -0.804 -0.107 -2.361 0.617 -0.556 -1.534 -0.108 -2.345 0.230 -0.287 0.731 -0.473 -1.267 -0.647 -1.391 0.294 1.242 -1.069 0.035 -2.522 -0.861 -0.144 0.429 0.381 0.625 0.490 -0.920 -0.244 -0.501 0.700 0.681 0.743 1.611 -1.147 -1.584 -1.800 0.548 0.629 2.472 -0.186 1.049 -0.103 -0.432 -0.843 -1.290 1.132 0.031 -1.063 -0.585 -1.006 -0.771 2.120 1.579 -0.482 -0.475 -0.130 -1.410 -0.845 -0.425 -1.533 0.875 -0.556 1.478 -2.249 0.690 1.297 -0.233
0.748 -0.681 0.569 -0.089 0.083 -0.069 0.322 -0.300 -0.420 -0.403 0.179 -1.626 -0.166 0.918 0.169 1.062 -0.080 0.906 -0.322 0.979 -0.359 1.039 1.714 0.250 -0.459 -0.196 0.167 -0.460 0.950 0.458 0.088 0.259 0.582 -1.078 1.131 -0.107 1.326 -0.763 -0.227 -2.108 -0.599 1.398 -0.809 -2.448 -0.059 0.264 0.263 -0.121 0.663 0.590 -0.527 2.024 0.527 1.759 -1.189 1.510 1.601 -0.306 -0.150 0.903 1.622 1.192 -0.059 1.116 0.521 1.196 -0.613 0.501 -0.379 -1.190 -0.871 -0.502 0.170 1.296 1.410 2.371 -0.057 1.239 0.581 -0.633 -0.839 0.309 0.521 -0.562 0.085 -1.229 -0.762 -0.866 -0.182 0.018 -0.195 -1.002 1.123 1.631 0.037 -0.517 0.616 0.910 0.104 0.741
1.765 1.120 0.144 -0.107 -0.394 0.562 -0.894 0.808 -0.673 1.359 -1.401 -0.212 -0.581 -1.329 -0.251 0.800 0.220 -0.800 -1.122 2.551 0.151 0.117 0.790 1.014 -1.240 -0.342 0.961 -1.697 2.145 -1.652 -0.292 0.038 -0.368 0.067 -0.555 0.346 -0.151 0.681 0.030 -0.007 1.279 -2.288 -0.653 1.513 -0.740 -2.698 -0.903 -0.018 -1.232 -0.380 1.244 -1.002 1.570 0.965 1.110 -0.537 -0.422 1.197 -1.338 0.333 -1.022 -1.072 0.787 0.232 2.091 0.287 -0.408 -0.947 -1.992 -1.071 0.354 0.474 -0.193 -1.340 -1.743 3.146 2.753 -2.118 -1.523 0.111 0.621 1.399 -2.591 0.349 1.852 -0.105 -0.653 -1.038 -2.346 0.858 1.973 -1.479 0.100 1.754 0.633 1.368 0.036 -0.842 0.045 1.096
0.513 0.329 -0.073 0.121 1.176 -0.056 -0.155 1.781 1.374 -1.803 0.411 0.261 -0.704 0.609 1.919 0.308 -1.783 -1.202 -0.840 -0.093 -0.143 0.703 1.098 -0.177 -1.138 -1.392 1.405 -0.398 -0.589 0.202 -0.386 -0.628 -0.278 -0.887 -0.385 -1.358 1.265 -0.715 -1.198 1.206 -0.026 1.162 1.268 1.380 -0.864 -0.711 -0.174 -1.632 -1.185 1.254 -0.074 -0.299 0.962 -0.900 -1.255 1.031 1.092 -0.372 1.678 1.998 -0.889 -1.034 -0.267 -0.273 -0.817 -0.957 3.219 -2.744 0.356 -0.365 -1.225 -1.124 1.100 0.773 0.095 0.262 -0.764 0.690 -0.267 1.062 -1.197 -0.348 0.362 1.839 -0.977 -1.155 0.017 0.289 0.291 2.619 -0.138 0.312 0.027 -0.621 0.670 -0.980 -0.725 0.316 -0.115 -0.502
0.523 0.181 0.333 0.529 -1.721 -1.735 -0.354 -0.524 -0.185 -1.367 0.962 1.650 -0.261 0.156 -0.305 0.845 -1.061 0.489 0.733 -0.262 0.314 1.108 0.098 1.062 1.454 -0.825 -0.918 0.357 1.216 -0.382 -0.604 -1.209 -0.120 1.342 -0.128 0.081 -1.671 -0.509 -0.153 -0.784 -0.546 -0.688 0.516 0.774 0.260 1.041 -0.588 0.444 0.829 -0.887 0.660 0.174 0.044 -0.047 0.109 0.473 1.919 -0.515 -0.728 -0.144 0.235 0.035 1.214 0.056 -0.440 -0.673 0.536 0.111 0.425 0.220 -0.541 -0.774 -0.288 -0.156 0.861 0.279 -0.310 0.593 1.890 -0.532 -0.273 0.381 1.339 0.617 0.697 0.593 -0.461 0.816 0.667 -0.610 -0.649 -0.667 -1.114 -0.851 -0.237 -0.467 -1.260 -0.113 0.096 -1.290
-1.208 0.924 1.280 -2.901 1.929 -0.858 -0.219 0.069 1.111 -1.388 0.166 1.074 0.162 0.114 -0.794 1.339 -0.186 0.437 -1.711 -0.578 -1.899 0.489 -0.777 0.867 -1.317 -0.589 0.099 -0.476 1.260 0.991 -0.063 -0.757 -0.418 1.344 -0.710 -0.405 0.672 1.221 0.869 -0.771 -0.640 0.686 -0.817 0.021 0.808 1.299 0.439 1.086 -0.427 0.349 0.980 -0.933 1.747 1.091 -1.804 2.259 -0.685 0.360 0.779 -1.753 0.412 -1.035 1.074 -0.483 0.641 0.997 -1.191 1.383 -0.605 0.366 1.134 0.851 0.914 0.484 -1.521 0.171 -0.941 1.669 -2.573 0.567 -0.867 0.462 -0.382 -1.483 0.723 0.080 0.010 -0.895 -0.324 0.638 0.741 0.348 -0.368 0.338 -0.376 1.072 0.014 -0.809 -1.635 -0.518
1.600 0.665 1.123 0.703 0.851 -0.644 0.011 0.272 0.263 0.644 -1.231 0.752 1.491 -0.816 -0.516 1.913 -0.460 -0.429 0.706 2.186 -0.860 -1.411 1.808 -0.595 0.306 -0.939 0.334 1.098 1.145 1.028 -0.831 2.330 0.863 -0.399 2.863 1.214 1.704 -1.255 1.399 0.914 -0.271 0.889 0.106 0.739 0.222 -1.058 0.054 0.478 0.655 -1.337 -0.425 -0.709 -0.592 -1.361 -0.115 0.854 -1.584 0.411 0.917 0.218 1.200 -0.546 0.442 -1.846 1.753 -1.590 -1.066 0.181 0.149 0.281 0.226 -1.948 -0.522 -0.166 -0.540 2.348 0.037 1.319 -1.818 1.707 0.103 1.074 0.731 -0.034 2.232 2.305 -2.451 0.500 -0.357 0.587 0.638 1.852 -1.612 -0.283 -0.277 0.825 -0.498 -0.840 0.123 0.886
-0.078 -0.488 0.420 -0.698 -0.480 -0.512 0.383 -0.207 0.936 -0.296 0.334 0.290 -0.744 0.318 0.099 1.797 -0.267 -2.371 -1.394 -0.222 0.062 -0.003 -0.608 -0.782 -0.634 -0.948 0.195 -1.989 1.422 0.272 0.308 0.039 0.375 -0.032 -0.236 0.414 0.380 -0.087 0.141 -0.471 -0.822 -0.146 0.964 -0.676 -0.491 3.020 0.960 0.659 -0.809 -0.392 -0.251 0.363 0.029 0.417 1.080 -1.428 1.392 0.054 -0.424 0.880 -0.433 0.385 1.015 -1.913 0.338 -0.829 1.063 1.134 -1.018 -0.058 -0.568 0.525 -0.133 1.542 -1.275 0.010 2.078 0.306 0.358 -0.355 0.096 0.311 0.837 0.088 1.123 -2.033 -0.024 1.180 -1.543 -1.069 -0.844 0.317 -0.493 0.690 0.275 -1.664 0.028 0.044 1.178 -1.525
0.230 0.747 -0.289 1.914 0.595 -1.088 -0.066 -2.625 -0.215 -1.384 -1.041 1.813 -1.222 0.567 1.082 0.072 0.076 0.671 -1.190 -1.393 -1.076 2.672 0.011 -1.109 -0.247 1.408 -0.785 1.109 -0.583 -2.703 0.957 -0.102 0.063 -0.591 0.688 1.419 0.059 -0.031 -0.084 0.565 -2.113 -1.065 -1.812 -2.404 0.539 0.617 0.559 0.795 2.190 0.173 0.740 0.919 0.750 1.113 0.140 -0.939 0.634 1.099 -1.249 -1.167 0.799 -0.538 -1.192 0.087 -0.687 -0.356 -0.496 0.715 -1.144 0.852 1.225 0.496 0.151 1.178 -1.036 0.669 0.509 0.632 1.257 -1.941 -0.124 -0.816 1.083 -0.836 0.307 2.347 0.495 1.148 1.944 0.258 -0.520 -0.780 1.403 -0.741 0.979 -0.458 -0.256 -0.607 1.261 1.910
1.347 -1.253 0.681 -0.101 0.206 0.711 0.184 0.242 0.024 -0.529 -1.029 -1.144 1.067 0.405 -0.407 -0.253 -1.960 1.267 0.222 -0.427 -0.407 -0.247 -1.327 1.135 0.447 1.401 -0.444 0.349 0.410 0.054 0.403 0.358 -0.416 -0.216 1.731 0.506 -1.088 0.045 0.405 1.007 -0.392 0.185 -0.950 -0.574 -1.394 1.640 -0.791 0.113 -1.199 -0.638 1.317 0.371 1.869 0.754 -0.552 -0.567 -1.103 -0.217 1.272 -0.481 1.888 0.394 -2.818 0.234 0.167 1.481 0.628 1.601 0.347 1.750 -0.670 -1.637 0.038 -2.310 -2.168 1.072 -0.412 -0.335 0.520 -0.319 -0.981 2.223 0.396 -0.140 -0.070 -0.602 -0.607 0.461 0.102 -1.188 -1.449 -0.891 -0.139 0.134 -0.070 -0.879 -0.855 0.090 0.424 -2.286
0.615 0.293 0.744 -1.082 0.205 1.188 -0.565 -1.268 -0.317 -1.103 -1.516 -0.258 2.239 -0.973 0.736 -0.242 -0.699 -0.458 -0.704 -0.850 -1.832 1.540 -0.336 -0.797 -1.396 -0.467 -0.772 0.262 1.186 1.275 -1.079 -0.569 0.736 -1.155 -0.626 -0.226 -0.436 0.901 -0.757 -1.563 0.068 1.264 1.215 -0.395 0.087 1.015 0.638 -0.154 -1.714 -0.957 0.416 0.481 -1.262 -0.408 -0.258 -1.599 -1.310 0.086 -0.718 -1.171 -2.097 0.025 1.354 -0.030 -0.494 0.683 0.447 -1.592 -1.174 -0.361 -1.490 -0.712 0.979 0.251 -0.183 0.370 -1.198 1.099 1.010 0.081 -0.956 -0.532 -0.433 -0.745 -1.288 -0.828 -1.437 0.053 1.034 0.487 -0.255 0.932 0.139 1.473 0.388 -1.069 1.231 -0.204 -1.871 -1.831
0.776 1.799 0.429 0.844 0.524 -1.066 -0.376 -0.376 0.044 -0.697 0.808 -1.599 -1.550 -0.400 -0.375 1.357 0.850 -1.237 1.524 0.043 0.514 -1.811 -0.338 -0.105 -0.762 -2.037 1.539 0.940 0.569 0.074 1.084 1.112 -1.049 0.547 -0.901 -0.533 0.173 0.002 0.038 -0.815 0.082 -1.836 -1.522 -0.944 1.939 0.692 -0.092 0.446 0.629 -0.314 -1.038 -1.185 -1.223 -0.136 1.357 0.010 -0.663 -0.160 -0.047 1.545 1.278 1.652 -0.230 0.075 -0.370 -0.667 -1.508 1.732 0.663 1.387 0.112 0.548 -0.735 0.807 1.372 -0.337 0.788 -0.766 -0.001 -0.994 0.920 -0.215 -0.305 -1.707 -0.122 -1.640 -0.911 -0.823 0.313 0.453 0.034 0.271 -0.556 -2.007 0.002 0.085 0.836 -1.161 1.146 0.176
-0.470 -0.257 0.436 -1.693 0.606 0.626 1.472 -1.617 0.618 0.060 0.152 1.193 1.782 -2.471 0.920 0.346 0.819 -0.042 -0.353 0.027 -0.151 -1.793 0.785 1.147 -0.324 1.930 0.608 -0.755 0.414 -0.244 -0.774 -0.017 0.487 -1.220 -0.037 -0.125 -0.062 0.389 0.718 0.295 0.760 -2.230 -1.578 0.355 0.784 -1.603 0.746 0.038 -1.143 0.573 0.032 0.465 -0.447 -1.233 -0.736 -0.158 0.850 0.585 1.806 -1.241 -2.897 -0.235 1.511 0.604 0.508 0.931 -0.117 0.999 -1.126 -0.840 0.351 -0.860 0.335 0.449 0.398 0.113 0.994 -1.639 -0.834 0.884 1.025 -0.124 -0.460 0.083 -0.395 -0.004 -0.910 0.164 -0.212 0.509 0.345 -0.012 1.341 1.324 0.353 -1.091 1.252 -0.840 0.515 -1.177
1.626 -0.457 0.492 -1.752 -0.543 1.469 -0.513 -0.708 -1.673 0.370 0.208 0.545 1.951 -0.685 -1.192 -0.708 2.115 1.725 -0.102 0.764 -0.619 -0.592 -1.828 0.996 1.358 0.098 0.582 0.714 1.025 1.154 0.679 -1.188 1.509 -1.387 -0.639 0.999 0.385 0.104 -1.208 0.775 1.826 -1.155 0.619 0.037 -0.556 0.126 -1.426 -1.149 -1.266 0.804 -0.531 0.674 1.140 0.475 0.876 0.274 -0.190 -0.808 -1.008 0.343 -0.782 -0.664 -2.062 -1.054 0.866 -0.380 0.127 0.398 -0.368 -3.037 0.399 -1.063 -0.498 0.039 0.478 -0.008 0.062 -0.948 1.599 1.042 0.597 -0.822 -0.379 1.402 -0.889 1.113 -0.623 -0.159 -0.517 -0.457 -1.035 0.715 0.444 0.544 -2.913 1.359 0.880 0.794 1.892 -1.111
0.018 -1.618 0.727 0.520 1.493 0.503 -0.180 0.916 -0.286 -1.307 -1.666 -1.367 0.574 -0.554 0.654 0.940 -0.817 0.922 -0.761 -1.947 1.498 0.310 0.996 0.419 1.905 0.784 -0.071 -0.995 1.523 -0.495 -0.682 -1.327 0.011 -0.087 1.125 1.055 0.648 -0.170 -0.244 -1.304 1.111 0.208 -0.279 0.843 0.768 0.323 0.423 1.137 -0.035 -3.014 0.244 1.368 -0.938 0.859 0.360 -0.737 0.597 -1.597 1.118 0.789 1.795 -0.203 0.840 0.785 0.722 1.026 -1.644 0.338 1.104 -0.400 1.369 -1.701 -0.221 0.748 0.553 -0.899 1.413 1.119 0.537 -0.039 -0.115 -0.903 -2.047 -0.840 -0.776 1.178 0.061 1.047 1.397 -0.528 0.614 0.352 0.379 -0.265 0.197 0.683 -0.927 -2.758 0.884 0.769
1.531 -0.126 -1.278 1.022 -0.703 0.338 0.229 0.522 -0.535 0.943 -0.474 -0.144 1.445 -0.191 -0.652 1.502 1.289 0.028 -0.106 -1.161 0.536 1.012 -0.309 -1.084 1.182 -0.176 -0.574 0.004 -1.417 2.872 0.780 -0.301 -1.187 0.166 1.886 0.693 -1.030 -1.063 0.547 -1.132 0.465 -0.179 -1.052 0.613 -3.266 0.932 -0.807 0.258 -0.387 0.180 2.233 -0.388 1.546 0.587 -0.970 1.122 -0.269 -0.668 -0.826 1.487 -1.009 2.053 -0.097 -1.778 -1.604 -0.638 -0.196 -0.689 0.083 -0.693 0.592 -0.241 -1.091 -1.387 -0.838 1.014 1.068 -1.784 -0.114 -0.702 0.549 -1.604 -3.378 -1.397 -0.520 0.380 0.053 1.005 -0.610 1.010 -0.518 0.150 -0.221 -0.375 -1.020 -0.478 2.332 0.322 1.974 0.534
-0.016 0.527 -1.416 -0.224 1.741 -0.690 -0.051 0.566 1.135 -1.693 -0.938 -0.909 0.482 1.255 -0.474 0.698 -1.363 -1.241 -0.370 -0.390 -0.265 0.608 1.252 0.726 -0.045 0.910 0.615 -0.372 -0.117 0.073 1.671 -1.679 0.362 0.042 -1.356 -0.394 -0.146 0.086 -0.356 0.689 -1.493 -0.573 0.881 -1.185 -0.295 0.196 0.099 -1.002 -0.229 -0.103 0.071 -0.412 1.626 0.016 0.921 0.649 1.292 0.042 -0.212 -0.748 -0.037 0.775 0.236 0.234 0.331 -0.476 0.920 0.458 -0.290 -0.992 -0.376 0.447 0.457 1.257 0.760 0.138 -0.185 0.767 -1.211 0.313 0.868 -1.073 -0.259 2.008 0.828 1.225 -1.595 0.193 -0.971 1.552 -0.174 -1.590 -0.302 0.043 -0.427 0.320 0.322 -1.300 -1.035 -0.873
0.488 -1.240 0.275 0.524 -1.898 -0.126 -0.604 -1.353 0.318 -0.045 -0.561 0.814 0.900 -0.146 -0.251 0.002 0.144 -0.552 -1.509 -1.037 1.503 -1.280 0.660 -1.027 -0.950 0.496 -1.784 1.371 1.060 0.724 0.567 -0.534 -0.447 0.976 -0.167 0.300 -1.042 -0.544 0.272 0.247 0.987 -0.431 0.837 -1.307 -0.583 0.119 0.842 -0.449 0.575 0.054 -0.441 -1.161 0.608 -0.223 0.846 -0.145 1.185 -0.959 1.579 -1.504 0.268 -0.741 0.382 0.491 -0.508 -0.169 -0.071 2.049 1.023 -0.732 -0.819 -0.766 -0.570 0.917 -0.592 -0.731 -2.335 -0.189 -1.630 -0.496 -0.134 0.684 0.335 -1.167 -0.118 -1.012 -1.248 0.356 0.078 0.364 -0.381 1.269 1.814 -1.616 0.668 1.212 0.914 2.543 0.598 -1.601
-1.209 -1.123 0.076 0.511 -0.440 -1.519 -0.227 0.745 -0.703 -0.700 -0.656 0.106 -0.080 -2.165 1.169 1.001 0.198 -0.189 -1.018 -0.282 0.071 1.327 -2.657 2.033 0.533 2.521 -1.380 -0.740 0.348 0.136 -1.380 -0.252 0.678 1.527 -0.115 -0.996 -0.902 -0.727 0.243 -0.375 -0.328 1.564 0.881 -0.089 1.621 0.652 -0.699 1.135 -1.077 -0.892 -0.695 1.258 -0.900 0.161 -0.649 1.860 -0.623 -0.504 0.456 -0.140 -0.800 -0.636 0.727 -0.179 -0.287 1.255 0.158 -1.104 -1.164 0.045 -1.751 -0.653 0.274 -0.097 -0.223 0.944 0.317 -0.110 0.209 -2.190 -1.262 -1.569 -0.055 1.289 -1.116 -0.197 0.852 -0.460 0.639 -0.198 0.245 0.318 0.408 -1.195 -0.294 1.147 -1.207 0.840 0.046 -2.472
0.221 0.293 1.209 1.066 -0.614 -1.653 0.968 -1.555 0.093 -1.225 0.992 -0.686 -3.271 0.132 -1.219 0.523 -0.727 -1.139 1.144 -0.346 0.188 0.272 0.458 -0.458 1.295 -0.022 0.985 -0.191 -0.750 1.455 -0.019 -1.266 1.301 -0.801 1.484 -0.223 -0.076 -1.348 -0.881 -1.664 0.450 1.096 -0.606 -0.288 0.821 0.126 0.370 -0.419 3.186 -0.471 -0.687 0.272 1.613 -0.995 0.742 -0.646 -1.239 -0.280 0.349 0.244 -1.320 0.131 -2.049 0.741 -1.133 0.817 -0.802 -0.582 0.030 -0.476 -0.602 -0.822 -0.569 -0.503 0.966 -0.455 0.689 -0.926 0.620 1.112 -0.172 1.271 -1.263 -1.259 1.538 -0.647 0.007 0.465 -1.059 0.123 -1.142 -2.205 0.151 -0.752 -0.657 -2.119 -0.912 1.581 -0.122 -0.851
0.204 0.904 -0.026 -0.802 0.071 0.827 1.545 -0.439 0.557 -0.589 -0.822 -1.131 -0.446 -0.810 0.060 0.522 -1.188 -0.089 -1.037 1.918 -1.472 0.595 0.241 -0.896 -0.827 0.366 0.372 -0.934 0.903 -0.535 2.113 0.715 -0.337 0.486 1.283 1.150 -1.235 0.652 0.665 -0.349 -0.957 -0.756 0.302 -0.023 0.587 0.509 -0.029 2.470 -0.334 -0.707 1.086 -0.621 1.489 0.131 -0.545 0.038 0.719 -0.148 1.075 -0.016 0.011 1.418 -1.617 0.381 -0.281 -2.138 0.295 0.667 -0.403 -0.531 -0.804 -0.412 0.553 -0.030 0.948 -0.901 0.254 0.182 -0.374 -1.789 0.460 1.571 0.475 2.306 -0.669 -1.312 0.112 -0.413 0.537 -0.733 1.494 0.474 -0.235 -0.003 0.933 0.708 -0.894 -0.773 -0.220 -0.801
0.799 0.981 -1.728 -2.260 -0.175 2.392 -1.005 -0.432 -0.969 -0.018 1.284 -0.627 -2.886 1.670 -0.346 0.079 -0.269 -0.262 -0.213 -0.621 -0.255 0.905 -0.905 0.649 -0.193 0.456 -0.212 0.109 -1.143 0.083 0.274 -1.072 0.739 1.796 -1.506 -0.130 -1.683 1.046 0.194 -1.165 -1.635 -0.860 1.620 0.823 -0.240 0.856 1.976 1.317 -0.623 -0.240 -1.649 0.922 0.139 0.404 -0.328 1.512 -0.919 -1.816 0.561 -0.831 0.394 -0.164 -2.169 -2.506 0.016 0.226 0.530 -1.341 1.744 0.439 -0.118 0.304 -0.548 0.364 -0.754 -0.394 1.008 1.914 -0.166 -1.533 0.559 0.760 -1.231 1.088 0.970 1.101 -0.803 0.733 2.266 -1.695 -0.600 -1.339 1.881 1.040 0.022 1.419 -0.644 1.456 0.321 0.753
-0.887 -0.462 -2.202 -0.604 -2.583 1.012 0.145 -0.451 -1.521 -1.578 -1.688 -2.277 -0.027 0.876 -0.171 -0.574 1.323 -1.005 -0.496 0.585 1.707 1.647 -0.475 -0.677 -0.384 -0.090 1.364 -0.350 1.388 -0.499 2.731 0.352 1.471 1.182 -1.048 -0.088 -1.396 -2.603 -1.123 0.939 -0.202 -0.671 0.157 1.019 0.041 0.962 -0.644 -1.726 0.112 -0.897 -0.003 0.183 -0.770 1.319 -1.070 0.780 0.479 0.214 -0.419 1.166 -0.735 0.431 -0.728 2.373 1.420 1.505 -2.065 1.217 -0.440 0.001 0.824 -0.894 0.962 -0.539 0.888 -0.278 0.196 -2.487 -0.998 0.547 -0.415 -0.943 -1.008 -1.226 0.798 -0.357 -0.896 1.800 -0.859 -1.096 -1.324 0.786 -1.470 -0.413 0.059 -0.600 -0.769 0.156 -1.564 -0.691
-0.004 -0.997 0.503 0.534 1.011 0.789 -1.512 -1.185 -0.482 0.745 0.174 -0.259 1.330 -2.044 0.600 0.635 1.765 1.188 -0.708 -0.832 -0.530 0.651 -1.906 -0.360 -0.096 -1.126 -0.081 0.398 0.668 -0.605 0.097 0.340 1.403 -0.683 -0.947 1.962 0.839 0.132 -0.204 0.161 0.703 -0.689 -1.663 1.859 0.407 0.567 0.486 1.130 -0.514 0.410 -1.069 -1.303 0.227 1.432 1.356 1.050 0.421 -1.474 -0.077 -2.613 -0.335 0.387 0.132 -0.046 0.415 -0.167 -2.599 -0.222 -0.292 -1.345 0.288 -0.272 0.932 0.293 -0.707 1.089 0.620 -0.265 -0.426 0.960 0.536 2.206 0.145 -1.437 -1.462 0.852 -2.391 -0.050 -0.552 -1.723 -0.848 0.014 0.375 0.771 -0.475 1.486 1.796 -0.778 0.258 -0.543
-0.160 -1.092 0.217 -1.075 -0.325 -0.062 0.557 -0.195 0.636 -0.693 0.336 -1.853 0.044 1.160 0.223 -0.590 -0.469 0.648 -0.942 0.283 0.371 -0.565 1.459 -0.106 0.879 1.194 -0.826 -0.560 0.521 -0.555 -0.197 0.007 0.386 0.162 0.855 0.542 0.267 -0.977 -1.185 2.568 -0.704 1.136 -0.292 -0.551 0.810 -1.837 -0.077 0.472 -0.182 -1.668 -1.070 0.790 -0.302 0.720 1.150 -0.818 1.308 0.408 -0.670 -0.461 -0.708 -1.009 -0.363 -0.067 0.217 -0.287 0.425 0.337 0.241 0.883 -1.112 -0.626 -0.527 1.193 -1.743 -0.172 -0.850 0.420 -1.200 -1.041 -0.173 1.800 -1.404 0.690 1.171 0.391 0.178 -0.361 1.113 0.833 0.610 -1.077 -1.158 -0.403 -2.005 -0.993 -0.270 -1.238 0.339 -0.184
-1.542 -0.174 -0.521 -1.075 -1.533 0.777 -0.639 1.008 -0.495 1.267 1.234 1.458 1.372 1.065 -1.183 -0.530 -1.278 -1.943 -0.369 0.338 1.732 0.224 -0.084 -0.186 1.037 0.748 -0.004 0.614 -1.148 -0.834 -0.336 0.705 -2.433 0.921 0.771 0.083 0.585 -0.482 1.434 -0.230 -0.598 1.565 -0.406 -1.051 0.467 0.701 0.432 -0.033 0.446 -0.148 0.014 1.702 -0.360 -1.487 2.519 0.145 -1.192 0.601 0.356 0.281 0.522 0.501 0.045 -0.399 -0.579 -0.909 -0.256 -0.581 -0.052 2.506 -0.477 -0.723 2.507 -1.841 0.011 0.410 0.778 -2.316 0.702 1.102 -0.864 1.566 0.016 -2.018 -0.749 0.814 0.228 -0.505 0.161 -0.417 -3.200 -1.931 -0.995 0.023 -0.301 1.342 -0.773 -1.749 0.964 0.417
-0.664 -0.671 -0.875 1.546 -0.087 0.771 0.166 -1.056 0.514 -0.710 -0.731 0.211 1.568 -0.845 -1.015 1.576 1.643 -1.022 1.012 1.512 1.120 1.529 0.952 0.922 0.013 0.525 -0.959 0.576 -0.409 1.275 0.232 -0.648 -0.109 0.337 0.115 -0.836 0.787 -0.509 -0.013 -0.000 0.288 2.075 -0.614 -1.303 0.820 -0.402 -0.510 -0.712 1.249 -1.267 -1.761 -0.045 -0.172 0.698 -1.650 -2.410 -0.190 0.497 1.523 0.606 -1.703 -2.111 1.277 -0.397 -0.770 -0.675 0.811 0.201 0.378 -0.229 1.408 1.264 -1.356 0.073 -0.006 -0.489 1.080 1.014 -2.105 -1.769 -0.814 1.525 0.635 -1.340 -0.200 -0.039 -1.140 -0.643 -0.132 0.694 -0.134 -0.831 0.172 1.106 -0.846 2.118 -1.837 -0.666 0.603 1.943
-0.297 -0.353 -0.034 -0.561 -0.143 -0.273 -2.194 -0.692 1.259 -0.030 1.497 0.478 -1.144 -2.249 0.266 0.164 1.566 1.018 1.508 -0.491 0.542 -1.478 -0.237 1.937 0.093 0.315 0.255 0.046 0.075 2.165 1.084 -0.072 0.495 0.906 0.006 1.486 0.152 -0.030 0.799 1.025 -0.304 -0.427 2.001 -1.522 1.123 -0.282 -1.932 0.121 2.819 -0.005 0.386 1.228 0.129 0.115 -0.571 -0.093 -0.882 1.443 -1.659 0.972 0.378 0.175 1.077 -0.600 1.350 1.262 -2.462 0.911 -0.212 -1.640 0.775 -0.637 1.139 -2.346 -0.063 0.396 -0.680 1.094 -0.391 -0.337 -0.634 0.404 0.447 -0.617 -0.219 0.473 0.201 -0.090 -0.229 0.235 -0.436 -0.967 -0.606 -1.970 0.677 0.670 1.822 -0.252 -0.452 -0.974
0.325 2.006 -0.148 -0.563 0.117 0.538 -0.270 -2.048 -0.060 1.148 0.082 1.224 1.799 -0.402 -1.677 -1.437 -0.767 -1.858 -0.229 0.149 0.210 -0.843 -0.123 1.948 0.150 -0.921 0.213 -0.531 1.010 1.023 -1.817 -0.774 0.387 2.520 1.672 -0.181 -0.744 -1.410 -0.658 0.264 -0.335 -0.622 -1.221 1.720 -0.684 -1.770 0.146 -0.414 0.281 1.007 -0.409 -0.273 -0.034 0.689 1.714 0.319 -2.432 0.392 0.187 0.211 0.911 0.383 -0.691 0.552 0.224 0.344 -0.334 0.849 -0.926 0.321 0.577 -0.998 -0.253 0.209 0.058 1.232 -0.597 -0.326 0.326 -0.560 0.225 1.669 -0.306 0.332 -0.377 0.805 -0.302 -0.190 -0.690 -0.648 1.196 1.351 0.413 -0.058 -2.380 -0.648 -0.409 -0.253 -0.479 0.466
0.992 -0.826 -1.781 -1.002 1.853 -2.509 -0.134 -1.873 -0.797 2.979 -1.500 -0.728 0.673 1.244 -0.503 -0.046 0.547 -0.443 -1.001 0.918 -1.181 -1.895 1.027 -0.267 0.610 -0.060 -0.323 0.317 -2.482 1.502 -0.572 0.779 0.018 0.086 -0.771 0.699 -0.344 -0.605 -1.268 0.814 0.357 0.478 -0.016 0.087 -0.743 -2.184 -0.443 -0.646 -0.322 -0.965 -1.327 0.791 0.961 -0.172 1.976 -0.337 -0.728 0.293 0.675 -1.415 -0.988 1.815 -0.843 0.186 -1.316 -0.354 -2.670 0.163 0.096 0.224 0.092 0.186 -0.515 0.195 1.431 0.273 -0.387 0.581 1.162 -0.327 1.121 1.345 -1.073 0.270 1.212 -0.101 0.058 -0.846 -0.641 1.349 -0.263 -1.040 0.791 0.396 0.085 0.360 -1.003 -0.020 -1.824 0.480
-1.693 0.648 0.491 -0.852 -2.744 -1.148 -2.436 -0.631 -0.187 0.294 -0.534 1.711 1.164 1.247 -1.748 1.416 -1.200 -0.216 0.173 0.756 -0.418 1.271 -0.719 -0.198 -0.515 -0.233 1.975 0.785 -0.442 2.180 0.772 -0.869 -1.299 0.107 -0.451 0.594 0.608 -0.586 -0.208 0.468 0.900 -0.476 0.582 -0.217 0.087 0.525 0.049 -0.013 -0.139 -0.343 -0.666 0.672 -0.438 1.021 -1.276 -0.399 -1.662 0.073 0.432 0.805 -0.679 1.340 0.999 -0.172 -0.229 -0.041 0.087 0.373 2.672 -0.457 0.665 0.383 1.444 0.999 0.312 -1.964 0.597 0.650 -1.162 0.511 1.377 -0.429 0.415 0.783 0.600 -0.729 -1.954 -1.682 0.721 0.797 -0.680 -0.440 0.394 0.119 -0.272 -1.002 0.472 -0.719 0.300 0.350
0.914 0.053 -1.123 0.348 1.146 0.583 0.389 -0.444 0.650 2.212 -0.324 -1.325 -0.126 -0.309 -0.881 -1.447 0.380 0.141 -0.377 0.716 -1.941 0.337 1.166 -0.018 1.253 0.344 0.337 1.021 -0.502 0.994 -1.565 0.733 0.588 0.764 -0.245 -1.449 -1.212 -0.219 -0.830 -0.324 0.953 -0.975 1.662 -2.036 -1.536 1.900 -1.801 -2.100 -0.561 0.103 0.583 0.582 0.605 0.477 -1.782 0.329 1.839 -0.779 -0.250 -0.019 -0.060 -0.449 -0.660 -0.677 1.227 1.063 -0.712 -1.113 1.082 3.220 -1.241 -0.093 0.068 -1.543 -0.301 0.531 -1.141 -0.652 0.747 -0.933 0.705 -0.368 -0.125 -1.295 1.033 -0.309 1.437 0.366 2.258 0.246 -1.445 0.154 -1.358 0.719 0.344 0.868 0.240 -0.544 -0.684 -0.528
1.267 1.781 -1.677 0.349 -0.405 0.281 0.611 0.531 0.261 1.122 0.245 -1.588 -0.224 0.253 1.391 -0.150 -0.324 -0.789 -1.115 0.921 -1.549 1.445 0.798 -0.157 -0.350 0.899 1.648 -0.077 -0.835 1.364 -0.332 -1.604 0.798 2.277 -0.827 0.654 0.434 -1.384 0.070 -0.275 -0.161 -1.429 -0.166 -0.942 -0.324 1.570 -0.166 -0.723 1.600 0.062 -1.466 -0.854 0.062 -2.450 -1.417 0.136 0.228 0.756 -0.981 -0.593 1.586 0.498 -0.954 0.039 -0.913 -1.400 -1.943 -0.261 0.543 -0.848 -0.381 -1.209 -0.364 2.363 1.205 -0.739 0.384 -0.320 -0.067 0.600 -0.369 0.456 -0.364 -0.700 -0.595 -0.326 0.958 -0.873 1.481 -0.238 -1.611 -0.755 0.580 0.182 -0.015 0.997 0.807 0.890 -2.342 0.648
-1.443 -0.218 -1.633 1.020 -0.138 0.179 -0.456 0.774 -0.081 -0.517 -1.121 0.170 0.330 1.281 -0.346 0.074 -0.462 1.095 -0.488 -0.429 0.571 0.248 -0.508 0.653 0.149 -0.004 -0.449 -1.464 0.578 -1.272 2.093 -1.023 1.974 0.766 -0.174 -0.038 1.432 0.044 0.056 -0.601 -1.408 -3.373 0.243 -1.287 -0.536 1.027 1.306 -0.361 1.391 -0.639 0.514 0.297 2.044 -0.258 -0.152 -0.681 -0.268 0.083 0.736 -0.767 -0.681 1.554 0.800 0.024 0.508 -0.329 -0.873 0.875 -0.245 0.040 0.074 -0.301 -0.673 0.934 -1.652 0.043 -0.442 -0.487 0.355 0.890 0.420 1.693 0.704 0.986 -1.343 0.800 0.480 -0.098 -0.179 0.115 -1.093 -1.342 -0.102 0.090 -0.249 0.209 -0.985 -0.420 0.086 0.073
0.043 -0.277 0.060 -0.692 0.781 0.078 -1.681 0.085 -0.257 0.389 -0.352 1.167 0.284 0.577 0.476 0.753 1.257 0.928 -0.572 -0.753 -0.287 -1.640 -0.635 -0.127 0.338 -0.826 1.960 -0.403 -0.755 -0.408 0.424 -0.910 0.672 0.019 0.118 1.555 0.211 -0.705 -0.738 -0.078 -0.837 0.748 -0.246 0.228 -0.405 -2.618 -1.956 1.767 -1.174 0.556 -1.440 0.222 -0.759 -1.115 -0.513 0.545 -0.440 1.400 -2.183 -1.385 -0.503 -1.039 -0.141 -0.267 -0.935 0.738 0.350 0.201 0.142 -1.010 -1.215 -0.601 0.025 0.743 0.629 0.093 0.730 0.372 -0.256 -0.051 -0.197 -1.046 -0.594 -0.647 -0.166 -0.376 1.681 -0.064 -0.043 -0.523 0.217 1.194 -0.507 0.899 -1.203 -1.088 -0.268 -1.020 0.979 -0.608
1.165 0.526 -1.252 -0.407 -0.992 0.178 0.422 0.476 0.010 1.096 0.973 1.057 0.392 1.472 -0.662 1.375 -0.138 -0.865 -0.451 -0.156 1.089 -2.327 -1.020 2.266 -2.429 -0.427 -0.847 -1.103 -1.109 0.331 -0.465 0.394 -0.379 0.301 0.291 -3.041 0.770 -0.185 0.534 0.608 0.102 -0.330 -0.305 1.000 -0.387 0.113 0.537 2.242 -1.919 0.063 0.587 1.607 -1.469 1.324 0.428 -0.532 0.213 0.126 -0.948 -0.097 1.035 0.568 -2.213 -0.263 1.199 0.199 0.567 0.674 -0.254 -0.359 0.978 1.881 1.123 -1.323 -0.617 -0.163 0.490 1.406 -0.443 1.032 -0.847 0.233 1.983 0.106 1.396 0.634 0.091 -0.618 0.122 0.667 0.576 -0.672 0.133 -1.696 0.222 -2.745 0.408 0.194 0.559 -1.907
-0.007 1.516 -0.550 0.419 1.109 -1.084 0.963 1.319 0.824 0.158 -1.519 0.437 1.569 -0.184 -0.454 0.895 0.147 -0.222 0.272 1.563 0.835 0.441 0.772 0.381 -0.484 1.701 -0.594 -1.844 1.239 -1.235 -1.606 -1.838 0.785 0.991 -0.170 -0.562 1.615 0.688 0.413 -0.874 0.844 -0.615 -0.621 0.491 1.916 -0.343 -1.099 0.642 -0.182 -0.288 -0.027 0.753 -0.274 -0.889 -0.595 0.124 -0.599 -0.058 0.298 -0.087 0.490 -0.802 0.524 0.320 -1.309 1.013 0.597 -0.879 -1.255 1.131 -1.150 1.186 -0.435 -0.248 0.322 -1.724 0.286 1.077 0.451 0.893 1.173 -0.174 -1.972 -0.751 -0.764 -0.887 -0.832 0.660 0.873 0.412 -0.238 -0.953 0.848 -1.446 0.821 -0.287 1.738 -0.185 -0.408 0.185
-0.712 -1.074 0.890 0.561 -0.853 -0.440 1.452 -2.048 1.904 -0.424 -0.074 0.486 -0.873 -0.598 0.520 0.395 1.902 -1.575 -0.190 -3.078 -0.457 0.545 -1.613 0.688 1.300 1.788 -0.144 0.207 1.143 0.764 -1.725 -0.966 0.961 -1.793 0.016 1.812 -1.416 1.320 -0.420 -2.076 -0.011 -0.531 0.631 0.600 0.334 1.318 0.522 -0.815 1.170 -0.773 1.907 -1.623 0.367 0.373 -1.281 0.361 -0.583 1.656 -0.003 -0.338 1.049 1.763 1.431 0.611 -1.122 0.356 0.712 -0.477 0.900 0.098 2.186 -0.883 2.226 0.908 -1.442 -2.207 -0.101 -2.255 -0.675 -0.915 0.474 1.904 -0.820 0.927 0.001 0.863 0.512 0.570 0.210 1.313 0.183 -0.961 0.077 0.988 0.123 0.778 -0.995 -1.300 0.196 0.751
-0.588 -0.988 -2.749 0.535 0.930 0.309 -0.331 -0.393 0.131 1.375 0.576 1.291 -0.860 -2.057 -0.201 0.860 -0.431 0.591 -0.378 -0.452 -1.020 0.262 0.164 1.999 0.723 -1.053 0.131 -1.345 0.146 0.553 -0.376 -0.144 -1.216 0.693 1.302 -1.417 0.028 0.556 -0.321 -0.307 -0.181 -0.547 -0.141 2.614 -1.149 0.720 1.287 0.694 -0.270 0.630 1.024 0.471 -1.036 -0.179 0.596 0.981 0.859 0.491 -0.219 -0.409 -0.367 0.418 0.279 -0.421 -1.475 -0.240 2.203 -0.623 -0.098 -0.747 0.752 -0.549 -0.339 -0.591 1.634 -0.006 -0.025 0.420 1.215 -2.786 1.040 0.173 1.391 -1.194 -0.406 1.685 0.743 0.449 -0.222 0.335 1.135 0.090 0.350 0.055 -1.348 -0.458 0.178 0.456 -0.886 0.006
-0.519 0.051 -0.691 0.557 0.003 0.194 1.484 -1.139 -1.081 0.315 2.102 -0.444 0.717 1.247 -1.484 -0.357 1.656 -0.040 -1.267 -0.548 -0.128 -0.903 0.771 -0.216 -0.005 -0.315 -2.385 -0.630 -0.414 1.063 -0.320 1.203 0.291 1.976 -0.864 0.184 -0.602 0.910 0.457 0.259 -0.912 1.320 1.002 1.601 0.522 0.656 -0.878 -1.758 0.966 0.803 -0.953 -0.853 0.663 0.650 0.717 -0.028 -1.564 -0.653 -0.740 -1.877 0.743 -0.407 0.670 1.067 -0.547 -1.164 -0.417 0.696 0.540 -0.412 0.257 0.314 0.337 1.395 1.397 1.245 -0.147 -2.288 0.518 0.736 -0.163 -1.050 -0.140 0.504 -0.527 1.596 1.606 0.089 0.114 -0.054 -0.422 -0.451 0.177 -0.968 1.013 -1.012 0.623 0.085 -2.952 1.406
0.002 -1.776 0.531 0.253 0.632 -0.406 1.850 -0.688 -0.488 -0.116 0.527 -0.514 -0.600 0.456 -1.194 0.794 1.058 1.082 -0.330 -0.436 -0.650 -0.825 -0.471 2.037 0.127 1.752 -0.096 -0.273 -2.017 -0.552 -1.280 -0.995 0.711 0.600 0.891 -0.967 0.732 -2.111 0.660 -0.224 -1.866 1.150 0.577 -1.489 0.921 0.218 0.932 -1.161 0.056 -0.683 1.184 0.862 -0.030 -0.430 1.991 -0.096 1.827 -0.545 -0.248 0.551 -0.587 -1.406 -0.730 -0.434 -0.128 0.519 -0.542 0.456 0.661 -0.796 0.366 -1.362 1.499 1.273 -0.867 -2.366 -0.843 -1.194 1.718 0.963 -0.380 0.732 0.874 -1.611 -0.665 -0.985 -0.787 0.887 -0.972 -1.054 -0.767 -0.279 0.376 0.901 -0.040 -0.217 -0.170 -0.727 -1.040 0.690
-0.737 1.245 0.923 0.064 -0.124 0.181 -0.674 -0.175 0.980 -1.257 1.347 -1.541 0.815 -0.944 -0.254 -1.351 -0.705 0.807 -0.458 -0.710 -1.398 -1.734 0.477 -0.772 -0.501 -0.147 1.434 0.034 -0.093 -0.877 -2.347 0.361 -1.487 0.775 -0.368 0.207 0.466 -0.941 0.063 -1.036 1.622 -0.037 0.251 0.722 1.562 -0.510 2.107 1.065 -0.236 0.659 0.696 -0.587 -1.043 0.186 -1.130 1.471 -2.317 -1.174 -0.205 -0.223 0.262 1.611 -0.811 0.261 -1.419 -0.688 1.737 -1.014 -1.005 0.843 -0.467 1.676 0.481 -0.745 0.080 0.648 -0.598 0.475 -0.755 0.011 0.414 -0.516 -0.102 -0.294 1.445 -0.300 -0.021 -0.050 0.263 0.047 0.225 -0.885 -0.080 -0.022 0.508 0.165 1.394 -1.611 0.314 1.586
0.558 0.412 -2.300 -0.212 -0.795 -0.184 0.017 -0.257 -0.206 -1.847 0.698 0.174 -1.202 0.925 -0.863 -0.586 1.814 0.677 0.012 1.107 0.843 -0.590 0.074 -0.576 1.077 0.558 0.136 -1.569 1.154 -0.642 0.700 -0.912 -0.726 0.168 0.967 -1.382 -1.615 -0.250 0.536 0.651 -1.974 1.250 0.325 0.432 -0.102 -0.191 -1.519 0.102 0.438 1.948 0.536 0.296 1.079 -1.694 -1.124 -0.620 -0.277 -0.273 -0.024 0.222 -1.429 0.973 -0.061 0.135 1.308 -0.205 -0.542 0.167 -1.611 -0.092 -1.564 -1.168 -1.150 -0.664 -1.091 0.620 -1.013 0.749 0.338 -1.123 -0.115 -0.306 0.681 -0.260 -0.869 0.400 -1.047 1.211 -1.781 0.376 0.953 0.036 -1.122 0.389 0.355 -1.042 -2.665 1.013 0.047 0.521
0.589 -0.476 -0.027 -1.131 0.264 -0.003 1.335 -0.375 -2.412 -1.713 -1.142 1.444 -0.653 -2.021 -0.573 0.508 -1.001 1.123 2.378 -1.427 1.348 1.590 0.284 -0.602 -1.411 0.609 -1.202 -0.928 -1.091 0.219 0.366 0.104 1.168 -0.784 -2.008 -0.782 1.690 -0.570 -0.571 1.379 0.318 -0.500 -1.583 0.141 1.480 -1.338 -0.865 1.413 -0.702 0.923 -0.005 -0.622 0.998 1.702 0.522 0.075 -0.528 -1.872 0.945 -0.345 -0.041 -0.714 -1.261 0.739 -0.937 -1.293 -1.188 -0.862 0.622 1.536 1.907 0.157 0.326 -0.165 0.206 0.022 0.022 0.024 -1.453 0.017 1.333 -2.530 -1.471 0.795 1.635 -2.915 -0.174 0.490 0.126 -0.476 -1.378 0.330 -0.764 2.269 -0.439 -0.572 -0.747 0.956 0.561 -0.299
1.639 -0.550 1.839 -2.460 1.003 1.404 0.734 -0.213 -0.718 -0.254 -0.201 -0.114 -0.078 0.525 -0.248 1.212 -1.833 0.678 -0.892 0.612 -0.553 -1.524 1.788 0.266 0.722 -1.164 -0.633 -1.247 1.247 -0.296 0.297 0.326 1.341 1.273 0.344 1.263 0.348 1.651 -2.578 0.966 0.181 -0.732 -0.828 -0.242 0.146 1.381 0.396 -0.436 0.603 0.416 -0.036 -0.597 -1.065 1.856 -1.397 -0.066 0.106 2.067 -0.380 -0.501 -0.964 -0.334 -1.577 -1.312 -1.573 -0.567 0.214 1.151 1.586 -1.958 -0.979 -1.602 0.580 -0.364 1.897 -1.395 -0.207 -0.785 1.772 -1.023 0.642 0.409 1.139 -2.159 -0.746 0.145 -0.047 0.045 -0.747 1.029 -0.145 1.239 0.867 -1.250 0.937 0.746 0.026 1.605 -0.002 -0.103
0.513 -0.095 0.800 0.168 -0.405 1.064 -0.965 -0.047 -1.712 0.200 -0.430 -1.628 -1.070 -1.247 -1.396 -0.418 -0.181 0.414 0.180 -0.631 -0.915 -0.043 -1.332 -0.332 -0.098 -1.232 0.791 0.311 -0.893 0.923 0.996 1.024 0.458 -0.170 0.158 0.574 -1.652 0.241 1.807 -0.195 0.760 -1.383 -0.631 -0.445 0.550 -0.076 -0.346 -0.970 0.723 -0.098 1.110 0.168 -0.821 -0.312 1.243 0.687 0.718 -1.943 1.779 -0.030 0.979 -0.510 -2.352 0.589 -0.819 0.834 -0.997 0.653 0.120 0.589 0.843 -0.935 1.148 1.005 0.184 1.492 0.381 0.354 1.115 1.336 -0.929 0.668 0.834 -2.674 -0.025 -2.167 -1.861 -0.416 -0.302 0.681 1.090 2.640 0.582 1.121 1.391 0.128 1.768 -1.090 -0.886 -0.061
1.185 -0.640 0.564 0.476 0.825 -0.060 -0.723 -0.936 1.039 1.512 1.041 1.185 0.542 0.804 -1.622 1.058 -1.486 0.233 -0.107 0.751 -1.860 -0.510 -0.879 0.096 -0.550 -1.545 -0.886 -0.824 0.491 -0.295 1.369 -0.508 2.766 -1.071 -2.341 -0.992 -0.943 0.329 0.669 -0.517 -1.005 -0.109 -0.040 -0.767 1.515 -0.032 -1.605 -0.103 -0.012 -1.501 0.082 0.082 -0.268 1.050 0.683 0.819 0.459 1.147 0.362 -0.022 -0.123 0.713 -0.500 1.462 0.228 1.509 -1.968 -0.101 -1.410 0.968 0.972 -1.007 1.824 -1.013 1.517 -0.933 0.024 0.275 -0.436 2.082 -0.007 -0.249 1.794 -0.893 0.283 -0.337 0.705 0.166 -0.612 0.385 -0.057 0.199 -0.135 1.167 -0.592 -0.129 1.472 1.415 -0.170 0.809
0.924 0.384 0.081 0.356 -0.376 1.794 -0.419 -1.751 0.473 -2.205 -0.137 -1.608 -0.150 0.354 0.297 -0.547 -0.507 -1.949 -1.312 0.136 -0.118 -0.579 -1.108 0.683 -1.417 -0.363 0.187 0.411 -0.041 0.177 -0.127 -0.888 -0.919 0.865 0.085 -0.280 1.243 -1.119 1.043 -0.705 1.521 0.310 0.774 -1.293 1.053 -0.413 -0.820 -0.384 0.739 -0.821 -0.992 -1.183 -0.413 0.235 -1.014 -0.230 0.986 0.372 -0.853 -0.029 1.907 0.620 -0.008 1.678 -0.013 -0.504 0.916 0.325 0.495 0.778 -1.404 0.397 1.277 -0.034 -0.222 -0.245 -0.493 -1.540 0.506 -1.031 -0.771 -0.174 -1.341 0.058 0.055 -0.769 -1.520 -0.411 -0.918 2.447 -0.298 -0.483 0.667 0.706 -0.006 -0.328 0.604 -0.153 0.802 1.264
0.802 0.303 -1.826 0.162 -1.073 -0.272 0.363 -0.344 0.882 1.065 -0.290 1.565 0.665 0.290 -0.945 1.094 2.714 0.421 -0.491 -0.886 -0.951 0.004 0.342 -1.392 -0.195 0.031 1.166 0.385 -0.842 0.125 -0.355 -0.631 0.586 0.592 0.548 1.064 0.494 0.378 2.001 1.038 1.402 1.357 -0.421 -0.599 -0.718 -0.639 -0.445 -1.132 0.036 -1.377 0.335 0.869 0.464 -0.993 -0.180 -0.224 -1.003 0.055 -0.034 -0.600 0.465 0.121 -0.234 0.484 2.454 -1.062 1.282 0.023 -0.171 -0.662 1.402 -0.228 0.536 -0.280 1.201 -0.919 -1.058 -0.876 -0.539 0.859 1.123 0.772 -0.492 -1.104 -2.078 1.854 -0.454 1.191 -0.092 -0.329 0.402 0.211 0.062 -0.589 0.711 0.030 -0.445 0.777 0.758 -0.620
1.204 0.634 0.363 -0.484 1.270 0.216 -0.242 -0.412 0.022 1.191 -0.873 0.359 -0.930 0.541 -0.144 1.786 2.200 -0.497 -0.235 2.157 -0.473 0.144 -0.119 -0.320 1.771 0.945 -1.867 0.024 -1.232 -0.949 0.083 2.263 -1.481 0.436 -1.019 -0.614 -0.461 -0.375 0.099 0.614 -0.600 -1.919 0.918 0.432 -0.768 1.283 1.384 -0.006 0.276 -0.728 0.158 -0.493 -0.049 0.633 0.428 1.391 -0.740 0.671 0.472 1.047 0.453 -0.813 1.844 0.605 0.968 -0.739 -0.439 2.000 0.411 -0.484 0.424 1.750 -0.414 -1.284 0.393 -1.338 -0.326 0.051 0.084 0.111 0.290 -0.870 -0.133 -0.806 -1.060 1.099 0.698 -1.445 -0.641 -1.695 -1.723 2.191 -1.020 -0.722 -1.007 0.521 0.617 -1.527 -1.239 -1.452
-0.664 -0.242 -0.579 0.440 0.583 1.359 0.848 -0.128 1.648 0.272 1.094 -0.264 -1.749 0.457 -0.576 1.079 1.096 -0.729 -1.305 1.346 0.210 -0.937 0.055 0.358 0.506 -0.638 0.944 2.235 -0.105 0.237 0.319 0.335 0.324 1.241 -1.727 -2.290 0.634 0.017 -0.422 -0.096 0.643 1.292 -0.361 1.172 0.828 -1.332 -0.467 0.146 2.013 -2.028 -0.617 0.950 0.454 -0.309 0.481 -1.523 0.952 0.115 0.456 0.309 -0.706 -1.213 -1.286 -1.304 0.016 -0.223 0.616 1.806 -1.847 1.083 -0.773 0.336 0.905 -2.248 -2.405 0.954 0.754 -1.484 -0.964 -0.361 -0.976 1.605 -0.644 0.901 1.902 -0.802 -1.721 -0.381 0.121 1.627 -0.274 0.590 -0.418 0.462 -0.761 -0.031 0.027 -1.827 -0.607 1.739
