Time: 30/03/2021 02:38:41
Batch size: 100
Epoch num: 11
Iteration per epoch: 120
Final loss: 1.65147
Train error rate: 0.24692
Test error rate: 0.25850
Hidden nodes:100 50 10


Initial weight:
# w1_0
0.349 -0.689 -1.182 -0.959 -0.131 -0.421 1.089 -0.743 0.480 0.332 0.693 0.775 -1.706 -0.004 0.823 2.000 0.221 0.377 0.589 0.766 -1.392 -0.151 0.746 -1.729 0.539 0.366 -1.589 0.018 0.464 -1.623 -0.924 1.500 1.576 1.277 -0.321 1.028 0.216 -1.029 -1.490 -0.155 -0.139 0.076 0.622 -0.724 -0.857 -0.688 2.613 0.579 -0.059 -0.442 0.709 -0.074 0.675 0.332 0.387 1.437 0.437 -0.135 0.009 -1.147 0.580 0.900 -0.251 0.890 -0.079 0.771 -0.373 0.881 0.667 -0.118 -1.609 0.847 -1.743 1.008 -0.861 0.181 -1.833 1.543 -0.287 0.240 1.608 2.225 0.146 0.274 1.300 -0.617 -0.346 -2.168 0.895 -0.616 -0.714 0.220 -0.179 0.733 0.188 -1.418 -0.081 0.179 -0.747 -0.072
-1.425 -0.635 -1.285 1.190 0.420 1.819 0.706 -0.948 0.297 -0.607 -0.343 1.538 1.765 -1.765 0.985 -0.782 -1.382 0.682 0.536 -0.480 0.306 -0.179 1.132 -0.496 0.693 -1.291 0.031 -0.977 -1.804 0.547 -1.816 0.155 0.885 -0.483 -1.581 -0.333 -0.682 -0.655 -1.832 1.191 0.630 -0.715 0.749 0.590 -0.134 -0.677 -0.967 -0.423 -0.102 -0.806 -0.447 0.514 0.474 1.877 0.106 -0.773 -0.175 -0.537 -0.521 0.314 0.261 -0.808 -0.234 -0.215 -0.341 -0.258 1.465 0.419 -1.037 -0.366 -0.087 0.994 0.698 0.162 -0.020 -0.939 0.008 -0.993 -0.240 0.377 0.247 1.380 1.660 -0.939 0.930 1.368 0.584 1.698 1.471 -0.409 -1.167 0.728 0.428 0.024 -1.036 -0.076 -0.061 1.572 -1.468 -1.009
0.546 -1.076 -1.948 -0.964 1.016 -0.664 0.039 0.505 0.692 2.108 -1.574 0.629 1.744 -0.640 -1.853 0.901 -0.867 0.962 -0.894 0.222 0.991 1.209 1.673 -1.200 -0.487 -0.826 -0.400 0.188 -1.848 -1.317 -0.050 0.010 0.526 -0.361 -1.254 1.108 0.298 1.431 0.612 0.665 0.039 0.235 0.260 0.632 -0.903 -0.716 -0.752 0.711 1.467 1.647 1.156 -0.598 1.342 -0.563 -0.490 -0.935 -1.934 -1.089 -1.561 -1.824 1.664 -1.665 0.318 0.113 -0.725 -0.811 -0.150 -0.930 0.303 -0.764 -2.458 0.034 -0.856 -0.840 -0.613 1.213 -0.576 -0.510 0.599 -1.030 0.200 0.025 1.072 0.022 0.298 -1.098 -0.287 -1.363 -1.057 0.485 -0.819 1.272 0.477 -0.633 -0.886 -0.759 0.095 0.023 -0.147 -1.673
1.074 1.468 -0.880 -1.378 -0.022 1.313 -0.081 -2.050 -0.313 -1.116 0.244 -0.314 0.163 0.813 0.769 -0.575 0.250 0.462 -0.617 -0.550 0.312 0.716 0.762 -0.220 0.368 -1.313 -0.430 -2.076 0.234 1.004 -0.784 -0.497 -1.741 0.046 -1.119 1.827 1.363 0.102 -2.229 -0.521 2.872 -0.203 -0.608 -0.573 0.372 -0.997 0.723 1.816 -0.484 -0.206 0.708 -1.047 1.103 -0.893 0.578 0.428 -1.425 -0.569 1.936 -0.199 -0.104 -2.120 -0.055 0.403 -0.567 1.257 0.475 1.213 -0.716 -1.390 -0.424 2.481 -0.133 -0.462 1.280 0.589 0.563 1.433 -0.338 2.232 -0.407 2.113 0.415 -0.235 0.258 1.472 -1.365 1.537 0.032 0.812 -0.599 -1.523 -0.069 -1.892 0.903 1.756 -1.585 0.353 -1.167 0.214
-1.194 -0.958 0.909 -0.426 -0.569 1.520 -1.469 -0.451 0.168 0.653 -0.653 1.263 0.751 -1.032 0.155 2.727 1.543 0.809 1.318 -0.063 -0.046 -0.732 -0.328 0.021 -0.615 0.966 -0.939 -0.725 1.703 0.744 0.211 0.157 0.580 0.298 -0.694 1.801 0.292 0.389 2.771 -1.344 1.180 0.685 0.759 -0.508 -0.429 -1.389 -1.178 -1.650 -0.580 0.673 0.123 0.517 -0.740 -0.588 1.288 1.101 -0.861 -1.318 0.176 0.992 -0.674 -1.335 1.391 0.015 1.294 0.177 -0.155 0.070 1.405 0.781 -1.316 0.920 -0.241 1.033 0.680 0.628 0.190 2.140 -0.214 0.976 -0.832 0.786 0.171 0.321 0.428 0.541 -0.736 -1.581 -0.133 -0.726 1.156 0.600 -1.383 0.391 2.192 -0.765 0.689 1.474 -0.422 -0.392
-0.459 0.508 1.782 1.686 -0.479 -0.256 0.165 0.048 -2.002 -1.566 -1.313 -0.877 -0.720 0.047 -0.130 1.683 0.205 0.205 -0.492 -0.485 0.522 -0.154 -0.123 0.744 1.008 0.352 -0.258 -0.964 0.524 -0.714 0.112 0.626 -0.119 -0.534 -0.256 -0.776 0.651 -1.556 0.121 -2.343 0.030 0.984 0.471 1.360 0.687 -0.832 -0.891 -1.261 -0.105 1.685 0.225 0.656 -1.336 0.790 -0.655 1.238 0.515 0.568 -0.332 2.088 1.319 0.965 -0.551 -1.387 -0.217 -0.985 -1.363 -0.687 -1.464 -2.092 -0.570 -1.167 -0.461 0.545 -1.071 -0.208 0.478 0.819 -0.952 -0.204 0.775 -0.104 -0.733 -0.569 -1.432 -0.406 1.689 0.811 1.601 -0.747 0.346 -0.731 0.510 -0.357 0.065 1.648 -1.823 -0.591 -1.449 0.621
-0.800 -1.137 -0.549 0.753 -0.942 1.823 -0.872 -0.564 0.978 1.049 1.672 -0.001 1.051 -0.759 0.733 -0.981 0.276 1.171 1.170 -0.988 -0.321 -0.903 0.691 0.074 0.890 -0.302 -0.672 -0.065 -0.975 -0.903 0.159 -0.369 1.732 -0.184 -0.095 -0.405 0.383 -2.367 -1.032 0.532 0.429 1.649 -0.067 -1.994 0.127 0.935 -0.960 0.041 1.250 0.623 -0.575 -0.636 -0.615 -0.183 -1.841 -0.980 -1.359 -0.017 0.616 -0.470 -0.780 0.685 -1.640 -1.937 0.099 1.295 -0.043 -1.532 -0.766 0.076 0.661 0.355 0.512 -0.555 -0.192 0.326 2.314 1.456 1.602 -0.707 0.029 0.710 -0.834 0.407 -0.791 -1.386 -1.383 0.910 1.289 -0.208 -1.807 -0.288 -0.163 0.351 -0.036 -0.952 -0.928 -0.588 1.506 0.348
0.209 0.634 0.574 0.330 0.314 1.674 0.798 1.366 -0.119 -2.341 -0.049 0.594 -0.188 -0.791 0.654 2.197 1.061 1.181 -0.118 -0.658 -1.058 -0.285 -1.139 1.321 0.976 1.559 0.331 1.845 0.400 0.171 -0.455 0.319 -0.088 1.886 0.941 1.546 1.573 0.375 0.618 0.082 -1.031 1.091 -0.324 0.403 1.519 0.245 1.370 0.012 -0.942 0.745 -0.341 0.674 0.068 -0.414 -0.098 0.205 -0.280 -1.467 -0.674 -1.314 -0.939 -0.134 -2.293 0.650 -0.423 1.092 -0.207 1.147 0.236 -0.495 1.013 -0.906 2.038 0.250 0.019 -0.706 0.346 1.072 0.223 -0.330 0.054 -0.672 -0.109 2.705 0.876 -0.867 0.214 -1.671 -0.147 -0.044 -1.280 1.701 0.365 -0.497 1.872 0.550 1.622 -0.173 0.921 -0.138
-0.651 -1.888 -1.260 -1.336 -0.773 0.771 0.184 -0.165 0.571 0.075 0.904 0.325 -1.095 -1.402 -0.163 1.109 0.794 0.220 -0.143 -0.423 0.016 -0.149 1.318 0.595 -0.120 -2.165 -0.934 -0.502 -0.274 -0.775 0.289 0.752 3.369 -0.174 -0.078 0.021 0.142 -0.736 -0.503 0.020 -0.665 2.792 0.714 -0.078 0.634 3.311 2.538 1.641 -0.260 1.087 -0.769 0.754 0.718 -0.346 0.185 1.090 -2.476 -1.696 0.231 -1.127 -0.567 -0.691 0.475 -0.298 0.530 -2.310 -1.084 -0.114 0.738 -1.192 -0.103 -0.089 -0.473 0.786 -1.256 -0.254 -1.218 -0.750 -0.634 -1.603 -0.225 0.623 0.597 -0.648 -0.452 -1.858 1.975 1.151 1.221 -0.026 0.158 1.927 -1.646 0.670 -1.342 1.713 -1.538 -0.193 0.376 0.366
0.174 -0.609 -0.760 0.080 0.635 1.459 2.248 0.536 -0.623 0.556 -0.938 -1.292 0.127 -0.561 1.064 1.281 -1.743 0.592 1.296 -0.781 -0.942 -0.475 0.698 -0.897 0.288 -0.312 1.836 -0.477 0.043 1.151 -0.088 -0.607 0.574 0.417 -0.154 -0.740 0.047 1.728 -0.793 2.983 0.307 0.261 2.195 1.339 1.979 0.671 0.197 0.474 -0.451 2.537 -1.369 0.153 0.219 -1.413 -1.056 0.374 1.381 -0.578 0.136 -0.492 -2.192 -0.285 -0.399 1.772 -0.897 -0.606 -0.586 0.650 -0.092 1.465 -1.247 0.848 -0.633 0.387 -1.903 -0.448 0.296 1.041 1.512 -2.010 -0.701 0.720 -0.762 -0.620 -0.608 0.894 -0.411 -0.490 1.271 -0.370 0.987 -0.501 0.643 0.105 -0.427 -1.553 -1.375 1.439 1.659 0.938
1.224 1.362 -0.813 -0.458 -1.955 1.222 -0.598 2.298 -0.553 -0.497 0.460 -0.838 0.003 -2.187 -0.642 0.066 -0.802 1.149 -0.638 0.372 -0.240 -1.031 -0.969 0.837 1.825 0.923 1.012 -0.727 0.385 -0.902 -0.014 0.803 -0.150 -0.944 0.532 0.108 -0.305 -0.162 0.709 0.250 1.195 0.479 -0.681 -0.933 -1.986 -0.571 0.343 -1.116 -1.371 -0.569 -0.237 -0.067 -0.278 0.477 2.183 0.158 -1.875 -0.435 -0.972 -0.566 0.681 -1.542 -0.907 1.654 -0.045 -0.200 -1.252 -1.708 -0.667 1.275 0.071 -0.034 -0.559 -0.669 -0.302 -0.442 0.927 0.363 1.055 -0.381 -0.132 0.124 0.735 0.803 -0.910 1.117 1.171 0.320 -1.155 0.716 0.733 -1.117 0.147 -0.106 -0.959 1.983 0.214 0.133 0.758 0.155
0.662 -1.526 -0.952 -0.285 0.099 0.466 1.096 0.039 2.897 -0.496 -0.839 1.631 -0.253 0.222 0.434 -0.004 0.725 -2.462 -1.357 0.616 -0.047 -0.068 1.207 -1.233 1.201 -1.158 0.000 -0.415 -1.314 -0.611 2.555 -2.733 0.199 -0.293 -1.089 -1.420 0.171 -1.613 -0.114 -1.331 0.666 0.323 0.379 0.027 0.364 -1.019 -1.118 -0.280 -0.406 -0.016 -0.334 -0.646 0.075 0.513 1.905 -1.407 2.584 0.660 -1.914 -0.049 1.760 -0.577 0.719 -1.171 0.391 -0.720 0.556 -0.591 -0.687 -0.199 1.659 0.162 -0.063 -1.569 -0.220 -0.051 -0.381 -1.135 1.339 0.980 0.591 0.104 0.261 -1.337 1.701 -1.221 -0.584 -1.279 -0.300 0.095 0.803 -1.520 -0.710 1.902 -0.836 -0.965 -0.705 -0.990 0.354 -0.150
1.860 0.044 1.358 0.785 -0.391 -1.049 0.183 -0.976 1.660 0.194 -0.456 0.461 -1.619 -0.426 1.416 0.485 0.348 0.744 -0.014 0.766 -1.728 1.051 -0.144 0.615 -2.014 1.229 -0.209 0.664 0.287 1.245 -0.435 -0.447 -1.867 -0.411 1.848 2.102 -0.590 -0.994 -1.665 -0.838 0.396 -0.241 0.692 1.448 0.230 -0.434 -1.586 -1.433 1.804 0.078 0.195 -0.238 0.541 0.155 0.461 -1.207 0.308 -1.697 -0.856 1.745 0.786 -0.952 -0.994 -0.098 1.314 1.322 0.873 -0.177 0.995 0.674 -1.852 0.086 1.779 -0.376 -1.238 1.013 0.539 -0.376 -0.150 2.812 1.167 1.007 0.753 0.113 -1.096 1.230 0.888 -0.295 0.075 0.753 0.959 0.173 -0.363 -0.819 -0.407 -0.746 0.486 -0.798 1.996 -1.517
0.385 0.170 0.796 -0.934 -0.962 0.368 1.190 0.244 0.483 -0.868 -0.163 1.620 1.625 2.087 0.313 -1.811 2.076 -1.586 -1.752 0.086 0.254 1.189 -0.975 0.986 -0.574 -1.070 -1.523 0.318 1.540 1.077 3.163 0.240 0.020 -1.527 -0.084 0.493 -0.440 1.690 0.334 1.081 -0.157 -0.286 -0.714 -0.623 -2.148 1.369 1.275 -0.727 0.468 0.753 0.015 0.669 -1.568 -0.983 0.201 -1.089 2.009 -2.118 -0.031 -0.307 0.339 -0.841 0.240 -0.762 0.128 -0.721 -1.008 -1.770 -0.322 -0.389 -1.383 0.238 -1.764 -0.210 1.541 0.559 0.387 -0.917 0.383 0.816 -0.546 0.959 -0.002 1.210 0.013 -0.668 0.110 -1.206 0.238 0.889 -1.699 -0.158 0.270 -0.270 0.117 0.514 0.417 0.786 0.955 -0.869
0.222 -0.609 -0.335 0.155 -0.455 -0.003 -0.990 -0.909 -0.870 1.092 -2.755 -1.496 -0.760 0.395 0.040 -0.100 -0.404 0.053 -1.000 -1.708 -1.457 0.822 0.096 -0.593 -0.521 2.205 0.554 -1.301 -0.445 -0.069 1.059 -1.275 0.583 0.472 0.885 -0.649 -0.530 -0.308 0.316 0.813 -1.122 -0.379 -0.890 1.173 -0.420 -0.038 -0.692 -0.163 0.617 -0.428 1.099 -0.406 1.252 0.643 -0.250 -1.193 -1.328 -0.830 0.886 -3.205 -1.879 0.977 0.590 -0.109 -0.596 1.829 0.005 0.411 0.801 1.201 -0.885 -0.159 -1.396 0.677 -0.755 0.810 0.911 -1.015 -0.628 -0.247 1.504 -0.220 -2.780 -0.890 1.185 0.462 0.283 -0.166 -1.701 0.487 0.440 1.207 0.071 0.167 0.394 0.358 -0.450 0.854 0.049 0.041
0.754 -1.075 -1.247 1.291 0.333 1.406 -2.237 0.626 -1.231 0.917 0.149 1.218 1.447 1.833 -0.606 -2.078 -0.717 0.050 1.653 -0.118 0.698 -0.533 -0.501 1.563 1.201 -1.327 -0.124 0.640 0.102 -0.626 0.078 -0.179 -0.361 0.143 1.523 0.718 -0.328 -1.052 0.361 1.164 -0.979 -1.069 -1.143 1.461 -0.910 -1.121 -0.190 0.612 -0.943 -0.392 0.277 0.404 0.423 -1.422 -0.146 -0.681 -0.495 0.136 1.110 0.467 -0.556 0.001 -1.088 1.127 -0.304 -1.426 0.329 -0.582 -0.647 -1.295 -1.122 0.678 0.182 0.222 0.302 0.106 0.295 -0.751 -0.963 -1.590 -0.756 -0.620 0.187 0.412 1.408 -0.442 0.343 -0.079 -0.351 0.755 0.729 0.060 -1.911 -1.330 0.966 0.560 2.242 1.149 0.466 0.516
-3.254 -0.492 1.073 -0.364 1.640 0.308 2.941 -1.513 0.739 0.100 0.339 -0.800 0.082 -0.981 -0.541 0.596 1.052 -0.288 0.630 0.048 0.049 1.640 -0.200 -0.113 1.832 -1.855 0.837 0.949 0.758 -0.762 -0.399 0.063 0.721 -2.091 0.491 0.882 1.250 -0.794 -0.104 -0.274 -1.162 0.358 -1.855 0.319 1.273 0.447 0.050 -0.300 1.141 -1.403 0.333 0.804 -1.197 -0.209 0.224 0.820 1.046 -1.137 -1.135 -0.965 -1.333 0.791 0.028 0.802 1.330 0.474 -0.043 0.514 0.511 1.244 1.801 -0.274 -1.985 1.020 1.061 -0.939 0.764 1.781 0.137 -0.908 0.706 -1.752 -0.066 1.569 -0.601 -0.082 0.343 0.016 0.966 0.275 -0.262 0.818 0.830 0.612 -0.536 1.196 -0.657 1.658 -0.651 0.910
-0.076 -0.454 -0.874 0.266 1.409 0.299 1.448 -0.884 0.513 -0.726 -0.987 -0.424 -0.085 2.041 1.764 -0.623 0.065 0.319 -0.335 -0.408 -0.566 0.910 0.645 1.017 0.482 0.609 0.079 -1.021 -0.451 -0.801 0.503 1.160 -0.276 0.904 0.153 0.568 0.584 0.220 -0.692 -0.191 -0.988 -0.554 1.346 -0.591 1.275 -0.464 0.202 -0.456 -0.060 -1.510 -1.029 0.381 -0.621 0.586 -0.596 0.851 0.291 0.056 -0.462 -0.185 0.551 -0.981 0.243 0.220 -0.841 -1.264 -0.437 -0.630 0.238 -2.042 0.765 0.525 0.777 0.889 -0.016 0.081 0.928 -0.213 0.084 -0.876 1.003 0.551 0.280 0.007 0.251 0.117 -0.362 1.178 0.609 -0.475 -0.800 0.203 -1.210 0.653 -1.856 -0.084 0.923 -0.130 0.464 0.335
-0.764 -0.877 0.552 -0.692 1.333 0.341 0.418 0.419 -2.006 -1.649 -1.662 0.606 0.632 -0.089 1.307 -0.382 -1.138 -1.829 0.175 1.101 -2.073 -0.446 0.847 -0.460 -0.561 0.810 1.358 -0.452 1.149 0.461 -0.266 -0.655 0.531 -1.477 0.393 -0.676 1.556 -0.478 0.698 -2.240 -1.312 -0.266 -1.920 -0.931 0.600 -1.743 -0.410 -0.153 -2.292 0.617 -0.332 0.063 -0.871 -1.310 -0.237 -0.068 -2.267 2.605 -1.261 0.208 2.130 -0.683 0.184 -0.844 1.555 -0.208 2.881 -0.274 0.392 -1.094 -1.047 1.084 1.286 0.942 1.166 -1.192 -0.548 -1.448 1.241 -0.535 -0.703 -1.655 0.256 0.556 -0.326 0.030 0.388 0.909 -1.128 -0.377 2.389 0.026 -0.944 0.552 -1.069 1.005 0.831 0.348 0.081 -0.322
1.202 -0.092 -1.661 -0.311 0.088 0.618 0.958 1.404 -0.300 0.283 -0.233 -0.499 -0.145 1.428 -0.894 -0.184 -2.098 1.012 -1.348 -1.548 1.180 1.182 0.558 -0.235 1.865 0.596 -1.534 0.626 1.040 -0.399 0.868 -2.195 -0.635 -0.426 1.582 3.524 0.926 0.312 -2.463 -0.030 -0.353 0.169 -1.097 0.071 0.807 -0.746 0.211 -0.801 -0.249 -1.527 -0.291 1.076 0.116 -1.553 1.189 0.301 1.632 -0.666 -0.338 -0.114 -1.268 -0.608 -0.112 1.179 -0.248 -0.573 0.011 -0.196 0.954 0.956 1.108 0.460 0.573 -1.240 -0.972 0.239 -0.151 -0.458 -0.924 -0.326 -3.367 -0.355 -1.028 -1.423 -0.623 -0.840 0.014 -0.321 0.162 0.865 -0.780 0.567 -0.797 -1.334 -1.066 0.248 -0.433 -0.144 0.721 0.507
0.665 -0.086 -0.836 1.931 1.366 1.095 -1.684 1.202 -0.603 -0.045 -1.060 0.070 -0.252 0.856 -0.027 -2.455 1.158 -0.066 -0.972 1.120 -0.399 0.261 -0.366 -0.995 0.469 -1.034 -0.926 0.001 0.567 1.239 -1.104 -1.565 -0.330 -2.271 -0.135 0.383 1.210 -1.350 1.235 0.223 -0.400 0.006 0.463 1.935 0.017 1.417 -1.659 0.685 -0.510 0.427 -0.541 0.790 -1.025 -0.928 -1.215 1.517 -0.611 -0.572 -0.088 0.483 -1.825 1.519 0.218 0.063 -0.264 0.151 -1.061 -2.056 1.855 1.362 0.270 0.775 -0.100 1.583 -0.496 -1.814 -1.639 1.273 -0.949 1.608 -0.706 -1.518 -0.844 1.412 -0.076 -0.957 0.508 -1.312 0.413 -1.071 0.406 1.095 0.887 -0.008 -0.590 0.593 1.016 -0.527 -0.302 -2.106
0.728 0.393 -1.184 1.277 -0.611 2.247 -1.003 -1.611 0.876 -0.474 -0.002 0.061 1.070 0.361 0.208 0.149 -0.290 0.786 -2.739 0.138 -0.121 0.088 1.278 -1.742 1.284 1.108 0.124 -0.426 -0.483 0.246 0.545 -0.319 0.912 -0.420 -0.337 1.677 0.097 -0.558 -0.983 -0.605 1.508 -0.248 -3.127 -0.130 -0.226 -1.612 0.882 -0.930 -0.158 -0.213 1.014 0.572 1.719 2.085 0.055 0.359 -0.442 3.736 0.892 -0.870 0.490 1.769 -2.036 -1.441 -0.742 -0.852 1.185 1.839 -1.515 -0.296 -0.065 -1.005 0.361 -0.107 0.613 1.374 0.012 0.676 -0.911 -0.155 0.068 -0.819 -1.466 -0.250 -0.015 0.701 -1.992 0.450 -0.425 0.612 1.160 0.968 0.367 0.557 -0.488 -0.827 -0.640 -2.676 1.528 -0.440
-1.650 -0.050 -0.271 -0.641 -0.727 -0.201 -1.285 0.987 0.836 -0.061 0.975 -1.174 -0.045 -0.723 0.206 1.767 -0.675 0.934 -0.625 0.592 -0.133 0.674 -0.386 -0.743 -0.315 -1.744 1.038 -0.623 -1.197 1.274 -1.833 -0.872 1.424 -0.386 -0.773 -0.996 0.358 -0.118 -0.100 -0.415 -2.064 -0.195 1.757 0.900 0.326 1.052 -1.823 0.287 1.453 0.505 -0.909 -1.002 -2.071 -0.446 0.113 0.126 0.464 0.279 -0.669 -0.089 -0.170 1.854 -0.626 0.706 1.109 0.995 0.761 0.870 -0.030 -0.092 -0.265 -1.174 -0.542 1.529 -1.201 -0.792 -0.263 0.738 0.557 -0.998 0.516 -0.542 -0.385 1.128 -0.268 -0.118 0.111 0.098 1.512 0.731 2.798 -0.027 -0.559 0.055 -0.218 0.030 0.884 -0.638 0.242 0.927
0.062 0.182 0.612 -0.666 0.932 -0.474 -1.431 -0.135 -1.828 0.223 -1.453 -0.214 -1.353 -1.497 0.670 0.377 0.804 -0.491 -1.838 -0.311 -1.383 -0.564 -0.676 0.287 -0.918 0.100 0.544 0.231 0.803 -0.067 0.167 1.112 -0.381 -0.393 -1.174 -1.141 -0.627 1.257 -0.104 0.186 1.570 -1.123 -1.216 0.541 1.684 0.001 1.080 -1.286 1.411 0.245 0.637 1.314 0.094 -0.798 -0.780 1.051 -0.993 0.282 0.648 0.356 -0.235 -1.306 -0.516 -1.613 -0.884 -1.383 -0.217 -0.380 -0.153 1.374 -1.077 -0.318 -1.184 0.030 0.393 1.174 1.356 1.058 -0.599 -0.071 0.148 1.436 1.690 -0.135 0.807 -0.920 -1.020 -2.793 0.367 -0.062 -0.463 -0.095 -0.021 1.369 -1.458 1.078 1.048 -1.155 -2.083 0.870
-2.257 -0.197 0.892 0.610 -1.463 -1.342 -0.030 -0.528 0.674 0.758 -1.494 1.230 0.524 -0.974 0.499 0.549 -0.231 -0.242 -1.060 0.494 0.474 0.388 2.154 1.006 0.266 -0.920 0.159 0.161 1.277 0.356 0.107 0.584 -1.291 -1.054 -2.050 0.137 -0.276 -0.127 -0.237 0.759 -1.055 1.280 0.640 -0.849 0.807 -0.470 -0.090 -1.155 0.327 0.631 1.135 0.006 0.572 -1.866 0.505 -0.791 -0.741 0.257 -0.914 1.565 1.442 -0.921 -0.279 0.500 0.201 -0.156 0.307 1.232 0.378 -0.072 1.547 -0.458 0.231 -0.055 0.075 -0.587 0.368 2.306 -0.482 -1.071 0.457 -0.479 -1.031 -0.617 -0.405 0.481 0.466 0.309 0.369 1.540 0.524 0.911 -0.702 -0.210 -0.479 -0.218 -0.040 -2.964 -0.416 -0.880
0.219 0.577 1.660 0.248 0.222 -0.191 0.032 1.241 1.928 -0.368 0.848 3.336 -1.630 -0.628 -1.310 0.960 -0.187 -1.263 0.821 -0.051 -0.235 -1.055 -2.609 -0.342 1.161 0.491 -1.023 -0.417 -0.317 0.000 0.788 -0.368 0.605 0.571 0.123 -0.661 1.790 0.768 -0.060 -0.170 -0.519 -1.092 -0.893 -0.741 0.072 -0.804 0.039 -0.459 -1.914 -0.304 -1.325 0.526 -0.322 1.981 0.781 1.387 0.145 0.172 0.129 -0.290 0.167 -1.081 1.285 0.452 -0.224 1.763 0.257 0.129 -1.442 0.734 0.090 1.193 -0.103 -0.957 0.961 -0.262 1.077 0.201 0.973 0.718 -0.982 -0.606 0.276 -0.619 -0.168 -1.780 -1.948 0.480 -0.877 -0.248 -1.210 0.778 -0.843 -0.880 -0.780 -0.370 -1.813 1.613 0.836 -0.176
1.757 0.530 0.600 -0.917 -0.092 -0.090 1.856 0.441 0.043 -0.952 0.983 0.428 -1.216 0.968 -0.307 1.540 -0.552 -0.498 -0.819 1.397 -1.353 0.920 0.905 0.801 -0.392 -0.280 -0.233 -0.030 -1.708 -0.231 -0.513 -1.612 0.304 0.802 -0.672 1.045 0.263 0.374 0.781 0.940 -1.548 -0.672 -0.990 -0.710 -0.662 1.557 -1.625 1.292 0.645 0.342 0.152 1.248 0.212 0.303 -1.023 0.917 1.988 0.614 -1.001 -0.143 1.340 0.670 -1.503 0.110 1.170 -0.671 0.758 -0.210 2.044 0.647 0.202 0.007 -0.553 0.658 -1.506 -1.151 0.597 0.674 -0.918 1.592 0.546 -0.271 -0.379 0.844 -1.100 0.675 0.106 -1.488 -0.639 -1.216 -0.372 -0.697 -0.225 -0.586 -0.977 -1.786 -0.871 -1.215 0.031 1.094
0.400 0.641 1.488 -0.393 -1.181 1.162 -0.576 1.217 1.616 -0.934 -1.470 0.676 1.638 0.284 0.095 3.036 0.421 0.412 1.307 0.056 -0.740 -1.060 2.166 -1.300 0.182 -0.804 -1.992 -0.555 0.732 -0.520 0.637 -0.285 0.165 1.905 0.892 -0.095 0.130 -0.091 -2.053 -1.951 -1.610 0.139 0.378 0.970 -0.443 -0.208 -0.867 -1.404 -0.770 -1.299 -0.979 -1.267 0.389 -0.087 -0.584 -1.461 -0.007 -0.564 -2.070 0.230 -0.250 -1.848 0.710 -0.680 1.036 0.340 0.275 0.034 0.629 -0.625 0.741 -0.245 -0.162 0.465 0.731 -2.147 -0.572 1.828 0.600 -0.884 -1.044 0.988 -0.704 2.542 0.136 1.786 0.465 0.233 1.410 -0.797 0.301 -0.078 0.822 -0.170 1.163 1.303 1.779 1.401 1.500 1.118
-1.844 0.523 -0.798 1.350 -0.028 1.546 -0.055 1.453 -0.280 0.638 0.054 -0.899 -1.180 -0.255 -1.180 0.476 0.626 0.370 1.034 -1.093 0.164 -0.965 -1.112 -0.314 0.374 0.498 0.488 0.527 0.997 -1.167 0.375 0.393 -0.100 -2.159 1.311 1.157 -0.301 0.790 0.855 -1.064 -0.249 -1.564 1.141 -0.076 2.753 0.714 0.437 -0.919 0.167 1.046 1.507 0.880 0.420 0.304 2.096 0.419 0.221 2.347 -1.014 0.380 0.179 2.637 -1.973 1.195 -1.627 1.380 0.367 0.769 0.400 -0.468 3.023 -2.668 -0.399 -0.665 -0.428 -0.909 0.023 -0.866 0.694 -1.094 0.690 -0.682 0.091 -0.104 0.992 -1.174 -0.894 0.165 -0.364 0.234 -0.313 0.937 -0.835 1.096 1.699 -0.065 -0.610 -0.487 -0.816 2.451
1.653 0.058 0.781 -0.928 0.485 -1.145 -0.813 2.018 0.658 -1.209 0.175 0.057 -0.112 0.674 -0.332 -2.072 0.206 -0.838 -0.912 -1.295 0.740 1.485 0.299 0.549 0.131 -0.229 -0.499 -0.899 0.393 -0.174 -1.265 -1.046 0.543 -0.532 -0.590 -0.347 -1.564 1.640 -0.770 0.205 -0.038 0.026 1.889 1.108 0.140 1.291 0.754 0.725 -0.532 -0.176 1.909 -0.982 1.314 -1.134 0.486 1.581 -0.711 0.070 0.870 -0.429 -1.542 1.108 0.994 1.156 -2.509 1.123 0.257 1.134 0.049 -1.921 -0.098 0.949 -0.115 0.081 -1.009 -0.629 -0.580 -0.308 -1.267 -0.131 -1.207 0.876 0.074 1.753 0.180 0.598 1.147 0.581 0.107 0.493 0.666 0.934 2.500 -0.367 0.005 1.611 -0.486 -0.344 0.154 0.022
0.329 0.236 1.308 -1.646 0.563 -0.011 0.627 -0.106 1.030 1.021 2.928 0.009 -0.415 1.199 0.273 -0.858 1.291 -0.484 0.812 -0.020 0.953 -0.029 -0.086 -0.909 0.394 0.622 0.554 -0.913 1.355 -0.531 0.928 -0.620 -0.696 0.081 -1.067 0.831 -1.251 0.486 -0.621 0.811 0.887 -1.425 1.314 -1.956 -2.151 -0.882 1.188 0.558 1.162 1.371 1.132 -0.244 1.444 1.324 0.299 -1.889 -1.678 1.440 1.644 -1.693 -0.703 -0.004 -0.582 -0.589 0.973 -0.741 -0.673 -0.429 1.947 -0.830 -1.927 0.518 -0.284 1.838 2.498 0.424 0.912 0.818 0.488 -0.445 -0.052 -1.527 0.023 -1.447 0.876 -0.123 0.922 0.403 -0.824 -0.539 -0.920 1.097 2.068 -0.821 0.077 -0.882 -1.235 -0.910 0.488 1.354
-0.037 -1.041 -0.137 1.981 0.038 0.166 -0.959 -1.578 -1.113 -0.636 0.673 -1.667 0.721 -0.510 -0.868 -1.455 -0.240 0.176 0.273 -0.419 -0.037 0.074 -0.423 -0.348 0.140 -0.432 1.027 -0.260 1.297 0.312 -0.391 2.393 0.588 0.422 -0.515 -1.291 -1.092 -1.003 1.334 -0.510 0.154 -0.046 -0.170 0.455 1.078 -0.298 -1.651 -0.841 -0.885 -0.862 0.321 2.046 -0.095 -1.171 0.692 -1.079 -0.610 -2.910 -0.298 -0.423 0.548 -0.628 0.417 -0.512 -1.350 -1.405 -0.262 1.246 0.110 1.465 -0.547 -0.093 0.322 0.327 -1.602 -0.440 0.591 -0.774 1.310 -1.166 1.790 0.919 0.146 -0.735 1.862 0.894 -0.158 -0.214 0.614 1.699 0.197 -0.763 -2.151 0.300 0.416 -0.356 -0.351 1.045 1.447 0.597
1.229 0.242 1.521 -0.590 -0.915 1.869 -0.601 0.655 -0.673 0.177 -0.460 -0.549 0.482 -0.120 0.774 0.130 -0.894 -0.282 -1.943 -1.532 -0.077 0.253 0.340 1.527 0.771 -1.175 0.912 0.128 -1.074 -1.366 1.797 -0.254 0.800 -0.186 1.354 -0.438 -1.919 -1.775 0.678 -0.097 1.014 -0.141 0.632 1.284 -0.014 -0.766 0.302 0.903 -0.360 -1.222 0.136 0.459 0.310 0.226 -1.273 0.228 -0.688 0.559 -0.776 1.047 -0.837 0.550 1.824 1.811 -1.045 -1.274 1.076 -2.455 -0.820 0.214 1.195 2.398 -0.486 1.006 -0.713 -0.465 -1.456 0.496 -0.698 0.759 -0.476 0.451 -0.526 0.082 0.445 1.748 -0.052 0.709 0.461 0.791 1.253 -0.288 -1.324 -1.276 -0.314 -0.398 0.159 -0.976 -1.317 -0.938
0.666 -0.228 -0.007 0.800 -0.179 -0.460 1.424 0.333 0.261 -1.703 1.296 -1.155 0.379 1.352 -1.097 1.380 0.957 0.086 -1.471 -0.518 -1.157 -0.279 0.532 -0.207 -1.999 -0.736 0.710 0.571 -1.937 -0.107 -0.356 1.614 -0.044 -0.096 -0.816 -0.347 0.031 0.239 -0.700 0.217 0.429 2.084 -1.205 -1.084 1.136 0.861 -1.244 2.642 -0.452 1.539 0.337 -0.078 -1.338 0.347 0.488 -0.821 -2.352 1.398 -1.480 -0.881 -1.342 -1.579 -0.468 -0.785 0.484 -1.123 -0.190 -0.206 -1.211 -0.727 -0.119 1.415 -0.415 -0.563 1.357 0.653 1.511 0.235 -2.217 0.189 0.684 -0.891 0.730 0.974 -0.684 0.093 -0.074 -1.008 -0.661 -0.635 0.704 -0.636 -0.245 -1.670 -0.863 0.007 -0.013 0.859 0.216 1.771
-1.138 0.216 0.209 0.229 0.817 -0.182 -0.081 -0.156 0.877 -0.138 0.175 0.208 -3.222 0.093 0.110 1.052 0.464 0.465 0.191 -1.135 0.069 -1.070 -1.510 0.394 1.763 0.119 0.013 -1.848 0.298 2.804 -1.674 -0.462 1.834 -0.245 0.874 0.830 0.519 -1.162 -1.753 -0.481 -0.116 -1.550 0.972 1.742 1.894 0.487 1.910 0.347 0.405 -0.988 0.967 0.573 -0.409 -0.102 -0.316 1.096 -0.693 -0.013 -0.063 -0.136 0.463 -1.713 -0.469 1.124 -0.908 0.146 -0.084 -1.183 -0.466 1.535 -0.059 -0.156 -0.329 -0.531 1.341 0.374 0.146 0.261 1.044 0.043 -0.808 0.152 -0.688 0.808 -2.324 0.119 1.538 0.764 -1.424 -0.884 0.976 -0.438 0.024 0.141 -2.047 2.299 -0.216 1.249 -0.882 1.335
-0.073 -1.157 -1.535 -1.539 -1.300 0.154 1.476 -0.839 -0.427 -0.775 -0.685 -1.825 -1.066 -0.409 0.099 1.192 -0.714 0.421 1.249 -1.062 0.007 -0.178 0.248 -0.060 -0.788 -0.224 0.341 0.580 0.433 1.204 -1.286 -1.073 2.289 0.948 -0.268 0.490 1.211 0.374 -0.188 -1.851 -1.717 -1.916 0.641 -0.680 0.077 -0.575 -1.039 -1.195 0.753 1.380 -1.069 -1.650 -0.700 -3.575 -1.238 1.187 0.599 -0.433 -1.934 -0.553 0.649 1.484 -0.670 1.391 -0.131 1.108 -0.303 1.446 1.184 -0.300 0.724 1.310 0.037 0.170 0.901 0.187 0.700 -0.133 1.052 1.962 -1.273 -0.423 1.165 1.417 1.138 -0.812 1.927 0.570 -0.555 -1.545 0.714 2.167 -0.853 -0.553 -1.909 0.718 0.109 1.355 -0.993 -0.010
-0.153 -0.961 0.433 0.017 -0.842 -0.859 -0.241 -0.058 -1.475 0.041 -0.726 1.067 -0.703 1.584 0.560 -1.304 1.230 0.862 1.761 0.690 -0.405 0.519 -2.758 -1.278 -0.511 -0.494 -0.889 -0.181 -0.905 0.269 1.853 1.639 0.919 -0.766 -0.137 -1.258 0.585 -0.641 0.932 -1.114 0.854 -0.034 -0.391 0.459 1.179 0.782 0.106 2.058 -0.929 -0.186 0.565 -0.198 0.517 -0.502 0.243 -0.370 0.634 -0.136 -0.145 0.737 0.402 1.321 -0.708 1.677 0.328 -0.359 0.274 -1.099 0.608 -1.090 0.832 0.959 -1.263 -1.787 -0.717 0.749 1.441 0.438 -0.087 -1.106 -0.432 0.109 0.018 0.866 0.489 -0.358 1.295 1.611 -1.738 -0.290 -1.758 -0.479 -0.893 2.222 1.551 -0.409 -0.721 0.588 0.509 -0.458
-0.933 0.677 -0.576 -0.427 -0.325 -2.513 0.181 -0.995 0.963 -0.154 0.967 0.694 -0.054 0.943 1.259 3.109 0.016 -1.331 0.247 -2.358 1.149 0.121 1.386 1.021 -0.923 1.474 -1.689 -0.197 0.881 0.302 -0.641 -0.362 0.802 -0.322 0.061 0.727 -1.731 2.123 1.319 0.067 0.984 -0.399 1.433 -0.614 -0.626 0.073 -0.175 1.694 1.510 -1.638 -1.117 -0.709 -0.625 0.047 -0.979 1.873 -0.238 1.629 -1.084 -0.099 2.205 1.253 1.659 -0.061 -1.023 -1.341 1.520 0.965 0.278 -1.985 0.447 -1.763 -1.136 -0.600 0.474 1.418 0.497 0.072 -2.819 -1.429 0.526 2.783 -0.782 -1.566 -0.316 -0.811 -0.449 0.422 1.469 -0.859 0.442 0.311 0.122 1.871 -0.508 -0.509 0.483 -0.569 0.703 0.410
0.404 -1.666 1.685 -0.722 0.369 -1.644 -1.168 0.506 1.955 -0.445 -0.260 0.550 -0.894 -0.866 -1.874 -0.802 0.152 -2.526 1.068 0.944 -0.445 -1.595 0.058 -0.537 0.381 -0.023 -1.082 0.788 -0.469 -1.126 0.236 0.960 -0.070 -1.331 0.607 -0.700 0.652 0.851 0.628 0.021 0.214 1.278 0.681 -1.682 0.169 0.741 -1.097 -0.267 -1.480 0.360 1.619 0.196 -0.631 -0.711 0.274 0.599 0.006 0.417 -1.457 0.448 0.943 0.057 -0.364 0.731 1.287 -0.904 -0.054 0.645 0.408 -0.166 -0.166 -0.625 0.390 0.905 -1.327 0.882 -0.471 -0.468 -1.096 0.585 0.412 1.174 1.547 1.391 -1.646 -0.901 0.427 -1.628 -1.253 0.731 -0.307 -0.197 -0.375 0.943 1.099 -0.684 0.666 -0.435 -1.209 1.710
3.019 1.405 -0.799 -0.608 0.338 -1.762 -0.086 0.681 -0.968 0.656 -0.558 -0.579 -0.830 -0.149 0.527 -0.508 0.818 0.420 -0.915 0.571 1.692 1.418 1.135 1.465 -0.821 -0.051 0.511 -1.938 -0.142 -0.170 -0.326 2.268 -0.232 0.016 -0.405 -0.521 0.341 1.592 0.673 -0.257 0.277 -0.139 -1.783 -0.094 0.020 0.548 0.193 0.199 0.039 -1.036 0.888 0.433 -0.887 -1.465 -1.275 -0.103 0.594 -0.483 0.508 -0.748 -0.990 0.149 -0.715 0.649 0.139 -1.586 -0.681 0.980 -0.598 1.262 -0.341 -1.185 -1.634 1.114 -0.444 0.241 0.308 0.492 -0.412 1.314 -0.092 -1.100 3.879 0.348 1.025 0.144 0.991 -0.672 -0.062 0.083 -0.182 -1.065 0.769 -0.611 -1.293 -0.841 -0.047 -0.262 1.189 -0.906
-0.817 0.913 -1.232 1.053 -0.533 0.011 0.096 -1.963 0.635 0.625 -0.487 -1.185 -0.050 0.799 0.387 -0.392 -0.185 -0.285 2.138 -0.625 1.254 -0.825 -0.431 -1.457 2.109 -0.903 0.936 -0.524 0.904 -0.501 0.018 -0.189 0.209 -1.294 0.354 0.402 1.094 -0.348 0.179 0.886 -0.389 -1.387 -0.011 -0.691 0.607 -0.326 0.230 2.418 0.367 -0.315 1.343 -1.768 -0.994 0.485 0.403 0.859 -0.889 -0.094 -0.337 -0.489 -0.424 -0.559 -1.410 -0.926 0.294 1.904 -1.107 0.016 -1.422 -0.747 -0.832 -0.179 1.933 -0.626 -0.007 -1.037 0.026 0.983 -1.188 0.355 -0.622 0.835 0.558 -0.129 0.665 1.480 0.118 -0.637 1.016 0.815 -0.298 -0.154 -0.765 1.997 -0.196 0.096 0.742 -1.696 0.604 0.153
-1.619 0.116 -0.481 -0.239 -0.305 -1.285 -0.180 0.535 -0.139 -1.316 0.739 0.800 0.430 1.182 -0.325 0.519 1.045 -2.064 0.602 -1.516 1.259 0.467 -0.210 1.573 -0.879 -0.162 0.210 -2.003 0.140 0.798 -1.086 0.687 0.630 0.822 -0.726 0.527 -2.126 -2.052 0.983 0.151 1.504 -0.351 1.002 1.196 -0.996 0.290 -0.143 -0.520 -0.635 0.233 -0.107 -0.477 0.242 -0.877 1.506 -0.476 -0.843 0.054 -0.308 0.854 2.500 0.258 -0.292 0.738 -1.687 0.712 1.763 1.901 -0.829 0.619 1.799 -0.017 -0.223 1.331 -0.066 -1.164 0.446 0.609 -0.633 -0.219 1.328 -1.430 -1.170 -0.971 0.514 -0.938 -0.530 -0.868 -1.744 -0.364 0.373 -0.305 0.516 -0.141 1.132 0.959 0.027 1.623 -0.636 1.651
1.104 0.167 0.212 -0.799 0.272 -0.559 -0.194 0.318 -0.182 -1.099 -0.577 -0.018 0.514 1.632 -0.022 1.276 0.628 -0.597 1.046 0.050 0.034 -0.079 -0.942 1.136 -1.078 0.819 0.147 -0.682 -0.902 -0.419 0.814 0.105 1.087 0.795 -0.297 -0.911 -1.561 -0.760 -0.536 -0.225 0.926 -0.157 -0.162 -0.089 -2.148 0.519 -0.786 0.027 -2.096 -0.998 0.064 0.284 -0.203 -2.287 0.225 -1.318 -0.709 -0.105 0.952 -1.393 0.576 0.976 -0.248 -0.478 -0.200 -0.278 0.657 -1.027 -1.173 -0.379 0.213 -0.590 -1.100 -1.836 -0.760 1.256 1.405 -0.569 1.311 0.245 2.037 -0.276 0.204 -0.616 -1.066 -0.717 -0.503 -0.416 -2.445 -1.165 0.350 0.107 0.526 -0.020 -0.029 0.083 0.984 -1.466 0.178 -1.146
-0.795 0.787 1.265 0.015 -0.185 -1.586 0.352 0.806 -2.670 0.483 -0.170 -0.963 -1.735 -0.052 0.471 -1.252 -0.386 1.191 -0.128 1.063 0.427 0.092 -2.008 -0.303 0.319 -0.058 -0.481 0.465 -1.169 0.287 1.461 0.233 -1.114 -0.595 0.196 -0.359 -1.225 -0.202 -1.538 1.098 2.549 -0.685 -0.644 0.084 -1.168 0.094 -1.379 -1.133 0.756 -1.109 0.373 1.264 -2.544 -0.587 -1.063 1.318 0.370 1.060 1.483 -0.691 -0.899 -0.811 1.445 -0.251 2.564 -0.246 -1.519 -0.180 0.514 0.790 -0.211 0.337 -1.584 0.983 -0.785 -0.266 0.100 0.259 0.213 -1.116 -1.499 -0.344 0.179 -0.819 0.593 -1.013 0.517 0.816 0.306 0.180 1.190 -0.475 -1.186 -0.251 1.156 -1.508 0.415 1.104 -0.491 0.031
0.147 0.524 -1.266 -0.061 -0.293 0.323 0.090 -1.436 -1.143 -0.514 0.668 -0.613 -0.312 -1.240 0.894 -0.289 0.026 2.489 0.293 0.479 1.547 -1.647 -0.041 -0.133 0.381 -1.382 -0.772 -0.180 -1.096 -0.033 -1.383 -1.999 -0.700 0.554 -0.756 -1.513 -0.533 -1.513 -0.338 1.205 0.657 -1.064 -0.974 -1.094 -0.948 3.372 0.302 -0.308 -1.503 -0.493 0.616 -1.648 0.776 0.912 0.134 1.600 0.364 -0.660 -1.334 0.564 1.025 -0.348 0.858 -0.970 0.999 -0.335 -0.570 0.347 -0.734 0.873 -0.990 1.561 -0.045 0.935 -0.834 1.497 -0.085 1.332 0.025 -0.970 1.480 -1.994 1.204 0.807 2.822 0.272 0.119 0.653 -0.020 0.177 2.672 -0.380 0.822 -0.387 0.097 -1.031 1.306 -1.674 0.070 0.842
-1.389 0.639 0.801 0.960 -1.473 -1.779 -0.522 1.201 1.451 0.807 -1.594 -0.673 0.690 0.250 0.178 -0.945 -1.059 0.884 -0.723 0.494 0.685 0.803 -0.368 0.998 -0.434 0.492 -0.537 -0.722 0.908 0.178 1.174 1.431 -0.423 0.304 -0.109 -0.420 0.138 -0.176 -1.778 -1.644 0.778 0.649 1.094 0.390 0.476 0.309 -0.094 -1.029 -1.369 -0.180 0.808 0.186 -0.685 0.768 0.166 -1.680 -1.330 -0.860 -0.015 0.448 0.814 1.199 -0.130 0.137 -2.186 -1.659 0.055 0.618 1.771 0.240 -1.128 -0.982 -1.009 -3.105 0.948 1.564 -0.549 1.977 -1.069 -0.183 -1.261 -1.958 -0.257 0.808 1.714 -0.489 0.855 0.121 0.785 0.219 -0.264 0.932 1.608 0.803 0.587 -0.627 0.717 -0.149 -1.009 -0.244
1.056 0.106 0.677 0.431 0.486 0.846 -0.324 -0.464 -0.339 0.810 1.001 1.533 -0.317 -0.609 0.123 -1.389 1.232 1.162 -2.355 -2.497 -0.486 0.067 0.040 -0.582 -0.429 0.988 1.328 1.504 0.780 0.638 -1.470 0.328 2.340 -0.684 1.020 1.097 1.064 -0.099 0.279 -0.672 -0.288 -1.435 -1.917 -1.253 -0.973 -0.407 -1.368 -1.938 -0.753 0.025 -1.930 0.002 -0.641 0.978 -1.370 -1.452 1.029 0.552 2.876 -2.281 -0.404 -1.114 -1.570 -0.803 -0.392 1.353 0.361 1.013 0.478 0.214 -0.868 1.754 1.373 0.925 -0.861 0.269 1.772 2.528 -1.897 0.338 0.827 0.178 0.827 0.912 1.034 -0.710 -0.042 1.462 -1.475 -0.923 -0.540 1.534 -1.223 1.736 0.082 -0.212 0.889 -1.046 0.865 0.158
-0.651 0.051 1.270 -0.272 0.634 -0.727 -0.265 -1.207 -0.300 -0.549 -1.343 0.095 -0.950 0.133 0.511 1.203 1.586 -0.715 -2.474 0.529 1.053 1.639 -0.137 -1.254 1.860 0.126 1.677 0.801 0.333 0.188 0.055 -1.343 0.289 -0.020 -1.060 0.369 0.538 0.714 0.345 0.091 1.292 -0.067 0.586 1.352 1.245 -0.488 0.045 0.052 -1.340 0.003 1.160 -1.899 -0.257 -1.297 1.046 -0.292 1.733 -0.466 -0.014 1.809 0.551 -1.102 1.464 -0.695 0.531 -1.248 1.554 -1.374 0.148 -0.111 2.216 0.761 1.082 0.056 0.325 0.009 -0.700 0.495 1.090 -0.547 -2.217 -1.883 -0.827 0.242 0.402 -0.800 0.975 0.230 -1.102 1.456 0.738 0.794 0.518 0.720 -1.496 -0.707 0.337 0.798 -1.244 1.054
-1.331 0.490 -0.674 0.429 -0.013 0.579 0.207 -0.214 0.076 -0.266 -0.719 -0.170 2.831 1.832 -0.635 2.521 -0.592 1.289 1.575 -1.846 -0.610 0.601 -0.106 -0.128 -0.935 -1.513 0.127 0.823 -2.095 0.139 -0.304 2.516 0.070 -0.771 -1.042 0.214 1.401 -0.673 0.579 1.408 0.845 0.109 -0.888 1.266 -0.284 -1.711 0.881 2.623 -0.052 -0.074 -0.251 -0.712 0.566 -1.338 0.142 -0.553 -0.591 0.981 0.053 -0.489 -1.304 -0.578 -2.092 0.673 -0.692 -2.789 -0.832 0.758 -0.432 -1.373 -1.963 0.171 1.024 -0.976 -0.332 0.370 0.084 1.597 -1.484 -1.713 -1.075 -2.420 -1.146 -1.079 -1.767 0.512 0.322 0.684 0.869 0.369 0.058 0.048 0.281 1.538 -0.470 0.651 0.197 -0.812 0.436 0.798
-1.093 0.334 -1.582 -1.266 1.942 -1.543 -1.636 0.887 -1.580 -0.762 0.543 -0.648 -0.813 1.045 -1.039 0.069 1.156 1.111 -1.417 1.792 -0.864 0.311 0.512 -0.473 0.645 0.688 -0.958 -0.489 0.598 -0.086 -0.096 -0.110 -0.678 0.631 0.747 0.807 -2.029 -0.214 -0.997 -0.678 0.121 1.266 0.964 0.487 -1.552 -0.366 1.204 -1.326 -0.520 0.068 -0.425 -1.226 1.304 0.689 0.752 0.852 -1.750 -0.351 -1.614 0.582 -1.930 0.358 -0.705 -1.562 0.730 0.834 1.301 -0.613 1.053 0.424 0.262 -1.041 -0.822 -0.800 -0.598 -0.414 -2.707 1.185 0.697 -0.438 0.017 -1.526 1.647 -0.603 -0.003 1.027 -0.039 -0.103 -0.973 -0.348 1.313 0.891 -0.445 0.270 -0.248 0.452 1.654 -0.188 -1.110 2.290
-0.223 -0.462 -0.354 1.943 0.513 0.482 -0.264 -1.143 -1.080 -1.340 -0.945 1.481 1.333 0.913 1.091 -0.069 -0.408 0.902 0.966 0.734 1.426 -1.282 -0.127 -0.627 0.802 -0.999 -0.620 -0.354 0.946 -1.389 0.547 0.203 -0.956 1.274 -2.754 0.186 0.425 -0.878 0.912 1.252 -0.497 0.601 0.520 0.085 0.795 -0.290 -0.058 -0.876 0.074 -0.407 -0.280 -0.854 0.708 -0.705 0.144 -1.674 -0.100 -0.457 0.213 0.561 -1.121 -0.984 -0.355 -1.338 1.274 0.784 -0.553 -1.347 1.707 -0.318 -1.238 -0.685 0.137 -1.575 -1.768 0.007 0.487 -0.332 0.702 -1.072 -0.766 -0.005 0.089 -0.524 -0.176 1.695 0.663 -0.441 -0.613 -0.083 -0.166 0.325 0.964 1.759 -0.635 1.515 -0.002 -0.292 -0.250 -1.370
-0.104 -0.992 1.093 0.688 0.694 -0.328 -1.595 -0.588 -0.558 0.073 -0.619 1.283 -1.884 -0.888 -0.821 0.722 0.079 1.005 0.121 0.147 1.836 0.401 -0.438 0.271 -0.022 0.180 0.414 1.127 0.037 1.897 -0.924 0.397 -1.408 -0.218 -0.869 -0.602 -1.453 0.063 0.867 0.635 1.817 0.787 -0.738 0.876 -1.450 0.011 -1.068 0.210 1.239 -0.560 -0.401 0.178 0.315 0.711 0.299 -0.695 -1.399 0.586 -0.431 0.005 0.771 -0.294 -1.343 1.356 -0.733 -1.031 1.194 0.810 1.847 1.060 1.199 -0.245 -1.549 -1.050 -0.154 -0.251 -0.761 -0.846 0.895 0.421 -0.305 -0.031 -0.629 -0.541 0.086 0.097 -0.991 1.004 0.805 -0.421 0.677 -0.684 -0.095 0.700 0.291 -0.566 -0.941 1.757 0.926 -2.012
0.174 -1.071 -0.540 -1.043 -0.602 -1.268 1.106 -0.861 0.731 2.083 0.387 -0.864 0.182 -1.118 0.554 0.891 -0.435 -0.061 0.809 -1.733 -0.483 2.631 -0.741 -0.511 0.389 -1.058 0.923 -0.195 -0.341 -0.325 -0.824 -1.323 -0.893 0.919 0.708 -0.365 0.200 1.303 0.451 -2.058 0.222 -1.503 0.097 -0.610 0.886 0.272 0.786 1.461 -0.328 -0.949 -0.086 1.280 -1.534 2.298 -0.271 0.251 -1.064 0.461 0.778 0.539 -0.565 -1.335 -0.391 -0.092 -1.087 0.456 -0.089 0.184 1.460 -0.210 1.481 1.405 -0.358 0.462 -0.314 1.941 1.211 0.849 -0.927 -0.081 0.735 1.866 -2.759 -1.145 0.318 1.277 -0.672 -0.458 -1.537 -0.302 0.197 -0.699 0.549 -0.008 2.187 -1.102 1.205 -0.011 1.413 -0.628
-1.081 1.000 0.717 1.233 -1.140 -1.207 1.316 -0.122 -0.281 -1.459 -0.026 1.151 0.755 0.769 0.388 0.760 0.463 -2.419 0.282 -1.740 1.063 -0.756 -0.686 0.844 -1.150 -0.818 1.110 1.254 0.407 -0.820 0.607 -0.401 -1.122 -0.859 -0.605 -1.772 1.481 -0.733 1.345 2.249 0.121 1.047 -0.171 1.588 -2.285 0.062 -2.063 -0.713 0.949 -1.075 -0.079 1.394 -0.746 0.924 -0.411 -0.932 -3.140 -0.877 -0.007 -1.460 0.727 2.434 1.290 -0.104 -0.204 -0.163 -0.956 0.344 -1.240 -1.584 -0.568 -0.206 0.307 0.971 -0.459 1.090 0.452 -2.355 -1.038 0.826 -1.895 0.036 -1.714 0.192 -1.366 0.659 0.266 -0.893 1.024 -2.524 -1.417 1.646 0.885 -0.260 0.734 -1.497 -0.160 -2.390 0.261 0.518
-1.565 1.532 -0.554 0.884 -0.488 0.123 -0.683 0.301 -0.920 0.512 0.167 -1.863 0.249 -0.324 0.881 0.696 0.228 -1.993 -0.037 -0.707 1.786 0.673 0.415 -0.103 1.701 0.763 -0.971 -0.330 0.010 -2.898 -0.490 0.193 -0.575 0.481 -0.801 1.378 0.101 0.888 -0.862 0.670 0.500 0.036 -0.075 -2.218 -0.770 -0.338 0.284 -1.087 -0.815 -1.238 0.801 1.729 -2.599 -0.595 0.108 -0.725 0.186 -2.011 -1.150 0.907 1.531 -0.727 1.360 -0.342 0.227 1.712 -0.227 -0.312 0.393 -0.063 0.619 -1.394 1.234 0.470 0.509 -0.194 1.213 2.502 0.634 -0.258 -0.289 -1.562 0.491 -0.271 0.387 -0.942 0.302 -1.265 1.583 0.430 1.884 0.143 0.003 1.078 0.239 -1.644 0.251 1.611 0.819 0.214
-0.748 -1.624 1.233 1.023 0.604 -1.239 0.675 -0.003 0.330 -1.324 -0.309 -1.201 -1.138 -0.158 -0.553 0.703 -1.051 0.051 0.110 0.296 0.479 0.224 1.604 1.543 -0.424 -0.875 -1.402 0.160 -1.121 -0.144 0.717 0.175 -0.979 -0.876 -0.318 -1.394 0.242 1.785 1.145 1.684 -0.945 0.250 -0.447 0.529 1.895 -0.541 -0.618 -0.500 -2.086 -0.656 0.448 -0.268 1.295 3.408 0.447 -1.470 -1.024 -0.179 0.689 -1.186 -0.378 0.245 2.160 -0.364 0.003 0.917 0.572 -0.661 -0.158 1.171 0.105 -0.301 -0.998 -1.447 1.109 1.742 -0.846 0.833 0.474 -0.849 -1.099 -1.511 0.285 0.262 -0.576 -1.516 -0.245 -0.607 -0.008 -0.226 -0.367 0.239 0.237 2.154 0.762 0.865 1.201 -0.334 -0.319 -1.745
0.064 -0.609 1.095 -0.854 0.582 -0.527 -0.436 0.124 0.456 -0.276 0.086 -0.541 -0.298 0.139 -1.818 -0.124 -0.400 -1.012 0.714 0.059 -1.308 -1.182 -0.742 -0.247 0.018 -0.498 2.169 0.086 -0.155 0.287 0.462 -0.115 -0.745 -1.675 1.036 -0.925 -0.827 1.202 -1.363 0.957 1.634 -0.375 0.398 -0.056 -0.460 0.898 -1.100 -2.278 -0.915 1.139 -1.042 -1.114 -0.581 -0.231 0.803 0.410 0.295 -0.104 -0.957 1.544 -0.112 1.093 0.909 2.264 0.072 -1.533 -0.380 1.176 0.891 1.972 0.583 -1.769 1.027 0.121 -0.735 1.516 -1.043 0.696 -1.018 0.326 1.413 0.507 -1.266 -0.551 0.283 0.287 0.100 -0.125 1.425 1.780 2.103 -1.614 -1.136 0.291 -0.995 0.707 -0.106 0.751 1.431 -1.784
-0.236 -0.016 1.107 1.516 -1.579 -1.285 -0.712 0.227 0.318 -0.036 0.884 -1.227 -0.361 0.080 -0.614 -0.428 -1.152 1.275 1.006 0.842 1.296 2.268 1.173 -0.460 2.548 0.033 -0.373 0.712 -0.432 -0.631 -1.283 -1.759 -0.722 -0.874 1.734 1.757 0.361 -0.580 -0.825 0.436 -0.412 -0.211 1.447 0.616 0.257 1.700 0.670 -0.471 0.016 -0.476 -0.541 -2.026 0.224 1.013 -3.867 0.418 0.858 -0.177 -0.601 0.438 -0.118 0.637 0.056 -0.349 -1.811 -1.185 0.127 0.797 -1.347 -0.833 -0.103 1.437 -0.682 1.155 0.152 0.723 0.141 -0.292 0.635 -0.700 0.172 0.043 0.586 -1.033 0.346 0.639 -0.076 2.138 -0.736 1.079 -0.837 -0.959 -0.990 -0.455 -1.631 0.431 0.635 -0.279 -0.818 -1.135
0.634 0.115 -1.441 0.334 0.373 -0.832 -0.031 -0.668 0.795 0.063 1.306 -0.804 -1.735 -2.166 -1.492 1.265 -1.597 1.112 1.365 -0.397 0.137 -0.336 -3.247 1.223 -1.668 0.692 -1.293 0.659 -1.905 -0.678 -1.587 -0.234 0.406 0.475 -1.275 0.190 -1.488 0.283 -1.082 -0.209 1.434 -1.794 0.102 1.566 0.982 -0.363 1.189 -0.015 -0.091 1.152 0.886 -1.055 0.621 0.530 -0.414 -0.164 -1.256 -0.126 -0.123 -0.308 0.370 0.450 2.379 -1.085 -0.445 -1.736 0.703 0.190 0.962 0.782 0.786 0.703 -2.032 -1.201 -0.067 1.948 1.820 0.862 1.839 -0.203 1.472 0.750 0.839 1.095 -0.736 1.020 0.160 -0.696 -0.162 -1.760 -0.101 -0.748 -1.008 -0.901 0.171 0.489 0.490 -0.206 -0.452 -1.564
2.942 -1.108 -0.084 -1.252 0.894 -0.125 -1.252 0.707 -1.649 0.727 1.480 0.555 -0.774 -0.734 -0.552 2.122 0.741 0.573 -0.465 0.123 1.137 0.210 -0.908 0.692 -1.282 -0.291 1.813 0.502 0.337 1.846 0.545 -0.101 0.005 1.079 0.679 -0.319 -0.625 -0.507 0.085 -0.652 -0.627 -0.726 -0.031 1.006 -0.635 -0.582 0.241 -0.406 -0.016 1.303 1.128 -0.370 -0.394 1.110 1.510 -1.128 0.318 -0.607 -0.415 0.702 -1.028 -1.117 -1.773 -2.200 0.874 0.352 -0.564 -0.570 0.559 -0.494 0.570 1.486 -1.261 -0.557 -0.312 0.746 -1.218 2.468 0.402 -1.001 -1.298 0.128 0.339 -0.710 -0.697 0.153 0.057 -1.443 -0.174 -0.381 0.536 -1.111 -0.432 0.752 -1.919 0.655 0.761 0.620 0.245 0.722
0.656 0.857 -0.415 -0.167 -0.590 -1.855 0.389 -0.086 -0.879 0.014 0.009 -0.595 1.139 -0.901 -0.269 -2.066 -2.020 -1.749 -1.277 -0.080 -0.149 -1.800 0.712 0.805 -0.691 -0.798 -0.595 -1.763 0.139 0.181 -0.737 -0.457 -0.078 0.084 -0.947 -0.396 1.042 -0.516 -0.198 0.159 0.898 1.154 -2.657 0.496 0.846 1.407 -0.625 -0.000 2.512 0.523 -0.407 -0.706 1.237 -0.397 1.905 -0.461 0.462 0.178 0.360 -0.787 0.023 0.089 0.426 0.857 -0.712 -2.521 1.089 -1.219 0.414 0.308 0.365 1.955 -0.400 -0.564 -0.186 0.367 1.292 -1.454 -0.874 -0.471 0.593 -0.102 0.104 1.667 1.566 0.120 -0.766 0.815 0.240 0.737 -0.116 -1.198 -0.476 0.148 1.637 1.036 -0.513 0.747 0.132 1.346
-1.233 1.415 -0.882 0.105 -0.245 0.115 -0.920 1.095 -1.016 0.451 -0.068 -1.267 0.462 0.289 -2.224 -1.155 0.799 1.534 2.002 0.967 -0.885 -0.548 -0.354 0.682 -0.615 0.101 1.067 -0.184 -0.575 -0.388 -0.068 -0.163 -1.764 0.252 0.013 0.975 0.650 -2.708 0.152 -0.237 0.749 -0.890 0.566 0.420 1.027 -0.250 2.122 0.935 0.680 -0.308 -1.182 0.038 -0.701 0.141 -0.358 0.936 0.638 -0.435 -1.513 1.261 -0.340 -0.818 0.497 0.885 1.436 -0.536 -0.937 0.291 -0.561 -0.985 0.005 -0.297 0.675 -0.836 0.750 1.390 -1.831 -1.349 -1.057 0.406 -1.023 -0.474 0.835 -0.185 0.497 0.236 -0.362 -1.832 0.104 -0.900 0.819 1.911 1.375 -0.535 2.040 -2.006 -0.491 -1.880 -0.034 1.703
-1.427 1.435 2.000 -0.786 1.085 -0.612 -0.438 0.966 -1.217 -0.011 -0.485 0.706 0.051 -0.437 -1.510 -1.074 -0.592 -0.951 -1.755 1.747 1.538 -0.303 0.871 1.545 0.412 -0.320 0.105 -1.701 -0.235 0.776 0.970 -0.395 1.689 1.301 -1.683 -0.791 0.475 0.082 0.174 0.225 0.895 -0.842 0.230 0.610 -2.486 1.742 0.975 -0.189 -1.043 -2.272 -0.807 1.397 -0.119 -0.002 0.001 -0.769 1.440 0.082 -1.660 0.225 0.475 -0.206 -0.451 -1.198 0.784 -0.952 0.789 -1.842 -0.182 1.519 -0.782 1.058 -0.011 1.394 -1.044 -0.260 -0.181 0.797 -0.589 1.555 1.579 -0.360 0.952 -0.604 -0.126 -1.314 -1.454 -1.149 0.527 -1.846 -0.595 0.533 -0.786 -0.670 -0.129 -2.226 0.352 -2.156 -0.839 -1.466
-0.057 0.924 -0.303 1.537 -0.408 -0.313 0.483 -0.231 1.026 -1.527 0.514 1.935 -1.175 0.513 -0.148 0.211 -0.542 0.362 1.328 0.940 -0.236 0.227 -0.343 -0.548 -0.533 0.032 -1.390 1.584 -0.336 0.847 0.609 0.009 -0.160 0.090 -2.126 0.138 0.245 -0.437 -1.262 -0.395 0.489 -1.528 -0.934 1.544 -0.728 0.636 -0.457 -0.034 1.702 -0.822 0.753 0.046 -0.627 -0.198 -0.893 -0.850 0.381 2.224 0.593 -0.148 -0.271 -0.624 0.505 -1.777 -0.559 0.243 -0.221 1.210 -1.115 -0.084 1.694 -1.107 1.004 0.290 0.346 -0.256 -0.672 -0.077 0.281 0.108 2.006 0.282 0.241 1.240 1.792 0.139 -0.167 -1.521 1.002 -1.696 0.668 -0.317 1.730 -2.383 0.848 -0.147 -1.288 -0.948 -0.257 0.394
-0.290 0.339 -1.331 1.271 0.211 0.178 0.953 0.058 -1.995 0.761 -0.188 -0.837 -1.054 -0.697 1.280 -0.041 0.709 0.802 -1.227 -1.164 -0.970 0.534 0.109 -0.219 -0.172 -0.068 -0.442 -0.820 0.500 0.036 0.200 -2.354 0.194 -1.582 0.122 -0.862 0.550 -0.623 -0.273 -0.480 -0.678 1.381 0.779 -1.475 -0.414 -0.020 1.692 -1.525 -0.571 -0.953 0.062 0.095 -1.930 0.775 -1.032 0.119 0.721 0.244 0.756 0.123 -0.923 0.922 0.452 -0.107 -0.893 0.499 0.120 -0.436 -1.122 0.529 0.535 -0.964 -0.372 0.745 -0.437 -0.338 -0.200 1.654 1.971 0.820 1.594 0.816 1.017 -1.463 1.568 0.888 -1.248 -2.471 -0.756 -0.994 -0.729 1.069 -0.071 0.525 -0.355 0.720 -1.277 1.541 -0.659 -0.641
-0.803 -0.698 -1.831 1.861 -0.380 0.591 -0.761 0.057 -0.407 2.919 -0.897 -1.189 0.267 0.516 1.194 0.688 -1.079 0.773 -1.059 -1.528 -0.186 1.996 0.354 -0.587 -2.374 1.685 -0.906 -0.683 -1.272 1.282 0.536 -0.725 0.213 -1.986 -1.474 -0.407 -0.800 -0.626 -1.184 0.199 0.550 -0.146 -0.213 0.087 -0.253 -0.451 -0.182 0.381 0.357 1.017 -1.182 0.158 0.771 1.405 0.865 -0.329 -1.287 0.350 0.147 -0.572 -0.516 -0.796 0.275 -0.164 -1.091 -1.157 0.526 0.019 -0.304 1.335 0.234 1.093 0.178 0.056 -0.294 -1.184 0.010 -1.091 0.977 -0.188 -0.087 0.314 0.440 0.882 -0.471 1.241 -0.779 -0.256 0.601 1.321 -0.743 1.911 -0.148 0.072 0.824 1.216 0.280 1.283 1.179 -2.678
-0.338 0.216 -0.388 -1.655 -0.895 -0.608 -0.038 1.177 -0.225 0.204 1.120 -0.564 0.835 1.911 -0.259 -0.558 0.114 -0.950 0.018 1.194 2.431 -0.690 1.157 0.210 -0.583 -0.229 0.566 0.643 0.691 1.247 2.435 -1.143 0.363 -0.771 0.828 -1.244 0.922 0.629 0.805 0.574 -0.991 -1.082 -0.788 0.893 -0.283 -0.389 -0.047 0.645 0.245 -0.561 0.657 1.626 0.136 -0.108 -1.206 0.612 -0.338 1.673 0.314 0.390 0.719 0.098 -0.357 -1.293 -0.549 1.025 0.722 -0.155 1.490 1.731 -0.697 -0.383 1.346 0.418 0.311 0.690 0.936 0.208 -0.460 0.471 0.229 -1.516 1.106 -1.015 0.588 0.438 -1.233 0.213 0.560 0.004 -1.095 0.550 1.364 -0.514 -2.071 1.892 -1.897 -0.109 -0.149 0.674
0.560 -0.682 -0.674 -0.180 -0.479 0.232 2.711 1.437 -0.387 1.005 0.639 0.267 1.048 -0.547 0.189 -0.429 0.374 -0.040 -0.194 -0.879 0.303 0.091 -0.591 1.459 0.923 0.746 -0.505 -0.546 -0.398 0.467 -0.940 1.065 -0.862 0.801 -0.217 0.222 0.582 -0.229 -2.106 -0.908 0.323 -2.470 -1.157 -0.477 -1.574 1.072 -0.057 -0.886 0.345 -0.120 -0.619 -1.109 2.327 -0.461 0.860 0.530 -0.368 -0.515 -1.698 -1.026 -0.199 0.471 -0.897 -0.728 -0.550 -0.276 -0.534 -0.872 -1.690 -0.013 0.909 0.899 1.459 -1.153 -0.221 -0.571 -1.493 -0.540 -0.222 -0.390 -1.286 -1.327 1.981 1.041 -0.679 -0.606 -1.530 0.886 -0.174 -0.941 1.496 -1.344 0.330 -0.270 0.474 -1.329 2.785 1.170 -1.096 0.788
0.579 -1.393 1.297 -2.045 0.235 -0.662 -0.303 -0.207 0.149 0.435 0.677 0.563 -1.399 -0.247 -2.336 0.247 -0.430 -1.779 -1.706 0.149 -0.988 0.856 1.714 0.094 -1.035 -0.176 0.037 -2.561 0.300 1.141 -1.350 0.690 0.014 -0.598 1.117 0.003 -0.616 -0.563 -0.413 -1.285 1.058 -0.304 -1.133 0.272 2.131 -0.120 -0.553 1.068 0.705 2.315 -0.548 -0.004 -0.413 0.010 -0.169 -1.391 0.992 0.829 1.639 -0.206 -1.388 0.061 -0.072 0.089 0.290 0.963 0.224 1.006 -0.172 -1.681 -0.858 -0.326 1.115 1.080 0.101 -0.445 1.042 -1.350 1.073 -0.225 -0.251 -0.343 -0.296 -0.539 1.436 1.799 0.513 -0.791 -0.773 -0.975 -0.043 1.507 1.225 0.484 0.918 -0.180 -0.043 -1.015 2.388 -0.053
0.896 1.513 2.089 0.212 1.991 -1.592 -0.559 0.961 -0.285 0.356 -0.320 -0.871 1.037 -1.408 -0.553 1.188 0.753 -1.304 -0.267 0.334 0.113 0.236 -0.276 -0.730 0.305 0.787 0.435 1.575 1.565 2.346 -1.029 2.061 -1.871 -0.060 -0.035 0.873 0.838 -0.656 -1.775 1.050 0.200 0.622 -0.594 -0.710 0.242 1.069 0.026 2.166 0.079 -0.746 1.163 0.798 -1.244 0.040 -0.326 -0.454 1.891 2.324 -1.047 -0.083 -0.284 -0.710 -0.237 -0.002 -0.792 -0.487 0.812 -1.254 1.035 1.218 -0.311 1.686 0.651 -0.637 0.533 0.230 0.119 -1.822 -0.312 1.788 -0.152 1.353 0.724 -0.232 0.842 0.043 -0.591 0.277 1.474 -0.693 -0.321 0.237 -0.443 -0.519 1.514 -0.052 0.430 -0.007 0.628 -1.473
-0.969 -1.299 -0.363 1.555 -0.410 -1.025 1.769 -1.457 -0.856 -0.274 1.241 -0.635 0.118 0.170 0.027 -1.890 -0.117 -0.319 1.099 -0.354 0.668 -1.144 0.225 -1.738 0.535 -0.331 -0.100 0.592 1.213 0.224 -2.181 0.454 0.454 1.734 -0.422 -0.275 0.013 -0.505 0.643 -0.733 0.828 -1.429 0.845 -0.796 0.154 -0.841 -0.566 -0.662 -0.140 -0.653 2.000 1.492 -2.129 -0.178 0.286 -0.286 0.313 -0.813 1.251 -0.225 -0.566 -0.112 2.093 0.755 0.171 -0.070 1.037 -0.971 0.732 0.497 -0.692 -0.917 1.403 -0.496 0.873 -2.091 -1.174 -1.326 -0.930 -0.646 -0.872 0.221 -0.441 -0.604 0.043 -0.861 -0.440 0.545 0.064 -1.111 0.602 -0.106 0.842 1.463 -1.528 -1.060 -0.877 -0.776 0.344 -0.394
0.272 0.915 0.476 1.544 -0.450 -0.283 1.083 -0.028 1.038 0.676 0.141 -1.022 -1.382 -0.979 -1.745 -1.395 -0.063 0.426 0.098 0.458 0.201 -2.868 -0.846 0.147 -1.938 0.826 -0.493 0.047 -1.295 0.003 0.300 0.146 -1.247 0.303 -0.212 0.878 -0.726 0.879 -1.820 1.442 -1.604 1.525 0.999 1.484 -0.795 0.194 -1.360 0.860 0.487 2.145 0.899 0.331 -1.343 0.404 -0.174 0.539 -0.446 -1.030 -0.804 -0.609 0.656 0.605 0.119 1.249 0.908 0.751 -0.275 -0.148 -0.277 -0.242 -1.444 1.164 0.822 0.069 0.266 1.589 1.140 -0.340 -0.546 -0.420 0.866 -0.994 0.088 -1.685 -0.609 1.635 -1.276 0.431 -1.980 1.060 -0.278 0.122 -1.851 -0.582 0.313 -2.297 -0.357 1.174 0.655 -1.334
-1.962 -0.301 0.788 0.486 0.150 -0.550 -1.212 -1.590 0.188 -1.081 1.133 -0.628 0.307 -0.999 0.095 -0.141 -0.583 1.124 0.726 0.183 1.307 -0.193 -0.918 0.657 -0.650 1.002 -0.848 0.206 -0.007 -1.212 -0.403 0.736 -1.316 -0.485 0.720 1.135 -0.971 -0.816 0.700 -0.621 -0.155 -0.873 -0.105 0.208 0.957 -0.203 -1.117 0.436 0.136 0.219 -0.986 1.936 0.241 1.425 0.656 2.158 0.049 1.361 1.279 0.024 0.124 0.479 -0.289 0.880 -0.414 -0.496 -0.604 -0.999 0.441 -0.275 1.390 0.546 -0.665 0.068 -0.838 -1.650 1.718 -0.408 0.963 1.523 0.655 -0.080 0.878 -0.233 0.191 -2.205 1.021 0.221 0.222 -0.410 -0.572 0.877 -2.546 0.994 1.113 -0.663 -0.544 0.393 -0.261 -0.209
0.091 0.522 1.278 -1.885 0.281 -2.220 0.354 -1.316 -1.777 0.804 -0.637 0.872 -1.085 -0.069 1.378 -1.070 0.369 0.302 0.945 2.667 -1.929 -2.410 -0.306 -0.368 1.434 0.198 0.994 -1.615 -0.353 -0.376 -0.568 -0.177 2.235 1.428 -0.834 1.273 -0.338 -1.597 0.766 1.155 -0.956 0.637 -2.570 0.589 -0.420 2.118 -1.654 -0.721 -0.633 0.136 -0.228 0.352 -1.765 -0.833 0.996 -0.789 0.869 -0.029 -3.360 -0.669 -0.268 0.092 -0.544 -0.098 -1.016 2.691 0.211 0.353 0.874 0.609 -0.803 -0.631 0.156 0.538 1.504 -0.952 -0.303 -0.491 -0.816 -0.773 -0.022 1.135 -2.592 -0.123 0.031 0.145 -0.626 0.625 0.245 0.831 1.308 0.953 0.355 0.678 1.779 -1.692 -1.305 0.357 0.193 -0.717
-1.317 2.060 -2.153 0.420 0.543 0.920 1.100 -1.560 -0.090 -1.110 -0.011 -1.026 -0.291 0.475 -0.405 0.082 0.022 0.912 -0.454 -0.180 1.218 -1.074 -0.912 0.101 1.360 0.560 1.366 0.961 -1.911 0.515 0.686 -0.873 0.059 0.037 0.491 -0.735 -0.421 -0.175 0.123 0.461 -0.368 -0.295 -0.052 -0.771 1.833 -1.291 -0.653 -0.648 0.779 0.025 0.969 2.046 -0.686 0.809 -1.548 -2.505 -1.599 -0.935 -0.109 0.397 0.088 0.047 0.447 -1.129 1.528 -0.778 1.636 0.703 -0.130 1.301 -1.295 1.191 0.256 -1.330 0.588 -0.205 -1.205 -0.404 0.391 -0.655 1.747 0.432 0.872 0.590 -0.184 0.357 1.038 -0.973 -1.225 1.317 0.286 -0.155 0.293 0.401 1.317 0.372 -0.897 -2.159 -1.518 -1.045
0.061 -0.783 2.549 0.588 -0.226 0.579 -0.024 1.717 -0.142 -0.502 0.281 -0.259 -0.128 0.721 -0.484 0.992 -0.032 0.155 1.462 -0.431 2.495 0.134 0.551 1.217 0.457 0.217 -0.393 -1.567 -1.761 0.798 0.188 -0.372 -1.116 0.299 -0.679 0.430 -0.144 2.196 -0.665 1.125 -1.310 -0.626 -0.233 0.671 -0.411 0.188 -1.254 -0.524 0.083 0.166 1.146 1.940 0.012 -1.578 0.283 -2.167 -0.035 -1.662 -1.516 -0.426 0.824 0.441 1.088 -1.376 -0.631 -0.775 -0.217 -1.614 0.421 1.083 0.104 -1.000 -0.881 -0.252 -0.778 0.799 1.505 1.898 0.768 0.486 -0.643 0.059 1.880 -1.239 0.418 -0.412 0.260 -0.027 -0.407 -0.664 -1.632 0.641 -1.096 -0.455 -1.379 -0.091 -0.404 0.211 1.504 -0.743
-1.234 -1.832 1.202 1.363 0.425 -1.018 -1.357 -2.339 0.351 -0.253 -1.251 0.137 0.367 -0.748 -1.403 -0.204 -0.740 0.048 -0.287 0.051 0.800 1.498 1.888 1.140 -0.251 -0.336 0.469 0.256 0.115 1.155 1.365 1.245 -0.737 0.313 0.732 0.724 1.156 -0.454 0.769 1.058 -0.283 -0.125 1.860 -1.311 -0.956 -1.065 0.319 -0.112 -0.847 -0.274 0.097 -0.674 0.261 2.074 -0.820 1.777 -0.566 -0.169 -0.244 0.147 -1.144 0.239 1.118 -0.340 -0.272 -0.376 -1.023 0.759 -0.471 -0.344 0.146 -0.261 1.246 -0.845 -0.095 2.326 0.084 1.442 -0.336 0.668 1.671 0.624 0.658 0.002 -0.023 1.041 -0.650 0.018 0.430 1.048 -0.143 -0.440 0.254 -0.523 1.008 0.015 -1.138 1.007 -1.157 0.813
-0.535 -1.039 1.053 -2.029 -0.240 0.631 0.213 0.772 -0.304 -0.201 -0.132 0.733 0.892 -0.168 0.620 -0.011 -0.760 -0.185 2.007 0.847 -1.878 1.323 -0.008 0.100 -0.518 0.896 0.041 0.614 0.028 1.181 -0.566 2.183 0.497 -1.140 1.381 -0.668 1.182 -1.069 0.386 -0.452 0.981 1.924 -2.989 0.616 -0.054 0.205 -0.906 -0.299 1.288 2.188 0.041 -1.475 -0.266 -1.375 -0.024 -0.091 1.115 -0.958 2.128 0.364 -1.131 0.096 1.576 -0.470 -0.826 -0.918 -0.112 -0.939 0.196 -0.959 0.301 -1.184 -0.104 -1.705 -1.370 -0.644 -0.034 -0.055 -1.433 -0.046 0.167 0.702 -1.389 -0.434 -1.118 0.185 0.705 -0.247 -0.925 -0.314 -1.505 -0.556 -0.082 0.085 0.025 0.713 -0.184 0.483 -0.975 -0.350
1.144 -0.035 -2.025 -1.578 -0.095 -1.277 2.024 -0.688 -0.460 0.817 0.979 -1.292 0.517 0.116 0.586 3.361 0.378 -0.635 -0.246 1.318 0.004 0.077 -0.322 1.148 -1.428 -0.510 0.469 -1.710 -1.212 0.142 0.149 1.815 1.397 0.899 0.307 0.212 1.291 0.678 -1.540 -0.330 -1.904 -0.239 -0.423 -0.555 -1.261 -0.375 0.702 -1.045 0.834 1.942 0.395 0.260 -0.841 -0.430 1.054 0.837 0.431 -1.372 0.657 1.292 -2.749 -0.025 0.789 0.213 -0.177 1.578 0.253 0.812 -0.013 0.957 0.085 -0.128 -0.377 -1.535 1.355 -0.321 -1.009 -0.615 -0.349 -0.528 -0.893 1.246 -0.330 0.673 -0.523 -0.488 -0.849 -0.416 0.566 -0.865 0.441 2.184 0.834 1.560 -0.063 0.427 -1.729 -1.200 0.627 -0.289
1.125 1.311 0.153 0.564 -1.021 0.956 0.603 -0.906 -0.286 -0.049 -0.667 1.157 1.317 0.281 1.660 -1.281 -0.014 -0.603 1.887 0.097 -0.282 0.077 1.157 -0.561 -0.761 -0.344 -0.880 -0.857 -1.420 -2.382 -0.111 0.137 0.189 -0.292 0.139 -0.626 -1.547 -0.726 2.451 -0.912 0.688 0.135 0.637 -0.659 -0.404 0.206 -1.087 0.817 -1.325 -0.319 -0.320 0.152 1.417 -0.423 0.107 1.186 -0.439 0.421 0.462 0.997 -0.941 1.180 0.112 -0.075 0.301 -0.219 -0.417 -0.551 0.873 2.459 0.440 -0.438 0.188 1.501 -0.295 -0.302 -2.670 0.293 1.808 0.914 0.394 0.204 0.351 -0.365 2.402 0.241 0.791 -0.269 2.581 1.124 0.476 -1.744 -0.162 -0.127 -0.768 1.613 -0.355 2.229 -0.505 -2.229
-1.379 0.854 1.481 -0.793 -0.857 0.116 0.036 0.977 0.380 0.116 1.734 -0.760 -0.170 -0.728 1.667 -0.582 -2.029 -1.229 1.024 0.582 -0.079 -1.175 -1.311 -1.666 0.219 0.296 1.152 -1.084 -0.414 0.450 0.449 0.079 1.329 -0.834 1.590 2.030 0.157 -1.489 0.036 0.233 1.194 0.737 0.036 0.588 1.471 0.513 -0.375 0.087 -0.665 1.623 0.883 -0.667 -1.651 2.030 -0.426 0.851 -1.215 0.553 -0.666 1.633 0.424 1.236 0.455 0.398 0.126 -1.101 -1.181 -1.143 0.660 0.825 0.624 0.793 0.015 0.137 0.634 1.739 0.396 -0.505 -1.251 0.049 1.041 -0.826 -0.544 1.225 -0.308 -0.542 -0.092 -0.486 1.677 -0.354 0.535 -0.241 0.502 -1.842 1.214 1.733 -0.795 0.468 1.138 -1.878
0.550 -0.015 -0.806 0.513 0.135 0.342 0.322 -0.624 -1.465 0.131 1.145 -1.270 1.125 1.552 0.132 1.261 -0.303 0.501 0.668 -1.634 -0.281 -1.403 -1.294 0.208 0.340 -0.906 1.724 0.556 -0.584 1.317 0.233 -0.127 -0.893 2.069 0.395 -0.164 -1.301 1.243 -2.439 0.533 -0.302 0.274 0.418 -0.590 0.160 -0.048 0.871 -0.784 0.980 -0.738 -0.843 -0.874 -0.526 -1.084 -0.273 0.674 3.026 0.429 0.137 -0.845 -0.854 0.481 -0.393 -1.069 -0.137 -1.055 1.143 0.222 -0.086 0.193 1.962 0.956 -0.076 0.603 -0.938 1.486 0.637 2.420 -1.660 -0.339 0.745 -0.896 0.609 0.122 -0.195 -1.049 0.078 0.702 0.540 -0.469 0.192 0.603 0.084 1.185 -0.662 -0.923 -0.910 0.805 -1.183 0.926
-0.671 0.842 -0.767 1.274 -0.569 -0.903 -1.682 1.904 1.279 0.159 -0.800 -1.197 -0.893 1.725 0.297 0.197 1.031 0.341 0.527 -0.192 -0.815 -0.694 -0.004 0.711 -1.150 0.980 0.405 -0.031 2.016 0.144 -1.318 1.060 -1.025 1.500 -0.166 -1.656 1.117 -1.151 -0.565 0.478 -1.114 -1.093 -0.248 0.484 0.936 0.722 0.612 -0.492 1.516 -0.293 -1.142 -0.017 0.056 0.010 -0.486 -0.779 -0.846 -1.385 -0.686 -1.102 -0.144 -0.741 0.547 1.074 0.200 -0.728 1.279 0.795 -0.435 0.055 -0.709 1.425 0.874 1.135 2.345 0.404 0.868 -0.588 0.175 0.679 0.325 -0.213 -0.663 -1.486 0.807 -0.495 0.735 0.566 -0.116 -1.226 0.805 0.104 -0.552 1.047 -0.624 -0.138 0.071 -0.524 1.493 -0.110
0.322 0.809 -0.652 0.051 -0.555 -0.474 -0.342 -1.290 -0.022 -0.334 0.269 0.729 0.649 -0.115 -0.076 1.834 -0.968 0.078 0.423 -1.352 0.258 1.213 2.045 -0.404 0.086 0.832 -0.747 0.513 1.289 0.784 -0.994 -0.909 0.478 2.352 0.216 0.938 -0.861 -1.152 -0.533 0.147 -1.296 1.676 -0.537 1.297 -0.046 0.648 0.995 -0.644 -0.610 1.180 -1.504 -0.822 -0.830 1.603 -1.064 -0.746 1.224 1.380 0.546 0.982 -0.811 0.790 0.902 0.555 1.255 1.670 0.895 -0.681 -0.035 -0.011 0.276 -0.550 0.756 -2.282 -0.669 0.780 0.717 1.389 1.145 1.680 -0.444 2.140 0.356 0.323 -0.654 -0.868 -1.852 0.423 0.298 -1.445 -1.625 0.324 -1.903 -0.735 0.068 -0.885 -0.301 -0.321 -0.845 -1.675
0.910 -0.231 1.194 -0.769 -2.465 2.202 -0.888 1.665 -1.725 1.931 1.465 -0.105 -0.138 -0.603 0.399 -0.191 0.066 -0.174 -0.181 0.306 0.695 -0.008 -1.402 0.978 -0.915 -1.917 -0.626 -0.305 -0.821 -0.428 0.572 0.671 -1.274 -0.672 1.473 -1.133 -0.034 0.266 -1.141 1.307 0.980 1.497 1.658 -0.723 -0.582 0.666 0.951 -1.866 0.901 1.464 0.154 -0.617 -0.599 0.731 -0.449 -0.388 -0.986 -1.044 0.939 -1.291 -1.143 0.074 0.514 0.337 -0.265 0.567 1.498 0.339 0.194 -2.427 -2.360 0.339 2.045 -1.256 -0.176 -2.033 -1.091 1.349 0.330 0.132 0.369 -1.676 0.419 -0.151 -0.802 2.676 0.626 0.686 0.432 -0.100 -0.332 0.360 -1.814 -0.070 -1.737 0.638 -0.282 -0.546 2.089 0.433
0.215 -0.652 -0.237 -0.327 0.181 -1.608 1.765 -0.846 -0.961 0.582 0.825 0.978 -0.611 1.570 -0.581 0.153 0.055 -0.440 0.733 0.431 0.487 3.274 -0.115 1.335 0.664 -3.193 0.813 1.804 -0.443 -1.036 -1.951 -1.199 -1.266 -0.475 1.880 1.728 0.658 -0.802 -1.080 0.830 -0.639 -1.321 -0.362 -0.843 0.024 -0.245 -0.506 0.340 -0.095 1.282 -1.179 -0.334 0.171 0.772 0.350 0.012 0.148 2.353 1.606 -0.312 1.578 -1.145 0.044 -0.729 -0.667 0.974 -0.091 -0.650 0.249 1.463 0.167 1.899 0.482 0.094 -0.446 -2.116 2.473 -1.341 0.277 -0.665 -0.722 0.425 -0.568 -0.253 -0.731 -0.778 0.687 -0.426 2.578 0.382 -0.205 -1.798 0.124 0.363 -0.929 2.191 1.484 -0.871 -1.621 2.058
-0.478 0.454 0.285 -1.671 -0.151 0.110 1.297 0.689 1.203 -0.115 -1.364 -0.814 0.822 -0.171 -0.191 1.059 0.643 -0.613 -1.059 0.024 1.699 0.217 1.215 -0.561 -0.373 -1.061 1.200 1.307 2.445 -0.924 0.362 -0.563 -0.356 0.186 -0.872 0.350 -0.018 0.623 0.121 0.561 1.368 1.460 0.763 -0.460 -0.662 0.325 -0.620 -0.868 -0.704 -0.111 0.329 0.077 1.272 -0.164 -0.210 -0.184 -0.332 -0.585 -0.986 -0.428 -0.008 -0.138 -0.846 -0.692 -1.523 0.380 -0.410 1.262 -0.573 1.351 1.000 -0.059 -1.278 -0.131 1.822 0.640 1.588 -0.536 -0.058 0.716 -1.424 -0.080 0.721 -1.387 0.811 -0.330 0.002 0.715 0.861 1.179 -2.462 -0.805 -1.065 1.262 -0.007 0.006 -0.415 0.834 -1.413 0.264
-1.806 0.121 -3.106 1.234 1.080 -0.579 -1.056 0.410 -1.693 0.616 1.406 0.054 0.224 1.293 -0.003 0.604 0.862 1.054 1.945 -0.277 -0.472 -1.127 0.278 1.122 0.232 -2.231 -1.204 0.898 -0.380 2.611 -1.049 -1.384 2.070 -0.797 -0.153 0.809 -0.944 1.294 -0.037 -0.124 1.507 -0.208 0.837 -0.924 0.945 0.637 1.156 0.881 -1.548 -0.763 0.055 1.204 0.152 0.053 -1.448 1.124 -1.931 0.069 -0.798 0.653 0.548 -0.005 0.615 -0.560 0.131 -0.742 -2.338 -0.594 0.185 -1.808 0.149 0.958 0.002 0.069 -1.756 -0.903 -0.615 -0.522 0.052 -0.781 -0.516 -0.718 -0.418 -1.540 -0.697 -0.105 0.611 1.342 -0.832 1.080 1.658 -0.628 -0.065 0.827 -0.334 0.349 -1.274 0.291 -0.883 -0.382
-0.343 -1.319 -0.494 -0.425 0.043 0.554 -0.030 0.084 0.935 -0.001 1.402 0.889 0.254 1.151 -0.829 0.312 0.552 0.095 -0.548 0.661 -0.731 1.165 0.140 -0.157 -0.843 0.550 0.496 -1.668 -0.908 -1.140 -1.167 0.657 0.060 -1.209 -0.771 1.027 1.505 0.424 -0.233 0.618 -0.020 3.283 -1.592 -0.257 0.408 1.065 0.517 -0.177 0.588 -0.733 -0.657 0.927 0.954 0.969 -0.094 0.635 -1.530 0.821 0.041 0.229 -1.531 -0.532 0.794 1.973 -2.255 -1.226 -1.209 -0.944 0.843 -0.008 -0.262 0.535 1.182 0.474 -1.006 0.871 0.552 -0.884 -0.280 0.266 -0.533 -0.281 -0.314 -0.534 0.119 -0.743 -0.328 -1.899 0.147 0.889 1.638 0.734 0.568 -0.383 0.726 0.881 0.582 -1.948 -0.975 -0.403
1.334 0.412 -0.050 0.227 -2.548 -0.382 1.861 0.926 -0.201 -1.205 1.485 1.078 0.850 -1.307 1.206 -0.081 -0.034 1.933 -0.128 0.073 -0.825 2.720 0.704 1.517 -1.055 0.260 -1.347 -0.895 -0.120 -0.479 0.533 0.342 -0.665 -0.455 -0.526 0.064 0.438 0.217 -1.116 -0.251 1.497 -0.964 0.641 0.394 -0.595 -0.048 -0.104 -0.332 -0.980 0.161 -0.403 0.844 -0.258 -0.303 -1.174 -0.171 0.663 0.889 2.059 -1.391 -0.231 -1.409 1.246 0.192 -1.022 -1.446 0.851 1.314 -0.337 -1.927 0.839 1.575 -0.942 0.085 -1.401 0.608 -0.298 -0.097 -0.300 -0.834 -0.993 -0.868 0.153 -0.629 0.000 0.067 0.993 -0.255 -0.933 -1.098 -1.155 -0.860 -0.096 1.598 -0.924 0.239 -0.324 0.722 -0.357 -2.707
0.122 -0.238 1.654 0.419 1.298 -1.482 -0.914 -0.568 1.964 0.027 0.541 -0.172 0.030 1.104 -0.152 -0.994 -0.618 -0.171 0.193 0.169 1.311 -2.029 1.931 -1.418 0.758 -0.701 1.435 0.052 0.994 -2.724 0.204 0.869 -1.921 -0.722 -0.511 -1.310 -0.534 -0.316 -0.435 -0.475 -0.706 1.141 0.165 -0.499 0.045 0.809 0.339 -0.231 -0.755 -0.192 -0.220 1.233 -0.094 0.299 -0.614 -2.118 -0.171 0.772 -1.686 -0.135 -1.265 1.851 -0.878 1.626 1.067 1.971 0.300 -0.484 0.177 0.316 -0.857 -0.241 -0.571 0.937 -0.252 0.633 0.417 -0.132 -0.561 1.961 0.326 -0.495 -2.043 0.450 0.541 1.182 1.209 0.708 0.737 -1.140 -0.663 0.736 -0.554 -0.486 1.174 1.118 0.495 0.543 1.479 0.606
-0.255 -1.372 1.321 0.479 1.978 0.736 1.343 0.102 -1.413 -1.044 -1.632 0.362 -0.770 -0.297 -0.020 1.702 0.334 -0.191 -0.884 0.737 0.319 -0.761 0.507 0.878 1.960 -0.628 1.458 2.378 0.898 -0.270 0.636 -0.244 0.246 0.372 0.789 2.294 -0.196 -0.082 -0.560 0.682 -0.437 -0.464 -1.103 0.690 -0.117 0.868 -1.070 -0.585 -1.037 -0.203 0.739 0.552 -0.989 -0.759 0.607 1.940 0.832 -0.600 0.388 -0.404 -0.512 0.850 -1.102 -0.102 -0.677 -2.150 -0.387 -0.497 0.524 -0.877 0.693 -0.124 1.396 -0.680 -1.009 -0.644 0.615 -1.440 -1.263 0.102 -0.864 0.259 1.229 1.345 1.581 -1.314 -3.372 -0.668 -0.288 -0.009 -0.759 -0.221 0.632 -1.671 1.093 0.128 -0.528 -1.036 0.003 0.089
-1.252 1.297 -1.043 0.345 0.222 -0.762 -0.165 -1.835 0.069 1.487 -0.356 0.028 0.219 -0.358 -0.784 -1.161 -0.556 1.967 -0.933 1.760 0.759 1.122 1.812 -1.244 -0.328 -0.419 1.150 -0.738 0.972 -0.723 0.793 -1.477 0.752 -1.845 1.058 0.910 1.495 -0.777 -1.555 0.131 -1.445 0.499 -0.425 0.227 0.994 0.424 2.429 2.448 -1.544 -0.143 1.074 -0.550 1.030 0.878 -1.014 1.068 -0.734 1.057 -1.087 -0.766 1.408 -1.823 -1.183 0.037 -2.821 -0.730 0.356 0.007 -0.267 -2.053 0.243 -0.463 0.263 -0.550 -1.104 0.175 -0.850 -1.681 0.420 0.047 -0.632 1.695 0.960 -0.533 0.273 0.114 -1.017 -1.522 -1.927 0.641 0.873 -0.391 0.018 -0.901 -0.141 -1.864 -1.029 0.663 -0.630 -1.207
0.231 0.395 0.063 1.388 -1.000 0.363 0.628 1.627 -1.891 -0.536 -0.050 -0.172 0.709 0.069 0.677 -0.231 -0.065 -2.057 -1.391 0.227 0.563 1.211 -0.239 1.187 0.699 0.044 0.186 -1.783 0.207 -0.548 0.205 0.419 0.217 -0.910 0.244 -0.188 0.439 -1.120 0.588 -1.532 -0.354 0.703 -2.505 1.734 -1.106 -0.300 -0.789 -0.180 0.827 -0.330 0.915 -0.166 -0.015 0.399 -0.368 0.419 -0.466 -0.757 -1.285 0.929 -0.986 -0.099 -2.336 0.095 -0.628 -0.515 0.258 0.938 -0.494 0.454 0.484 0.537 -0.977 -1.392 -0.020 0.525 0.359 0.550 0.349 3.346 -0.164 0.715 -0.509 -1.329 0.242 0.535 -0.243 1.196 -1.822 1.613 -1.929 1.014 -1.610 -0.852 1.098 0.145 0.643 0.581 -0.961 -0.244
-1.123 -1.048 0.316 0.359 0.338 -2.223 0.878 0.403 -0.102 -1.367 -1.205 -0.333 0.421 0.475 0.423 0.896 0.855 -0.610 0.119 0.306 -1.577 2.250 -2.613 0.637 1.017 -1.987 -1.867 1.182 -0.250 -0.952 1.060 -0.824 -0.168 1.107 1.244 -1.248 1.268 -0.082 1.104 -1.053 -0.772 -0.123 -0.771 -0.823 -0.453 0.851 -0.055 0.781 0.077 -0.929 0.192 -0.547 -1.777 0.172 0.222 -0.455 0.517 -0.461 -0.957 0.851 0.205 -1.290 0.081 -0.268 -1.607 0.157 0.473 -1.397 -1.044 0.176 -0.608 -0.300 -0.739 0.003 -1.492 2.054 -0.689 -0.237 0.831 -0.721 0.760 -0.626 -0.569 -0.349 -0.491 -0.934 -0.368 0.185 -0.394 0.050 -1.415 -1.809 0.314 0.854 -1.283 -1.244 0.998 -1.776 -1.043 -0.074
-0.661 -1.026 0.178 0.885 -1.900 0.084 -0.724 -1.548 1.103 -0.000 0.056 0.875 0.422 1.141 -0.956 -1.069 2.814 1.134 -0.753 -1.132 0.450 0.598 -1.003 -1.585 -0.638 1.413 0.656 -0.114 -0.083 0.255 -2.173 -1.397 0.189 0.010 -0.040 0.492 -0.153 -2.989 -0.587 -0.888 0.440 -0.682 3.210 -0.247 1.064 0.174 0.733 -0.838 0.314 0.934 -0.115 1.702 -1.583 -1.815 0.484 -0.133 1.034 0.451 1.311 2.183 0.761 -0.434 -0.170 -2.002 2.056 0.499 0.017 -0.465 3.242 -0.961 0.135 -0.150 1.638 -0.860 -2.215 1.090 -0.639 -0.711 1.875 1.416 0.528 1.303 0.881 -0.511 -1.337 -0.354 -0.470 -0.695 -2.050 -0.035 -0.198 0.456 -0.039 -0.088 -0.021 0.780 -0.553 1.326 -0.261 0.368
-1.456 -1.162 0.597 0.545 -0.641 -0.242 -1.072 -0.609 -1.134 -0.346 0.452 1.215 -0.757 1.357 0.722 0.701 -0.599 -0.105 1.047 0.670 1.368 -0.177 -1.096 0.375 0.545 -0.570 -0.881 0.319 1.054 -0.336 1.769 0.789 0.272 -0.799 0.232 1.061 1.753 -0.513 -0.480 1.105 -0.793 -1.056 -0.163 2.029 1.104 0.384 0.747 -0.115 -1.100 -0.085 0.911 -0.050 0.321 1.389 -0.070 0.396 2.047 -0.075 -1.221 -0.989 0.126 -0.078 0.052 -0.589 -0.516 -0.885 -0.182 -0.598 -0.523 0.112 -0.946 -0.883 0.438 0.052 -0.814 -0.255 1.421 0.184 -0.333 0.772 0.163 -0.847 -1.393 0.241 -0.634 -1.430 1.477 -0.065 0.195 -0.355 -1.153 0.285 0.285 0.817 -1.089 -0.148 -0.403 0.131 0.260 -0.572
1.034 -1.619 1.142 0.059 -1.296 -2.033 1.202 0.597 0.004 0.546 -0.773 -0.646 0.453 -0.627 1.777 -1.458 -0.514 -1.003 -0.888 0.896 -0.009 -0.489 0.467 0.543 0.998 -1.053 0.314 -1.168 0.248 0.308 0.256 -0.433 0.026 0.129 -0.551 -0.990 1.231 0.183 -2.236 0.029 -0.449 0.991 0.658 0.552 0.210 -1.058 0.631 0.742 -0.521 2.696 -2.128 -0.902 -0.314 -1.020 -0.780 -0.962 -1.306 0.245 -1.513 0.105 1.214 2.138 0.005 -0.446 1.296 -0.713 0.606 0.890 -0.543 1.385 1.442 -0.264 0.660 -1.278 1.044 0.866 -0.231 -2.628 -1.101 -0.486 -0.564 0.856 -0.580 -0.940 -0.478 -0.432 0.124 0.585 -0.525 0.248 1.221 1.966 -0.186 0.099 0.069 -0.620 0.144 0.176 1.354 -1.431
0.805 1.795 0.423 0.038 -2.217 -0.106 0.434 -1.793 0.210 1.213 -0.715 -1.717 0.054 1.470 -0.070 0.140 1.291 0.587 -0.509 -0.361 -0.720 0.098 -0.370 -1.837 0.551 -0.821 -0.781 1.427 0.969 -0.071 -0.384 -0.206 -0.586 -0.034 0.993 -0.400 0.409 -2.020 -0.320 -1.456 -0.242 -0.996 -0.198 -1.595 1.966 -1.650 -0.889 -0.445 -0.143 0.611 0.150 0.012 1.182 0.917 0.278 1.944 -1.042 2.224 2.183 1.974 1.087 -0.292 0.791 0.388 -0.158 0.439 -0.967 1.201 -1.026 0.466 0.079 -0.264 -0.009 0.645 1.803 -1.141 -0.248 0.863 1.911 -1.711 -1.170 0.958 0.340 -0.932 1.352 -1.053 1.217 -0.876 -0.899 -1.715 -1.596 -1.002 2.621 -1.498 -0.409 0.510 0.569 0.211 0.875 -3.335
-0.359 -1.441 -0.595 -0.267 -0.850 -0.433 0.756 -0.172 1.188 -1.051 -0.064 0.219 -0.759 0.911 -1.119 -0.286 1.068 -0.147 0.748 -0.141 -0.631 -0.020 -0.456 -0.556 1.401 -0.690 1.600 0.243 0.959 -1.980 1.026 -0.995 -1.003 0.064 1.187 0.357 -0.467 0.343 0.458 -0.313 0.296 0.559 0.089 0.193 -0.953 1.352 1.109 0.187 0.625 -0.089 0.381 -0.986 1.011 0.313 0.363 0.122 -0.021 0.832 -1.685 0.866 0.414 -0.316 -0.668 -1.678 -0.526 -1.563 0.094 -1.376 -1.568 0.576 0.784 0.549 0.455 1.022 -0.373 -0.111 -0.306 1.838 -0.468 -2.079 -0.769 1.115 -1.441 1.149 -0.495 1.340 -0.438 -1.248 -1.490 0.770 0.455 0.618 -0.371 0.053 -0.914 0.355 0.570 -0.797 -0.868 0.648
-0.165 0.637 0.700 -0.279 0.709 -0.868 0.438 0.393 1.185 -0.521 -0.995 -1.180 -1.232 -0.852 -0.275 -1.040 0.840 -1.608 0.506 0.374 0.331 1.142 -0.436 -1.321 -0.611 -0.360 0.468 -0.847 -0.806 0.154 2.063 -0.185 -1.013 1.242 0.339 1.357 -0.224 -0.761 -1.582 0.150 -1.254 -0.985 -1.888 -1.813 0.416 -0.867 -0.152 1.073 0.062 -0.593 1.450 -0.890 -0.049 1.018 1.075 0.172 -0.744 -1.780 0.458 -0.543 1.013 -0.421 0.352 0.506 0.728 0.190 1.886 1.477 -0.267 1.345 0.372 -0.128 -1.366 -1.112 0.479 1.161 1.615 0.041 0.715 -0.741 -1.235 -0.855 -0.124 1.288 -1.182 -0.362 0.303 -0.777 -0.480 -0.171 1.057 0.037 1.333 0.186 -0.066 0.316 0.003 1.605 -0.444 0.537
1.044 0.388 -0.044 0.469 -1.465 0.582 0.080 -0.668 0.763 -1.827 -0.835 -0.231 0.810 0.768 -1.168 -1.086 0.582 -1.258 -0.379 0.050 -0.570 0.983 -0.253 0.218 0.532 0.088 -0.258 -0.452 -1.827 1.803 0.512 0.685 1.354 0.660 0.881 -0.272 1.838 -0.240 -0.236 1.060 -0.282 -0.590 -0.560 1.022 0.611 0.941 1.502 2.008 -0.924 -0.420 1.022 0.639 -0.834 0.170 -0.151 0.891 -1.147 -0.480 -1.593 -1.936 -0.099 -0.586 0.164 0.132 -0.436 -1.149 1.337 -0.223 -0.174 -1.473 -0.449 -0.323 0.967 1.560 0.955 -0.033 0.117 -0.776 -0.485 -0.232 -1.462 0.219 0.695 -0.566 -1.360 -0.469 1.433 -0.536 0.235 0.263 0.800 -0.693 -0.293 1.282 0.082 0.399 -0.688 0.530 0.979 1.961
-1.385 -0.140 0.786 -0.991 0.878 -0.141 -0.923 -0.979 -1.809 -1.454 -0.096 -0.478 1.271 0.452 0.242 1.553 -0.150 1.136 -0.486 1.005 -0.964 -0.760 0.355 0.657 -0.602 1.163 0.315 -0.492 1.771 1.150 1.028 0.360 0.821 0.287 0.430 -0.302 1.058 -1.287 0.421 -0.837 2.615 1.256 0.593 -0.090 -0.501 -1.989 -0.085 -1.391 1.990 0.730 -1.977 1.633 0.236 0.906 0.334 0.095 -1.260 -1.323 0.748 1.215 0.702 -1.127 0.459 0.990 -1.149 0.435 0.175 0.992 -0.127 -0.198 0.215 -0.709 -1.206 -0.008 -0.439 0.374 0.948 1.564 0.942 0.364 0.764 -0.003 -1.010 0.082 -0.565 -1.102 -0.729 -2.112 -0.319 -1.935 0.179 -0.390 0.261 0.039 -0.754 -0.629 -0.934 -0.486 0.919 0.421
0.005 -0.684 -1.948 -0.464 -1.854 -1.416 2.691 1.165 -0.469 1.020 0.433 2.343 1.700 -1.452 -0.044 -2.803 0.730 0.017 -0.575 -1.309 -1.155 1.277 0.134 0.910 -0.476 -1.236 -0.002 0.672 0.354 2.012 -0.919 0.535 -0.454 -0.010 0.690 -0.617 -0.630 0.264 0.608 -0.478 -0.131 0.233 -0.242 -0.727 -2.854 -0.913 -0.159 -1.091 -0.457 -0.202 0.037 0.461 -0.053 0.754 0.219 -1.598 -1.046 0.224 -0.217 -0.038 -1.135 0.606 1.448 -0.413 -1.304 0.400 -0.086 1.022 2.661 0.622 -0.589 0.748 -0.367 0.092 0.824 -1.076 0.687 -1.098 -0.937 -0.580 0.993 -1.579 -1.284 0.164 1.074 0.600 -0.083 0.316 -0.525 -1.900 -0.110 0.123 0.308 0.415 0.017 -0.823 0.521 0.721 1.162 -1.575
-0.174 -0.434 -0.947 -0.023 0.870 -0.458 0.316 1.661 0.826 -0.347 0.996 1.048 -1.124 2.007 -0.864 -1.074 -0.565 0.558 -0.831 -1.040 0.433 1.433 -0.058 1.256 1.122 0.170 -0.145 0.941 0.475 1.326 -0.674 -0.325 -0.469 0.081 0.921 -1.112 1.780 -1.567 0.766 -0.235 0.842 1.322 0.793 -0.999 -1.238 -1.692 2.000 0.845 -0.489 -0.464 -0.120 -0.351 0.347 1.401 0.396 -0.904 0.108 0.269 0.139 0.300 0.625 -1.202 0.965 -0.411 -0.760 -1.185 -1.454 1.194 -0.299 -0.344 -0.572 1.207 0.289 -1.649 0.028 0.237 -2.105 0.894 -0.594 0.961 -0.449 0.347 0.502 0.332 -0.391 -1.252 0.987 0.404 -0.828 -0.489 -0.108 0.384 0.173 -0.010 -0.521 0.066 1.361 0.958 -1.029 2.118
-0.022 1.879 1.268 -2.093 0.946 -0.403 0.013 0.871 1.101 -0.864 0.030 -0.681 -1.208 -0.813 -0.066 -2.605 -0.716 -1.072 0.373 0.210 -1.556 -0.934 -1.714 2.203 -0.044 1.776 1.588 -1.097 1.740 0.229 -0.071 0.048 0.004 1.207 0.227 -2.089 -0.250 0.081 1.280 0.580 -1.049 -1.551 -0.981 1.313 -0.456 -0.224 -1.562 -1.537 -0.021 0.149 -0.308 -0.726 1.049 1.826 0.952 1.470 -0.252 0.082 2.447 0.835 -1.844 -0.844 -1.020 -1.342 0.318 -0.476 0.020 -0.271 -1.943 0.800 0.404 0.489 1.903 -0.772 0.040 -0.981 0.635 2.206 -0.167 -0.968 -1.081 0.067 -0.525 -0.142 -0.933 -1.201 0.771 -0.356 1.348 -1.801 -0.252 -0.083 0.968 -0.558 0.218 -1.723 1.003 0.387 -0.473 0.166
-0.011 1.394 0.843 0.854 -0.137 0.401 1.330 -1.287 2.298 -3.109 -0.680 0.044 0.256 -0.318 -0.445 0.029 1.727 0.224 0.038 -0.628 0.207 -2.497 -1.804 0.246 -1.013 -1.384 -0.216 -2.573 0.246 0.412 1.100 -1.390 1.070 -1.795 -1.442 -0.587 1.063 -0.780 -1.092 0.256 -0.169 0.504 0.122 0.949 1.013 -0.806 1.528 0.008 -0.020 -0.843 -0.039 0.032 -0.818 -0.377 -1.521 -0.305 -0.037 1.408 1.106 1.173 -1.139 -0.997 -0.836 -1.427 0.572 -0.656 -1.435 1.919 1.097 1.220 -0.452 0.752 0.820 1.782 -1.584 1.140 0.800 -1.196 0.157 -1.049 -0.463 -0.616 1.391 -1.344 1.026 -1.219 -0.782 0.898 1.912 -0.412 -0.825 -2.125 -1.480 1.424 -0.085 0.292 -0.339 -0.139 0.253 0.471
2.163 -1.173 0.758 0.229 -1.543 -0.558 1.037 -1.835 0.879 -0.229 0.001 0.564 -3.110 0.127 1.144 -1.615 0.051 -0.091 2.244 -0.677 -1.916 0.778 1.730 0.505 -1.007 0.420 -0.672 0.053 -0.205 -1.129 1.064 0.416 0.204 -0.120 0.498 1.303 -0.791 0.644 1.242 -0.280 1.222 1.214 0.141 1.767 1.792 -1.011 -0.268 -1.022 -1.261 -0.226 -1.236 1.458 0.476 -1.273 0.369 -0.384 0.903 1.201 -2.351 -1.187 -0.148 -0.379 0.213 0.573 -2.803 1.829 -0.836 -1.735 0.468 -0.430 -0.039 0.082 -0.622 1.773 -0.103 -0.431 -1.368 1.086 0.015 -1.669 -0.777 -0.245 0.642 -0.532 -0.243 -1.904 0.476 0.624 -0.013 -0.462 -0.912 0.592 -0.806 -0.356 -0.143 -0.615 -0.736 -1.752 0.750 0.901
-0.077 0.707 0.958 0.196 0.038 -0.387 -0.202 -1.273 -0.729 0.457 0.554 0.108 -0.288 -0.340 1.021 0.788 1.005 -0.240 0.037 1.379 0.742 0.478 -1.452 0.164 0.833 -0.614 -0.036 2.361 1.426 -0.885 -1.922 1.546 0.243 0.722 0.035 0.184 0.055 1.635 1.474 -0.616 0.016 0.309 -1.054 0.845 0.417 0.746 -0.525 1.141 -0.078 -0.050 0.882 -0.346 0.267 -1.161 1.320 -1.265 0.642 -0.699 -0.299 0.491 1.044 0.813 -0.473 0.543 -1.217 -0.258 -0.953 -0.255 -0.338 -0.493 -1.556 -0.258 0.789 -0.157 0.763 -0.925 -0.240 0.294 -1.238 -0.272 -0.066 0.078 -1.769 0.142 0.527 0.313 -0.007 0.596 -1.974 0.482 0.663 0.987 -0.197 0.301 0.649 -0.291 -0.942 -0.887 0.044 -0.865
-0.734 -0.154 0.279 -0.111 -0.659 -1.632 -0.495 0.377 -1.065 0.313 -0.549 1.446 -0.180 0.019 -0.775 0.504 0.282 0.515 -1.627 -0.246 0.801 -1.985 0.980 -0.483 1.448 1.938 -0.792 -0.412 1.515 0.197 0.666 -0.016 -0.773 -0.494 1.701 -1.424 0.460 0.121 0.779 -0.914 0.588 -0.456 -0.232 2.424 0.539 0.230 0.081 -0.962 -0.387 -1.338 1.280 -1.038 -1.869 0.138 0.798 -0.076 -0.198 0.177 -0.076 0.306 0.983 -1.013 -0.179 0.897 -1.243 -0.724 0.685 1.393 -1.694 -1.797 -1.169 -1.308 1.808 0.097 0.805 -1.654 0.678 -1.036 0.156 1.781 -0.866 -0.794 -0.996 -0.900 0.352 -0.947 0.974 -0.672 -0.213 1.358 1.356 0.800 0.563 0.055 -0.027 -0.902 -1.083 -0.045 -1.339 1.477
-0.136 0.196 -0.142 0.351 0.137 -0.480 -1.330 -0.776 0.023 -0.311 0.518 1.405 -0.330 0.076 -0.923 0.309 -0.508 1.036 0.522 -0.083 0.628 -0.693 0.085 -0.369 -0.054 0.967 -0.587 -0.695 -0.234 -1.522 0.671 -0.462 -0.921 -0.381 0.490 -0.219 -0.502 -0.679 -0.448 -1.692 -0.464 -0.182 0.776 -1.157 0.780 0.687 -0.842 3.714 -0.462 0.785 0.634 -0.730 0.806 -1.648 0.841 -0.232 1.867 -0.620 0.848 -0.050 -0.929 -0.466 -1.002 -1.471 -0.465 -0.792 1.063 0.090 -0.809 -0.728 -1.351 0.676 1.098 1.763 0.523 2.196 1.918 0.249 -0.005 0.559 0.784 -1.421 -0.112 -0.987 -0.440 -1.962 -0.091 0.533 -0.026 -0.835 1.731 0.809 0.369 -0.629 1.428 0.067 -0.005 0.387 -2.379 0.633
-0.829 0.556 1.556 -0.672 0.026 0.781 -0.902 -2.630 -1.465 0.758 1.555 -0.280 -0.647 -0.747 -0.217 0.937 0.878 0.351 1.143 -0.734 0.074 0.837 0.800 0.078 1.306 1.694 0.544 -0.346 -0.097 -1.035 -0.209 -1.274 1.405 1.466 0.925 -0.113 0.859 1.954 -1.488 0.900 2.550 -0.088 -0.117 0.055 -1.465 -0.508 -0.223 0.973 -0.086 0.949 0.353 0.225 -1.016 -0.986 1.726 0.093 -0.071 0.523 0.550 -0.483 1.262 -1.202 -1.316 -1.797 -0.214 -0.537 0.242 0.612 1.142 -0.064 -0.215 0.727 -1.342 -0.034 1.578 -0.220 -0.706 0.690 -0.116 -0.655 1.066 1.818 -0.393 -0.203 0.105 1.619 0.573 0.200 -0.595 0.927 0.035 1.389 -0.840 1.488 -0.672 0.018 -2.078 0.710 -0.020 1.230
-0.541 -0.009 -1.347 -1.689 2.752 1.241 -0.137 -0.935 -1.434 0.871 -0.460 1.397 0.419 0.486 0.567 0.397 -0.440 1.158 1.101 -1.573 0.187 -0.102 1.143 -0.408 0.750 0.041 0.390 1.769 -0.947 -0.579 0.896 -0.185 2.131 -0.019 -2.419 -1.283 -0.041 0.869 -0.274 -0.176 1.715 0.071 3.572 1.581 -1.281 0.216 -0.637 -0.434 -0.441 0.187 1.645 1.021 -0.554 -1.964 0.718 -0.732 -1.111 -0.210 1.898 0.171 -2.025 -0.613 1.016 -1.041 0.062 0.445 -0.520 0.547 -1.129 1.633 -0.545 -1.100 0.435 0.142 1.992 0.242 2.165 -1.103 -1.612 0.110 1.033 0.859 1.156 0.065 0.310 -0.968 1.570 0.976 0.385 -0.049 -2.308 0.445 1.339 -1.788 0.424 0.334 0.679 -0.325 -2.028 2.491
-0.845 -0.374 0.060 -0.761 1.668 0.086 -0.102 2.262 -2.655 0.367 -0.316 -1.204 -0.137 0.090 -0.283 -0.354 0.605 0.334 -1.113 0.758 2.706 0.635 0.107 -0.177 1.080 -1.067 -0.084 0.337 -0.650 1.015 -0.415 -0.863 -1.169 -0.606 0.824 0.249 1.212 0.265 -0.223 -0.612 0.082 1.103 -0.702 -0.124 0.203 -2.082 0.723 -1.359 -0.811 0.747 1.143 0.877 1.382 -0.703 0.529 -0.905 -0.430 -0.032 -0.372 -1.744 -0.395 1.706 -0.148 0.162 1.585 0.752 0.494 1.775 -0.515 0.404 -0.376 -1.526 1.178 -1.141 -1.667 0.456 0.889 -0.313 0.524 -1.503 -0.307 -0.789 0.530 -0.772 0.634 -2.095 2.826 1.349 -0.227 -1.525 0.429 1.327 -0.946 2.388 1.776 -1.769 -0.138 -2.435 0.863 1.093
0.827 0.703 1.344 -0.018 0.754 0.742 -0.415 1.232 -0.166 -0.195 -0.735 -1.325 -0.835 0.291 -0.653 1.393 -0.320 1.358 -0.921 0.844 0.207 -1.413 0.396 0.766 0.759 -2.337 0.442 0.546 1.648 1.144 -1.143 0.554 -0.910 0.099 0.441 -0.412 -0.341 2.098 -0.170 0.521 0.066 -1.063 1.312 -0.611 0.015 -0.663 0.089 0.061 -0.133 -0.162 0.855 0.506 -0.139 -0.259 -0.422 1.742 -1.392 0.186 -0.212 0.040 0.930 -1.039 1.000 0.082 0.075 1.794 -0.942 0.485 -0.341 0.682 -2.371 -0.615 0.985 0.798 0.732 -1.751 0.747 1.941 -1.009 1.190 -0.736 -0.940 0.556 -0.376 -0.502 -0.797 0.708 0.306 -0.638 -0.430 0.054 2.188 -1.319 -0.975 -0.011 0.261 -0.059 -1.264 -0.145 0.546
-0.262 1.032 -1.421 2.485 -0.654 2.428 -0.841 0.471 -0.577 -1.873 -0.380 -1.269 0.090 2.183 -1.061 0.409 -0.591 -2.013 0.726 0.898 2.570 -0.298 0.555 0.653 0.586 0.243 -0.783 -0.248 -1.419 1.303 -0.276 -1.106 -0.359 1.459 -1.412 0.980 0.984 -0.102 -1.028 0.386 0.942 -0.222 -1.278 0.248 0.875 -2.468 0.448 -1.424 -0.245 -0.375 0.440 -0.669 -0.298 -1.043 0.957 -0.231 -1.073 0.973 2.233 0.558 0.711 -0.472 1.330 -0.772 1.395 -1.990 -0.455 -0.542 -0.294 -0.821 -0.756 0.460 -0.665 1.106 0.311 0.570 0.569 0.049 -1.582 1.058 -0.325 0.823 0.621 -0.694 0.825 0.535 -1.054 1.014 0.977 -0.983 -0.871 -0.216 -0.072 -0.025 -0.549 -1.706 -0.171 1.725 -1.112 0.310
-0.219 -1.131 0.325 -0.699 0.840 -0.188 -0.933 -1.603 0.710 3.787 -1.509 1.371 -0.601 -1.761 0.714 1.643 0.661 0.062 -0.968 -0.686 1.233 -0.349 0.389 -1.559 -0.381 -0.373 0.931 -2.152 -0.858 -0.058 1.339 -0.353 0.312 0.642 -0.306 0.117 1.576 -0.422 -0.495 0.691 0.237 -0.028 1.048 -0.782 -0.773 0.244 1.251 0.438 -0.324 0.171 0.812 0.499 -0.173 0.789 0.097 -0.701 0.169 0.252 -0.911 -1.496 0.931 1.121 -0.217 -0.032 1.161 0.955 1.527 0.775 1.017 -0.108 -0.898 -0.350 0.007 -0.333 -1.427 -0.437 0.309 0.641 -0.218 0.223 -0.501 -1.007 -0.906 -0.003 0.493 -0.545 -0.171 0.545 0.213 -0.462 -0.212 0.425 -0.773 0.070 0.292 -0.299 -0.965 -0.310 -0.656 -0.539
-0.436 0.177 -0.425 -0.042 -1.190 0.274 -0.802 -0.318 0.334 1.493 -0.478 -0.728 -0.402 1.260 0.155 -1.203 -0.272 0.510 -0.050 -1.385 -0.501 -0.865 1.061 -0.225 -1.298 -0.920 0.351 0.078 0.565 0.220 -0.367 -0.112 -0.862 -0.302 -0.486 1.441 1.430 -1.351 -0.708 0.178 0.132 0.698 -0.203 -2.953 0.099 0.098 -0.142 0.521 0.972 2.146 -0.969 0.118 -1.416 0.220 -2.090 -0.226 -0.380 -1.417 0.564 -1.441 1.399 0.105 -0.037 0.540 0.890 0.303 -0.773 -0.182 0.012 -0.113 -0.322 -0.873 0.446 -1.585 1.282 -0.073 0.059 0.726 -0.567 0.547 -1.753 -0.188 0.959 -1.538 0.270 -0.080 -0.092 1.374 0.630 2.131 -0.435 -0.204 -0.163 0.508 0.362 0.071 -0.424 -0.608 0.045 -0.515
-0.948 1.444 1.220 0.780 -0.501 -1.685 -0.499 -0.297 1.457 -0.284 -0.693 -0.995 -0.146 -0.265 -1.009 0.406 0.832 0.523 -1.308 1.549 -1.568 -0.329 -0.102 -0.526 0.206 -1.612 -0.051 -0.063 -0.375 -0.199 -0.257 -0.781 -0.687 0.054 -0.670 -0.604 -0.541 1.967 1.173 0.210 0.219 -0.098 1.321 -0.664 0.231 0.258 2.284 -0.281 1.809 -0.567 0.981 0.157 0.930 0.376 -0.116 -0.672 -1.614 -0.255 -0.100 1.569 0.114 -0.167 0.155 -1.098 -0.346 -0.382 0.773 -0.375 0.314 0.424 0.244 -0.698 -0.702 2.405 -0.338 -1.374 0.045 -0.574 1.463 -0.545 1.530 0.427 0.885 1.183 -0.047 0.096 -0.037 -0.348 -1.304 0.059 1.859 -0.510 -0.239 -0.226 -1.176 0.312 -1.543 -1.139 -0.400 1.421
0.280 0.024 -0.470 0.799 0.003 2.052 -1.111 0.289 -0.426 -1.808 1.306 -0.337 0.198 0.962 -1.028 0.320 0.632 -0.352 -0.252 1.198 -1.152 -0.151 0.571 0.800 -1.050 0.175 -0.053 -0.509 -0.175 -1.099 0.380 0.377 -0.054 0.940 -1.176 -0.515 0.323 0.483 -0.989 -0.219 0.075 -0.298 -0.473 0.881 0.294 0.462 0.261 -0.532 -1.057 1.415 -1.132 1.242 1.427 -0.261 1.368 -0.845 1.187 0.734 0.856 -0.865 -0.597 -0.996 -2.131 -0.794 0.279 -1.266 -0.089 0.244 0.813 0.520 -0.821 -1.361 -1.166 0.728 0.948 1.924 0.535 0.339 0.882 -0.187 1.085 -1.293 0.347 1.476 -2.242 -1.465 -0.915 -0.939 1.637 1.029 0.190 -0.698 -1.519 -0.940 0.624 -2.514 -0.227 0.257 -2.738 0.410
0.918 1.328 -0.199 -0.388 -0.471 0.735 -0.414 0.976 1.263 -0.553 0.376 0.382 -0.021 -0.727 -0.503 -2.161 0.132 0.089 -1.867 0.367 0.703 0.692 -0.407 0.296 3.315 -0.895 -0.441 1.047 -1.286 -1.759 -0.155 0.231 2.342 -0.182 1.412 0.285 0.821 -1.846 -0.400 0.138 -1.845 -0.917 -0.970 0.942 -0.357 -0.970 0.788 -0.949 0.481 -0.472 -0.087 -1.979 1.172 -0.511 0.982 0.737 -0.681 0.665 -1.016 1.041 0.956 2.089 -0.403 0.231 -1.357 -0.192 0.370 0.408 -0.329 -1.266 -0.103 3.367 0.061 -1.541 0.477 -0.808 1.457 -1.063 -0.160 0.269 -1.298 0.982 1.209 -0.475 -0.855 0.198 -0.817 1.263 0.945 -1.392 0.272 0.627 0.738 -0.197 1.150 -0.384 1.487 1.232 0.109 -0.252
0.321 1.300 -0.285 -0.539 0.236 -1.013 0.064 -1.170 0.495 1.400 0.110 0.145 1.462 0.585 -1.255 1.497 -0.586 0.386 -0.027 -0.916 -0.780 -0.542 0.428 -0.234 -1.085 0.336 -0.689 0.119 0.493 -0.692 -0.625 0.765 0.302 -1.132 -0.022 -1.645 0.829 0.429 -1.432 -1.925 1.175 0.573 0.716 -0.110 -0.723 -1.166 0.211 0.226 -0.349 0.313 -0.481 -0.001 -0.331 0.706 2.088 -0.799 -1.754 -0.882 0.034 -0.355 0.355 0.637 1.186 -0.839 0.007 -2.086 -0.041 -0.040 -0.541 0.121 0.864 0.580 -1.088 -0.934 -0.211 0.791 1.128 -0.261 1.334 -1.199 -0.662 -0.360 -0.932 0.265 -0.388 -0.064 -0.167 0.313 1.234 -0.252 0.236 2.473 0.607 0.335 -0.873 -0.045 -1.165 0.362 -0.258 -0.806
-1.288 2.835 0.365 -0.682 -1.077 -0.445 -0.431 -0.927 0.091 -0.922 0.185 -0.928 0.904 0.965 -0.689 0.064 -1.213 0.240 1.612 -0.789 1.071 -0.282 1.518 -0.240 0.842 -0.529 1.845 -2.566 0.928 -0.400 1.537 1.692 -0.267 0.599 1.083 0.582 -2.188 0.575 -0.560 0.621 0.506 -0.472 -0.465 0.632 -0.834 0.496 0.353 -0.478 0.518 0.357 -0.349 0.088 0.655 0.778 -1.629 1.029 -0.364 -0.968 -1.188 -0.255 -0.849 -0.364 2.355 0.174 0.691 0.295 -0.430 2.211 -1.580 0.140 1.365 -0.249 -1.215 1.336 -0.565 1.364 1.122 1.037 0.458 1.376 -1.300 -1.197 0.879 0.895 -0.494 0.167 -0.457 -0.219 0.954 -0.503 -0.057 0.085 -1.544 -0.702 0.125 -0.298 -1.691 0.732 -1.105 1.102
-0.621 -0.752 -0.040 0.093 -0.489 1.187 -0.823 -0.427 0.449 0.066 0.468 -0.911 1.633 -0.316 0.714 0.571 0.645 0.900 -0.618 -0.206 0.986 0.287 -0.164 -0.354 -0.705 -0.479 1.302 -0.455 -1.229 0.949 0.517 0.154 -0.746 0.738 -0.745 -1.114 -0.154 0.212 -0.602 -0.201 -1.091 1.120 1.297 -0.472 0.162 -0.334 0.610 0.313 0.486 1.811 -0.184 -0.167 -1.348 0.966 1.148 1.738 -1.541 -0.155 -0.291 -0.073 0.532 0.204 1.310 -1.593 0.249 0.938 -0.385 0.513 -1.273 -0.116 -1.386 1.824 0.045 0.722 -0.029 0.775 1.602 -0.592 -0.074 -0.112 -0.010 0.294 -0.556 1.169 0.461 -0.848 -0.703 0.570 0.083 0.011 1.488 -0.367 0.330 1.481 1.114 0.290 0.513 -0.305 -1.463 -0.765
0.284 -0.180 1.351 -0.470 1.600 1.021 0.538 -2.123 0.588 0.791 -0.366 -0.111 0.371 -1.493 -0.646 -0.020 0.086 -1.084 0.715 -0.664 1.593 0.772 0.510 -1.775 1.154 1.041 -0.504 1.511 -1.465 -2.806 -0.938 0.306 0.204 0.510 -1.999 -0.390 -0.458 0.834 1.003 0.155 0.961 -0.184 1.648 0.298 0.441 -0.884 1.582 0.216 1.501 1.555 -0.274 -0.623 0.540 1.010 -1.140 -1.912 -1.208 -0.635 0.252 1.734 -0.218 -1.898 -1.153 1.449 0.129 -0.993 0.335 -0.280 1.407 -1.149 -1.087 0.925 -0.281 0.113 -0.511 3.013 -2.102 0.817 0.406 -0.697 1.155 1.689 -0.020 0.470 -2.923 -1.524 -1.276 1.797 2.054 1.367 -0.220 1.304 -1.351 0.201 0.419 -0.389 -0.670 -1.099 1.835 -0.017
-1.178 -0.001 0.908 -0.899 -1.128 -0.341 -0.436 -0.554 -0.303 -0.082 -0.476 -1.512 0.854 -0.624 0.087 0.230 1.550 -1.340 1.134 -1.179 1.084 0.407 1.533 1.664 0.063 1.645 -1.317 0.783 0.507 1.635 -0.959 0.088 0.181 -0.398 2.011 1.904 -0.872 0.652 0.507 -1.064 1.514 -0.191 2.089 0.733 -0.719 2.353 1.805 0.429 0.067 -0.437 0.802 -0.752 -0.056 0.784 -0.885 -0.170 0.964 1.165 -2.423 0.079 -0.732 0.111 -1.692 -0.528 -0.232 0.398 1.194 -1.247 -0.427 1.037 0.552 0.487 -0.154 0.888 0.290 -0.980 -0.373 -0.301 2.496 0.021 1.233 0.926 2.960 -0.698 -0.033 1.233 -1.360 -1.320 0.109 -0.648 -0.933 0.446 0.867 0.490 1.575 -0.507 -0.711 0.009 1.008 -1.218
2.161 -2.245 -0.346 0.001 -0.411 -1.308 -1.397 -0.107 -0.221 -0.535 1.290 0.904 0.707 1.648 0.536 0.355 -1.298 -2.210 0.937 -0.637 -1.883 0.636 -1.332 -1.723 0.247 -0.587 -0.324 1.214 0.973 0.271 -1.058 0.259 2.317 0.427 0.856 -0.880 0.643 -0.562 -0.778 -2.205 -0.753 -3.455 1.242 -1.542 0.476 0.666 -1.498 -0.520 -0.005 -0.907 0.416 1.109 1.403 1.462 -0.194 0.936 -0.312 -0.740 0.656 -0.406 0.625 0.176 -0.400 0.399 0.784 1.825 -0.353 0.928 -0.224 -1.104 -0.611 1.055 0.937 -0.690 0.634 -0.630 -0.041 0.608 -0.862 -0.184 -1.396 0.133 0.945 -1.045 -1.154 -0.728 -0.046 -0.325 2.157 -1.414 1.940 0.668 -1.981 -0.368 -1.440 -0.360 -0.261 -1.124 -1.272 1.227
0.861 -1.364 0.134 0.479 0.245 -0.644 0.058 0.832 -0.363 -0.175 -0.099 1.188 2.848 0.637 1.043 -1.762 0.501 -0.455 -0.594 -0.784 -0.557 -0.465 -1.193 -0.069 -1.118 2.645 2.377 1.384 -3.364 -1.013 0.818 0.714 0.463 -0.839 0.563 0.086 0.108 0.368 1.574 -0.291 -1.369 -1.143 -0.148 -0.497 -0.737 1.142 -0.204 0.729 0.014 0.832 1.149 -0.200 1.016 -1.342 -0.092 2.164 -0.976 0.294 -1.569 0.356 -0.027 0.052 -0.813 0.160 0.047 2.465 -1.033 -0.188 0.331 0.444 -0.662 -0.926 -0.702 -0.427 1.382 -1.627 1.450 0.206 0.060 -0.184 0.045 1.661 -0.205 -1.558 -1.209 -2.026 0.241 -0.578 -0.291 0.690 -0.272 0.058 1.868 -1.544 0.626 0.748 -0.042 1.213 -0.652 -1.147
0.780 0.874 0.817 0.253 -3.101 -0.095 -0.336 0.593 -0.080 0.580 0.482 -0.389 -0.298 -0.787 -0.715 0.389 -0.262 -1.093 1.544 -0.966 -1.134 0.477 0.536 -1.737 -0.501 0.856 0.496 2.245 -0.768 1.462 -0.086 -0.342 0.581 -0.298 -1.119 2.159 1.882 -0.682 -0.785 -0.641 -1.280 0.433 0.431 0.117 -1.738 -0.601 -0.142 -0.799 0.349 -0.357 1.595 1.761 -1.559 0.761 -0.168 0.279 1.720 1.362 -0.955 -1.392 -0.974 1.315 0.588 -0.429 -0.567 -0.412 -1.040 -0.117 2.593 1.513 0.054 0.554 0.484 -1.172 0.451 0.859 -0.242 0.706 -0.359 -0.404 -1.482 0.446 1.153 0.919 0.190 -1.319 -0.734 1.409 -0.073 1.014 -0.214 -0.983 2.481 0.168 0.855 0.459 0.646 -0.487 0.516 -0.358
1.676 -0.856 -0.284 0.764 -1.369 1.185 2.089 0.101 -1.337 -0.213 -1.113 1.772 -1.077 0.083 1.070 0.033 0.328 0.052 -2.293 -0.153 -1.619 -0.244 -0.553 -1.438 -0.134 -1.802 2.299 -0.160 -1.344 0.447 0.314 0.258 0.947 -0.251 0.846 -0.034 0.625 -0.769 0.002 2.277 -0.116 -0.267 -0.853 0.053 0.130 -0.715 -0.570 -1.151 -1.255 0.357 0.955 1.273 -1.590 0.246 0.908 -0.092 -0.263 0.310 0.560 -0.899 -0.417 0.154 -0.227 0.837 -1.465 1.091 0.886 0.064 1.561 -1.825 0.581 1.418 -0.905 -0.346 0.171 -0.789 0.373 -0.272 2.531 1.070 -0.076 1.755 0.330 -0.396 0.582 -0.407 -0.325 -0.420 1.041 0.844 -0.396 -1.357 -0.358 -0.991 -0.291 0.307 -0.688 0.392 1.848 -1.306
-0.551 -1.619 -0.275 -1.191 -1.310 -1.006 0.240 -0.195 1.007 -0.617 -0.023 0.064 0.763 1.093 -0.057 -1.997 2.121 -0.374 -1.652 -0.851 1.070 0.220 1.241 0.221 0.425 0.646 -0.314 0.570 1.233 0.726 0.058 -1.008 -1.108 0.685 0.152 -0.220 0.350 -0.943 0.669 1.302 3.263 1.616 0.127 0.331 0.339 -1.435 -0.845 0.835 0.291 0.928 -0.633 0.888 -0.530 1.317 0.985 0.494 0.695 0.130 -0.744 -0.663 1.225 -0.934 -1.480 -0.079 -0.199 0.993 -0.048 -2.028 -0.953 -1.593 -0.912 -0.857 -0.417 0.927 0.248 1.697 1.162 -0.675 -0.531 -1.111 -0.171 0.234 0.429 0.982 -0.184 -1.026 0.433 -0.302 0.088 -0.132 1.226 -0.161 -1.071 0.751 1.719 -1.458 -0.524 0.487 0.318 2.641
1.058 0.550 -1.663 -1.311 -0.292 -1.267 -1.362 0.836 1.266 0.502 -0.865 -0.074 1.003 0.981 0.455 -0.439 1.864 -0.697 0.129 0.025 -0.596 1.108 -0.129 1.264 -0.194 -0.499 1.254 1.461 -0.251 0.389 0.077 -0.958 0.623 0.097 0.252 0.572 -0.623 1.202 -1.270 0.386 0.838 -1.365 2.364 0.318 -0.690 -0.770 -0.305 0.139 0.904 1.250 -0.532 0.222 -1.644 -0.609 -0.502 -0.382 -0.113 -0.772 0.974 0.055 -1.127 0.804 -1.201 0.354 -0.668 -0.631 0.731 0.746 -0.494 0.359 -0.513 -0.649 1.926 0.021 0.077 0.291 -1.449 0.801 -0.728 -0.116 0.020 0.927 -0.692 1.737 0.759 -1.194 0.039 -0.708 0.012 2.193 0.660 1.253 0.347 -2.875 -1.598 -0.317 -0.604 0.050 1.139 0.227
-0.239 0.956 0.838 0.931 0.420 -0.517 1.796 0.581 -0.589 -1.557 0.040 1.064 -0.465 -0.450 0.353 -0.603 2.404 -0.809 0.832 -0.616 -1.005 -1.229 0.467 -0.568 1.137 0.002 1.300 -0.341 1.099 -1.109 -0.459 -0.436 0.690 0.065 0.877 0.541 0.933 1.362 -0.493 0.390 -2.088 1.078 1.197 0.997 -1.363 0.320 1.304 -1.687 0.744 -1.645 2.873 -0.488 -1.602 -1.474 0.321 0.057 0.831 0.355 -1.150 0.906 -0.608 0.930 0.539 -0.633 -0.228 1.165 0.268 0.281 0.682 -0.297 -1.831 -0.590 1.581 -0.794 0.193 1.430 1.253 -0.137 -0.000 0.527 -0.581 -1.172 0.931 -1.843 -1.599 -0.932 1.942 -0.328 0.778 -0.082 -0.944 1.424 -0.716 -1.365 0.092 0.354 -0.021 1.544 0.689 -0.590
-2.059 -0.622 1.315 1.501 0.868 -0.784 0.732 1.307 1.014 -0.233 0.584 -0.559 2.198 -0.216 -0.304 0.600 0.940 -0.930 0.414 0.440 -1.285 -0.459 -0.336 -0.550 -0.590 0.880 -1.805 0.537 -1.294 0.624 -0.488 -0.216 -1.811 -0.122 0.260 0.513 0.487 -1.464 0.128 -0.049 1.239 0.011 0.009 0.285 1.011 0.615 -0.651 -0.272 -0.724 0.954 0.938 0.237 -1.477 0.500 -0.453 0.690 0.380 1.037 0.749 -0.343 1.211 -0.108 -0.899 0.912 1.028 -0.614 1.099 -0.356 -0.420 -0.500 1.564 -0.291 -0.660 1.078 0.313 -0.543 1.583 1.713 0.491 -0.057 -0.247 -0.119 -2.179 2.471 -0.708 -0.168 -1.348 -1.705 -1.574 -0.499 -2.334 0.169 0.105 0.737 0.936 0.035 0.473 -0.620 0.626 0.749
1.787 -0.032 -2.176 -0.217 0.367 0.528 0.030 -0.503 -0.182 -0.820 1.160 1.796 1.045 1.406 1.383 -1.085 2.068 0.631 0.183 0.970 -1.715 -1.083 0.863 -1.053 -0.806 -0.574 -0.044 0.595 -1.118 0.716 0.329 -0.139 1.136 -1.186 -0.542 0.444 1.181 -1.330 0.840 -0.949 1.267 -0.262 -0.193 -0.212 0.769 1.783 0.886 0.497 -1.911 -0.201 -0.164 0.553 0.550 1.043 -1.144 0.282 0.750 -1.892 -0.309 0.160 -0.985 0.429 -1.262 0.314 1.333 0.442 0.597 0.708 -0.062 1.196 0.302 0.949 -0.402 -0.466 1.353 -0.953 -1.248 -0.110 -1.776 0.939 0.676 0.352 -0.264 0.014 -1.243 0.154 -0.517 0.220 -1.134 1.530 0.132 -0.075 -0.246 0.612 -0.860 -2.119 1.527 -0.235 0.374 -0.619
-0.897 -0.592 1.482 0.024 -0.593 1.547 -0.128 -0.452 2.202 -0.281 -0.008 -1.059 -0.934 1.064 0.696 0.174 2.158 0.160 -0.127 1.850 0.783 2.361 -0.329 0.183 -0.279 -1.203 0.033 -0.213 -1.174 0.317 1.660 0.401 -1.400 0.535 -0.445 0.143 -2.874 1.007 -0.606 -0.259 0.628 -0.253 -0.896 0.147 1.085 0.214 0.721 0.085 1.202 -0.615 -1.182 0.191 1.552 -0.826 0.734 -0.219 0.366 -0.336 -0.372 -0.859 0.382 -0.336 0.201 -0.255 -0.096 -0.297 0.204 -2.443 -1.312 1.074 -2.050 1.106 1.584 1.140 1.242 0.653 -1.586 -0.571 0.071 0.468 -1.148 0.761 -1.102 0.927 0.032 -0.535 -0.482 -1.006 0.770 0.508 -1.144 -0.257 -0.068 2.195 1.623 -0.332 -0.996 -0.980 -1.750 0.138
1.147 -1.629 0.878 -2.216 1.234 0.678 0.318 0.282 0.052 -1.304 0.053 0.094 0.462 0.312 0.965 -1.208 0.317 1.380 0.355 0.546 0.002 -1.488 1.435 -2.986 0.895 -1.676 1.484 -0.904 -1.810 -0.198 -0.173 -1.725 -0.899 -0.646 -0.406 -0.186 -0.819 0.344 0.873 0.807 0.417 -0.505 0.301 1.875 1.542 -1.635 0.451 -0.774 -1.367 1.175 -1.185 1.172 -0.619 -1.612 1.178 0.346 -0.473 0.237 0.354 -0.836 -0.220 -1.514 0.085 -1.966 -2.238 -0.622 -0.383 1.208 1.160 -0.575 0.677 -0.758 1.629 -2.551 -0.548 0.428 1.330 -1.426 0.761 -0.252 -0.095 -0.249 1.651 -0.484 -2.097 0.275 1.175 -0.416 2.169 1.150 1.001 -0.987 0.344 0.919 0.564 0.832 0.954 1.934 -1.114 0.008
0.674 -0.183 -0.297 -0.289 0.271 0.412 0.645 1.680 -0.697 -0.588 0.677 0.326 0.365 1.360 0.749 -0.338 -1.006 -0.579 -0.392 1.173 1.651 0.763 0.314 0.479 1.781 -0.720 0.191 2.101 0.213 0.060 -1.588 -0.203 0.613 -0.138 0.315 -1.610 -0.916 1.304 0.504 1.238 -0.064 -0.333 -0.875 1.075 0.716 0.229 0.139 1.438 0.238 -0.279 0.161 2.122 1.437 -0.037 -1.898 -0.006 -0.258 -0.416 -0.518 -0.742 -1.507 -0.392 -0.616 -1.064 -0.275 -0.379 0.759 1.635 1.973 -1.562 1.029 -2.382 2.154 0.612 -0.120 -0.401 1.028 -2.206 0.033 -0.337 -0.349 0.028 0.929 0.797 -0.331 0.414 0.046 1.905 1.303 -2.489 -1.464 0.344 0.354 -0.418 -0.077 0.769 2.063 -1.123 -0.484 0.570
-0.366 0.766 -0.362 -0.753 -0.049 -0.659 0.342 -0.084 -0.083 -0.714 -0.562 0.759 -0.619 0.581 -2.203 -0.122 0.358 -0.879 -0.102 -0.950 -1.641 0.394 0.235 -1.060 -1.186 -0.953 0.451 0.386 0.154 0.215 1.122 -0.667 0.538 0.971 0.953 0.071 -0.752 -0.016 1.117 -0.569 0.197 -0.146 -1.422 0.077 0.816 -0.704 -0.444 -0.315 0.951 0.197 0.066 -0.738 0.643 -0.715 -0.069 -1.710 0.743 0.106 0.586 -1.137 0.231 -0.103 1.115 0.688 -0.719 -0.141 -0.476 -1.979 -0.648 -0.686 -0.131 -0.943 -0.711 -0.567 1.763 0.441 0.656 0.809 -1.558 -0.324 0.283 -1.013 1.223 -0.734 -0.003 -0.928 1.398 0.762 -1.720 0.536 2.361 -0.595 -1.488 -0.326 -0.943 -0.627 -2.031 -0.438 -1.201 1.618
-0.695 -0.584 -0.711 0.930 -0.409 -0.937 -0.193 2.191 -0.833 1.396 -0.148 0.458 0.239 -0.901 0.815 0.562 -0.395 2.798 -1.226 -0.180 0.389 1.607 -1.408 1.280 0.566 -0.280 -1.129 1.268 -0.126 -0.599 0.620 2.054 -0.433 -0.199 -3.139 1.060 -0.209 -1.819 -0.110 1.035 -0.799 0.364 0.214 -0.486 -0.777 1.194 0.177 0.004 -0.093 0.405 -0.108 -0.308 -0.767 0.925 0.967 0.736 2.633 0.194 -1.314 1.260 0.774 0.166 -0.504 0.488 -0.599 0.339 0.174 1.762 -1.416 1.245 1.166 -0.239 -1.022 -1.721 -0.606 0.037 0.581 -0.597 -0.636 -0.827 0.400 -1.359 -0.196 0.924 0.147 0.082 0.000 1.172 -0.323 0.690 0.413 1.529 1.950 -2.080 -0.155 1.219 -0.392 0.771 0.331 -0.597
-2.747 0.067 -0.587 -0.120 -0.346 -1.347 -1.577 1.062 -0.984 0.405 1.399 1.373 0.512 1.040 -0.437 -0.406 1.078 -0.732 0.293 -0.041 -0.108 0.041 1.471 -0.390 -0.540 1.550 0.849 -0.609 0.755 0.139 -0.015 0.903 -1.422 -0.080 0.417 0.624 0.067 1.746 0.109 -0.628 -0.712 -0.021 0.568 2.053 0.388 0.105 -0.031 0.988 -0.010 -0.839 -0.012 -1.474 -0.979 -1.036 2.687 0.049 -1.085 -0.321 0.846 0.274 -0.120 -0.475 -1.491 -0.213 0.179 -0.891 -0.317 -0.157 0.401 0.133 -0.277 0.126 -0.636 -0.200 0.231 1.429 0.041 0.870 -0.538 -0.499 0.436 -0.438 -1.328 0.069 0.636 0.496 1.377 0.952 0.886 1.101 -0.677 0.580 0.789 -1.165 -1.997 0.528 0.377 0.992 -1.151 -1.624
-1.122 0.172 0.492 -1.965 -0.114 -1.722 2.420 -0.093 0.298 -0.915 -0.617 1.006 -1.031 -0.224 -1.749 3.259 -0.773 -0.647 -1.760 0.265 1.491 0.596 -0.918 0.600 -1.060 0.575 -0.198 -0.079 -2.898 -0.593 -1.023 0.253 0.036 0.041 0.115 1.602 0.358 -1.517 0.713 -2.064 1.687 0.307 -0.870 1.811 -0.242 -0.517 0.159 -0.886 -0.577 -1.722 -0.355 -0.228 0.292 2.285 1.832 -1.429 -0.671 -0.740 -0.595 -0.509 0.541 -0.681 -1.535 -0.912 -0.033 -0.362 -1.556 -0.641 -1.430 -0.873 0.504 -0.600 -0.096 1.118 0.476 0.605 -0.978 -0.973 -0.122 -1.991 1.102 1.871 0.002 -0.812 -1.073 0.281 0.275 -2.251 -0.697 1.235 -0.563 -0.808 1.019 -0.283 -0.442 0.301 -0.889 -0.205 1.267 -1.326
-1.223 1.379 0.754 -0.111 -0.565 0.081 1.776 -0.521 -0.461 0.454 -1.832 -0.229 0.844 1.819 0.450 0.804 0.014 -0.704 0.869 0.584 -0.156 -0.392 -0.032 -0.150 -0.002 1.086 -0.325 -0.067 -0.182 -0.761 -0.208 0.851 -0.423 0.666 0.242 1.367 -0.033 -1.649 1.501 -0.248 -0.662 0.983 1.568 -0.530 1.944 -1.233 -0.287 0.427 0.378 0.074 -0.515 -0.293 0.656 0.050 1.132 -0.318 0.475 0.610 -0.115 -0.108 1.109 -1.230 -0.280 0.247 -0.685 -0.119 1.022 -2.130 -1.114 -2.369 0.460 -1.544 0.144 0.168 0.338 1.114 1.883 0.416 0.567 0.269 -0.789 -1.452 0.668 -0.799 2.118 0.088 0.849 1.444 -0.520 -1.164 0.667 1.278 1.271 0.871 -0.043 -2.216 0.409 -0.230 -0.292 0.031
1.101 -1.174 0.487 1.049 1.135 -0.189 1.348 -1.001 1.305 0.891 -0.465 0.055 -0.664 -0.002 -1.209 -1.116 -0.227 -0.089 1.303 -0.583 1.057 0.129 -0.675 -0.496 2.238 0.092 0.796 0.253 0.426 -1.189 -0.719 0.410 -2.642 -0.737 -1.430 1.043 -0.211 -2.279 -0.139 -1.180 0.280 -0.355 0.928 0.231 -1.581 1.200 -0.767 -0.528 -0.525 -0.449 0.609 0.736 0.577 0.959 1.303 0.733 -1.648 -0.224 -1.062 -0.945 0.486 0.490 1.683 -0.724 1.674 0.575 0.136 0.155 0.224 0.083 -2.136 1.351 1.449 1.813 -1.692 0.106 2.455 -0.778 -0.136 0.050 -0.806 -0.004 0.679 -0.159 -0.322 1.125 -0.235 1.981 0.450 0.998 -1.161 -0.278 0.064 1.185 1.098 1.818 -0.358 0.189 -0.498 0.599
-0.568 0.122 0.486 -0.955 -0.026 -0.884 0.030 -1.763 -0.254 0.007 -0.652 0.553 -1.091 -0.265 -2.206 0.023 -0.571 1.958 -0.502 -0.491 0.072 0.174 -0.835 1.417 -1.262 0.744 -1.475 0.392 1.440 -0.379 -0.845 -0.622 0.968 -0.116 1.713 0.329 -0.357 -0.354 1.218 0.355 1.666 0.438 -0.830 -1.644 0.573 -0.140 -0.094 0.292 0.512 0.187 1.076 0.462 0.756 -0.156 -1.972 -0.184 1.431 1.233 -0.217 -0.503 -2.512 -0.018 0.054 -2.038 -0.576 -0.073 0.343 -1.033 -0.891 -0.311 1.476 0.278 -1.644 -0.548 -1.012 -0.787 0.456 -1.283 -0.874 0.877 0.400 1.214 0.085 -1.288 -1.102 1.047 0.766 0.238 -1.069 -0.375 -0.407 -0.288 -0.294 -1.608 0.604 -1.402 0.640 -0.939 -0.230 1.280
-0.067 0.689 -0.872 0.091 -0.834 -1.577 1.534 -1.513 -2.439 2.189 1.135 -1.462 -1.433 -0.698 0.855 -0.953 0.690 0.082 -1.332 1.473 0.034 0.120 0.601 -0.502 0.873 0.507 -0.070 -0.153 0.701 -0.291 0.916 -0.731 -0.464 0.323 0.817 -0.002 0.159 -0.029 0.832 0.438 0.089 -0.177 -0.166 -0.875 0.262 0.219 -1.181 0.642 0.195 0.049 1.442 -0.794 1.129 -1.559 -1.114 -0.838 -0.161 -1.258 -0.627 0.115 -0.425 -1.543 -1.326 0.426 0.141 0.022 1.237 -0.272 1.643 1.185 -0.330 -0.815 -0.066 0.254 -0.012 -1.111 0.229 -0.462 -1.439 -1.389 0.322 -0.799 0.259 -0.792 -0.383 -1.432 0.701 1.183 0.051 -0.444 1.135 0.697 -1.550 -0.542 -0.204 0.011 -0.756 -1.674 0.720 -0.194
0.047 -1.368 0.222 -0.218 -1.005 -0.177 0.653 -0.565 1.227 0.724 1.001 1.063 0.523 0.611 -0.726 -2.809 0.507 -1.420 -2.297 -0.354 1.854 0.783 -0.325 0.272 0.342 -0.505 2.141 0.391 0.829 2.881 0.318 -1.299 0.142 -1.151 -0.712 0.158 0.962 0.071 2.118 0.375 -1.022 0.256 -1.057 0.617 0.358 -1.697 -0.741 -0.888 -2.138 -1.474 0.352 0.360 0.428 0.559 -0.505 -0.092 -0.278 -1.865 -0.898 1.250 0.620 0.457 -0.022 -0.156 0.187 -0.580 -1.352 0.834 1.010 0.616 -1.636 1.514 1.839 0.047 -1.150 -1.031 0.836 1.611 1.247 1.923 0.655 0.991 -2.946 -1.179 0.185 0.706 0.116 -0.672 1.253 -0.517 0.749 -1.826 -0.003 -0.086 1.178 -0.518 -1.177 0.253 0.664 -1.891
0.796 0.043 -0.592 -0.669 2.511 0.286 -0.980 0.158 -1.117 -0.456 -0.817 0.078 0.611 -0.234 -0.051 -0.881 -0.247 0.242 -0.257 1.178 -0.137 -0.477 -0.042 0.628 -0.128 1.201 0.036 -0.605 0.008 -1.039 -2.539 -1.358 -0.450 0.058 -0.578 0.337 -0.626 0.580 -0.917 -0.160 -0.009 -1.041 1.180 0.790 -1.288 0.907 0.464 -0.811 1.096 0.061 -0.512 -0.914 -0.003 0.492 -0.586 1.092 -0.434 -0.666 -0.715 1.058 0.264 -0.153 1.932 1.010 1.743 0.388 2.159 0.090 0.966 -0.012 0.765 -0.322 -0.775 0.544 0.551 0.050 -0.421 -0.728 -0.099 1.377 -0.129 0.598 -0.908 1.239 -0.450 0.409 0.342 0.428 -0.023 -1.184 0.763 -0.559 0.151 -1.575 0.976 -0.896 0.540 0.392 -0.322 -0.071
0.174 -0.852 0.391 -0.443 0.148 0.129 -1.990 -1.135 -0.338 1.407 -0.434 0.179 2.020 -0.144 -1.040 -0.576 0.732 1.760 -0.130 1.767 0.842 -0.762 1.178 1.027 1.779 0.485 0.171 -0.077 -1.184 -0.235 -1.283 -1.623 -0.204 0.355 -1.185 1.907 0.503 0.655 -0.901 -0.673 0.053 0.800 0.632 -1.060 0.698 1.040 -1.750 -0.931 0.420 0.141 0.182 -1.599 -2.085 -0.262 0.602 0.375 0.143 1.086 -0.923 -0.548 -0.705 -0.615 0.168 0.240 -1.386 -2.237 -1.294 -0.858 -1.548 -0.281 0.601 0.163 0.244 -1.056 -1.829 0.152 -1.030 -1.417 -1.752 2.055 1.946 -0.795 0.500 1.244 -0.669 -0.354 -0.490 -1.510 -0.326 -0.661 -1.227 -0.706 0.507 -0.740 -0.078 2.209 -0.192 -0.672 -1.229 -1.592
-0.270 -0.340 -0.267 1.727 0.623 -0.733 -0.094 0.868 -0.085 0.497 0.613 0.271 0.643 -0.709 -1.112 -1.329 -1.219 0.810 0.726 0.065 -0.485 0.018 1.164 0.173 -0.613 0.880 -1.501 1.876 -1.720 -0.202 -0.939 -0.172 -0.023 1.471 1.626 -1.787 0.311 2.070 -0.104 -1.337 -0.475 -0.439 -2.530 -0.904 -0.646 0.965 -0.952 1.312 0.328 0.307 0.205 -0.654 -0.709 -0.186 -0.938 1.112 0.883 -0.676 -1.592 -0.628 -0.965 -1.197 -0.353 -0.292 -1.415 0.525 -0.029 -0.961 0.608 -0.577 0.371 -0.001 -0.432 0.740 1.177 -1.083 0.721 3.184 -0.803 0.118 0.765 0.439 0.242 -0.195 -0.821 1.456 0.979 1.447 0.659 1.296 -0.921 -0.037 0.555 -0.107 1.083 -0.568 0.905 -0.301 -0.197 0.022
-1.824 -0.742 0.243 0.265 0.218 -0.169 -0.746 1.368 0.213 0.250 -1.059 1.876 -1.125 0.176 -1.001 0.508 -0.528 -0.314 0.528 0.037 0.467 -1.452 0.386 0.584 -1.038 -0.686 -0.790 -1.694 1.025 -1.411 0.093 1.408 1.041 -1.972 -0.686 -0.162 0.991 1.072 2.269 -1.265 0.190 -0.606 -0.207 1.443 -0.111 1.477 -1.326 -1.137 1.341 -1.563 1.578 2.128 1.833 0.280 1.399 -0.075 1.162 -0.045 1.007 -1.392 0.499 -0.763 0.362 -1.759 0.166 0.883 -0.436 -0.761 -0.419 -0.074 -1.174 1.724 0.498 -0.075 0.638 -0.201 1.822 0.200 0.511 -0.752 0.030 1.566 -1.422 -0.010 0.315 -0.590 -0.005 -0.593 0.047 0.729 -0.102 -0.501 0.703 -0.251 -2.511 -0.690 0.833 -0.105 1.110 0.075
-0.072 0.296 0.504 0.469 0.684 -1.586 1.103 -1.079 -0.002 -0.509 -1.298 1.061 0.236 0.385 -0.087 -0.414 0.234 -0.641 -2.431 0.034 1.379 0.959 -0.448 0.981 -0.769 0.134 0.843 -0.492 -0.308 -0.267 0.518 0.007 -0.193 -0.290 -0.774 0.460 -0.741 0.148 -0.995 -0.005 1.375 -0.992 0.137 -1.907 -0.672 0.400 0.281 0.971 -0.015 -0.070 -0.512 0.152 0.576 0.416 0.271 -0.772 0.172 -0.927 0.565 0.035 0.942 -1.126 -2.014 -1.263 1.040 -1.036 -1.238 -0.217 -3.190 0.643 -0.725 -1.966 0.596 -1.207 0.202 -0.237 1.326 -0.204 0.286 -2.603 0.783 -0.937 0.752 -1.140 0.141 1.161 2.769 0.187 0.404 -1.890 -0.005 -0.531 -0.275 -0.726 0.474 -0.634 0.669 0.715 -1.706 -0.801
0.883 -0.381 0.941 0.532 0.432 0.612 0.067 -0.528 0.858 0.385 0.351 1.105 1.083 0.989 -0.516 -1.312 0.933 1.597 1.609 0.710 -0.692 -0.980 -1.480 1.016 1.967 0.625 1.433 -1.238 0.239 -0.246 -0.065 0.750 3.506 -0.436 0.657 0.348 -0.191 -1.515 -1.136 0.118 0.488 0.833 -0.079 -0.111 -0.767 1.593 -0.251 -0.666 1.582 -0.588 1.422 0.209 0.703 -0.232 0.676 0.098 -0.833 -0.275 0.547 -0.408 -1.741 0.862 -0.418 -0.220 -0.685 -1.694 0.679 0.089 -0.375 0.811 -0.226 0.649 0.811 0.915 0.475 -0.464 0.538 0.214 0.196 -0.375 0.656 0.329 0.295 -0.686 0.711 -0.309 -0.292 2.640 0.217 -0.367 -0.900 -0.532 1.350 0.532 -1.948 0.131 -0.931 -0.661 -1.668 -0.600
