Time: 30/03/2021 02:45:42
Batch size: 100
Epoch num: 12
Iteration per epoch: 120
Final loss: 2.30060
Train error rate: 0.87725
Test error rate: 0.88523
Hidden nodes:100 50 2 10


Initial weight:
# w1_0
0.280 0.662 1.604 0.571 -0.246 -0.120 -0.264 1.951 1.482 0.952 0.715 -0.733 0.189 0.236 -0.251 0.738 2.377 1.424 0.785 -1.311 1.278 -1.736 -2.092 1.563 -0.042 -0.949 -2.319 0.591 -1.113 -1.586 0.070 -2.033 -0.028 -1.504 0.182 -1.113 -1.029 1.086 -0.337 -0.073 -0.036 -0.543 1.393 0.292 -0.426 1.845 -1.330 -0.118 0.112 -0.974 0.145 -1.268 -1.621 0.826 0.032 -0.672 1.036 1.415 -1.131 -1.073 0.314 0.878 -0.198 -0.511 -0.635 -0.051 0.337 0.589 -1.925 -0.377 -1.454 0.989 0.124 -0.692 0.714 1.710 -0.393 -0.659 -0.019 2.106 1.075 -1.230 1.206 -0.607 -0.024 -0.423 0.410 -1.085 1.325 0.829 0.746 0.691 -0.361 -0.667 0.529 -0.196 0.386 -0.872 0.592 0.399
-1.485 0.419 0.170 1.176 -1.020 -0.176 0.220 0.204 -0.569 -0.681 -1.327 -0.037 -0.106 -1.012 2.890 0.089 1.119 -0.408 0.536 -1.199 -0.353 -1.906 -0.351 -0.467 0.354 1.693 0.861 0.573 0.287 -1.179 0.911 -0.216 0.785 -0.530 -0.065 0.712 -0.186 -1.237 -0.052 0.451 -1.760 0.156 -1.308 0.895 -0.195 0.207 0.295 0.514 -0.128 0.275 -0.100 1.530 0.577 -0.859 -0.033 -1.301 0.941 -2.994 0.017 -0.043 -0.515 0.605 -0.182 1.331 0.069 1.880 0.608 -1.212 0.387 0.985 0.345 1.016 -0.316 -1.243 -0.265 -1.492 0.418 0.727 0.414 -0.021 0.005 0.952 0.063 1.236 -0.014 0.711 0.867 0.936 0.281 -1.133 -0.742 -0.567 0.320 0.045 1.144 2.498 0.476 0.699 1.013 -1.573
0.435 0.418 -1.915 1.008 0.792 0.106 -0.099 -0.839 -1.457 -1.479 0.379 0.032 0.464 1.684 -0.376 0.644 1.460 0.591 1.435 -0.767 -0.523 0.603 -0.965 2.937 -0.084 0.605 -1.036 1.450 0.553 0.843 1.557 1.956 -0.711 -0.449 -1.546 0.911 0.710 0.148 1.472 0.625 -0.034 -0.589 -2.036 -0.805 -0.027 -0.057 1.944 0.066 -0.393 -1.813 -1.127 1.495 -1.484 0.378 -1.091 1.701 -0.051 -1.965 1.834 -0.969 -0.934 -0.110 0.322 0.602 -1.017 -0.989 -0.593 -0.752 -0.579 0.844 -0.154 -0.539 -2.098 0.411 0.813 0.381 1.112 0.841 -0.537 -0.587 0.838 -0.568 -0.923 -0.150 1.374 -0.999 -0.119 -0.232 1.492 1.135 0.572 2.177 -0.521 -1.673 -0.511 0.810 0.019 1.017 -0.153 -0.036
-0.113 0.542 -2.071 1.606 0.519 -1.093 0.217 0.550 0.260 -0.598 0.781 -0.329 1.474 1.077 -0.850 0.183 -0.361 -0.102 0.829 -1.017 0.141 0.155 0.297 -0.837 0.141 -1.044 0.103 0.306 -0.246 -1.699 -0.847 1.049 1.991 -0.602 -1.065 0.574 0.251 0.671 -2.440 -0.106 -0.639 -3.153 0.621 0.939 -0.418 -0.797 -0.802 -0.728 -1.121 -1.234 0.296 1.255 0.239 -0.087 -1.062 -0.610 -1.796 1.067 -0.888 -0.050 -0.962 1.690 1.376 -1.415 -0.979 -1.302 -0.632 0.230 -0.102 -0.215 1.267 -1.142 -0.590 -0.818 -1.127 0.913 -1.275 0.771 -0.130 -0.777 -1.098 -1.002 0.352 -0.143 0.722 -0.323 1.569 -0.331 -2.056 -1.535 -0.289 0.138 -0.798 1.124 0.018 0.067 -0.086 1.835 0.549 -0.575
-0.846 0.209 -0.155 0.602 -0.186 1.034 -0.086 0.082 0.524 -1.272 0.982 0.354 -0.733 0.901 1.494 1.004 0.098 -0.325 -0.270 1.255 0.686 0.727 -0.194 1.267 -0.278 -1.200 0.089 0.069 -0.067 1.535 -1.143 1.296 0.730 0.304 -0.623 -2.478 -1.890 -2.062 -0.364 -0.014 -0.253 0.494 -2.614 -0.788 -0.373 -0.479 -0.846 -1.883 1.496 1.450 -1.894 -0.405 -0.213 1.647 -0.487 1.025 0.117 0.864 0.442 0.019 0.287 1.362 -2.688 -0.223 0.211 -0.900 -1.595 -1.957 0.016 -1.299 0.561 -0.139 -1.320 0.637 1.096 -0.760 1.443 -1.720 1.646 -0.480 -2.036 0.951 -1.427 -0.678 -0.178 0.979 -0.405 0.903 2.059 0.031 1.835 -0.176 -0.714 0.513 -0.408 0.349 -1.838 -0.271 0.709 0.534
0.251 2.377 1.196 -1.068 -0.016 -0.556 0.171 0.677 -0.279 0.427 -0.322 -0.439 -1.285 -0.224 -1.612 0.496 -0.756 -0.821 0.494 -1.396 1.056 -1.208 1.176 0.058 -0.875 -0.992 1.710 1.311 -0.101 -0.183 0.668 -0.775 -1.067 0.127 -0.203 -0.905 -0.086 -1.702 1.381 0.514 1.342 -0.267 -1.645 -0.528 0.646 1.526 -0.285 -0.393 -2.016 0.370 1.269 -0.226 1.028 -0.206 1.297 2.569 -2.635 -0.560 -0.274 -1.921 -0.161 0.020 -0.410 0.352 -0.449 -0.170 0.172 0.080 0.057 0.111 1.325 -1.430 -0.242 -0.160 1.163 -2.191 -0.906 -0.279 0.892 -0.305 -0.766 -1.180 -0.231 -0.851 0.040 2.073 0.448 0.248 1.362 -0.084 0.455 -1.616 -0.892 -1.865 -0.051 1.499 -0.162 -0.332 -0.524 -1.062
1.606 -0.064 -0.005 -1.250 1.509 0.801 0.158 -0.078 0.331 -1.299 0.092 -1.089 0.202 -0.169 2.306 2.453 1.179 -1.287 0.759 0.761 -0.962 0.252 -0.442 0.479 -0.260 -0.355 -0.099 1.203 0.640 2.269 0.200 0.582 1.510 0.088 0.124 -1.196 -1.747 -1.273 0.246 0.564 0.028 -0.924 0.600 1.143 0.881 0.797 0.539 1.530 0.504 0.885 0.971 -0.069 -1.239 -1.112 1.022 -0.479 1.381 -0.537 0.742 -0.329 2.056 -1.732 0.722 -0.349 -1.479 -0.525 2.009 0.629 0.598 -0.288 0.610 -0.255 -0.588 0.765 -0.341 0.860 -1.790 -0.616 -1.766 1.685 -0.792 0.557 0.051 1.493 -0.566 1.376 1.563 1.646 -1.365 0.397 0.634 0.478 -0.590 0.747 2.177 -0.194 1.175 1.813 -0.969 -1.791
-1.610 -0.057 -1.256 0.056 -0.401 -0.454 0.237 -0.614 -0.421 -0.767 1.021 1.184 -1.808 1.314 -0.560 0.694 -1.196 -0.456 -0.217 2.534 -0.811 0.210 0.229 -0.968 1.742 1.246 0.766 -2.246 0.748 -0.448 -1.477 1.322 -0.137 -1.052 0.034 0.226 -0.780 0.599 -0.321 0.376 -0.721 0.300 -2.459 -0.663 -0.865 -0.847 -1.231 -1.500 0.578 -0.093 -0.227 0.796 0.909 0.285 1.590 -0.404 -2.130 -0.120 0.187 -1.281 -0.020 2.145 1.459 2.046 0.999 0.451 1.153 0.957 1.854 0.174 0.743 -1.745 -0.195 -0.367 0.802 -1.808 0.248 0.011 -0.779 -0.392 -0.048 -1.814 -2.437 0.189 -0.380 1.750 -1.073 -0.850 -0.459 0.174 -2.111 -2.068 -0.520 -0.449 0.868 -0.513 0.379 -0.627 1.068 -0.788
0.371 -0.536 1.196 1.160 -0.623 0.315 -1.049 0.258 0.004 0.221 -0.130 -0.005 1.077 0.040 0.574 0.787 0.004 0.291 0.204 0.991 0.222 0.092 0.896 -1.224 -0.785 -0.592 -0.790 -0.531 1.660 -0.241 1.028 -1.902 -0.746 0.658 -0.250 -0.398 0.197 -0.022 0.089 0.690 0.716 -0.006 0.376 -0.480 0.428 -1.829 0.219 1.334 1.825 -0.557 1.344 1.098 -0.548 0.112 0.231 0.079 -1.246 -0.639 0.895 0.841 -0.877 0.441 1.123 0.576 -0.668 0.493 0.454 -0.792 -0.234 -0.400 -0.095 1.378 0.206 1.360 -0.611 0.609 -0.678 1.826 -1.060 -1.891 0.384 1.372 1.501 -1.717 2.006 0.308 -0.678 -0.421 2.517 0.385 -0.334 1.486 0.937 -0.744 -1.094 0.225 -0.271 -0.912 1.020 -0.481
1.204 1.369 -0.340 0.838 0.960 -0.657 -0.212 0.433 -0.287 0.002 0.795 -0.435 0.585 0.891 -1.270 0.130 -0.015 -2.016 0.197 -1.480 -0.276 0.011 -1.462 -0.637 -0.080 -0.325 -0.087 -0.962 1.259 -1.110 -0.982 0.545 -0.446 1.402 -0.135 0.054 -0.751 0.146 0.759 1.028 0.046 0.526 -1.438 0.696 -0.852 1.140 -0.038 0.217 0.950 1.674 0.089 -0.609 1.965 0.209 -1.084 0.166 0.998 -0.149 0.592 -1.100 -0.125 0.110 -0.039 1.293 -0.221 -0.417 0.651 1.999 -0.900 -0.035 -2.013 -0.587 -0.374 -0.192 -0.979 -0.212 1.445 -0.139 0.477 -0.442 1.242 0.040 0.285 -0.876 0.593 -1.023 -1.673 -1.032 -0.197 -2.135 0.113 0.476 0.109 -0.468 2.613 -2.398 -0.078 1.347 -1.727 -0.829
0.723 -0.983 -0.132 -0.597 0.294 -0.863 1.436 0.706 1.287 0.494 -0.875 0.211 -0.813 -1.968 -0.840 -0.199 0.280 -0.795 -1.229 0.394 -0.998 -0.275 -1.128 -1.353 1.354 -0.936 1.186 -1.278 0.831 0.491 1.423 0.182 0.597 0.985 -1.273 0.077 0.425 -0.181 0.222 0.915 1.422 -0.223 0.098 0.626 -0.362 -0.120 0.869 -0.018 1.389 1.759 0.404 -0.516 -0.701 -0.875 0.629 0.298 2.599 1.622 1.306 2.317 -0.375 0.642 -2.273 0.166 0.175 0.383 -0.602 -0.500 -0.484 -0.523 -0.503 -0.280 0.262 -0.551 -0.362 -0.094 -0.450 -2.563 0.067 -0.636 0.091 -1.831 0.359 -1.153 -0.678 -0.204 1.182 -1.615 0.065 -0.711 1.195 -0.647 -1.589 0.182 -0.780 0.811 -0.667 -1.535 -0.821 1.154
-0.191 1.077 2.033 -1.286 0.859 -1.237 1.621 -0.623 1.401 -0.536 0.682 0.245 -1.421 0.635 1.881 1.226 0.001 0.895 -0.175 -1.020 0.458 0.618 -2.004 -0.588 0.441 -0.358 0.060 -2.070 -0.413 0.225 2.090 0.335 1.836 0.355 1.443 -0.228 -1.496 0.065 -0.377 0.901 -0.683 1.627 0.390 0.018 -0.411 -1.560 1.922 0.380 -0.878 0.308 -2.032 0.420 0.205 -1.221 -0.575 -1.270 -1.165 0.212 -0.254 -0.597 0.403 -0.582 -2.244 1.559 -1.321 0.039 1.782 -1.665 0.226 0.959 1.023 -0.238 0.167 -0.332 -1.101 -0.612 0.624 1.492 0.280 0.786 -0.031 0.042 1.111 0.442 1.272 0.309 -0.567 0.286 -0.864 -0.112 1.713 1.478 -0.520 0.332 1.176 -0.412 -0.189 0.771 0.829 1.985
0.005 -1.457 -1.255 -0.277 0.734 0.568 -0.216 0.339 -1.618 -0.654 1.440 -1.156 -1.080 0.989 2.107 -0.204 0.900 0.377 0.145 0.301 -0.382 1.055 0.616 0.478 -0.165 1.337 1.383 -0.485 0.615 0.892 -0.365 -0.072 -0.434 1.421 -0.525 -0.007 0.663 -0.592 -0.731 2.189 -0.137 0.009 -0.306 -0.626 -2.330 1.564 1.512 0.152 -0.407 -0.831 -1.987 0.062 -1.651 -1.108 1.265 0.441 0.599 -0.444 -0.429 0.138 -0.340 1.326 -0.275 -0.216 0.553 -0.395 -0.435 1.731 -0.912 -0.553 0.176 0.354 -0.109 0.823 1.899 1.389 -0.500 0.934 -0.110 0.026 0.914 0.056 0.181 0.901 -0.373 -0.091 0.215 -0.200 -0.837 -0.510 0.260 0.347 -0.791 -1.535 -1.942 1.053 1.491 0.317 -0.103 0.312
-1.191 -0.947 -1.053 -1.317 0.834 -0.399 -0.875 0.351 -1.313 1.218 -0.059 1.667 -0.077 0.608 -0.901 2.380 -0.787 -0.229 -0.195 -0.428 0.867 0.577 -1.251 0.507 -1.012 -0.358 -0.348 -1.335 0.642 -1.010 0.759 -2.664 0.846 0.772 -0.465 -0.175 0.491 1.878 -0.852 0.431 0.591 -1.529 0.708 -0.533 0.059 -1.510 -0.492 -0.556 -1.237 1.090 -1.567 -1.349 -1.364 0.202 1.357 0.433 0.572 -0.788 0.718 1.468 1.616 -0.231 -0.677 1.631 -1.587 2.710 0.448 -0.163 0.357 -0.925 0.439 1.529 -0.022 -1.176 1.742 -0.506 0.357 -0.064 -0.195 0.715 0.292 -0.401 0.845 0.540 -1.319 0.215 0.362 1.769 0.740 0.718 0.325 0.021 -0.762 1.186 0.149 0.969 -0.807 -0.548 -1.716 -0.490
-0.765 -1.178 0.173 1.555 -0.758 -0.605 -0.299 -0.832 1.562 -0.275 1.860 -0.967 0.866 2.167 -0.335 -0.297 0.518 0.636 0.661 -1.338 0.082 -0.133 0.752 -0.412 0.349 -1.054 1.277 1.860 1.283 -0.625 -0.796 0.157 -0.138 0.373 -1.116 0.683 -1.376 -0.099 1.146 -0.576 -0.332 -1.325 -0.553 -1.832 1.595 1.955 0.422 -1.226 0.491 0.524 -1.627 -1.251 0.959 1.821 -0.033 1.086 0.391 1.477 -0.659 2.252 -0.885 1.605 -1.097 0.823 0.718 -0.151 0.100 1.575 -0.700 -0.235 0.346 0.243 0.586 -0.478 0.200 -0.853 0.375 -0.793 0.091 -0.121 -0.100 0.785 1.830 -0.036 -1.371 -0.375 0.349 -0.495 0.693 1.313 0.336 -0.463 -0.282 -0.326 0.427 -0.553 -0.500 -0.164 -2.008 -1.745
0.831 -0.948 -0.983 -1.651 0.761 -1.621 -0.819 1.282 0.130 0.112 0.058 -0.505 1.053 -0.283 -0.550 0.170 -0.038 0.544 -0.210 -0.559 -0.083 -0.134 -1.208 0.350 -1.439 -0.534 -0.363 -0.828 0.815 -1.564 -0.471 1.776 0.210 -0.381 -2.774 1.126 1.086 1.909 2.017 0.567 -0.516 -0.920 0.947 1.902 -0.148 1.876 1.508 0.212 -0.684 -0.443 1.053 -0.208 -0.213 -0.144 -1.009 0.783 2.008 0.873 -0.824 1.523 1.094 1.894 -0.724 0.529 -1.807 0.559 0.027 0.563 -1.615 -0.122 -0.828 -0.955 0.949 -0.140 -1.389 0.334 0.529 -0.088 -0.365 -0.334 0.594 -0.057 -0.023 -0.332 -0.429 -1.121 -0.227 -0.546 0.378 -0.045 -1.231 0.679 1.607 -1.014 -0.793 2.012 -0.094 -1.268 -0.035 -1.592
-0.198 1.094 -1.100 1.759 0.444 0.094 0.731 -2.131 -0.855 -0.087 -0.740 0.498 -0.385 0.682 0.138 0.992 0.864 -0.970 -0.638 -0.248 -0.880 -0.709 -1.515 -0.047 0.744 1.016 -0.969 -0.228 -0.279 -0.549 0.123 -0.099 -0.175 1.062 0.799 -0.370 0.635 0.465 0.377 0.697 -0.469 0.082 0.825 -0.198 0.463 -0.777 0.349 0.916 -2.267 1.001 -0.652 0.033 1.040 1.442 1.226 0.723 0.075 -0.507 -1.369 0.026 -0.187 -1.862 -0.337 -0.278 1.603 0.405 -1.387 0.141 -0.235 0.852 0.537 -0.391 0.143 -0.150 0.585 -1.734 -0.962 1.130 1.163 -0.173 0.320 -0.333 0.965 -0.292 2.103 0.599 -0.763 0.448 -1.888 0.340 0.400 -0.234 0.506 -1.121 1.899 0.756 0.309 -0.041 -0.099 1.436
0.700 -0.414 0.722 1.176 -1.733 1.648 1.104 -0.053 -1.276 0.724 -0.875 1.753 -1.020 -0.215 0.599 0.561 -0.766 1.030 0.351 1.159 -0.524 1.468 -0.177 0.382 0.784 1.474 -0.408 0.934 1.206 0.353 0.346 -0.730 -0.433 0.328 0.076 -0.191 0.590 0.165 0.844 -0.962 1.041 -0.075 -2.746 0.117 0.330 -0.456 0.008 -1.368 -1.553 -1.384 1.816 1.326 -1.778 0.501 -1.110 -0.018 0.103 0.066 1.371 -0.515 0.485 0.253 0.094 0.030 -0.338 -0.697 1.216 0.479 2.307 1.096 -2.058 -0.342 -0.121 -1.099 -1.628 -0.112 -0.603 1.051 0.651 0.539 0.774 -0.235 -0.534 -0.066 -0.674 0.111 -0.969 -0.103 0.753 0.497 0.344 -0.085 1.320 2.188 -1.027 -0.365 0.568 0.044 0.702 0.772
-0.729 -0.257 -0.270 0.197 0.426 1.269 0.139 0.796 -0.532 -0.971 0.814 -0.265 -1.565 0.690 -0.352 -0.845 -0.250 -1.321 -1.220 -1.378 0.592 0.799 -0.218 0.207 -0.269 1.036 2.272 -1.615 -1.651 -0.789 0.280 0.435 -1.386 -0.472 -0.332 -0.620 1.149 0.181 -0.121 1.172 -0.069 -0.631 0.329 -1.129 -1.244 1.443 0.637 0.276 -1.685 -0.275 1.161 -0.552 -1.011 1.913 -0.686 -0.690 1.164 -0.395 0.426 -0.275 0.183 -0.673 -0.677 -0.034 -2.201 1.244 -1.198 -0.092 -1.872 -1.837 0.419 -0.998 -0.654 0.491 -1.081 -1.195 0.790 1.052 0.563 -0.191 0.547 -0.242 2.190 -0.493 -0.415 -0.920 0.321 0.691 -0.823 -0.212 0.073 0.664 0.195 -0.839 1.109 1.395 2.264 1.163 0.080 1.856
-0.030 0.500 -0.421 0.942 0.096 -0.669 -0.427 0.372 -0.227 1.194 -0.477 -0.451 -0.701 -0.351 -0.048 1.277 0.493 -0.900 -0.017 -0.338 0.982 -0.383 0.655 -0.264 -0.537 -0.572 -0.256 0.786 -1.206 -0.920 0.395 0.024 -1.300 0.181 0.964 0.588 -0.941 0.372 -0.395 1.534 -0.931 -1.155 -0.726 -1.105 -0.931 -0.422 -1.041 0.251 0.341 -0.740 -0.975 -0.236 0.300 0.147 0.153 0.935 -1.369 -0.265 -2.121 0.126 -0.384 -0.217 -0.258 2.120 -0.259 -1.538 -1.893 0.184 -0.035 -0.855 -0.388 0.776 0.185 -0.646 -0.382 -1.324 -1.437 -0.581 1.739 -0.222 -3.265 -0.488 1.025 1.150 -0.664 -0.108 -0.882 -0.272 0.619 0.442 0.475 1.219 -0.132 1.351 -0.967 0.086 -0.656 -1.065 0.223 0.272
0.716 -0.233 -0.480 -0.780 0.765 1.152 -1.013 0.147 -0.797 -0.313 -0.830 0.942 -0.105 1.644 0.553 -1.682 0.588 -0.468 -0.459 -0.193 0.581 -0.409 -0.926 0.665 1.598 1.850 -0.291 -0.543 -1.154 -0.777 1.192 -0.613 0.686 -0.749 -1.548 -0.801 -0.130 -0.645 0.314 -0.358 1.007 1.306 -0.185 -1.226 1.348 -0.240 -0.541 -0.132 0.208 1.588 1.423 0.006 -0.023 -0.530 0.700 -0.574 -0.901 -0.299 0.486 0.595 -1.272 0.177 -0.580 -0.286 -0.384 0.913 0.331 1.597 0.074 1.356 1.974 1.470 1.327 1.436 -0.569 -0.258 1.242 0.113 -0.279 0.453 -0.491 1.790 -0.888 0.848 -0.150 0.197 -1.198 0.832 1.806 -0.911 -0.078 -0.629 -1.534 -0.597 0.586 2.022 -0.964 -1.569 0.361 1.025
-0.157 1.092 0.554 -1.141 1.369 -0.586 1.097 -0.983 -0.249 -0.060 0.323 -0.592 0.713 -1.346 0.436 1.466 -0.857 0.548 1.962 1.656 -0.456 0.410 0.400 1.282 -1.587 -1.312 0.576 -0.227 1.653 -1.205 0.885 0.558 -0.289 -0.473 -2.355 -0.285 0.148 -0.059 0.699 2.688 -0.265 -0.475 2.229 -1.178 -0.394 0.680 0.975 -0.269 1.232 -0.118 -1.167 0.741 1.964 0.204 0.215 0.608 0.969 0.793 0.804 1.099 -0.665 1.787 1.577 0.335 -1.000 -0.012 1.202 0.219 -0.804 -0.518 -0.508 0.084 -0.658 0.733 -1.949 -0.967 0.878 1.154 -0.746 0.274 0.207 -0.037 -2.364 1.291 1.135 -1.670 -1.148 1.912 1.777 0.765 0.290 -0.483 -1.196 -1.477 0.172 0.443 1.399 1.648 -1.408 -0.171
2.798 -0.717 0.086 -1.850 -0.273 1.123 -0.754 -0.571 -0.394 -0.235 1.498 -0.144 0.109 0.040 0.912 -0.137 -0.721 0.034 1.129 -0.536 0.162 -0.672 -1.800 0.667 -1.144 -0.702 -0.771 -0.574 0.621 1.740 -0.485 0.255 -0.181 0.669 1.912 1.621 -0.091 1.522 -0.697 0.358 0.291 0.603 -1.320 -0.860 1.205 -2.097 -0.158 -1.089 -0.842 -0.683 -1.202 -0.985 0.874 0.276 0.221 0.180 -1.126 1.237 1.880 1.735 0.153 0.264 1.181 -0.185 -2.031 0.185 -0.277 0.248 0.461 -1.314 0.138 -0.278 -0.605 0.640 1.162 0.385 0.183 0.038 0.481 0.292 0.659 -0.376 -0.742 -0.878 0.064 -0.078 0.971 -1.084 0.477 2.875 -1.642 0.218 1.046 0.982 -0.585 -0.103 0.804 -1.180 -0.370 -0.093
0.947 0.421 0.894 2.107 -0.668 1.426 -0.685 0.031 0.670 0.007 -0.379 -1.165 0.718 -0.915 -0.105 -2.384 0.488 -1.027 1.534 -1.727 1.199 1.367 -0.889 -0.084 -0.690 1.516 -1.914 2.165 -0.541 -0.087 -0.792 0.023 0.349 -0.426 -0.158 -0.691 0.964 2.064 -1.012 -0.579 -1.588 0.326 0.900 1.906 1.265 0.231 1.031 -0.846 -2.332 -0.241 0.544 -0.232 0.304 -0.669 0.609 1.709 -0.398 -0.103 0.322 -0.518 0.486 -0.943 2.594 -1.404 -1.322 -0.090 1.360 -1.292 -0.716 -0.102 -0.924 0.712 1.332 -0.258 0.256 1.013 0.194 -1.201 0.676 0.513 0.625 0.734 0.424 0.409 1.357 0.332 -0.585 1.017 0.334 0.781 0.050 -0.392 1.089 0.885 0.702 0.225 0.998 0.193 0.242 0.714
1.203 -0.816 -0.364 -1.367 1.207 0.324 0.042 0.066 -0.572 -1.415 -0.392 1.903 -0.524 -0.638 -0.441 0.264 0.816 2.284 -0.291 1.055 -0.358 -0.491 -0.053 1.659 0.714 -1.433 1.362 1.865 0.421 0.826 -1.069 -0.156 1.318 -1.282 1.956 0.798 0.060 0.814 -0.868 -1.299 -0.140 1.409 0.630 0.916 -0.055 0.375 -1.067 -0.723 -0.899 0.164 0.151 1.013 0.905 1.088 -0.315 -0.179 -0.186 0.473 1.041 0.497 0.842 0.526 -0.775 -1.261 -2.243 1.389 -0.262 -0.364 -0.713 0.417 1.184 1.297 0.142 0.328 -1.242 1.573 -0.508 1.720 -1.065 1.649 -0.391 0.585 0.365 1.041 -1.369 1.310 -0.416 1.556 -0.090 -0.413 1.303 0.534 -0.071 -0.287 -0.683 0.576 -0.859 -0.107 -0.348 0.873
1.231 0.457 1.747 1.338 -1.474 -1.611 -0.691 0.448 0.123 0.964 0.652 -0.412 -0.781 -0.452 1.311 -0.893 -1.961 0.347 -0.252 0.861 -0.306 -0.988 -0.346 0.600 -0.349 -1.051 -0.332 0.699 -0.103 0.274 0.526 0.938 0.306 -1.006 -0.611 1.829 -0.123 0.659 0.304 -0.470 1.598 0.378 -0.924 0.794 0.168 0.133 -0.749 -0.363 -0.709 0.115 0.779 -1.527 -0.210 1.219 0.980 -0.275 1.258 -1.450 -1.748 -2.452 -0.204 -1.086 0.041 0.966 1.953 2.122 -0.340 -0.017 -2.084 0.225 -2.189 1.565 0.468 -1.156 0.790 -1.073 -1.485 0.937 0.942 -0.173 -0.245 2.186 -0.189 2.724 0.633 -1.278 0.246 -0.901 -1.365 -0.549 0.924 -0.994 -0.931 0.676 -0.116 -2.412 0.423 1.791 -1.168 -0.704
0.225 -1.200 -0.573 -1.006 0.513 -0.339 -0.429 1.159 1.542 1.222 -2.671 -0.648 -0.533 -0.895 0.746 -0.012 -1.924 -0.811 -0.213 -0.600 -0.037 -1.819 0.647 0.541 1.287 0.620 0.580 2.317 0.219 -0.480 0.403 -0.032 0.375 1.592 -0.429 1.865 -0.125 0.349 1.218 0.118 0.230 0.028 -0.058 -0.092 -0.509 -0.619 -0.520 0.454 0.451 -0.787 -1.040 -1.177 -0.874 -1.228 0.277 0.161 0.308 -0.345 0.397 0.102 0.598 0.279 -0.484 -0.630 -0.490 0.239 1.384 1.213 -0.663 1.698 2.469 2.552 -0.122 -1.681 -0.454 0.542 -0.328 0.432 -1.305 2.286 -0.526 -0.246 -0.839 -0.355 -0.360 -0.512 -1.352 -0.370 -0.105 0.635 -0.116 -1.060 1.226 0.245 -0.264 -0.017 1.219 3.410 1.777 -0.569
0.734 0.445 -0.795 0.494 -0.554 -1.231 0.375 1.553 -1.243 0.057 1.017 0.566 -0.223 0.237 0.323 -1.426 -0.380 -1.016 0.491 0.198 0.387 0.642 -1.308 -0.710 0.301 -0.442 0.539 -1.120 0.253 2.001 0.522 0.101 -0.772 0.496 -0.097 -1.429 0.391 -0.636 -1.374 -0.011 0.761 0.511 -0.761 -1.610 -1.147 0.714 0.322 0.731 0.788 -2.386 1.274 0.829 0.620 -1.025 -0.272 -0.058 -0.640 -0.359 -0.476 -0.520 0.348 -0.274 0.846 0.596 1.196 -0.864 -0.099 -0.541 -0.613 0.038 -0.692 -0.008 0.224 -0.256 -1.641 0.676 0.058 -0.901 -0.332 -0.787 -1.591 -0.055 -1.620 1.000 0.089 -0.505 1.328 2.078 0.330 1.100 1.223 0.330 -1.610 -0.199 -0.933 0.616 -0.326 -0.918 -0.339 0.185
-1.033 1.193 -0.934 0.248 -0.578 1.097 1.307 1.033 -0.241 1.064 0.375 0.150 0.450 -1.485 -0.177 -1.752 1.822 0.619 0.154 0.122 0.581 0.835 -1.216 -1.548 0.719 -1.270 -0.326 -0.046 0.753 0.604 0.495 -0.016 -0.698 -0.459 -1.413 -0.473 0.463 -0.007 -0.122 2.454 -1.681 1.723 -1.625 0.720 -0.651 0.061 0.078 -0.082 0.538 0.257 -1.297 0.807 -0.256 -0.199 -1.641 1.309 2.067 -1.630 -1.266 1.062 2.012 0.021 -0.599 0.930 1.291 1.744 -0.123 0.903 -1.518 0.561 -2.325 -0.988 0.708 -1.953 1.652 -1.678 -0.360 -1.013 2.499 -0.265 -0.933 0.040 0.491 -1.428 -0.418 0.906 -0.237 1.129 0.224 2.001 0.754 -0.026 -1.941 0.309 0.230 -0.364 0.827 1.044 -1.405 -0.355
-0.627 -1.256 -1.646 0.271 0.161 -0.782 1.646 0.133 -1.572 1.001 0.638 1.064 -1.060 0.040 -0.132 -0.646 1.170 1.025 -0.428 0.231 -1.066 -0.223 0.962 -0.544 -0.352 -0.938 -0.352 -0.119 -0.731 -0.258 -0.648 -0.142 1.454 0.361 -1.680 0.264 -0.248 -0.106 1.859 0.027 -0.234 -0.037 -0.986 -1.533 1.399 -0.634 0.896 1.633 -0.976 -0.458 0.798 0.725 0.775 0.460 -0.496 1.401 1.165 -0.247 1.410 -1.260 -0.094 -0.814 -0.693 -1.120 1.236 -1.387 -0.413 -0.349 0.881 0.929 -0.641 -0.312 -0.988 0.869 0.272 -1.801 1.388 -0.752 -1.577 -0.103 0.382 0.422 2.069 0.528 1.015 0.434 0.999 0.067 -0.601 0.217 1.644 0.024 -2.038 0.886 0.987 -0.190 0.484 0.976 -1.511 0.311
0.191 2.008 -0.413 0.684 1.209 -1.462 -0.067 0.651 0.838 -0.379 0.593 1.493 -0.257 -1.425 -0.406 0.051 -0.802 -0.404 0.435 0.064 -2.580 -1.011 -1.479 0.750 1.839 -2.166 0.181 -0.107 -0.651 0.285 1.180 -0.077 -0.607 -0.260 0.462 0.176 0.714 1.487 2.702 0.580 0.809 0.582 1.244 0.578 -1.486 0.210 -1.341 1.192 -0.218 1.137 -0.552 0.555 -0.737 0.042 2.983 1.152 0.173 1.255 0.178 0.356 -1.567 -1.536 -0.056 0.786 0.512 1.201 0.174 0.722 0.357 -2.795 1.337 -1.014 1.306 -0.549 -2.464 0.393 0.550 -1.237 0.557 0.162 0.314 0.441 1.020 0.927 0.722 -1.554 1.328 -0.842 0.554 -1.560 1.883 -0.165 -0.380 0.322 -0.751 -0.992 -0.145 1.586 -1.185 -0.922
2.669 0.849 0.906 -0.739 -2.154 0.193 0.813 0.138 -0.451 -0.967 -1.333 -0.095 1.139 0.630 1.169 0.276 -0.690 0.323 1.477 -1.213 -1.380 -0.141 -0.949 0.726 -1.854 0.150 1.275 0.827 1.484 1.018 0.040 0.261 -0.524 1.861 -0.656 -0.132 -1.766 -0.945 -1.228 -0.672 -0.397 0.737 -0.079 0.113 -0.402 1.427 -0.162 -1.007 0.110 -1.211 -0.218 -1.533 0.171 -0.536 1.378 -0.754 -0.390 -0.860 1.739 0.701 0.018 -0.147 0.062 1.175 -2.006 -0.353 0.019 -1.422 -0.110 1.869 0.148 0.514 1.612 -2.004 -0.557 -0.552 -0.720 1.883 -0.268 -1.535 -0.595 2.015 -0.164 -0.126 -0.608 2.177 -0.943 0.218 -0.878 1.035 0.547 -0.457 -0.943 -1.937 -0.481 -1.005 0.542 0.948 -0.997 0.596
-0.062 1.062 -0.352 -0.995 -0.734 1.714 -0.816 1.495 1.650 -0.023 1.206 -1.563 -0.442 1.276 1.234 0.152 0.784 -1.622 -2.103 1.728 -0.870 1.457 0.785 -0.761 1.001 0.216 -0.225 -0.224 -1.360 1.074 -0.092 0.122 -1.848 1.131 1.653 0.025 -0.235 -0.047 -0.326 -0.421 0.202 1.115 -0.595 1.888 -0.746 0.834 -0.659 1.071 0.790 -0.450 0.547 -2.778 1.184 -0.351 0.025 1.399 0.564 2.455 -0.684 -0.004 0.460 1.204 1.448 -0.011 0.502 0.426 -0.828 0.144 0.148 0.169 -0.146 1.072 -1.368 -1.570 1.327 -0.356 0.298 -2.037 -1.428 -2.192 0.091 -0.730 -1.365 2.044 0.520 0.107 -1.010 -0.095 0.373 1.891 -0.311 -0.183 0.246 -1.224 1.303 -0.116 0.575 0.344 0.717 0.516
0.271 -0.715 -0.211 -0.889 -1.002 -0.095 0.350 -0.152 1.352 -1.952 -0.247 0.542 -0.711 1.086 1.362 0.508 0.296 -0.775 -1.419 0.287 0.148 1.068 1.153 -0.802 -0.068 0.940 -0.629 -0.636 1.653 1.268 -0.715 0.851 1.459 1.093 1.868 1.734 -0.518 -0.043 0.809 0.555 0.654 2.207 1.508 -1.436 -0.704 -0.557 1.206 -0.875 -1.262 1.611 0.760 0.742 -0.177 0.243 -0.604 -0.954 -0.836 0.529 1.077 1.000 -2.721 0.417 -0.345 -0.884 1.671 -0.970 -0.797 -0.447 -0.174 -1.227 0.955 0.854 -0.781 0.308 -1.341 1.683 -0.844 -0.135 1.054 1.351 -0.015 -0.229 1.758 0.462 -0.698 0.496 1.805 -0.654 -0.085 -1.108 0.101 0.302 -0.060 -0.443 0.305 -0.859 0.441 1.148 1.143 0.492
-0.529 1.135 -0.100 -0.343 -0.738 -0.587 -0.428 0.719 -1.095 1.307 -0.284 0.156 0.590 0.299 -0.456 -0.850 0.279 -0.341 0.890 0.799 2.092 -1.149 -0.159 0.701 -0.451 -0.138 1.805 1.101 1.145 -1.496 1.337 0.454 -0.432 -0.959 -0.248 0.809 -0.726 -0.370 -0.634 0.818 -0.390 -1.289 -0.249 -0.884 -1.097 -0.135 1.221 1.186 -0.562 -1.159 0.810 -1.049 -1.368 -0.804 -0.275 0.457 -0.459 1.066 0.480 -0.077 2.598 -0.814 -1.685 0.252 -0.860 -0.690 0.678 0.185 -0.146 0.418 -1.028 0.560 -0.021 0.187 0.001 -0.177 -0.128 0.878 2.050 1.735 -0.800 0.122 -1.761 0.291 1.055 -0.940 -0.767 0.878 -0.942 0.882 -0.611 3.165 -0.305 1.485 -2.002 -0.830 0.080 -0.110 -0.290 1.970
2.270 1.030 -0.235 -0.426 1.780 1.281 -1.696 -1.918 0.098 -0.903 1.269 -0.060 -0.234 -0.552 -0.224 -0.829 1.791 -0.884 -0.143 -0.942 -1.168 -1.414 0.481 0.947 1.336 -0.115 -1.283 0.149 -0.187 -1.368 -1.788 -0.339 -1.694 -0.186 -1.788 -0.620 -0.292 -2.447 -0.747 0.190 -0.755 0.776 -0.382 0.280 -0.046 0.313 0.088 0.193 0.526 2.465 0.767 -0.620 -0.193 -2.060 -0.277 0.308 0.913 -0.959 -1.079 0.409 -0.705 0.870 -1.244 1.266 -1.542 1.569 0.836 1.552 -0.129 0.495 -1.141 -1.204 0.886 -1.657 0.627 -0.588 0.665 0.973 0.346 -1.026 -0.064 -0.456 1.711 1.483 -0.075 0.668 1.204 -0.795 0.755 1.197 0.585 -1.319 0.425 0.738 1.398 0.549 -0.721 -0.390 -1.579 0.196
-0.818 -0.421 0.555 0.280 -0.834 -0.035 0.171 -0.002 -0.014 -1.167 0.983 -0.663 -0.624 -0.034 1.624 1.095 1.293 -0.651 -0.206 -0.350 2.410 0.279 -1.402 0.969 0.297 -0.928 -0.657 -0.834 2.142 0.862 -0.927 -1.843 0.952 0.387 0.821 -0.056 -1.044 0.076 -0.245 1.899 -0.530 -1.908 0.278 1.581 -1.143 -0.061 0.144 0.652 1.206 -1.248 2.205 -0.521 0.457 -2.518 -0.692 -0.547 0.908 0.105 -0.993 -0.214 -0.608 -0.131 -0.940 1.370 -0.518 0.033 0.175 -0.455 -0.897 0.365 -0.623 -0.376 -1.666 0.494 0.707 0.889 0.074 0.474 -0.260 -0.038 -0.593 -1.168 -1.368 -1.227 -0.105 -0.404 0.425 -1.168 -0.168 1.244 0.132 -0.483 -0.195 -0.378 -0.654 0.572 1.907 1.309 1.493 -1.170
-0.261 0.203 -0.734 1.355 0.244 -0.320 0.797 -1.059 -0.890 -0.160 -1.528 0.532 1.128 -1.706 -0.212 -1.492 -0.739 -2.048 -0.442 -1.458 1.295 -0.059 0.058 -0.028 -0.636 0.131 -0.166 -0.671 -0.351 0.567 0.300 1.297 0.923 -0.077 -2.613 0.279 0.557 -0.646 1.074 -0.038 -1.149 0.967 0.032 0.876 -0.736 -1.377 -1.190 0.456 -0.851 0.275 -0.078 -1.358 1.133 1.845 -1.877 0.494 -0.309 -1.142 -0.130 0.873 -0.905 1.280 -0.365 -2.073 0.109 -1.510 -0.562 -0.595 -0.232 -1.857 -0.435 -0.265 -0.072 1.150 -2.012 -0.536 -0.077 2.449 1.071 0.778 0.683 -2.036 -0.817 1.766 0.116 0.695 -0.235 -0.572 1.047 1.296 -1.072 -0.978 1.859 1.562 0.650 0.520 -0.769 0.167 1.277 0.007
0.292 -0.186 -1.210 -0.375 0.348 0.961 -0.389 1.841 -0.442 0.755 -0.370 2.933 -0.729 0.828 -1.431 -1.751 -1.955 -1.026 0.279 -0.755 -0.107 0.756 0.590 -1.293 -1.188 -0.785 0.239 -0.044 -0.017 -0.862 -0.449 -1.171 -0.143 0.141 -1.224 0.898 -0.654 -0.877 0.036 -1.319 -1.013 0.307 -0.738 0.087 0.776 -0.824 -1.057 -0.776 0.016 0.468 -2.273 -0.096 -0.275 0.176 -1.379 0.500 -3.002 1.305 -1.694 0.059 1.084 -0.579 0.420 0.786 -0.448 -1.375 1.104 -0.874 0.432 2.341 -1.312 -1.561 -0.293 0.557 0.911 0.776 -1.114 -2.635 0.186 -0.438 -0.757 -0.502 0.075 0.015 -0.565 0.588 -0.260 -0.962 -0.348 -0.730 1.109 0.074 0.037 -0.841 1.557 -0.959 -0.221 -0.451 0.934 -0.244
0.309 1.003 -0.584 0.491 -0.916 -0.405 -0.589 -1.003 1.178 -1.031 -0.163 0.140 -0.687 -0.099 -0.266 -0.960 -1.954 -0.690 1.213 2.727 -0.568 0.592 -0.203 1.022 0.312 -0.675 0.231 0.554 0.337 1.436 0.274 -0.580 1.007 1.413 -0.491 -0.487 -0.734 1.611 -0.784 -0.003 -1.002 -0.252 0.384 0.200 -0.275 0.434 -0.202 0.613 -0.426 -0.256 -0.851 1.569 0.563 -0.507 0.446 1.062 0.953 -1.015 -0.419 -0.237 -1.616 0.545 0.123 -0.113 0.437 0.098 -0.271 -1.583 1.778 1.032 -0.873 -0.048 0.349 -0.330 0.976 0.238 -0.516 0.382 -0.876 -0.078 -0.262 2.326 0.223 0.126 -1.463 -0.657 1.682 -0.751 -0.151 0.917 -0.799 -0.787 -0.560 0.311 2.360 -0.345 -1.084 -0.254 -1.808 -0.115
0.073 0.298 -0.374 0.244 0.992 1.167 1.080 -1.543 -0.428 -0.723 1.868 0.067 -0.105 -1.476 -0.708 -0.271 0.523 -0.477 0.149 3.097 1.621 -0.536 0.084 -0.681 -0.324 -0.852 -0.162 0.834 -1.319 1.820 -0.120 1.125 0.698 -0.296 -1.930 0.459 0.964 -1.030 0.699 0.090 -0.048 1.770 -1.126 -1.760 1.300 -1.597 -1.091 1.729 0.042 1.270 3.512 0.180 -0.512 0.389 0.419 0.372 0.371 1.206 -0.990 0.298 -0.880 0.797 -2.060 -0.950 1.364 0.824 1.184 0.115 1.855 0.676 -1.818 -0.792 -1.169 -1.145 -0.311 -0.228 -0.208 -1.591 -1.081 1.068 1.808 -1.240 -1.932 -0.804 0.287 -0.130 -1.440 0.700 -2.042 1.162 1.737 0.870 0.622 0.445 -1.396 -0.891 0.950 1.635 0.266 1.016
0.406 -0.551 -0.154 0.580 0.140 -1.522 -1.703 -0.439 1.320 -1.066 0.545 -1.245 -0.580 -0.288 1.806 0.755 0.046 -0.667 -0.716 0.026 -0.596 0.408 0.107 1.085 -1.647 0.167 -0.703 1.039 0.446 -1.846 -0.335 0.897 0.878 -0.409 0.421 1.309 0.453 0.552 1.530 0.825 -0.279 -0.787 1.722 -0.005 0.827 -0.603 1.272 0.085 3.337 -0.473 -0.029 -0.245 -0.616 1.373 0.160 -2.020 0.711 1.428 -0.313 -1.127 1.568 0.858 -0.607 -1.201 -0.074 -1.032 -0.662 -0.872 -0.954 0.172 0.220 -1.400 0.002 -0.604 -0.581 -2.285 -0.633 0.183 -0.645 1.221 -0.671 -0.470 0.521 -1.703 0.006 0.091 -0.686 0.194 -1.057 0.233 1.677 -0.831 -1.409 1.546 -0.202 -0.323 -1.037 -0.363 -1.501 -0.143
-0.689 -0.210 1.038 1.967 0.513 0.722 1.113 0.187 -0.863 -0.473 -1.478 0.584 -0.355 0.272 -0.530 -0.772 -0.497 -0.806 -0.260 -0.718 1.383 0.458 0.353 -0.255 1.995 0.622 0.163 0.585 1.238 0.953 -1.609 -1.754 -0.718 -0.863 0.878 0.810 -1.121 -0.531 1.108 -0.677 1.401 2.011 0.307 0.010 0.208 0.361 1.242 0.437 -0.153 -0.810 1.071 0.297 -0.130 0.207 0.075 -1.035 -0.918 -0.499 -0.521 0.912 -1.194 0.575 -0.634 0.175 -0.197 -1.437 -1.111 0.156 -1.433 0.352 -1.669 0.466 -1.269 -0.695 1.713 -0.903 -0.667 1.026 -0.542 -0.560 2.593 0.318 1.389 -0.594 -0.170 -0.434 0.280 1.790 1.572 0.866 0.795 -0.009 -0.032 -0.124 0.487 0.060 0.619 -0.570 -0.295 0.695
-0.850 -1.950 1.551 0.605 1.040 -1.145 -0.947 0.560 -1.914 0.541 -0.971 0.448 0.159 0.712 1.093 -0.225 0.942 0.350 0.679 0.080 -0.462 0.487 -0.624 -1.558 0.482 -0.085 1.085 0.532 -0.359 -0.063 -0.019 -0.550 -0.011 1.634 0.268 0.559 -0.492 -0.769 -0.524 -0.456 -1.600 0.567 0.232 0.852 1.248 2.260 2.081 -0.004 1.070 0.340 1.717 -0.208 2.750 0.241 1.607 -0.547 -1.024 -0.958 1.690 -0.760 -0.237 -0.368 -0.236 -2.641 0.243 -0.027 1.360 -1.254 -0.771 1.001 0.182 0.474 0.339 -0.001 -0.528 1.344 -1.232 0.600 -1.193 -0.341 0.234 0.123 -0.450 -1.664 -0.859 -0.172 -0.700 -0.368 -0.228 -0.426 0.836 0.252 0.911 0.139 0.794 0.704 -0.464 0.698 -0.697 -0.061
-0.043 1.415 2.322 1.494 -0.565 -0.587 0.150 0.188 1.697 0.151 -0.758 0.046 -0.557 0.669 0.328 -0.314 -0.710 0.727 -1.103 -1.739 0.368 -0.041 -1.135 -1.119 -2.621 -0.225 0.674 2.826 0.127 1.191 0.295 1.299 -0.252 -0.417 -0.009 0.278 0.256 1.177 -0.709 -0.615 0.780 -0.221 0.859 -0.499 0.724 -0.002 0.902 -0.788 -0.715 0.694 -2.049 0.263 1.182 -0.743 0.205 -0.305 -1.510 0.086 1.079 -0.620 0.188 0.680 0.029 -0.340 -0.586 1.739 -0.019 -1.703 -2.367 -0.672 -1.832 -1.475 -0.542 0.973 0.878 -0.108 -0.961 0.521 0.838 -1.931 0.717 -0.929 -0.361 -1.321 0.614 -0.237 0.916 0.945 -0.419 0.625 1.966 0.344 -0.847 -0.968 1.453 -0.628 1.847 1.485 0.852 0.682
0.746 -0.829 -0.237 -0.859 0.005 2.357 0.281 -0.375 2.023 0.350 0.753 0.226 -0.873 0.514 -1.249 -1.722 -0.930 -1.066 0.424 -1.716 0.394 -2.557 0.992 -0.589 -0.790 -0.562 0.710 0.196 0.776 -0.968 -0.184 -1.234 1.714 -0.782 -0.840 1.479 -1.763 -1.216 -0.627 -0.427 -0.060 0.992 0.409 -0.679 1.942 -0.077 0.230 2.574 0.753 -0.835 -0.054 1.987 -0.470 -0.459 -1.057 -0.889 0.107 -0.108 -1.073 0.044 -0.754 0.287 0.069 -0.251 -0.460 0.350 0.345 0.243 -3.009 -0.217 -0.216 2.247 1.177 0.612 0.856 -0.965 0.605 0.747 0.760 -1.365 -0.905 0.991 1.949 0.432 -0.003 0.428 -1.665 0.852 0.232 -1.437 1.036 1.505 -0.436 1.690 0.963 -1.118 0.697 0.084 1.349 -0.803
-0.272 -0.952 -0.301 1.459 -0.244 0.339 0.877 0.283 0.803 -0.670 0.693 -0.896 1.263 -0.795 -1.573 -0.430 1.440 -0.292 -1.020 0.448 -0.548 2.342 -1.466 -1.326 -1.114 -0.222 1.384 1.181 1.066 0.491 -1.210 0.787 -0.163 -0.345 1.462 -0.805 1.321 -0.796 -0.822 -0.373 0.987 -0.962 -0.306 0.208 1.019 -0.844 1.170 0.514 -0.759 0.005 1.549 -0.264 -1.793 -1.044 1.939 -0.034 3.086 0.991 0.001 1.023 1.307 -1.292 -1.857 1.066 -0.582 -0.579 -0.218 1.004 2.341 0.096 -0.510 -0.765 -0.444 0.497 -0.183 2.185 -0.125 0.490 0.424 1.267 -2.174 2.000 1.973 0.441 -0.174 0.289 -2.256 -0.054 -0.730 -0.121 0.473 0.073 0.883 -0.058 1.865 -1.118 0.745 -0.812 -0.014 -0.965
0.377 -1.766 0.108 0.152 -1.028 1.464 -0.205 -1.004 1.407 -0.863 -0.363 -1.571 2.689 -1.173 -0.236 -0.832 -0.496 0.537 -0.967 -1.379 0.894 1.030 -0.389 -0.789 -2.152 0.901 0.610 0.050 1.814 -0.802 0.169 1.169 -0.749 -0.122 0.305 -1.455 0.317 -0.145 -0.511 0.047 -0.538 -0.567 1.310 0.146 0.527 -0.387 1.991 0.347 -0.227 0.449 0.395 -1.961 0.634 -0.544 -0.177 1.133 -0.550 1.422 0.129 -0.318 0.239 0.793 1.244 -0.255 1.109 0.998 -0.069 0.646 0.497 -0.467 -1.871 -2.376 -0.430 -0.430 0.633 -1.249 -1.391 -0.627 -0.413 0.021 -0.986 0.986 0.283 0.843 0.502 0.436 -0.652 -2.248 0.898 -0.502 -2.198 1.991 -0.144 -1.631 -1.039 -0.562 0.943 -0.363 -0.652 -1.084
-0.606 -0.375 -0.904 -1.441 1.862 -0.269 0.506 -0.035 -1.660 0.325 -1.761 0.172 0.802 0.077 0.015 1.232 0.498 -1.179 0.057 -2.973 2.031 -0.049 0.555 0.287 -0.319 1.449 0.509 -0.871 -0.378 0.634 -0.333 1.256 0.049 0.537 1.167 -0.708 0.085 0.086 -0.157 -0.343 1.309 1.675 -1.069 -2.247 -0.355 -1.004 0.200 -1.269 1.070 -1.491 0.270 0.436 1.243 0.889 -0.444 -0.534 0.228 -0.843 0.333 1.629 0.686 0.602 -2.733 -0.124 0.486 -0.313 -1.148 -0.795 0.481 1.667 -0.699 -1.496 -0.464 -0.378 -0.536 0.040 -0.020 1.556 0.328 -0.691 1.036 -0.174 -1.459 -0.579 -1.451 -0.520 0.551 1.074 1.109 1.140 0.382 -0.334 0.150 -0.987 0.095 -0.210 -0.380 0.696 0.546 1.283
0.605 -0.025 0.213 0.220 -0.352 -1.366 0.467 1.492 0.248 0.368 0.917 -0.853 1.257 1.395 0.706 -0.553 -0.182 0.895 2.807 0.098 0.731 0.057 -0.444 -0.259 1.080 0.213 -0.665 -1.205 -0.880 0.320 0.209 -0.046 -0.073 0.901 -0.796 1.082 -0.563 -0.186 0.317 0.739 0.207 -0.174 -2.147 -0.181 -1.615 1.658 0.016 -0.076 -2.937 0.703 -0.253 0.854 -2.341 0.076 -2.806 0.632 -1.179 1.350 0.901 -0.300 0.232 -0.499 1.082 -2.044 1.006 -0.362 1.046 0.788 0.448 -0.057 -1.227 -0.340 -1.465 0.111 -2.823 0.982 0.104 0.100 0.631 0.928 0.550 0.328 -0.347 -0.242 -0.015 0.901 -0.546 2.065 -1.421 1.185 -0.266 0.385 -0.180 0.061 -1.128 -0.482 0.498 0.455 -1.424 -0.269
0.713 -1.805 -0.572 0.466 -0.540 -0.665 1.230 0.829 -0.377 1.222 -2.088 -0.290 0.358 0.209 -0.082 1.093 0.749 -0.680 0.749 -0.549 0.467 1.997 0.369 0.713 1.790 -0.165 0.327 -0.332 1.484 -0.939 0.703 -1.263 -0.519 0.785 0.204 0.928 0.596 0.570 -0.292 -0.560 -1.690 1.111 2.665 0.602 -0.543 0.223 2.352 -0.738 0.120 -0.406 0.560 -0.799 1.938 -0.205 -1.176 -0.863 0.752 -0.555 -0.463 -0.088 -0.168 1.232 -0.656 -0.975 0.466 0.191 -0.399 0.359 -0.661 -1.126 -1.200 -0.109 -0.109 2.729 -2.468 -0.158 0.361 0.499 0.250 -2.724 0.927 -0.627 -0.164 0.472 0.177 -0.196 0.342 -1.371 -0.680 0.727 0.493 0.250 -0.119 0.755 -0.335 -1.145 0.046 -0.193 1.310 -1.932
0.513 -0.033 -0.947 -0.101 1.321 1.809 -2.618 -1.420 -0.591 -0.341 -0.659 -1.103 0.819 1.978 -0.317 -1.222 -0.950 -1.034 0.495 -0.351 -2.161 -0.244 -1.865 -0.369 0.529 0.457 0.711 -0.890 0.386 -0.354 0.862 1.137 0.612 0.797 0.404 0.060 1.692 1.525 -0.170 0.476 1.405 0.985 0.651 -1.234 -0.653 -1.945 -1.984 0.091 -1.232 -0.533 2.168 0.130 0.366 1.065 -1.892 0.579 -0.359 0.087 0.795 0.420 -1.148 2.234 -1.254 -2.449 -1.256 -0.526 -0.557 1.433 0.458 -0.849 1.143 -1.070 0.945 0.116 -0.016 -0.449 1.246 -1.021 1.785 1.355 1.924 0.870 -1.399 -0.137 0.617 0.159 -0.287 -2.106 -0.223 0.854 -1.047 -0.106 0.887 -0.361 0.108 0.438 1.919 1.684 1.934 0.639
-0.106 -0.883 1.569 1.746 1.414 -0.290 -3.005 1.163 -2.025 -2.575 -0.718 0.023 -0.577 -1.925 -2.269 -0.061 0.330 -0.072 -2.366 1.194 -2.255 1.414 -2.199 1.949 -0.437 0.130 -0.611 1.279 0.109 -0.304 1.976 -0.307 1.133 -2.283 0.897 0.394 1.926 0.568 -0.722 0.813 0.064 0.169 0.192 0.330 1.107 -1.105 -1.608 -0.627 0.125 -0.283 -0.586 -0.575 2.120 1.171 1.277 0.419 1.534 -1.204 0.207 0.998 -1.362 -1.715 -0.858 -0.429 1.490 -0.179 0.754 -1.114 -2.131 0.303 -0.716 1.041 -1.676 -0.921 1.657 0.114 -0.183 -0.414 -0.736 0.747 -1.216 0.881 0.351 -0.116 -1.401 0.975 0.173 -0.776 0.186 -0.830 1.268 -0.019 -0.911 -0.858 -2.292 -0.539 0.555 0.516 1.203 -0.387
0.006 0.453 -1.320 -0.519 0.057 -0.189 -0.097 0.946 0.023 -2.661 -1.245 2.415 2.437 -0.855 0.159 1.601 0.514 0.115 0.176 0.318 -0.284 -0.271 0.456 -0.062 -0.192 -0.484 -0.607 0.389 -0.505 -0.380 1.202 -2.452 0.227 1.388 -0.242 0.671 -0.288 2.759 0.574 -0.343 -0.928 -0.645 -0.521 -0.345 0.234 -0.071 1.314 1.978 -0.077 1.048 1.038 -0.131 0.556 -0.983 0.554 -0.649 -0.020 0.102 -1.426 -0.693 1.263 -0.444 0.430 -0.733 1.341 -0.235 0.725 0.471 -0.366 -0.374 -1.111 1.306 -0.746 -0.858 -0.916 0.796 0.366 -0.019 1.257 -0.849 -1.208 0.314 -0.123 0.451 2.177 0.803 1.525 -1.235 1.471 1.811 2.282 -0.131 1.563 -1.043 -0.453 1.269 0.878 1.113 0.784 0.335
1.537 -1.121 -1.124 0.195 -1.709 1.052 0.063 -0.701 0.673 0.706 -0.665 0.200 -0.472 0.009 -0.070 0.419 0.198 -0.365 -0.021 -0.185 0.132 1.179 -1.896 -0.643 0.089 -0.226 -1.908 0.216 2.290 -0.085 1.170 -0.718 1.812 -0.390 0.338 0.342 -0.254 0.397 -1.223 0.600 -0.287 -0.415 1.594 -0.767 -0.104 -0.760 0.244 -0.859 0.958 -0.394 -1.972 0.234 0.381 -0.547 -1.316 0.805 -0.389 1.098 -0.439 0.864 -0.811 0.429 0.578 -0.237 -0.349 -1.188 -0.170 -0.320 0.102 0.834 0.111 0.983 0.085 -1.884 0.801 -2.071 -0.760 0.189 -0.523 0.312 0.195 0.704 -0.794 0.444 2.122 -1.083 0.576 -0.016 1.126 -1.238 -0.614 0.535 -0.473 -0.503 -0.565 0.921 0.903 -1.723 0.108 0.642
1.044 -0.869 -1.976 -1.151 0.048 -0.153 -0.563 -1.506 1.303 0.360 0.567 -0.684 -0.417 -0.703 -0.078 0.720 0.595 0.062 -1.230 -0.820 0.970 -0.045 -0.060 -0.221 0.411 0.679 -0.227 -2.469 -0.256 -1.512 0.637 1.278 -0.794 -0.619 0.383 1.101 -0.117 0.329 0.484 -1.388 1.150 1.169 0.365 -0.961 0.997 -1.053 -0.646 -1.147 0.107 -0.796 -0.123 0.632 1.709 2.244 -0.365 2.370 -1.053 -0.723 -0.316 0.340 1.356 -1.089 1.020 -2.061 1.914 0.526 0.130 1.127 0.934 1.072 -0.903 -0.091 -1.417 -1.353 -0.187 -0.806 -1.372 0.800 1.184 0.766 0.746 -0.606 1.171 2.203 0.886 0.942 0.178 -1.729 -1.265 -0.277 -0.884 0.810 1.820 1.469 -1.551 0.994 0.194 0.224 -0.634 0.262
-0.360 -0.240 -2.381 0.296 -1.609 -0.235 -0.556 -1.295 -1.256 -0.076 -0.315 -0.181 -0.713 -1.036 -0.899 -0.237 0.547 -0.109 -0.870 1.203 0.905 -0.192 -0.930 0.366 -0.519 -0.117 1.032 -1.051 -0.227 -1.680 -1.082 -0.689 0.027 1.969 -0.495 0.326 0.716 1.298 -0.448 -1.438 1.657 -1.275 -0.344 0.339 -0.678 -3.146 -1.610 -0.264 0.324 0.328 -1.192 1.119 0.981 -0.993 0.648 0.307 -1.031 0.221 -0.755 0.218 0.949 -0.031 0.322 1.808 0.854 0.786 -0.398 1.132 0.732 0.162 -0.757 -0.981 -0.145 -0.411 -0.516 1.157 -0.186 -1.853 1.198 0.214 0.381 -0.167 0.135 1.240 -0.769 -0.675 -1.634 -0.296 -0.490 0.878 1.901 0.555 0.257 0.026 -0.836 1.639 0.693 -1.257 -1.424 0.300
-0.219 0.568 -0.489 -1.298 1.972 0.681 -1.424 0.921 -0.117 -0.656 -0.847 -0.028 0.508 0.609 1.705 0.508 -1.545 -1.883 0.250 -1.068 -0.570 0.684 -0.076 0.213 -0.880 0.506 -0.202 0.247 -0.883 -0.782 0.161 -1.390 0.577 1.414 0.420 0.602 -0.952 -0.425 1.531 0.985 -0.012 -1.224 -0.772 1.129 0.369 0.064 -0.320 0.333 0.900 0.893 0.105 0.368 1.465 -0.249 0.046 0.001 -0.068 0.191 -1.653 -0.815 -0.501 0.007 -0.162 -0.277 -0.514 -0.745 1.240 0.182 -0.409 0.768 0.147 0.288 1.325 1.093 -1.147 -0.044 -0.237 -1.095 0.887 0.272 -0.325 0.314 -0.602 -2.048 1.211 -0.215 0.705 -1.260 -0.598 0.328 0.048 -0.447 0.172 0.756 0.259 -1.456 0.764 0.205 0.347 0.522
-0.416 -0.019 0.829 0.511 1.374 -1.502 -0.985 0.177 0.922 -0.368 -1.554 1.723 -0.613 0.709 1.353 0.028 1.405 -0.219 0.130 2.653 -0.543 0.754 -1.044 -1.042 0.520 0.160 -0.947 0.256 1.060 -0.466 -1.103 -0.820 -0.349 0.095 0.753 0.089 0.084 -0.377 0.294 0.334 -1.222 0.687 0.943 1.273 1.230 0.360 0.643 -2.093 -1.589 0.746 -1.354 -0.661 -1.948 1.002 -0.408 -1.206 2.363 -1.235 1.017 1.348 -0.553 -0.884 0.235 -0.725 -1.703 0.873 -1.284 -2.447 -1.026 0.621 1.239 -0.995 1.355 0.213 -1.131 0.708 -0.890 0.851 -0.533 1.642 -0.871 0.225 -0.407 -0.043 -1.788 0.520 -0.450 -0.186 2.010 0.082 -0.425 1.160 -1.595 1.352 -0.031 -1.827 -0.599 -0.173 -0.813 -0.753
-2.159 -1.864 -0.371 0.016 -0.255 0.494 -0.153 0.184 -1.650 -2.546 1.290 1.632 -0.946 -0.588 -0.378 -0.588 0.144 0.385 0.544 0.737 -1.921 -0.211 -1.442 -1.315 -1.074 1.161 1.035 0.254 -1.128 -0.566 0.642 -0.406 -0.169 -0.229 0.374 0.443 -1.330 -1.693 -2.445 1.405 0.086 0.990 -1.276 1.190 0.302 1.118 -0.097 -2.231 -0.643 -1.197 -1.354 0.015 1.733 -0.740 -1.039 0.135 0.162 1.604 0.196 -0.950 -0.077 0.032 -0.520 -0.659 -0.475 0.606 -1.382 -1.252 -0.424 0.521 -0.059 2.276 -0.694 1.037 1.609 -2.553 -1.184 0.880 -2.354 0.593 0.512 1.814 -1.692 -0.147 -0.051 1.239 0.375 0.242 -1.640 -0.569 0.609 0.268 0.253 1.317 0.523 -0.171 -0.348 -0.595 -0.596 1.029
-0.488 -1.735 -0.216 -0.375 -0.316 0.264 0.809 0.059 -0.570 1.654 1.025 1.484 -0.085 0.512 -0.082 1.374 1.018 -0.657 1.281 0.509 -1.808 1.246 -1.411 0.191 -0.554 0.390 -0.228 0.044 -0.979 1.646 0.655 -1.175 1.318 0.074 -1.665 0.019 -1.079 -1.377 -0.175 -1.827 -1.894 1.425 -2.944 0.011 1.412 -0.564 0.017 0.311 -0.424 0.647 -0.339 0.376 -0.700 -0.828 0.101 -0.260 -1.350 2.022 -0.498 0.149 -0.265 1.502 1.725 -2.246 1.148 1.318 0.283 1.471 -0.628 0.231 0.362 -1.233 0.447 0.066 0.176 -0.512 0.459 -0.512 0.575 -0.218 0.298 0.826 0.130 2.150 1.183 -0.933 0.608 0.329 -0.082 0.787 -0.752 1.197 -2.738 1.378 0.714 0.552 -1.400 0.239 0.979 -0.866
-0.733 -0.511 -1.408 -0.034 1.423 0.576 1.011 1.501 -1.389 0.872 -1.866 -1.050 -0.095 -2.093 -1.513 0.032 -1.368 2.204 -1.010 -1.240 0.943 0.036 -0.093 0.858 -1.367 -0.021 0.708 -0.596 -0.207 -0.206 0.653 -0.521 0.916 1.221 -0.088 1.153 0.474 1.871 0.878 0.560 1.204 1.328 -1.000 -0.450 1.112 -0.861 -0.405 -0.864 1.424 -1.435 -1.496 -0.396 -0.292 1.411 -0.608 -1.006 -0.487 -0.313 0.379 -0.369 -0.247 1.003 -0.668 -0.559 -1.107 -1.455 1.722 1.814 -1.581 1.023 -1.636 0.170 -0.064 0.026 -0.066 0.291 -0.363 -0.758 0.539 0.044 -0.470 0.152 -0.828 -1.311 1.240 0.134 -0.210 -0.144 0.273 -0.258 0.619 -0.989 1.038 -0.487 0.620 -2.636 -1.007 1.416 -1.528 0.341
0.568 1.623 0.460 -0.478 0.163 -0.089 -1.002 -1.043 -0.506 -0.808 1.052 -0.209 0.471 -2.217 1.319 0.805 0.361 -0.255 -1.998 0.646 0.490 -1.012 -0.041 -1.226 -0.918 -0.479 -1.014 -1.762 -0.937 0.506 -0.268 -0.849 0.079 0.224 0.656 -0.897 0.041 -0.337 -0.131 -0.023 -0.077 -0.313 0.573 1.652 -2.177 0.884 0.213 1.328 0.048 0.496 0.823 -0.019 1.330 0.471 -0.739 0.434 -2.001 0.789 -0.835 -0.353 -1.164 -1.203 0.083 1.611 0.532 0.369 -1.582 0.119 -1.443 -0.601 1.051 0.100 -1.228 0.211 1.101 0.458 1.667 0.424 -0.148 -0.558 -0.351 1.780 -0.891 -0.355 -1.226 -0.753 -0.529 -1.969 0.617 -0.565 0.562 -0.395 -0.421 2.142 -0.321 -0.581 -0.111 -0.217 -0.947 0.534
0.409 -1.678 -1.006 -0.304 2.356 -3.241 -0.355 0.434 -0.238 0.408 -0.800 -0.666 1.263 -0.091 -0.989 -0.523 1.214 1.056 -0.237 0.937 0.597 -3.279 0.051 -0.605 2.233 -1.721 -0.181 0.389 -0.738 0.613 -0.960 -0.230 0.749 -1.728 -0.551 -1.289 0.501 -1.169 1.528 -0.473 1.219 0.326 0.477 -0.266 0.087 -0.733 0.854 0.465 -0.178 0.609 -1.636 -0.477 -0.117 -0.621 -0.404 -0.727 0.937 0.177 -0.430 2.554 2.336 0.340 0.017 -0.202 1.268 0.796 -0.157 1.218 -2.365 -0.492 1.297 1.069 0.521 1.072 -0.779 -0.745 0.453 0.302 -0.077 -0.512 1.290 1.517 0.879 0.099 0.811 1.122 1.044 0.879 1.376 -0.684 -0.521 0.644 -1.451 -0.412 0.329 0.304 0.434 -0.601 -0.185 -0.283
0.123 -0.434 -0.457 -0.107 1.097 0.852 0.763 0.593 -0.692 0.850 1.176 0.776 1.706 0.536 0.449 0.331 1.506 0.922 1.617 1.357 0.310 0.150 -0.671 -1.038 -0.119 -1.421 0.941 0.851 0.032 -1.391 1.049 -2.048 -0.329 -0.008 1.154 1.796 -0.148 -1.378 -0.273 -0.261 -0.079 -0.318 0.302 -0.260 -0.228 -0.931 -1.308 0.634 -1.599 -0.575 0.627 -0.640 0.754 0.963 -1.003 -0.083 0.390 0.391 1.585 1.287 0.231 -0.992 -0.023 0.674 -0.247 -0.648 1.004 -0.717 -0.917 -0.227 -0.140 -0.505 -0.027 -0.838 -1.192 0.600 -1.576 2.971 1.491 -0.287 1.578 0.019 0.359 0.306 0.610 -0.566 0.981 -1.594 -0.628 1.212 0.286 1.182 1.447 1.923 -0.442 -1.790 1.541 -0.032 -1.933 2.807
0.311 -0.049 -0.246 1.407 0.364 0.148 -0.224 -1.466 0.228 -0.924 -1.534 -0.312 0.714 -0.536 -0.262 -0.850 -0.093 -0.083 -0.179 -0.876 0.628 -0.007 0.099 0.515 -0.437 0.406 -0.612 -1.078 -0.370 -0.757 -0.979 -1.504 -0.684 0.138 -1.138 0.225 -0.258 0.767 0.675 -0.662 0.523 -0.080 0.634 -1.708 0.381 1.107 1.244 -1.335 -0.939 0.529 2.422 0.480 -0.895 1.746 0.025 -0.446 -2.008 -1.225 -0.502 -0.622 -1.367 2.539 -0.838 0.586 -0.540 -0.557 0.463 -0.434 0.064 0.380 0.586 -0.729 0.250 0.281 -0.095 0.092 0.412 -0.548 0.244 2.159 0.301 -0.048 -0.712 0.144 0.010 -0.406 0.152 -0.375 -0.356 0.137 -0.359 -0.500 1.545 -0.110 -0.501 0.709 0.109 -0.517 0.827 0.514
-0.959 -1.736 -1.245 1.253 -1.211 -0.430 0.896 -0.606 0.590 -0.426 -0.207 1.426 -1.828 2.399 2.346 0.384 1.057 0.519 0.842 0.695 -1.476 -0.112 1.426 -2.474 -1.025 -1.934 -2.521 -0.614 0.732 -0.318 0.078 0.125 0.322 -0.007 1.749 -0.149 1.307 -0.362 0.998 -0.746 -0.786 0.124 0.243 0.096 0.107 -0.438 0.492 -2.214 1.455 -2.228 0.401 0.780 -1.075 0.738 -0.500 -1.029 0.162 0.160 -0.736 -0.769 -2.095 1.245 -0.232 1.236 1.049 -1.145 -0.188 0.281 0.449 0.077 -0.352 -0.157 1.223 1.724 -0.100 -1.455 -1.042 -1.007 0.473 -0.756 0.589 -0.863 2.235 0.375 2.177 0.065 -0.196 -0.715 -0.363 0.539 0.137 0.649 -0.012 -0.238 -0.456 0.735 0.170 0.782 0.023 1.193
-1.187 0.282 -0.832 0.562 0.913 -2.232 -1.241 -0.199 -0.723 1.025 0.800 0.047 2.151 0.195 -0.131 -0.702 0.081 -0.157 0.601 0.038 -0.684 0.353 1.341 -0.966 0.597 0.056 0.706 1.159 -2.040 0.159 0.027 -0.337 -0.418 -1.329 -0.593 -1.672 -0.688 0.026 1.375 -0.439 -1.348 -1.496 -0.081 -0.072 -1.656 -0.599 -0.606 0.908 0.001 0.391 1.396 -0.551 -0.318 -1.301 -1.407 0.081 -0.511 1.158 0.988 -1.296 -1.069 -0.321 -0.565 0.266 0.668 0.962 0.094 0.638 0.204 -0.854 -0.632 0.348 0.392 0.928 1.829 1.544 1.827 0.406 1.135 -1.169 -1.786 0.983 -0.057 -0.561 0.045 -1.067 0.804 1.078 -1.647 -1.002 -1.689 -0.137 0.841 1.725 0.803 0.711 0.123 -0.475 1.791 1.709
-0.520 0.707 0.494 0.734 0.824 -0.241 0.139 1.321 0.419 -0.335 -1.473 -3.297 -0.181 0.444 -0.252 -2.620 -0.625 -0.605 -1.302 -0.053 0.671 -2.536 2.167 -0.765 -1.158 0.917 -1.219 1.379 1.584 0.004 0.129 1.199 -0.790 -0.348 -1.255 0.457 -0.126 2.019 -2.087 -1.293 -1.346 2.526 -2.364 -0.445 0.582 -0.636 -1.369 -1.275 -0.384 0.967 -0.806 0.521 1.826 -2.400 1.208 0.787 -0.495 -1.473 -0.982 -0.503 -0.053 -0.372 0.031 -0.148 0.207 0.703 -0.875 -1.504 -0.351 0.028 1.303 -0.405 -0.492 0.563 -0.059 -0.701 1.012 1.133 -1.108 0.078 -0.488 -0.430 -0.550 0.804 0.374 1.344 -1.023 -1.554 0.216 -0.747 -0.926 -1.100 -0.867 0.601 0.535 -1.693 -0.869 1.674 -0.184 -0.614
-0.493 0.126 -0.305 -2.526 0.795 -0.662 0.641 -0.831 0.301 -0.194 0.822 0.014 -1.191 -0.889 0.131 0.371 1.534 0.537 0.848 0.194 -1.420 0.699 -0.278 -0.544 -0.744 0.316 2.973 0.924 1.579 -1.229 0.189 1.126 3.043 0.125 0.156 0.479 -1.000 1.464 -0.097 0.304 -0.683 0.574 0.496 -0.808 -0.582 -0.079 2.561 0.728 0.482 1.705 0.726 0.859 -0.020 0.508 -2.019 -1.885 -1.782 1.375 -0.635 -0.038 -0.098 -0.879 -0.982 -0.019 -0.520 -0.607 -0.396 -1.258 -0.929 -0.855 -0.001 2.660 0.847 -0.886 -1.333 -0.326 -0.703 -1.930 0.571 -1.000 0.530 -1.004 -0.444 1.120 1.337 0.722 1.110 -0.880 -1.270 -0.446 0.620 -0.878 -1.194 -0.424 -0.193 0.559 -1.736 0.874 -1.250 -0.278
-0.748 0.185 -1.400 -1.910 -0.974 0.353 -0.081 -0.420 1.708 1.598 0.652 1.451 0.851 -0.608 0.612 -1.581 -2.578 0.167 0.953 -0.396 0.970 -0.226 -0.458 -0.836 0.571 -0.012 -1.416 -0.778 -2.241 -0.008 -1.865 -1.206 -0.979 1.205 -0.003 -0.501 -0.413 0.448 -1.706 -0.196 -0.539 0.887 -1.676 -0.118 -1.284 0.269 -1.035 -0.114 0.739 -0.125 0.965 -0.232 0.398 0.616 -0.042 0.133 -0.092 -0.569 -0.541 1.188 -0.860 2.356 -0.394 1.515 -0.698 0.696 0.859 0.239 -0.749 0.011 -0.872 -1.521 0.478 -0.827 -0.190 -0.216 -0.600 -1.304 0.607 -1.345 0.524 1.129 0.084 -1.395 0.106 1.510 -0.467 0.748 -0.193 -1.822 0.800 -0.179 0.712 0.342 1.171 0.538 0.271 0.067 1.374 -0.045
1.144 -0.241 0.860 -0.216 0.244 -2.110 0.942 -0.064 0.885 -0.877 0.764 -0.853 0.222 -0.413 -0.974 -0.006 -1.033 -0.806 0.473 1.303 -0.651 -1.027 -1.050 -0.186 0.585 1.187 0.791 0.075 0.815 -0.501 1.643 0.819 -0.644 -1.075 -0.076 -0.414 1.168 2.712 -0.596 1.121 1.583 -0.491 -0.785 -1.075 -1.289 0.526 -0.552 0.193 0.329 -0.334 -1.517 -2.075 -0.455 0.139 -0.595 -1.900 -0.946 0.280 -0.196 -0.817 -1.248 -0.296 -0.242 -0.589 -2.364 0.817 0.465 0.572 0.925 -1.159 -0.978 1.244 -0.170 -0.604 0.728 -0.792 -0.220 1.421 1.891 -0.130 1.775 0.827 1.426 -0.988 0.193 -0.504 2.056 -0.213 0.721 0.665 -0.625 -0.340 0.804 -0.084 1.015 -1.030 0.181 -0.338 0.217 -0.012
-1.685 1.197 -0.265 0.907 -0.048 -0.199 -0.078 -1.004 -0.808 -0.151 -0.152 -0.281 0.963 0.044 0.814 1.439 -1.457 -0.102 -0.378 1.266 -1.528 0.452 0.037 0.865 -0.101 0.134 -0.133 1.716 -1.850 -0.472 0.765 -0.504 0.261 -2.925 0.932 -0.297 -0.779 0.170 0.172 -1.599 -0.216 -0.855 0.795 1.290 0.728 0.913 -0.996 0.575 1.218 -0.059 2.222 0.325 -0.224 1.799 0.740 0.274 0.421 2.456 -0.740 0.751 0.703 0.498 1.126 -0.373 0.662 -0.891 -0.494 0.357 -1.124 -0.791 -0.260 0.758 -0.039 1.796 -0.122 1.935 -0.635 -0.945 1.687 1.011 -1.231 0.215 1.153 0.503 1.940 1.762 -0.737 -0.352 0.630 0.260 -0.154 -0.378 -2.089 -1.059 1.779 -1.621 0.514 0.576 0.130 -0.706
-0.166 0.529 -2.039 1.339 0.717 -0.188 0.514 -0.707 0.244 -0.422 -0.023 0.095 -1.000 -0.119 -0.366 1.093 -0.603 0.374 -0.512 -0.903 -0.398 -1.088 0.682 -0.956 0.230 0.139 -1.439 -0.754 0.766 0.833 2.858 1.515 -0.266 0.717 -0.303 -1.140 -1.095 -1.641 1.092 -1.011 0.445 -0.811 1.831 -1.162 0.477 -0.426 -0.357 0.750 0.244 0.675 -0.149 0.017 0.322 0.364 0.429 -0.646 1.227 -1.313 -3.066 0.422 -2.822 -1.268 0.401 0.359 -0.635 1.503 1.029 -1.151 0.277 -0.350 0.896 1.110 -2.619 0.230 0.376 0.032 0.226 -1.102 0.565 -1.262 1.351 0.267 1.163 -1.490 -1.556 0.014 1.425 -1.634 1.057 -0.254 0.032 -1.186 -0.658 -0.881 -0.193 0.894 0.847 -0.966 1.425 -1.063
1.102 0.622 0.399 -0.427 -1.282 -2.178 0.049 -0.396 -0.477 -0.794 0.231 -1.039 -0.790 0.150 -0.947 0.184 -0.181 -0.556 -0.368 -0.189 0.291 1.551 0.201 -0.509 -0.783 -0.846 -0.552 1.281 -0.095 -0.334 0.551 -2.817 0.066 -0.956 -0.384 0.610 0.646 -1.241 -2.304 -1.548 0.234 0.823 -1.649 -0.054 -1.040 0.892 0.654 -0.387 0.642 0.601 0.168 -1.568 -0.705 -1.139 0.749 0.061 -1.329 -0.392 -0.803 -0.948 -0.179 -0.124 -0.835 -0.002 1.343 -0.625 -0.005 1.321 1.697 -0.216 0.639 -0.471 -0.470 -0.027 -0.392 -0.070 -0.583 0.497 0.232 1.257 1.095 -1.803 0.163 -1.197 0.342 0.499 -0.777 0.288 -0.351 0.452 -1.513 0.068 -0.713 -0.139 -1.359 0.336 0.798 0.317 1.046 1.251
0.494 1.404 0.122 -0.512 -0.058 1.519 0.218 -0.800 1.267 -0.933 0.410 -1.391 -1.551 1.108 -0.445 -0.593 -0.941 1.112 -1.185 0.886 0.572 -1.820 -0.572 0.487 2.164 0.568 -0.104 -1.013 -0.325 -0.667 0.184 -0.811 -0.606 -0.263 0.583 -0.084 0.533 2.468 1.060 0.827 -1.211 1.082 -0.350 -0.346 -1.123 -0.427 1.214 -0.662 -1.236 -0.571 -1.510 0.784 0.007 -0.827 0.159 -0.564 0.323 1.092 1.766 -0.510 0.003 -0.078 2.921 -0.665 -1.616 -1.353 0.652 1.005 -0.686 0.916 0.581 -0.367 -0.282 -2.421 -0.292 -1.125 -0.384 1.440 -1.620 1.469 -0.643 -1.278 0.412 0.432 -0.012 -0.093 0.488 -1.717 -0.419 -0.876 -0.999 0.122 -0.364 0.666 -1.494 -0.334 1.261 1.356 0.570 -1.064
1.375 0.274 -1.000 0.516 -0.909 0.367 0.274 0.009 0.031 -0.542 0.428 1.944 -0.545 -0.748 -0.466 0.388 -0.126 0.728 -0.174 0.578 -1.415 1.103 0.880 -1.267 0.684 -0.021 0.364 0.392 1.230 0.148 -1.500 0.620 -0.939 -0.160 0.720 0.734 -0.366 0.323 -0.783 -0.129 1.629 1.403 0.015 -1.269 -0.058 0.391 0.059 -0.542 0.217 -1.906 0.149 0.462 -1.177 -0.621 -2.772 0.636 1.339 -0.634 0.110 -0.197 0.866 0.927 -2.285 -0.007 0.170 -0.363 0.246 -0.719 0.445 -1.118 -0.166 2.144 -1.334 -0.868 0.727 -1.180 -0.343 -0.148 -0.681 -0.412 -2.231 1.375 -0.592 0.548 -0.813 1.138 0.193 -0.421 1.921 -0.793 1.189 0.399 -0.160 0.588 -0.756 -0.017 -1.270 1.217 0.441 0.742
-0.759 1.932 -0.894 -0.947 0.998 1.142 0.862 0.388 -1.245 -0.403 1.303 2.449 -0.273 -1.806 -1.642 0.681 1.414 -0.335 -0.626 -0.100 0.534 0.378 0.513 0.509 0.944 0.205 -0.134 1.023 0.265 -1.010 -0.205 -0.166 0.405 0.850 0.514 0.167 -0.498 0.543 -0.008 1.156 -1.027 -1.390 0.715 0.368 -0.849 -0.367 1.706 0.347 2.090 -0.838 0.820 -0.877 1.031 2.172 -0.726 -0.813 -0.608 1.239 0.470 0.865 -0.520 1.657 -0.563 -0.277 -0.735 0.527 -0.184 0.382 -1.164 0.035 0.802 0.522 -0.620 0.055 -0.127 -1.042 1.389 -0.192 0.043 0.963 1.608 1.278 0.467 2.145 -0.228 0.016 0.706 0.315 -0.604 -0.719 -0.387 0.224 0.397 -0.656 0.485 1.510 0.196 2.328 2.210 0.404
0.877 -1.059 1.788 1.680 0.202 -0.875 -1.050 0.843 0.663 0.534 1.040 -0.423 -0.319 1.045 0.170 0.920 0.106 0.375 -1.353 -0.295 -0.176 2.734 0.453 0.110 -0.126 0.310 -0.402 -0.259 -0.480 0.215 0.759 -0.621 -0.161 1.740 -0.096 -0.224 -0.118 -0.246 -2.607 0.003 -1.813 1.641 -0.433 1.708 0.767 -1.462 -0.368 -1.380 -2.030 0.390 0.347 0.626 -1.347 -1.364 0.664 -2.237 -0.147 -0.140 0.678 -0.435 0.728 -1.861 -1.083 -1.081 0.483 -0.148 -0.608 -0.882 1.189 1.266 0.156 -0.216 -0.956 -0.871 0.695 1.591 -0.979 -0.155 -0.991 1.344 -0.059 1.047 -0.190 1.043 0.025 -0.214 0.874 -1.251 -1.166 -0.676 0.413 0.771 -0.601 -0.441 0.097 0.829 -0.480 0.042 0.456 0.793
-1.369 1.284 -0.676 -0.743 0.334 -1.369 0.521 -1.100 0.201 -0.265 -1.340 0.098 -0.069 -0.174 -0.782 0.638 1.746 0.280 0.432 2.011 0.111 -0.509 0.050 0.205 1.751 0.249 -0.581 -0.660 -0.781 0.082 -1.712 0.848 0.592 1.803 -1.364 1.482 1.664 0.139 0.732 0.177 0.000 0.321 -0.663 -1.603 -1.124 -0.066 0.655 -0.887 -0.325 0.992 -1.891 0.136 -0.848 -0.584 0.449 -0.171 1.637 -0.718 -0.746 0.251 -0.937 -0.135 0.090 -1.373 -0.352 1.213 0.325 0.101 -1.441 -0.592 2.157 0.835 -0.662 -1.079 -0.800 0.678 1.902 2.762 -1.013 -1.449 -0.873 -1.514 0.147 -0.653 0.313 -1.382 -1.057 -1.370 -2.468 0.142 1.068 3.154 -1.168 0.672 -0.061 1.646 -0.961 -0.636 1.418 0.004
-0.536 -0.866 0.584 0.861 1.120 1.176 -0.381 -0.150 -0.540 0.111 -0.203 -1.289 -0.647 0.523 0.051 -0.191 0.169 0.111 0.815 0.160 0.282 -0.012 -1.117 0.237 0.295 0.677 -0.092 0.622 -0.177 0.272 0.470 1.263 1.029 -1.005 -1.295 0.739 -0.598 -0.512 0.814 0.089 0.387 -0.716 -0.275 -0.690 0.333 0.658 1.443 0.089 -0.077 -0.788 0.848 -0.503 -1.327 -0.739 -1.249 0.247 0.780 -0.113 0.206 -1.145 -0.504 -0.751 0.093 1.701 1.239 0.719 -0.750 -0.363 -0.661 -0.605 1.224 -0.976 1.210 -0.739 -1.626 -0.363 -1.436 0.002 -0.197 -0.598 -0.628 0.208 0.855 -0.615 0.175 0.299 0.765 0.042 -0.307 -0.072 -0.663 -0.737 -1.296 -2.261 1.064 -0.766 -0.954 -1.603 1.393 1.345
0.816 0.275 -1.856 0.195 -0.999 0.001 2.201 0.648 -0.739 1.582 0.946 0.026 -0.421 1.542 1.404 -1.642 -0.452 2.396 -1.090 -0.544 1.349 -1.808 -1.391 0.100 -0.020 -0.159 1.022 -1.209 -1.210 0.209 0.517 0.018 0.837 -0.004 0.427 -0.238 -0.736 -1.080 -0.830 -0.471 2.112 -0.346 -1.363 0.053 0.272 -0.447 0.789 0.665 -0.775 0.890 -0.550 0.457 0.676 1.442 -2.339 1.677 0.893 -0.324 -1.113 -1.459 -0.603 -0.186 0.701 -1.846 -0.789 -1.047 0.696 0.991 1.124 -0.216 0.153 -0.140 -0.811 -0.396 -0.344 0.232 1.208 0.502 -0.781 0.522 0.234 1.593 0.023 -0.198 1.164 0.611 0.775 1.655 -0.184 0.262 0.574 0.130 -1.918 -0.436 -1.140 0.166 0.200 0.110 0.302 -0.214
-0.176 0.517 2.054 1.039 0.233 1.516 -0.188 -0.233 -0.505 0.251 0.893 2.164 -0.357 0.485 0.306 -1.270 0.821 0.515 -1.132 0.526 0.102 -0.131 -0.893 0.133 0.133 1.524 0.959 0.737 0.231 0.202 1.116 -0.244 0.325 0.395 0.281 1.249 -3.584 -0.351 1.971 -0.385 1.135 0.015 -0.685 -0.008 0.987 -0.637 -0.694 -1.934 -0.563 -0.648 -0.338 -0.953 -0.191 0.944 -0.805 1.181 0.584 1.295 0.495 -0.095 -1.165 -2.273 -0.551 -1.441 -1.700 -0.162 0.408 -0.077 0.940 -0.914 0.256 0.690 0.902 -0.804 0.079 -1.386 0.677 0.699 -0.075 0.491 -0.904 1.576 1.279 1.437 -0.015 -0.833 -0.175 -0.043 -1.002 0.479 1.104 1.250 1.537 -0.505 0.166 1.142 0.297 -0.230 0.034 -1.192
0.869 -2.432 -1.075 -1.499 0.480 0.183 -0.402 -1.430 -0.039 0.645 -1.108 -0.232 -1.450 1.499 -0.306 -0.141 -1.540 1.623 0.235 0.224 1.513 0.607 -0.667 -1.955 0.122 -1.294 0.588 -0.171 0.830 -0.440 0.465 0.098 2.219 0.529 -0.581 -0.785 1.546 -1.163 0.123 0.340 -1.312 0.879 0.068 0.286 0.620 1.362 0.267 0.972 -0.535 0.628 -1.130 -1.499 -2.048 0.698 0.286 -0.662 0.334 -0.053 0.610 -0.999 1.428 -1.038 -1.716 0.081 0.900 0.769 1.321 -0.242 0.296 1.304 -2.178 -1.392 0.553 -1.080 1.440 0.877 -1.535 -1.152 -0.070 0.220 0.343 -0.666 -1.478 0.721 3.979 -0.349 0.987 -0.041 0.142 -0.220 -0.361 0.989 0.561 -0.835 0.022 0.208 0.818 0.584 -1.812 1.276
0.240 0.747 -1.365 -0.770 -1.106 -0.487 -0.711 -0.411 0.542 -0.296 0.284 -2.065 -0.877 -0.629 1.983 0.053 -0.785 -0.041 -0.270 1.014 0.746 0.009 0.132 2.561 -0.446 1.305 1.230 0.458 -0.976 -0.137 1.065 -2.347 -0.416 -0.632 -0.956 -1.687 -0.790 1.588 -0.173 -0.255 -2.381 -1.470 0.326 1.111 0.963 -1.593 0.025 -0.401 -0.372 0.268 0.699 -1.622 -0.651 -1.009 -0.258 0.332 -0.784 1.100 -1.121 0.683 -0.904 -0.399 -0.215 -0.549 0.428 -2.061 -0.374 1.164 1.266 1.094 -1.209 0.519 0.375 1.259 -0.222 -0.370 1.102 -0.857 1.301 -0.705 0.357 0.528 -0.155 1.570 1.445 0.830 -0.395 -0.058 -0.364 -0.253 0.970 -1.284 -0.652 -1.600 -0.680 0.056 -1.787 -0.550 0.928 0.472
0.167 -0.275 1.016 0.483 -0.223 0.511 -0.182 -1.093 -0.340 0.527 0.224 -1.794 -1.327 1.926 -0.440 -0.246 -1.302 -1.135 0.663 0.291 0.127 0.022 -0.227 -2.185 2.386 0.751 0.858 0.235 1.166 -1.421 0.904 0.444 -0.443 -1.145 1.305 -0.445 0.812 0.233 0.299 -0.230 -0.168 -0.330 0.621 -1.611 0.840 -1.537 -1.175 0.328 0.156 1.693 -0.446 -1.006 0.427 -0.279 0.886 0.272 1.051 -0.961 0.982 0.175 -1.117 -0.701 -0.515 -0.396 -1.855 1.292 0.999 0.085 1.282 -0.746 0.097 -0.902 -0.828 -0.342 0.872 -2.035 -1.965 -0.425 0.358 1.922 0.317 -1.799 -0.644 0.527 -1.376 -0.232 1.717 -0.779 -0.526 -0.131 0.380 0.437 -0.694 -0.444 1.949 0.405 0.221 1.951 -1.564 0.297
-2.233 -1.496 -0.248 -0.340 -0.260 -1.418 -0.369 1.517 -0.884 -1.174 0.482 1.959 0.140 1.807 -0.082 0.681 0.251 -0.524 0.228 -0.672 -1.696 -1.195 -0.022 -0.219 0.191 1.619 -0.289 0.301 -0.106 0.015 -1.655 1.224 2.146 0.381 -0.296 -2.675 0.982 -0.799 -0.047 0.210 -0.679 0.787 1.185 0.374 -0.181 0.018 1.494 0.079 0.051 1.148 0.125 0.179 -0.267 -0.589 -0.039 -0.914 -0.756 0.191 -0.649 -0.371 -0.164 -1.420 -0.147 -0.281 -0.394 0.636 2.416 -0.758 0.362 1.000 1.113 1.683 -0.409 -0.184 -0.704 0.731 -1.059 -1.587 -1.196 -0.834 1.702 0.001 1.038 0.016 2.258 -1.716 -0.746 -1.254 0.785 -1.398 0.220 0.366 -0.587 1.181 -0.270 -0.055 -0.515 -0.328 0.416 -0.826
-0.677 0.382 -0.717 0.613 1.317 -0.319 0.746 0.101 -0.163 0.180 1.000 -2.196 -0.045 0.566 0.265 -0.117 0.942 -1.126 0.309 -0.692 1.127 -0.632 2.164 -1.398 0.327 -0.380 -1.115 -1.369 -0.701 -1.122 0.029 1.262 -0.520 0.195 1.039 -1.017 1.332 0.141 0.071 0.138 -0.866 -0.052 0.344 0.140 1.227 -0.257 -0.775 1.088 0.525 -1.710 0.085 1.510 -0.471 -1.042 -0.270 1.706 -0.333 0.899 0.569 -1.058 0.302 -0.478 0.693 -0.412 -1.079 0.739 -0.749 -0.127 -0.383 1.025 0.636 1.008 -0.450 -0.524 2.383 -0.861 -0.920 0.420 -0.255 0.990 1.112 -0.853 1.051 -1.566 -0.089 1.397 0.148 0.746 0.644 -0.298 0.343 0.156 -0.792 0.122 0.250 -0.329 0.799 -0.441 0.431 -0.729
1.234 -2.413 -0.719 -2.324 -1.536 0.542 -0.110 1.084 0.178 -1.213 -0.498 1.073 -0.434 -1.334 0.918 -0.567 -0.291 -0.071 0.381 0.074 0.322 -0.470 -1.437 -0.035 0.717 0.335 -0.651 -0.140 -0.299 0.414 1.533 0.135 0.853 0.137 -1.074 0.649 -0.417 0.091 0.233 -1.207 -0.603 -1.078 2.387 -2.010 0.120 -1.125 0.052 -0.225 -2.893 1.057 -0.535 -1.087 -0.101 0.377 0.210 -0.948 -1.315 -0.187 0.762 -1.776 0.419 -1.031 -1.127 -1.250 0.346 -0.026 -0.025 -0.631 0.616 1.991 0.587 0.484 0.089 -0.730 1.001 0.376 0.399 -2.107 -0.703 -0.282 -0.671 -2.191 -0.531 0.805 -0.068 -1.769 -1.857 -1.924 -0.481 -0.977 1.403 -0.600 -0.593 -1.115 1.129 -0.168 -0.136 -0.148 0.871 0.832
0.890 0.876 0.434 -0.036 -1.001 -0.725 -0.069 -0.581 1.114 0.450 -0.300 -0.039 -1.483 0.654 0.597 -1.138 -1.120 2.712 0.644 -0.316 0.342 0.400 -0.732 -1.138 1.336 0.406 -0.970 0.293 -0.699 0.271 -1.160 0.867 1.626 0.116 0.710 0.947 -0.541 -0.795 -0.954 0.341 -0.353 0.357 -0.435 0.831 2.280 -0.631 0.037 -0.810 0.870 -1.003 -2.232 0.300 -0.965 0.419 -0.239 0.584 0.776 0.426 0.834 -0.635 -0.620 0.282 -0.023 0.215 0.626 1.169 -0.671 -1.437 0.094 -0.095 1.478 -0.108 -0.383 0.824 0.880 -0.370 -1.050 -2.276 1.517 0.284 2.088 -0.317 1.742 -0.508 0.651 0.120 0.801 1.563 -0.235 1.403 0.086 -0.127 -0.496 0.243 -0.326 -1.245 -0.805 -2.047 -2.281 1.615
0.925 -0.612 -0.776 0.767 -1.417 0.605 0.833 -2.051 0.294 0.503 0.658 -1.435 -0.429 0.066 1.697 -1.214 -2.364 0.614 -1.519 -0.837 0.295 1.360 -0.263 0.081 -1.479 0.186 -0.972 0.512 -1.250 0.842 -0.424 -0.519 -0.222 0.604 1.635 -1.132 -1.365 -1.160 -0.233 -1.138 -0.782 -0.152 1.381 -0.421 0.164 0.170 -0.477 -0.190 -1.133 -1.338 1.640 -0.511 1.030 0.583 -0.820 1.202 0.481 -0.380 -0.470 0.075 0.695 -0.362 -1.123 0.683 0.213 0.522 -0.003 -0.115 -2.712 -0.808 -4.046 0.768 1.285 -0.444 1.119 1.830 0.357 -0.118 -0.946 -0.816 -0.783 1.615 -0.007 -0.782 0.265 -1.366 -1.180 0.117 -0.745 -0.316 -0.569 -0.693 0.574 0.579 1.086 0.914 -1.132 1.481 0.266 0.700
-0.265 -1.432 0.532 1.294 -0.426 0.843 -1.091 -0.474 0.194 0.903 0.545 -0.152 -0.221 -1.472 -0.721 -1.151 -0.702 0.622 -0.831 1.415 0.266 2.001 -1.442 -1.507 -0.903 -0.662 -0.780 1.750 -1.507 0.211 0.530 0.711 0.136 -0.114 -1.751 0.398 -2.142 1.336 -1.020 -0.754 -1.064 -1.369 -0.449 -0.385 1.495 0.202 -0.724 -0.856 -0.621 1.075 -1.152 -1.160 0.309 -1.281 -1.101 1.336 0.308 0.035 0.037 0.217 0.448 -0.698 -1.523 -1.001 0.134 0.923 0.530 -0.404 0.232 0.844 -0.567 -0.676 0.807 0.148 -0.494 0.138 0.350 -0.749 -0.103 -1.048 -0.892 -0.054 -1.150 0.866 -1.155 -0.308 -1.186 -0.273 0.351 1.058 -0.833 0.524 -0.262 0.967 -2.313 0.282 -1.401 0.189 0.484 -0.640
0.145 -0.617 -0.350 0.329 0.564 -0.759 0.903 -0.190 -0.094 1.481 -0.612 1.027 -1.689 0.508 0.838 0.022 1.819 2.046 0.597 -0.559 0.332 0.943 0.575 -0.886 -1.211 1.580 -0.319 1.536 -0.808 -1.603 2.139 -0.137 -0.847 1.510 1.684 0.292 -1.976 1.069 0.131 0.142 1.635 -1.050 0.299 -1.460 -0.031 0.944 -0.086 1.266 -0.485 -2.568 -0.374 -2.450 0.091 0.827 0.744 0.244 -1.004 2.182 -0.989 -1.333 0.470 -0.195 0.221 -1.752 0.858 1.048 0.257 -0.725 0.910 -1.074 -1.183 0.472 -0.947 -0.158 0.414 1.120 0.241 -1.096 1.288 -0.267 -0.537 -1.126 0.263 1.866 0.926 -1.043 0.889 0.496 -0.287 -0.547 0.188 -1.441 1.370 1.167 0.699 0.047 -0.884 -1.735 1.391 0.031
1.189 -1.910 0.868 0.209 0.737 2.105 1.503 1.195 0.347 -0.568 0.678 -2.301 -0.238 -0.215 -0.921 1.055 0.444 0.615 -1.262 0.213 1.899 -0.121 -1.140 0.332 -1.559 -1.688 -0.437 -0.747 1.575 -0.145 -0.443 1.273 -0.564 -1.406 -0.485 0.386 0.944 0.563 -1.142 1.221 2.507 0.582 -0.366 -1.093 -0.702 -1.105 -1.270 0.477 -0.669 1.423 -1.104 -0.665 -0.270 -0.156 -1.064 0.795 -0.388 -0.545 1.428 0.762 -0.576 -0.647 -1.614 -0.178 -0.118 0.039 0.064 -0.557 0.972 0.039 2.774 -0.183 1.929 1.550 -0.851 0.519 0.082 0.098 0.735 1.034 0.539 0.066 0.781 1.148 -1.357 0.696 1.898 -0.649 0.136 1.113 0.496 -0.963 -1.038 -0.539 -0.444 0.024 -0.040 0.121 1.397 -0.419
-1.272 0.880 1.020 0.831 -0.615 2.185 -0.546 0.911 0.949 -0.761 1.518 0.776 -0.215 -0.452 1.652 1.199 -0.175 -1.264 -0.286 0.485 -0.791 -1.142 0.829 0.229 0.514 2.182 -0.785 -0.727 1.632 -0.548 -0.188 -0.271 1.028 -0.028 -0.859 -1.165 2.999 0.730 0.642 -0.802 0.678 0.252 -0.776 1.153 0.588 -0.284 0.780 0.085 2.252 0.737 -0.462 -1.463 0.041 1.697 2.598 -2.382 -0.921 -0.765 0.086 -0.314 -0.706 -1.215 1.776 1.597 -0.333 0.257 -0.628 0.562 0.381 0.316 0.111 -0.495 -0.753 -1.146 -0.995 0.256 -0.414 -0.022 1.161 0.084 -0.704 -0.244 1.038 -2.108 1.489 -0.057 0.521 -0.158 -1.104 2.097 1.736 0.770 -0.512 0.587 -2.079 -2.446 0.675 0.303 -0.033 -1.084
0.072 -0.443 -0.075 -0.312 0.866 -1.093 0.015 0.365 -0.064 0.136 0.592 -1.373 -1.255 -1.013 -0.873 -0.445 1.676 -0.815 -0.134 0.732 0.492 -0.765 0.323 -0.822 0.269 -0.058 -1.547 1.876 -0.713 -0.418 -0.126 0.059 -0.511 0.245 -1.554 -1.455 0.854 1.064 -1.288 -1.156 1.155 -0.326 -0.210 1.112 -0.069 -1.549 -0.623 -1.063 1.511 -1.442 1.921 -0.986 -0.692 0.844 -1.464 1.051 0.993 -1.337 -2.163 -0.349 -1.094 -1.108 -0.840 -1.062 0.806 0.536 -1.326 1.119 0.267 1.474 -0.007 -1.173 -0.985 -1.757 0.988 0.247 0.115 -0.791 -0.859 -0.049 0.893 1.591 -0.292 0.700 1.234 -0.295 -0.785 0.572 -0.698 1.398 1.578 -0.502 -1.420 -0.660 -1.044 0.858 1.235 -0.858 -0.542 -0.185
-0.545 -0.457 0.547 0.858 -1.396 0.764 -0.535 0.716 -1.239 -0.605 0.620 0.978 -0.150 1.362 -1.111 0.254 0.140 0.350 -0.576 1.446 -1.048 0.548 1.820 0.195 1.267 -0.185 -0.470 0.488 -0.083 0.256 -0.377 -0.278 0.792 -0.696 0.060 0.419 1.967 -0.778 1.849 0.511 -1.127 1.000 -0.601 0.445 -0.825 0.804 1.376 -0.340 0.622 0.346 -0.238 0.606 0.774 -0.742 -1.507 0.668 -0.187 1.237 -1.979 -1.853 -1.432 0.311 1.405 1.345 -0.576 0.514 -0.319 0.190 0.953 -0.647 -1.504 -1.295 -0.337 -0.609 -0.831 0.586 0.092 -0.814 0.850 -0.735 1.323 -1.162 -0.307 -0.004 -0.619 1.355 -0.380 -0.508 -0.766 -0.235 -0.843 -0.009 0.500 -0.193 0.328 -1.383 -0.186 -0.843 1.720 0.758
1.188 -0.773 -0.203 0.317 -0.505 -1.149 0.146 0.497 -0.776 -0.441 -1.867 -0.040 -0.676 -0.171 -1.989 -1.035 -1.296 -0.420 0.467 -1.043 -0.596 0.269 -1.685 0.124 -0.666 1.333 -0.977 -1.346 1.293 -0.136 -1.608 2.132 -1.289 0.905 0.000 -0.489 -0.986 -0.314 -0.887 0.545 -0.335 0.796 -0.942 -1.307 1.011 1.529 -1.345 1.771 -0.029 -0.265 0.492 0.813 0.002 -0.831 -0.689 1.090 -0.823 -0.549 1.017 0.166 0.836 -1.536 -0.129 1.039 0.333 0.364 -1.097 0.266 0.867 1.260 0.808 0.612 0.005 0.491 0.285 0.414 0.885 -0.767 0.324 0.662 0.029 -0.380 0.180 -1.167 -2.047 0.286 -0.374 -0.878 -0.041 -0.525 1.611 0.523 -0.700 -0.537 -1.195 0.275 -0.044 1.692 -0.153 -0.163
-0.606 0.682 1.148 0.848 -0.382 -1.111 0.765 -0.618 0.677 -1.118 0.781 0.421 1.181 0.524 -0.079 -1.014 0.518 0.490 0.107 0.717 -1.030 -1.541 0.449 0.641 0.073 -0.797 -0.152 -0.643 0.644 -0.374 1.101 -0.888 0.590 2.041 0.250 0.193 -1.388 1.730 -1.137 -1.014 0.677 -0.666 1.382 -0.448 0.860 -2.918 -0.046 0.202 -1.419 0.798 0.744 1.120 -1.381 1.185 0.105 -0.513 1.760 -0.749 0.967 1.633 0.475 -1.640 -0.079 -0.617 0.830 -0.808 0.645 2.075 -0.012 -0.726 0.959 0.472 0.432 0.327 -1.173 0.064 1.370 -0.451 0.347 -0.037 -0.049 2.107 1.029 -0.423 1.369 -0.423 -0.676 0.299 -0.053 -0.988 1.174 0.576 -0.228 1.295 -0.448 -0.436 -3.042 0.234 0.109 0.021
-0.627 0.695 -1.499 -0.294 0.273 -1.012 0.056 0.126 0.666 -0.396 -1.641 -0.751 -1.258 0.882 -0.817 -1.232 -0.892 -1.016 1.043 -1.308 -1.715 -0.711 -1.261 -0.325 0.773 -2.295 -0.563 -1.455 -0.540 0.552 0.869 -0.042 1.319 0.087 1.651 -0.943 -0.803 -1.005 -0.788 1.148 1.078 0.482 -2.544 0.255 0.794 0.476 -0.108 0.107 -0.835 -0.622 0.188 0.089 -1.549 -1.619 1.359 0.269 -0.190 1.398 0.844 -0.247 -0.183 0.604 -0.503 0.409 0.626 0.891 1.126 -1.493 0.161 0.508 -1.114 1.279 0.360 -1.745 0.303 1.258 -1.497 -0.791 0.504 -0.420 0.345 0.395 0.708 -0.549 1.215 0.687 0.747 1.031 -1.699 0.320 0.156 -1.121 -1.562 -1.265 -0.919 0.233 -0.685 -1.058 -1.146 0.069
-0.420 0.722 -0.787 1.020 0.665 0.272 0.561 -1.168 -0.349 -1.229 1.574 1.283 -0.111 1.065 -0.364 -0.067 1.132 0.814 -0.620 -1.803 -0.426 0.206 -0.264 0.592 0.129 0.584 0.153 0.135 1.256 -0.434 -0.614 0.801 -3.455 -0.155 -0.207 -0.333 1.131 -0.548 0.623 1.593 -0.375 0.141 -0.659 -1.904 0.659 -0.691 -1.942 1.054 1.416 0.573 0.266 -0.112 0.915 -0.045 0.670 0.518 2.271 0.027 1.611 -0.400 -1.402 -0.335 -0.331 -0.288 -0.802 -0.008 0.448 0.526 -0.016 -0.798 0.218 -0.771 -0.170 -1.127 0.263 1.081 -0.701 0.462 1.316 -1.381 0.275 -0.314 -2.016 1.143 0.502 0.878 -0.913 -1.463 -1.038 0.294 0.172 -2.151 -0.135 -1.556 0.683 -0.231 -0.986 -0.172 2.109 -0.785
-0.013 0.657 -1.005 -1.322 -1.261 1.066 0.398 1.684 -0.999 1.499 -0.655 -0.776 0.836 -0.749 0.489 2.460 -1.196 -1.108 0.260 -0.436 0.590 1.018 -0.896 -0.303 -0.464 1.720 -0.621 0.796 0.598 -0.111 -0.214 0.108 -2.550 -0.590 -0.523 0.061 0.106 -0.242 -2.117 -1.359 1.042 -1.357 -0.225 0.076 -0.223 0.334 -0.477 -0.386 -0.356 -0.810 -0.665 -0.908 -0.886 0.445 0.659 -0.318 0.759 -0.314 -0.325 -1.651 -0.270 -0.334 0.422 1.578 -0.952 -0.210 0.556 0.536 -0.089 1.793 -0.478 1.021 -0.599 0.266 -2.144 -0.100 -1.380 1.232 1.127 -0.451 0.617 0.355 -0.387 0.314 -1.937 -0.643 -1.214 1.976 1.442 -0.040 0.383 1.224 -0.440 0.682 0.139 -0.583 -1.077 -0.922 -0.577 0.727
0.434 1.118 0.831 0.140 0.295 -1.264 -0.194 -0.839 0.036 -1.765 1.490 -0.491 0.138 0.106 0.429 -1.349 -2.006 0.343 0.316 -0.499 -0.207 0.984 0.611 0.391 1.227 -0.288 -1.595 0.656 -1.440 0.085 -0.426 -0.312 0.267 0.356 0.159 -1.605 -1.108 -0.059 -0.164 -0.826 2.059 -0.430 -1.143 0.127 -0.068 -0.030 -0.849 1.813 0.529 -0.440 0.589 0.647 0.652 0.132 -0.458 -1.115 0.244 0.575 0.357 0.326 -0.803 -1.299 0.119 -0.319 0.462 1.595 -1.338 -1.956 1.376 1.132 0.689 -0.843 -0.695 0.073 0.361 1.521 0.397 0.125 0.117 1.080 0.029 0.276 -0.791 1.759 -0.845 2.028 0.020 0.223 -0.248 -0.253 0.540 -0.228 -0.948 0.310 0.587 0.723 -0.180 -1.385 1.416 -0.749
-0.471 -0.018 -0.866 -0.994 -1.736 0.391 0.821 0.019 -0.808 0.923 1.107 -1.798 -0.292 -1.373 -0.105 -0.964 0.683 -2.263 2.181 -1.177 -0.788 -0.455 1.166 2.377 -0.561 -1.327 0.438 -2.212 -0.618 0.152 1.172 -0.201 0.020 -0.269 -0.911 -0.606 -0.940 0.625 0.353 1.702 0.142 0.127 0.496 0.092 -0.221 0.830 -0.310 -1.482 0.574 -0.234 -0.026 2.944 2.150 0.937 -0.250 0.876 0.076 -0.003 0.887 -0.380 0.313 -2.138 2.828 -0.765 0.880 -1.044 -1.709 0.878 -0.727 0.798 -1.155 -0.410 -1.732 -0.068 1.008 -0.328 -0.352 0.858 -0.131 0.140 -0.548 1.763 -2.127 0.937 2.111 -0.912 -1.985 0.154 -0.668 0.038 -1.113 -0.605 -0.897 -0.503 -0.590 -0.051 1.154 0.089 0.302 -0.135
-0.221 -0.599 0.483 0.565 0.082 0.537 0.053 1.478 -1.772 -1.509 -0.256 -0.878 1.200 -0.625 -0.825 -0.627 0.011 -0.914 2.361 0.156 0.045 1.453 0.088 0.821 0.978 -0.589 0.855 -1.390 2.468 1.599 0.300 -0.779 0.740 -0.263 1.847 -0.175 1.544 -0.324 -0.486 -1.175 -0.114 -0.034 0.473 -0.322 0.875 0.925 1.632 1.416 -0.816 -1.363 0.720 -0.278 -1.328 -0.841 1.697 -0.648 0.690 -0.509 1.352 0.218 -1.148 0.285 -1.111 -0.196 0.726 0.664 -0.774 -0.158 1.197 -2.097 -0.356 2.138 1.742 1.211 0.322 -0.708 0.551 0.222 -0.503 0.481 -0.894 -0.496 0.397 1.715 0.465 -0.817 -0.035 0.734 -0.386 -0.965 0.018 1.169 -1.265 0.479 0.321 -0.357 1.301 0.611 0.465 -1.822
-0.053 -1.441 -1.474 -0.201 1.003 0.254 -1.240 0.218 -1.188 0.478 0.162 0.597 -2.462 1.205 0.028 0.488 1.199 -0.799 -1.362 0.133 1.995 -0.354 0.660 0.100 0.610 0.614 1.110 -0.910 0.177 -0.619 0.062 -1.051 1.379 0.509 -0.310 -1.421 -0.313 -1.271 -0.081 -1.762 -0.339 0.126 0.875 -1.160 -0.909 -0.506 2.079 -0.006 -0.560 1.320 -0.491 -0.389 0.101 -1.207 1.515 0.115 1.021 -0.507 -0.580 -0.528 -0.186 -0.083 0.291 1.806 -0.312 -0.555 1.252 -0.350 -0.614 -1.342 -0.919 -1.075 0.421 0.355 0.241 0.229 0.579 1.907 -0.932 0.234 0.521 -0.100 0.371 -0.717 1.069 -0.307 2.035 -0.961 -0.393 0.583 1.581 0.840 -0.492 0.866 -0.157 0.232 -0.940 1.257 -0.391 -0.129
-1.075 0.988 0.516 2.483 1.676 -0.821 -0.802 1.735 -0.846 -0.402 -0.445 -0.440 0.142 -0.573 1.564 -0.565 1.918 -0.727 -0.763 -0.787 0.607 -1.134 -1.140 0.339 1.084 -2.850 0.751 -0.885 1.357 0.048 -0.369 -0.095 0.918 0.086 -0.332 -1.586 -1.131 1.240 1.053 0.534 0.718 0.062 -0.267 -0.648 1.037 0.368 -0.229 -0.654 1.440 0.990 -0.889 1.073 -1.351 0.645 -0.321 0.168 0.944 -1.204 1.196 1.086 1.574 -0.238 1.334 -0.203 -0.838 -0.675 0.228 -0.502 -0.251 0.149 1.670 2.398 -0.611 -0.482 -2.774 -0.039 0.694 -0.123 -1.772 -0.440 -0.776 -1.347 -1.003 -1.077 -0.419 0.097 2.469 -0.646 -0.481 -0.261 -0.393 -1.935 0.962 0.820 0.957 -0.645 -0.145 0.632 -0.522 0.340
0.280 0.852 1.489 1.448 1.803 0.576 -1.216 0.635 0.169 -2.203 0.566 -0.946 0.368 0.669 1.180 0.999 -0.103 -1.424 0.614 -0.273 0.304 -1.359 -1.903 0.612 0.033 1.404 0.103 -1.246 0.601 -1.355 -0.544 -0.289 -0.029 0.852 0.407 1.561 0.286 -0.706 -0.445 0.577 -0.042 1.449 -0.162 -0.340 -1.026 -0.489 2.643 -0.288 0.618 1.540 -1.403 -1.268 0.707 -0.126 -1.706 1.047 0.774 0.733 0.123 -0.474 0.717 -0.534 0.049 0.043 -0.427 -0.056 -0.995 2.213 2.778 1.147 -0.869 1.630 0.318 1.640 -1.640 0.082 -0.273 -0.336 -0.233 -1.475 -0.250 -0.006 -0.999 -1.552 -0.977 -0.260 -0.230 -0.200 0.971 0.228 -0.781 -1.020 0.947 -0.052 2.404 1.628 1.365 0.727 -0.378 1.285
0.389 0.028 -0.087 -0.492 -0.721 -1.152 1.214 1.657 -0.417 1.694 -0.362 -0.531 1.913 0.303 0.357 0.326 -0.998 1.972 0.534 -0.822 1.509 0.863 -0.850 0.934 0.540 0.416 0.836 -0.332 0.668 1.335 -0.654 0.550 0.453 -0.645 0.791 -0.679 -1.210 -0.698 -0.116 0.616 -1.874 0.149 0.180 -0.915 -0.375 0.922 1.157 -0.665 0.075 -0.502 0.527 -0.684 -1.001 -1.339 1.279 0.989 0.022 -0.629 -0.607 -2.092 -1.139 -0.563 -0.087 -0.278 -1.029 0.073 0.090 -0.915 -0.628 1.207 0.528 0.654 0.821 1.753 1.610 0.909 0.066 -0.520 -0.652 -0.996 0.029 -0.516 -0.928 1.367 -0.946 -0.216 0.731 0.946 -0.350 0.885 0.737 0.747 -0.052 0.366 -0.149 -0.646 0.298 -0.398 -1.022 0.479
-1.097 -0.389 0.281 -0.215 1.124 0.917 -0.951 -0.071 -0.216 0.685 -0.670 0.139 0.435 0.722 0.083 0.748 -0.029 0.229 1.731 -1.094 0.201 0.820 0.379 0.010 -0.384 2.070 0.947 -2.382 -0.007 0.399 2.583 0.058 0.485 -1.762 -0.501 1.887 -0.188 1.125 -1.839 -0.386 1.260 -0.246 0.219 -0.902 -0.222 1.088 0.425 1.565 -0.582 -0.253 0.751 -0.027 0.757 0.828 0.391 -1.430 1.119 -1.743 1.083 -1.646 0.585 -0.531 -1.305 0.200 0.656 0.584 0.216 -0.347 -0.429 -0.880 1.345 0.428 -1.297 -0.311 -2.250 -2.135 -0.584 -0.626 1.307 1.170 0.259 0.505 -0.938 -0.414 -3.374 -2.110 -0.763 1.105 0.709 -1.412 -0.046 -0.617 0.738 1.221 -1.071 -1.592 1.655 -0.283 -0.381 1.560
-1.443 0.352 2.135 1.509 -1.801 -0.615 0.879 0.855 -0.909 -0.285 -1.013 0.618 1.728 1.007 -0.618 -1.023 0.495 0.006 0.153 -0.550 1.625 -2.559 -0.401 0.986 0.593 -1.700 -0.393 2.651 1.423 -0.024 1.078 -0.566 -1.928 1.217 -0.730 1.639 0.038 -1.047 0.316 -0.618 0.656 -0.307 0.526 -0.866 -0.920 -0.093 -2.030 -0.622 -0.427 3.025 0.421 1.338 -0.536 0.363 0.663 -0.554 -0.340 0.557 -1.075 -0.157 1.040 0.832 -0.990 -0.365 -1.199 1.001 1.462 1.844 0.238 2.333 -0.065 0.181 -1.701 -0.868 -0.592 1.074 0.738 1.233 1.160 -0.670 1.141 0.666 -2.199 -1.367 0.162 0.291 -0.333 -0.866 1.345 -1.317 -0.263 0.796 -0.694 1.632 -0.517 0.215 -0.105 -1.865 -0.603 0.409
-0.583 -0.740 0.876 -0.252 -0.424 -0.123 0.174 0.429 -1.289 1.422 -1.702 0.474 0.157 0.020 -0.391 -1.650 -0.180 0.403 -1.691 1.037 0.337 -2.083 -0.050 -1.308 -0.266 -1.213 1.185 -0.121 0.684 0.038 0.261 -1.232 0.059 0.796 2.370 0.085 0.337 1.095 -0.041 -0.871 1.672 1.098 -1.288 -0.616 -1.071 1.919 -0.381 1.605 -0.077 -0.253 -0.054 0.356 0.778 -1.885 1.203 -1.770 -0.298 -0.603 -0.531 -0.686 -0.445 -0.297 2.097 0.463 0.319 -0.994 -0.119 -0.893 0.484 -0.328 -0.516 -1.210 0.421 1.962 2.360 -1.071 -0.255 -0.724 1.168 -0.354 0.646 -0.522 0.804 0.255 0.305 0.111 1.471 0.133 0.410 -1.515 0.890 -0.161 -1.546 -1.138 -2.479 -0.230 -0.557 -0.360 -0.300 1.147
-0.395 -0.114 1.881 -1.668 1.357 -0.233 -0.285 0.270 -0.959 -0.154 1.678 0.589 0.794 0.377 -0.280 1.773 1.555 0.966 0.280 0.581 0.456 1.778 0.182 0.597 -0.255 1.405 0.243 1.290 1.005 0.492 0.247 0.987 -0.669 2.113 -0.087 -1.258 1.339 1.180 0.306 1.137 -2.257 0.770 2.213 -0.851 -0.155 -1.295 0.734 -0.484 1.220 -0.578 0.365 0.083 -0.597 2.210 1.062 0.249 -0.528 -0.704 -0.802 -1.193 -0.113 0.925 -0.201 0.083 -0.327 -0.457 -0.015 -0.425 2.597 -0.758 1.058 -0.467 -0.623 0.378 -0.794 0.425 0.093 -0.474 0.401 -0.033 0.569 1.316 -0.264 -0.380 -1.506 0.807 -1.249 -0.116 -0.970 -0.206 -0.955 0.486 -0.791 -1.852 1.488 0.503 0.496 0.607 0.741 0.311
0.908 -3.175 -0.268 0.715 0.807 -0.228 -0.390 -0.221 1.259 1.154 -1.790 -0.415 -0.454 -0.460 0.065 0.416 0.070 -1.206 -0.140 0.908 0.729 -1.189 -1.068 -1.374 1.707 0.216 0.377 -0.683 -0.250 -0.149 0.496 1.143 0.047 1.882 -0.702 0.146 0.088 0.431 -0.810 0.820 0.325 -0.084 0.500 1.129 -0.674 -0.110 -0.241 2.178 -1.037 -1.317 -0.475 1.354 1.357 -0.793 -1.934 2.565 -0.408 0.841 1.725 0.154 -0.758 0.764 1.847 0.988 0.598 0.396 0.414 -0.447 0.206 -1.995 0.015 -1.584 -0.114 -0.538 -0.171 -2.053 -2.474 -0.006 -1.369 1.026 1.048 0.567 0.202 0.368 -1.532 -0.349 0.798 0.829 1.558 0.418 -0.773 0.947 0.939 -1.012 -0.655 -0.196 -1.067 0.178 2.341 -0.580
-0.996 0.098 -0.052 -1.862 0.344 -2.290 0.220 0.583 1.128 1.145 -0.899 -1.036 -0.777 0.697 1.013 0.153 -1.586 -0.981 -0.894 -0.832 0.508 0.905 1.346 1.316 -0.335 0.507 0.876 -0.446 -0.763 -0.056 1.213 -0.410 -0.936 -0.400 1.876 -2.195 -1.562 0.793 -1.173 -0.474 0.191 0.250 -0.587 -0.708 -1.201 -0.110 1.295 0.847 -0.798 0.460 0.421 -1.238 -0.954 0.591 -0.392 -2.371 0.329 1.428 -0.807 -0.956 1.785 1.092 2.329 1.095 0.227 -1.166 -1.044 0.238 -1.495 0.315 -1.159 -0.871 0.059 -1.272 -0.296 0.013 0.379 0.202 -0.186 1.037 -0.586 0.175 0.793 -0.923 -1.877 -2.253 0.268 0.165 -1.026 -1.243 0.524 -0.460 -0.249 0.318 0.046 -0.478 -0.531 1.267 0.991 0.169
1.730 0.622 1.158 2.821 -0.353 0.456 0.164 1.610 -1.096 1.062 1.518 -1.373 0.199 -0.643 0.138 -0.213 -0.608 -0.527 1.762 0.237 -1.562 -1.153 -0.049 1.336 0.249 -0.174 -0.230 -1.658 0.969 0.281 -0.396 -1.859 -0.423 -0.206 0.443 -2.154 -0.168 -0.770 -0.964 1.620 -1.011 0.066 0.313 -1.861 -0.870 -0.861 -0.369 -0.944 0.333 0.906 -0.490 0.346 -2.563 0.083 -0.542 2.221 -0.247 -1.067 -1.187 2.916 -1.302 0.451 1.604 0.005 0.255 2.153 0.986 -0.133 -1.300 -0.331 -0.242 -0.003 -0.407 0.431 0.333 -0.095 0.739 -0.423 -0.691 -0.328 -0.285 0.276 -2.056 0.626 -1.001 0.282 1.347 -0.847 -0.190 -0.745 0.404 0.054 -0.173 0.824 -0.195 0.824 0.304 -0.269 0.929 0.411
-0.471 0.696 -0.108 0.711 1.912 1.307 1.157 -2.748 -0.268 0.447 -1.548 1.675 -0.410 0.469 -0.118 0.033 -0.827 -0.671 -2.099 -1.286 -0.730 -0.989 -0.309 -0.655 0.111 -0.639 -1.127 0.270 -0.122 -0.509 0.774 -0.905 1.497 -0.077 0.652 2.029 -0.943 -1.046 0.986 -1.233 0.138 -0.103 -0.316 -2.328 -0.094 0.248 -1.431 -0.062 0.580 0.294 2.584 0.930 -0.401 1.651 0.209 0.782 0.931 1.436 -0.389 0.327 -0.346 -0.170 0.117 -0.991 1.237 -1.678 -1.760 -0.859 0.026 -0.835 -0.541 0.259 -1.372 -0.694 -0.208 0.219 0.602 -1.224 1.313 0.867 0.413 0.673 -0.054 -0.526 -0.900 0.482 -0.535 -0.580 1.880 0.281 0.463 0.166 0.745 -1.050 -0.676 1.153 0.814 -1.200 -1.848 -0.015
-1.005 0.838 -0.861 0.705 0.979 1.118 -1.431 -0.962 -0.595 0.311 0.672 0.988 1.390 -1.914 1.303 0.328 0.690 -1.432 -0.756 -0.380 -1.258 -0.778 -0.493 1.439 0.101 0.572 -2.309 -0.404 -0.725 -2.533 0.288 0.366 -1.141 -1.240 -0.503 -0.688 1.779 1.232 2.386 -0.507 -0.501 1.540 1.172 -0.372 -0.724 0.394 2.373 -0.084 0.704 0.173 -1.761 -0.040 -0.103 1.397 -1.498 0.539 -0.642 0.472 0.774 -2.431 -0.113 0.230 -1.731 0.678 2.152 -0.200 -0.641 0.261 0.122 -0.347 -0.183 -1.858 0.311 -0.869 -0.067 1.180 2.363 -0.025 1.210 0.754 -0.094 -0.394 0.606 1.058 0.666 -0.400 0.032 0.557 -0.268 -0.563 1.014 -1.774 2.028 0.557 0.223 -1.086 1.866 0.095 -0.845 -1.087
-0.702 0.237 -0.366 -1.397 0.853 1.409 0.325 -1.792 -0.417 -1.120 3.518 -0.696 -0.333 -0.378 -0.477 0.683 2.164 -1.911 0.089 0.417 -0.421 0.734 1.472 0.579 0.098 -0.860 0.162 -0.252 -0.770 -0.361 -0.291 0.564 -0.096 0.080 0.078 -1.896 1.638 -0.578 1.693 1.631 -1.218 -0.761 -1.100 -0.260 0.458 0.333 0.030 0.407 0.805 -2.013 -0.797 0.159 1.272 -1.312 -1.222 -1.300 2.149 -0.261 -1.008 0.928 -1.755 -0.431 -1.111 -0.562 -0.894 -2.075 0.196 0.424 -0.814 -3.534 0.569 0.520 0.337 0.510 1.099 -0.040 0.085 0.639 -0.412 -1.084 -0.211 0.655 -0.543 -1.157 1.556 -1.048 -0.595 -0.499 -0.095 0.302 -0.956 -0.250 0.822 0.194 0.866 0.466 -0.227 0.132 -0.223 -0.120
-0.261 0.226 0.556 0.454 0.553 -0.739 0.893 1.271 -0.496 0.031 0.325 0.881 0.403 2.473 0.358 -0.159 -0.703 0.667 -0.750 -0.451 -0.015 -0.477 -0.195 -1.043 0.142 -0.458 -0.626 0.024 0.286 0.998 0.915 -0.201 -0.492 -0.038 1.692 0.206 -0.247 -1.544 0.512 0.230 -1.682 -0.622 -1.340 0.798 -0.153 1.163 -0.652 0.478 -0.245 0.228 0.714 -0.562 -1.673 -0.081 1.746 2.328 1.223 -0.725 1.720 -0.478 0.736 1.508 1.144 0.041 1.369 0.100 1.904 -0.712 0.910 1.230 0.199 -2.230 0.280 0.857 0.391 -0.733 0.044 -1.324 0.787 -0.334 0.686 0.155 -1.253 1.258 0.354 -0.272 -0.823 -1.840 0.300 -0.198 -1.057 -1.559 -0.002 0.506 -0.400 0.280 0.442 -2.160 -0.662 -0.618
0.784 -1.512 1.745 1.243 0.987 1.460 -2.464 -1.337 1.647 0.320 -0.394 -1.256 -0.460 -0.467 0.486 -0.210 0.161 -0.209 -0.123 -0.999 -0.664 -1.010 -1.705 -0.016 0.441 0.370 -1.652 1.225 -0.813 -1.659 0.945 -0.059 0.696 -0.032 1.161 -0.104 -0.684 -0.554 -0.333 0.988 -1.168 0.717 1.123 0.880 -1.266 -0.747 -0.764 0.570 -0.450 3.337 -0.348 0.958 0.252 -1.222 0.631 0.169 1.911 0.981 1.573 -0.386 1.251 0.467 0.535 -1.446 1.166 -1.407 0.463 -0.877 -0.906 0.776 0.587 0.930 -0.010 1.258 0.659 -2.287 0.816 -0.662 -0.291 0.486 -1.335 0.677 1.047 -0.949 -0.172 0.608 -1.362 -0.552 0.929 0.095 0.683 -0.999 0.167 -0.424 1.055 0.519 0.539 1.903 0.657 -0.208
-0.045 0.606 0.379 -0.306 -0.766 -1.166 -0.770 -1.021 1.192 0.557 -0.518 -0.222 0.062 0.210 -0.020 -0.699 0.141 0.081 -1.777 0.847 0.524 0.081 -0.946 -1.124 0.560 -0.355 0.017 -0.588 0.584 0.069 0.450 0.170 -0.373 0.369 0.032 -0.747 -1.164 -0.371 0.625 -0.206 -1.644 -0.930 -1.002 -0.879 -1.244 0.183 -0.175 -0.335 1.524 -0.047 0.856 -1.839 -1.428 -0.682 0.779 -0.133 -1.035 -0.852 0.965 -1.303 -0.222 1.539 0.960 1.737 -0.906 0.933 1.458 -0.892 0.787 -0.430 -0.736 0.603 0.262 0.270 0.063 0.944 -0.463 -1.132 -1.944 1.333 1.191 0.204 1.482 2.377 0.147 0.236 -0.216 1.495 -1.057 -0.575 1.133 1.275 0.092 1.560 -0.360 0.162 0.089 1.499 0.902 -1.833
-0.322 0.936 1.307 -0.280 -0.054 -0.938 -1.496 -1.976 0.318 1.170 -0.171 -1.199 -0.010 -1.668 -0.310 0.042 -0.344 -1.860 0.283 -0.652 1.490 -0.659 -0.647 -1.263 -2.382 -0.092 -0.284 -1.008 0.224 1.280 -0.075 0.333 -0.284 -0.906 0.430 0.273 1.806 -0.944 -1.285 0.342 -0.649 1.722 -0.043 0.087 0.035 -0.566 0.033 -0.235 1.168 0.823 0.385 -0.894 0.337 -1.200 -1.122 -0.035 1.249 1.832 0.318 -0.399 -0.346 0.123 -0.473 0.611 0.970 0.596 1.141 1.615 0.660 0.864 0.701 -1.725 -0.266 -0.538 0.295 0.938 -1.579 1.451 0.839 0.024 -0.899 0.660 0.834 -1.224 -1.998 -0.318 -1.224 -0.363 0.632 1.195 1.483 1.360 1.481 -0.617 0.329 -0.374 -0.043 1.528 1.149 0.695
-0.580 -1.526 -0.778 -1.006 0.019 -0.326 -0.021 -0.267 0.392 1.766 0.843 -1.582 1.269 0.056 0.641 1.418 0.342 -1.884 -0.013 0.147 -0.211 -0.238 1.954 0.146 1.700 1.567 -0.272 0.104 -0.922 0.281 -1.194 -1.203 -1.563 0.009 -0.378 1.579 0.872 -0.222 0.645 0.150 0.528 -0.229 0.037 -0.099 -1.254 -1.061 1.510 0.875 0.617 1.896 -1.811 1.381 -0.162 -1.288 -1.000 -0.312 -0.825 2.359 0.311 -0.507 -1.029 -0.586 0.754 -0.371 -0.735 -1.235 -0.562 -1.018 0.362 0.172 -1.054 0.059 0.029 -0.820 0.205 -1.050 1.205 -1.055 -1.118 1.198 1.752 -0.416 0.236 -1.515 -1.252 -1.000 0.488 1.326 2.617 -1.004 1.823 1.134 -0.703 0.230 0.772 -0.155 -0.078 -0.052 0.993 0.597
-0.905 0.072 0.776 -0.953 0.313 -0.286 -0.503 -0.175 0.514 1.660 -1.585 -0.822 0.393 0.395 0.042 -1.227 1.395 -1.538 -1.176 -1.729 0.185 0.302 0.096 -0.616 0.678 -0.302 0.190 -2.925 -0.851 0.149 0.729 1.671 -1.691 1.316 0.874 -0.767 -0.506 2.013 -0.486 0.145 -1.187 -0.948 0.502 -0.536 0.109 -1.483 -1.216 0.155 -0.191 -0.579 -1.788 -1.721 -1.622 -0.481 1.002 0.750 -0.051 0.622 1.518 -0.838 0.206 1.778 -0.882 1.919 -0.397 -0.088 0.195 1.056 -1.305 -1.510 -0.912 -0.586 -1.529 0.000 -0.743 1.132 0.676 -0.804 0.392 0.181 -2.340 -0.023 0.009 0.020 0.926 -0.270 1.007 -0.532 1.006 -0.641 -0.651 0.201 0.553 2.016 -0.852 0.145 1.078 1.474 1.501 -0.882
-2.854 0.104 1.101 1.812 -1.383 0.366 -0.273 -0.914 -1.393 0.577 1.172 0.865 -0.200 -0.389 1.629 -0.413 -1.372 -0.189 1.003 0.001 -0.244 -1.738 -1.567 -0.554 -0.048 -0.173 -0.885 -0.513 1.838 -2.022 1.691 -1.943 0.264 -0.418 0.526 1.320 1.374 -0.421 -0.321 -0.584 -0.369 -0.169 0.268 -0.042 -1.287 0.774 -0.224 -0.495 -1.514 0.335 0.693 0.863 0.130 -0.762 -0.372 1.098 -0.641 -0.484 2.709 -0.444 0.102 -0.513 -1.518 -0.975 0.943 -1.214 0.533 1.627 -0.900 0.269 0.113 -0.287 0.377 -0.547 -0.065 -1.326 2.673 -0.498 0.052 0.632 0.739 0.158 1.679 -0.292 -0.945 0.979 -0.605 -0.782 -0.851 1.292 -1.265 -0.304 0.944 1.840 -1.732 -0.920 0.579 0.130 -2.386 -0.064
1.379 0.092 2.491 -1.253 -0.161 -1.230 1.426 -0.968 -1.130 -1.982 -0.577 -1.125 0.346 -1.481 1.879 -0.419 1.671 0.634 1.879 -0.727 1.272 -2.177 -0.110 -1.089 -0.301 1.131 -0.108 0.210 0.752 -0.950 -0.540 0.123 -1.364 0.199 -0.243 0.120 -0.904 0.682 -0.223 -0.041 -1.107 0.082 0.606 0.561 -0.222 -0.852 0.078 0.233 0.466 0.457 1.426 -0.571 -1.133 0.760 2.718 -0.376 -0.636 -0.614 1.354 -0.665 1.306 -0.116 -0.084 -0.597 1.288 -0.865 -1.064 -0.136 -0.564 1.564 -1.335 0.350 0.258 -1.227 -0.545 0.114 1.233 1.645 -0.312 -0.040 -1.206 0.767 1.261 2.197 1.617 0.578 0.156 1.084 1.618 0.472 -0.568 -1.623 1.453 0.348 -1.340 -1.609 -1.586 0.677 0.310 -0.370
-1.145 2.077 0.204 0.602 -0.779 0.538 -0.812 0.075 -0.881 -0.882 2.873 1.490 -1.854 0.206 0.440 1.418 -0.185 0.311 0.676 2.231 -0.471 2.177 0.573 -0.282 -1.272 1.668 -0.749 1.106 -0.795 0.436 0.357 0.618 -0.521 0.771 -0.594 0.483 0.357 -1.350 -1.327 -1.045 0.629 -1.354 -0.253 -0.412 0.993 -0.059 0.420 -0.036 -0.547 -0.631 -0.399 -1.166 0.668 -0.358 0.449 0.943 -1.204 -0.661 -0.931 -1.137 0.844 -0.909 0.470 -1.563 -1.511 1.118 -2.212 0.307 0.561 -0.833 -0.141 -0.854 -1.636 0.437 -0.969 0.237 -0.863 -1.724 1.808 -0.476 -2.267 -0.305 -1.980 0.698 0.954 -0.099 -0.118 -0.578 1.272 -0.878 0.371 -1.283 -0.841 -0.287 -0.070 -0.617 -0.489 -0.994 -1.021 0.120
-0.553 0.564 -0.495 -0.410 0.090 0.101 -0.010 0.061 0.391 0.329 -0.003 2.165 0.631 -1.080 -1.197 -1.921 -0.437 1.754 -0.441 0.184 -0.351 -0.327 -0.007 0.162 -0.176 -0.328 -0.125 -0.368 0.584 -0.004 -0.068 -1.446 -1.348 -0.243 0.581 -0.488 -1.870 -0.446 -0.089 -1.461 1.102 -1.270 2.560 -0.334 -0.634 0.106 -0.239 1.288 0.412 -1.294 0.273 -0.744 0.077 0.967 -0.468 0.120 0.379 -0.500 -1.363 -0.711 1.099 -0.473 0.540 -0.096 -0.058 0.813 -1.619 0.165 0.611 -0.978 -1.118 -1.377 -0.703 0.152 1.662 -0.623 0.697 -1.306 1.029 -0.662 -0.485 -0.819 -0.172 -2.724 -1.113 0.212 0.688 -0.988 0.272 0.777 0.090 -0.341 -0.803 0.854 -1.062 0.892 1.729 0.872 0.360 0.538
0.964 1.712 -1.394 -1.827 0.853 1.142 -1.992 0.117 -0.133 -1.470 1.025 -2.045 0.164 -1.127 0.126 -1.273 -1.103 -0.483 0.545 0.518 -1.307 1.213 -1.211 0.680 -0.823 -1.910 -0.887 -0.790 -1.463 1.188 0.073 0.634 -1.340 -0.118 -0.522 -0.283 -1.003 -0.962 -0.234 1.981 0.567 -0.104 -0.713 -2.069 -0.162 -0.395 -1.867 0.208 0.741 0.376 -0.511 -1.347 0.393 -0.578 0.217 -0.406 -0.986 1.114 0.363 -0.234 0.130 -1.775 -1.086 -0.954 -0.836 -2.846 0.075 -0.274 -1.868 -0.869 -1.112 -0.232 0.578 0.302 0.507 -1.679 -1.081 -0.342 0.561 -0.431 0.025 0.580 0.454 -0.731 0.690 -0.632 -0.855 0.108 0.954 -1.931 -0.242 0.489 0.660 0.617 2.076 1.063 1.430 0.175 -0.168 0.932
1.804 0.500 2.106 -1.380 0.884 1.121 0.769 0.824 -0.116 -0.392 -0.482 -1.954 0.432 0.111 -1.407 -2.058 0.898 -0.968 -0.286 0.387 -1.769 0.529 -2.058 0.377 -0.357 -0.324 -1.902 0.125 1.373 -0.296 -1.177 -0.479 0.353 2.104 -1.135 1.510 0.099 1.205 0.472 -0.093 -0.756 -0.737 1.740 0.767 0.703 0.965 -0.454 2.399 0.370 -2.219 -0.513 0.391 0.900 -0.702 -0.445 0.950 0.425 -1.235 -1.393 -1.950 -2.275 -1.549 -1.281 -1.175 -0.051 -0.920 -0.171 1.383 -0.463 0.037 1.361 0.542 -0.166 -1.520 0.076 -0.253 0.816 2.795 -1.242 -0.908 -0.957 -0.392 0.253 -0.364 1.583 0.314 -0.711 -2.063 0.183 2.252 -0.083 0.058 1.045 0.279 0.716 -0.168 1.798 -1.257 1.344 -1.458
-1.452 -0.194 -1.793 0.674 1.020 -0.349 1.300 -1.767 0.088 -1.688 -0.654 0.113 -0.500 1.338 0.469 1.128 1.525 0.587 -0.837 0.791 1.331 -0.108 1.567 1.137 -0.932 -1.241 -2.564 -1.903 0.782 -1.937 -0.741 -2.496 -0.793 0.726 1.804 -0.034 -0.453 0.024 0.113 0.233 -0.674 -0.708 -1.061 0.953 -0.400 1.217 0.496 0.182 0.328 2.435 0.444 0.184 0.369 -0.186 1.532 0.015 0.525 1.031 0.803 0.301 0.288 -1.030 -1.179 0.432 0.501 0.838 -0.636 0.861 -0.246 -0.113 1.938 -0.194 0.423 0.651 -0.411 1.192 2.009 -0.223 -0.394 -0.106 -0.075 -0.620 -0.643 -0.238 -0.471 -0.488 -0.928 0.288 -0.568 0.868 -0.641 -1.142 -1.082 1.142 -0.769 -0.227 -0.983 -2.785 0.590 0.607
-1.959 -0.928 -0.883 0.140 1.654 1.361 0.416 0.342 0.308 -0.570 0.153 1.275 1.217 -0.075 0.497 -0.993 0.788 -0.455 0.019 -0.013 -1.428 -0.654 0.348 0.192 -0.605 1.953 0.273 0.923 1.184 1.069 0.374 -0.389 0.641 0.388 -0.433 -0.938 -0.462 1.524 -0.128 0.779 0.287 1.615 -0.315 -0.083 -0.463 -0.425 0.923 -0.579 -0.346 -1.151 -0.363 1.275 0.181 -0.066 0.378 0.614 -1.304 2.418 -2.741 -0.097 -2.138 1.374 -0.858 -0.601 -0.576 1.806 -0.569 -1.536 0.490 -0.353 -0.787 1.390 -0.096 0.202 -0.435 -2.051 0.697 -2.511 -1.381 0.585 -0.164 1.144 0.026 -0.614 0.221 0.909 1.081 -0.035 0.108 0.993 -0.936 -0.865 -0.391 -1.182 0.042 -1.867 1.822 -0.251 2.092 0.611
-0.238 0.097 -0.453 -0.214 0.447 -0.415 -0.729 -1.532 0.552 -0.003 0.552 -0.446 0.555 2.110 -2.186 -1.087 1.528 -1.957 -0.926 0.095 -0.643 -0.175 -1.062 -0.803 -0.084 -0.440 -0.239 1.259 -0.572 -1.035 1.679 -0.950 0.117 -0.294 -0.450 -0.585 1.134 -0.880 -0.461 0.325 1.006 -0.652 1.309 0.456 -0.233 0.184 -1.002 1.293 2.935 0.719 -0.528 0.679 -1.495 0.001 -1.085 -0.364 -0.294 0.970 -0.534 0.860 -0.258 0.265 -1.222 0.328 0.241 -0.513 -1.957 -0.258 0.656 -0.611 1.222 0.963 -0.523 -0.053 -0.335 0.128 -0.175 0.115 -0.850 0.199 0.515 0.943 -0.753 0.849 0.611 0.052 0.810 0.675 0.549 -1.542 -0.900 -0.670 0.304 0.775 0.633 0.740 0.984 -0.488 2.282 1.513
0.973 -1.550 0.204 -0.531 1.544 -0.865 0.425 -0.451 0.041 1.539 -0.270 -0.951 1.255 -1.543 -0.116 0.685 1.084 -1.871 -0.537 -0.795 -0.337 1.176 0.169 1.012 -0.102 0.453 -0.058 0.331 -0.144 -1.613 -1.454 -0.410 -2.194 0.562 -1.095 -1.684 1.078 -1.284 0.009 0.454 -1.706 -0.431 0.552 -0.453 -0.287 -0.785 0.003 2.187 0.813 0.919 0.067 0.870 1.100 0.826 0.191 -2.030 0.615 -0.248 -0.132 -0.302 -1.622 -1.790 0.997 -0.197 -0.292 0.311 0.386 -0.328 -1.882 0.367 1.063 -1.375 0.768 -0.201 0.690 0.072 0.471 0.240 1.242 0.708 0.891 0.364 1.610 -1.065 -1.406 0.153 0.591 0.398 0.051 -0.411 -1.892 1.041 -0.876 0.952 1.087 0.314 -0.531 -0.695 -0.261 -0.738
-0.606 -0.692 -0.861 1.277 -0.077 -0.402 -0.335 -0.480 -0.617 0.555 -0.384 -0.384 0.139 -1.100 1.072 1.070 0.565 -0.257 -0.844 0.071 -1.219 0.574 -0.873 -0.654 -1.035 0.419 0.153 -0.384 -0.151 0.221 0.559 0.962 0.666 -0.921 -0.870 -0.978 0.714 0.015 0.476 -0.528 -1.457 1.120 -1.244 -0.114 1.038 0.294 -0.557 2.059 0.788 -0.497 0.359 0.977 0.348 -0.604 -1.257 -2.384 -0.244 -0.058 -1.211 -1.563 -0.381 0.633 -0.893 -1.004 0.685 -1.430 -0.166 1.488 3.248 0.155 -0.862 0.284 -0.210 0.901 -1.696 -0.624 1.090 -1.951 1.035 0.520 -0.595 1.973 0.268 1.683 -0.950 0.205 0.211 1.090 -0.182 -1.059 1.988 0.055 0.137 0.521 0.203 -0.182 1.990 0.354 1.442 0.188
-0.907 0.039 1.703 0.548 0.552 0.228 -1.212 -0.036 -0.281 -0.647 -0.095 1.210 -0.194 0.119 -0.133 0.856 -0.609 -1.065 0.714 1.325 1.565 -0.429 -1.251 0.872 -1.321 -1.086 0.152 -2.138 0.916 -0.390 0.755 0.239 0.602 1.165 -0.879 1.082 -0.202 -0.128 1.371 -0.807 -0.758 0.111 0.450 0.354 0.641 -0.039 -0.615 -0.839 -0.024 0.834 2.922 0.396 0.063 0.437 0.373 0.489 -0.191 -0.134 0.145 -0.323 0.086 -0.253 -0.431 1.296 -1.705 0.526 0.196 1.166 0.017 -0.151 0.303 -0.233 -1.033 -0.544 2.118 0.237 2.679 1.530 -1.290 0.818 1.386 -1.255 -1.149 0.629 -1.424 -1.982 0.231 0.698 -0.848 0.176 -0.932 0.012 -1.198 0.488 1.501 0.351 0.921 0.837 -1.428 1.149
-0.430 1.029 -0.226 -0.162 -1.168 0.698 -2.176 -0.266 0.061 0.842 -0.062 -0.430 1.910 0.321 1.152 -0.856 -0.275 0.937 -0.906 0.748 1.233 -0.285 0.663 -1.283 0.048 -0.520 -0.330 -1.535 -0.160 0.306 -1.091 0.239 -1.101 -0.012 -0.501 -0.964 0.834 0.881 0.559 0.523 -0.397 -0.509 0.141 0.929 -0.634 1.115 -0.349 0.284 0.068 0.941 -1.413 -0.698 -1.836 -0.852 -0.564 0.385 -0.602 -0.120 0.440 -0.544 -0.372 -2.372 -1.156 1.060 0.398 0.487 0.434 0.373 0.815 0.815 -0.275 -0.076 2.105 -0.110 1.243 -0.066 0.180 -0.826 -0.526 -0.068 1.114 -0.388 0.756 -1.599 0.837 1.879 -0.296 0.658 0.540 1.158 -0.113 1.213 -0.399 -0.120 -1.553 0.414 -1.313 0.764 1.308 -0.192
-3.391 -2.115 0.916 -0.187 0.722 2.046 -0.515 -0.257 -0.533 -0.683 -1.301 0.445 0.511 -0.561 -1.448 0.167 -1.076 1.568 1.283 -1.023 0.174 -0.093 1.299 -1.034 -0.009 -0.205 1.035 -0.682 0.107 -1.097 -1.733 -1.500 -0.420 0.559 -1.625 0.585 -1.091 0.646 1.257 -0.043 0.273 1.558 -0.914 0.151 -0.247 0.041 -0.378 0.722 0.112 -1.670 0.209 -2.339 -0.344 -0.562 -1.159 1.105 -0.682 1.028 -0.730 1.018 1.190 -0.580 0.599 1.644 0.262 0.721 1.431 -1.099 -2.563 1.582 -1.324 -0.137 -0.316 1.897 0.647 -1.014 0.886 0.245 0.220 -0.227 0.783 -1.259 1.714 -1.310 0.990 -0.244 1.014 -0.864 -0.862 0.952 0.732 0.339 0.866 1.273 1.085 0.462 2.346 -1.411 -1.446 0.912
0.253 -0.774 0.593 -0.465 -0.326 1.164 0.950 0.770 -0.298 -0.657 -0.111 0.627 1.028 -0.425 0.847 -0.219 -0.590 0.124 1.017 0.326 0.447 0.976 -0.660 -1.386 -0.587 1.151 -1.004 -1.033 0.502 0.408 -1.197 0.556 -0.577 1.384 -0.129 -0.321 -2.100 -0.328 0.378 0.465 1.374 0.313 -0.094 1.188 1.404 0.087 0.393 -1.130 -1.940 0.627 1.324 -0.513 0.394 1.097 -1.393 -0.849 -2.389 -0.099 -0.481 -0.721 -1.576 2.017 -0.083 1.010 0.006 -1.074 0.240 0.045 0.864 0.778 0.516 0.200 -0.549 -0.824 -0.327 -0.249 -0.242 0.223 0.164 0.001 -1.299 0.726 -1.445 -0.564 1.386 -1.452 0.929 -1.941 0.287 1.226 0.019 -0.124 1.205 -0.367 -0.953 0.371 -0.361 -1.000 -1.241 -0.161
0.934 0.995 -2.132 1.095 1.314 0.277 0.111 0.011 1.029 1.061 1.219 -0.057 -0.064 -0.930 -0.243 0.799 -0.208 0.318 -0.602 -0.531 -0.957 -0.031 -1.210 0.158 -0.812 -1.068 -1.458 -0.615 0.208 0.621 0.002 0.842 -0.951 1.396 -0.908 1.101 0.305 -0.246 -0.706 -1.138 0.185 -0.651 1.075 -0.905 -0.618 1.313 0.205 0.115 -0.917 0.848 1.238 -1.967 1.782 0.212 1.493 0.963 -0.310 0.100 -0.437 -0.563 -0.125 1.748 0.121 -0.522 -0.498 2.003 0.429 0.127 -0.934 1.690 -0.166 -0.936 0.791 -1.127 -0.394 0.148 0.346 0.363 1.291 0.390 -0.661 -1.253 -0.180 0.339 -0.883 0.611 1.602 -0.470 0.423 -0.706 -0.771 0.105 -1.733 2.851 0.572 -0.163 0.373 -0.437 -0.017 -1.118
0.253 0.691 -0.513 1.692 -0.274 -0.667 -1.116 0.968 -1.051 -0.541 -0.317 1.240 -0.588 0.371 -1.041 -0.250 0.324 -0.771 0.363 -1.335 -1.040 -0.965 0.187 0.721 0.788 -0.735 -1.338 -1.864 -0.054 -0.234 1.393 -0.704 -0.632 -0.236 -1.397 0.176 -0.115 -0.305 -1.370 0.482 0.810 1.242 -0.598 -0.564 -1.616 -0.125 0.917 1.270 0.737 -0.689 -0.725 -1.416 0.300 0.679 0.045 -0.724 -0.658 2.007 -1.654 0.484 -1.031 -1.368 0.537 -1.873 -1.925 -0.760 1.622 0.078 -0.119 -0.536 1.345 -1.229 -1.592 0.057 -1.664 0.933 0.299 0.644 -1.176 -0.962 -0.525 0.269 1.333 0.423 -0.597 0.175 1.387 -1.492 0.102 1.111 1.312 -0.725 -1.083 -1.100 -0.992 1.213 -0.308 -1.292 0.424 0.028
0.397 -0.319 -1.448 -0.033 0.542 0.733 1.469 -0.058 -0.222 1.074 0.886 0.610 -1.527 -0.922 -0.060 0.526 0.346 0.142 0.296 -1.024 -1.224 0.985 -2.290 -0.179 -0.832 0.810 -2.209 -1.023 0.126 0.550 -3.260 -0.627 -0.016 -1.167 -1.571 0.688 -1.307 -1.484 0.879 -0.485 1.036 -0.040 2.366 -1.080 -2.648 1.484 -0.277 -0.142 -0.430 1.021 0.126 2.106 -1.123 -0.738 -0.602 -2.236 -0.109 0.979 1.972 -0.026 -1.686 -0.003 0.094 -1.250 -0.934 0.829 0.551 -0.026 -1.692 -0.028 -0.494 -1.484 -1.094 0.360 1.341 0.741 0.240 -0.236 1.686 -0.745 -0.557 -1.033 1.515 0.677 0.918 -1.107 -0.915 0.433 0.718 -0.597 -0.767 1.144 -0.805 1.012 0.105 -0.509 -0.637 1.248 -0.713 -0.222
-0.959 -0.536 0.137 0.366 1.290 -1.105 0.913 -0.246 0.110 -1.609 0.717 -0.559 -0.112 -1.177 -0.825 1.863 0.333 0.676 -0.033 -0.164 -1.370 -0.346 -0.116 2.029 -0.810 0.592 0.371 2.082 1.112 -1.884 0.118 1.858 -0.899 -0.567 -1.238 -0.305 -0.444 0.523 -0.544 1.083 0.562 -1.204 1.585 -0.837 1.484 0.681 -1.158 -1.187 -0.758 -0.312 0.391 -0.437 0.415 -0.999 -0.360 -0.674 0.067 0.365 1.302 -2.003 0.667 0.934 -0.008 -0.753 0.840 -0.198 0.696 -1.057 -1.029 2.113 -0.755 0.479 -0.214 1.878 0.045 -0.325 1.304 -1.005 -1.061 0.293 0.188 0.355 0.806 -1.035 -0.654 -2.308 1.613 -0.635 -0.976 0.687 0.500 -0.342 -1.326 -0.443 0.379 0.686 0.258 -0.998 0.260 -1.446
-0.110 0.755 1.256 -0.507 0.171 0.832 -0.103 -0.039 -1.083 0.009 -0.857 -0.631 -1.969 0.475 -1.737 -0.135 -0.894 0.996 -1.006 -1.257 0.779 -0.818 1.459 0.097 0.061 0.402 0.986 -2.532 0.701 0.046 -0.739 -1.185 0.007 -0.958 -0.157 0.577 0.071 0.005 0.124 -0.649 1.923 -0.288 -0.089 -0.623 -0.638 -0.619 -1.530 -0.057 -1.120 2.187 0.435 -0.664 0.715 -1.082 0.175 2.012 1.278 0.979 2.541 0.575 0.210 1.077 -0.049 -0.051 2.361 2.893 -1.234 -0.665 -0.987 0.761 -1.493 -0.603 -0.548 0.142 -0.525 -0.721 0.310 0.250 -0.884 0.495 -0.788 -0.257 0.900 -0.677 1.547 0.381 -0.568 0.632 2.505 -0.313 -0.080 -1.052 -0.158 -0.343 0.367 -0.499 0.525 0.790 -0.070 -0.164
-0.670 0.461 -0.281 -0.705 -1.970 -0.630 -0.875 -0.272 -0.010 -0.267 2.433 -1.532 -0.287 1.517 -1.160 -0.322 -0.628 -0.152 -0.754 -0.436 0.122 0.694 -2.708 -1.180 -0.504 0.468 -0.329 0.308 -1.251 -0.243 -0.440 -1.143 1.434 1.026 -0.042 0.043 0.932 -0.679 0.132 0.158 -1.866 0.377 1.109 1.907 0.741 0.336 1.696 0.972 0.296 -0.219 -0.921 -1.725 0.850 0.919 1.122 2.258 2.017 0.400 -0.048 0.537 -1.339 -0.506 1.476 0.653 -1.414 -1.734 1.969 -0.386 0.906 -1.044 1.415 -1.048 0.172 1.197 -0.835 1.911 -1.635 0.119 0.509 -0.676 0.525 0.359 1.503 0.050 1.076 -1.059 0.335 -2.074 0.608 0.443 0.200 -0.425 -0.515 0.033 0.119 -0.646 -0.491 -1.012 -0.266 1.432
-1.387 0.571 0.001 -1.232 0.026 0.062 -0.221 -0.263 -1.791 -0.368 -0.077 -0.291 1.468 0.691 -0.203 0.015 -0.101 0.818 -0.536 -0.495 2.168 -0.250 1.238 1.200 1.327 -0.048 0.451 -0.959 -1.010 -1.969 0.319 1.127 0.302 0.716 0.783 -1.186 -0.889 -0.606 -0.603 1.432 -1.876 0.030 0.301 0.407 1.111 0.006 -0.070 -0.961 0.470 0.776 0.538 -0.407 0.117 0.248 1.273 -0.956 0.121 -0.574 0.795 0.628 -1.294 -1.212 1.028 0.075 1.111 0.325 -1.670 1.299 -0.802 1.958 1.729 0.330 -0.034 -0.290 -0.428 1.637 0.972 1.085 0.929 -0.219 -0.907 -1.204 0.766 -0.241 -0.510 -0.750 -1.233 -0.011 -0.135 -1.577 1.252 1.095 0.316 -0.702 1.877 -0.593 0.411 -1.569 0.585 0.240
-0.783 0.133 0.215 -0.084 -0.755 1.137 -1.000 -1.007 0.493 0.221 -0.964 2.998 0.408 -0.051 1.486 1.381 -1.114 -1.093 0.537 0.447 -0.376 -0.402 -0.018 0.756 0.797 0.809 -0.393 -1.715 -1.023 0.056 -0.369 -1.582 0.171 1.955 1.721 1.820 0.233 -0.366 -1.201 0.425 -0.477 0.981 -0.597 0.113 0.854 -2.031 0.047 -0.762 0.280 1.925 0.919 -0.489 -1.507 1.121 1.235 1.785 0.626 0.984 1.179 -0.764 0.344 -1.578 1.419 -1.604 -0.987 -0.286 -1.171 -1.134 0.032 -0.215 -2.480 -0.126 -0.074 0.280 -0.328 0.086 0.354 0.132 -0.430 -0.425 0.607 -2.115 1.863 -1.001 -2.167 0.161 0.489 0.191 -1.324 -0.304 0.645 0.088 -0.315 1.236 -1.198 1.412 -0.101 1.534 -0.156 1.104
0.939 -0.702 -0.596 -1.034 0.763 -0.263 -0.434 1.152 1.535 -0.358 1.553 -0.657 0.172 0.702 0.115 0.317 1.536 -0.245 -0.336 -0.057 0.501 0.313 -0.771 -0.706 1.324 -2.834 -0.740 0.196 -0.764 -0.967 -0.439 0.648 -0.693 0.277 -0.953 -0.178 1.045 -1.416 0.909 -0.357 -1.002 -0.126 -0.300 1.513 0.644 1.677 0.950 -1.109 1.309 0.878 1.222 -0.563 1.085 -1.023 0.168 -0.665 1.598 0.201 -0.610 0.609 -1.048 -0.122 -0.238 1.103 0.749 0.276 -0.629 -1.326 0.504 0.291 -0.416 0.957 -0.839 -0.365 1.285 -0.972 -2.236 -1.154 0.953 0.475 1.610 -0.997 0.442 0.015 1.004 -0.388 -0.399 -0.228 0.550 -1.180 0.096 -0.917 0.049 -0.000 -0.244 -0.727 -0.046 2.597 -0.300 0.279
1.541 0.828 0.407 -0.131 -0.411 -0.284 0.298 -2.016 0.902 1.874 0.426 2.049 -0.614 -0.212 -0.723 1.089 0.075 -0.969 0.156 0.158 -2.396 0.698 -0.726 -0.575 0.596 1.264 -0.084 -1.544 1.511 1.243 0.386 -1.853 1.898 -0.850 -0.426 1.178 1.130 -1.812 1.074 2.151 -1.402 -0.001 0.076 -0.465 -0.544 1.178 -0.637 0.822 -0.089 -0.109 -0.743 0.809 -0.038 -0.131 -1.550 -0.691 0.926 0.449 -0.864 0.360 0.980 -0.307 1.272 1.599 1.029 -0.842 0.729 -0.497 -1.703 -0.224 0.502 -2.325 1.540 0.270 -0.783 0.406 0.773 1.766 -0.415 0.410 -0.100 -0.807 0.003 -0.967 -0.409 0.280 0.988 2.103 -0.319 0.645 1.009 0.064 -1.716 -1.824 0.078 1.455 0.156 -0.513 0.216 -1.102
0.130 -0.122 0.469 0.528 -0.267 0.756 1.097 0.762 -0.499 -0.055 0.999 1.127 1.143 0.346 0.727 -0.280 0.870 -0.621 -0.107 -0.187 -1.031 1.158 0.732 0.445 0.583 1.544 0.178 -0.251 0.265 -1.566 2.027 -0.006 0.391 -1.456 0.539 0.486 -1.848 -0.680 2.209 -0.521 0.131 1.359 1.005 1.322 -1.032 -0.030 -0.381 -0.485 -0.584 -0.910 1.551 1.724 -0.004 -0.415 0.278 1.450 -0.899 -0.700 2.237 2.061 -0.250 -0.882 1.743 0.148 -0.981 -0.128 0.930 -1.934 0.385 -1.064 -0.034 -1.053 -0.306 1.126 -0.568 -2.077 0.831 1.186 -0.082 1.538 -1.010 -0.674 -0.341 0.017 1.514 -0.616 1.600 1.734 -0.799 0.868 -0.187 0.153 -0.392 1.288 0.950 -1.280 1.584 0.136 1.167 -0.453
-0.536 -0.582 0.080 -0.916 -0.086 -0.808 0.483 1.409 0.811 -0.483 -0.457 0.190 -0.988 0.496 1.001 -0.333 0.197 -0.286 1.059 0.365 0.707 1.106 0.183 0.359 0.036 -1.267 -0.648 -0.509 -0.568 0.432 0.944 0.880 0.889 -2.186 0.142 1.493 -1.393 -1.015 0.938 1.111 0.366 -0.946 0.203 -1.537 1.050 1.441 0.546 1.073 -0.549 0.196 -0.046 -0.525 0.052 -0.742 1.394 -0.689 1.135 0.431 -1.077 -0.839 -0.076 0.172 0.977 1.140 1.594 -0.529 -1.841 -0.153 -1.010 -0.872 0.747 0.592 0.974 -1.575 -0.013 -0.613 -0.874 0.451 0.680 -0.234 1.746 0.193 0.892 0.678 -0.327 -0.045 -0.699 -1.901 -0.089 -1.195 -1.424 -0.013 -0.100 0.916 -1.168 -0.203 -0.003 -0.648 -2.021 -0.126
0.173 -1.809 0.669 -0.446 0.728 -0.985 0.194 -1.011 -0.088 -0.498 -0.243 -0.511 0.482 -0.113 -1.032 -0.704 1.779 0.519 0.180 -0.978 0.469 -0.408 0.360 0.382 0.623 -0.869 0.338 0.113 0.384 -0.547 0.930 0.585 2.288 0.625 0.506 -0.688 -2.799 0.744 1.494 0.558 0.803 1.012 0.061 0.646 -1.454 -0.366 -0.321 1.020 -0.406 1.395 -0.173 -1.827 0.958 0.981 -0.557 1.519 -0.731 -0.641 -0.994 -0.775 -0.838 -0.236 -0.427 -0.323 0.339 0.021 -0.501 0.627 0.660 0.030 0.134 0.345 0.735 0.560 0.361 1.280 0.893 0.724 -0.078 0.488 -0.354 -1.134 -0.482 -1.435 -0.093 0.588 -0.677 -0.041 0.782 -0.195 -0.959 -0.678 -0.783 0.461 -0.967 -1.465 0.668 0.015 -0.921 -0.908
