Time: 30/03/2021 02:09:12
Batch size: 100
Epoch num: 2
Iteration per epoch: 120
Final loss: 2.29831
Train error rate: 0.87042
Test error rate: 0.87881


Initial weight:
# w1_0
-1.392 -0.526 -0.936 0.726 -0.008 0.734 1.447 -0.419 -0.407 -0.139 -1.060 -0.168 0.225 -0.397 0.147 1.992 0.852 0.714 0.952 -0.991 -0.445 0.156 -0.038 -0.448 0.032 -0.048 0.180 0.490 -1.562 -0.588 1.578 0.174 0.302 0.406 1.119 -1.411 -0.162 0.165 -1.341 -0.291 -1.786 0.047 -0.478 -0.057 -1.574 -0.006 0.821 0.035 0.709 -1.044 -0.223 0.509 0.552 0.256 0.237 -0.346 0.837 -0.121 0.115 1.023 -0.725 -0.857 -0.462 -1.494 0.538 -0.123 1.471 -0.387 0.568 0.337 0.387 -1.973 -0.008 -1.151 0.156 0.152 -0.076 0.422 -0.980 -0.561 -1.061 1.970 -0.398 0.674 -0.718 -0.798 0.948 0.912 -1.964 1.407 0.289 0.214 -0.081 -0.178 0.528 0.293 -0.574 1.492 0.940 0.526
-0.637 0.615 -0.357 -1.471 -2.400 0.630 -0.569 0.644 -0.291 -1.613 1.276 -1.671 -1.659 -1.111 0.830 0.001 0.486 0.543 -0.161 0.688 2.873 1.876 -1.226 -0.822 -1.171 0.178 -0.373 -0.177 0.407 0.034 1.806 -0.548 -0.985 0.327 1.147 0.391 0.512 -2.669 -0.533 0.320 -0.813 -1.053 0.294 1.673 -0.675 1.219 -1.348 -1.697 0.688 -0.050 -0.460 0.013 1.317 -1.483 -0.281 0.720 -0.001 0.877 -0.767 -0.530 1.649 -0.028 1.786 -0.659 0.293 -0.465 -0.202 -1.146 1.242 -0.320 0.486 0.135 -0.858 -1.890 2.032 0.186 -0.536 0.153 1.684 -0.424 0.855 -2.034 0.107 1.436 0.824 0.677 -0.598 -0.399 0.145 -0.449 -1.108 -0.101 -0.392 -0.219 1.658 0.040 1.633 0.695 -0.804 1.088
0.240 1.588 0.197 0.135 -1.296 -1.933 1.036 0.417 -1.498 0.336 0.437 2.639 1.391 -2.589 -1.198 -0.314 1.053 -1.390 0.030 0.146 2.150 -0.019 0.169 0.277 1.549 1.290 -1.320 0.977 0.664 1.616 -0.104 -0.712 0.319 -2.056 -0.104 0.864 -0.833 0.162 -0.850 1.220 0.526 -0.283 -0.508 0.302 0.582 -0.496 0.847 -2.256 -0.255 -0.355 -0.215 0.211 0.966 -1.418 -0.079 1.379 0.687 1.354 -0.720 -0.289 -0.168 -1.360 0.538 -0.286 -0.911 0.944 -0.395 0.115 0.857 -1.386 -0.057 -0.302 0.459 0.913 0.573 0.110 -0.426 1.524 -1.373 0.182 0.374 -1.170 -0.045 -0.101 0.867 -0.649 -2.007 0.601 -0.518 -1.495 0.119 -0.743 -0.680 -0.935 -0.376 -1.139 -1.137 0.645 -0.649 1.048
-1.838 0.943 -0.589 1.001 -0.371 0.519 0.205 -0.302 -1.893 0.585 -0.809 -1.254 1.215 0.475 -1.306 -0.466 -0.883 -0.005 1.082 -0.345 0.459 0.818 0.271 0.592 1.519 -0.136 -0.113 -0.265 -0.413 -0.583 -0.629 -0.955 -0.542 0.249 -0.443 0.974 0.231 1.370 0.374 0.909 1.972 -1.053 -1.030 0.316 1.562 0.838 -1.388 1.177 -0.604 -0.435 1.967 -0.457 0.403 0.257 -1.448 1.304 -0.389 -1.098 -0.895 -0.872 -0.179 0.081 1.111 -0.842 1.330 -0.386 2.326 -1.673 -1.757 0.077 0.270 0.124 -0.932 -0.912 1.433 0.708 -0.278 -1.301 -0.835 -1.357 0.258 0.043 -0.922 -0.719 -0.496 0.187 0.208 1.282 0.156 -0.656 1.026 1.390 0.158 0.012 -0.633 0.385 1.332 -1.430 0.138 1.023
1.044 -1.846 1.315 -1.194 1.082 -1.072 -0.123 0.328 -0.846 0.474 0.980 1.724 -0.312 -0.156 0.966 0.993 0.651 -0.299 1.506 0.322 0.711 -1.123 -1.221 -1.902 -1.310 -0.383 1.428 0.482 1.810 1.199 0.656 1.785 -0.428 -1.779 -1.752 0.208 -0.353 -1.233 -1.377 0.192 -1.736 -1.324 -1.226 -1.559 -1.106 1.347 1.582 -2.263 0.200 0.800 1.651 0.121 -1.959 -2.110 0.203 -0.611 -1.559 -1.025 0.665 0.031 -0.731 0.080 -0.395 -0.897 0.760 -0.672 -0.419 0.543 -1.740 1.540 -0.309 -0.756 0.860 0.388 -0.475 1.026 0.524 0.562 -1.674 1.859 0.331 -1.484 -0.335 0.908 1.325 0.302 -0.514 0.305 -0.959 0.522 1.372 1.071 0.217 0.347 0.863 -1.303 0.705 -1.700 -0.362 -0.000
-0.313 -0.853 -0.008 0.180 -0.599 0.224 -1.404 -2.676 -1.923 0.007 -0.852 -0.266 0.585 0.528 0.160 0.782 -1.318 -1.763 0.241 0.208 -1.174 -1.027 -0.377 -0.177 -0.615 -1.315 0.260 0.004 -1.424 0.463 0.993 -0.388 -2.763 -0.923 -0.347 0.458 -0.244 1.624 0.654 -1.237 -0.347 -0.994 -0.365 -0.844 -0.268 0.903 0.898 1.118 -0.849 1.791 -0.290 -1.741 -1.596 -1.102 -0.154 0.776 0.154 0.085 -2.247 -0.233 -0.566 1.144 2.143 1.259 0.392 -0.939 1.618 0.229 0.176 -0.070 0.606 -0.016 -0.616 0.164 0.376 1.114 -0.452 -0.481 0.356 0.230 -0.069 0.705 -0.523 0.842 1.006 -1.132 0.815 0.036 -1.407 1.622 -0.105 0.423 0.421 -0.471 1.466 -0.778 0.779 0.714 2.078 0.027
-0.081 -2.555 -1.113 -0.873 -0.666 -0.145 0.685 -0.417 -0.348 -0.748 0.190 -0.671 1.255 -1.354 -0.660 0.766 1.020 0.373 -2.643 -2.741 0.081 1.237 1.219 -0.710 -1.172 1.532 1.335 -0.123 -0.459 1.051 0.258 0.675 1.090 -0.050 0.157 -0.196 0.971 0.423 0.995 0.450 0.211 0.448 -0.837 -2.064 0.070 1.078 -2.044 -1.173 -1.275 -0.071 0.633 0.602 -0.692 -0.585 0.561 -0.377 0.129 -0.928 0.199 1.574 0.402 -0.953 0.250 -0.818 -0.761 -0.123 -1.139 -1.696 -0.626 -0.573 0.102 -1.012 -0.036 1.148 0.697 0.196 0.904 0.105 -0.784 0.005 0.769 0.723 0.587 -0.439 -0.134 0.111 0.479 0.618 -0.724 0.462 0.000 -0.869 0.598 0.917 -1.910 0.782 -0.697 -0.066 -0.086 -0.072
-0.492 -0.258 -0.058 -0.819 1.675 1.699 -0.834 -1.188 0.503 -1.749 -0.517 0.154 1.099 -0.207 -0.266 -1.199 0.461 -0.705 -0.586 0.186 1.170 0.056 -0.968 0.836 -1.329 0.459 0.684 -0.288 1.746 -0.388 1.355 1.758 -1.989 1.670 2.402 -1.584 -1.284 2.491 -0.440 -0.326 -1.363 -1.917 1.595 -0.148 0.318 -0.335 -0.813 -1.359 -0.440 0.780 1.163 0.440 -0.542 -1.126 1.237 -0.989 -0.658 -0.051 -1.321 -0.080 0.167 -3.021 0.809 -0.312 -0.773 0.281 0.424 1.981 1.374 1.189 -0.607 -0.743 1.881 -0.958 1.531 1.347 0.527 1.319 0.779 1.582 1.480 -0.204 0.561 -0.154 -0.004 -0.135 -1.600 1.284 1.065 0.955 -0.336 -1.369 1.604 0.624 -0.362 0.047 0.771 1.172 1.741 0.935
-0.270 -0.111 0.362 -1.322 0.308 0.900 -0.577 0.556 -1.183 0.556 0.368 -1.441 -0.549 1.158 -0.339 0.288 0.492 -1.088 -0.360 -0.928 0.392 1.803 -1.181 0.368 1.205 -0.868 1.034 0.063 -1.750 1.585 0.606 -0.314 0.503 -0.364 0.502 0.841 -1.057 0.747 -0.380 -1.210 1.172 -1.042 0.303 1.330 0.943 -0.425 0.418 0.165 0.138 0.978 -0.921 -0.505 -0.578 -1.103 -0.366 -1.285 -1.115 -0.513 -1.655 -1.451 1.228 -0.818 -0.191 -0.507 -0.737 -0.780 0.858 0.480 -0.214 -0.164 -0.316 -0.278 0.794 0.741 -1.692 0.049 -0.850 1.765 -0.904 -0.027 0.070 -1.015 -0.279 -0.018 -0.055 -0.821 -0.088 -0.292 -0.848 0.705 -0.428 -1.254 0.664 -0.765 -0.485 0.770 -0.862 -0.166 0.581 1.255
-0.432 -0.454 0.121 0.311 -0.101 -0.538 -2.966 -0.582 0.512 -0.617 -0.939 -1.401 -0.879 1.581 -0.934 0.152 1.264 0.811 0.168 -1.242 0.877 0.477 -0.447 -0.265 0.268 1.734 -1.224 0.306 1.396 0.955 -0.593 -1.126 -0.173 0.246 -0.421 0.160 -0.188 1.238 -0.263 -0.215 -0.275 0.634 1.608 -0.526 0.881 0.365 0.409 -1.392 1.066 -1.005 0.241 -0.045 0.530 0.212 0.148 0.286 -1.943 0.263 -0.595 0.863 -2.088 0.309 -0.791 0.851 -0.051 -0.428 -1.037 -0.551 1.031 -0.974 -0.275 0.532 -1.116 -0.107 2.424 0.531 -0.461 -0.447 -0.773 -0.738 -0.289 -1.752 -0.091 0.587 2.642 -0.579 0.596 2.177 0.192 1.569 1.066 1.227 1.637 0.092 -0.787 0.497 0.966 -0.876 -0.278 1.125
-0.736 1.569 0.573 1.582 -1.427 0.520 -0.625 0.369 0.739 -1.050 1.077 0.379 0.483 1.010 -1.823 -1.307 -0.201 1.551 -0.031 0.011 -0.855 0.584 1.419 0.042 -0.417 0.203 -0.507 -0.428 1.184 1.192 0.626 -1.112 0.948 0.104 0.100 -1.767 -0.224 -0.586 0.899 -0.746 0.689 -0.208 -0.936 1.094 1.289 -0.165 0.031 -1.551 -0.321 0.689 -0.363 1.120 -0.177 -0.638 2.133 -0.433 0.369 -0.686 0.301 -0.920 -0.411 1.040 -0.045 -0.674 2.671 -1.578 0.537 1.125 0.968 0.099 1.703 -0.958 -0.970 0.683 -0.528 -0.693 -1.902 -0.250 -0.373 1.473 1.346 0.753 0.566 -1.480 0.127 0.329 -0.141 1.565 0.785 0.968 -0.653 -0.334 -0.452 1.185 -0.142 -0.613 1.085 -0.067 -1.565 1.135
-0.061 -0.925 -0.632 -1.334 0.265 0.344 -0.473 0.711 -0.414 1.240 -0.758 -0.228 0.031 0.396 2.074 -1.433 0.466 -0.459 0.773 1.449 -2.135 1.196 -0.460 -0.733 -0.945 0.459 0.247 1.220 -0.055 -0.190 1.155 2.112 -1.099 0.607 -0.497 1.262 2.233 0.300 0.011 -2.175 -0.549 0.913 -1.750 -1.162 -0.743 -0.147 -0.861 -0.163 0.942 -0.174 -0.950 -0.056 -0.803 1.166 0.022 -0.604 -1.022 -0.484 0.026 0.604 0.882 -1.553 0.065 -0.016 -0.595 -1.512 0.513 -0.759 -0.616 -0.654 -0.904 1.738 0.701 0.096 0.066 -0.379 0.085 0.034 -0.626 -1.359 -0.325 -1.273 0.143 -1.201 -1.751 0.318 1.340 0.398 -0.368 -0.374 0.461 0.796 2.063 -0.615 -0.999 0.814 0.788 0.764 0.681 -1.346
0.331 0.263 0.372 -1.211 1.506 0.039 0.188 -1.114 1.263 -0.955 1.729 -0.455 1.575 0.510 -1.078 -0.777 -1.552 0.053 -0.121 0.767 1.032 -0.542 0.425 0.443 -0.094 0.324 -0.192 0.495 0.635 -0.466 1.156 0.309 1.771 -0.968 -0.681 -0.707 -1.160 -0.055 -0.267 0.976 -0.003 -0.973 -1.771 -0.403 -1.748 -0.096 1.099 -0.443 -0.944 0.481 -0.190 1.627 -1.123 -1.013 -1.063 -0.598 0.277 0.834 -1.973 -1.156 -0.684 0.449 -0.279 1.181 0.152 0.873 0.280 -0.615 0.587 0.488 0.409 -1.688 -0.197 1.092 -0.304 2.087 -0.366 -0.903 0.873 0.812 0.579 0.114 -0.029 0.854 -0.495 -1.253 0.980 -1.618 -0.774 0.860 0.270 -0.382 -1.084 0.774 0.968 2.210 0.467 1.579 0.581 0.159
0.986 0.927 -0.233 -0.344 1.372 -1.086 1.263 0.819 -0.242 -0.757 -0.473 -1.077 -2.127 0.644 -0.125 0.002 -1.780 -0.529 2.250 0.492 -0.674 -1.318 0.407 0.769 -0.172 -1.463 -0.471 -0.303 -0.265 1.661 -0.095 -1.983 0.396 -1.488 -0.049 -1.544 0.182 0.213 0.410 -0.362 1.187 -0.388 0.006 -0.012 1.249 0.139 1.296 -0.155 1.834 0.425 -0.247 1.126 0.562 1.027 0.507 1.130 -0.498 -0.302 -0.668 2.088 0.275 -1.199 -0.397 -0.056 -0.916 0.500 0.228 -0.501 1.560 -0.053 -0.800 0.116 -0.669 -1.100 -2.199 -1.377 1.745 1.478 -0.365 1.021 -0.527 0.206 -0.679 -0.923 0.011 -2.269 0.881 -0.104 1.442 0.962 0.579 -1.951 -1.828 -1.076 -0.594 0.038 -1.013 -0.105 -0.684 1.417
0.083 0.537 -1.438 -1.016 -0.572 1.203 0.955 -1.139 -1.084 -0.236 -1.289 -0.854 0.458 0.407 -1.117 1.546 0.047 0.334 0.362 0.031 -0.085 0.750 -0.407 0.292 0.593 -1.190 -0.068 0.391 -1.703 -1.374 -1.049 -1.280 -1.737 1.523 -0.775 -0.349 -1.811 -0.254 0.217 -0.502 -0.876 -1.127 0.900 0.615 -1.058 0.610 0.284 -0.592 -0.477 0.243 0.311 0.716 0.786 -1.343 0.378 1.471 -0.325 -0.245 0.585 -0.512 -1.713 -0.053 -0.004 -0.125 -1.340 -0.843 -0.856 0.352 -1.273 0.835 -0.033 0.384 0.546 -0.346 0.706 -2.829 -0.619 -0.448 0.497 -1.193 0.573 -0.042 -0.073 2.083 0.607 1.614 -1.643 -0.868 -0.663 -1.434 -0.965 -0.302 1.170 -0.896 0.418 0.432 0.333 -1.071 -1.792 -0.339
-0.498 0.560 -1.895 -1.454 0.009 0.507 0.204 -0.868 -0.519 -0.543 1.928 -1.027 -0.977 0.853 0.408 -0.468 0.319 -0.751 -1.136 0.209 -1.149 -1.031 -0.695 -0.690 0.551 -1.211 0.288 0.790 -1.201 -1.563 -0.280 -0.373 1.063 0.698 0.447 2.269 -0.056 0.815 1.794 -0.230 0.104 -0.090 -0.658 -1.669 -0.947 0.531 1.050 -0.200 0.393 0.473 -1.474 0.296 -1.092 1.322 0.895 -0.529 1.769 -0.162 0.127 0.478 -0.731 -0.086 0.807 -0.813 -0.757 -0.761 1.704 -0.123 1.174 -0.151 -1.243 0.051 -0.003 -0.632 -0.678 0.163 -0.567 -0.999 -0.373 0.862 0.179 0.288 -0.584 -0.760 1.625 -0.242 -0.809 0.913 -1.228 -1.009 0.983 0.361 0.876 1.805 0.515 0.202 -2.282 0.240 -0.608 0.079
-1.510 -0.711 -1.227 -0.363 0.811 -0.666 -0.889 -0.357 -0.736 1.818 -1.449 0.788 0.538 1.586 -0.438 0.207 1.314 0.325 -0.846 0.809 0.780 -0.249 -0.178 -0.133 0.172 -0.109 0.954 -1.200 -0.631 -0.064 -0.856 0.803 1.451 1.644 0.235 1.541 -1.191 -0.814 0.575 -0.405 -0.165 1.381 0.579 -1.291 0.007 0.271 -0.803 1.278 0.076 -0.485 0.395 -0.030 -1.522 -0.212 0.857 0.938 2.063 0.470 -0.369 0.669 0.796 0.236 -0.301 2.209 -1.381 0.200 0.099 -0.544 -1.505 1.639 0.267 -0.677 -0.746 -1.268 -0.667 2.624 0.666 1.090 1.092 0.504 1.092 -1.088 -0.424 -1.220 0.055 -0.157 -0.568 0.035 -0.626 1.187 -2.381 -0.570 -1.972 1.562 -1.205 0.083 -0.128 -1.954 0.491 1.765
-0.351 -0.025 1.299 0.628 2.116 -0.716 2.368 -2.276 -0.065 -2.366 0.724 1.356 -0.996 -1.657 0.699 0.744 -0.774 -0.339 1.373 -2.021 0.711 0.981 -0.372 -0.866 -1.110 -0.045 1.048 1.119 1.176 0.618 -0.247 -0.439 -0.078 -0.962 0.235 -0.119 0.195 0.196 -0.888 -0.211 -0.700 0.170 1.977 0.421 -0.358 0.571 -0.411 0.258 -0.114 0.526 -0.261 0.613 1.465 0.616 1.377 0.357 0.651 -0.455 0.561 0.937 0.324 -1.418 -2.125 -1.666 0.278 -0.195 -0.094 0.328 1.332 -2.378 0.239 0.478 -0.002 -1.193 0.170 1.965 0.682 -0.472 -1.327 -0.030 2.389 -1.110 0.970 -1.115 0.449 1.522 0.875 -0.154 -0.506 -2.261 -0.294 0.781 0.263 0.198 1.978 -1.264 0.065 0.835 0.315 1.141
-0.855 1.048 -1.099 -0.225 -1.863 -0.346 -1.346 -0.592 0.525 1.779 -1.028 -1.076 -0.721 1.374 -0.615 -1.079 0.321 -0.246 2.031 1.203 1.014 -1.221 0.553 -0.157 -1.199 -0.187 0.872 0.357 1.276 0.262 0.758 0.216 -0.771 -1.436 0.940 0.179 1.235 0.312 -0.287 -0.759 -1.557 -1.242 -1.986 0.241 -0.189 0.910 -0.925 0.343 -2.550 -1.963 2.006 0.600 2.097 -1.388 0.667 -0.638 2.022 0.951 0.781 -0.684 -0.543 -0.862 0.323 -0.116 1.905 -0.454 0.244 0.919 0.805 -1.306 -0.903 -0.600 -1.033 1.629 2.032 0.360 0.903 -0.850 -1.446 -0.467 0.255 -0.328 1.008 -0.423 0.230 0.593 2.319 -0.014 -0.102 -1.320 0.408 -2.135 0.604 0.584 -0.127 -0.464 0.923 -1.221 -0.245 1.422
-0.276 -1.485 1.676 -0.486 0.625 0.557 2.128 1.252 1.899 -0.545 0.431 0.597 -0.575 0.059 -0.662 -0.874 -1.794 -0.195 -0.158 -0.426 0.932 -0.620 -1.197 -0.198 0.457 -0.812 -0.677 -0.016 -0.223 0.143 -1.858 -1.807 0.394 0.893 -0.044 -0.607 -0.657 2.165 -0.874 1.035 0.871 -0.631 0.057 -0.461 0.497 0.224 -0.968 -0.835 0.579 1.978 -0.200 0.539 -0.349 -0.517 0.112 -0.713 -0.029 -0.813 0.678 1.239 -1.354 -0.878 0.062 0.167 0.984 0.538 -0.062 0.774 -0.511 -0.237 0.394 -2.077 0.494 -0.525 0.037 -0.023 -2.097 0.729 -0.523 -1.417 -0.710 -0.503 0.083 -1.451 0.888 -0.879 -0.355 -1.035 -0.467 1.029 1.185 0.061 -0.460 -0.037 -0.329 0.177 -0.697 -0.093 2.217 -0.206
-0.964 -1.325 -1.288 -0.494 1.321 0.262 0.705 0.474 -0.314 1.311 -0.704 1.425 -1.024 0.233 -0.409 -0.992 0.434 -1.459 1.506 -1.664 2.726 -0.147 0.100 -0.877 0.375 -0.950 0.510 -0.259 2.213 -0.822 -0.094 -0.736 1.331 -0.763 -1.073 0.343 0.436 1.978 1.828 0.761 0.512 0.873 1.577 1.956 0.730 -0.614 0.312 -0.310 2.533 1.566 0.463 -0.305 1.725 0.607 0.621 -0.101 1.477 0.167 -1.439 -0.305 -1.048 -0.836 -1.159 1.233 -0.092 0.051 -1.326 -0.605 -0.566 0.724 -0.617 0.979 -1.042 0.120 -2.484 0.159 -0.172 0.267 -0.406 -0.989 -0.486 -0.482 -0.361 0.007 1.302 0.306 1.050 0.340 0.305 1.041 -0.050 0.085 -0.553 2.379 -0.436 -1.566 -0.224 -0.335 1.706 0.089
-0.121 0.850 -1.018 -1.560 -0.566 -0.738 0.074 -0.246 -0.796 -0.630 -0.029 -1.767 0.207 0.850 0.992 0.535 -0.669 0.195 -2.388 1.353 -0.884 0.177 -0.715 -0.164 1.385 0.853 0.050 -2.433 -0.130 -1.639 0.925 -0.664 0.775 0.633 -0.783 1.491 -0.364 -0.963 -0.463 0.959 1.892 2.384 -1.566 0.365 0.355 -0.152 -0.690 -0.869 0.968 -1.054 -0.544 0.324 0.030 1.326 1.232 0.537 -0.458 -0.599 -0.726 0.069 -0.230 -0.573 0.490 0.094 -0.432 -0.776 -0.177 -1.016 0.105 0.495 1.784 -0.458 1.569 0.534 -0.458 -1.098 -1.883 0.492 -1.596 0.823 0.447 1.228 0.669 -1.406 -1.681 -0.738 0.825 -1.412 0.465 -1.409 -0.217 0.802 0.259 -0.143 -0.607 0.749 -1.282 0.659 -0.448 1.167
0.216 -0.524 -0.979 1.273 0.782 0.183 -2.079 -0.758 -0.623 0.579 -1.378 -1.453 1.297 -2.087 0.805 -2.006 0.683 -0.426 -0.157 -0.479 0.333 0.547 0.290 0.599 0.146 -0.819 -0.764 0.821 -0.003 0.182 -1.714 0.806 2.117 -0.605 -2.014 0.842 -0.245 -1.548 -1.303 1.534 -0.563 0.508 0.218 -0.206 -1.275 0.963 -1.359 -0.160 -1.903 1.058 -0.111 -0.403 -0.418 0.702 -1.154 -1.065 0.646 1.361 -1.157 -0.129 -2.263 0.852 0.259 0.245 -0.949 0.812 1.263 1.126 0.148 -1.410 0.532 0.004 0.137 -0.353 1.216 0.449 -0.090 1.103 1.433 0.736 -0.870 -2.138 1.178 -1.674 -0.390 0.360 -0.070 -0.350 -0.295 -0.167 1.480 -0.737 -0.484 1.180 1.593 1.717 -1.811 2.114 -0.151 1.521
1.838 0.250 0.780 0.674 -1.018 0.340 1.015 1.346 -0.210 0.496 0.607 1.549 -0.202 -0.466 -0.536 -1.010 -1.349 -0.090 -1.216 -0.575 0.889 -0.496 0.859 -0.841 -1.191 -2.352 1.565 0.393 0.168 -1.209 -0.556 0.007 -0.173 0.178 0.364 0.781 -0.370 1.010 -0.513 -0.335 1.691 0.138 -0.901 -0.122 0.140 -0.794 0.710 0.300 -1.627 -0.212 -2.027 0.105 0.851 1.733 -0.627 0.531 0.302 -0.524 0.652 -0.881 0.076 -2.389 0.949 1.239 2.244 0.269 0.271 1.147 -0.758 -1.023 1.727 -0.048 -0.676 -0.380 -1.471 -2.700 1.421 0.462 -1.041 -1.659 -0.498 -1.543 -1.661 0.834 1.465 -0.223 -0.927 -0.220 -0.679 -0.509 -0.337 -1.545 0.406 0.810 -0.931 -2.704 -0.334 -0.653 -0.526 -0.945
0.338 -0.077 1.077 -1.726 -0.036 1.185 0.170 0.216 -0.966 -1.154 -1.348 -0.481 -1.693 -0.207 -0.920 1.301 -0.953 -0.485 1.395 2.098 1.356 0.067 -2.046 0.773 1.424 -0.243 0.597 1.323 0.748 0.083 -0.734 0.080 -0.723 -1.545 0.782 1.751 -0.682 0.195 0.990 -1.457 0.182 -1.077 0.515 -0.159 1.346 0.588 0.873 -0.745 -1.545 0.958 0.241 1.605 0.941 -0.945 -0.481 -0.891 -1.346 -0.419 2.211 0.081 -0.064 -0.445 0.217 -1.514 0.170 0.523 1.515 -3.246 -0.529 -0.633 0.307 1.393 -0.727 0.620 0.858 0.425 -0.683 -1.592 0.421 -1.377 3.099 0.245 -0.081 0.806 -1.287 -0.376 -0.833 0.370 0.844 1.420 1.434 -0.848 -0.813 0.923 -2.147 1.467 -1.481 -0.313 -0.303 0.830
0.790 -1.395 -0.919 0.822 -1.774 0.413 0.809 -0.192 0.435 1.229 -1.231 0.282 -1.736 0.415 0.156 0.224 0.489 -2.170 0.415 0.920 -1.613 -0.009 1.653 -0.849 0.890 -0.250 -0.107 2.138 -0.463 -1.060 -1.036 -0.006 -0.944 -0.346 -1.013 -0.118 2.151 -2.941 0.016 -0.403 -1.395 1.347 0.499 0.604 -0.289 -0.198 1.465 0.723 0.227 2.013 -0.907 -1.669 0.051 0.183 1.536 -0.187 -0.645 0.430 -0.767 0.328 1.629 -0.741 -0.716 -0.818 0.332 1.703 0.764 -1.016 0.339 -0.074 -0.489 -0.181 0.219 -0.768 -0.935 -0.625 1.654 1.180 -0.415 1.021 0.568 -1.251 -0.515 -1.979 -0.545 0.347 -0.988 0.562 1.159 -1.081 -0.322 1.148 1.357 0.619 -1.403 0.248 -2.588 1.310 0.029 -1.850
0.473 -2.249 0.592 1.346 1.844 0.004 -1.081 0.038 -2.035 -0.121 0.054 0.309 -0.762 0.290 1.506 2.277 -0.450 -1.209 1.426 -1.409 -0.519 0.740 1.277 1.017 0.109 -0.553 -0.061 -0.125 1.561 0.276 0.963 -0.617 2.092 0.387 -0.445 -1.193 -0.733 -1.103 1.735 -1.910 0.091 0.048 0.978 0.654 0.165 0.075 0.644 1.079 -0.108 -0.259 -0.212 0.983 1.295 -0.808 0.720 0.443 0.447 0.704 -0.389 0.187 1.642 0.129 -0.760 -1.232 -0.447 0.385 1.408 -0.170 0.537 0.204 1.408 1.085 0.613 -0.445 -0.351 1.262 -0.068 -0.783 0.531 0.410 -1.478 1.165 1.555 -0.271 1.054 1.400 -0.307 -1.834 -0.358 -1.084 1.379 -0.901 -0.489 -0.321 1.025 -0.531 0.307 -2.495 0.290 -1.691
0.279 2.465 -0.563 1.872 0.186 0.671 -1.292 1.214 -1.399 -0.412 0.678 -0.725 1.676 -1.364 -1.317 -0.101 1.014 1.416 -1.603 -0.343 0.379 -1.094 3.178 -0.648 1.215 -1.616 -0.034 -0.547 1.371 -0.984 1.478 2.901 -0.829 0.614 0.866 0.019 1.664 -0.302 -1.414 -0.241 0.578 0.592 0.656 -0.073 1.521 -1.544 -0.054 0.341 -1.472 0.661 -0.958 -1.314 0.177 -0.233 -1.908 1.116 0.690 0.700 -1.063 2.265 -0.160 0.981 0.017 -0.160 -1.710 -0.213 -0.004 -0.116 2.677 0.679 0.027 0.662 0.162 1.557 -0.178 0.012 -0.961 -0.488 0.021 -1.200 2.719 0.541 0.271 0.364 0.214 -0.077 -0.764 0.253 1.926 -1.177 0.083 2.732 0.742 0.284 0.206 0.118 0.730 -0.440 0.683 -0.330
0.893 2.100 0.461 -1.248 -1.425 -0.618 -0.022 0.402 -0.553 -2.028 0.366 -1.120 1.390 0.629 0.838 -0.270 1.171 0.888 -1.275 -1.653 1.142 1.006 -0.615 0.551 -0.402 0.408 -0.626 -0.905 1.196 -0.303 -1.588 1.468 -1.154 -1.788 0.120 -1.368 -0.119 -2.264 -0.197 1.462 -0.895 1.737 0.540 -0.009 0.579 0.234 0.978 0.055 -1.477 -1.071 -1.152 0.026 0.041 0.063 1.972 0.547 1.016 1.081 -0.188 0.927 0.142 -3.592 1.077 1.483 0.725 -0.995 -0.976 -0.155 -1.417 0.523 -0.572 -0.925 0.296 0.041 -1.907 0.572 1.737 -1.115 1.113 -0.996 0.384 1.168 -0.559 2.196 0.652 0.262 1.084 -1.524 1.284 -0.599 0.270 -0.921 0.513 -0.947 -0.997 -0.905 -0.284 0.976 -0.731 0.887
-0.002 -0.112 0.118 -0.411 0.932 0.401 0.166 1.420 -0.649 1.151 -0.344 -0.103 -0.553 -0.572 0.497 0.572 0.327 1.413 -0.306 1.273 -0.412 -2.389 -1.282 -1.074 0.824 -0.571 0.388 1.553 -0.804 -1.859 -1.655 0.739 -0.834 -0.578 0.353 -0.801 1.205 -1.054 -1.272 0.574 -0.573 -0.028 0.469 0.192 1.488 1.299 1.100 0.331 -0.074 1.591 -2.397 -1.269 -1.454 0.383 0.411 -0.528 -1.848 1.380 -0.470 0.329 -1.408 0.837 1.617 1.930 -0.313 -0.641 1.274 0.580 0.086 -0.141 0.300 -0.111 2.567 0.925 0.721 1.768 -0.149 0.446 -1.159 0.606 -0.708 -1.825 1.099 -0.290 0.304 -0.319 -0.431 1.058 -1.068 -0.902 -0.419 1.076 -0.513 1.300 0.677 1.533 1.701 0.730 -0.462 -1.054
1.508 -1.790 0.599 -0.664 -1.028 -1.591 0.205 -0.542 0.073 0.327 -0.326 -0.765 -1.032 -1.510 0.120 -0.646 0.788 -0.716 -1.300 -1.229 -0.076 -1.053 2.226 0.435 1.236 1.185 0.225 0.311 1.263 -1.409 -0.186 -0.061 -0.979 0.430 -0.847 0.833 0.390 -0.068 -2.289 -0.414 -1.062 -0.612 1.313 -0.586 1.440 0.627 -0.670 0.447 1.247 -1.841 0.648 -1.381 0.177 1.054 2.151 -0.004 -1.425 -0.092 1.627 -0.531 -1.191 2.323 -1.030 -0.618 0.909 -0.129 -1.013 0.207 -0.033 1.271 0.213 0.969 -0.835 0.091 1.186 0.496 0.042 -1.877 1.226 -0.137 0.069 1.707 -0.779 -2.724 -0.975 0.890 1.040 -0.704 0.797 0.146 -1.862 -0.403 -0.925 0.608 0.132 0.659 0.958 -0.464 0.468 0.833
0.876 -0.139 -0.625 -0.686 0.146 1.955 -0.256 1.792 -0.789 0.543 -1.778 0.178 -1.584 -1.006 -0.007 0.798 1.225 -0.085 1.530 -0.279 1.224 1.239 0.229 -0.128 1.111 -0.094 -2.535 0.217 -1.073 0.419 -0.113 0.920 1.516 -0.037 -1.873 -0.593 1.033 0.546 0.097 -0.108 -0.908 0.364 -0.145 0.152 1.135 0.488 0.598 -1.013 -0.295 0.128 0.746 1.006 -1.145 -0.336 -1.560 1.720 0.857 0.310 -2.059 1.182 -0.104 -1.866 -0.547 -0.485 -0.113 0.809 -0.223 -0.652 0.224 -0.246 -0.061 1.358 0.333 -0.174 -0.029 -1.542 -0.389 -1.802 1.073 -0.359 -1.622 0.349 0.535 -1.189 -0.280 -0.211 -1.582 0.678 0.841 0.339 0.434 -0.334 -0.893 1.493 0.496 -0.754 0.429 0.187 0.822 -0.157
-1.458 -2.008 0.248 -0.994 0.577 0.374 -1.662 -1.187 -0.011 1.040 -0.837 -0.664 -0.609 -0.511 1.261 -1.307 0.101 1.450 2.024 1.836 2.130 -3.552 0.672 0.605 -1.198 -0.422 1.014 0.653 0.616 0.239 -1.623 0.166 -0.530 0.825 0.539 0.194 -0.361 -0.219 0.272 0.686 -0.834 0.683 0.917 -0.135 1.181 0.598 -0.547 -0.669 1.790 0.850 -1.062 -1.743 1.141 0.420 0.062 0.401 0.864 0.541 -0.712 -0.700 0.997 -1.386 0.561 -0.075 -1.175 1.573 -0.965 -0.613 0.014 -1.392 2.141 -1.383 -0.693 0.398 0.362 -0.225 0.158 1.033 -0.536 -0.440 0.392 1.302 0.035 0.955 0.707 -1.104 -0.126 1.095 1.195 -0.075 -0.568 -0.199 1.273 -0.790 0.110 -1.528 -0.789 0.161 -1.059 0.222
-0.486 -1.626 -0.657 0.761 -0.299 -0.419 1.568 0.880 -0.648 0.438 -0.948 0.225 1.227 -0.268 -0.458 -2.177 0.169 -0.061 0.030 0.129 0.032 -0.271 0.105 1.098 0.554 -0.558 0.796 -0.963 1.648 0.181 1.067 1.024 -0.800 -0.262 -1.055 1.037 -1.393 -0.392 0.143 -1.454 0.844 0.081 0.219 -1.414 -0.052 0.824 -0.861 1.524 0.277 -0.112 -2.219 -0.499 1.261 -1.916 0.025 -0.370 -1.654 1.595 -0.249 -0.708 1.035 1.594 0.260 -0.040 -0.189 2.387 0.227 0.320 -0.719 0.647 -1.563 0.190 1.184 0.964 -0.838 0.122 0.550 -1.125 0.484 -1.136 1.629 -1.090 0.797 -0.725 -0.331 1.307 -0.733 -0.046 1.920 1.906 1.994 -0.001 -1.308 -1.298 0.038 -0.128 -1.280 -0.321 0.124 1.028
0.810 -1.175 -0.304 -0.761 -0.988 1.086 -1.684 -0.434 -0.857 1.131 0.571 -0.452 -0.195 -1.562 -0.162 0.466 -0.743 2.397 -0.531 1.000 1.509 -1.453 1.253 -0.812 -0.048 -0.530 -1.624 0.012 0.608 0.538 1.431 -1.179 1.148 1.093 0.429 -0.266 -0.245 1.126 -0.443 -0.064 -0.706 -0.612 1.067 -0.141 -0.753 0.090 2.107 0.555 -0.350 0.468 0.807 -0.640 0.013 0.488 -0.830 -0.203 0.784 -0.287 -0.439 -0.417 -1.590 -0.115 -1.902 1.813 1.127 -0.072 -1.201 2.734 -1.312 0.307 0.361 -0.125 1.434 -0.452 0.958 0.545 -0.336 0.358 -0.237 1.643 -0.729 -1.186 -0.516 -0.409 -1.097 -0.837 1.354 1.200 -0.199 0.156 0.992 -0.312 2.250 -1.336 0.382 0.375 0.463 -0.273 0.193 1.675
-0.076 -0.451 -0.672 2.542 1.309 0.044 -0.015 -1.351 -0.704 -0.818 0.448 0.508 1.649 1.065 -1.165 -0.936 0.941 1.160 -0.355 -0.411 -0.297 0.084 -0.523 -0.113 0.563 -0.870 -1.252 1.550 -0.405 -2.227 -0.105 -0.231 -1.148 0.808 0.182 -1.202 1.911 -0.297 1.043 -0.311 0.573 -0.845 -0.341 -0.301 1.310 0.647 -0.498 0.659 -1.721 -1.345 0.138 0.581 0.665 -0.299 0.025 -2.006 1.454 1.948 -0.194 0.867 0.302 1.197 -0.094 -0.928 0.403 -2.313 1.950 -1.578 -0.372 -0.643 -0.897 -0.434 0.314 -0.394 -0.957 1.833 0.605 0.593 1.580 0.185 -1.728 0.985 0.840 1.729 -0.751 -0.589 1.713 -1.045 -0.110 0.016 1.360 0.238 -2.044 -0.419 -3.021 2.159 1.525 0.447 -2.526 -0.240
0.686 1.294 0.063 -0.930 0.881 0.498 -0.243 0.511 -0.581 -1.354 0.257 -0.277 -0.218 1.824 0.404 -0.778 -0.772 1.367 -0.810 -0.747 -0.095 1.321 -0.200 0.460 1.625 0.288 0.172 1.123 0.069 2.702 -1.120 -0.511 -0.075 0.965 -1.242 -2.176 2.100 1.626 -2.019 0.035 -0.605 0.328 -0.585 -1.107 -0.151 0.670 -1.136 -0.245 0.414 -1.486 -2.144 1.515 -1.405 0.706 0.393 -0.350 -0.310 3.162 -0.099 1.545 -0.834 0.421 0.195 0.745 1.032 -2.099 -0.598 -2.205 1.505 -0.240 0.417 0.148 1.206 -1.526 -0.573 0.327 -0.693 -2.218 0.603 0.300 1.244 0.117 0.644 0.524 1.547 0.667 0.767 -0.800 -0.085 1.040 1.379 0.228 1.052 0.569 0.436 2.016 0.790 0.688 -0.495 0.915
-0.131 1.015 -0.012 -0.815 1.502 0.640 1.093 0.872 0.872 2.362 0.126 -1.766 0.565 -0.278 1.326 -0.581 -1.599 -1.114 1.520 -0.213 -0.373 0.228 1.372 -1.555 -1.798 -1.990 0.182 0.785 -0.628 1.123 -0.008 -1.499 1.225 0.168 -1.393 -0.303 -1.621 1.700 -0.200 -1.626 -0.373 1.126 -0.262 -0.498 0.913 1.233 -0.206 -1.463 0.782 -1.170 0.389 -0.839 -1.109 0.537 1.134 -0.186 0.663 0.543 0.573 0.168 -0.829 -0.366 0.214 -0.454 0.681 -0.135 -0.368 1.408 1.902 0.098 0.784 1.005 0.560 1.699 0.212 0.674 -0.150 1.195 -0.405 -0.333 -0.628 1.812 -1.270 1.027 0.366 0.674 2.273 -0.129 -0.778 0.133 -0.544 0.114 -0.976 0.796 -1.577 -1.517 0.111 0.397 0.916 0.529
0.577 -1.633 -0.607 0.077 -0.942 -1.355 -0.928 -0.396 0.456 0.548 0.012 0.879 0.895 -1.316 1.698 -0.881 0.068 -1.030 -0.084 0.317 -0.325 -0.446 0.805 0.648 0.347 0.613 0.400 -1.904 -0.003 0.435 1.323 -1.148 -0.825 0.114 0.220 -1.340 2.112 1.324 0.203 0.136 -0.083 -0.703 0.110 1.203 -1.342 0.106 1.824 1.121 -1.161 0.816 1.931 -1.329 -0.863 -0.621 -1.365 -1.339 -0.156 -0.305 -1.708 -0.782 1.600 -0.431 -0.074 -1.941 0.973 -1.063 1.633 1.012 -1.156 0.509 2.066 0.150 0.161 1.799 -0.844 -0.474 0.925 -0.105 -0.977 0.748 -0.021 -1.618 -1.455 0.850 0.305 -0.187 0.233 1.381 -0.102 -1.065 -1.768 0.335 -1.631 -0.972 0.196 2.181 -0.855 -0.625 0.174 1.176
-0.072 0.700 0.132 -2.366 0.745 0.839 0.044 0.076 0.155 0.736 0.842 0.074 0.334 -0.711 2.428 0.152 -0.258 1.051 -0.796 -0.050 -0.136 -1.707 0.783 -0.547 1.419 0.251 -1.498 0.104 0.380 1.246 -0.282 0.465 1.474 0.779 -0.756 0.363 -0.606 1.343 1.841 1.150 0.553 -1.197 -0.066 0.851 0.189 1.050 -1.024 0.356 0.350 -0.163 -0.166 0.004 1.819 0.595 0.496 0.068 1.101 -0.699 0.941 -0.656 -0.642 -0.139 -0.206 0.108 1.104 0.899 -0.856 0.302 1.913 -0.013 0.645 0.429 0.619 -0.845 0.166 1.097 -1.418 0.617 0.332 0.102 0.247 2.261 -1.035 0.555 0.779 0.327 -0.407 0.200 -0.069 -1.090 -0.431 -0.110 -0.173 0.406 1.328 0.630 1.004 -1.497 -0.858 -0.852
-0.631 1.383 -1.461 1.396 0.257 0.547 -1.030 -0.008 1.863 0.904 -0.255 -1.019 0.050 0.166 0.697 -0.069 -0.194 -0.348 -1.492 -0.376 -3.166 -0.506 -0.141 -1.793 -0.294 0.482 -0.257 -1.396 -0.723 0.286 -0.361 -0.595 -0.334 1.121 1.975 0.739 0.222 0.077 0.926 -1.546 -0.136 -0.168 -0.826 0.225 -1.856 0.193 -1.923 -0.392 0.149 0.563 -1.192 0.493 0.174 -2.263 -1.036 -1.086 0.509 1.394 -1.070 0.458 -0.006 0.180 0.190 0.528 -0.659 -0.663 0.464 -1.508 0.303 -0.680 0.340 -0.543 0.823 -0.002 -0.053 0.868 -1.195 -0.975 0.461 0.164 -0.083 0.097 0.638 -0.757 -2.063 0.242 0.370 1.960 1.641 0.912 1.541 0.230 3.577 -1.606 -0.899 1.723 0.452 -0.607 0.995 0.883
-0.375 1.964 -1.473 -1.012 -1.679 1.415 -1.627 -1.311 -1.498 -0.384 -1.369 0.759 1.048 -0.035 -0.191 -0.676 1.177 -0.890 -0.554 0.137 0.296 -0.170 -1.275 0.005 1.518 1.465 1.608 1.070 -0.314 -1.318 -0.409 -2.147 0.047 -0.144 1.028 -0.558 0.485 0.953 -0.921 -0.146 0.519 0.547 -0.622 0.149 -1.210 1.391 1.436 0.751 0.030 0.236 -0.357 0.678 -0.502 -0.634 1.319 0.593 -0.087 0.222 1.577 0.047 0.825 -0.841 -0.282 1.327 1.405 -0.190 0.085 2.887 0.840 -0.182 0.090 -0.027 1.878 -0.838 1.286 1.030 0.760 1.325 1.220 -0.494 1.312 0.179 0.421 0.988 -1.117 -0.052 -0.561 0.443 -0.733 -1.067 -0.018 -0.904 0.556 -0.457 0.665 -1.185 1.085 -0.294 -0.242 1.376
0.506 1.660 2.284 1.223 -0.885 -1.434 0.513 -1.213 0.404 -1.242 1.450 1.151 -0.274 1.122 0.544 -0.526 -0.389 -0.962 0.608 -0.519 1.175 0.597 -0.443 2.267 0.728 0.315 -0.833 -0.560 -0.261 0.686 -1.614 -1.302 1.539 0.168 -0.830 1.476 -0.213 0.225 0.728 -1.225 -1.231 -1.207 -0.337 -0.444 0.329 0.519 -0.789 -0.705 1.420 0.349 -0.082 -0.933 1.639 -1.934 0.496 0.117 0.161 1.742 -0.195 -0.512 0.876 -2.412 0.641 0.809 0.103 -1.563 -0.494 1.350 -0.894 1.907 1.372 -0.257 -0.610 -0.080 1.132 0.146 -0.397 -0.449 -0.597 -0.595 -0.954 1.695 -0.130 0.943 0.237 0.969 -0.228 -1.010 -1.052 -1.253 -0.772 0.478 0.346 0.078 0.297 0.372 -0.773 1.106 -0.863 -0.113
-0.748 1.143 -1.773 -0.750 -0.529 1.308 1.322 0.756 -1.107 -1.813 0.965 1.044 0.993 0.089 -0.801 -1.104 -0.850 -0.620 0.243 0.315 -0.063 -1.071 0.209 0.084 -0.284 -1.685 -1.408 -0.184 0.052 -1.038 -0.134 0.109 0.336 -0.080 0.962 0.352 -0.623 -0.911 0.821 0.610 -1.672 -1.333 0.565 1.253 1.601 0.172 -1.143 1.125 -0.636 0.002 0.357 0.682 0.355 0.781 -0.116 -0.781 -0.743 0.973 -0.174 2.503 0.291 -0.721 0.267 -1.548 0.589 1.338 -1.032 -1.716 -0.584 -1.930 0.337 0.115 0.239 0.431 -1.569 0.689 -0.696 -2.089 -0.571 1.151 0.979 1.792 -2.382 -0.640 -0.584 0.774 -0.229 1.132 -2.004 1.335 1.994 -1.125 -0.579 -0.430 0.848 1.151 0.312 -1.886 0.056 -1.073
2.026 2.478 -1.466 -0.033 -0.092 0.370 0.178 -1.072 -0.193 -0.151 -1.158 0.776 0.707 -0.558 -2.289 0.380 1.266 -0.239 -0.076 -0.455 -1.136 0.149 0.788 0.963 -1.149 -1.514 -1.253 -0.327 -0.411 0.259 -0.299 -1.463 1.790 0.496 -0.409 1.371 -0.677 1.289 -0.064 -0.736 1.401 -1.453 0.469 -1.549 1.029 0.388 0.137 -1.169 -0.746 -0.157 1.568 0.108 -0.180 0.152 0.380 -0.256 -1.027 -0.171 -1.469 -0.279 -0.119 -0.222 1.193 0.896 0.623 -0.984 -2.225 1.533 0.383 -1.379 -0.154 0.941 0.972 -0.157 0.023 -0.753 -0.847 0.253 1.609 1.359 1.387 0.959 0.695 0.130 0.507 0.656 -2.017 -0.581 -2.845 -2.237 -0.634 -0.673 -1.244 1.732 0.552 0.165 -0.128 -0.497 -1.018 -2.068
-2.432 -0.821 0.023 -0.364 0.073 -0.516 -0.594 -0.411 -1.797 0.449 1.040 -0.001 -0.291 0.077 0.215 3.620 0.079 -0.143 -1.416 1.729 -0.172 1.195 0.727 1.033 0.297 -1.856 0.750 -0.249 -1.723 -0.686 -0.441 -0.586 -2.896 1.442 0.376 -0.593 -0.541 1.354 1.052 -0.193 0.859 0.363 -1.310 -1.038 0.416 1.023 -0.263 -0.515 -1.090 0.599 0.761 -1.900 -0.444 -0.407 -0.745 -0.036 -1.113 -0.611 -0.597 1.032 -0.846 0.333 0.890 -1.706 0.432 -0.596 0.176 -1.211 0.596 -0.069 0.302 0.222 -0.092 0.218 1.263 0.210 0.222 -0.836 1.050 -0.925 -0.344 -0.894 0.605 -1.353 1.812 0.212 0.610 -0.011 -1.658 0.292 0.117 -0.204 -0.623 1.327 0.142 -0.683 -0.068 0.404 1.664 -1.142
0.814 -0.154 1.392 0.410 -0.394 -0.392 1.256 -0.639 -0.639 -0.552 2.128 -0.195 -0.235 0.141 -1.224 0.212 1.706 0.145 0.356 0.949 0.288 0.860 -1.076 -1.409 0.891 -1.464 0.628 -1.612 0.190 1.692 0.276 -0.108 -1.693 0.125 -0.664 0.892 -0.143 0.442 1.615 1.341 0.679 -0.220 0.995 1.826 0.200 -0.933 1.941 -1.458 -0.653 2.007 0.361 0.658 -0.170 -0.419 0.881 0.511 -1.035 -0.845 1.102 0.328 0.789 0.122 -0.235 -0.268 0.499 -0.808 -1.759 0.171 -0.484 -0.024 0.488 0.071 -1.023 -0.804 -0.345 -1.867 0.942 -0.219 -0.974 -0.645 -0.268 0.045 -0.194 0.366 -0.111 1.320 0.160 -0.293 -0.396 1.909 1.642 0.002 -0.110 0.557 -1.913 2.054 0.096 0.061 -0.563 -0.092
-1.351 0.789 -0.485 0.137 3.157 0.775 -1.272 -0.146 0.146 0.693 0.730 0.464 -1.290 1.131 1.032 0.149 0.447 1.903 -0.441 0.490 -0.996 1.096 0.643 -0.087 0.346 0.378 -0.389 -0.908 -0.062 1.716 0.810 -0.124 -0.772 -0.088 -1.867 1.818 1.416 -0.261 0.431 -0.295 0.294 2.503 -0.019 0.963 -0.434 -0.164 -0.446 -0.028 0.001 -0.734 0.213 -0.965 0.395 -0.660 -1.246 0.947 0.246 -0.309 -0.203 -0.022 0.892 0.163 0.094 -0.453 -1.428 0.759 -2.558 1.541 -0.880 0.899 0.069 0.050 -1.263 -0.121 0.216 0.457 0.533 -1.429 0.573 -0.088 1.615 -0.613 -0.482 -0.062 0.363 0.787 0.506 1.457 2.000 0.545 1.065 -0.218 0.182 0.816 0.163 2.393 0.095 0.547 0.263 0.727
0.935 -0.826 0.375 -0.422 -1.091 1.711 -1.118 1.085 -2.459 0.149 -0.141 0.377 -0.447 0.728 0.112 -2.343 0.871 -1.731 1.082 -0.989 -0.448 -0.545 0.425 -0.134 0.002 1.793 1.727 -0.157 -0.885 -1.426 0.443 0.143 1.193 -0.272 2.659 -1.237 -0.469 -0.521 0.831 0.952 1.072 -0.411 1.510 0.315 0.334 0.232 0.439 0.431 -0.747 -0.668 -0.306 1.256 -1.279 0.354 0.531 2.755 -0.423 -0.662 -0.331 -0.717 -1.244 0.645 2.069 -0.652 -0.612 -0.842 -0.812 1.015 -0.019 -1.682 1.022 -1.204 0.928 -1.383 -1.560 -1.848 0.015 1.883 -0.340 2.146 -0.615 0.118 -0.150 0.437 0.756 -0.356 -0.414 -0.985 0.549 -0.606 -0.539 0.537 -0.422 0.057 3.113 0.790 0.224 -0.206 0.694 0.315
-1.169 1.461 -0.516 -0.032 -2.744 0.539 -1.248 -0.235 0.340 -0.285 -0.103 0.223 -1.227 -0.606 -1.716 -0.346 -1.055 -1.883 -1.628 -0.716 -1.481 0.889 -0.271 -0.427 0.466 1.649 -1.226 -1.648 1.892 -0.778 -2.140 1.665 -2.402 -0.122 1.761 -0.033 -0.572 0.205 1.135 -0.196 1.327 0.466 -1.514 -0.409 1.327 -0.649 0.807 -1.266 -1.331 -0.539 0.558 -0.060 -0.727 1.356 0.323 3.108 1.273 -0.339 -0.323 0.173 -1.298 0.162 -0.045 1.015 -0.481 -0.176 -1.554 1.714 0.857 -0.159 -0.378 0.797 -0.281 0.541 0.242 0.019 1.199 -1.186 0.560 -1.107 -0.426 0.221 -1.889 -0.021 -0.473 -0.011 1.099 1.313 -1.094 0.204 0.768 1.002 0.157 0.733 1.432 1.015 -0.929 1.403 0.751 0.945
-1.261 0.429 -0.073 0.138 -0.649 0.007 0.082 0.180 -0.217 -0.392 -0.147 0.846 -0.049 -1.444 0.129 -1.046 0.237 -1.070 0.949 0.053 -0.812 1.104 -1.738 -0.079 1.457 -0.963 0.299 -0.002 1.324 -0.007 1.742 0.556 0.420 1.331 1.423 -0.033 0.043 -1.382 0.857 0.379 -0.644 -0.228 0.935 -0.095 0.484 0.467 -1.000 -0.587 -0.775 -1.769 -0.106 -0.299 -1.014 0.326 -1.995 0.523 0.090 -0.292 0.410 0.160 0.624 -0.093 -0.360 0.423 1.323 0.876 -1.302 0.481 1.376 -1.011 0.814 2.430 -0.277 1.726 0.384 0.993 1.397 0.469 1.271 -1.527 0.308 0.610 -0.877 -1.032 1.448 -0.207 2.058 -2.255 -0.038 1.420 -0.153 1.115 0.133 -0.055 2.447 -0.128 0.587 -0.092 -0.530 0.407
-0.058 -1.206 1.210 0.320 -1.948 -0.679 -0.248 0.821 -0.038 0.059 0.789 0.071 0.954 -1.677 1.330 -0.540 0.598 2.452 -0.027 0.364 -0.012 -1.256 1.113 -0.828 -0.166 1.699 -1.041 -0.885 1.008 -0.963 0.201 -1.894 0.014 -0.191 -0.150 0.633 0.653 0.118 -0.682 0.556 -0.750 -0.818 0.222 0.315 0.010 0.195 0.717 -0.379 -1.218 -1.129 1.169 0.331 -0.748 0.553 0.241 -2.022 -0.061 0.173 0.548 1.524 -0.694 0.475 -0.203 0.605 1.192 -0.522 -1.191 0.032 0.407 0.315 0.046 0.686 -0.843 0.723 0.267 0.158 0.139 1.126 1.388 -0.523 -0.525 0.821 -1.041 -0.817 -2.183 -1.632 0.397 -0.432 -0.287 -0.938 -2.002 -0.085 -0.043 -0.293 -0.739 -0.668 1.589 -0.575 -1.037 0.260
-1.051 1.486 -0.043 -0.753 -0.446 1.380 -0.146 1.214 -1.165 0.324 -1.632 -0.656 0.780 -0.776 -1.291 -0.384 -0.903 -0.745 1.054 1.005 0.629 -0.681 0.401 -0.629 0.392 -0.461 0.762 0.752 0.974 0.837 -1.364 -0.401 -1.016 -0.480 0.612 -0.387 0.672 0.034 0.905 0.961 1.612 0.066 0.204 -0.444 -0.973 -3.045 0.355 0.290 0.690 -0.673 -0.883 1.677 0.144 -0.380 0.653 0.940 -0.544 -0.390 0.637 -0.201 1.085 -1.809 2.392 -0.188 0.126 0.774 2.050 0.454 0.367 -0.511 -1.473 0.811 -0.293 -1.345 -0.288 -0.919 -0.082 1.402 0.147 0.575 -1.285 0.812 0.291 -0.268 0.110 0.669 0.595 -0.869 0.996 0.533 -0.148 -0.718 0.746 -1.361 1.184 1.534 -0.954 0.527 -0.159 1.985
-0.384 0.087 -1.475 -1.535 0.163 1.315 -0.203 1.207 0.664 -0.095 0.541 -0.037 -0.123 -1.422 -1.010 0.579 -0.850 0.116 1.052 0.275 -0.755 -0.584 0.582 -0.852 -0.880 0.400 0.693 1.495 0.244 0.846 -0.270 -0.980 0.732 1.801 0.969 -1.735 -1.469 -0.111 0.217 0.226 -0.161 0.911 0.927 0.472 -1.677 -0.189 -0.923 -0.048 0.692 -0.385 -0.407 -0.876 0.790 0.700 0.058 -1.046 -0.386 -0.878 1.936 -1.319 0.784 0.499 0.211 -0.060 0.909 1.825 0.207 0.379 -0.108 0.161 -0.962 -0.477 -1.054 -0.087 0.557 -0.295 -0.690 -0.956 -0.467 0.455 -0.819 -1.054 0.163 0.830 0.482 -0.384 -1.077 0.605 -0.520 0.273 0.902 -1.877 -0.834 0.322 -1.165 0.205 -0.223 -0.581 0.122 0.580
0.033 0.679 1.368 0.795 0.593 -0.077 1.998 -2.142 0.650 -1.934 -0.346 0.625 -0.420 -0.991 0.466 -1.073 0.179 0.224 0.847 -0.616 -0.963 0.201 1.562 -0.279 0.782 -1.699 1.398 0.592 1.209 2.527 0.300 -0.180 -0.341 -0.769 0.501 0.404 1.157 0.677 -1.270 -0.267 -0.591 -1.236 -0.683 -1.050 0.184 1.245 0.001 0.582 -0.369 2.018 -0.324 0.655 -0.069 0.173 -0.220 0.173 -0.647 1.426 3.409 -1.894 -1.365 -1.049 2.083 -1.055 0.873 0.549 0.667 -0.956 -0.690 -0.842 0.719 1.719 -0.168 -0.568 -1.707 0.128 -1.140 0.603 -0.448 1.825 -0.920 -0.312 -0.015 -1.063 1.044 -1.409 -0.451 0.444 -1.520 0.729 0.265 0.675 -1.271 -0.258 -0.562 -0.842 0.761 0.392 1.480 0.696
-2.762 0.813 0.290 0.240 0.247 -0.888 -0.350 0.342 0.637 -0.697 2.259 -0.423 -0.385 1.023 -1.808 2.554 0.949 0.515 -0.840 0.103 -1.689 -1.682 -0.168 -1.121 -0.390 -1.672 -0.294 -0.218 -1.296 -1.271 -0.601 -0.073 -0.986 -0.467 0.911 -0.029 1.624 1.318 -0.890 0.571 0.109 0.024 -1.433 -1.012 0.611 0.972 -1.346 0.501 2.981 -0.798 -0.702 0.465 1.947 -1.300 0.037 1.444 0.033 -0.114 -0.291 2.205 -1.189 -1.150 1.674 -0.121 0.659 -0.446 -1.109 1.386 0.537 0.280 0.646 0.821 1.012 -1.795 0.837 0.203 1.457 1.625 -0.811 -0.717 -0.668 0.102 0.784 -1.809 -1.295 1.020 0.837 -1.401 0.539 0.298 0.530 -1.631 0.769 0.161 1.000 1.242 -0.671 1.251 0.273 -0.098
0.046 1.225 -0.998 -0.742 -2.186 -0.270 -0.410 -0.873 0.042 -0.808 -1.001 1.032 0.739 0.177 0.178 -1.185 0.931 -0.524 -0.781 -0.796 -0.150 0.914 -0.518 -1.594 -0.694 -1.752 1.230 -1.178 -1.165 0.080 -0.604 -0.135 -2.219 0.021 -1.439 0.460 1.446 0.457 -1.415 0.730 1.069 -0.010 -0.381 0.816 -0.541 2.058 0.783 -0.272 1.511 0.120 1.803 0.554 1.272 1.685 -0.518 0.729 -0.807 -1.818 -0.037 0.581 0.747 -1.600 -0.632 0.941 -0.063 -1.157 0.281 0.153 -0.387 -0.159 0.103 -0.050 0.734 -0.138 0.681 1.090 -1.565 0.611 -0.796 -1.778 0.905 -0.312 -1.744 -1.548 0.228 -0.036 -0.161 0.021 1.143 -0.765 0.772 -0.279 0.479 -1.553 0.051 -0.344 0.879 -0.396 1.073 -0.801
-1.012 -0.288 -1.058 0.521 0.114 0.387 -0.936 1.857 -1.173 0.603 0.159 0.117 0.028 -0.760 -1.410 -0.697 1.180 -0.662 0.113 0.011 -1.280 0.419 -0.610 -0.295 -1.268 0.975 1.864 -0.172 0.087 0.691 -1.254 -1.827 0.583 -0.088 -1.967 2.557 -0.358 0.771 1.639 0.741 -0.451 -0.136 -0.428 0.458 -1.195 -1.063 -0.694 -0.000 -0.549 0.479 0.060 -0.097 -0.676 -1.201 0.166 -1.406 -0.420 -0.237 -0.998 0.980 1.419 0.356 -0.192 -0.046 -0.776 0.091 -1.451 -0.083 -0.208 0.174 0.435 -1.059 0.430 1.123 0.880 -0.738 -0.274 -0.123 -1.402 1.252 0.627 -0.489 -0.438 -0.973 -0.209 -0.681 -0.827 -1.878 0.035 -0.716 -4.487 2.348 -1.768 0.015 0.525 -0.117 2.603 -0.979 -0.262 -0.234
-2.316 -1.314 -1.286 1.079 1.135 0.551 0.293 -0.322 -1.430 -0.269 -0.351 -2.150 0.575 -0.890 0.895 -0.647 -0.190 0.620 -0.941 0.977 0.625 -0.877 0.440 1.192 0.581 -0.482 0.005 -0.380 0.901 -0.581 -1.151 2.110 0.783 -0.807 -0.579 0.478 -1.109 -1.761 0.406 0.775 0.273 -1.197 0.990 1.037 -0.967 -1.680 0.392 0.657 -2.317 -2.524 -0.975 -0.943 -0.614 0.447 -0.124 0.905 -0.263 -0.289 0.864 -0.317 -1.847 0.188 0.552 0.435 -1.405 0.708 1.060 -1.319 -0.312 0.469 0.070 0.580 -1.044 -1.307 0.587 -0.162 -1.554 0.158 -0.060 0.739 1.483 0.040 -0.835 -2.454 1.629 -1.764 -1.414 -1.395 -0.679 -0.709 -1.225 1.013 -0.646 -0.017 -1.532 -0.625 -0.802 0.788 -2.624 1.044
0.905 0.044 0.167 -0.483 0.160 -0.792 -0.836 0.853 -0.139 1.236 -1.115 -0.103 -0.692 0.555 -2.056 0.559 -0.062 -0.151 -0.939 -0.076 -2.301 0.346 -1.559 0.974 -1.885 1.087 -0.929 -1.103 -0.970 -0.108 1.105 -0.034 0.874 -0.273 1.062 0.579 -0.022 -0.263 1.311 -0.950 -1.611 -0.088 0.756 0.198 0.157 0.594 -0.423 0.228 -1.328 -0.466 2.033 2.045 -0.601 -0.123 -0.125 2.029 0.370 -1.912 0.271 -0.705 0.145 1.222 0.367 -1.145 -0.962 -2.772 0.595 0.817 -1.712 0.001 0.825 0.758 0.993 0.705 2.945 -1.870 -0.396 4.011 -0.085 -0.567 -1.992 -0.567 -0.906 -1.007 -2.149 -0.884 0.574 -0.853 1.385 -0.668 -1.542 0.014 -0.178 0.428 -0.551 -1.022 -0.391 -0.654 -0.983 0.504
0.621 1.794 -0.847 -0.393 -0.170 1.090 2.278 1.121 -0.725 0.598 -0.458 -3.974 0.174 0.404 -0.749 -1.283 -0.299 0.012 -0.330 0.085 -1.050 -0.287 1.405 -0.572 1.202 -0.890 0.793 -1.118 0.125 -0.794 -1.171 2.183 0.395 0.041 0.010 1.517 -0.073 0.783 0.834 0.927 -1.709 1.537 -0.539 -0.461 0.307 0.983 -1.210 1.371 -0.072 -0.215 -0.748 -0.389 1.142 1.168 -0.356 0.242 2.476 0.844 0.926 -0.279 -1.100 0.013 -1.264 0.096 1.802 -2.352 0.805 1.628 -0.564 -1.681 -0.428 0.271 -3.180 0.731 0.929 0.042 0.330 -1.517 0.234 -0.884 1.402 1.560 -1.158 -0.241 -0.614 0.469 0.461 -0.998 2.307 1.091 -1.468 -1.051 -0.119 -0.848 -0.036 0.454 -0.797 -1.486 -0.045 -0.033
1.483 -0.104 -0.551 2.539 0.692 -0.985 -2.704 -0.797 -0.094 0.984 -1.342 0.388 -0.019 -0.568 0.217 -0.083 -0.012 -1.335 0.770 0.481 -0.063 1.379 -1.152 1.389 -2.030 -1.285 1.013 0.418 -0.869 -0.298 0.163 0.591 -0.992 1.374 -1.662 -1.773 0.284 2.320 -1.013 -0.783 0.452 -0.312 -0.273 0.099 0.405 0.697 0.065 0.143 0.185 0.571 0.193 0.293 0.824 -0.623 -0.291 0.096 0.124 0.285 -1.172 -1.000 -0.939 1.315 -2.630 -0.135 -1.228 -1.555 0.812 -0.234 0.744 -0.082 -0.754 -0.077 -2.252 -1.007 -0.166 -0.772 -0.600 0.791 0.669 -1.934 -1.803 -1.778 0.182 -1.112 -0.124 0.044 0.184 -0.200 -0.336 2.084 -2.160 -1.272 0.062 -0.376 1.298 0.246 -0.300 0.920 0.160 0.796
0.324 0.890 -0.004 -1.174 1.673 2.366 0.241 1.047 0.670 -1.693 -0.047 1.518 1.571 1.370 0.483 0.379 0.676 0.928 -0.703 0.185 -0.673 0.981 -1.316 0.845 -0.205 -1.256 -0.397 0.275 0.771 -1.113 -0.781 1.540 -2.829 -1.194 0.240 0.514 0.406 -1.289 -0.490 -0.849 -0.229 1.045 -0.332 -0.959 0.614 0.742 -0.927 0.976 -1.086 -0.067 0.386 -0.140 0.719 -0.364 -0.462 -0.212 0.490 -0.428 -0.477 0.065 -0.452 -0.151 0.914 -2.991 -1.343 -1.076 0.670 -0.575 -0.028 0.832 0.846 1.221 -0.806 -0.079 0.833 0.172 0.350 0.396 -2.600 0.692 -1.389 0.437 2.307 -0.444 -0.910 -0.669 2.450 0.188 -1.322 0.465 0.944 -1.968 -0.233 -0.201 -2.030 -2.088 -0.002 0.055 0.721 -0.579
0.541 0.922 0.640 0.708 1.431 -1.119 -1.409 0.996 0.487 -1.069 -0.563 -0.990 0.493 0.125 0.409 -0.494 2.440 -0.485 0.532 1.194 -0.457 -0.241 -0.369 1.688 0.638 -1.410 -1.287 0.627 -2.504 0.377 0.951 0.464 -0.353 0.370 0.076 0.846 -0.857 -1.300 -1.975 -0.364 -1.872 -0.387 1.078 0.362 0.358 -1.722 -0.135 1.065 -1.258 -1.530 0.757 -1.657 0.816 -0.241 -0.876 -0.906 -0.355 0.180 -1.178 -0.330 0.727 -1.375 -0.956 1.342 -0.525 -0.243 -1.251 0.342 0.212 -0.758 1.979 0.539 0.671 0.675 3.183 -1.302 0.033 -2.777 -0.154 1.195 -0.814 1.773 -0.091 1.120 0.365 0.665 1.513 -0.300 -1.728 1.831 1.126 0.413 0.050 0.457 -0.806 0.251 -1.327 -0.025 -2.217 1.074
0.675 -0.081 0.718 -1.063 -0.532 0.886 -0.489 0.058 0.983 -0.794 -0.377 0.741 0.673 0.460 -0.472 -1.059 0.201 0.368 0.476 -0.035 -1.045 -0.166 0.478 -0.993 -0.138 -0.441 -0.628 -0.440 0.058 2.094 -0.573 -0.326 0.114 0.664 1.544 -1.578 0.367 -0.913 0.587 0.842 0.394 0.824 1.900 0.202 1.342 -1.652 0.163 -0.121 0.565 1.313 -1.862 -1.514 0.355 1.312 -1.903 2.329 -0.415 -0.494 -0.527 2.752 0.316 0.436 -0.699 -0.750 -1.496 -0.524 -0.344 0.131 0.089 -0.672 0.838 -1.481 2.592 1.172 -0.220 -0.917 -0.592 -1.890 0.017 -0.507 2.198 -0.754 -1.459 1.561 -1.345 -0.886 1.720 0.035 -0.171 0.918 -0.579 -0.505 -2.921 -0.235 -0.388 -0.509 -0.702 -0.413 1.237 -0.770
1.219 -0.108 0.541 -0.359 0.626 -0.429 -0.137 -0.943 0.765 0.951 -0.240 -0.188 -0.842 0.723 0.093 0.812 0.643 -0.171 -0.902 -0.938 1.676 -1.136 1.078 -1.216 0.911 -0.737 1.101 1.778 1.047 -1.036 1.553 2.167 -0.034 0.285 -0.056 -2.493 -0.826 -0.232 -2.118 0.689 -1.287 1.025 -0.542 0.062 0.203 -0.276 0.809 0.481 -1.202 -0.035 -1.401 0.269 0.726 0.357 -0.176 -0.127 -3.568 0.537 0.035 0.403 0.839 -0.089 1.396 -2.689 -0.598 -0.000 0.510 -1.773 -0.640 -1.718 -1.075 -1.072 -1.244 0.805 -0.713 -0.570 0.397 -0.153 -0.621 1.051 1.669 0.859 -0.721 -1.186 0.009 -1.624 -0.139 -0.776 0.872 -0.188 -0.248 1.174 2.770 -0.937 0.567 -1.135 0.930 -0.889 0.005 0.699
-0.491 0.595 -0.398 0.005 -1.659 -0.820 -0.818 -0.151 -0.792 0.896 -0.602 0.677 -0.539 1.358 0.194 0.738 0.473 0.653 -0.066 1.502 0.108 1.623 -2.385 0.195 -2.158 -0.089 -2.461 0.712 -0.184 0.696 -0.952 -0.452 0.311 -0.640 -1.148 0.073 0.876 -0.708 0.717 -0.427 -0.671 -0.181 2.707 0.407 0.912 0.856 1.391 0.683 -1.965 -0.314 0.608 0.248 -0.777 -0.963 0.988 0.377 -1.423 1.947 -0.627 0.342 -0.213 0.883 0.282 -1.640 0.169 -0.439 0.928 0.634 0.128 1.288 1.432 0.881 1.218 1.861 -0.621 0.682 1.133 0.470 -0.409 0.718 -0.636 0.377 0.836 -0.090 1.383 1.601 -0.207 -1.978 -0.617 0.070 0.268 -1.539 -0.312 -0.038 1.197 -0.341 -1.466 0.642 0.422 0.921
0.018 2.105 1.725 -0.763 -0.823 0.291 0.348 -1.555 1.005 0.501 -0.917 0.562 1.642 0.182 1.496 0.170 0.125 1.180 -2.331 1.155 -0.111 -1.172 -1.001 0.754 -0.130 -0.969 -1.347 -0.573 -1.493 -1.172 0.591 0.810 0.921 0.470 -1.552 -0.281 0.590 -0.706 0.975 0.537 0.002 -0.591 0.298 0.336 0.419 -0.025 0.140 1.280 -0.744 -0.305 -0.251 -1.631 0.880 0.330 1.573 1.370 -0.628 1.372 -0.176 0.673 -0.627 -0.088 1.136 -1.494 2.486 0.284 0.912 0.821 -0.980 -2.798 -0.825 -0.466 1.325 -0.496 0.768 -0.681 -0.968 0.395 0.583 -0.474 0.116 -0.573 0.915 1.236 1.432 -1.184 0.166 0.301 -1.322 0.115 -0.707 -0.717 0.267 -1.219 0.450 -0.641 -0.651 -0.208 -0.138 -2.395
0.162 -0.469 -0.090 0.147 -0.672 -0.359 1.723 0.857 0.954 -1.277 -1.350 -1.287 0.189 0.725 -1.819 0.116 -0.579 0.502 -0.834 0.196 0.509 0.324 -1.442 -0.150 -0.365 -0.002 1.337 0.198 -0.542 0.207 0.214 1.262 -0.291 0.646 0.083 0.070 -1.582 -0.134 -1.980 -0.439 0.185 1.103 0.062 0.064 0.388 0.417 2.071 -1.348 -0.163 -1.755 0.426 0.036 1.163 0.872 0.403 -0.136 -0.764 0.421 0.074 -0.980 1.209 0.401 0.487 -0.900 1.601 2.437 -1.145 -0.233 -0.455 0.084 0.743 0.733 0.021 0.851 2.655 -0.012 0.602 0.711 2.046 1.416 0.666 -1.829 0.010 -1.427 -0.719 1.649 -0.654 1.504 -0.424 -0.738 0.784 -2.231 -0.498 -0.480 -0.106 1.108 0.329 0.994 0.653 -0.361
-0.237 0.503 0.430 -0.763 -0.951 -0.764 -1.516 1.400 0.803 -1.643 -1.558 0.028 -0.297 -0.951 -0.031 0.524 -1.851 1.741 0.595 -1.046 0.240 0.616 -0.741 0.481 -0.525 -2.883 -0.912 -0.944 -0.726 0.113 -1.586 -0.716 -0.187 1.900 -0.513 -1.191 -0.338 -1.054 1.450 1.210 1.050 -0.699 1.815 0.836 -0.970 -1.323 0.885 -0.583 -1.343 -0.060 1.444 -0.311 -0.160 -0.531 1.104 0.063 -0.675 -1.642 0.205 0.605 -0.638 -0.687 -1.195 -1.191 -1.689 0.811 0.799 -0.717 -1.432 -1.061 -0.279 -0.092 0.274 -0.464 -1.961 0.729 -1.969 0.570 -0.444 1.010 -0.457 -0.765 1.825 0.291 0.868 -1.755 1.552 -0.165 -1.189 1.849 -0.165 -0.007 -0.683 0.853 0.636 0.290 -0.111 0.425 -1.760 -0.852
-1.098 0.784 0.400 -2.676 1.218 0.167 -1.583 -1.845 0.194 -0.152 -0.423 -0.840 1.596 0.682 -1.014 -0.676 -1.235 0.157 1.554 1.053 -0.112 -0.008 0.172 -0.040 -0.443 2.406 -1.144 -0.458 0.022 0.348 -1.179 0.649 1.833 -0.226 -1.058 0.265 0.792 0.370 0.717 -1.558 1.694 0.839 0.080 0.299 -1.737 0.419 0.545 -2.122 0.202 0.294 0.089 0.084 -1.343 -0.194 0.738 0.661 -0.021 -0.256 -0.476 -1.478 -0.618 -0.326 1.447 -0.289 1.109 -1.446 2.121 0.122 -0.834 -1.016 0.541 -0.742 -1.195 1.417 -0.101 -0.692 1.158 1.923 0.709 0.292 1.477 -0.254 -0.295 0.094 -1.164 0.810 0.687 -1.155 -0.320 -0.032 0.957 0.914 0.547 0.015 1.942 0.643 0.247 -0.422 -0.052 -0.302
0.676 0.700 -3.444 0.461 -0.365 -0.948 -0.920 -0.523 -0.503 -1.710 1.448 -1.189 0.633 0.509 0.185 1.359 -0.274 -1.633 0.610 -0.329 -0.201 -2.209 0.451 1.294 -0.677 -0.743 -0.350 0.486 0.796 -1.136 -1.646 0.648 2.114 -0.439 -1.447 -1.773 -0.324 0.684 1.586 -0.104 -0.013 -0.136 1.008 1.261 1.850 -0.699 0.380 0.436 -0.481 0.721 -1.278 -0.269 0.579 0.646 -0.496 -0.164 -0.671 1.101 -0.709 -0.096 -0.048 -1.081 -2.240 -0.610 -1.721 -1.764 1.190 0.050 -0.185 0.680 -1.233 0.316 -2.224 -0.838 1.949 -0.722 -1.052 -0.661 -0.093 -0.304 -0.915 3.230 -0.958 0.176 0.587 1.162 -1.349 2.015 1.257 0.188 0.717 -1.237 1.313 -0.299 -0.194 0.074 0.330 0.285 -0.975 -1.238
1.043 -0.687 -0.597 0.667 -0.593 -0.609 -0.153 -0.760 0.103 -1.284 -0.718 0.034 1.206 -1.573 1.197 0.895 -0.516 -3.251 0.608 -0.670 -0.045 -0.100 0.479 -0.656 -0.120 1.153 -0.205 0.416 -0.653 -0.209 -0.657 0.244 -2.393 -1.236 -0.890 -0.212 2.377 0.437 0.526 -1.380 -0.973 -0.820 0.304 0.700 0.649 -0.213 -1.439 1.484 0.643 1.071 1.277 -1.152 1.133 -0.737 0.767 -1.392 -0.275 -0.076 0.346 1.957 -1.792 -0.363 0.872 -0.578 -0.278 -0.168 1.685 0.063 -0.026 -0.056 -2.006 -0.215 1.446 -0.137 0.806 0.539 0.191 0.325 0.734 0.038 1.558 0.576 2.748 0.168 0.603 -0.824 1.398 -0.826 -0.199 1.804 -2.284 1.582 -2.553 1.887 1.678 1.239 0.056 0.040 -0.344 -1.789
1.509 -0.349 -1.173 1.842 0.015 1.158 -1.847 1.053 -0.326 3.289 0.580 0.613 0.468 0.427 0.259 -0.250 0.046 1.517 -0.809 1.493 0.677 1.906 1.663 1.104 -0.477 0.412 -0.284 -0.247 0.514 -0.540 -0.903 -0.203 -0.244 -0.053 0.209 0.609 1.479 -0.673 0.449 -0.468 -0.123 -0.476 0.878 0.267 -2.058 -1.909 -0.985 -0.139 -0.053 -0.849 0.191 0.871 -0.441 -0.163 -0.211 0.809 -0.772 0.275 0.942 0.806 0.735 0.326 -0.798 -1.068 1.832 0.434 0.256 1.297 1.685 -2.226 0.585 -0.117 -0.581 0.529 2.055 1.387 -1.501 -0.635 0.817 2.352 0.820 0.329 -0.485 0.517 -1.941 0.856 -1.169 1.592 1.074 -2.221 0.373 -1.344 -0.087 1.857 1.693 0.427 -2.482 1.143 1.509 0.813
-0.035 1.050 -0.736 -0.341 -1.735 1.720 0.625 -1.240 -1.172 -0.436 0.457 -0.188 1.064 1.249 1.116 -0.859 1.752 1.622 -0.696 -1.286 2.135 2.329 2.120 0.245 -2.213 0.089 -1.193 1.364 0.521 -1.060 0.898 1.360 0.938 1.616 -0.050 -0.069 -0.384 1.586 -0.473 1.312 -0.514 -1.798 1.588 -1.090 0.423 -1.074 -0.890 -0.738 0.610 0.936 0.180 0.039 -0.162 0.652 -0.150 0.371 -0.461 0.489 0.892 1.904 -0.095 -0.979 0.952 -0.173 0.883 -1.676 2.179 -0.102 -0.606 -1.134 1.836 1.051 -1.015 -0.312 -0.151 -1.786 -0.828 -0.557 -1.338 -0.138 0.240 0.680 -0.283 -0.339 -1.406 0.158 -0.338 1.278 -1.166 -1.397 0.555 -1.039 -0.584 1.210 0.014 -0.920 1.051 0.852 0.395 0.871
-1.257 1.136 0.062 1.036 -0.774 2.154 -0.642 -2.251 -0.818 -0.820 -1.365 0.295 1.566 -0.268 -0.325 -0.810 0.242 0.369 0.915 0.057 1.898 0.364 0.515 0.448 0.573 1.179 1.012 0.413 -0.483 0.543 -0.984 1.179 -0.154 0.830 -0.510 0.314 1.804 -0.304 0.497 0.389 -0.011 0.578 -0.779 0.492 0.573 -0.171 2.840 -0.803 1.819 -0.420 1.265 0.442 0.376 -0.593 -0.406 -0.844 1.425 -0.031 -0.138 1.494 0.215 -0.137 0.429 1.053 -0.236 0.503 1.497 0.427 -2.193 -0.051 1.497 -0.687 0.516 -0.465 0.034 -0.903 -0.943 -1.207 1.265 -0.079 -0.813 -1.053 1.840 0.723 0.498 -2.238 2.782 1.321 -0.635 0.106 -0.729 0.414 2.420 -1.467 -0.419 -0.578 1.230 -0.690 -0.382 -0.435
0.976 0.019 1.184 0.414 -0.172 0.282 -1.478 -2.221 -0.230 0.491 -0.378 -1.536 0.165 0.175 0.413 -1.418 -0.472 0.138 -1.110 0.490 1.698 0.994 1.645 0.367 -0.366 1.267 -0.485 -0.317 0.432 0.111 1.566 -0.142 -0.135 -0.623 -1.147 2.078 -0.200 0.915 0.468 0.358 0.456 0.122 -1.160 1.314 -0.920 0.805 -0.709 2.043 0.253 -0.181 0.284 0.032 0.771 2.859 -0.167 1.335 0.451 -0.294 0.765 0.647 1.017 1.007 0.446 0.200 1.164 -1.046 -0.010 1.773 -0.335 1.000 -0.632 0.569 -0.966 1.725 0.010 -0.210 -2.046 0.622 0.771 0.494 -0.557 -0.379 0.939 -0.146 -0.822 -0.844 -1.744 -0.388 -0.403 -0.379 -0.627 0.580 -0.043 0.166 -0.186 0.473 0.634 1.197 1.675 0.481
-1.472 1.307 -1.017 -0.046 0.788 1.614 1.041 -1.379 -0.121 -0.646 0.053 -0.576 -0.924 -0.540 0.454 -0.674 0.748 -1.537 -0.410 -1.547 -0.174 -0.408 0.568 0.756 -0.952 -1.335 1.388 0.869 -0.320 -1.717 0.367 1.877 0.846 0.432 0.459 0.792 -0.503 1.251 2.180 0.497 -0.473 -0.981 -0.016 0.188 0.469 0.858 -1.625 -0.300 0.329 0.076 -1.224 1.156 0.437 0.086 -0.610 0.052 0.822 0.135 0.903 0.353 -0.019 0.304 -0.856 -1.413 1.836 -0.767 -1.843 -1.222 -0.095 1.929 -1.088 -0.663 -0.971 -0.307 0.261 0.220 -0.277 0.648 -2.508 0.885 -0.080 2.082 0.256 1.493 -0.241 -0.524 0.586 0.166 2.104 0.542 0.813 -1.100 1.335 -0.927 -0.658 0.363 0.341 -0.584 -0.952 -0.931
1.077 0.526 0.998 -1.434 1.304 0.039 -0.441 0.259 -0.374 0.519 0.617 -0.552 -1.400 0.146 1.889 0.245 -1.609 -1.249 -2.430 -0.974 2.233 0.397 0.614 -0.407 0.242 0.226 0.052 -0.508 1.139 -0.549 -0.275 1.235 0.257 -0.447 1.430 1.392 -1.261 0.915 1.651 -0.608 0.491 -0.920 -2.063 -0.207 0.103 0.574 0.786 0.896 -0.446 1.321 1.570 1.143 0.122 -0.589 0.794 -0.107 -0.039 0.126 -1.057 -1.758 1.895 0.969 0.794 -0.005 -0.931 -0.674 -0.004 -0.030 -0.124 -1.312 0.842 0.310 -1.363 0.965 -1.172 -0.825 -0.769 -0.224 0.011 1.441 -0.483 1.127 -2.135 0.300 -1.415 -0.652 -1.095 0.429 0.190 0.678 1.287 -0.942 0.263 -0.409 0.858 -1.105 -0.988 0.010 0.729 0.363
-0.406 0.860 0.228 -1.703 -1.577 -0.243 -0.340 -0.467 -1.375 0.691 0.291 0.126 -0.813 -0.369 0.439 0.565 -0.615 -1.106 -0.820 0.914 -2.268 -0.553 0.272 2.211 0.645 0.558 0.335 -0.509 -0.034 -0.814 1.076 0.266 0.024 0.278 -0.940 -0.033 1.049 -0.377 0.607 0.764 0.221 -0.374 -0.589 -0.160 -0.148 0.240 2.593 -0.819 0.995 -1.085 0.472 0.633 -0.671 -0.205 -0.576 -0.846 -1.164 0.961 1.115 -2.855 -0.901 -1.228 0.471 0.213 0.631 1.803 0.271 1.629 -1.935 -1.573 0.227 0.924 0.136 -1.246 0.707 0.571 -0.927 -0.693 0.851 -0.240 0.424 0.245 -0.789 1.801 -0.034 2.431 0.306 -0.788 -0.422 0.740 -2.361 -0.912 1.809 1.238 0.259 -0.131 0.384 0.088 1.126 1.515
-0.040 1.166 0.033 -0.501 -1.028 -2.211 1.066 -0.297 0.684 1.205 -0.889 -0.215 -1.362 -0.539 0.777 0.198 -0.222 -0.123 -0.643 -1.361 1.600 0.045 -1.029 0.335 0.888 0.717 -2.203 0.308 -0.168 -0.069 -0.465 0.636 0.123 1.738 -0.212 0.352 1.623 0.708 2.998 1.447 -0.246 0.679 -0.741 0.048 0.125 -0.761 0.284 -0.390 1.129 0.524 0.121 0.671 1.081 1.845 0.619 0.358 -0.435 -1.054 0.837 -1.296 0.319 -0.103 0.548 0.970 0.291 -1.857 -0.837 0.309 -0.081 -1.613 0.098 -0.197 -0.082 -0.599 0.517 -1.777 -0.183 -0.969 0.123 -0.761 1.549 -1.342 0.350 -3.223 -0.192 -0.470 0.346 -0.342 -1.443 -1.014 -1.155 -1.601 1.706 1.410 -0.102 1.199 1.002 -0.142 -0.334 0.427
1.594 0.123 -0.463 -0.328 -1.362 -0.157 -0.746 0.320 -0.547 -0.170 0.775 2.133 0.588 -0.882 1.199 -0.839 0.450 -0.312 2.081 0.151 -1.504 0.098 -1.718 -0.792 -0.319 1.613 0.794 -1.590 0.047 -1.106 0.347 0.084 1.336 -0.903 -1.928 -1.154 0.636 -1.024 -0.039 -0.060 0.081 0.845 1.043 0.785 1.028 -0.540 0.092 -0.428 0.212 -0.396 -1.493 -0.034 0.911 1.470 2.602 -0.713 0.632 -0.613 0.693 0.518 0.133 0.093 -0.191 1.030 1.177 -1.466 1.554 -0.173 -0.326 0.318 -0.675 -0.578 -0.485 -1.117 0.117 -0.259 -0.958 -0.491 -2.276 0.633 1.435 -0.393 0.396 0.953 -0.949 0.623 -0.642 -0.062 0.393 -1.637 0.638 0.653 0.265 -0.422 0.476 -0.463 0.707 0.090 0.227 -0.437
-0.771 -0.737 -1.927 1.211 1.162 0.764 0.045 -1.782 0.122 -1.023 0.443 0.938 -1.142 -0.325 0.999 1.767 -0.250 0.161 0.547 0.121 0.244 -0.899 0.646 1.717 0.102 0.323 0.798 0.059 -0.081 1.820 0.400 -0.456 -0.009 -1.149 -0.128 0.491 -1.961 1.192 0.299 -0.437 -1.162 0.867 -0.697 -0.032 -0.050 -0.920 0.768 0.308 1.349 0.112 -0.044 -0.164 -1.494 -1.234 -1.555 0.472 -1.003 1.798 -0.720 -0.453 0.532 -1.250 0.205 -0.926 0.782 0.645 -0.137 0.057 1.695 -0.617 1.171 0.623 0.582 -0.543 -1.446 0.196 -0.192 0.562 0.421 -2.721 -0.299 0.000 -1.289 -0.033 -0.148 -0.474 -1.447 0.942 0.040 0.295 0.600 0.770 -2.142 -0.699 1.536 -0.651 0.095 0.174 0.050 -1.126
-0.798 1.374 0.418 -1.287 -0.263 0.363 0.335 1.263 -0.537 0.854 0.946 -0.886 0.523 -1.142 -1.614 0.958 -0.965 0.047 -1.688 0.385 -0.774 0.015 0.557 0.404 0.280 0.067 -2.111 -1.112 -1.021 0.265 1.288 3.031 0.489 -0.367 -1.913 0.096 0.491 0.119 1.319 -0.980 0.399 -0.654 -1.291 -1.166 -1.425 1.021 -0.587 0.207 -0.319 1.543 -0.557 1.125 -0.624 1.790 -0.803 0.145 0.317 0.656 -0.076 0.109 -0.070 -1.744 1.488 1.448 -1.228 -1.863 -0.492 2.918 0.700 -1.234 0.693 1.358 1.096 0.409 -1.392 0.392 -1.893 -0.594 -0.581 0.452 1.351 -0.257 0.773 0.891 0.841 1.252 -0.566 -1.005 -0.196 0.597 -1.930 -1.951 -0.576 0.364 0.860 -0.508 1.451 -2.455 -1.288 -1.350
-0.939 0.628 0.045 -0.267 -1.434 -0.045 -0.521 -0.849 -0.264 1.018 0.230 0.765 2.079 1.273 -1.198 0.463 0.810 -0.826 -0.401 -0.778 -0.052 1.084 0.491 -0.535 0.646 2.597 1.042 0.469 0.202 -1.709 -1.304 -0.204 -1.325 -0.553 2.233 0.428 -0.887 -1.266 -0.175 0.155 1.024 -0.802 0.703 -2.292 0.755 -1.573 -0.332 0.619 0.254 -0.854 -1.618 1.447 -1.449 -0.719 -0.736 1.164 1.072 2.054 1.677 0.657 -0.429 -1.057 -1.148 -0.950 -0.260 -0.877 -0.685 -1.052 -1.356 -0.216 -0.521 1.532 0.288 -0.088 1.420 -1.388 -0.509 -1.684 0.569 2.608 1.757 0.444 -0.648 2.041 -0.616 -1.564 -1.086 1.296 -0.044 1.095 -0.475 0.762 1.347 -1.297 0.454 0.290 -0.010 1.011 -0.764 1.802
1.001 -0.273 -0.183 -0.199 -0.018 0.336 0.591 0.842 -1.524 0.828 -0.438 -1.897 0.655 1.483 0.949 -0.474 -1.050 -0.052 -1.073 0.197 -1.206 0.887 -0.144 1.370 0.256 -1.374 -0.371 -0.019 -0.648 1.086 0.002 1.201 1.521 -0.895 0.964 0.734 0.897 -1.069 0.903 -0.117 -0.813 0.465 1.197 -0.943 -2.457 -1.619 0.793 0.987 -1.306 -0.680 0.036 -0.839 0.919 2.061 -1.066 0.497 -0.803 0.589 0.256 0.461 1.140 0.404 0.147 1.038 -1.992 0.187 0.522 0.018 -0.020 -0.294 -0.728 -0.587 -1.782 0.505 -1.121 0.420 1.006 -1.121 -1.035 -1.667 1.219 -1.195 0.875 -1.140 1.370 -0.237 -1.078 -0.048 1.502 -1.611 0.240 -0.954 1.454 -1.221 -0.354 -0.212 0.638 -0.655 -0.515 0.414
-1.418 1.806 0.311 0.717 -0.202 -0.700 1.383 1.174 -2.213 -0.049 1.157 0.785 1.287 0.235 -2.327 -1.449 1.771 2.057 -1.909 1.379 0.848 -1.715 -0.199 0.053 -0.752 -0.331 0.459 -1.697 1.298 1.427 -0.502 -1.943 0.251 0.261 0.011 -0.213 -0.078 -1.400 0.965 -0.418 -0.739 0.696 -0.374 -0.582 -1.024 0.162 -0.382 -0.039 -0.663 -0.028 -0.525 -1.326 -0.161 -0.582 0.968 -1.825 -0.664 0.092 1.016 0.033 1.081 0.243 -0.519 1.310 0.076 -0.262 1.707 -0.010 -0.513 0.996 0.870 -1.551 1.801 0.178 -0.692 0.160 0.202 0.281 -1.501 0.856 0.447 1.651 0.165 0.720 0.865 -0.789 0.937 -1.007 0.270 -0.932 -0.108 -0.371 -1.343 0.912 -0.732 -0.805 1.486 0.346 -0.770 -0.276
0.178 1.276 1.247 0.541 1.434 -0.709 -1.634 1.248 0.809 0.510 -0.406 0.395 1.039 0.541 0.909 0.166 0.600 -1.461 -1.502 1.689 -0.362 0.487 -0.577 -0.018 -1.066 -1.878 -0.249 1.176 -1.195 0.256 0.178 0.694 -0.131 -2.230 1.389 0.310 -1.344 1.152 1.294 0.152 0.784 0.240 1.115 -1.614 -0.763 -0.661 -0.908 0.071 -0.602 -0.838 2.039 -1.326 0.556 -1.253 -1.023 0.801 -0.348 -1.030 -0.488 0.648 -0.199 -0.740 -0.673 -0.451 -0.643 -1.157 1.470 0.385 1.587 0.572 0.206 1.304 0.251 -1.233 1.655 -0.560 0.672 -0.211 0.383 0.045 -0.405 0.555 0.716 -0.960 0.572 -0.817 0.227 -0.318 -0.755 0.890 -0.309 0.076 0.348 -0.425 2.196 0.149 0.968 0.564 1.052 -1.421
-0.324 0.045 -1.873 -0.689 -1.802 -0.005 -1.561 0.724 1.064 -2.352 -1.037 0.023 -0.159 0.807 1.572 -0.773 -0.013 0.218 0.035 1.618 0.757 1.541 -0.003 -0.909 -0.261 1.124 1.731 -1.109 0.536 0.605 1.727 1.709 -1.567 0.114 -0.338 0.452 0.199 -1.459 0.661 -0.218 0.829 -0.348 0.119 -0.554 -0.185 0.077 -0.403 0.768 -0.200 0.501 -1.052 0.187 -1.965 0.297 0.168 -0.683 1.395 0.222 -1.086 0.123 0.758 -0.198 0.552 -0.791 -0.548 -0.753 0.864 -0.618 0.320 2.036 1.283 0.316 0.581 -2.364 1.522 0.160 -1.077 -0.462 -0.457 -0.141 -0.030 -2.171 -0.134 0.874 -0.923 -0.740 0.170 -0.064 -0.635 -0.301 1.486 1.637 -0.016 -1.036 -0.323 -0.154 0.355 -2.139 -0.159 0.987
0.493 0.575 0.574 -0.985 1.267 0.499 -0.304 0.798 1.077 2.533 0.887 2.487 -1.050 -1.134 -1.324 -1.408 -0.772 -0.546 0.450 -0.076 -0.861 -0.578 1.662 0.000 2.386 1.320 -0.098 -0.486 2.184 0.490 -1.552 -0.764 0.039 -0.069 -0.702 0.422 -0.032 0.089 2.275 0.648 0.520 -1.579 -0.438 -0.782 -0.107 0.579 0.180 1.842 1.077 1.326 -0.467 0.255 -1.879 0.145 -0.676 0.823 0.279 -0.102 -0.822 -1.281 -0.098 0.983 -1.615 0.167 -0.863 0.407 0.271 -0.423 -1.089 0.885 -0.597 -1.756 -0.014 0.686 0.559 0.284 0.126 1.492 -1.068 1.016 -1.349 -0.531 0.454 0.192 2.180 1.541 -0.003 0.214 -1.652 0.700 -0.758 -0.640 -0.780 1.870 -0.037 -0.963 0.935 -1.113 2.004 -0.168
0.132 0.462 -0.441 0.052 -1.556 0.680 1.617 -1.467 -1.003 0.512 0.817 -0.923 0.193 -0.334 -0.127 -0.990 -0.501 0.747 1.123 1.555 -0.706 0.041 -0.543 -1.443 -0.721 3.299 -1.170 0.035 -0.238 0.090 0.428 1.105 0.465 -0.514 -2.591 -0.298 0.386 1.932 -0.343 0.176 -0.632 1.817 0.179 0.840 2.478 0.014 -0.201 -1.065 0.529 0.503 0.190 -1.134 -0.338 1.782 -0.070 -1.613 -0.909 -1.050 -0.250 -0.187 0.562 -0.314 -2.055 -1.203 -0.046 -0.116 0.819 -0.833 -0.827 -1.214 0.332 -2.002 -1.034 0.557 0.930 0.723 0.311 -1.280 -0.048 0.446 1.034 -1.258 0.088 -0.441 1.423 0.173 0.649 0.633 0.200 -1.084 1.478 0.005 -1.581 -0.606 0.903 1.318 0.866 -0.603 -1.199 -0.197
0.604 -0.981 0.790 0.836 -0.011 -0.346 0.502 -1.093 -0.994 0.279 -0.138 0.003 -1.393 -0.471 0.778 -0.226 -0.234 -0.297 0.025 -0.619 -2.122 0.161 0.157 0.931 1.076 0.699 0.690 -0.584 -0.060 -0.236 0.940 -0.271 2.424 -2.667 -0.817 0.263 -0.441 -0.789 0.802 -0.264 0.914 1.140 0.795 -0.713 -0.574 1.067 0.281 -2.089 -0.238 -1.738 0.361 2.769 1.130 0.312 2.513 2.544 -0.145 0.907 -0.346 -0.500 2.950 1.198 -0.380 -0.317 -0.243 1.741 1.734 0.986 -1.526 -1.375 -0.155 0.257 0.533 -0.535 0.351 1.823 0.732 0.484 -0.556 2.755 -1.119 -0.626 -1.643 -0.570 1.273 0.307 2.006 -0.245 -0.178 -0.100 -1.129 0.989 0.603 -0.100 -1.385 0.259 0.025 0.084 -0.637 0.142
-0.847 0.198 -0.809 -0.207 -0.115 0.945 0.952 2.143 -0.360 1.275 -0.902 0.807 0.277 0.988 1.007 1.141 -0.489 -0.438 1.734 0.458 -1.037 1.312 -0.707 0.932 -1.563 0.164 -0.320 0.736 -1.611 -0.425 -0.436 -0.193 0.494 -0.418 -0.502 1.113 -0.739 1.046 -0.876 1.444 1.009 0.751 0.397 0.146 0.757 0.040 0.517 0.405 -0.794 1.218 -0.160 -0.286 0.570 -0.572 -0.696 -1.383 0.037 -2.158 0.052 1.120 1.381 -1.010 -0.223 -0.077 0.637 0.337 -1.113 1.041 -1.173 0.228 -1.647 -0.058 0.861 -1.065 -0.994 0.404 -1.137 1.007 0.480 0.904 -1.016 0.235 -0.037 0.757 -0.894 0.272 0.324 0.940 0.272 -0.592 -0.449 1.564 0.950 -0.331 -0.496 1.370 -0.019 0.323 2.345 0.127
0.582 2.332 0.361 -1.235 -1.346 2.359 -0.102 2.144 0.829 -1.095 -1.154 -1.522 -0.872 0.513 0.695 0.597 -0.758 -0.581 -0.794 -0.685 -0.636 0.849 -1.750 -2.518 0.378 1.820 -0.571 -0.038 0.203 1.498 -0.116 2.465 -0.215 0.389 1.166 -0.240 0.261 -0.962 -0.803 -1.266 0.229 0.269 -1.667 0.678 0.889 -0.435 0.874 0.661 -1.126 -0.253 -0.731 0.568 0.596 -0.771 0.334 1.209 -0.448 0.380 -1.149 0.452 0.770 -2.011 -0.338 -0.627 0.090 -0.680 0.479 1.652 0.604 1.853 -0.422 -1.051 -0.371 -0.920 1.943 1.023 -1.746 0.993 0.401 -0.598 -0.963 0.455 0.581 0.309 0.347 0.091 -0.777 0.272 -1.452 -2.052 0.493 0.523 0.754 0.391 -2.468 1.398 -1.268 0.590 -1.077 0.306
-0.764 1.637 1.044 0.712 0.159 0.004 -3.203 0.261 -0.255 0.177 -0.287 0.960 0.298 -1.175 -0.491 -0.409 -0.487 -0.758 -1.076 0.373 -1.448 0.036 -1.936 1.002 -0.428 -0.867 1.024 0.152 0.071 -0.927 -2.051 0.269 0.226 -1.704 -1.861 0.399 0.147 0.349 -0.582 -0.575 -0.196 -0.776 0.778 1.598 -0.177 -0.253 -0.061 -0.935 0.362 0.387 0.289 0.287 -0.112 -0.655 0.358 1.550 -0.601 -0.259 -0.206 0.328 0.628 -1.178 -1.356 0.411 -0.590 -0.944 0.999 -0.776 -0.039 -1.268 -0.051 -1.988 1.382 -0.238 1.046 1.466 0.263 0.142 -0.638 -1.036 1.695 -1.002 0.037 1.452 -0.447 -0.507 -1.078 1.003 -2.196 0.944 -1.151 -0.122 1.249 -0.024 -1.109 -0.449 -0.786 -1.734 -0.397 0.722
-0.055 1.163 -0.313 0.047 -0.039 -0.929 -0.214 -0.223 0.063 -0.819 -0.376 -0.445 -0.142 -0.253 -1.988 1.314 0.189 -0.058 1.977 -1.298 -0.677 -0.087 -0.147 1.578 1.624 2.126 -0.599 -0.174 -0.729 0.296 1.912 0.553 0.063 0.002 2.152 -1.842 -0.129 2.012 0.713 -0.282 -0.614 -0.111 0.756 0.063 0.017 1.562 -1.789 0.691 -0.539 0.724 -0.301 0.372 -2.549 0.319 0.747 -2.375 -1.317 -0.694 0.629 0.368 -1.260 -1.282 -0.893 0.366 0.556 0.133 -0.873 -1.024 -1.089 0.617 0.066 -0.140 -1.546 0.505 0.028 1.105 0.944 -0.145 2.149 -0.550 -0.581 -1.564 -1.914 0.560 -0.067 1.211 1.439 -1.673 0.593 0.926 -0.989 1.426 0.588 0.520 -1.314 -0.711 -0.292 -0.008 -1.028 0.921
1.017 0.619 1.504 -0.213 -1.186 2.192 -0.640 -1.356 0.954 -1.654 0.011 0.980 -1.998 -0.700 -1.676 2.807 -0.625 -1.535 0.316 0.645 0.904 0.117 -1.035 0.713 1.279 -0.184 0.349 -0.488 0.369 1.052 -0.967 0.575 -0.388 -1.563 0.165 0.266 1.253 0.021 -2.563 -1.363 -1.598 0.207 0.287 0.809 0.217 -1.432 -0.856 -1.157 -0.419 0.140 -1.693 0.106 0.949 0.423 -0.407 -0.899 0.411 -0.197 0.618 -1.523 -1.054 -0.969 1.077 1.172 1.587 -1.202 0.832 0.355 0.051 -2.021 -1.758 -1.194 -1.528 -0.363 0.268 1.978 1.155 -0.329 -0.809 0.155 1.269 0.559 0.410 0.033 -2.302 0.976 -0.388 -0.869 1.626 -0.784 -0.635 0.598 0.260 0.262 1.149 -2.225 -0.902 1.504 -1.394 1.775
-1.403 -1.264 -0.071 0.588 1.339 0.945 0.595 0.455 0.985 0.503 2.157 1.194 0.914 0.447 1.042 0.873 -0.117 0.871 -1.138 0.132 1.134 1.176 -0.670 -1.791 -1.083 -0.993 -0.251 0.456 -0.951 0.445 -0.528 -0.313 1.546 -1.190 -2.297 -2.787 0.486 -1.506 -0.183 0.306 -1.458 -1.752 1.067 -0.397 -1.082 0.218 0.077 -1.264 -0.224 -0.852 -0.777 1.928 0.801 0.625 -2.071 0.168 -2.209 0.130 -0.358 -0.242 -2.044 -1.216 -0.967 0.387 0.498 0.673 0.607 -1.218 -1.629 -0.455 0.175 1.349 0.783 -0.541 -0.635 0.718 2.016 0.871 0.123 0.312 0.224 0.082 0.613 0.295 -2.235 0.542 0.326 0.014 -0.875 -2.164 -0.899 -1.459 -0.657 0.364 0.767 0.685 -0.293 0.217 1.132 -0.551
0.357 0.779 -1.244 1.741 1.070 0.413 1.528 -0.001 1.095 0.140 -0.372 0.756 0.757 0.501 -0.059 1.000 -0.788 -0.088 1.234 0.445 0.448 -2.763 -0.078 0.429 0.692 -1.378 -1.448 -0.261 -2.802 -0.005 0.640 -1.703 -0.038 -0.135 -0.618 -0.220 0.487 -0.551 0.136 1.189 -0.055 -2.290 -1.525 1.097 -0.119 -0.261 -2.041 1.094 -0.787 -1.671 -1.069 -0.175 -0.221 0.319 -0.659 -0.881 -0.506 -1.382 -1.578 -0.716 -1.070 -0.197 0.803 -2.440 0.168 -1.550 1.377 -0.563 1.279 -0.921 1.676 -0.832 -0.333 0.973 -0.929 0.090 -0.158 -1.135 1.123 1.344 1.392 -0.089 1.089 -1.096 -0.819 1.351 1.203 -1.633 0.795 -0.316 -1.472 -1.238 -0.307 1.333 0.665 -0.034 0.797 1.315 1.002 -0.464
0.875 -0.696 -0.606 0.562 0.562 0.748 -0.942 0.550 -0.824 0.865 0.663 0.841 -1.067 -1.464 -0.634 -0.240 -0.933 0.290 0.400 0.142 0.386 0.423 -0.605 -0.012 -0.418 1.115 -1.844 -0.300 0.022 -0.174 0.863 -1.482 -0.792 0.484 -0.972 0.535 -0.246 -0.342 -1.193 0.956 0.287 -0.053 -0.032 -0.979 0.535 -0.863 1.010 -0.585 0.500 -2.234 0.234 -0.171 -0.548 0.819 1.183 -1.186 0.296 1.043 -0.562 -1.396 0.050 -0.069 0.644 -2.716 -0.377 0.541 1.938 1.011 1.729 0.142 -0.141 -0.345 0.366 0.440 -1.228 0.650 0.518 -1.118 -0.223 0.202 0.241 -1.206 -0.202 -0.448 -1.171 -0.744 -0.954 0.953 0.772 0.316 0.264 0.666 0.450 0.312 0.634 1.291 -0.204 1.382 -0.491 0.722
-1.781 2.714 0.199 0.292 1.968 0.588 0.608 0.064 0.735 1.031 -0.394 -0.430 1.214 0.983 0.664 -1.234 -0.438 -0.729 0.219 0.924 -1.735 0.569 -2.099 0.216 0.830 1.647 -0.723 0.619 2.029 -0.375 1.709 2.406 0.734 1.180 2.399 -0.585 -1.919 1.827 0.096 0.364 -1.800 0.892 1.798 0.170 0.103 0.221 0.410 -0.697 0.147 -0.981 0.320 0.787 -0.332 0.520 1.735 -0.527 -1.040 0.316 -0.249 1.415 -2.103 1.066 -0.581 0.985 -1.578 -1.349 -0.636 1.120 -1.273 -0.919 0.477 0.772 0.188 -0.257 0.250 -1.630 0.705 1.105 0.214 -0.887 0.447 0.953 0.173 -0.374 -0.331 0.250 -1.368 0.599 1.324 0.092 0.443 0.481 0.667 -1.518 0.564 0.399 0.375 1.717 -1.120 -0.445
-1.389 -1.675 1.251 0.503 0.189 0.326 -1.130 -1.363 1.011 -0.879 -0.853 0.853 1.004 0.891 0.506 0.166 0.720 -0.003 -0.068 0.448 0.464 0.942 1.833 -1.159 -0.264 -0.001 -0.247 -0.039 -1.219 -0.383 1.034 0.403 -0.369 0.820 0.585 -0.457 2.344 -0.019 1.730 -0.983 -1.287 0.100 -0.959 1.096 0.970 -1.384 -0.438 -0.179 0.336 0.065 0.256 0.053 -0.838 0.798 1.519 0.291 -1.152 0.006 -0.378 1.610 -0.982 -0.756 -1.113 -0.986 0.635 -0.196 -0.502 0.539 -0.219 -0.520 1.112 1.247 -0.960 0.292 -0.189 0.548 0.158 0.448 -1.606 -0.127 0.953 0.814 0.748 -0.525 -0.829 -0.205 -0.324 -0.589 -0.425 0.444 -0.574 0.519 2.030 -1.955 0.161 -0.289 -1.052 -1.004 -0.727 0.118
-0.001 0.547 -0.239 1.397 -0.198 0.806 0.532 -1.026 -0.304 -0.787 -0.803 0.723 0.585 -0.471 1.079 -0.399 1.180 0.726 -0.256 0.529 0.324 -0.522 -0.089 -1.455 -0.397 -1.043 -2.094 -1.729 0.678 -0.549 0.722 -0.352 -1.180 0.134 -0.932 -0.862 0.859 -0.538 0.861 -2.409 0.652 -1.365 0.733 -0.541 0.753 -0.499 -1.226 -1.796 1.146 0.818 0.998 1.544 -0.758 0.487 1.549 -0.849 -0.632 -0.566 0.585 -0.038 0.230 0.655 -0.046 -0.428 1.329 0.363 0.294 0.539 -0.489 -0.171 2.174 -0.406 -1.454 0.276 -0.003 0.815 0.322 -0.886 -0.586 -0.327 0.043 0.742 -1.432 -0.641 0.025 1.335 -0.810 1.480 -2.545 -0.694 0.743 0.274 0.321 0.206 0.076 -0.370 0.715 0.774 -0.616 0.250
-0.802 1.587 -1.286 -0.452 0.034 -0.262 0.919 0.394 0.196 -0.523 -0.138 0.938 0.031 0.715 1.604 -0.407 -0.767 1.343 -0.270 1.040 0.233 -0.845 -0.522 0.851 -0.945 -0.406 1.658 -0.991 0.146 0.880 0.072 -1.051 0.690 -0.678 0.144 -0.951 -0.313 -0.624 -1.108 0.014 0.667 -0.345 1.293 1.412 0.530 0.464 -0.495 -1.857 -0.572 1.033 0.475 1.707 0.495 -1.511 0.235 -0.303 -0.730 -0.333 -1.472 0.049 -0.509 1.881 -1.671 0.184 -2.142 0.386 -1.111 1.062 1.016 0.496 -1.129 0.046 -0.348 0.082 -0.197 -1.242 0.069 1.164 -1.219 1.282 0.563 0.074 1.146 -0.207 0.827 -1.644 -0.800 -0.481 0.052 -0.638 1.021 1.056 -0.252 -0.831 -0.371 0.490 0.707 0.618 -0.235 -0.515
-3.176 -0.587 -0.266 0.615 0.355 -0.585 1.267 1.667 -0.234 -0.865 -0.531 -0.889 0.361 0.033 -0.770 -1.382 0.840 0.806 0.084 1.076 1.905 -0.945 0.619 -0.673 -1.275 0.341 1.515 1.374 -0.045 -0.252 -0.009 0.586 1.304 1.301 -0.402 0.116 -0.057 -0.381 -1.553 -2.271 -0.926 -0.051 0.422 -1.078 -0.300 0.395 -0.250 -1.521 -0.329 -0.066 0.905 -0.658 0.092 -1.231 -0.149 -0.215 -1.335 0.030 -1.666 0.337 -0.268 1.141 0.371 -1.460 0.524 -1.465 -0.270 0.609 1.293 -0.637 -0.339 0.204 -0.047 -1.305 0.148 -0.916 -0.371 1.282 -0.010 0.634 0.586 1.341 -1.469 0.781 0.754 0.516 0.671 -0.330 0.087 1.707 -0.901 -0.327 -0.560 -0.948 0.162 -0.749 1.915 -0.079 0.301 0.258
0.921 -1.296 -0.540 1.809 1.816 1.026 -1.268 -1.164 1.328 -0.667 -0.677 -0.852 -0.211 0.196 -0.605 -0.584 0.319 0.329 0.478 -1.409 1.248 -0.207 -1.980 1.156 -0.461 1.422 -0.065 -0.131 0.157 0.657 0.352 -0.562 0.281 -0.494 0.432 1.784 -2.033 -0.088 0.548 0.542 -0.545 -2.101 0.298 0.949 -0.163 -1.798 -0.348 -0.005 -0.535 0.207 0.622 -1.496 1.285 -0.639 -0.532 0.361 -0.370 -0.299 0.954 -0.322 0.458 0.833 0.676 0.516 -0.979 -1.919 0.127 -1.879 0.746 -0.740 -1.586 -1.397 -0.413 -0.167 -1.303 0.277 -0.076 1.528 0.461 2.133 -0.961 -1.285 0.792 0.304 -0.108 0.595 -1.483 0.989 -0.950 -0.109 -1.380 1.154 -0.111 0.236 -0.112 -1.182 1.749 -1.320 1.079 -0.507
-0.291 -1.166 -0.981 -1.760 0.493 0.187 -1.094 0.223 -0.493 -0.213 -0.855 0.925 0.186 0.498 -0.726 1.209 0.787 -1.387 1.617 -1.476 1.173 1.179 0.910 -0.112 -0.532 0.112 0.767 -0.315 -0.270 -0.481 -0.081 -0.128 -0.322 1.060 -1.561 0.912 0.392 -0.518 -0.064 -0.909 0.031 -0.652 -0.426 0.763 0.122 0.904 0.549 0.297 -1.350 -0.169 -1.928 -0.293 -0.054 -0.090 0.653 0.748 -1.683 1.856 -2.235 -0.399 1.318 -0.830 0.113 -1.576 1.104 0.193 1.294 0.280 -0.388 -0.073 1.007 -0.900 0.032 -0.729 1.342 -0.184 -1.010 0.549 -2.130 1.085 2.160 -1.113 0.393 1.030 -0.207 -0.309 -1.837 -1.396 0.155 0.655 -0.711 -0.185 0.545 -0.993 -2.177 0.291 0.576 0.303 0.263 -0.997
-1.132 1.517 -1.573 0.634 0.061 0.809 1.315 0.256 -0.083 -1.078 0.435 -0.007 0.557 -0.173 -0.300 0.544 -0.211 1.806 -0.459 -0.365 0.741 -0.849 -1.266 -0.109 0.547 0.361 0.097 -0.841 1.041 0.682 1.004 -0.310 -0.183 0.322 -1.153 0.800 0.559 1.447 -0.645 0.797 -0.259 0.144 -0.764 0.179 -0.025 1.412 -0.507 -0.240 -2.739 -0.252 0.764 2.185 1.170 -0.987 1.011 -1.214 1.185 -0.154 0.702 1.406 -0.617 0.666 -0.037 -1.951 0.020 -0.741 -0.640 1.505 1.132 -2.010 1.533 1.417 0.572 -1.601 0.008 -0.154 -0.446 1.511 -0.049 0.341 -0.253 -2.381 -0.137 -1.275 0.111 0.745 0.457 -0.074 0.381 -1.672 1.066 0.394 0.359 -1.206 1.979 -0.407 0.755 -0.424 0.104 -0.199
-1.477 -0.067 0.101 -0.293 2.082 0.074 1.164 -0.392 -1.557 -0.761 0.107 -0.858 -0.701 -0.626 0.048 -0.094 -1.065 2.125 -0.421 0.137 0.018 0.735 -0.034 2.046 0.606 -1.480 -0.496 -1.267 0.305 -0.196 1.125 0.411 -0.104 -0.933 0.308 -0.112 -0.694 0.143 -0.019 -1.123 0.508 -1.178 1.874 0.737 -0.824 0.699 -0.479 1.486 0.538 0.361 1.242 0.026 -1.066 1.724 -1.115 -1.129 -0.305 -1.160 0.258 -0.071 -1.239 -0.090 0.356 0.195 0.847 0.089 -0.936 0.743 0.243 -1.481 -0.494 -1.736 -0.631 -0.220 -1.277 -0.843 0.679 0.198 0.260 1.165 0.235 -1.334 1.084 0.618 -0.852 -1.320 0.127 1.075 1.646 0.713 1.729 0.868 0.942 -1.207 0.733 1.332 0.997 0.579 -1.315 1.382
0.379 -0.843 0.883 2.109 -0.046 0.925 -0.240 -1.257 0.195 -1.412 0.553 0.281 0.849 -0.305 0.067 0.208 1.716 -0.776 0.329 -0.095 -0.674 0.495 0.570 -0.163 -1.292 1.574 -0.907 -0.044 0.579 0.060 -0.614 0.861 -0.913 -0.740 0.177 -0.445 0.719 0.338 -0.128 0.270 -1.251 1.346 0.132 -1.407 -0.548 0.782 -0.481 1.497 0.688 0.194 1.300 0.401 -0.256 0.786 0.093 0.484 0.920 0.883 -1.188 -0.098 -1.632 -0.724 -0.844 1.471 0.564 -1.046 -0.173 -1.973 1.532 -0.066 -0.888 -0.199 -0.277 0.046 0.616 0.460 -1.031 -1.152 0.232 0.232 1.142 -0.180 -1.025 -0.904 1.339 1.184 -0.696 -0.854 0.933 -0.569 0.801 -1.120 -0.855 -0.675 -0.098 1.972 0.443 -0.362 -0.664 -1.055
0.887 -1.011 0.641 -1.746 0.912 1.472 0.406 -0.157 0.099 1.049 -0.098 0.686 -0.089 -1.508 -2.083 -0.839 -0.355 -0.828 -0.761 0.549 -0.333 1.325 -1.147 0.089 0.403 0.127 -0.022 -0.064 1.289 -1.261 -0.255 -0.904 0.523 0.103 0.839 2.183 0.937 0.169 1.042 -0.640 -0.660 0.124 1.239 -1.044 -1.302 -0.382 -1.098 -1.157 -0.339 -0.025 -0.320 0.724 0.255 -0.446 -0.060 -0.210 -0.580 -1.931 1.379 -1.112 0.550 -1.156 0.519 -0.403 -0.853 0.580 -0.179 -1.219 -1.405 -0.419 -0.363 0.158 -1.470 -0.403 -1.301 -1.431 -1.281 -0.067 0.375 -0.919 -0.999 -0.728 2.094 0.360 0.488 -0.679 0.547 -2.824 -0.686 -0.661 0.216 -0.385 -1.909 -0.380 0.875 0.795 -1.128 1.407 -0.275 -0.220
0.190 -0.062 -0.083 0.954 -0.016 0.637 1.116 -0.881 -1.154 -0.829 0.102 -0.462 0.261 1.412 1.237 0.507 -0.344 -0.634 -0.879 0.303 1.222 1.378 -0.918 1.102 -0.058 -1.082 1.632 -0.292 0.064 -0.530 0.790 -1.455 -0.330 -1.618 0.658 -1.302 0.508 -2.142 -0.455 1.547 -0.261 -0.064 0.251 0.941 0.513 0.411 -0.122 0.832 -0.459 1.197 -1.081 -1.045 -0.270 -0.366 -0.422 0.567 -1.649 -0.593 -0.488 -2.104 -0.384 1.787 -0.732 1.375 0.679 -0.605 0.558 -1.107 -0.001 -1.156 1.259 0.064 0.035 -0.902 0.852 0.644 2.734 -0.471 -0.363 -0.780 2.149 -0.171 0.482 1.053 0.190 -1.396 0.411 -0.562 0.095 0.395 0.397 -1.603 0.833 0.332 -0.525 0.518 1.837 -1.783 -1.050 0.686
0.972 1.515 0.287 0.465 1.255 0.440 -0.174 2.441 -2.439 0.531 -0.576 -1.239 -0.320 -0.452 -1.433 -1.329 0.883 -1.696 -0.066 -0.426 0.436 0.010 -0.416 1.114 0.924 -1.516 1.605 -0.078 2.319 -1.742 -0.406 0.069 -0.335 -1.768 1.009 -1.951 -0.200 -1.137 -0.877 0.551 -0.065 0.106 1.594 -0.705 0.758 0.890 0.314 -1.512 -0.540 0.754 -1.223 -1.333 0.412 -0.743 0.328 -0.289 0.861 1.600 -0.389 1.172 0.502 -0.597 -0.249 0.504 -0.580 0.416 1.389 -1.083 -1.089 -0.416 1.060 0.428 -1.158 3.141 -0.197 -1.034 0.467 -0.929 0.382 1.191 1.243 2.378 -2.591 1.016 -0.321 0.123 1.095 0.296 -0.157 1.086 1.010 -1.545 -1.383 0.380 -0.534 1.226 -0.799 0.010 1.320 -1.145
-0.364 0.446 -1.165 0.096 0.411 -2.168 0.200 -0.205 -1.153 -0.255 0.073 0.278 1.426 -1.080 -1.327 -1.046 0.240 -1.027 1.174 0.195 0.146 -0.301 0.882 0.509 -0.296 1.647 -1.327 -0.728 -0.236 0.331 1.055 0.383 0.532 0.767 -0.724 -0.628 -0.349 -0.987 -1.331 -0.556 -0.121 0.193 -1.843 -0.298 -2.179 0.565 -1.028 0.585 1.608 -1.836 0.067 0.306 0.762 -0.332 -0.173 -0.129 -0.418 -0.553 0.853 0.024 -0.926 1.628 -0.715 0.543 0.791 1.732 0.491 -0.633 0.677 -1.085 -1.363 0.865 0.972 0.430 -0.610 -1.221 1.224 -2.238 -1.258 0.766 0.410 0.428 -0.255 0.396 -1.284 -0.029 0.315 -1.541 -0.672 -0.176 -0.501 -1.435 0.497 0.782 0.545 -0.053 0.332 -0.405 2.435 0.056
1.046 0.593 -1.712 0.879 -0.214 -0.640 1.812 -1.718 -0.773 1.556 0.845 0.027 -0.012 -0.806 -0.450 -0.226 -0.856 -0.006 -0.790 1.066 0.592 -0.561 0.249 -0.821 0.994 2.676 0.346 1.690 0.868 1.269 1.349 0.829 -1.763 0.577 -0.363 0.786 1.945 -1.315 0.092 -0.017 -0.620 0.450 0.507 -0.918 0.678 0.318 -0.517 0.120 -0.019 2.820 0.504 0.151 0.569 -0.219 0.882 1.018 -1.342 0.393 1.742 0.619 0.065 -0.495 0.370 -0.346 -0.684 -1.645 -0.798 -0.419 0.745 0.239 0.718 0.144 1.216 0.478 -0.718 -0.575 0.654 0.582 0.385 -1.268 -1.488 0.072 -0.083 0.786 -0.822 2.018 1.972 -0.333 -1.225 0.757 -0.583 2.026 -2.157 0.134 -0.509 1.219 2.274 -1.004 0.648 -0.148
0.351 0.041 -0.564 0.307 -0.245 -0.367 -0.321 0.834 -0.583 -1.465 1.886 0.086 0.942 1.437 -0.395 0.592 -0.196 -0.774 -1.475 0.007 -0.420 0.329 -1.190 0.948 0.069 -1.697 -0.205 -1.095 0.598 -3.021 -0.337 -0.445 0.202 0.445 -1.103 -1.354 0.295 -0.997 -1.379 0.796 -0.390 -1.503 -1.515 -0.561 -0.576 -0.067 1.347 1.174 0.600 0.626 -0.666 1.033 -1.932 -0.143 -0.666 -0.224 1.085 -0.244 0.205 0.751 -1.250 0.148 -0.101 0.263 1.342 0.846 -0.291 0.323 0.665 -0.557 0.850 -0.325 -0.966 -0.750 -0.424 1.418 0.140 -0.072 0.857 -0.829 0.259 -0.238 1.134 1.508 0.777 -1.153 0.038 0.910 0.970 1.483 0.192 0.672 1.760 -0.532 1.277 1.116 -1.319 0.817 -0.932 -0.904
1.595 -1.957 -1.412 -1.003 -0.107 -0.026 0.222 1.138 -0.734 -2.368 0.343 -1.320 0.300 -0.430 1.080 -0.457 0.245 0.256 -0.178 -0.760 -0.596 0.520 0.355 0.833 -1.398 -0.240 -1.461 -1.196 2.260 -0.671 -1.688 1.208 -0.181 -1.707 1.256 0.058 -0.532 -0.726 0.269 0.138 -0.122 0.616 -0.950 0.222 0.194 -0.081 -0.772 1.759 -0.709 -1.202 -0.350 0.236 1.157 1.369 0.497 -0.258 1.772 -0.662 -0.027 0.719 0.398 1.037 1.120 -0.598 0.124 -1.778 0.145 -0.419 -0.598 0.487 0.321 0.127 0.233 0.303 -0.313 -1.642 0.579 0.483 0.358 0.813 1.162 -0.192 0.897 -2.097 0.115 2.231 -0.204 0.250 0.271 1.141 0.483 -0.522 1.076 0.270 -0.768 0.343 -1.295 -1.418 -0.227 -0.548
0.001 -0.392 -1.097 -1.155 -0.260 -0.744 0.004 0.311 -0.227 -1.217 -0.428 -0.170 0.172 -0.836 -0.599 -0.046 2.976 -1.083 -0.236 0.583 -0.039 -0.002 0.028 0.536 -0.423 -0.530 -0.020 -1.193 -0.965 0.860 0.175 -0.866 0.237 -2.057 -1.685 0.795 1.834 -1.635 1.595 -0.879 1.301 2.428 1.759 -0.322 -0.279 -0.301 0.207 -1.076 0.062 1.220 0.048 -0.499 0.672 -1.106 -1.936 1.668 -1.759 0.435 1.200 -0.764 -0.085 -0.462 0.678 -0.885 0.119 -0.140 1.222 -0.562 -1.631 -0.498 -0.182 -0.640 -0.018 0.558 -0.712 0.768 -1.574 -1.125 -1.215 -0.248 -1.579 -1.144 -1.592 -2.171 0.019 -0.200 0.235 0.711 0.266 1.985 -0.811 -0.668 0.612 -0.643 2.253 0.795 1.688 2.144 0.550 1.163
0.835 -0.756 0.018 -0.903 0.638 0.120 -0.913 -1.619 0.233 -0.299 0.221 -0.150 -2.043 1.745 -0.479 0.911 0.509 -1.702 -0.494 -0.215 -0.400 0.697 -1.857 0.308 0.370 -0.085 0.737 0.567 0.288 0.442 0.726 0.916 -0.444 0.214 0.807 0.695 -0.110 -1.717 2.130 1.015 -0.660 0.624 -0.364 1.596 -1.101 0.390 -0.446 0.831 -0.736 1.436 0.542 -0.086 -0.941 -0.641 -0.081 0.535 -0.075 -0.568 0.303 -0.210 -0.801 -0.194 0.867 -0.845 0.398 -0.625 0.734 0.911 -2.012 0.020 -2.242 0.919 -0.138 1.264 -1.621 -0.743 0.599 0.508 -0.008 1.143 -0.261 0.609 -0.976 -1.386 -0.367 1.366 -0.043 1.131 0.859 0.521 -1.449 -0.599 -1.156 0.819 -2.067 0.478 -0.521 0.499 1.396 0.756
-0.062 -1.458 -0.398 -1.089 0.679 -0.717 0.747 -0.272 -0.602 -0.915 1.162 -0.485 -0.415 1.469 0.273 1.548 0.596 -0.370 0.306 -1.103 -0.920 -0.260 -0.482 -0.294 1.038 -0.592 1.124 -0.309 -0.503 0.849 0.540 -0.777 -0.828 0.465 1.100 -0.596 -2.432 -0.851 -0.061 0.099 -0.659 -0.196 1.215 0.040 -0.984 0.511 -1.562 1.376 -2.143 0.865 -0.576 -0.698 1.614 -0.828 0.114 0.660 -0.857 0.629 -0.414 -0.087 1.631 1.037 -0.949 0.612 -0.883 -0.173 -0.606 1.067 1.249 -0.479 -0.216 1.446 1.773 1.723 0.468 0.616 -0.230 -1.155 0.179 2.456 0.460 0.631 0.159 -0.872 -0.074 0.694 3.437 0.351 1.606 -0.630 -1.346 1.555 -0.819 1.041 -1.054 1.201 0.158 1.398 -0.840 0.470
-0.731 -1.513 1.103 0.431 0.926 -0.824 -0.688 -0.849 -0.743 0.383 -1.030 0.062 0.040 1.301 0.223 -0.849 0.637 0.250 -0.456 -0.436 -0.070 1.314 -0.725 0.253 -1.094 2.248 -0.644 -0.264 0.047 -0.186 0.000 -0.517 -0.449 0.361 -0.839 -0.274 -1.490 -0.849 -0.926 -0.742 0.903 -0.874 -0.262 -1.382 -0.263 1.019 0.264 0.430 -1.248 -0.454 -1.162 1.374 -0.882 -0.608 -1.161 -0.592 -0.039 -0.613 -0.371 -0.018 2.715 0.069 -2.072 -0.215 -0.005 0.289 -0.222 0.797 -0.253 -1.420 1.534 -0.872 0.411 -0.166 0.086 2.065 0.262 0.670 0.567 0.828 -1.732 1.350 -0.641 1.735 1.393 -0.296 -0.099 0.208 1.551 0.574 -0.217 -0.252 1.290 -1.024 -0.071 0.543 0.679 0.570 0.843 0.388
0.798 1.391 -0.683 0.953 -0.666 -0.521 -0.176 2.385 -2.240 0.281 2.146 -0.655 0.247 0.279 1.363 -0.033 -0.316 -1.420 0.412 -0.564 -0.805 -0.011 -0.278 0.794 0.541 -0.214 -0.141 1.525 -0.582 -0.064 1.463 0.168 -0.172 0.072 0.782 0.026 1.187 -0.709 0.734 -0.357 -0.209 0.563 0.237 -0.616 0.309 1.884 -2.175 0.255 -1.758 -1.111 1.289 -0.050 -1.233 0.507 1.605 -1.014 0.445 -0.031 0.538 0.389 0.324 0.726 -0.601 -0.816 0.341 -0.674 1.472 2.465 0.545 -1.064 -0.881 -0.460 -0.263 -0.466 -0.001 0.424 0.287 1.562 -0.607 -0.911 1.035 0.874 1.286 -0.303 -2.363 0.655 -0.009 0.089 -0.517 -0.177 0.044 -0.004 -1.306 -1.263 -0.079 0.638 -0.420 -0.876 -0.695 0.325
0.153 -0.370 -1.910 0.180 0.004 -0.802 -1.158 -0.589 -0.622 1.471 -0.422 0.201 0.157 2.167 -0.576 -1.322 0.016 -1.316 0.068 -0.483 -0.723 -1.384 0.964 -1.110 -1.872 -1.327 -0.718 0.463 0.268 0.255 1.504 -0.057 0.454 1.051 2.930 0.771 -0.607 -0.428 -1.292 1.782 1.051 -0.785 -0.541 -0.796 1.287 1.748 -0.647 -0.885 -0.246 -0.816 -2.038 0.591 -0.152 0.140 -0.537 -1.471 0.524 1.011 0.439 0.162 0.060 0.864 -0.196 0.486 -0.163 0.597 0.779 -1.595 -1.588 -0.099 -0.209 1.209 -0.084 1.355 -1.190 -0.377 -1.324 -1.856 0.087 -0.321 -0.811 0.771 -0.910 0.589 1.654 -1.292 -0.209 0.327 -0.442 0.148 0.363 0.035 -0.352 -0.478 -1.446 0.596 -1.259 1.105 -0.564 0.924
0.676 0.690 0.603 0.785 0.216 0.192 -0.492 -0.624 0.728 1.432 1.053 0.051 -1.325 0.368 1.647 0.571 -1.756 -0.869 -1.322 1.785 1.224 -1.132 1.308 0.149 0.613 -0.009 -0.468 1.748 1.456 -0.141 -2.177 0.448 -0.498 0.427 2.108 -1.291 -1.687 -0.842 1.193 -0.436 -0.218 -0.529 1.493 0.799 1.572 -0.107 -0.679 -0.146 -0.325 0.627 -1.111 -0.257 3.173 -0.637 -0.529 0.901 0.078 0.363 0.869 -1.100 0.599 -0.999 1.934 -0.755 -0.306 -0.978 0.873 -0.712 -1.744 -0.411 -2.292 1.506 -0.766 0.820 -0.074 0.792 0.794 0.713 -1.103 -0.724 1.006 -0.913 0.116 -1.278 -1.864 -2.262 0.086 -0.355 -0.427 -0.245 1.052 0.480 -0.064 -0.874 0.298 -0.471 0.758 -0.417 -1.067 -0.527
-1.031 -0.391 -0.947 -0.297 -0.443 -0.312 0.584 -1.275 1.527 -0.172 0.990 0.805 1.742 -0.969 -0.296 -0.280 -1.863 1.369 0.188 0.329 0.251 -0.605 0.691 0.446 0.853 -2.200 -1.679 -1.626 1.005 0.008 -0.888 0.529 -1.147 -0.534 1.089 -0.268 -0.627 -0.178 0.796 -0.631 1.237 -0.074 -1.437 -0.217 0.018 -0.652 0.807 1.350 -1.757 -0.667 -0.409 -0.116 0.084 -0.754 0.314 -0.348 1.244 -0.454 2.246 -0.878 1.827 -1.008 -1.495 1.106 -0.047 -1.150 -0.603 -0.492 1.099 -1.784 1.592 -0.814 -0.144 0.117 1.027 1.104 0.557 1.648 0.169 -0.400 0.889 2.426 -0.217 0.663 0.215 0.656 -0.635 0.885 -0.183 -0.814 -1.171 0.815 -0.052 -0.225 0.660 0.844 -0.214 -0.535 0.109 -0.609
0.653 1.328 0.824 -0.644 0.496 1.057 1.996 1.375 0.970 -1.083 0.792 -0.706 -0.529 -1.011 -0.393 -0.285 0.216 0.520 0.395 0.498 0.066 0.266 -0.008 0.919 0.148 0.142 -0.430 0.871 -1.389 -2.085 -1.316 2.380 -1.596 0.899 0.422 0.131 -0.384 0.727 0.172 -0.697 0.878 0.492 1.653 -0.711 0.383 0.616 0.100 0.856 0.560 0.644 -0.746 0.345 0.861 -0.246 -0.116 1.213 1.613 1.961 -0.440 -1.705 0.885 -0.116 0.579 -0.126 -0.127 -1.047 -0.624 0.720 -0.213 -0.110 -0.429 2.040 2.275 0.515 -1.928 -0.475 -0.231 -0.657 1.198 -0.444 -1.065 0.350 -0.244 -0.367 -1.750 -0.214 -0.190 -0.541 -0.745 -1.604 0.528 0.283 0.607 -0.980 -0.229 -0.064 -1.610 -1.073 0.107 0.198
0.595 0.697 0.207 0.401 -0.502 1.142 -1.835 0.027 -0.038 0.995 1.361 -1.235 -0.139 0.908 -0.455 -0.764 -0.178 -0.937 -0.060 1.112 -1.202 0.344 -0.430 -0.666 -0.750 0.299 -0.971 -0.283 0.419 -0.794 0.178 -2.466 2.035 1.128 -0.924 0.042 -0.840 0.802 -0.386 0.397 -0.013 -0.354 1.354 -0.644 0.988 -0.426 -1.325 0.360 0.497 -1.055 0.311 -0.422 0.241 -0.198 0.629 0.223 0.625 -1.332 -0.611 0.680 1.324 -1.618 1.085 0.596 0.235 -0.549 -0.809 -0.418 3.334 -0.019 0.372 -1.449 0.113 -1.023 -0.949 0.583 0.840 -0.634 -2.641 0.062 0.267 -1.214 0.182 -2.414 0.893 0.461 0.154 -0.006 -2.268 -0.305 0.866 0.104 0.850 -0.344 -1.539 1.069 1.680 0.138 0.330 1.116
0.568 0.346 -0.989 -1.751 -1.804 0.176 -0.745 -1.144 -1.810 0.209 -0.810 -1.275 0.160 0.469 1.035 -0.200 -1.376 0.446 2.075 0.516 -0.219 0.209 -1.375 -1.277 1.694 -0.855 0.252 -0.858 -1.315 -0.727 0.260 -0.547 -2.864 0.653 1.324 -1.116 -0.610 -0.143 1.142 -0.235 0.124 1.363 1.371 -0.436 -0.792 0.923 -0.959 0.035 -1.651 0.863 0.333 -0.483 -1.160 -1.437 -1.084 -0.533 -0.927 0.393 0.623 -0.458 -1.291 -0.721 -0.357 -1.188 -0.339 -0.208 0.256 1.058 0.164 -0.667 1.077 -0.061 1.114 -0.571 -0.347 -1.218 0.116 1.266 0.404 0.528 -1.942 -1.148 0.604 1.416 1.292 -0.802 -1.768 0.814 -0.380 -0.059 0.949 0.094 0.231 1.371 -0.426 1.426 0.542 -0.384 0.718 -0.431
1.351 1.110 1.926 0.215 0.842 -0.068 -1.135 -1.186 -0.354 -1.190 1.763 0.899 1.077 -0.217 -1.330 0.480 0.057 -0.500 0.222 -0.464 -0.161 0.246 -0.373 -1.152 -0.892 -0.545 -0.954 2.473 0.380 -0.103 0.379 0.073 -0.368 -0.061 0.749 -0.419 0.431 0.217 -0.045 -1.734 -0.153 -1.049 -1.404 -1.342 -0.215 -0.822 -0.598 -0.664 0.753 0.475 -0.601 -0.501 0.018 0.535 -0.842 -0.044 0.342 -0.042 0.975 0.305 2.025 -1.055 0.328 -2.833 -0.115 -0.541 -0.338 0.908 0.865 1.185 -0.483 -0.543 -0.176 -0.981 -0.601 -1.174 -0.001 -0.434 0.221 -0.555 -0.400 0.974 2.024 1.646 0.688 -1.673 1.153 -0.331 0.338 -0.157 0.079 0.445 -0.486 0.356 -1.177 -0.697 -0.282 0.296 -2.374 -1.815
1.414 1.094 -0.707 -0.094 0.398 0.171 0.201 1.066 0.730 0.594 0.067 0.620 -0.994 -0.016 1.520 -0.256 -0.449 -0.242 1.086 1.168 -0.837 -0.662 0.243 -0.943 0.051 0.164 -0.365 -0.376 -0.091 0.571 -1.030 0.457 -0.398 -1.354 0.821 1.064 0.725 0.924 2.163 0.251 -0.444 -1.190 -1.388 -0.670 -0.471 -0.543 1.478 -0.332 0.548 -0.035 0.366 -0.139 -0.519 -0.020 1.476 0.157 -2.542 0.732 -0.433 -0.077 0.403 0.105 -0.183 -0.652 -0.049 -0.852 1.051 -0.970 0.847 0.995 -1.286 -0.294 0.174 0.813 0.337 -1.434 0.813 0.103 0.757 -0.620 0.872 1.079 -0.123 0.302 1.437 0.118 -1.960 0.408 1.568 -0.627 -0.039 0.220 0.267 -0.859 -1.443 0.718 0.010 0.120 -0.626 -1.390
-0.916 0.093 0.025 1.340 -0.398 -0.579 0.442 -0.253 1.603 -0.015 -1.365 1.153 -0.633 1.158 0.655 1.862 0.193 -1.341 -1.010 -1.492 0.335 1.174 0.596 2.414 -0.028 -0.731 -0.400 -2.689 1.156 1.001 0.869 0.426 0.455 -0.165 2.116 -0.746 -1.561 0.985 0.071 -0.056 0.527 -0.089 -0.730 0.458 -1.282 -0.215 -0.834 -0.905 0.797 1.412 1.108 -0.145 0.671 0.144 -0.916 0.152 0.785 -0.510 -1.465 -1.141 0.643 1.223 0.178 1.330 -0.490 0.616 1.326 -0.323 -0.646 1.997 -0.372 0.980 -0.552 0.023 -0.070 0.009 -0.480 -1.567 0.478 -0.633 -1.372 0.102 -0.975 -1.200 1.730 -1.373 0.523 -0.420 -1.254 -1.644 0.107 -0.844 1.776 -0.028 -0.523 -0.220 0.971 0.202 -0.750 0.290
0.586 -0.026 -1.173 -0.195 -1.106 -0.845 -0.250 0.619 -1.263 0.996 -1.559 -0.129 0.912 0.046 -0.372 -1.402 0.829 -0.888 -0.624 -1.088 -1.050 0.108 -0.147 -0.773 -1.777 -0.236 1.636 0.562 -0.015 -0.090 -1.108 0.580 -1.238 -1.626 -0.754 1.213 0.592 -2.103 1.863 -0.375 0.327 -0.226 -0.278 1.173 2.081 0.067 -0.683 -1.214 1.054 1.697 1.205 -0.030 1.291 -0.300 0.542 0.637 -0.782 0.965 0.758 0.164 0.957 -0.518 -1.038 -0.804 1.037 -0.153 -0.395 0.937 -0.185 -0.677 -0.344 0.346 2.490 -0.136 0.291 -0.536 2.349 -1.247 -1.154 -1.352 -0.988 -0.002 -1.174 1.355 -0.901 -1.241 -1.225 -0.736 -1.161 2.866 -0.337 -0.001 -0.453 -2.101 1.036 -1.002 0.642 1.137 -1.139 -1.468
-2.013 -0.824 1.627 -0.374 -0.272 0.721 -0.541 0.718 1.060 0.153 -1.808 0.390 -0.856 2.660 -1.255 0.749 2.485 1.544 1.072 -0.907 0.707 -0.849 -0.180 2.125 -0.229 -0.037 -0.849 0.943 -1.005 1.933 -0.639 -0.436 1.294 0.333 0.469 -0.915 0.167 2.242 1.340 -0.935 0.845 0.686 -1.113 0.320 -0.481 -0.403 0.634 -1.212 -0.534 -0.132 -2.245 -0.521 -0.604 -1.317 1.245 -1.225 -1.463 1.191 0.792 1.928 0.143 0.912 0.828 -0.228 1.001 1.258 2.791 -1.169 0.622 -0.387 -0.549 0.438 0.967 -0.519 -0.392 0.091 0.445 1.873 1.215 0.541 -0.672 1.587 -0.470 1.165 -0.821 -0.099 -0.012 1.431 0.965 0.107 0.054 -0.352 -0.584 -0.495 1.683 -0.119 0.951 -0.401 -0.395 -1.152
1.016 0.309 0.300 1.420 1.532 -0.548 0.294 -0.504 -0.022 -0.220 0.939 0.633 -0.636 0.434 -0.108 -1.241 0.829 0.120 0.170 -0.152 -1.132 -0.149 -0.006 -0.531 0.076 0.016 -0.294 0.479 -0.824 -0.062 -0.657 -0.332 -0.901 0.016 0.924 -0.689 -0.152 0.540 0.087 -0.748 1.056 -0.063 -0.262 -1.776 0.261 -0.285 -0.268 0.285 1.181 0.186 -2.734 0.953 -0.826 0.289 0.367 -0.727 -0.523 0.581 -0.614 1.731 1.927 -0.488 -1.206 1.246 0.590 -0.489 -0.750 0.664 -0.687 -0.279 -0.558 0.423 -0.043 -1.292 0.887 -1.185 -1.729 0.291 0.136 1.055 -0.000 -0.632 1.560 -0.882 -0.192 0.260 0.186 -0.791 3.028 -0.252 -0.816 -0.408 0.541 0.343 -0.134 0.636 -0.596 -0.012 -0.750 0.539
2.052 0.087 -0.807 0.437 -0.490 -0.924 -1.942 -0.573 0.526 -0.923 0.475 -1.186 -0.160 1.239 1.675 0.762 -0.307 -0.381 -0.829 1.425 0.146 2.131 -1.029 -0.530 -0.248 1.124 0.681 0.351 0.857 -0.788 0.481 0.623 -0.007 0.798 -0.386 0.867 0.128 0.164 -0.359 -1.075 0.532 -0.264 0.032 1.004 0.817 -0.810 1.284 0.615 0.838 -2.111 -0.148 -2.372 -0.257 1.725 -1.754 -0.126 -0.864 0.936 0.999 0.190 -0.695 -0.343 0.984 0.685 0.434 0.119 -1.552 0.638 0.353 -0.144 -0.254 0.618 -2.303 -0.863 1.697 -0.334 0.716 -2.898 0.657 -0.705 -0.101 1.786 -0.082 -1.068 -2.616 -0.889 0.255 -0.613 -0.164 1.614 -0.370 0.667 1.038 0.202 -0.063 -1.314 -0.036 -0.267 0.586 -0.991
0.949 -2.761 0.175 -1.504 -2.170 0.999 -1.228 2.079 0.746 0.056 0.116 -1.161 0.551 -1.122 2.360 0.278 -1.749 0.132 0.871 3.588 -0.049 -0.492 -1.080 -0.263 0.506 1.441 0.503 0.211 1.818 -0.148 0.272 1.781 1.762 0.390 1.580 -0.114 1.337 2.012 -0.361 -1.559 0.094 -0.401 0.380 0.757 -0.549 1.899 -0.510 0.275 0.388 1.135 1.930 1.437 -0.308 -0.055 -1.209 -1.879 0.743 -1.122 -2.096 -0.236 -0.925 1.543 0.195 0.831 0.122 -0.663 -0.259 0.565 -0.279 0.195 -1.247 0.183 -1.327 1.048 -0.901 -0.045 0.623 -0.912 0.981 -0.912 2.061 0.713 0.417 -0.517 0.014 -0.556 -0.992 1.384 -0.779 -0.082 -0.108 -0.234 -0.525 -0.663 -0.864 0.074 1.365 0.321 0.710 0.308
0.762 -0.376 -0.795 1.094 -0.730 1.494 -0.874 0.375 -1.538 -1.630 -0.292 0.709 0.141 0.578 1.217 -1.796 -1.204 -1.940 0.462 -0.637 0.783 0.057 1.237 -0.680 0.539 0.439 0.989 0.755 0.357 -0.579 1.151 -0.665 -1.828 0.393 -0.094 -0.416 0.503 0.702 0.454 0.881 1.157 0.932 -0.865 1.228 -0.684 -1.401 1.313 -1.256 0.668 -1.244 -0.649 0.410 -0.773 0.740 1.227 0.749 1.124 1.036 -0.543 0.208 0.064 3.196 0.119 -0.792 -0.467 -1.728 -0.681 0.708 -0.042 -0.219 -0.310 0.049 -0.665 2.197 -1.021 0.346 0.034 -1.717 0.997 -0.650 2.203 1.803 1.618 1.129 -0.967 -0.045 -0.894 0.114 0.711 0.027 0.268 0.605 0.541 -0.533 -0.304 -0.308 0.311 0.356 -0.219 -0.724
-1.494 -0.265 -0.229 -0.644 0.557 0.416 -0.287 -1.400 -1.834 0.159 -1.571 0.173 1.265 0.850 -0.618 1.134 0.731 0.936 -1.074 -1.226 1.259 -0.243 0.847 -1.083 1.343 -1.477 0.807 -0.487 -0.685 -2.168 0.324 1.324 0.174 -0.116 0.681 1.393 0.455 0.326 1.201 0.674 0.146 -2.061 -1.262 -1.264 0.190 0.925 -0.695 0.074 0.787 -2.012 1.050 -0.402 0.885 -0.736 1.407 -0.006 0.004 0.632 -0.554 -0.253 0.368 1.038 0.769 -0.902 0.073 -0.254 -1.030 -0.318 -1.374 0.780 0.597 -0.573 -0.904 1.206 2.158 -1.660 -1.718 0.455 2.631 -1.013 0.805 0.262 0.933 0.176 1.013 0.033 -0.988 0.501 -0.533 1.012 0.283 -0.514 -0.577 0.540 0.360 -0.647 1.841 0.863 1.128 -0.525
1.886 0.626 1.783 -0.200 0.028 -0.322 1.527 0.934 1.173 0.859 -0.694 -0.876 -1.480 1.280 -0.067 1.494 0.572 0.528 -0.640 0.422 -1.273 1.245 1.083 -0.828 -0.056 0.260 0.311 -0.861 1.477 -0.295 -0.271 -1.017 -0.723 -1.682 0.068 -0.860 -1.513 0.373 -0.475 0.040 -0.858 0.255 -3.029 -0.470 0.301 -2.131 1.661 -0.744 1.694 -0.510 -0.987 0.828 -1.023 -0.701 -0.454 0.652 2.052 -1.051 0.425 0.313 2.501 0.195 -0.725 -0.193 -0.721 0.119 0.157 -0.526 -0.618 -0.113 0.447 -0.421 -0.260 -2.032 0.680 -1.193 1.056 -1.216 1.294 -1.058 -0.743 -0.633 -0.509 1.133 0.153 -0.672 0.516 0.177 -0.030 0.303 -1.958 -0.604 -0.971 -1.582 1.232 1.258 -0.057 0.238 0.074 0.141
-0.637 -1.144 1.139 -0.919 -1.444 -1.263 -0.264 0.588 1.284 -1.333 -0.392 0.280 -0.818 -0.345 -0.468 -0.186 1.250 -0.119 1.380 1.232 2.629 -0.628 0.343 -1.190 1.155 -0.281 -1.162 -0.263 -0.965 0.105 0.307 -0.045 -0.698 -0.121 0.256 0.653 0.709 0.387 0.296 -0.984 -0.109 0.215 0.308 0.747 0.831 0.371 -0.684 -0.898 -0.308 0.608 1.257 1.192 1.605 -0.414 -0.807 0.437 -0.430 1.274 -0.340 0.365 1.671 0.781 0.401 0.532 -0.829 0.068 -2.823 -1.072 0.137 -0.102 -0.382 -0.353 -0.280 1.069 -0.740 0.408 1.746 0.728 -0.567 -0.277 -0.547 -0.908 -1.510 -0.257 -0.453 0.068 -0.662 -1.319 -0.191 -1.202 0.319 -0.269 0.428 -1.038 -1.355 1.564 -0.916 -0.331 -0.220 0.442
-1.004 0.544 0.893 0.296 2.820 -1.879 -1.116 -0.196 -0.808 0.760 -2.151 1.016 0.212 0.945 -1.085 -1.209 1.001 -0.266 0.796 0.925 0.880 1.754 -1.440 -1.685 -0.232 1.283 1.271 -0.736 -1.456 -0.774 -0.244 -0.100 1.283 0.179 -1.782 0.168 -0.476 0.272 -1.094 0.230 -0.136 -0.613 -0.273 -0.160 -0.838 1.351 -1.616 0.314 -0.494 0.049 0.470 -0.213 0.478 2.492 0.824 0.731 0.061 -1.104 -1.437 2.104 -0.894 0.241 0.456 -0.436 0.500 -1.899 -0.318 0.291 -0.719 -0.439 0.710 0.104 -0.397 -1.288 -2.999 0.867 1.155 1.028 -0.092 0.321 -0.593 1.577 -1.255 1.596 0.137 -0.655 -0.112 -1.088 0.636 -0.164 1.211 -0.040 0.425 -0.220 1.142 -1.132 -1.105 0.038 -1.493 -0.297
-0.103 -0.207 -0.841 2.156 1.246 0.730 -0.660 0.446 0.024 0.144 0.577 -1.319 1.808 0.024 -0.603 0.461 -0.110 1.346 -0.472 -0.980 -0.467 0.462 -0.223 0.992 -0.325 0.663 -1.120 2.097 -0.738 0.451 0.258 0.211 0.864 0.210 2.315 -0.079 -0.411 0.360 -0.902 -0.969 0.297 -0.771 -0.471 -0.681 0.238 -2.229 0.888 -0.080 1.115 -1.628 1.514 -0.237 -0.078 0.436 0.261 -0.355 -0.374 0.101 -0.431 -0.369 0.467 0.170 -0.403 -0.744 1.252 0.660 0.284 3.105 0.034 0.543 1.917 -0.016 1.239 -0.070 -0.414 -0.399 -0.921 0.010 1.497 -0.835 -0.044 0.451 -0.016 0.390 0.216 1.645 -0.996 -1.809 0.719 -0.290 -0.415 0.183 -1.936 0.589 -0.214 0.768 0.527 0.977 -0.533 -0.242
0.951 -0.580 -0.804 0.355 -0.742 -1.139 0.733 1.852 1.680 0.963 0.467 1.100 1.384 0.119 0.173 -0.653 -2.701 -1.239 -0.465 -0.722 1.132 -0.139 -0.108 -0.432 0.240 0.159 0.816 -1.169 -0.102 -1.087 0.418 0.597 0.512 1.364 0.036 0.507 -0.259 -0.257 -0.371 -1.320 -0.536 0.059 -2.304 -0.484 0.092 -0.273 -0.265 -2.270 2.244 0.780 -0.146 -0.580 1.255 -0.906 -0.312 -1.449 -1.346 -0.013 0.215 -0.867 -0.495 0.697 0.125 0.080 0.005 -0.846 -1.160 0.721 1.287 -0.417 -0.314 1.009 -0.902 -0.429 -1.034 -0.571 -0.921 0.413 1.437 -0.071 -0.351 -0.431 1.427 -0.167 0.090 -0.789 -0.287 1.230 -0.366 0.519 0.685 0.839 -0.111 0.933 -2.379 -0.381 -1.498 1.526 1.101 -0.861
-0.566 -0.208 -1.008 0.319 0.573 0.793 1.798 -1.132 0.590 0.709 -0.675 -0.862 1.608 -0.220 -0.958 -0.353 -0.256 -0.842 -0.091 -1.354 0.468 -0.595 -1.089 0.700 1.103 2.347 -1.037 1.372 -0.663 0.994 1.230 -0.978 -0.303 0.444 0.926 -0.680 1.336 0.779 1.182 0.256 1.427 0.831 0.506 -0.251 0.077 0.466 -0.489 -0.230 1.257 1.538 -0.136 -0.130 1.913 -0.571 0.755 -1.219 0.247 1.123 0.495 -0.329 0.325 -1.620 -0.241 -1.947 -0.683 0.032 -0.765 -0.588 0.891 1.624 0.428 -0.091 0.405 0.960 -0.041 0.654 0.132 1.785 0.194 1.909 -1.083 0.739 -0.014 -1.457 -1.062 0.127 1.484 0.745 1.519 -0.728 3.244 2.199 1.111 -0.195 1.064 1.245 0.478 -0.429 0.126 0.940
-1.287 -0.895 -1.169 -1.606 1.000 1.132 -1.939 0.549 0.680 -1.352 0.226 -1.464 1.157 -0.284 0.587 0.026 0.251 -1.194 1.002 0.298 0.021 0.497 -1.598 -1.607 -0.651 -1.226 1.194 -1.153 1.090 -0.274 -0.894 0.087 0.478 -0.555 -0.663 -1.723 0.491 0.206 -0.311 0.376 -0.187 0.955 0.201 -0.323 1.455 0.288 0.319 1.072 0.073 1.066 0.908 0.519 -0.677 0.159 -0.119 0.639 0.926 -1.148 0.494 -0.308 0.140 1.398 -0.606 -0.934 -1.291 0.859 0.913 -1.159 -0.088 0.229 0.190 0.874 -0.422 1.207 0.174 0.481 -0.768 0.750 -0.564 2.218 -1.018 -0.903 -1.998 0.815 0.726 1.608 -0.193 -1.212 1.074 -1.524 1.519 0.733 -2.268 -1.914 0.468 0.142 -1.838 -1.459 -1.084 0.463
-0.585 0.279 0.883 -0.387 1.161 -0.712 1.417 -0.264 -0.847 0.523 -2.114 -0.084 1.574 0.617 0.663 1.080 1.283 1.407 -2.057 -3.116 -0.029 -0.411 -1.050 -0.446 0.975 -0.201 -0.506 -0.090 -0.144 1.296 0.809 -1.337 0.620 1.290 0.572 -0.552 0.540 0.287 0.777 -0.284 0.226 -0.019 1.737 0.003 1.502 2.248 0.780 0.612 -1.448 0.660 -1.941 0.429 1.428 -2.437 -0.395 1.202 -0.148 -2.163 0.308 0.575 -0.230 1.498 -0.031 -0.705 0.064 -0.229 -0.585 -0.617 1.011 0.212 -0.471 -0.270 -2.734 0.405 2.079 -0.162 1.894 2.329 -1.540 -1.398 -0.192 1.449 1.079 -0.542 -1.131 0.519 -0.386 1.489 0.048 -0.640 -0.102 -1.191 -0.881 -0.810 1.107 1.713 -0.406 1.012 0.746 -0.845
-0.420 1.172 0.210 -0.194 0.197 -0.324 -1.199 0.841 0.508 -0.165 -1.236 1.586 -1.060 0.729 -0.175 1.024 -0.015 2.885 1.191 -1.054 -0.933 -0.042 1.614 0.172 1.687 0.865 0.838 -0.883 0.132 -2.190 -0.333 1.244 0.305 0.376 1.003 -0.962 1.690 -0.752 0.349 -0.934 0.680 -0.279 -1.243 -1.645 -0.797 1.318 -0.652 -1.012 -0.072 -0.104 -0.589 -1.162 -0.062 2.103 0.732 0.585 0.963 -0.049 -0.258 -1.814 0.846 -0.200 -0.833 0.684 -1.631 -0.595 0.446 -0.631 -0.176 1.995 2.037 1.053 -0.074 0.500 -0.293 0.243 -0.553 0.787 -0.633 0.060 -0.674 2.083 2.107 1.151 -0.181 1.087 0.665 1.020 2.448 -1.017 -1.289 -0.386 -0.393 1.260 1.344 -0.311 -2.189 0.796 1.291 -0.420
-0.404 0.848 0.324 0.935 0.284 -0.820 0.526 0.751 0.312 0.564 -1.284 1.703 -1.270 -0.520 0.942 0.518 1.759 -0.372 0.972 -0.620 1.434 -0.809 0.086 -0.884 0.801 3.120 -0.326 -0.101 0.259 -0.692 1.024 2.989 1.659 0.945 0.218 1.280 0.507 -0.250 0.070 1.996 -0.570 0.965 -0.729 0.472 0.511 -0.528 1.104 -0.075 -1.151 1.124 0.227 1.081 1.770 -0.708 -0.915 0.026 0.483 0.917 0.726 0.320 0.596 -0.371 -0.472 -0.878 1.534 -0.425 -1.639 -0.581 -0.306 -0.638 -0.292 0.763 -1.436 0.402 -0.614 0.141 1.218 -0.770 0.591 -1.233 1.506 -0.048 -2.037 -0.638 -1.931 -0.076 -0.089 -1.528 0.403 -0.133 -2.488 0.083 0.033 -0.569 -0.311 -0.689 1.895 -0.384 -0.819 -1.608
0.711 2.604 -0.377 -0.503 -0.247 -0.181 -2.493 -0.747 -0.312 0.686 0.123 -1.942 -0.383 -1.072 -0.092 0.063 -0.123 -1.489 -0.213 1.163 -0.910 0.064 -2.190 -1.690 -0.151 0.555 0.036 -0.451 0.416 0.598 -0.397 -0.789 -1.141 1.001 1.006 -1.243 0.686 0.039 0.748 0.929 0.741 0.499 -0.677 -0.976 0.989 -0.176 -0.227 -0.988 -0.212 -1.049 0.346 0.980 0.507 0.101 0.146 0.274 1.211 -0.981 0.215 -1.463 0.199 0.073 -1.792 -0.332 -1.095 -0.602 2.121 -0.297 0.175 0.721 0.450 -0.505 1.014 0.995 -0.896 -0.658 0.625 -0.295 -1.780 -0.095 0.847 -0.749 1.575 0.193 0.254 0.429 -0.228 -1.218 0.732 0.837 -1.018 1.251 0.974 -0.079 -1.433 0.629 0.064 0.510 -0.515 1.262
0.081 -0.920 0.047 0.374 0.751 -1.855 -0.736 1.812 0.980 -0.404 0.844 0.746 0.097 0.875 -1.915 0.336 0.260 -0.392 -0.914 -1.619 -0.052 0.135 -0.509 -0.763 -0.679 -0.718 -0.239 1.045 2.099 -1.386 -0.180 -0.545 -1.255 0.906 2.372 1.652 0.185 -0.140 -0.239 1.477 -0.743 0.635 -2.057 -2.087 1.452 -1.178 0.174 0.247 -0.055 0.266 -1.381 -1.155 0.013 1.079 1.792 0.225 0.673 1.187 0.540 -0.528 1.206 -0.202 1.094 0.468 -0.949 0.485 -1.216 0.785 0.801 0.171 0.415 0.282 0.582 0.586 -1.391 -0.034 -0.254 0.515 -1.038 -0.463 -0.251 -1.292 -0.397 1.162 0.579 1.354 0.568 0.894 -0.498 -0.721 -2.485 0.385 0.393 0.393 -0.311 -0.004 0.653 -0.958 -0.286 -1.708
-0.510 1.219 -0.101 -0.312 1.286 0.428 0.397 -0.350 0.132 -0.925 -0.267 0.395 0.099 0.356 -1.295 -1.850 1.519 -0.257 0.424 -2.013 -0.372 0.921 -0.763 -0.745 0.766 -0.013 -0.358 0.703 0.031 0.593 0.149 -0.354 -0.662 -0.051 -0.189 1.308 -0.427 -0.308 -1.245 -0.834 -0.361 1.300 1.683 -0.291 0.968 0.509 -1.659 0.198 0.659 0.033 -0.058 -1.477 0.955 0.267 1.086 0.215 0.843 0.612 -0.224 0.005 -0.941 0.863 -2.112 1.455 0.260 0.192 -0.493 0.129 -0.049 0.161 -0.989 0.309 2.096 0.169 -1.439 -1.503 -0.278 0.368 -1.628 -0.579 0.335 -0.125 0.137 0.096 -0.229 -1.174 -0.718 -0.705 0.323 -0.606 -1.184 -1.396 1.590 1.175 0.229 1.703 -0.450 -0.803 -0.506 -1.373
-0.317 0.257 0.681 -0.478 -1.230 0.458 0.065 -0.291 0.015 0.704 -1.671 0.593 0.204 1.328 1.757 -0.150 0.257 -1.497 0.641 -0.288 -1.633 -0.763 0.171 0.964 0.723 0.026 0.525 0.566 -0.150 -0.649 -1.170 -0.080 0.174 -1.429 1.057 0.687 1.481 -0.391 0.314 1.796 -0.644 0.204 -0.033 0.624 -0.892 -0.030 0.768 0.768 -1.241 1.045 -0.626 0.173 -0.814 1.359 -0.618 1.942 0.558 -0.526 -0.196 -0.410 -0.152 -0.754 1.510 -0.231 -0.975 -0.086 -0.391 -0.580 -0.440 -1.174 0.351 -0.991 0.451 -1.851 -2.543 -0.077 0.076 1.460 0.954 0.594 -0.058 1.541 -0.112 0.079 0.014 0.115 1.595 -1.726 -0.410 -0.942 -0.246 -1.096 -0.410 0.084 1.685 0.062 -0.341 -1.177 -0.071 0.104
0.156 1.185 -0.006 0.456 -1.379 -1.928 -0.320 -0.231 0.187 1.121 -0.268 -0.047 -1.471 0.698 2.142 -0.038 0.541 0.946 0.629 1.915 -0.261 -1.984 -0.013 -1.038 -0.457 -0.469 -1.122 0.705 0.292 1.032 1.285 0.719 1.320 -2.415 -0.579 -1.655 0.968 0.702 0.210 1.587 -0.110 -0.501 -0.809 -2.302 1.022 -1.698 0.184 0.439 -1.046 -1.232 -0.723 0.553 -1.076 1.781 -1.324 -0.833 -0.596 0.589 2.380 0.803 0.243 -0.744 0.108 0.455 1.029 -0.739 -0.154 1.062 -0.432 2.014 0.741 -1.551 -1.438 1.405 0.650 0.283 -1.401 0.528 -0.347 0.197 0.893 -0.378 1.270 0.373 -1.173 0.489 0.772 2.740 -0.617 -0.321 1.339 0.522 -1.107 -1.154 -0.371 -0.323 -0.506 -0.516 0.860 1.944
