Time: 30/03/2021 02:12:00
Batch size: 100
Epoch num: 5
Iteration per epoch: 120
Final loss: 2.30303
Train error rate: 0.87617
Test error rate: 0.88454


Initial weight:
# w1_0
-0.674 -0.276 -0.554 -1.017 -0.811 0.052 1.458 -1.248 0.928 0.844 -0.917 0.640 0.115 -2.385 -0.318 -0.280 0.319 -2.086 1.628 -1.098 0.433 -1.089 0.602 1.621 0.138 -0.361 1.271 -0.357 0.771 0.658 0.444 -0.106 -0.209 0.235 -0.206 0.281 0.533 0.671 0.666 -0.264 0.872 -1.423 1.155 0.152 -1.561 1.060 0.405 -0.641 -1.211 0.308 0.197 -1.029 0.339 0.953 -0.093 -0.117 0.878 0.038 -0.473 -0.426 -0.135 0.469 1.948 1.049 1.005 1.456 0.047 0.502 0.134 -0.517 0.058 0.288 -0.340 -1.318 -1.175 -0.452 -1.697 1.965 -0.124 -0.794 2.366 -0.261 0.646 2.231 0.077 -0.712 -2.208 1.428 1.037 0.349 0.554 -2.021 1.212 2.021 0.875 -1.342 0.950 -0.557 1.846 -0.885
0.061 0.926 0.788 -0.249 1.425 -1.309 0.142 1.384 -0.677 0.146 0.399 -0.491 0.199 0.830 -1.011 -0.899 1.602 2.394 0.447 0.135 0.546 -1.734 -0.457 0.516 1.166 -1.401 0.068 -0.070 0.874 -0.797 0.362 -2.067 -1.062 -0.887 -0.543 0.749 -0.346 -1.619 0.185 0.355 -0.151 0.509 0.537 -0.496 1.208 1.575 -0.748 0.398 -0.242 -0.049 1.017 1.795 0.478 1.026 -0.483 0.202 0.961 0.164 -0.233 -0.731 -0.186 1.265 -1.830 -1.379 0.139 -1.223 -0.068 -0.492 -0.405 0.909 0.322 1.172 -0.152 1.246 -0.293 -1.095 0.213 -1.023 -0.373 -2.185 -1.514 -0.995 -0.473 -0.269 1.544 -0.023 0.408 1.013 -0.111 1.152 -0.566 0.711 0.524 0.116 -1.473 0.706 1.038 -1.018 -0.810 0.941
0.644 -1.274 -1.091 1.200 -1.414 0.246 -0.813 1.678 -0.183 0.327 1.013 -0.448 1.181 -1.774 -1.895 -1.005 -0.467 -0.602 -0.440 -2.046 0.315 2.234 -0.783 0.506 0.648 -0.339 -1.576 0.445 -0.126 -0.845 -1.330 -0.623 -0.455 0.662 0.833 1.749 0.423 -0.100 0.484 -0.881 -1.328 -0.460 0.521 -0.403 0.407 -0.205 -1.091 0.277 0.823 -0.644 0.622 -0.150 -1.212 0.077 2.215 1.756 1.415 0.293 -1.480 0.516 -0.214 0.157 0.361 -1.380 0.274 0.019 0.824 0.006 -0.345 0.564 -1.459 -1.416 -0.922 0.182 -0.200 0.041 -0.850 -0.047 1.646 -0.966 -0.066 -0.392 -0.464 -0.196 -0.866 0.793 1.237 0.029 0.960 -0.895 0.691 1.785 -1.386 -0.361 0.971 0.156 0.802 0.279 1.642 0.906
-0.253 -0.201 -0.595 0.350 0.804 -0.387 -0.978 1.389 -0.181 0.923 1.003 1.345 -0.507 -0.301 -1.936 0.477 0.189 -0.896 1.131 -0.332 1.255 1.674 0.228 1.975 0.643 -0.107 -2.291 -0.588 0.574 0.034 -0.469 -0.429 0.197 -2.011 -0.217 -1.826 -1.112 0.719 0.719 -2.019 -1.474 0.869 2.205 1.176 -0.708 1.286 0.095 -1.097 1.686 1.097 0.110 -1.002 -0.949 -0.215 0.756 -0.113 -1.352 -0.159 1.247 0.761 -1.408 0.822 -0.580 -0.754 -0.287 0.645 0.621 -1.277 -0.703 -0.097 0.904 -0.134 0.661 -1.021 0.999 -1.085 -0.202 -0.026 -1.111 0.070 -0.089 -0.917 1.689 -1.137 1.547 -0.468 0.196 1.012 0.705 2.017 0.140 0.548 0.266 0.661 0.354 -0.117 0.118 -2.563 -0.214 0.544
1.302 1.607 1.589 0.450 -0.199 -0.143 -1.125 0.668 -1.038 -0.014 1.889 -0.329 -0.154 -0.049 -1.857 -0.058 0.115 -0.998 -1.435 -0.966 0.382 0.056 -0.196 -1.773 0.476 -1.433 -0.505 -0.202 0.421 0.400 1.019 0.620 -0.081 0.208 -0.306 -0.848 1.371 -0.521 1.845 -1.062 1.352 -0.686 -0.744 -1.184 0.411 0.522 1.198 -0.001 -1.303 0.963 0.214 -0.156 -1.079 -0.257 0.018 0.497 -0.555 1.754 -1.263 -0.884 0.742 -0.369 -0.916 0.340 0.845 -0.468 0.396 -1.696 0.443 -0.565 0.904 -0.691 0.156 0.129 1.407 -0.868 1.477 0.448 1.522 1.412 -0.200 -1.121 -0.719 0.395 -2.558 0.289 0.154 -1.917 -0.551 1.435 1.652 0.787 0.164 -0.122 0.494 -0.079 -0.512 1.465 0.866 1.002
1.020 0.947 -0.170 -1.143 -0.273 0.959 -0.489 0.075 0.221 0.165 -1.256 -0.620 -0.392 -0.620 0.279 0.544 -0.438 0.806 0.304 -1.630 0.890 -0.479 0.908 0.319 0.471 0.864 -2.052 -0.120 1.087 1.502 1.037 2.018 -0.449 -0.846 -1.886 -1.021 0.590 -0.352 1.178 0.447 1.416 0.092 -0.844 -1.121 -1.632 0.957 0.805 0.152 -0.859 -1.078 0.117 -0.788 -0.143 -0.019 0.132 -1.399 1.277 -0.409 0.876 0.353 -0.443 -0.451 0.568 -0.835 0.893 0.118 0.736 -1.415 -1.262 0.531 0.113 -1.868 0.542 -1.812 0.244 2.385 -0.153 -0.638 0.261 -0.352 -0.654 1.976 0.141 1.618 -0.189 0.733 -0.159 1.428 0.187 1.708 1.031 0.903 -0.353 -2.451 0.740 0.802 -0.326 1.188 -0.102 0.739
-1.217 2.231 0.085 -0.428 0.983 -2.559 -1.034 -1.536 -1.301 -0.779 -0.207 -1.057 0.457 -1.315 -1.308 0.738 -0.254 0.946 -1.176 -1.323 -1.208 0.179 -0.360 0.347 1.109 0.142 -2.108 -0.501 -0.492 -2.150 -0.720 -0.253 -0.464 -0.429 0.782 1.096 0.821 -1.467 0.992 -1.070 0.843 -0.056 0.838 -1.295 2.021 -1.322 0.285 0.493 -0.934 0.337 0.320 1.294 0.147 -0.731 0.484 0.572 0.656 0.440 -0.837 -0.554 -0.132 -0.808 1.281 0.103 -0.362 -1.049 -0.502 -1.148 0.067 -0.815 -1.066 -0.192 0.957 -0.006 -0.653 -0.427 -0.042 -1.327 0.100 -1.915 0.415 -0.005 0.275 1.212 1.063 1.553 -2.181 0.226 -0.024 -0.635 -2.410 -0.367 -1.320 0.524 -1.247 1.573 0.520 -1.056 -0.680 1.165
2.052 -0.290 0.110 0.176 1.446 -0.163 1.016 0.927 -1.118 1.050 0.352 -0.311 0.042 -1.700 0.973 -0.297 -0.101 -0.545 -0.666 -0.759 -0.903 -0.941 0.741 -0.987 -0.258 -0.830 -0.560 0.935 -0.638 2.349 -0.070 0.648 0.438 0.835 -0.225 0.782 -0.065 1.460 -0.519 -1.419 -0.520 -0.125 0.613 0.838 -0.755 0.714 0.747 1.513 0.886 -0.364 1.353 0.991 -0.328 0.899 -1.619 0.486 0.051 -0.843 -0.409 1.843 0.625 0.475 -0.443 -0.372 1.134 0.620 -1.522 -1.262 -0.418 -1.148 0.049 0.715 -0.163 -0.027 -1.759 -1.524 -1.028 0.400 1.084 -0.033 -0.787 -0.909 0.164 0.474 -0.558 1.946 -0.754 1.377 1.460 0.728 -0.892 -0.349 -0.478 -0.618 -1.211 -1.792 -1.371 1.028 0.480 -1.272
1.034 -0.427 2.054 1.529 -1.670 1.645 -0.757 0.635 -0.766 -1.122 -0.579 -2.092 -0.563 0.214 0.297 0.971 0.676 1.123 -1.337 -2.603 0.428 -0.368 -0.283 0.574 -0.341 0.780 0.581 0.878 -0.457 -0.731 -0.744 0.620 1.622 -0.635 0.779 -0.840 2.258 -0.112 -0.298 -1.099 -0.841 0.134 0.522 -0.027 -0.069 0.445 0.214 -0.343 0.030 -1.373 0.098 0.928 -0.473 -1.262 -0.617 0.678 -2.148 0.639 0.795 0.970 -1.086 1.190 0.897 1.584 -0.034 -0.812 -0.813 -0.462 -0.233 1.515 1.345 0.374 0.673 -1.116 -0.535 -0.212 -0.064 0.277 0.208 -1.568 1.104 0.453 0.094 -1.104 0.837 0.815 -1.438 -0.071 -0.602 -1.789 -1.668 -0.416 0.864 0.677 -1.311 -0.373 0.099 -0.152 0.182 1.132
0.384 0.745 2.332 0.219 1.573 -0.306 -1.440 0.662 -1.198 0.457 0.480 -0.263 -0.376 -0.605 -1.811 -0.490 0.375 0.656 0.428 -1.362 -1.519 0.134 1.363 1.611 0.756 0.318 -0.524 0.731 -0.727 -0.870 -0.551 0.845 -0.689 -0.264 -0.161 1.008 0.981 -0.560 0.848 -0.025 -0.854 1.592 2.264 0.192 -0.092 -0.915 1.421 -0.381 -1.014 0.866 -0.247 -0.946 0.398 0.230 -1.523 -0.244 2.766 1.897 1.183 0.611 -1.377 2.184 -1.646 -0.142 -0.566 -1.540 0.543 -1.509 -0.318 0.706 -0.271 -0.742 0.802 -0.228 0.883 -1.055 0.653 -1.871 0.108 0.944 0.115 0.153 0.323 0.233 0.950 0.470 1.084 -0.350 -1.808 0.336 -1.692 -0.891 -0.619 -0.182 0.181 -0.370 1.469 0.470 1.061 -1.180
-0.567 -0.137 0.187 -0.442 -1.007 1.037 0.480 0.571 -0.808 0.663 1.076 -0.929 -1.353 1.358 1.039 -0.167 -0.068 -0.020 0.837 -1.277 -0.178 -0.171 -0.204 -0.901 -0.334 -0.025 -1.107 -0.451 3.462 0.769 0.069 -0.194 -0.971 0.383 -0.619 -0.220 1.563 0.961 0.163 -1.523 0.433 -0.069 0.023 -0.607 0.444 0.722 -1.177 1.092 0.245 -0.459 -0.025 -0.151 0.344 -1.128 0.583 0.348 -0.035 -1.265 -0.651 -0.678 -0.211 0.562 0.154 -1.509 -0.721 -1.258 0.203 -0.784 -0.368 -0.390 0.434 -1.363 -0.415 -2.219 0.058 -0.851 -0.721 0.257 0.900 1.624 -0.183 0.761 -0.444 0.744 0.881 -1.388 -1.760 -0.178 0.090 0.659 -0.132 0.111 -2.378 -0.522 0.961 0.203 0.666 -0.329 1.268 -0.734
0.491 0.575 3.665 0.966 -1.143 -0.846 -0.955 -0.147 0.551 2.211 -0.835 0.645 1.596 -1.380 1.113 -0.626 -0.397 -0.744 0.320 -0.996 0.924 -1.269 0.842 -0.371 0.893 0.215 -0.468 -2.137 0.020 -1.130 0.784 1.585 1.258 -0.193 -0.483 -1.626 0.044 -1.428 1.864 2.799 -0.551 0.427 -1.684 -0.408 1.828 0.269 -1.807 1.302 -0.430 1.380 -0.281 0.396 0.280 -1.310 -0.307 -0.567 -0.675 -1.270 -0.239 1.214 -0.450 2.069 -0.152 0.195 0.925 -1.242 -1.672 -0.654 0.517 -1.520 -1.206 -0.155 0.825 0.986 0.215 -1.455 -1.144 -0.768 0.664 1.342 -0.017 -1.481 0.111 -0.091 -2.727 -0.116 0.487 0.888 1.700 -0.860 0.679 -0.843 0.744 -0.911 0.198 -0.698 1.922 -1.433 -0.139 0.465
1.326 -0.931 0.324 -1.286 -2.763 1.132 -1.270 1.962 2.396 -0.538 0.169 -1.315 0.834 -1.279 0.292 -1.439 1.255 -1.886 -1.216 -1.415 -1.307 -0.828 -1.370 0.788 0.436 0.392 -0.883 -1.117 1.316 1.096 1.538 -1.024 0.625 1.230 0.007 -0.222 -0.161 -0.159 -0.337 -0.713 0.454 -1.019 -0.985 1.577 0.112 0.255 -0.571 2.141 -0.912 1.478 -0.736 0.187 2.462 0.326 1.711 -0.068 -0.980 -0.170 -0.101 1.070 -0.582 0.244 2.197 0.786 -0.014 1.682 -0.690 -0.192 -0.975 0.561 -0.386 -1.179 -1.957 0.510 0.301 0.764 0.093 -1.530 1.223 -1.386 -2.321 -2.348 -0.054 1.174 0.564 -1.740 -0.715 -0.224 -0.877 0.080 0.377 -1.144 -0.881 1.304 0.214 -0.442 0.705 -0.645 1.359 -0.277
0.100 -0.435 -0.849 0.576 1.198 0.027 -0.065 -0.496 -0.502 -0.273 0.415 -1.111 1.400 0.411 0.865 -1.075 -1.555 0.138 -0.094 -0.885 -1.084 -0.325 -1.359 1.056 -0.296 -0.119 -0.750 0.644 -0.859 -0.161 -1.116 -0.728 -1.078 0.941 -0.151 0.396 -0.842 0.563 0.726 0.748 1.101 0.035 1.989 -0.280 0.138 0.864 0.747 -0.075 0.352 0.509 -1.632 0.797 0.059 2.095 -0.412 -0.881 -0.408 -0.365 0.003 -1.377 0.048 -1.602 0.277 1.530 0.463 1.000 -0.341 0.374 1.193 -1.804 0.690 -0.009 0.575 1.214 0.091 1.256 0.447 -0.777 -0.170 -0.200 1.271 0.975 2.344 -0.208 0.390 0.079 -0.440 0.975 0.246 -1.024 0.184 -2.162 -1.225 1.150 0.718 -2.253 -0.237 0.394 -0.000 0.034
-0.816 0.015 0.759 -2.188 1.685 1.103 -0.956 -0.194 -0.431 -0.905 1.920 0.369 -1.580 0.163 -0.932 0.028 -0.193 -0.088 -1.546 -2.566 1.917 0.732 0.516 0.447 0.281 -0.222 -1.984 -2.145 0.071 0.117 1.052 1.833 2.854 0.210 -0.544 -1.637 -1.047 0.768 1.660 0.939 1.082 -0.161 0.878 -2.477 -1.688 -0.549 0.683 1.119 -0.532 -1.446 -0.075 -0.034 0.779 -1.499 -0.030 0.942 1.362 0.310 -0.355 1.385 -0.498 -0.170 -2.710 -0.717 1.327 2.457 0.483 0.137 -0.043 1.199 -1.416 1.585 0.322 0.820 1.178 1.274 0.375 -0.276 1.024 -0.580 0.638 0.868 -1.417 1.848 0.364 -1.699 2.488 0.601 0.704 2.174 0.265 -0.031 1.662 -0.349 -0.338 0.039 -0.694 -1.009 -1.304 0.652
-0.711 0.785 0.074 -0.396 -0.297 0.024 -0.115 -0.614 -1.054 -0.027 0.212 -0.681 0.082 0.661 0.107 0.834 -0.022 -0.350 0.973 0.587 -0.686 0.948 -0.985 -0.986 -0.174 0.732 0.180 -0.126 -0.730 -2.461 1.287 1.313 -1.831 -0.958 0.819 -1.076 0.256 -0.437 -1.056 -0.666 -0.193 0.804 -0.006 -0.908 -0.606 0.800 0.926 -0.311 -0.249 1.270 -0.535 -1.312 -0.383 0.146 0.817 -0.769 -1.775 -0.329 0.452 0.729 1.052 1.273 -0.224 0.482 -0.639 -1.715 0.412 -0.143 -0.732 1.497 0.391 -0.589 -0.230 0.916 1.657 -1.335 0.708 -0.602 -2.161 1.127 -0.441 -1.188 -0.355 0.519 2.106 -0.497 1.631 1.509 1.053 -1.416 1.416 0.170 1.529 0.600 -0.375 -1.334 -0.463 1.291 0.916 0.464
-1.099 2.339 0.139 -0.812 1.423 0.053 -0.672 1.214 -0.426 -0.863 -0.513 1.246 0.323 -1.069 1.408 0.307 -1.227 -1.119 0.726 0.645 -0.826 -0.797 0.571 -0.233 0.409 0.161 0.712 -0.031 -0.785 -1.609 0.119 -0.094 1.163 1.168 0.310 -0.033 0.001 -0.144 -0.623 0.429 0.909 -0.671 -1.590 -1.624 0.553 2.182 0.852 0.579 0.737 1.929 0.961 -0.080 -1.062 0.402 -1.539 -1.315 -1.385 0.354 -1.277 -0.756 -0.716 0.199 0.141 0.353 0.371 -0.218 0.888 0.070 0.566 -0.971 -2.219 -1.570 1.179 -0.986 -0.271 0.892 1.366 -0.376 -0.659 0.555 -0.825 0.810 -1.399 0.463 0.697 -1.463 0.895 -0.317 0.474 -1.641 -1.149 1.846 1.783 1.710 -0.073 0.323 -1.548 0.883 0.297 0.410
0.668 0.980 0.280 0.926 -0.697 -1.870 -1.431 -0.284 -0.999 -1.569 -0.649 -1.745 -1.622 -1.043 1.250 0.346 0.372 -1.175 -0.663 -0.676 -1.183 0.055 -0.630 -1.079 0.534 1.072 -0.029 -0.820 0.525 -0.454 -0.021 -1.018 -0.990 -0.613 0.927 0.660 -0.280 -0.445 -0.281 -1.511 0.012 -1.015 0.832 0.258 0.423 -1.183 -1.444 -1.464 -0.313 -2.183 -0.347 1.505 1.630 0.688 -1.953 0.990 -0.605 0.510 -0.123 0.923 0.882 1.000 0.876 1.602 1.590 -1.055 -0.940 -1.086 0.188 -0.119 0.026 0.323 -1.524 0.281 0.151 -1.253 -0.671 0.872 0.958 0.319 -0.071 1.209 0.861 0.677 1.393 0.931 -0.429 -1.675 -1.167 0.810 1.576 0.142 0.739 0.527 -1.600 1.438 -0.469 -1.439 0.051 -0.545
0.166 2.089 -2.115 0.341 -0.826 -0.867 0.545 -0.444 0.996 0.151 -0.090 -0.788 0.782 1.414 -0.980 -0.669 0.648 -0.616 1.514 1.009 -0.528 -0.696 0.811 -0.483 -0.404 0.764 -1.294 0.729 0.384 -1.310 0.544 -0.217 -1.332 0.083 -1.684 -1.517 -1.453 -1.037 0.780 -2.803 0.546 0.004 -0.488 0.198 -1.074 2.379 -0.208 1.106 -0.371 0.672 2.332 -1.353 -0.959 -0.348 2.494 -0.403 -0.035 -0.640 0.613 0.945 0.566 -0.354 0.471 0.289 -1.689 -0.560 -0.113 -1.389 0.035 -0.197 0.947 0.007 1.070 -1.430 0.273 0.378 0.834 -0.180 -0.016 -1.085 2.158 -0.379 -0.921 -0.520 1.906 -0.363 -1.244 -0.012 -0.414 -0.643 -0.188 0.412 -1.800 -0.076 1.404 -0.768 0.530 0.274 -0.242 0.455
2.237 0.915 -0.175 -0.268 -1.548 1.402 1.714 -1.494 -0.431 0.444 1.251 -0.313 -0.526 -1.556 -0.397 -0.772 -0.363 -0.977 -0.693 -0.326 0.248 0.477 1.253 -0.879 -0.964 -1.121 0.611 0.984 -0.149 0.358 0.828 -1.767 -0.434 0.995 1.678 0.173 0.096 -0.208 1.037 -0.309 -2.104 -1.043 0.201 1.625 0.840 0.418 -0.879 -0.826 1.291 -0.673 0.150 -0.462 -0.761 -1.454 0.790 -0.442 0.409 0.381 2.283 1.117 0.776 -1.235 0.448 1.353 -0.398 1.100 0.519 0.807 -0.281 0.695 -0.102 -2.271 0.233 0.174 0.302 -1.287 -1.022 -1.053 -2.023 -1.036 0.392 -0.898 0.142 -1.314 0.796 0.439 -1.582 0.132 1.991 1.754 -1.153 -1.094 1.067 0.508 -0.399 -0.190 0.687 -1.259 1.795 0.106
-0.076 -0.109 1.163 -0.359 1.399 -1.137 0.593 0.393 -1.771 0.094 -0.979 0.984 0.575 1.575 -0.548 0.886 0.003 -0.570 0.776 0.800 0.856 -0.732 0.151 0.912 -0.637 -0.022 -0.808 0.540 -1.596 -0.942 -0.661 -0.423 0.574 -1.318 0.149 -0.523 -0.634 0.219 0.300 1.043 0.418 -1.742 0.510 -1.415 0.187 0.040 1.087 -1.575 -0.382 -1.969 -2.428 1.676 1.525 0.592 -0.668 0.018 -0.014 0.537 0.076 -0.274 0.111 -1.223 1.668 -2.275 0.736 0.997 0.081 0.917 0.745 -0.423 0.087 1.611 0.579 -0.079 -0.796 -0.063 -0.197 -0.331 0.491 0.459 -0.759 -0.253 -0.260 -0.870 2.421 0.758 0.222 1.001 1.637 -1.212 -0.038 0.757 1.521 0.707 -1.682 1.241 -0.433 1.195 -0.720 -1.002
0.220 -1.543 0.537 -0.315 0.789 -0.957 0.704 1.031 0.143 1.431 0.306 0.784 -1.173 -0.707 -0.176 -0.606 0.375 -1.008 0.757 1.408 -0.181 -0.491 0.049 0.803 -0.487 0.586 -0.326 -0.605 0.280 -0.391 0.986 -0.696 -2.608 -1.016 0.852 -0.724 2.352 0.342 1.358 1.073 0.608 0.981 -0.289 -0.223 -0.156 -0.352 -0.148 -2.084 0.735 0.180 0.782 2.066 1.921 0.264 1.452 0.223 -1.904 -0.786 0.000 -0.081 -2.309 -1.189 0.171 0.400 -2.192 0.736 0.114 -0.748 -0.706 -0.028 1.458 0.898 0.675 2.001 1.124 2.381 -0.872 -0.316 0.211 -0.738 -0.202 0.236 -0.895 0.651 0.428 -0.002 -0.590 -0.787 -0.372 1.409 1.233 -1.598 0.812 0.540 2.445 -2.041 -1.850 -0.800 -0.381 -0.580
0.033 -0.546 -0.490 1.601 1.053 -0.112 -1.529 0.380 0.184 1.454 -0.223 2.191 -0.389 0.699 -0.601 1.078 1.077 0.659 0.543 -0.297 1.137 -0.341 -0.557 -0.036 -1.392 1.484 -0.667 -0.971 -0.202 -0.772 -1.622 0.159 0.417 0.093 0.798 0.687 -0.131 -1.172 0.265 -0.609 -1.152 1.353 0.028 -0.853 -0.507 -1.870 -1.537 0.028 1.105 -0.000 0.448 -2.112 -1.448 1.164 -0.607 0.852 -3.032 0.819 -0.302 -0.079 0.037 3.153 2.169 1.280 2.029 -1.732 -1.641 0.778 -0.522 0.297 0.363 -0.336 1.097 1.987 -0.610 -0.562 -1.186 -0.710 -1.044 1.475 -0.203 0.892 -1.065 -0.737 0.395 1.510 0.243 1.043 -1.818 2.364 -0.523 0.634 0.806 0.710 2.232 -0.790 2.026 -1.626 0.072 0.789
0.083 0.880 -1.348 -0.476 0.929 0.445 1.285 -0.535 -1.751 0.824 2.057 -0.733 0.972 0.324 -0.617 0.253 0.331 1.526 1.080 -0.134 -0.181 -0.405 0.118 -0.085 0.627 -1.851 -1.037 -1.337 -0.185 -0.824 1.055 0.241 -2.138 -0.668 -0.337 0.742 -0.121 -0.424 0.490 -1.123 1.451 1.470 -0.096 0.429 -0.285 -0.398 1.041 -0.028 1.463 0.486 -0.197 0.076 1.122 -0.109 -0.159 0.369 -1.210 1.480 0.003 -0.068 1.278 0.450 -0.080 0.634 0.705 -0.821 0.217 1.205 -1.161 -0.313 1.285 1.178 -0.833 -0.519 0.434 -0.036 0.760 0.138 -1.948 -0.764 1.244 0.094 0.447 0.132 0.118 -0.038 0.557 -0.741 -1.390 0.002 0.309 1.340 -0.093 1.677 0.794 -0.357 -0.404 0.177 0.349 0.992
0.920 0.221 -0.825 0.913 -1.352 -0.349 0.543 -0.382 -1.674 0.819 0.392 0.303 -0.323 -0.005 0.633 0.184 -1.102 0.033 0.238 -0.694 2.365 -0.081 -0.121 -0.362 0.981 -1.141 0.409 -0.044 -0.469 -0.565 -2.048 1.145 0.356 0.652 -1.434 1.205 -0.870 -0.413 -0.296 -2.010 1.167 1.753 0.080 -0.658 -0.067 -0.882 0.571 -0.965 -0.365 -0.119 2.408 -0.404 0.984 -0.018 -0.664 -0.876 -0.440 -0.465 -0.220 -0.380 0.131 -0.042 0.251 0.661 1.319 -1.080 -0.062 0.690 0.048 1.317 0.123 -0.487 -0.878 1.646 0.705 -1.142 0.496 -1.240 0.527 -1.104 -0.184 1.919 -0.850 -0.645 -0.818 -0.769 0.229 -0.577 0.520 0.938 -0.832 -1.398 -0.307 0.754 -0.234 -0.992 0.207 1.647 -0.066 0.183
-0.235 -0.033 1.171 1.545 0.446 0.697 -0.384 -1.487 0.722 -1.621 -1.208 -1.051 -1.169 0.610 -0.749 -1.308 0.681 0.754 0.268 1.070 0.749 -0.603 1.347 -0.830 0.365 0.803 1.548 -0.349 1.388 -0.472 -1.084 0.670 -1.700 -0.535 1.060 1.020 -0.012 -1.034 -0.079 0.154 -0.220 -0.126 0.553 -1.575 -0.691 -1.026 1.244 0.515 1.698 -0.139 0.371 0.269 -1.099 0.382 -0.055 0.524 2.236 -0.645 -0.802 0.366 1.250 -1.694 -0.038 -2.647 -0.641 0.177 1.350 -0.610 0.847 1.197 0.169 0.055 -0.871 0.520 -0.360 1.369 0.169 0.876 0.017 -0.421 0.421 0.742 -0.736 -1.169 0.344 0.367 0.968 0.159 0.236 -1.472 0.323 0.162 0.321 1.750 -1.868 0.834 0.106 2.023 0.368 1.772
-0.612 0.238 -0.868 0.202 -0.884 -0.695 1.436 -0.255 -0.136 -0.727 -0.451 1.099 -0.449 -0.366 0.271 -0.864 -0.298 0.176 0.126 -0.746 0.213 0.178 -0.608 -0.301 1.878 -0.207 -0.277 0.017 -1.331 -1.097 1.102 1.014 -1.171 0.225 0.668 0.367 -0.222 -1.743 0.438 0.260 0.469 0.477 0.165 -0.304 -0.200 -0.750 0.613 -0.377 -1.161 0.160 -0.053 -0.254 -1.730 0.493 -0.383 0.734 1.524 -0.954 -0.519 -0.829 -2.059 -1.171 0.726 0.303 -0.350 -2.220 2.733 0.524 -0.135 -1.816 0.217 -0.083 -0.846 0.658 -0.484 0.211 -0.294 0.748 -1.375 -1.251 1.306 1.402 2.493 0.536 0.136 0.448 -2.077 -1.411 -0.739 1.100 0.271 0.566 1.569 -1.341 -1.693 1.288 1.046 1.196 1.651 -0.960
0.243 0.311 0.245 2.083 -1.854 -1.437 -0.217 -0.294 0.045 -0.112 -1.161 -1.253 0.156 2.110 -0.675 -0.793 1.700 -1.343 1.988 -1.205 -1.082 -0.763 -0.176 -0.589 0.199 -1.078 0.342 -0.027 -1.692 0.104 -2.111 0.163 -0.084 -1.414 -0.461 0.567 0.922 -0.193 0.051 0.192 -1.172 -1.349 0.229 0.013 0.554 0.454 0.106 0.422 -0.206 -0.496 1.023 -0.139 -1.438 1.477 1.203 -0.124 -0.407 0.105 -0.772 0.127 0.243 0.278 0.321 -1.435 1.228 -0.163 -0.934 -0.784 0.361 0.111 0.289 -2.550 -0.689 -1.485 -0.409 -0.938 1.550 1.145 0.510 -0.624 -0.053 1.490 -0.170 1.348 0.971 0.206 0.804 -1.168 -0.470 -1.365 -0.813 -0.131 -1.456 -0.587 -0.170 -0.428 -1.246 -0.442 -0.840 1.617
-0.396 0.633 0.422 1.442 -1.609 1.234 1.266 -1.629 -1.504 -1.279 -0.814 0.231 -0.609 -1.080 -0.139 0.798 0.017 -0.454 -0.885 1.487 -0.640 0.746 1.286 -0.106 -0.734 0.548 0.809 -0.527 0.689 0.693 0.157 -0.875 0.521 0.336 1.850 0.308 -0.058 1.914 -0.925 0.806 -2.394 -2.904 0.219 0.396 0.469 -0.011 -1.051 -1.384 -0.305 -0.855 0.043 0.479 0.224 0.996 -0.412 -1.321 -0.787 -0.251 0.954 -0.804 -0.441 1.335 -0.418 -1.097 0.120 -0.370 0.984 0.542 -0.061 1.134 -1.195 -1.067 0.437 -0.423 -0.062 -0.200 1.456 0.791 0.401 -1.805 0.306 -0.996 -0.144 1.835 0.162 -0.665 -0.750 0.437 0.910 1.225 -0.094 -0.344 0.389 0.494 0.923 -1.183 1.851 0.341 0.062 0.010
0.663 -0.031 1.007 1.718 1.614 0.382 -1.091 1.471 0.174 0.521 1.431 -0.016 0.065 -1.027 -0.712 0.184 0.684 1.255 1.843 1.077 0.517 0.031 -1.882 0.720 0.202 0.696 0.268 -1.342 0.160 -0.599 -0.102 0.207 -0.787 0.639 -1.886 0.078 0.663 -0.733 -0.487 1.679 -1.346 -0.728 1.025 -0.322 0.031 -0.074 -2.303 0.721 0.367 -0.290 0.994 -0.121 -1.224 1.921 0.749 -0.774 0.451 -0.676 1.084 1.054 -0.639 1.413 -0.240 -1.185 -0.620 0.940 -0.435 -0.514 -1.255 -0.464 -0.018 -0.311 -0.304 0.537 0.687 -1.589 -1.023 -0.152 0.435 -1.331 -0.847 -0.732 -0.647 0.283 0.794 1.207 -0.383 -1.741 -1.195 0.652 -0.008 0.059 0.717 1.255 0.587 0.473 1.497 -0.487 2.308 -0.806
-0.427 -1.708 0.012 -0.019 -3.719 -0.025 0.255 -1.170 -0.307 3.612 0.890 1.231 1.468 -0.648 -0.498 0.750 -0.377 1.072 -1.349 0.990 1.164 -1.022 -0.447 0.245 -0.038 0.326 -1.152 -0.178 0.406 -0.612 -1.519 0.612 -0.424 0.227 -0.495 -0.209 0.638 0.071 -0.300 0.527 -1.328 -0.316 0.794 -0.601 0.446 0.544 0.041 0.607 -0.239 0.347 -0.148 -0.923 -0.286 -0.624 0.024 -0.385 -1.564 1.478 -0.934 -0.714 1.144 -0.251 -1.931 -0.368 0.426 -0.639 0.054 -0.600 0.325 -0.532 -0.103 -2.017 0.170 -1.377 -0.305 -0.613 -0.088 -0.029 1.294 -0.082 1.538 0.978 -0.260 1.413 -0.850 0.280 -1.070 2.043 -2.724 0.898 0.537 -0.294 1.664 0.251 -1.343 -0.472 1.464 -1.693 -0.367 0.478
1.612 -0.907 2.821 0.352 1.055 0.758 0.408 0.312 0.823 2.107 0.170 -0.231 -0.653 0.708 0.676 0.533 -1.296 0.053 -0.492 1.105 1.579 -2.233 0.707 -1.082 -0.812 -1.636 -1.739 0.531 0.996 0.361 0.924 -0.447 -2.202 0.218 0.208 1.827 -1.339 -1.753 0.106 1.140 -0.567 0.297 0.209 -0.300 -0.696 -0.185 -1.086 -1.100 1.461 -1.767 1.011 -1.524 0.331 -2.343 -0.049 2.883 1.299 -0.555 -0.065 0.937 1.585 -0.265 1.466 1.200 0.010 -1.310 -0.368 -1.500 -0.165 1.102 -1.186 -0.563 -1.504 -0.295 0.460 -2.446 1.731 0.146 -1.290 -1.595 -0.367 -0.348 -2.011 2.574 -0.382 1.173 0.485 0.928 1.803 1.017 0.969 0.214 -0.093 -1.516 0.054 -1.148 -0.047 -0.226 1.155 -0.826
0.616 -1.145 0.334 0.865 -0.799 0.077 1.080 0.619 -0.755 -0.773 1.025 -1.854 -0.541 0.603 -0.453 -0.131 2.516 -0.385 0.135 -2.127 -1.495 1.809 -1.067 -1.913 1.305 0.546 -1.418 0.900 -0.363 0.044 -0.682 -1.521 0.001 0.208 -0.103 -0.646 1.626 -0.180 1.847 -1.068 0.070 -0.417 -0.884 1.191 -0.100 0.015 1.714 0.057 0.375 1.001 2.233 2.384 0.531 -0.858 1.562 1.607 2.016 -2.018 0.142 -0.221 -0.643 0.194 0.174 0.106 -0.230 -0.621 -1.034 0.788 -0.993 1.033 0.535 -1.025 -0.372 -0.565 -1.039 -1.009 -0.326 0.357 0.064 1.226 0.517 0.278 1.863 0.304 0.637 -0.568 -1.158 -0.651 1.102 -0.302 -0.777 0.781 -0.826 0.034 0.263 -0.653 0.899 1.468 0.072 -0.115
-1.648 -0.943 1.665 -1.218 -0.316 -0.109 1.108 0.003 0.735 1.485 -0.258 0.401 1.690 -0.451 -0.392 0.373 0.590 -0.505 -0.380 0.108 -0.852 -2.678 0.278 -0.456 1.509 -0.190 -0.062 1.559 0.791 -0.830 -1.360 -0.673 -0.133 -1.473 0.052 0.760 1.822 -0.914 -0.433 0.524 -1.348 -1.784 -1.844 -1.759 1.234 -0.238 -1.079 -0.975 0.431 -0.093 -1.216 0.592 -0.634 1.486 0.044 0.136 0.853 -0.923 1.704 0.475 -1.932 1.008 0.332 -1.510 -1.151 -0.594 -1.284 0.059 -1.052 0.073 0.631 0.613 0.857 -0.477 -0.010 -0.187 1.556 1.123 -0.307 -1.381 1.373 1.242 1.462 0.560 1.323 1.011 -1.664 -0.105 -0.108 1.235 -0.271 0.283 -0.175 1.585 1.434 0.546 -0.997 0.159 0.078 0.306
-0.411 -0.703 0.244 -0.296 0.658 -0.933 -2.367 1.763 0.584 1.300 0.392 -0.253 1.667 1.041 0.597 -0.808 -0.796 0.235 -0.179 -0.588 0.529 0.498 -2.122 0.503 0.267 1.505 0.677 -1.129 -0.495 1.162 -1.303 1.474 -0.343 -0.245 0.339 1.594 -0.371 2.595 -0.360 -1.278 1.046 -0.664 1.193 -0.130 0.379 0.353 0.721 -0.799 -0.274 0.924 -0.760 0.226 -0.068 1.230 1.266 -0.008 2.230 -0.346 1.563 0.289 0.661 1.587 -1.622 -1.188 0.629 1.423 -0.677 -0.108 -0.327 0.939 -0.671 1.361 0.627 1.176 -0.113 -0.703 -0.792 1.255 -0.775 0.900 0.064 0.592 1.239 1.232 2.717 0.123 -2.272 -0.601 -0.270 -1.378 1.732 -0.130 -0.197 0.657 0.229 -0.269 -0.264 1.469 0.059 0.940
0.515 -0.886 0.970 0.884 -0.274 0.305 0.254 0.180 0.032 0.511 0.319 -1.400 -0.448 1.307 -1.057 -0.577 0.136 0.956 -0.957 1.934 0.039 -1.213 0.172 0.072 -1.051 -0.589 1.110 -0.262 0.964 0.269 1.732 -1.532 0.418 0.573 -0.208 0.727 0.470 -1.725 0.338 0.088 0.838 1.813 -0.382 0.016 -1.764 0.368 0.948 -0.132 -1.502 0.784 -0.631 -0.671 -1.203 -0.159 -0.203 -0.118 0.753 -0.792 1.031 1.224 -0.577 -0.067 -0.466 1.049 -0.680 1.807 -1.103 0.747 0.652 -0.010 1.402 0.111 -1.238 1.057 -0.248 -0.579 0.143 1.617 0.596 -0.050 -1.376 0.125 -1.871 0.460 0.542 -1.540 0.169 -0.665 -0.426 1.083 0.886 -0.098 0.448 -0.583 -0.675 0.179 -0.507 -0.478 1.403 -0.199
-0.493 -0.716 -0.131 -0.748 1.476 -1.010 -0.388 -0.572 -0.121 -1.433 2.365 -1.512 0.311 -0.697 -0.205 -1.558 1.615 1.780 1.273 0.520 1.241 -0.307 0.346 -0.759 0.813 -1.115 -0.738 -1.094 -0.441 -1.804 -0.633 1.276 -0.756 -1.111 -0.109 0.332 -0.487 -0.438 0.687 -1.814 0.043 0.657 -0.742 -1.047 -1.737 -1.230 0.699 -0.353 1.731 0.563 0.716 -0.699 0.381 -1.204 -1.590 -0.473 0.702 -1.256 -0.020 -0.140 1.378 -0.929 0.324 0.697 -0.757 1.848 -0.333 -1.502 0.667 0.352 -0.180 0.508 0.142 0.758 -0.899 -2.906 -1.727 0.780 -0.082 0.380 1.277 0.166 -0.870 -0.909 -1.022 0.237 -0.374 -0.855 -1.101 -0.504 -0.778 -1.290 0.012 -0.010 -0.611 0.424 2.715 0.285 -0.290 -1.185
0.434 -1.789 -0.478 0.002 -0.845 0.013 -1.405 -0.270 0.286 1.763 -0.432 -1.093 0.079 1.101 -0.251 1.966 0.606 1.043 -0.686 0.326 -0.552 0.160 1.205 0.963 -0.541 0.349 0.606 0.395 -0.615 -0.876 0.376 0.425 -0.061 -0.930 0.499 -0.577 1.285 0.904 1.443 -0.286 0.102 -1.244 -1.579 -0.044 0.370 -0.753 0.117 0.089 1.306 -0.504 0.544 -0.483 0.980 0.125 0.936 0.170 0.470 1.962 -2.172 -1.384 -0.817 0.084 0.237 -0.645 -0.302 -0.388 -0.395 -0.225 0.035 1.108 -1.592 0.261 0.044 -1.548 -0.499 -0.028 0.191 1.123 -0.423 -0.515 -0.243 1.548 0.959 0.543 -0.002 -1.787 1.364 0.615 -0.639 0.172 0.761 -0.675 -1.253 0.727 -0.081 0.230 0.738 -0.335 0.970 0.053
-0.220 1.114 -0.251 0.430 -2.467 -0.058 -1.581 2.165 -0.929 2.661 -0.828 -0.853 -0.188 0.390 -0.425 1.327 -1.751 2.976 1.906 0.937 -1.477 0.119 1.171 -1.026 1.053 0.775 1.587 -0.821 0.331 -0.422 -2.393 -2.290 -0.443 -0.815 0.244 0.230 0.030 -0.485 0.685 1.736 -2.070 0.684 -1.226 1.104 -0.939 -0.242 0.762 0.170 0.761 -0.208 0.336 0.782 -1.094 -0.224 0.227 0.025 2.148 -1.860 0.209 -1.481 0.073 1.342 -0.964 0.203 -0.921 -0.824 -1.034 -0.130 -0.342 -1.194 -1.014 0.305 -1.088 -1.151 1.654 1.483 -0.887 0.108 -1.079 1.059 -1.483 0.625 0.718 0.524 -1.298 0.054 0.125 1.435 1.661 -1.340 0.728 0.905 -0.283 1.176 0.553 0.716 0.747 0.838 0.787 -2.005
1.350 -0.059 -0.987 -1.347 0.824 0.724 -0.500 -1.098 -0.242 -1.008 -1.898 -0.636 1.227 -1.466 0.372 0.880 2.226 0.056 0.414 0.415 -1.483 1.625 -0.867 0.132 -0.559 -0.289 -0.071 0.555 -2.604 -0.624 0.757 1.087 -2.074 0.123 0.307 -1.478 -1.139 -0.602 -1.289 1.399 -0.945 0.844 -1.689 0.137 0.210 -1.624 -1.701 0.511 -0.724 -0.042 -0.774 -0.444 -1.504 1.988 -1.469 0.372 2.407 0.239 1.575 1.271 0.324 1.185 -1.129 -0.335 -0.880 0.112 -0.122 -0.218 -1.603 -0.637 -0.378 0.802 0.530 -1.575 -0.661 1.288 0.247 -0.887 1.660 0.906 -0.382 0.130 -0.140 0.338 0.845 -0.339 -0.687 -0.112 -1.308 1.720 -0.523 -0.770 0.361 0.439 1.107 -1.154 0.441 0.853 0.501 -0.371
-0.893 -0.156 0.939 -0.481 0.819 1.433 0.850 0.363 1.146 0.811 1.201 0.437 0.682 0.803 0.585 -2.136 0.200 -0.227 -0.150 -0.669 -0.890 -0.548 -1.792 -1.163 -0.662 1.047 -0.667 0.199 0.549 1.148 -1.006 -1.082 -1.338 1.104 1.051 0.577 -0.299 1.476 0.135 0.281 -2.272 0.162 -1.525 -1.142 0.573 0.286 -1.701 0.132 -0.591 -2.746 -0.688 -2.273 0.460 -1.770 1.108 1.029 -0.643 2.296 0.707 1.108 0.045 -0.414 -0.551 -1.482 -1.592 0.928 0.565 0.348 -0.615 -0.390 -0.312 0.125 0.069 0.133 -0.371 -0.286 -1.451 0.183 2.333 0.257 -0.825 -0.258 -0.828 -2.119 -1.014 1.145 -0.510 -1.927 -1.477 -0.278 0.535 -0.038 1.598 -0.743 -1.309 0.883 0.005 0.275 -1.190 1.061
-1.148 0.968 1.404 0.517 0.449 0.101 -0.585 0.332 -0.764 -1.213 0.345 1.646 0.374 0.168 2.085 -1.152 2.040 -0.247 0.377 0.123 0.290 -0.758 -0.237 0.058 0.318 -1.968 -1.290 0.348 -1.601 -2.357 2.227 0.360 0.468 -0.608 -1.304 0.352 0.544 -0.717 0.640 -0.096 1.030 1.129 0.213 0.110 0.591 -0.204 -1.443 -0.279 2.216 -2.726 -1.095 -1.717 -0.520 -1.776 -0.579 -1.363 0.648 0.137 0.906 0.508 0.297 1.870 -0.056 0.261 -0.646 -1.096 2.400 -0.261 -0.806 0.093 -1.548 1.617 -0.263 1.027 -0.249 2.129 0.185 1.183 0.573 -1.545 0.144 1.019 -0.301 1.493 -0.917 0.239 -1.464 0.525 0.779 -0.525 1.173 0.226 0.448 1.508 -0.454 -1.088 0.647 0.948 -0.926 0.512
1.020 -0.082 0.701 0.298 1.227 -0.817 0.248 0.163 -0.260 -1.941 -0.309 0.171 -2.235 1.170 1.141 -1.939 0.412 -3.094 0.437 0.420 -1.571 -0.507 0.183 -0.275 -1.641 -0.634 -0.636 -0.008 1.188 0.361 -0.023 0.218 -1.896 1.726 -0.637 0.553 -1.070 -2.134 0.393 0.117 -1.485 1.706 0.326 -0.997 1.446 0.260 1.097 0.457 -0.479 -1.301 -0.460 -1.463 -0.638 0.862 -0.421 2.173 2.155 -0.756 -0.140 -1.612 -0.093 -0.610 0.965 0.493 -0.487 1.823 1.099 -0.547 0.568 0.762 0.293 0.170 -1.594 0.686 0.175 0.095 0.328 -1.300 -0.869 -1.374 0.364 1.645 0.295 0.612 0.513 1.431 0.186 0.614 -0.806 0.064 1.327 0.393 0.097 0.248 -0.203 0.554 -0.038 -0.990 1.024 0.362
-1.001 -0.236 -0.786 0.347 -0.256 1.307 -0.204 1.292 1.159 -0.340 -0.497 -1.466 -0.118 -0.951 0.917 -0.657 -0.263 -0.099 0.264 -2.269 0.436 -0.534 0.560 -0.284 0.815 0.406 0.826 0.238 -2.762 0.518 0.230 0.149 -0.134 -1.131 -0.430 -2.290 -0.775 0.473 -0.902 0.632 1.474 0.082 -0.825 0.771 -0.055 1.165 0.152 0.931 -0.803 -1.204 0.443 0.636 -0.784 0.350 -0.181 0.897 1.173 0.824 0.504 0.906 1.075 -1.857 -0.391 -1.492 0.612 -0.039 0.655 -2.068 -0.234 -2.725 -0.472 -0.008 0.365 0.153 -0.746 0.401 0.306 0.175 0.338 -2.000 -1.016 0.812 0.401 -0.370 0.164 -0.047 -0.992 0.079 0.811 0.417 -0.723 1.391 0.961 1.763 -0.488 0.396 -0.041 -0.947 1.161 0.387
-0.287 0.059 0.140 0.366 1.328 1.856 -2.097 0.272 0.881 2.433 1.080 -0.190 0.456 -2.167 -0.653 -1.023 -0.844 -0.667 0.310 2.359 0.846 -0.158 -0.618 -0.003 0.421 -1.679 -0.691 1.709 -0.029 -0.351 0.135 0.823 -0.091 -1.440 2.167 0.289 -1.230 1.109 -0.679 0.389 0.456 0.246 1.924 1.575 1.250 -0.581 0.354 -0.110 -0.534 -0.250 0.884 1.897 -0.368 0.102 1.250 -0.955 0.523 1.169 -0.061 -0.286 0.445 -0.908 2.570 -0.526 0.307 -0.430 -0.633 -0.318 1.540 0.480 0.396 -0.321 -0.319 -0.951 -0.520 0.979 0.053 1.628 1.045 1.854 0.998 -0.413 -0.749 0.115 1.223 -1.446 0.012 1.198 0.593 -1.204 -1.046 0.577 -0.243 0.150 0.982 2.462 0.718 -0.237 0.773 -1.425
-0.188 1.433 -0.906 1.263 0.638 1.218 -0.272 0.289 -0.146 0.396 0.282 -0.635 -1.541 -1.535 -1.943 -0.680 -0.396 0.911 1.406 1.572 -0.323 0.618 -0.685 -1.148 -0.919 0.856 1.763 -1.871 1.194 1.506 1.488 0.537 0.425 -0.035 -0.104 -1.143 -0.007 -1.907 0.039 -0.617 0.487 -1.454 -0.149 -1.477 1.132 -0.842 0.180 -0.258 -0.977 0.287 0.417 0.968 -0.475 -0.528 0.030 -1.246 0.071 -0.093 0.357 2.183 0.630 -0.540 0.684 -1.376 0.651 0.170 -0.812 0.924 -1.398 0.419 -2.152 2.202 0.215 -0.459 -1.634 0.391 -1.365 -0.302 -0.205 0.543 1.110 1.871 -1.408 -1.726 0.383 1.494 -0.357 -0.490 1.637 -1.161 -1.427 0.679 -1.027 0.243 0.174 0.770 -0.104 0.468 1.508 1.237
0.598 1.117 -0.383 -0.812 1.111 -0.442 -1.143 -0.584 -1.808 0.321 0.495 0.019 0.313 1.823 -2.073 -1.060 0.725 -1.268 -0.249 0.163 -0.935 1.413 -0.222 1.102 -1.794 -1.512 1.695 -0.232 -0.957 -0.272 0.762 0.974 -0.535 -0.292 -1.505 -0.717 -0.266 0.783 -0.987 1.255 -0.977 0.404 -0.356 -1.259 -1.083 -1.275 -0.049 1.153 -0.777 0.164 -0.014 -0.355 0.881 0.238 -1.106 0.009 -0.525 0.288 -0.883 1.621 0.496 -0.059 -0.262 0.865 -0.594 -1.560 -1.696 0.509 -0.879 -0.930 1.287 -0.073 -0.443 0.570 -0.825 0.037 -1.381 0.710 -1.319 0.838 -0.899 -0.519 1.156 -0.958 -0.348 -1.593 -0.198 0.076 -0.348 -0.118 -1.038 -1.054 -0.025 -0.334 -0.799 0.261 -0.543 -0.222 0.241 0.035
-1.202 -0.732 1.533 0.034 1.050 -0.995 -0.501 0.502 0.670 -1.868 -0.409 0.378 0.770 0.224 -1.040 -1.027 -0.141 -1.509 0.003 1.687 0.120 -0.588 -0.687 0.445 -1.430 -1.415 -1.273 1.394 0.473 0.644 -0.428 0.927 -0.314 -0.819 0.774 0.063 2.032 0.411 0.372 -0.183 -0.729 -0.778 -0.317 -0.270 1.334 0.411 -0.800 0.788 0.386 -0.317 -0.142 -1.774 -0.353 0.111 0.090 -0.322 -0.650 -0.763 -0.597 -1.025 -0.724 -0.399 0.373 0.414 1.801 0.954 -0.416 -0.251 -1.939 -0.975 -0.600 -0.909 0.823 -0.104 -0.799 0.532 1.028 0.751 -0.316 -1.718 -0.008 0.643 0.174 -1.150 0.600 -0.603 -0.870 -0.446 1.173 -1.214 -1.775 1.228 -1.110 -1.924 1.307 0.714 -2.094 -1.245 1.358 0.224
0.501 -0.584 -1.365 -0.393 1.167 -0.484 -0.937 -0.714 2.080 -0.496 -0.005 -1.679 0.027 0.164 -2.140 -0.544 -0.650 -0.019 -0.523 -0.169 2.819 -0.667 1.125 0.582 -0.800 1.062 1.158 0.900 -0.885 -0.240 1.343 0.278 0.295 -1.237 0.026 -1.207 0.020 1.445 0.040 -0.049 0.640 1.576 -0.830 0.089 0.485 1.407 1.686 -1.288 -1.167 0.914 0.091 0.371 0.314 -1.119 -0.726 0.438 -0.049 -0.532 1.570 -0.681 0.732 1.067 -1.304 -1.041 0.210 0.287 -0.314 1.194 0.779 0.678 -0.613 0.086 -0.613 2.078 0.938 -1.344 0.428 -0.385 1.372 -0.052 0.814 0.920 -0.698 -0.671 1.311 0.825 -0.101 -0.840 0.483 0.328 2.517 -0.085 -0.300 0.309 1.251 -0.220 0.522 -0.396 0.126 0.562
-1.888 -0.651 0.259 -0.098 0.106 1.056 0.238 0.625 -0.347 -0.392 0.809 0.372 -0.170 0.832 -0.195 0.181 -1.089 -0.635 -0.547 -0.236 0.559 0.919 -0.867 0.411 -1.018 -0.420 0.612 -2.555 -0.991 -0.707 -0.392 1.036 0.216 0.566 -0.885 -0.065 1.177 2.814 0.562 1.386 0.290 -0.204 -0.149 -0.868 -1.189 0.053 0.670 0.237 2.173 0.509 -2.015 0.158 -0.666 -0.749 2.268 -0.928 1.212 -0.472 -0.103 1.777 1.424 2.191 -1.023 0.055 0.357 1.810 0.041 -0.690 0.518 2.230 -1.667 0.059 1.066 0.202 0.332 0.078 -0.123 1.866 0.752 0.228 0.735 -0.363 0.339 1.768 -1.240 -0.638 -2.455 1.835 -1.469 0.560 -1.977 -0.644 -1.004 -0.060 0.244 1.719 -0.645 0.431 0.830 0.349
0.531 0.217 -0.873 0.908 -2.038 1.333 0.928 -0.959 -2.870 -0.904 0.502 0.361 1.236 0.096 -0.481 0.390 0.021 0.992 1.335 -0.760 0.079 0.500 0.988 -0.719 0.947 0.682 -0.443 0.590 0.141 0.122 0.088 -2.125 0.189 1.011 -0.711 -2.572 0.124 -0.213 -0.213 1.549 -1.436 -1.712 0.087 0.731 -2.209 -0.280 2.592 -0.319 0.277 0.366 -1.383 2.294 0.635 -0.629 1.871 -0.294 -1.064 0.308 -0.312 0.642 0.334 1.187 -0.938 0.882 0.575 -1.310 -1.080 0.712 -1.347 -1.623 -1.212 -1.238 -0.214 -0.456 -0.000 -0.732 -0.278 0.519 0.097 -0.153 -0.516 0.888 1.824 -2.550 -0.531 -0.869 2.013 -1.260 -0.151 0.158 -1.081 1.058 0.822 0.590 0.924 -0.285 -0.420 0.504 -1.744 -1.283
1.200 -2.115 0.319 1.645 1.171 0.323 0.541 0.286 -0.265 0.559 0.433 -0.741 1.089 -0.656 0.250 -1.262 -0.790 -0.595 0.084 -0.228 -0.024 1.888 -0.383 -0.254 0.367 -1.691 -0.139 -0.729 -0.042 -2.312 -0.706 1.506 0.521 -1.735 0.273 0.254 -0.211 -1.260 0.731 0.866 0.514 2.006 -2.292 1.707 0.508 -0.745 -0.672 -0.769 -0.784 0.193 0.102 -1.143 -1.509 0.399 -0.302 1.133 0.688 0.416 0.422 -1.593 -2.083 -1.420 0.816 0.867 0.469 1.928 -0.296 -1.541 -0.953 -1.079 -0.453 3.080 0.043 -0.280 2.086 1.597 -0.108 1.049 -0.625 0.186 0.915 0.435 1.236 0.317 -0.511 0.558 -0.710 -0.499 0.495 0.169 -0.334 2.800 0.021 0.813 2.366 -0.269 0.382 -0.116 -0.631 1.038
-1.570 0.217 0.867 1.129 0.045 0.303 -0.927 0.290 -1.070 2.183 -0.025 1.228 -0.846 -1.043 0.078 1.662 0.369 -0.699 1.154 0.547 1.701 -0.819 -1.931 1.507 -0.217 -0.201 -1.058 0.192 -0.058 -1.178 0.218 -0.536 -0.711 -0.619 -1.943 -0.353 1.248 -0.944 0.973 0.931 0.088 0.869 0.038 -1.635 0.193 0.241 -0.527 0.029 0.367 -0.268 0.040 0.799 0.069 2.030 -0.294 -0.424 -1.041 -0.873 0.251 0.683 0.436 0.342 -0.577 0.021 -1.181 0.251 -0.981 0.798 -0.431 0.162 -0.962 1.983 -1.104 0.420 1.404 0.074 -0.181 -0.134 0.226 -1.392 -0.497 2.028 1.031 -0.216 -3.351 1.316 0.249 -1.435 -0.000 0.126 0.919 0.868 -1.476 0.389 0.454 2.359 1.515 -0.484 -1.543 -2.267
0.182 0.090 -1.356 -1.367 0.180 1.729 -1.810 0.694 -0.869 2.146 -0.770 -0.370 -0.520 1.020 0.025 -0.137 1.239 0.950 2.141 1.783 0.281 -0.938 0.960 0.826 -0.011 -0.401 0.152 0.513 -0.837 0.797 0.361 0.757 0.365 -1.129 -1.893 -0.749 0.329 0.522 0.200 -0.183 0.380 -0.438 -0.500 -0.157 -0.486 -1.336 -0.588 0.157 -0.115 -0.515 2.530 -0.148 0.862 -0.195 0.615 -2.737 0.136 -0.780 -0.745 -0.115 0.563 -1.420 1.248 -0.681 0.380 0.939 0.461 0.671 1.594 0.489 0.522 0.020 0.641 -0.848 -0.949 -0.355 0.208 0.793 -0.776 0.947 -0.531 0.539 -2.019 -1.619 0.435 -0.228 -0.654 -0.814 0.337 0.673 1.599 1.183 0.314 -0.127 -0.266 -0.738 1.511 1.198 -1.198 0.110
-0.530 1.253 1.155 0.508 -0.534 -0.650 0.137 0.440 -0.438 0.558 1.376 1.099 0.653 -1.174 -0.533 0.848 0.571 0.465 0.468 2.022 -2.411 0.600 -0.094 1.737 -0.672 1.994 0.169 1.028 -0.310 0.293 -0.500 -0.095 -0.404 -0.193 0.173 0.720 0.485 0.354 0.131 0.063 2.094 0.585 0.517 -1.050 0.372 0.730 0.150 0.420 -2.446 -0.100 -0.865 -1.516 -1.135 -1.363 -0.090 0.978 0.079 -0.597 -1.473 0.213 -0.841 -0.470 -3.104 -0.321 0.534 -0.190 -0.208 1.305 -1.879 -0.612 0.570 -0.584 -1.713 1.456 -0.087 -0.418 0.915 0.439 -1.031 0.349 -0.978 -0.187 0.608 1.019 -0.244 -1.538 0.131 -0.238 -0.281 -0.667 1.867 -1.640 -0.076 -0.388 -0.458 -0.631 0.851 -0.332 -0.423 0.388
-1.231 2.748 0.368 -0.883 2.079 -0.588 0.115 -0.405 -1.682 -0.529 -0.584 0.721 1.095 0.558 0.392 0.280 0.135 0.271 -1.880 -1.682 0.789 -1.574 -0.120 -0.861 0.929 -0.107 0.380 1.312 1.103 1.304 0.151 1.582 -0.272 0.519 0.971 0.250 -1.200 0.306 -0.540 -0.335 -0.258 -0.134 -0.512 0.746 1.549 1.739 1.392 0.171 -0.084 0.838 -0.184 -0.546 -0.306 -0.940 0.753 0.401 0.959 -1.831 -1.441 -0.530 0.388 -0.561 0.909 0.003 -0.571 0.295 -1.303 0.925 -0.245 -0.950 1.472 -1.139 -0.407 0.161 -0.564 0.590 0.608 1.127 0.027 -1.081 0.999 0.315 -2.474 -1.456 -2.659 -0.937 -0.514 0.972 -0.026 -0.725 -1.231 -0.079 -0.383 -0.136 1.432 0.373 -1.924 -1.532 -0.419 -2.098
0.259 -1.753 -0.286 2.207 0.668 -1.420 -0.258 -0.771 0.509 -0.011 -1.479 0.065 1.263 -0.041 -2.185 -1.725 1.224 0.191 1.798 1.139 -0.674 -0.507 0.457 1.256 0.614 0.615 0.243 0.007 0.694 1.585 0.332 -1.349 0.498 0.984 1.108 0.569 -1.554 0.348 0.784 1.050 1.085 -0.559 0.217 0.148 -0.616 -1.028 -0.250 -0.235 0.632 -1.373 -1.396 -1.299 2.792 0.692 -0.075 -0.680 0.019 -0.260 -1.391 0.900 2.445 0.688 0.781 0.656 -1.033 0.020 0.948 0.802 0.084 -0.509 0.614 0.259 -0.153 -0.081 -1.405 0.567 1.499 0.131 -1.024 -0.929 -0.037 0.753 -0.406 -0.761 1.516 -1.383 -0.032 1.343 1.307 -0.454 -0.211 -1.135 -0.018 -2.049 -0.407 0.572 -0.157 -1.102 0.608 -0.773
1.987 -1.067 -1.219 1.060 -0.321 0.504 0.868 1.360 -0.528 0.324 -0.202 -1.409 0.771 -0.560 -0.442 1.504 -0.753 0.705 -0.095 0.329 -1.571 0.593 0.404 0.908 -0.461 0.501 0.336 1.233 -0.455 -0.704 1.185 -0.397 0.116 -0.325 -0.167 -2.171 1.103 -1.232 0.040 -1.276 0.473 -2.196 -0.827 -1.779 0.371 -0.077 0.198 -1.385 0.261 -0.356 0.414 0.124 -1.508 0.033 -0.666 -1.264 -0.238 -0.247 1.093 -0.077 0.833 -1.122 -0.319 0.011 -0.286 0.890 -0.152 0.632 -0.094 2.267 0.893 -0.149 1.396 -1.246 1.305 0.072 -0.432 0.372 -0.276 0.454 -2.908 0.065 1.894 0.227 -0.547 0.120 1.183 0.039 -0.470 0.411 -0.629 0.535 0.542 -1.759 0.220 -0.567 1.122 -0.115 0.465 -0.250
0.357 1.006 -0.297 -0.117 -0.968 -1.752 -0.856 -1.948 0.030 -0.057 1.790 0.840 0.352 -0.524 1.370 0.883 -0.284 0.964 -0.014 -0.717 1.227 -1.592 -0.204 -0.434 0.197 0.414 1.154 -0.016 0.361 -1.362 0.676 -1.643 -0.139 -1.457 -0.791 0.072 0.521 -0.504 -0.199 -0.452 0.271 0.607 1.905 -1.209 -0.787 2.725 -0.688 -0.560 0.556 -0.683 1.465 -0.967 1.080 0.125 -0.796 -0.934 -1.352 -0.158 -0.985 -2.003 1.376 -0.123 1.006 -0.057 -1.230 1.393 -1.721 -0.035 0.042 -1.863 0.234 1.928 -1.980 0.492 -0.188 0.405 0.029 -1.983 1.862 0.047 0.060 0.831 -1.473 -0.414 -0.371 0.332 -0.028 -1.186 1.280 -0.556 0.801 -1.642 -1.282 -0.174 0.346 0.139 -2.041 -0.481 1.892 -0.093
-0.343 1.000 -1.735 -0.462 -0.431 -1.132 -1.021 0.517 0.464 0.692 0.464 -1.223 1.836 0.914 0.942 0.289 0.550 -0.411 0.643 1.815 -1.421 1.429 0.360 0.443 0.461 -0.504 0.800 -0.160 -0.007 0.533 0.246 1.575 -1.396 0.708 0.976 0.744 -0.125 -0.884 0.746 0.918 2.095 0.611 0.460 -0.123 -0.001 -2.522 0.485 -0.904 0.815 -0.551 0.095 -0.218 -0.730 -0.767 0.707 -1.007 0.184 1.566 1.308 -0.322 -1.068 0.367 -1.203 0.401 0.446 -0.673 -1.546 1.748 -0.800 0.436 -0.141 -0.737 1.527 0.011 1.688 0.261 -0.041 -0.980 1.355 -1.869 -0.110 -1.028 -0.114 0.715 -0.395 -0.071 -1.468 -1.194 0.128 -0.061 1.254 -1.090 0.055 -0.035 0.175 0.316 -0.492 0.286 -1.479 -1.090
2.853 -0.283 -1.662 -1.061 1.102 1.117 -0.277 1.261 -1.452 -0.492 0.854 0.438 1.125 0.591 -0.211 -1.003 -0.974 -0.199 -1.008 0.908 -0.064 -1.227 -1.114 -0.027 0.194 -1.125 0.074 1.621 1.212 -0.036 -0.085 -0.222 0.194 -0.711 0.901 -0.834 1.380 -0.645 0.039 0.366 0.447 0.689 0.074 -0.974 -0.325 1.165 0.988 0.402 1.375 -0.156 1.664 -1.703 1.142 -0.299 0.844 0.239 -0.633 -0.803 -1.232 1.118 0.603 -1.459 -1.613 -0.289 -1.397 -1.034 0.250 -0.359 1.475 -0.382 0.401 -0.088 0.822 -0.289 -0.580 0.818 -0.205 0.554 0.778 0.127 -0.622 0.797 -0.118 -0.429 0.616 -0.280 -1.323 0.673 -2.461 -0.011 1.921 1.307 -1.076 2.311 -0.510 0.301 2.121 -0.901 -1.262 1.296
3.000 -0.410 0.017 0.630 -1.350 0.007 -1.935 0.968 -0.536 -0.460 0.048 0.475 -0.618 -0.304 -0.978 0.940 0.004 -0.758 0.179 0.129 -1.419 0.637 -1.777 -0.721 0.136 1.359 1.196 0.276 1.311 -0.020 0.954 -0.668 1.050 0.581 0.809 -0.616 -0.167 -0.564 0.187 -0.182 -0.772 -0.517 -0.559 1.389 1.740 -1.300 0.031 -0.352 -0.539 0.045 1.115 -0.385 0.578 -1.402 -0.603 -1.392 0.711 0.890 -0.131 1.304 -0.332 -0.547 0.585 -1.316 -0.010 -0.748 -0.236 -1.433 -1.190 0.397 1.098 -0.319 -1.331 -0.041 1.102 0.460 -0.097 -1.179 -0.570 1.262 0.969 1.380 -0.210 -0.349 0.086 0.616 -3.113 1.232 -1.785 0.364 0.325 1.431 -0.008 -0.464 -1.759 -0.970 1.600 -0.734 -1.035 -0.423
-0.734 -0.877 0.884 -1.093 0.125 -0.211 -0.675 1.967 -1.372 0.405 0.580 0.680 0.042 -2.002 0.146 -0.394 -0.166 0.124 0.141 0.752 0.960 0.088 0.380 1.111 -1.474 -0.497 0.064 -2.063 0.074 -0.679 1.241 -1.426 -0.436 -0.761 0.713 -1.269 -0.032 -1.072 -0.686 -1.034 1.687 0.202 -0.657 -0.689 0.395 0.373 -0.793 -0.248 1.011 -0.147 -0.070 -1.270 0.405 -0.548 0.727 0.596 1.354 -0.138 -1.037 0.358 0.125 0.515 0.109 1.453 -1.226 0.575 -1.027 -1.553 -0.824 -0.042 -0.611 -1.282 -0.519 -0.187 0.648 -1.236 -0.877 -0.803 1.213 0.860 -0.328 1.293 -0.495 1.300 0.586 1.048 -1.618 -0.280 1.772 -0.551 0.058 0.596 1.597 -0.918 0.477 -0.800 -2.138 -1.425 1.456 -0.692
0.194 0.456 -1.092 0.654 -1.603 0.369 -0.266 0.183 -2.500 -0.629 -1.418 -0.068 -0.060 -0.081 1.952 -0.757 2.205 1.865 -0.566 0.171 0.569 -0.068 0.498 -1.082 -1.421 1.280 -0.652 -0.373 -0.600 1.807 0.057 -0.626 0.664 -1.046 -1.020 2.040 0.900 1.633 0.212 -1.147 -0.151 -0.276 1.402 -1.610 -1.748 -1.615 0.063 -0.706 1.504 -0.967 1.344 1.574 -0.308 0.312 0.435 0.487 0.393 1.184 0.607 0.981 -0.300 0.586 -1.332 0.213 0.305 -1.421 -0.214 -0.107 0.318 -0.356 -0.712 0.024 1.161 -0.631 1.142 -0.730 -0.963 0.155 0.578 -1.549 -0.099 -0.410 -0.085 0.852 1.950 -0.393 0.089 0.254 0.378 -1.516 -0.691 -1.205 0.715 0.677 -0.850 1.280 1.123 0.406 -0.433 1.461
-0.260 -0.711 -1.655 -2.229 0.359 0.271 2.635 -0.265 -0.204 0.288 0.379 0.987 0.152 -0.717 1.159 -1.508 -0.937 0.515 -0.089 -1.489 0.823 -0.062 -0.353 2.173 0.189 -1.305 0.123 -0.716 0.619 -0.041 -0.961 1.949 -0.463 0.133 -0.856 0.439 -0.112 -1.970 -0.781 -1.087 0.408 0.430 -0.850 0.102 1.783 0.359 -0.704 -0.522 -1.475 -1.103 0.344 0.066 1.111 0.102 -0.160 -0.592 0.348 0.154 0.703 -0.876 0.425 -0.295 -0.057 1.993 1.743 -0.161 -0.022 -0.410 -0.183 0.360 0.046 -0.518 -0.110 1.475 -0.476 0.445 -0.996 -1.570 -0.211 0.860 -0.289 0.628 2.257 0.544 -1.484 2.348 0.395 -0.906 1.348 0.823 1.504 -2.525 -1.017 -0.194 -1.048 -1.573 0.587 -1.297 -1.099 0.526
0.066 -0.112 1.288 0.250 -0.192 1.905 -1.191 -1.430 0.142 1.016 2.199 -1.054 0.256 -0.648 -0.629 -1.363 -0.747 -0.296 -0.786 -1.643 -0.138 0.611 -0.714 -1.583 -1.414 0.381 0.716 0.662 0.124 1.844 0.432 2.140 2.065 0.307 1.115 -0.169 0.588 1.502 -1.848 1.748 -0.101 1.030 1.231 0.246 0.473 -0.446 -0.384 0.955 0.057 -0.722 -0.889 -0.485 -1.140 -1.241 0.149 -0.274 -0.101 -0.611 1.225 -0.271 1.065 -2.222 0.206 0.888 1.091 -0.910 -1.041 0.325 0.127 0.127 -1.105 -0.102 0.503 0.676 -0.852 -2.432 0.506 -1.171 1.421 -1.907 -0.113 -0.172 0.154 -0.710 0.038 -0.399 -0.488 0.117 -1.143 0.227 1.011 -0.121 -1.082 -0.962 0.339 -0.625 0.352 -2.045 -1.310 0.543
0.231 0.261 0.795 -0.130 0.117 0.184 -0.030 -0.179 -0.827 -0.513 0.627 0.013 0.677 1.019 0.664 1.513 1.003 -0.621 -0.194 2.351 0.173 0.906 0.934 -0.153 -0.175 1.360 -1.547 0.125 -0.382 0.779 -0.181 0.046 -0.378 -0.763 1.520 1.776 0.013 1.931 -0.196 -0.438 -0.481 0.654 0.062 0.867 -0.161 0.677 0.595 0.006 0.320 1.285 0.626 -1.505 -1.709 -1.438 -0.434 -1.798 -0.080 -0.373 1.096 1.215 0.915 -0.270 -0.157 0.467 -0.692 0.783 1.466 -0.104 0.782 -0.756 0.419 1.104 1.031 -1.627 -0.188 -1.405 -0.715 0.174 0.230 -1.252 -1.308 -0.951 0.477 -1.141 -1.380 -0.768 -0.380 -0.116 -0.546 0.872 -0.625 -0.233 -0.573 -0.843 0.369 -1.530 0.319 -0.745 0.791 -1.799
0.789 -0.219 0.327 -0.644 2.094 0.456 -0.992 -0.128 1.392 0.837 -1.596 -1.877 -1.201 0.238 -0.763 1.162 -0.058 -1.096 1.672 -1.997 -1.984 -0.383 1.108 -0.281 -0.003 -0.268 -0.750 -0.062 0.543 -0.763 -0.577 1.666 -0.113 0.536 -0.712 -0.831 -0.678 -1.489 -0.528 -0.348 1.098 1.307 0.712 -1.168 1.557 -0.081 0.394 -0.990 -1.061 -0.690 0.622 0.337 0.567 -2.537 0.807 1.310 -1.356 -0.553 0.567 2.301 -3.406 -0.158 0.301 -0.519 0.443 0.323 0.029 -0.481 -0.893 1.141 0.338 0.699 0.731 0.131 -0.090 -0.329 -1.018 -2.023 1.103 4.357 -1.578 -0.097 -1.329 -0.583 -0.321 -1.089 -1.211 -2.571 0.603 0.552 -1.372 -0.504 2.185 0.396 -0.677 -1.485 0.099 -0.071 1.487 0.183
-0.115 0.241 0.553 -1.767 -1.932 -1.252 0.022 1.722 -0.278 -1.591 0.322 -0.476 0.552 -0.733 0.633 0.062 -0.741 0.831 0.759 -0.984 -0.745 0.550 1.693 -1.502 1.022 -0.749 0.165 -1.220 0.402 1.167 1.555 -0.773 -0.455 1.630 0.836 1.389 -0.627 -0.168 0.955 -1.881 2.409 0.061 0.382 -1.191 1.012 -0.037 0.224 0.869 -0.613 0.605 3.060 -0.221 1.864 -2.296 -0.401 0.341 1.349 1.402 -0.492 1.804 -0.337 -1.037 1.451 -0.741 0.471 1.105 0.930 -0.102 0.096 -0.918 0.092 -0.359 0.801 0.974 -0.193 -0.123 -0.017 -0.433 0.264 -1.534 2.395 -0.556 0.417 -1.488 -0.549 1.493 0.978 -0.247 -0.593 1.000 -0.520 -0.444 -1.296 1.303 -0.703 0.621 -1.688 -0.001 1.274 0.634
-1.261 -1.449 0.351 -0.953 -0.118 -0.686 0.015 0.408 -1.190 0.190 -1.290 1.101 1.854 -1.233 0.770 1.323 1.010 0.075 -0.880 0.499 1.974 0.847 0.708 -0.031 1.078 -1.149 0.742 -1.949 0.721 -0.904 -2.020 0.782 -0.088 -0.779 0.837 1.693 -0.665 0.023 -0.766 -1.010 0.697 0.188 1.023 0.964 -0.574 -1.504 -0.507 -0.676 -1.929 1.298 -0.802 0.923 0.435 0.347 1.380 -0.945 -1.421 -0.894 -0.579 2.357 0.167 -0.331 -0.790 0.622 1.192 1.377 -1.023 -0.914 -0.141 0.308 1.513 -1.008 -0.798 -0.844 -0.710 -1.061 0.431 -1.959 0.179 0.854 1.198 -0.546 -1.084 -1.229 0.787 0.700 -0.402 0.177 -0.362 0.731 -0.604 2.092 -0.486 -0.677 -0.326 -0.554 0.153 -1.283 -0.959 -1.198
-0.200 0.242 -0.321 -0.085 0.503 -0.154 -0.318 0.604 1.218 0.858 -0.931 -1.126 0.507 1.657 0.718 -1.249 -0.582 -0.003 -0.225 -0.014 -1.157 -0.010 0.616 0.049 0.142 0.273 -2.545 -0.465 0.360 0.474 -0.761 0.105 -0.654 -0.841 1.486 -0.903 1.477 -0.067 -0.946 0.100 0.948 0.246 -0.837 0.055 1.089 0.429 -0.647 0.023 1.407 -1.268 -1.046 1.360 1.656 0.895 0.057 0.198 -0.403 0.315 1.306 0.365 1.344 -2.189 -0.033 0.249 1.349 -1.626 -2.535 1.334 -1.107 -0.128 0.399 -1.549 0.292 -0.307 1.753 -0.050 0.815 -0.117 -1.284 0.005 0.931 -0.782 -0.079 1.208 -1.084 -0.295 0.798 -0.733 1.353 -0.475 0.410 0.951 1.101 0.406 1.319 1.186 1.329 0.649 0.808 -0.258
0.335 0.228 1.511 0.450 -1.034 -1.405 -0.856 0.301 -0.839 2.177 -1.208 1.163 0.074 -0.501 -0.621 -0.821 -0.891 -1.921 -0.325 -0.356 -1.872 1.109 -0.623 0.199 0.876 0.069 -0.188 -0.807 1.030 -0.902 0.001 1.727 -1.963 -0.805 0.303 0.998 1.317 -0.581 0.532 1.099 0.108 0.963 -4.037 0.797 0.662 -0.671 0.293 -0.009 -0.119 -0.419 0.648 0.803 -0.399 -0.466 -1.128 -0.384 0.259 -0.709 0.273 -0.876 1.732 0.561 -0.056 0.368 -0.954 1.917 0.704 -1.542 -0.162 -1.763 0.596 -1.231 0.253 1.202 2.113 0.546 1.785 0.223 -0.366 -0.617 -0.303 0.907 -0.652 -2.014 1.466 -0.230 0.618 -0.974 1.332 -1.377 0.833 2.260 0.924 -0.231 1.028 -1.624 0.542 1.397 -0.326 0.464
0.325 0.661 -1.000 0.259 -0.009 -1.889 1.060 0.252 -0.220 0.942 1.088 -2.528 0.448 -0.096 0.033 -0.116 -1.866 -1.092 0.137 0.451 -0.476 1.063 -0.611 -0.365 2.148 0.974 -1.340 -1.111 -0.523 1.486 -1.955 1.213 0.436 -0.515 -0.469 0.941 -1.188 -1.415 -0.429 1.003 -1.657 0.096 -1.345 -1.487 -0.388 0.480 -0.753 1.033 -0.531 -0.525 -1.623 0.060 -0.184 -0.518 -0.660 0.286 0.713 0.118 -0.913 -0.068 0.255 -0.237 1.309 2.755 -0.481 -1.538 -0.019 0.436 -1.163 -0.539 -0.250 1.705 1.108 -1.162 0.759 0.628 -1.547 -0.815 1.027 -1.239 -1.009 0.459 0.901 0.774 0.956 -1.161 -1.232 -0.404 1.057 0.425 -1.527 1.007 0.180 0.869 0.155 0.000 -2.234 -0.613 -0.357 -1.777
-1.296 1.233 -0.079 -1.028 0.214 -0.554 -0.571 -0.599 -1.179 -0.279 -0.772 1.085 -0.781 -1.990 1.093 0.992 -0.396 -1.506 0.443 0.139 -1.017 -0.729 -1.331 -0.344 -1.235 1.453 0.606 0.111 0.182 1.041 -0.331 -0.646 0.137 -1.160 2.427 -0.848 0.674 -0.258 0.317 -0.888 0.162 0.475 -1.288 0.937 1.624 1.041 1.235 -1.646 -0.452 0.647 0.080 -0.095 0.960 0.488 0.738 0.141 0.266 -1.102 0.107 0.208 1.334 -0.037 0.554 -1.020 -1.987 -1.516 -2.018 0.868 0.549 -0.621 0.137 0.491 1.177 -0.422 -1.219 -0.567 0.010 0.665 -0.114 -0.557 -0.582 -0.193 -1.992 -0.264 -0.301 -1.053 1.156 2.011 -1.765 1.467 -1.734 -1.193 -0.131 1.074 -1.104 0.850 -1.974 -0.189 -1.944 0.320
-0.732 0.715 -0.236 0.063 -0.512 0.627 0.586 0.899 -0.371 0.514 0.739 -0.790 1.138 1.187 2.077 -2.460 -0.790 1.270 0.141 0.453 -0.816 0.075 -0.944 0.484 0.475 -0.713 0.270 0.279 -0.299 0.743 0.409 -0.732 -1.514 -0.298 1.562 2.393 0.208 0.998 -1.678 0.288 1.257 0.272 0.661 -0.252 1.280 -0.789 0.448 -0.044 -0.694 1.152 0.156 -2.163 1.915 -1.841 -0.469 2.170 -0.069 -1.206 1.008 -0.070 -0.417 -1.602 0.721 -1.348 0.196 -0.856 -0.986 0.691 0.375 0.033 0.263 1.126 -0.116 1.261 -0.348 1.185 0.197 0.343 0.874 0.399 -0.588 -0.347 -1.091 -0.579 0.673 1.395 -0.791 -1.409 -0.209 0.224 -1.608 -1.857 0.949 0.887 -1.224 -0.831 0.150 1.628 1.003 0.535
-2.052 1.059 -0.245 -0.185 1.149 -1.224 1.286 -0.832 0.501 0.582 -1.406 -0.272 -1.013 0.468 0.519 -0.495 0.665 1.788 0.112 -0.608 0.805 0.803 -1.446 -0.317 -1.238 1.692 0.171 -1.923 -1.043 -0.021 0.045 1.258 0.388 -2.343 0.587 -0.552 0.309 0.442 0.864 -0.498 -1.540 0.208 0.329 -0.113 -0.264 0.125 1.996 0.615 0.418 0.180 -0.898 -0.511 0.768 -2.759 -0.301 -0.630 -1.622 0.537 -0.050 -0.748 1.272 1.009 -1.543 -0.485 0.610 -0.098 -0.772 -0.094 0.900 0.834 0.652 0.069 0.911 0.787 -0.554 -0.435 -0.277 1.548 -0.399 1.554 0.259 -0.506 1.379 0.457 -0.893 1.584 0.761 -0.431 0.778 -0.140 0.345 1.222 0.585 2.403 -0.665 0.308 -1.451 0.814 -0.717 -0.964
0.206 0.075 -1.019 -0.408 1.168 0.375 0.147 0.581 -1.108 -0.260 1.135 -1.065 2.556 0.160 -0.164 0.623 0.027 1.238 1.017 -0.375 0.639 -0.185 0.227 -0.318 0.586 1.100 1.788 0.553 0.005 0.009 0.232 0.005 -1.385 0.802 -1.510 0.612 0.106 0.793 -0.879 -0.434 0.657 -1.776 0.311 2.530 0.090 -0.056 0.500 -0.958 0.348 1.368 0.461 -0.575 -1.117 1.007 -0.964 0.943 -0.384 -0.462 0.656 -2.799 -1.417 -1.742 -0.404 1.665 -0.211 -0.463 -1.157 -1.595 1.425 -0.961 -2.785 -0.551 -0.292 -0.101 -1.689 0.733 -0.531 0.467 0.339 -1.204 -0.883 0.904 0.976 -0.404 1.667 0.426 0.863 0.308 0.740 -0.059 0.917 0.648 0.099 -0.275 -0.504 0.568 -0.512 1.272 -0.318 -0.943
0.718 -0.121 -0.170 -0.064 -2.235 -0.175 -1.297 -1.063 1.429 -0.142 1.664 -1.011 0.997 -0.023 -0.642 -0.199 -1.160 -0.454 0.782 -1.273 -1.941 0.149 0.174 -0.283 -0.202 -0.764 0.056 -0.025 1.399 -0.301 -1.061 0.189 0.489 -0.214 -0.547 0.119 0.766 1.157 0.911 -1.355 0.087 0.055 1.781 -0.181 -0.492 -0.276 0.032 1.915 0.282 -0.739 0.464 0.617 1.206 0.245 -0.012 -2.272 0.714 -0.918 0.618 -1.318 0.268 0.170 -0.831 -0.830 -0.309 -1.021 -0.443 -0.578 -0.249 -0.619 -0.526 -1.561 0.562 0.857 0.943 1.233 -0.517 -0.448 -1.382 0.396 0.761 0.214 1.926 0.119 -0.432 2.392 -0.237 -0.211 0.529 -0.473 -0.041 0.958 0.016 -1.099 -0.362 -0.434 -0.346 -0.611 0.482 -0.185
-0.860 -0.687 1.033 -0.544 -1.400 -0.076 -1.441 -0.139 -0.783 -0.722 0.709 -1.211 1.400 0.773 -1.803 0.106 -1.997 -1.303 0.558 0.180 -0.678 2.329 -1.071 0.715 -1.573 0.680 -1.709 0.214 -0.300 -0.841 0.713 -0.233 0.198 -0.066 -1.989 -1.625 -0.499 0.207 1.500 -0.436 -0.215 1.420 -0.232 -0.146 0.881 -0.947 -0.338 -1.027 -0.288 1.891 -2.120 -0.477 -0.585 0.360 1.121 0.543 -1.257 -0.228 -1.371 0.384 0.714 2.079 1.422 1.630 -1.307 -0.571 0.134 0.833 1.163 1.062 1.121 -0.351 0.443 -0.398 1.205 0.480 -0.842 0.789 1.233 2.394 -0.569 -0.101 -1.051 0.312 1.068 -0.379 0.042 0.350 0.651 -0.688 0.129 -0.053 -0.891 -0.325 -0.082 -0.562 -0.456 0.722 0.998 -0.170
1.577 2.743 2.306 -0.809 1.698 -1.831 -1.255 0.219 -0.993 0.613 0.078 1.258 -0.567 1.049 -1.307 0.351 0.468 2.106 0.704 -0.437 1.089 -1.736 -0.945 -1.210 1.236 0.260 0.397 -0.323 0.299 -0.567 -0.587 -1.594 -1.152 -0.555 0.998 -0.160 1.167 0.016 -2.218 0.094 0.733 1.261 -1.512 0.706 -0.707 -0.766 1.085 0.015 -0.734 -1.480 0.146 -0.108 -0.832 0.567 -1.200 -2.722 -0.139 1.098 -0.653 -1.069 0.278 -0.391 -0.638 0.458 0.782 -1.803 -0.575 0.357 1.023 -0.220 -0.669 0.072 0.817 0.344 -0.433 -0.074 0.367 -1.985 0.532 -0.240 0.632 1.076 0.547 -1.005 -2.249 -0.250 0.546 1.029 0.081 -1.191 -0.950 0.982 -0.899 0.629 -0.433 0.369 -0.691 0.348 -0.687 -0.180
-0.064 1.411 -0.876 0.314 0.913 0.415 -0.905 0.482 0.610 1.909 0.446 -0.653 -0.477 0.934 0.424 -1.402 0.246 1.646 1.189 -0.520 -1.467 0.574 0.724 0.147 -0.401 -0.128 -0.087 -0.148 -0.265 -0.698 1.412 -0.260 -0.390 -0.212 -0.501 1.214 0.628 0.840 -0.203 0.240 1.258 0.812 0.138 -0.472 1.035 -0.042 -0.301 0.621 -0.476 0.607 0.083 -0.625 -1.461 -0.120 -0.128 0.781 -0.393 0.804 -1.709 1.839 -0.660 -0.851 -0.361 0.150 0.242 0.370 2.207 2.422 -0.027 0.254 0.675 -1.384 2.919 2.483 -0.004 1.065 -0.317 0.927 2.110 1.521 1.603 -1.614 2.220 -0.653 1.140 1.489 -0.727 0.084 -0.477 -0.351 -0.922 0.988 0.264 0.440 -0.279 0.310 0.557 0.518 -0.998 1.051
-1.508 1.082 -1.012 -0.544 0.234 -1.323 -0.565 -1.564 0.694 0.240 -0.116 1.144 -1.044 -0.278 1.000 0.161 -1.926 1.322 0.080 0.917 -0.631 -1.318 0.715 -0.442 2.558 0.201 0.023 -0.083 -0.293 1.230 0.670 -1.038 -0.192 -0.046 -0.002 0.657 -0.946 0.638 -1.344 -0.232 -1.090 1.466 -0.162 -2.896 1.449 1.394 -0.389 0.161 -0.137 -2.051 0.849 -0.574 0.638 -1.453 -0.363 1.547 3.486 -1.580 0.232 0.899 -0.088 -0.346 0.711 -0.510 -0.182 -0.631 0.243 -0.592 -0.151 -1.178 -1.170 1.690 0.060 0.900 -1.162 0.834 -1.100 0.257 -0.598 -0.832 0.939 -1.165 0.313 2.625 0.959 -1.073 0.614 -0.645 -0.529 0.068 -1.030 -0.539 1.127 0.831 2.738 -1.415 0.642 1.449 0.222 1.598
1.002 -1.319 -1.570 0.614 0.814 0.620 -0.180 0.372 1.653 0.240 0.932 -0.309 0.389 -0.202 0.629 1.339 -0.695 -1.207 -1.996 -0.064 1.300 1.070 -1.309 -0.890 0.172 0.519 1.963 -0.528 -0.309 -2.559 -0.277 -0.308 -1.070 1.160 -0.517 0.421 0.375 -1.480 1.031 1.858 -1.177 -1.228 0.786 0.051 0.135 -0.903 0.415 0.668 -0.389 2.346 1.372 -0.882 -0.264 2.002 -0.891 -0.952 -0.200 -1.506 0.614 1.331 -0.464 -0.909 -1.471 -1.135 0.528 -0.186 1.880 -2.108 -1.988 1.382 0.427 -0.511 1.080 -0.756 -0.170 0.258 0.135 -2.176 -0.135 -0.965 -0.201 -0.207 -0.555 1.897 0.156 0.363 0.768 0.589 -0.000 0.160 0.148 -0.854 -0.031 0.811 -1.246 -1.735 0.095 -0.567 -0.269 -0.738
-0.249 0.788 -0.238 -0.022 -0.283 0.523 -1.467 -0.425 -0.452 -1.270 0.412 1.230 -1.632 0.357 0.692 0.319 -0.195 0.474 -0.771 -0.721 -1.484 0.163 -2.026 1.210 -1.379 0.561 -0.073 -0.054 0.872 0.806 -0.026 1.575 -1.773 -0.325 2.254 1.176 -1.144 0.379 1.009 -0.314 -0.012 0.295 -0.858 -0.084 0.180 -0.968 2.713 0.545 -0.935 0.103 1.726 -1.141 -1.069 0.476 0.832 0.289 1.159 0.926 0.588 -2.258 -0.608 2.046 0.499 0.149 0.734 -2.081 -1.115 -0.517 0.117 0.272 0.276 1.409 -0.009 1.161 -1.391 0.046 0.424 2.371 1.461 -1.419 -0.060 -1.498 0.799 -1.370 -0.892 0.290 1.006 0.559 1.680 -2.080 0.706 0.397 -2.001 -1.120 -0.213 1.513 -0.682 0.988 1.680 -0.048
0.644 -1.760 -1.411 0.951 0.204 -0.722 -0.097 -0.085 -0.983 1.353 0.066 0.873 -0.966 0.947 0.319 0.495 0.766 -2.945 0.533 1.580 -0.439 -0.090 -1.871 1.055 0.409 0.943 -1.007 0.321 0.538 0.969 -0.993 -1.344 -0.912 -1.047 -0.079 0.397 0.440 -1.992 -0.001 -1.242 0.899 0.321 0.690 0.558 0.524 1.460 1.696 -0.763 -0.360 1.518 -1.693 -0.534 0.285 1.256 0.611 0.745 -0.108 0.453 1.020 0.275 -0.810 -0.064 0.292 0.184 0.901 0.842 0.722 0.661 1.606 0.179 0.455 0.912 -0.518 -0.328 -1.312 -1.410 -1.380 0.829 -0.887 -0.975 0.491 0.209 -0.723 -1.611 1.510 -0.017 1.146 -0.517 -0.215 1.171 -1.310 0.657 0.417 -0.684 -0.429 0.430 -0.417 0.148 -1.125 1.074
1.803 0.392 0.091 -0.389 -0.459 0.653 -0.578 1.643 -0.173 -0.073 0.830 1.837 1.215 0.087 0.817 0.439 0.277 1.409 -0.161 1.333 1.065 -1.165 -0.807 -0.395 -1.508 1.354 1.434 1.013 -0.099 -3.592 -0.816 0.299 -0.657 0.175 -0.756 0.830 -2.010 -1.469 -1.811 -0.598 -0.941 -2.288 2.516 0.229 0.196 2.030 1.583 0.230 0.447 0.284 -0.982 -0.070 0.342 -0.237 0.535 -0.186 0.345 -1.225 -0.686 0.766 -1.080 -0.599 -2.059 1.268 -0.322 0.189 1.468 -0.331 1.337 0.346 -1.337 1.289 0.049 0.635 0.818 0.076 1.179 1.661 0.296 1.034 0.661 1.473 0.395 -0.840 0.693 -0.865 0.234 -0.126 -2.073 1.428 -0.704 -1.012 -1.951 -1.189 1.902 0.051 -0.276 -1.314 0.039 -0.122
-1.547 -1.325 1.165 -0.069 1.730 -0.480 -0.817 1.333 0.952 -0.910 0.248 -0.655 0.868 -0.682 1.159 1.772 1.024 -1.778 0.120 -1.095 0.353 -1.589 0.078 0.701 -1.505 0.714 1.496 -0.231 -0.204 0.344 0.009 1.213 1.882 0.570 -0.608 -0.495 0.835 1.259 -0.076 0.746 0.764 0.729 0.085 1.217 1.008 0.836 0.114 -0.069 0.338 -1.169 -0.320 -0.661 -0.271 -1.226 0.496 -1.676 -1.877 -0.045 -1.377 0.239 -1.150 1.353 -0.518 0.364 0.026 -1.077 -1.518 -1.868 -0.745 0.772 0.355 1.088 -1.038 -0.489 1.327 -1.273 0.702 -0.110 -0.774 1.075 0.287 -0.542 -0.347 -0.806 0.194 -0.870 -0.989 -1.093 -0.993 -0.097 1.337 -0.442 -2.294 1.002 -1.331 -0.050 -0.277 -1.545 -2.110 0.110
0.867 0.143 0.580 -1.060 -1.014 -0.091 -1.844 0.375 -0.966 -0.853 -1.971 1.509 -0.246 0.692 0.283 -1.314 1.851 0.704 -1.291 -0.841 -0.959 0.088 0.290 1.197 -1.856 0.064 -0.033 -0.082 -0.674 0.068 1.407 0.292 1.089 1.600 0.357 0.200 0.692 -2.497 0.395 0.937 0.002 -1.210 -0.472 0.221 -0.310 0.859 1.386 -1.870 0.458 1.065 -0.391 -1.523 0.294 -1.304 0.563 1.677 0.769 -0.432 -0.200 0.447 0.209 -1.038 -0.107 -0.080 0.218 -0.799 -1.544 -0.373 0.851 0.443 0.293 2.110 1.533 -1.067 0.713 0.653 -0.401 -0.333 -1.253 1.117 -0.168 -0.161 0.551 1.529 1.232 1.213 1.061 -0.504 0.312 -1.184 -0.075 1.926 1.744 1.074 -0.078 -1.081 0.458 0.009 0.332 1.126
0.360 0.038 -0.381 -2.453 -0.741 0.924 0.844 -0.149 -0.510 0.437 -0.263 0.335 0.774 -1.279 1.461 1.452 -0.457 -1.151 0.089 -0.023 0.461 -0.851 -0.289 -0.635 0.356 0.688 -0.859 0.896 -1.524 0.999 -0.138 -1.033 -1.122 0.919 -0.033 -0.909 -1.451 1.262 0.253 2.361 -0.882 1.913 0.914 -0.155 -0.569 -0.458 -1.941 0.223 -0.604 0.655 -0.387 -0.483 0.630 0.700 -0.457 -0.269 -0.096 1.357 -0.889 0.383 -1.235 0.879 0.470 -1.387 -0.616 0.042 0.541 0.997 -0.167 0.389 1.636 -0.696 1.241 3.198 1.809 -0.841 0.284 0.934 0.389 -0.060 0.103 -1.419 2.067 -0.612 -1.037 -2.135 -1.302 -0.805 0.306 -0.295 0.161 0.324 -0.845 1.696 1.125 -1.508 0.092 2.944 -0.473 1.118
-1.798 0.952 -0.458 0.630 0.257 0.625 1.699 1.520 -0.334 -3.045 0.774 -1.174 -0.132 0.756 0.176 -0.619 -0.270 0.441 0.107 -2.213 2.063 1.083 -1.870 -0.912 -0.851 0.556 -0.428 -0.373 0.104 0.500 0.509 0.288 2.225 -1.057 -0.666 0.322 -0.571 -1.847 1.262 1.297 -0.537 1.214 0.147 0.589 -0.186 -1.784 -1.135 -0.296 0.314 -0.033 1.212 0.166 -0.764 -1.142 0.056 -0.282 -2.361 0.988 -1.105 -0.983 -0.157 0.614 1.831 0.608 -0.002 0.896 -1.412 -0.813 0.034 -0.374 -1.210 -1.301 1.275 -0.394 0.197 1.821 0.312 0.360 0.607 -0.189 -0.022 -1.656 0.472 1.914 0.592 -0.676 0.601 -0.616 2.306 0.517 0.915 -1.340 -0.091 -0.236 -1.332 2.542 -0.235 -0.650 -0.594 0.697
0.653 -1.081 -1.020 -0.773 -0.541 -0.376 -0.358 -0.931 -1.205 2.563 0.097 -0.912 0.275 -0.974 -0.115 -0.771 0.836 1.383 1.530 0.674 0.229 -1.003 0.110 0.501 1.149 -2.133 -1.924 1.004 -1.319 -0.589 -0.093 1.009 -2.180 1.257 -1.141 1.962 -0.036 -0.094 -0.828 -1.803 0.752 -1.013 0.613 -1.750 1.031 0.815 0.561 -0.020 0.028 -2.547 -0.373 -0.412 0.669 0.001 -0.421 -0.782 -0.185 0.718 0.141 0.864 0.971 -1.949 -0.493 -0.155 0.340 1.529 -1.205 0.044 0.104 0.088 0.236 0.312 1.524 0.557 0.863 0.738 0.093 1.602 -0.685 -0.031 -0.825 1.747 -0.788 0.603 1.967 -0.105 -0.307 -0.155 -1.943 -0.675 -1.253 -0.021 0.204 -0.963 0.543 -1.758 1.253 -1.769 0.895 -2.473
0.523 -0.143 1.463 -0.984 -0.870 0.626 -0.622 -0.457 2.102 -0.885 -1.532 -0.228 -1.206 0.222 1.217 -0.848 0.164 -0.593 -0.614 -0.628 1.581 3.255 0.275 3.824 0.396 1.328 0.049 0.537 -0.624 -0.980 -1.065 -1.396 -0.412 -0.572 0.698 -1.740 -0.312 -1.154 0.463 -0.411 1.349 0.018 -0.610 0.428 1.363 -0.286 0.858 -1.102 -0.983 -0.968 -1.923 -0.257 0.791 1.528 0.988 -0.842 1.216 -0.703 0.422 0.375 -0.401 -0.447 -2.020 -0.509 0.281 0.126 0.128 -0.818 1.005 -0.267 -0.532 -0.641 -0.328 -0.488 0.500 0.503 0.912 -0.874 1.540 -0.915 1.455 -1.209 -0.040 -0.283 -1.181 -0.504 -3.306 0.514 -0.105 0.382 1.755 2.110 -1.830 1.078 0.278 0.835 -0.056 2.144 0.237 0.147
-1.342 0.012 -0.476 1.798 -1.304 0.642 0.687 0.895 0.298 -0.922 -0.272 -0.518 -0.027 0.611 0.180 0.984 0.188 -0.368 -0.217 0.201 0.624 -0.692 0.079 1.295 -0.574 -0.239 -0.519 0.159 0.466 -1.040 -0.892 0.043 0.076 -1.235 -1.630 -0.943 -2.289 -0.474 -0.368 0.030 -0.320 0.942 0.706 1.142 -0.291 1.025 -0.183 1.201 -0.586 -0.033 0.575 1.566 -1.012 1.017 1.273 0.325 -2.168 1.018 1.446 -0.624 -0.406 0.566 1.912 1.103 0.206 -1.094 -2.118 0.501 -1.224 -0.772 -1.008 0.319 1.366 0.092 -0.493 -1.702 -1.296 -0.642 -0.005 -0.337 0.551 0.665 1.260 0.321 -0.473 -0.011 1.785 -0.263 0.956 1.260 -0.066 -1.818 0.081 -1.156 -1.600 -0.838 -1.053 2.119 -1.337 -0.252
0.024 1.259 -0.343 -0.726 3.254 0.348 -0.007 -0.347 1.557 1.055 2.070 -2.352 -1.183 -0.017 0.578 0.270 1.495 -0.220 -0.820 -1.051 -0.109 -0.088 -1.738 0.290 0.600 -1.451 2.770 0.744 0.646 0.659 0.227 1.142 1.708 0.506 -0.223 2.041 0.111 0.131 -1.155 -0.214 1.246 -1.028 -0.873 0.659 0.754 0.624 0.164 2.207 -0.843 -1.249 0.327 0.109 0.261 0.688 0.939 0.083 -0.861 0.318 -0.400 1.154 -0.405 2.494 -0.330 0.045 -0.047 2.399 0.985 -0.462 0.688 0.381 -0.526 1.024 0.619 0.056 -0.758 0.767 -0.378 1.086 -0.014 0.076 0.916 1.019 -0.338 -0.579 0.703 0.187 1.690 0.861 0.774 -1.026 -0.188 -0.765 -1.039 0.446 -0.278 -0.456 -0.514 -0.371 -0.138 -0.635
0.695 -0.113 0.186 -0.654 0.932 1.971 -1.060 0.226 -0.461 -0.721 -0.315 0.141 -1.802 -0.170 -1.603 1.091 0.950 -0.511 0.367 -1.010 -1.564 0.419 0.036 0.241 -0.698 -1.326 -1.108 1.795 -1.962 0.685 0.721 -2.840 1.395 -0.568 1.239 -1.982 0.922 -0.451 -0.399 0.917 0.278 -1.516 1.389 0.458 -1.572 0.140 0.715 -0.097 0.292 0.789 0.463 -0.717 0.238 1.934 -0.909 1.147 1.620 -0.004 2.335 0.423 1.507 0.289 -0.253 -0.029 -2.104 -2.669 -0.643 -0.640 -0.132 -0.157 1.283 2.875 -0.162 0.173 -0.748 -0.532 -0.044 -1.062 0.428 0.310 0.665 -1.646 -0.887 0.633 0.140 -1.228 -0.017 -0.099 0.233 -0.878 0.813 0.513 0.554 -0.213 -1.327 -0.812 0.165 -0.150 -0.746 -0.632
0.542 0.110 1.119 -1.314 0.108 -0.859 0.503 0.224 -0.881 1.297 1.114 1.258 -0.767 0.619 0.097 0.478 -0.470 0.040 0.667 -0.552 1.093 -0.289 -1.207 1.215 -1.967 -0.012 1.557 0.685 1.166 0.505 2.158 0.146 0.066 0.869 -0.033 -0.729 1.543 -0.140 0.526 0.968 -0.085 1.124 1.127 -0.893 -0.723 1.490 0.988 -0.494 -0.936 0.034 -0.940 0.430 0.223 0.326 -0.703 -0.595 -0.664 0.484 -0.040 -0.441 0.056 0.889 -0.193 1.811 0.919 -0.138 1.042 -0.231 -0.444 -1.055 -0.329 -0.114 0.104 -0.542 -1.037 0.159 0.069 -1.915 0.298 -0.468 -0.221 -0.579 0.138 -0.930 -1.941 -1.669 0.254 -0.405 -0.603 -1.643 -0.534 -1.387 1.295 0.394 -0.613 0.681 0.200 -0.076 -0.474 0.046
1.177 2.165 -0.052 0.044 -1.391 -0.474 1.587 1.460 -0.817 0.917 1.053 -0.053 0.752 0.934 -0.736 -1.339 -1.486 0.465 0.208 -0.326 -1.704 -0.029 0.391 -0.534 0.006 -0.179 0.839 -1.193 0.749 0.696 -0.267 -0.235 0.435 0.413 0.540 0.690 -1.234 -1.032 0.244 -1.073 0.252 -0.445 0.435 0.800 0.580 0.491 0.109 -2.460 -2.416 -0.198 0.531 1.232 1.309 0.399 -0.955 -0.284 -1.336 0.174 0.565 -0.861 0.052 1.289 -1.054 -0.570 0.195 0.627 0.455 1.585 1.353 1.191 0.274 1.313 -0.281 -0.239 1.638 -1.253 -0.769 1.678 0.352 -1.609 -1.233 1.286 -1.129 -0.457 1.727 -0.257 0.490 -0.201 -0.530 0.054 -0.269 -0.188 1.342 0.002 0.392 1.403 0.830 -0.558 -0.243 0.184
-0.129 0.014 -1.392 0.174 -0.790 -1.155 -0.209 -0.401 0.007 0.750 -2.592 0.298 0.037 0.920 -0.280 -0.014 1.079 -0.438 0.020 2.348 0.089 -1.060 -0.156 1.844 -0.480 0.216 -0.409 1.299 -0.386 -1.033 -1.795 -0.413 1.072 1.020 1.275 0.293 0.542 -0.307 -2.438 -0.101 -0.149 2.776 -0.109 -1.050 0.387 -0.995 -1.134 0.416 -0.828 0.300 -0.374 -0.825 0.325 -1.068 -2.079 1.410 -1.255 0.123 -1.106 0.113 0.966 0.841 -0.493 -0.134 1.293 0.649 -0.564 -0.734 -0.561 1.919 0.036 1.866 -0.676 -1.359 0.998 1.239 -1.526 0.001 -0.932 1.015 0.906 -0.359 -2.874 1.109 -0.083 -1.546 -0.705 1.030 0.523 -0.526 -0.508 0.448 -0.116 -0.610 -1.777 0.198 -1.347 0.528 0.600 0.354
1.196 0.190 2.277 -0.424 0.999 1.234 -0.122 -0.153 -0.923 -0.747 -0.637 0.916 -0.326 -0.538 0.418 0.253 -0.221 -0.006 -0.938 -0.440 1.083 -1.645 -0.889 -1.480 0.974 0.551 0.652 0.507 0.927 -1.290 0.308 -0.091 1.616 0.937 -0.540 -0.513 0.801 1.389 -1.081 1.555 0.102 1.518 -0.563 1.474 -0.321 -1.727 1.592 0.302 1.313 -0.302 1.652 -0.119 2.512 -0.751 0.646 1.056 -0.763 -0.576 0.449 1.640 0.483 1.578 1.789 -1.454 -0.605 -0.333 -0.224 0.806 -0.014 -0.254 -0.497 -0.878 -1.264 -0.445 0.198 1.842 0.819 0.772 0.806 1.069 -0.643 -0.506 0.126 -1.898 -0.133 -0.639 -0.155 -0.041 -0.444 0.958 0.584 -1.453 -0.769 -0.021 -0.725 -1.515 -1.147 1.766 -0.446 0.435
-0.183 -0.416 0.081 -0.077 -0.340 1.379 -0.287 -0.617 -0.101 -1.075 -1.449 0.030 0.605 -0.522 -0.149 -0.035 0.514 1.046 -0.486 -0.195 0.772 1.887 -0.656 0.709 0.035 -0.547 0.339 1.108 -1.073 -0.315 -2.042 1.966 2.391 -0.811 1.306 -0.175 0.560 0.411 -0.119 -0.248 -0.069 -0.301 -0.077 0.464 1.150 0.303 -1.256 0.983 0.449 -0.777 -0.627 0.541 0.126 0.200 -0.241 -0.040 -0.402 -0.141 -0.426 -0.370 -0.760 1.180 0.813 -0.710 0.228 0.182 -0.620 0.116 1.979 1.476 -0.105 1.791 -0.139 -0.230 -0.132 -1.081 0.289 -0.224 -1.193 -2.627 0.922 0.177 -0.291 -0.713 -1.163 1.261 -0.438 -0.251 -1.166 0.703 0.551 0.373 -0.349 -1.720 -1.456 1.022 -0.779 -1.175 -2.128 -0.143
-0.499 0.080 1.648 1.141 0.012 -0.937 -0.902 0.761 1.576 -1.122 -0.781 -0.258 0.245 0.515 0.041 0.104 0.839 -1.253 0.644 -0.656 0.391 0.434 -1.136 0.209 1.210 1.264 1.775 1.294 0.440 0.824 -2.641 -3.703 0.645 -1.601 0.140 -0.710 -1.108 -1.031 0.553 -0.807 0.716 0.377 0.325 -0.570 -0.172 0.960 0.443 -0.679 0.300 -1.225 -1.137 -0.585 0.881 0.499 -0.339 2.052 -0.700 0.250 0.850 -2.013 -0.951 0.130 1.155 0.115 -1.284 -1.657 -1.350 0.503 2.192 -1.289 0.063 0.547 -1.092 0.880 0.275 -1.861 1.899 1.137 0.137 -1.638 1.417 -0.613 -1.018 -1.665 -0.835 0.822 -1.127 -0.081 1.380 2.048 -2.515 1.196 -1.237 1.358 1.165 -1.623 -1.163 -0.360 -0.082 1.588
-1.094 1.269 -1.681 -0.182 -1.834 -1.414 -0.379 -0.010 -1.459 -0.277 0.569 -0.582 1.327 1.197 0.342 2.009 -1.314 0.939 0.862 -0.549 0.178 -2.356 -0.354 0.611 0.203 -0.359 0.411 -1.316 -1.499 0.886 -1.407 -0.781 -0.195 0.303 -0.693 -1.630 0.539 -0.246 -0.979 -0.673 0.255 0.614 0.650 1.877 0.690 0.728 0.077 1.338 -0.147 0.116 -0.300 0.237 1.551 -1.287 1.108 0.573 -2.114 0.812 0.823 0.761 -0.274 -1.015 2.164 -0.366 -0.469 1.129 -0.412 -0.878 1.835 -2.450 1.592 -1.252 1.379 0.102 0.297 -1.660 -0.466 1.849 0.224 0.478 0.319 -0.313 -1.744 -2.605 -2.468 -0.865 -0.866 -0.598 0.238 0.988 -0.511 -0.370 -1.796 -0.051 -1.772 1.052 -1.628 0.614 -1.173 0.344
-1.112 0.506 0.440 -1.008 -0.879 1.331 0.904 -0.657 1.473 0.883 0.244 -0.297 0.659 0.415 0.862 1.065 0.846 -0.349 3.583 -0.564 -1.918 -1.708 0.188 0.417 0.036 0.955 -0.259 0.480 -1.046 -0.810 0.746 -0.513 -0.248 0.643 -0.168 1.444 -0.503 0.227 -0.115 0.556 0.165 0.560 -0.766 -0.360 -0.824 -0.450 0.204 -0.004 0.066 1.164 0.649 0.242 0.842 -0.441 0.014 0.413 1.431 -0.991 -0.100 -2.616 0.353 -1.014 1.215 0.546 0.253 -0.384 -1.384 -0.256 0.901 1.001 1.955 -0.074 -0.037 0.480 0.244 0.349 0.699 -1.652 0.457 -1.458 -0.621 0.472 1.427 -1.044 -0.451 -1.173 -0.686 -0.438 0.067 1.129 0.367 -0.050 -0.563 -1.004 0.128 -2.353 0.029 0.715 -0.023 -0.393
0.788 -1.157 0.457 0.933 0.072 -2.441 -0.863 -1.363 1.012 0.502 0.277 2.050 0.475 -0.063 -2.697 0.600 -0.809 -1.387 -0.917 0.824 -1.810 0.462 -0.348 0.091 -0.251 -2.408 0.759 1.566 -0.157 0.064 -0.745 0.171 -0.303 -0.754 1.715 0.718 -0.041 -0.207 -1.852 -0.948 0.990 1.590 -0.519 0.350 -1.405 1.379 0.089 -0.944 -2.739 0.795 0.445 0.105 1.172 -0.385 -1.018 1.084 -0.183 0.271 0.474 0.125 1.645 0.033 -0.782 -2.063 0.900 -0.093 0.035 -0.178 2.289 1.423 -0.716 0.858 -0.513 1.508 -0.129 0.254 0.877 1.294 0.702 -1.327 0.307 0.569 -1.009 0.946 -0.204 -0.309 -0.563 0.816 -1.400 0.743 -0.392 1.110 -0.756 0.057 0.738 -1.228 -0.188 1.608 0.499 0.023
-0.475 0.067 -0.488 -2.729 0.612 1.258 -0.540 -2.959 1.423 1.579 0.357 -0.352 1.504 -0.597 -0.507 -0.772 -0.137 0.610 -0.928 0.620 0.036 1.858 -1.957 0.218 -0.314 0.914 0.393 0.570 -1.228 -0.284 -0.192 0.082 0.704 -2.287 -0.033 2.144 0.504 0.602 -0.258 0.308 0.883 -0.630 2.766 -0.798 -1.039 -0.305 -1.384 1.391 -0.012 0.507 -0.788 -0.701 -0.759 0.328 -1.988 0.019 -0.208 -2.102 0.896 0.717 -2.189 -1.025 -0.196 0.026 -2.507 -1.770 1.389 -1.329 0.744 0.871 0.266 1.184 -1.180 0.725 1.256 1.022 -0.128 -0.350 1.446 -0.391 -0.450 1.320 -0.228 -0.492 0.996 1.181 0.124 0.389 0.869 -0.056 -0.105 -0.337 -0.593 1.564 1.008 0.182 -0.170 1.200 -0.316 0.809
-1.836 -0.227 -0.659 -2.008 1.706 0.519 -1.514 0.608 -1.905 0.031 -1.508 -0.131 0.119 0.274 -1.635 -1.244 -0.589 0.572 0.742 1.428 0.269 -0.066 0.289 0.578 -0.443 -0.591 -0.712 0.324 -2.005 1.601 0.236 2.328 -0.296 -0.362 1.569 0.753 -0.622 0.262 1.311 -0.941 -0.111 -0.918 1.522 -1.510 -0.021 1.004 -0.126 0.867 2.438 -0.565 -1.100 -1.024 -0.915 0.930 0.422 -2.490 1.592 0.315 -0.129 -1.748 0.526 0.016 0.675 -0.870 -1.160 0.442 -0.437 0.068 1.493 -0.402 -1.105 1.591 0.641 -0.403 0.528 0.176 -1.364 0.156 -1.187 -1.579 0.572 -0.456 0.167 0.084 1.239 0.718 0.203 -1.003 -0.289 1.728 0.385 -1.418 -0.139 -0.257 2.091 0.775 -1.084 -0.507 0.170 -0.551
-1.616 0.165 -0.067 0.099 0.791 -2.844 1.182 -0.179 -1.117 2.217 0.203 1.551 0.288 2.273 0.029 0.076 -0.414 0.500 0.503 0.134 0.414 -0.809 0.800 -1.079 -0.619 -1.375 -0.150 -0.648 -0.230 0.168 -1.938 0.656 0.621 -0.123 -1.892 0.146 0.873 0.642 -2.752 0.070 0.030 -0.037 -1.256 -1.265 -0.799 -0.944 2.059 -0.228 0.632 -2.798 0.227 1.112 0.870 -1.177 0.324 0.994 -0.845 -0.013 0.154 -1.244 0.471 -0.377 -0.151 -1.316 -0.490 -0.811 -1.052 -1.537 -0.136 0.292 -0.458 0.683 -0.276 -0.426 0.525 0.616 -0.995 -1.897 0.220 -0.930 -0.696 -1.259 -0.856 0.497 -0.216 -0.291 0.710 -1.239 -0.895 -0.792 -1.716 1.486 0.568 -0.753 -0.130 -0.493 1.985 -0.322 -0.139 0.803
-0.889 1.609 1.024 -1.738 -0.533 -0.144 -0.579 0.687 0.232 0.055 -0.760 0.066 1.543 -0.487 -0.697 0.325 -0.497 -0.318 -0.563 0.277 0.918 0.074 1.051 0.131 0.121 -0.862 0.302 -2.177 -0.866 -1.003 0.642 -0.701 -0.962 1.256 -1.394 0.099 -1.412 0.315 -0.040 -1.492 0.436 1.437 1.308 0.991 1.230 0.031 1.611 0.044 -0.088 1.412 0.021 -0.534 0.063 1.291 0.294 0.961 -0.209 -0.153 0.993 -0.579 -1.870 -0.960 0.472 2.491 -0.015 1.053 -0.337 -0.162 0.259 -0.459 0.524 -0.897 -0.720 0.474 0.191 -1.484 -1.212 0.135 1.767 -0.621 -0.038 -0.686 -0.157 0.802 -0.228 1.339 1.135 2.583 0.226 0.374 -1.165 -0.714 -1.367 1.595 0.698 0.623 1.383 0.246 0.228 0.497
0.009 2.233 0.303 1.449 -1.301 -1.368 0.311 -1.802 1.376 -1.259 0.275 0.011 -0.531 0.604 -0.580 -0.183 0.128 0.531 2.025 0.080 -0.765 1.132 1.742 0.330 -1.160 0.094 1.325 1.900 0.634 -0.202 1.298 -0.675 0.101 0.720 0.449 -0.225 -1.866 -0.058 0.459 1.091 -1.769 -0.962 0.271 1.034 -1.902 1.282 -1.420 -0.275 1.976 0.450 1.159 2.069 0.672 0.010 1.329 0.795 0.745 -0.758 -0.567 1.267 1.163 -1.015 1.772 0.101 -1.428 1.540 1.855 0.208 0.466 -0.230 0.398 1.170 -0.294 2.567 -0.910 1.382 0.939 0.235 0.374 0.179 -1.530 -0.975 -0.645 -0.568 -1.373 1.045 -0.609 -0.924 -0.917 0.689 -1.086 -0.765 0.205 0.879 1.054 -0.185 0.678 -0.618 0.239 -0.715
-0.091 0.943 0.075 -1.144 0.056 0.935 -0.869 -0.624 0.277 -1.756 1.215 0.451 -1.042 -0.550 -1.288 -1.160 0.545 0.040 1.120 0.225 0.258 -0.023 -0.818 -1.844 -1.126 -0.624 0.476 1.141 1.059 3.033 -2.300 -0.799 1.275 -0.113 0.644 -2.355 0.904 0.401 0.457 -0.101 0.466 0.003 -0.255 1.041 -2.090 -0.351 0.486 -0.822 0.176 -1.199 1.325 -0.335 1.060 0.237 1.981 -0.554 -2.421 -0.779 0.517 0.322 -0.992 -0.979 0.271 1.175 -1.056 -0.555 -1.401 -1.287 -0.529 0.304 0.962 0.543 0.458 0.178 -1.883 0.244 -0.242 0.615 -0.092 -0.820 0.095 0.679 -0.301 -1.117 0.547 0.091 1.211 0.086 0.924 0.531 -0.792 -1.230 0.474 1.157 0.332 -0.027 0.813 0.441 1.507 1.304
0.119 0.390 1.231 0.560 0.119 -0.108 0.291 -0.083 -0.183 1.804 -2.446 -0.030 -0.341 -2.418 2.027 -0.786 -0.362 0.889 -0.109 -1.941 2.710 -0.114 -0.165 0.454 -0.095 2.756 0.862 0.529 1.493 1.126 0.231 -0.206 2.419 1.994 -0.279 0.270 0.208 0.891 -0.643 -0.516 1.105 0.434 0.672 -0.129 -1.245 0.419 0.194 -0.220 0.455 -0.387 0.078 -1.505 0.106 0.839 0.081 -0.358 0.707 -0.574 -0.150 -0.618 -1.232 -0.088 -1.058 -0.483 -0.863 1.026 -1.710 0.806 0.063 -0.375 -0.235 0.708 0.780 -0.637 0.454 0.195 0.217 -0.294 0.882 -0.606 0.782 -1.355 0.895 1.334 0.354 0.160 0.357 0.265 -0.700 -0.750 -1.015 -1.929 1.477 0.840 -0.966 -0.981 0.378 0.537 1.149 -0.488
0.953 0.528 -0.219 -2.197 1.101 0.835 -0.607 -2.439 -0.903 -1.325 0.228 1.857 0.302 -0.921 0.500 -0.202 -0.666 1.169 0.104 -0.034 0.646 1.741 -0.796 0.565 -0.259 -0.016 0.192 -0.368 -2.271 -0.156 -0.904 0.585 0.847 1.256 0.805 -0.212 2.735 0.722 0.453 0.312 0.017 0.470 -0.443 1.033 2.359 -1.630 1.789 -0.420 -0.171 -1.344 0.156 0.289 -1.049 -0.871 0.282 0.198 0.995 1.627 -1.155 -1.453 -1.254 1.186 0.418 0.235 0.019 0.899 -0.982 -0.801 -0.858 1.174 1.778 -1.124 -2.922 2.994 0.251 0.504 1.524 -0.829 -2.103 -0.980 1.263 0.783 -0.232 0.040 0.962 1.737 -0.293 0.062 1.776 -0.640 0.171 0.876 -0.463 -0.099 -0.641 -1.701 0.568 0.051 -1.002 -1.740
0.205 -1.908 0.094 -0.255 -0.873 0.245 -0.027 -0.153 0.883 -1.224 -0.473 -1.763 0.072 0.730 0.674 1.005 0.275 0.272 0.783 -0.428 1.652 0.571 -1.332 -0.727 -0.321 0.369 0.081 1.024 -0.821 0.972 -0.841 0.405 -0.033 1.104 0.570 0.148 0.536 0.158 0.236 -0.503 0.462 -0.639 -0.808 -1.225 0.014 2.482 -1.114 0.429 -0.162 -0.474 -0.004 -0.704 -1.563 -0.107 -0.942 1.204 -0.828 -0.207 -1.552 0.533 0.150 0.524 -0.034 -0.617 1.156 0.740 -1.310 0.622 -0.517 0.282 -1.553 -0.540 -0.732 -1.424 -0.952 -1.773 0.567 0.159 0.223 -1.461 0.263 0.144 1.454 -0.112 0.356 -0.132 1.036 1.503 0.731 0.076 0.748 -0.629 -0.341 -1.419 0.574 1.335 -0.084 0.744 -1.861 0.852
0.039 1.276 -1.365 0.050 -0.262 0.310 0.263 0.155 -0.673 0.742 -0.829 0.097 0.742 -0.936 -0.417 0.185 -1.330 0.360 2.114 0.617 -2.055 0.107 -0.008 -0.035 0.342 0.006 1.062 -0.604 -0.464 0.261 -0.038 0.096 1.291 -0.734 0.533 -0.504 0.257 -0.097 -1.168 1.056 0.731 0.986 -0.826 -0.014 0.312 1.435 -0.539 1.600 0.493 -0.533 -0.532 1.095 -0.807 -1.690 0.802 0.721 -1.804 -0.128 0.135 -0.004 -1.159 0.642 -0.176 1.103 1.135 0.053 1.328 -0.662 -0.417 0.831 1.500 0.485 -0.237 -0.457 1.020 0.936 -0.010 -1.072 1.080 -0.391 -1.262 0.568 -1.050 -0.634 -0.741 0.516 -0.153 -1.043 0.943 -2.075 -1.879 -0.304 1.491 0.131 -0.423 -0.701 0.617 -0.659 -1.236 -0.786
-1.490 0.791 0.093 -1.207 -0.744 0.142 -0.307 -1.436 -0.849 -0.581 -0.854 2.372 1.368 0.223 -1.865 -1.257 -0.932 0.763 -1.089 0.874 1.229 -0.046 0.447 0.498 0.341 -0.800 0.135 0.491 -1.205 0.237 -1.083 0.484 0.536 0.765 -0.841 1.901 0.507 1.286 -0.614 -0.680 0.372 -1.480 -0.594 0.124 1.314 -0.539 0.487 0.945 -0.601 1.484 -0.112 -0.584 -1.066 -1.713 0.811 -1.686 0.259 1.450 1.041 1.570 1.423 0.679 1.336 1.625 0.066 1.050 -0.758 -1.198 -0.743 -1.419 0.505 -0.766 -0.753 1.522 0.737 1.876 0.141 0.711 0.561 0.412 1.791 -0.343 -0.227 -0.535 0.946 0.992 0.369 1.466 0.614 -1.107 -0.389 -0.514 -1.871 -0.457 -1.296 -0.405 -0.899 0.517 0.333 -1.385
-0.479 -0.477 -1.092 0.314 0.252 1.462 1.938 0.339 0.803 0.176 0.657 0.883 1.024 -0.546 -0.437 0.509 1.450 0.376 1.158 -0.281 -1.221 -1.405 -0.090 0.106 -0.701 -0.436 -0.308 0.253 0.190 1.904 -2.084 0.001 2.082 -1.727 0.419 0.189 -0.772 0.982 -0.950 -0.463 -0.730 -0.829 -2.366 0.254 1.589 -0.081 -0.422 1.498 1.188 0.526 2.085 0.975 -0.391 -1.334 1.149 -2.263 -0.488 -0.301 -0.656 -0.562 0.170 0.868 -0.103 -0.953 -0.535 0.504 -0.021 0.572 0.591 0.533 -0.874 0.159 0.491 -0.683 -0.302 -0.583 -0.313 -0.077 -2.006 -0.328 -0.956 0.118 -0.287 0.670 -1.007 -0.017 1.381 -0.669 -0.024 0.051 0.871 -0.410 1.548 1.683 0.408 -0.022 0.693 2.529 0.227 0.334
-0.907 1.047 -0.435 2.357 0.023 1.006 0.562 -0.183 -0.100 -1.647 -1.325 -0.935 -0.959 0.504 0.227 1.371 -0.201 1.022 0.385 1.030 -0.163 0.985 -0.526 0.072 -1.034 0.476 1.325 -0.458 0.114 -3.628 0.542 -1.374 1.487 -0.847 -0.697 -1.035 0.854 -0.243 0.419 -0.152 0.367 2.633 0.637 0.984 0.079 0.266 1.195 -0.963 0.126 -0.667 0.438 -0.189 1.854 0.388 0.272 -0.335 0.604 1.392 0.136 -0.325 -2.711 1.067 -1.222 0.042 -0.176 0.708 -0.784 -1.324 1.174 0.144 -1.711 -0.050 0.521 1.875 -0.275 0.248 -0.665 -1.584 -0.380 1.003 -0.438 0.481 0.312 0.314 0.363 -1.624 -0.994 0.951 1.519 -1.801 -1.062 -0.809 1.718 -1.235 -0.861 0.532 0.832 -3.050 -1.909 0.906
-0.114 0.692 -2.176 -0.566 0.085 -0.445 -0.146 -0.797 -0.644 0.631 1.333 -0.987 -1.352 0.335 -0.515 -0.063 0.180 0.124 2.557 0.105 1.136 0.487 -0.427 0.433 0.227 1.075 0.247 1.942 1.069 1.297 0.777 -0.266 0.372 0.153 1.141 -0.052 -0.387 0.738 -1.080 0.055 0.027 -0.324 -0.926 -0.289 -1.004 -1.701 0.680 -2.637 0.094 -1.396 1.058 0.895 0.112 0.304 0.151 -1.539 0.309 -0.068 0.073 -0.913 1.657 0.752 -0.411 -0.977 0.856 0.006 -1.974 -0.518 -0.302 -0.703 0.920 1.043 0.157 0.895 1.735 -0.662 -0.676 -0.294 0.344 -1.166 0.725 0.687 -0.225 1.009 1.422 0.270 -1.307 0.533 1.399 0.880 1.405 0.679 0.138 -0.607 1.162 -1.225 0.808 1.826 -0.002 -1.763
0.489 -0.289 1.892 -1.042 0.047 -0.618 -0.976 -0.195 2.149 -1.834 -0.463 -0.302 -0.755 0.758 0.350 0.242 0.334 -0.825 -0.038 1.202 0.287 -1.291 -0.401 1.320 0.652 -0.297 -1.442 -1.065 -0.104 0.010 0.180 1.532 -0.464 -0.843 1.207 1.156 -1.108 0.454 -0.448 -0.238 2.134 -2.123 0.889 0.925 -1.884 1.903 -0.216 -0.415 0.082 0.372 -0.406 0.139 -0.651 0.957 -0.678 -1.293 -0.896 1.051 1.118 0.735 -0.740 1.212 -1.366 0.424 1.670 -0.891 0.598 1.562 -0.780 -2.175 0.337 2.119 1.312 0.909 0.480 0.008 0.508 -1.621 -0.623 -0.551 -0.274 0.102 0.694 -1.165 1.567 0.023 -1.973 -0.267 0.170 0.313 0.185 0.266 1.400 -1.239 0.826 -0.629 -0.522 0.813 -0.845 -0.665
-0.740 0.707 1.069 1.585 -0.338 0.188 -0.781 0.017 2.100 -0.841 0.140 -0.330 0.444 1.913 1.216 -1.012 -1.785 0.001 0.843 -0.694 0.485 0.631 1.340 2.372 0.012 -0.701 1.794 0.038 0.261 -0.923 0.539 0.648 1.380 -0.908 0.087 -1.759 -0.112 -0.790 -0.356 1.095 -0.063 -1.603 -0.929 1.485 0.569 0.076 -2.513 0.414 2.599 0.297 1.915 0.713 0.040 0.435 0.186 0.156 0.938 0.836 1.196 1.070 -1.910 2.011 -0.133 -0.061 -0.240 0.644 -1.669 1.711 0.380 -1.273 1.008 1.514 -0.401 -1.889 0.183 -0.882 1.510 -1.172 -1.021 0.047 1.145 1.962 -0.059 0.547 0.887 1.669 -1.043 -0.733 0.218 0.931 -0.205 -0.782 1.151 0.239 -0.178 0.088 -0.030 0.273 -0.532 0.211
-0.123 0.097 0.800 -0.760 2.130 -1.890 -0.914 1.021 -0.405 -1.780 2.349 0.058 0.248 0.040 1.671 -0.094 0.004 1.274 0.473 -1.815 0.245 0.749 -0.529 -0.525 0.404 -0.573 1.124 0.156 -0.025 -0.136 1.400 0.833 -0.274 -0.228 -0.692 0.740 -0.175 -0.144 1.672 -1.611 0.009 -0.314 1.436 0.801 1.397 1.622 -0.215 -0.203 -0.710 0.814 0.082 -1.212 -0.393 0.576 -0.231 2.683 0.565 0.315 1.103 -0.707 0.257 -2.618 1.159 -0.706 -1.481 -0.262 -0.103 -0.337 -1.247 0.988 0.947 -0.696 0.102 0.011 0.234 -2.807 -0.040 0.274 0.493 1.725 -0.308 -1.621 1.034 0.818 1.173 -0.747 0.211 -1.980 -0.410 -1.481 0.879 0.467 -0.719 -0.582 0.279 0.126 0.145 2.021 0.123 -0.936
0.434 0.272 -2.734 -0.137 1.080 -0.407 -1.300 -1.811 -0.357 1.806 2.513 -0.046 -0.083 0.323 0.284 -0.642 1.337 -1.264 -1.658 -0.768 -0.576 -1.075 -0.600 0.457 0.368 0.309 0.787 0.053 1.027 0.359 0.313 -1.713 0.129 -0.339 -0.134 -1.291 0.505 0.254 -0.268 0.113 0.778 0.408 0.962 -2.472 -0.146 -0.657 -1.239 -0.170 0.254 0.905 1.909 -0.055 -0.236 0.042 0.225 -1.635 0.969 -0.305 -0.022 -0.521 0.125 0.218 -0.411 1.069 -1.271 -0.671 -0.597 0.542 0.586 -0.799 1.022 0.625 1.612 -0.590 -0.029 0.877 -0.416 0.025 0.800 0.009 -0.017 -0.470 -0.087 0.563 0.260 1.329 -0.124 0.865 0.701 0.072 1.540 0.243 0.895 -0.145 0.730 -0.300 -0.447 -0.748 0.148 -0.009
1.832 -0.509 0.149 0.473 0.199 -1.621 -0.079 -0.542 1.182 1.018 0.185 -0.099 -0.473 -1.624 0.332 1.074 1.636 0.532 0.679 0.607 1.116 0.240 0.833 0.128 -1.365 -0.155 0.820 -0.466 0.012 -1.014 -1.420 -2.277 -0.342 -2.300 0.118 -1.218 -1.367 0.625 0.625 -0.601 -0.907 0.747 0.778 -0.332 1.863 2.092 1.644 -0.927 0.420 0.289 1.218 1.015 0.266 1.356 -0.115 -0.873 -0.457 -0.570 0.148 1.002 0.622 0.720 -0.305 -1.385 -0.869 -0.638 -1.571 0.682 0.283 -0.318 0.565 -1.780 -0.871 -0.082 -0.533 -0.093 -0.468 0.685 -1.658 -0.010 0.760 1.431 0.790 1.344 0.324 -0.837 -0.430 -1.393 -0.191 0.642 -0.008 0.446 -0.276 1.260 -1.053 0.594 -0.541 -0.377 0.281 1.299
0.111 -1.054 0.571 0.187 1.626 0.538 1.081 2.024 -1.556 0.476 0.031 -0.608 0.654 -0.655 1.030 -0.907 -0.563 0.210 -0.222 -0.497 -0.401 0.912 -1.555 2.480 1.900 0.025 0.979 -0.683 0.660 -0.522 -1.438 -0.118 0.142 1.092 0.525 0.734 0.818 -0.900 -0.265 0.673 -1.331 -0.011 1.598 1.581 0.318 -0.075 0.171 -0.072 -0.005 -0.676 -0.730 -1.209 0.116 -0.671 0.613 -0.303 -0.806 0.401 1.155 -1.462 0.079 -1.593 1.753 2.118 -0.865 1.134 -2.354 0.880 0.017 0.195 0.145 2.019 0.737 0.312 0.123 0.938 -0.939 0.861 1.058 -0.240 -1.421 -0.673 -0.005 -0.400 0.202 1.686 1.252 0.311 -0.736 -0.086 -1.732 -0.995 0.067 0.353 -0.983 0.028 0.410 0.716 -0.274 0.559
-1.231 -0.356 -0.305 -1.159 -2.139 -1.089 -0.307 0.002 1.217 0.208 0.415 0.129 1.663 0.058 -0.561 -1.865 1.891 -1.163 -0.169 -1.003 -0.081 -0.091 0.843 -1.106 0.412 -0.345 0.833 -0.182 1.160 -1.323 0.915 0.238 0.249 1.982 -0.357 0.986 -1.605 -1.643 1.763 1.110 0.021 -0.147 0.267 -1.148 -1.496 -0.635 -1.094 -2.681 1.353 -0.723 0.043 -0.202 1.381 -0.267 -0.698 -1.574 -0.654 0.509 0.223 0.003 0.808 0.189 -0.059 1.212 1.196 0.522 0.079 0.820 0.347 -0.330 -0.661 -0.810 -1.589 -0.517 -0.220 -0.875 0.205 -1.331 1.009 -1.791 0.157 -1.245 0.587 0.811 -0.593 -0.491 -1.099 0.068 -0.582 -0.321 -0.300 -0.099 -0.765 0.915 1.325 0.541 1.524 -0.995 0.506 -1.230
-1.058 0.232 0.999 -1.798 0.448 -0.034 -0.161 0.951 -1.188 -1.076 0.181 -0.810 1.079 -0.679 0.729 0.218 0.286 -0.541 -0.716 0.494 -0.488 0.563 0.770 1.720 0.519 0.340 -1.550 -0.124 -0.069 -0.941 1.337 -0.687 0.601 0.159 1.443 -0.409 -0.330 1.220 0.842 -0.449 -0.408 -1.407 0.194 0.548 -1.670 -1.218 0.356 0.061 0.188 -0.180 0.454 -0.037 -0.090 0.766 2.087 -0.473 1.570 -0.640 0.120 0.362 -0.307 -0.506 0.903 1.547 0.544 -1.416 1.421 1.680 -0.345 0.772 0.763 0.261 0.234 1.104 -0.461 0.117 0.313 0.718 1.308 -0.360 0.009 -0.572 -1.088 0.770 -0.859 -0.601 0.915 2.795 -0.667 -0.553 -1.013 -0.610 -3.882 0.860 -0.685 0.793 -0.946 2.091 -0.572 0.127
0.441 1.022 0.398 0.925 -1.041 -1.324 -0.150 0.841 -1.451 0.829 0.393 1.511 0.708 0.941 -0.080 0.809 -0.830 -0.181 0.518 0.255 0.364 0.164 0.823 0.188 -1.774 0.300 0.414 0.525 0.828 -1.009 1.338 -1.080 -0.440 0.500 -0.855 0.548 -0.873 1.329 -0.523 -1.230 -0.101 1.175 0.589 0.659 -0.256 1.500 1.545 1.792 0.250 -0.098 -0.145 0.802 -0.984 -1.269 0.065 1.096 -1.926 -0.438 -1.007 -1.038 -2.264 1.870 0.207 -0.502 0.017 0.015 -0.394 -0.636 -0.933 -0.654 1.012 -0.341 -1.268 -0.286 -0.112 -1.179 -0.154 -1.657 1.141 0.367 0.622 0.148 -0.596 1.501 0.350 0.425 -0.715 -0.772 -0.201 2.111 1.258 -1.414 -1.353 0.404 -0.195 1.214 -0.022 0.476 1.499 0.929
-0.560 1.616 0.866 2.182 0.100 -0.501 -0.511 1.071 0.142 1.365 0.280 1.120 -0.260 0.450 1.090 0.528 -1.059 -0.379 2.006 1.906 -0.559 -1.035 1.463 1.058 -0.669 -0.077 0.527 1.615 0.553 1.706 -0.964 -1.563 0.518 -1.135 1.754 1.364 -0.352 -1.057 -1.410 0.457 -0.026 0.745 -1.838 1.095 0.098 0.776 -0.081 2.001 -0.010 0.598 2.093 0.949 0.349 -0.712 -0.481 0.340 0.179 0.932 -0.372 1.350 0.695 -1.719 0.423 -0.164 0.097 1.289 0.520 -1.154 -2.485 0.097 0.724 -0.033 -0.712 -1.902 -2.560 -0.007 -2.816 -0.542 0.522 1.554 0.261 -0.039 -1.064 1.053 0.208 -0.221 0.979 0.441 0.492 -0.037 -0.450 -1.792 -0.566 0.354 -0.115 0.185 -2.273 0.125 0.703 0.604
1.792 0.602 -2.037 -0.677 0.196 0.366 -0.452 -0.434 -0.069 -2.358 0.524 0.543 2.073 1.052 0.792 0.580 -0.921 0.810 -0.070 -0.940 0.008 -1.170 -0.396 -0.935 0.728 -0.052 0.468 -0.354 1.006 -1.720 -0.488 -1.809 0.038 2.540 0.036 2.319 -0.868 -1.089 1.431 2.400 -0.246 0.175 -0.585 -0.894 -1.211 -0.768 0.229 0.306 1.428 0.509 1.245 0.880 0.243 1.603 -0.547 -1.478 -0.173 0.667 -1.292 0.265 0.829 0.680 -1.638 2.284 1.246 -0.349 0.943 -1.766 -0.602 0.824 -0.508 0.740 0.134 0.033 0.734 -2.043 -0.091 0.410 1.425 -1.264 -0.694 1.756 1.330 0.798 0.066 -1.335 -0.603 -0.709 0.701 1.582 -0.038 0.674 -0.198 0.343 -1.071 -0.037 0.734 -2.085 -2.712 0.108
-1.591 1.326 -0.324 -1.472 -0.303 0.679 0.165 0.620 -0.166 0.487 -0.249 -0.257 1.442 1.090 1.231 -0.893 1.725 0.064 2.438 0.983 -0.455 0.056 0.977 -0.011 0.749 -0.422 0.374 -0.823 0.690 -2.980 -0.328 -0.197 0.046 -0.324 -0.237 1.723 0.947 -0.389 1.481 -0.040 2.214 0.115 0.191 -0.302 -0.354 -1.914 -0.742 1.058 0.428 1.817 1.640 1.235 1.964 0.692 0.843 0.143 -0.928 0.454 0.176 0.460 3.386 -0.767 -0.521 -0.010 -0.052 -0.987 1.354 -1.882 -1.263 -0.591 -2.017 -0.395 -0.316 1.095 0.675 -1.465 -0.228 -0.298 -1.361 1.165 1.159 -0.797 0.013 0.841 0.754 -0.258 0.520 -0.380 0.350 0.989 -0.640 0.242 -0.035 -1.120 -1.784 1.075 -0.522 0.620 0.422 -1.452
-0.669 0.626 0.500 0.215 0.690 2.589 0.205 1.049 -0.264 -0.053 -1.305 -2.362 0.643 -0.169 -0.103 1.366 -2.148 0.419 1.271 -0.151 -1.854 1.399 0.201 1.197 1.848 0.014 -2.920 -1.030 -0.281 0.556 1.166 1.998 0.840 0.239 1.008 0.591 1.491 -0.936 0.468 0.241 0.088 -1.597 -0.649 -0.756 -0.639 0.644 0.104 -1.563 -0.943 0.117 -0.473 1.194 -0.600 0.159 -0.310 -0.246 1.020 0.987 -0.619 -0.113 0.814 -0.995 0.324 0.469 -1.367 -1.132 1.022 1.330 0.897 -0.569 -1.517 -0.573 1.159 -0.180 1.639 -0.610 0.474 0.015 0.932 -1.521 1.908 -0.238 -1.594 -0.839 -0.036 -0.325 0.009 -0.080 0.124 0.055 -0.923 0.595 -0.706 0.093 1.183 -0.040 -2.080 -0.649 0.502 -0.584
1.897 0.269 2.372 -0.193 2.715 -0.960 1.186 1.154 -2.327 -1.315 0.364 1.008 -0.008 0.828 -0.446 -1.553 0.445 0.985 -0.795 -1.092 -2.358 1.234 1.511 0.379 0.146 -0.669 -1.144 -2.476 0.253 -0.601 -0.104 -0.223 0.558 0.489 -1.555 -0.107 0.758 -0.186 0.286 0.651 0.348 -0.470 -1.098 0.800 -0.742 -0.038 -0.235 -0.074 -0.175 0.210 -2.126 0.243 0.144 0.066 -1.140 -1.438 -0.146 -0.077 0.688 0.930 0.255 -1.458 0.764 0.595 -0.342 0.567 1.178 -0.001 -0.020 0.172 -0.914 -0.406 -0.709 -0.851 -0.335 0.873 -1.076 0.588 0.678 -0.796 -3.173 -0.626 -1.013 2.084 0.213 -0.566 0.246 1.329 -0.849 1.546 -1.199 -1.362 0.945 -0.342 -0.404 0.275 -0.925 -0.491 -0.448 1.503
2.242 0.837 0.111 -0.825 -1.835 1.026 0.656 -0.418 0.956 0.318 0.281 1.351 0.655 -0.543 -0.897 0.449 -0.300 0.015 -0.280 -0.276 -0.086 -1.116 1.283 -2.097 -0.136 0.934 -0.660 -0.209 -0.855 1.800 -1.628 -0.072 0.089 0.824 0.015 -0.254 -0.159 -0.332 0.139 0.494 0.282 1.716 0.274 0.580 -0.476 1.419 -1.598 -0.891 0.280 -2.185 0.198 -1.093 -0.581 0.266 2.218 0.773 0.313 0.513 0.159 -1.558 1.126 1.075 -0.534 0.934 -1.247 0.202 0.249 -0.154 -0.317 -1.044 -1.062 2.013 -0.529 0.877 -0.381 -0.046 -0.466 0.562 -0.207 -1.039 -1.939 1.286 0.389 -1.193 1.048 -0.840 0.042 -1.443 -1.041 0.924 -1.082 -0.779 1.013 0.085 0.354 -0.378 0.966 0.837 -0.437 0.865
-1.783 -1.401 0.621 0.074 -1.039 1.794 -0.053 -0.368 -0.164 -0.796 -0.446 -2.646 -0.323 0.641 0.039 -1.218 -0.328 -1.195 0.262 -1.049 -0.999 -0.114 1.181 -0.821 -1.189 2.966 1.254 0.135 0.042 1.419 0.965 0.511 -1.094 0.701 -0.245 -1.110 1.226 1.915 -0.553 -1.536 -1.326 -0.126 1.425 0.263 -0.229 0.791 -0.118 -0.992 -0.467 1.468 0.316 0.209 -0.364 1.504 -0.581 0.432 -1.998 1.207 -2.084 -1.364 1.103 0.023 0.190 -1.760 0.254 -0.033 0.944 0.737 1.320 0.213 -0.922 -1.120 -0.737 0.507 -0.785 -0.219 -1.614 0.668 -0.100 -0.089 -0.132 -0.752 -1.155 0.460 -0.983 0.139 1.401 -0.971 -0.536 0.076 1.848 -0.198 -1.122 -1.088 -0.424 1.367 1.144 1.578 1.095 -1.120
-1.000 -0.430 0.871 0.522 0.907 -0.678 0.376 -0.444 -0.924 -0.228 0.266 2.208 -0.996 0.611 0.449 -0.876 -1.437 -0.175 -0.381 0.046 -0.173 -0.381 -2.022 -0.953 -0.397 0.786 -1.507 -0.651 -1.575 -0.625 1.048 1.000 1.939 -0.101 -0.032 1.124 1.122 -1.141 1.229 -1.389 -1.314 -0.855 1.264 2.381 0.331 0.760 -0.584 0.474 -0.024 1.154 -1.186 -0.527 -1.514 1.381 -0.809 0.736 -0.336 0.218 -0.186 -0.199 1.288 -0.612 -0.072 -0.734 0.112 0.638 -0.161 0.584 -0.378 0.107 0.843 -0.171 -0.327 0.583 0.730 -0.878 1.125 0.434 -1.785 0.105 0.733 2.243 0.806 1.645 -0.349 2.229 0.148 -1.678 0.392 -0.595 -0.499 -0.592 1.251 -0.219 -0.031 0.666 -0.106 1.148 -0.018 -1.092
1.985 -0.847 1.317 -0.058 -1.443 0.191 -1.267 0.507 -0.406 -0.611 1.126 1.224 0.148 -1.057 0.055 -0.075 0.024 -0.008 -0.959 -0.586 2.340 0.470 0.645 0.318 0.388 -1.970 0.284 -0.595 -0.454 0.616 -1.355 -0.062 -0.375 -0.972 1.480 -0.436 -0.342 0.249 -1.288 0.329 -0.182 0.079 -0.250 -0.708 -0.360 -0.136 0.003 0.997 1.426 -0.515 -1.257 -1.074 0.930 0.698 -0.707 0.917 0.987 -0.168 -0.079 -0.855 0.782 -0.224 0.854 0.555 -0.880 -0.225 -0.307 0.101 -1.255 -1.587 -1.369 1.811 -1.366 -0.817 0.657 0.701 -0.576 1.204 -0.240 -0.302 -0.193 -0.403 -0.546 -0.147 -0.489 -0.656 -0.711 -1.225 -0.666 1.552 0.188 -0.528 0.289 1.493 -1.068 -0.327 -1.666 -1.124 -0.003 -1.696
0.008 0.562 2.608 -1.359 -0.317 0.843 -1.352 1.032 -0.690 1.127 -0.083 -0.625 -0.976 0.300 -2.172 0.899 -0.430 -0.269 -0.338 0.002 0.030 1.657 0.399 0.017 0.381 1.668 -0.091 -0.303 0.097 0.807 -0.398 0.407 1.844 -0.107 0.728 -0.042 1.828 1.774 -0.341 -0.231 0.989 -0.328 -1.024 0.995 0.514 0.982 -0.163 -0.127 1.459 0.434 -1.053 -0.317 0.370 -0.215 -1.134 -0.585 -0.148 -1.626 -1.864 1.546 0.059 -1.512 -1.860 1.307 -0.377 -0.074 -1.573 0.355 -0.416 0.411 -2.597 0.050 1.009 -1.042 -1.061 1.093 -0.631 0.758 0.083 0.281 -0.155 -0.828 0.794 -1.290 -0.975 0.127 -0.217 0.633 -0.101 -0.234 -1.570 -0.141 0.594 0.998 1.239 0.237 0.521 -1.130 -0.631 0.361
-1.003 0.003 1.168 -1.347 -0.917 -0.929 -0.541 -0.100 0.491 0.609 -2.624 -0.958 1.646 -0.205 -0.845 -0.546 -0.908 0.755 1.348 -0.319 1.690 -0.191 -1.415 0.988 0.214 -0.636 -0.164 0.621 -0.223 1.944 -0.577 1.896 0.553 2.193 -0.000 -0.954 -0.193 0.269 -1.874 -1.466 -1.380 0.109 2.011 2.539 0.554 0.418 -0.319 -0.715 1.887 0.124 0.678 -1.363 1.264 0.123 -0.545 0.103 0.139 -1.042 -0.498 0.383 0.094 1.193 -0.020 0.315 0.819 0.779 1.498 0.182 2.323 -0.901 -0.868 1.264 -1.343 0.098 0.278 0.196 0.021 -0.306 -0.102 1.291 -0.223 2.513 0.305 -1.389 0.338 -1.716 0.090 0.088 0.399 0.486 -0.462 0.487 0.741 1.253 0.148 0.290 2.755 -0.835 -0.044 -1.161
0.017 0.654 -0.954 1.005 0.615 0.602 0.082 -0.020 -0.114 0.134 -0.631 -0.530 -1.039 0.785 -0.698 -0.922 -0.086 -0.292 -2.127 0.268 1.964 -0.310 0.820 0.380 -0.484 -0.014 0.662 0.649 -1.084 -0.111 -2.262 1.220 -0.648 -0.166 0.010 -0.620 -1.601 -1.654 -0.796 0.832 -0.332 -0.480 0.122 0.790 -0.104 -0.667 -2.518 -1.171 -1.362 -1.599 -0.659 -1.797 -0.371 -0.679 0.234 -1.377 1.857 1.355 0.189 0.923 -0.027 0.772 -0.113 -0.414 0.704 -1.044 -0.765 0.080 0.372 0.078 0.214 1.132 0.613 0.039 -1.911 -0.568 -1.121 -0.189 -1.737 0.376 -0.874 -1.127 0.229 0.664 -1.075 0.519 0.940 -3.108 0.427 -0.341 0.844 1.688 0.234 -0.096 0.636 0.746 0.036 -1.363 0.556 -1.118
0.822 0.793 -0.761 -0.477 -0.032 0.138 0.405 1.289 -1.246 1.138 -0.937 -0.401 1.211 0.195 0.347 -0.387 -1.314 0.471 2.149 0.049 0.746 0.114 -1.385 0.415 -2.122 1.436 -0.518 0.439 0.806 0.478 0.940 1.139 -0.811 -1.412 -1.856 -0.999 1.681 0.626 -0.582 0.958 0.517 -0.863 1.489 -0.031 0.044 0.583 1.201 1.801 -1.505 -0.210 1.122 -0.201 -0.052 0.905 0.153 -0.040 -0.129 0.762 -1.295 -1.010 -0.223 1.897 0.770 0.554 -0.480 -0.770 -1.533 0.619 -0.038 1.477 -0.121 0.532 -1.882 1.632 2.004 1.302 -0.090 1.694 0.307 1.884 -0.734 -0.127 -1.262 -0.341 0.113 -1.025 0.049 -0.965 -0.168 -0.367 -2.123 -0.024 0.380 -0.516 0.728 -3.300 0.868 -0.121 0.855 0.184
0.093 0.280 -0.422 -0.522 2.067 -0.126 -0.769 -0.964 0.591 -0.760 -0.505 1.628 -0.925 0.212 -0.160 -1.041 1.080 1.076 1.002 1.431 -0.751 0.491 -0.235 0.957 -0.995 1.353 -0.603 -1.381 -1.207 0.189 -0.024 1.514 -0.430 0.402 0.699 -0.450 0.531 1.718 -0.163 0.472 0.647 -0.218 1.734 -0.391 0.021 -0.016 -0.202 -1.459 -0.732 -1.465 -1.128 1.462 -1.316 0.211 1.200 1.085 0.488 0.925 0.659 -1.606 -0.238 -0.089 0.190 -0.047 -1.849 -0.519 0.861 0.008 -1.364 -0.437 -2.785 -1.243 0.486 2.946 -0.920 1.069 0.100 -0.146 0.260 1.255 0.873 -0.021 -0.394 -0.333 1.621 1.510 0.259 0.719 -0.582 1.031 0.540 0.769 -0.548 -1.015 -1.402 -1.020 0.333 -1.756 -0.415 1.312
2.189 -1.858 -0.119 -1.007 -0.128 -0.894 -0.127 0.287 0.121 0.164 0.517 -1.606 -1.655 -0.198 0.025 -0.320 0.402 0.269 0.633 0.106 -0.412 -0.056 -1.600 0.740 2.065 -0.532 -1.213 -1.583 -0.257 -1.436 1.384 0.269 -0.481 0.947 0.153 0.477 0.638 0.442 -0.239 0.287 -0.152 -0.080 0.645 0.608 1.577 0.840 -0.331 0.204 -0.284 -0.408 0.340 -0.941 3.424 -0.397 1.661 0.382 -0.272 0.945 1.512 -0.132 -1.136 -1.724 -0.311 -1.338 -1.536 0.271 -1.122 -0.499 -0.335 -1.940 1.902 -1.885 -0.689 0.789 -0.471 1.375 0.710 0.961 0.522 -0.574 0.774 1.432 -1.031 -1.523 1.776 0.993 1.619 1.162 -0.136 0.153 -0.662 1.158 0.425 0.961 0.302 1.629 1.396 -0.735 0.995 -0.100
0.711 -1.801 -0.081 2.032 -1.572 -1.463 -1.275 0.907 -0.443 -1.402 0.774 0.921 -0.679 -0.139 0.036 -0.465 -0.515 0.299 2.482 -2.572 0.665 -0.158 0.772 1.275 0.632 -0.139 0.416 0.942 1.427 -1.167 -1.331 1.075 0.371 0.997 -1.084 -2.315 -0.717 -0.363 1.593 -0.834 1.024 -1.046 1.293 1.207 -0.014 1.385 0.907 -1.288 0.792 -2.257 -1.296 -0.537 0.638 -1.107 -0.617 0.071 -0.586 0.106 -0.679 -2.065 -0.149 1.858 1.069 -0.605 -0.572 -1.288 0.078 0.373 0.302 0.228 -0.206 0.528 0.597 -1.871 0.623 -0.277 0.283 -0.181 -0.816 -0.156 0.869 0.141 -0.793 0.118 0.119 -0.881 1.672 -1.193 0.630 0.172 2.927 0.061 -0.414 -2.376 1.483 0.744 1.302 0.911 -0.227 -0.467
0.827 1.876 -0.054 -1.661 0.851 -0.141 -2.451 -1.212 0.557 0.224 -1.160 0.995 0.940 -1.167 1.182 0.169 -0.059 -0.447 1.238 -0.832 0.031 0.141 -0.033 -0.411 0.329 -0.149 0.447 0.398 0.691 -1.089 1.463 1.032 -0.968 0.340 0.161 -0.184 -0.687 0.884 1.433 0.395 -0.213 -0.160 0.848 2.182 2.750 2.513 1.320 0.168 1.094 1.552 0.700 0.259 -0.025 -0.374 0.225 0.388 -0.166 -0.337 -0.815 -2.442 -1.817 -0.595 -0.761 -0.489 -1.899 0.647 -0.156 0.903 0.444 -0.245 0.826 0.837 0.946 0.582 -1.022 0.385 -0.730 0.602 -0.518 -1.068 0.158 0.251 -0.806 0.586 -0.341 0.104 0.222 -1.489 -2.446 -1.012 -0.779 -0.842 0.588 -0.283 -1.069 -0.650 -0.301 0.741 0.640 -0.013
1.179 2.488 -0.146 0.450 0.618 -1.284 -0.360 -0.997 -0.390 0.892 1.162 1.144 -1.116 -0.110 0.614 -0.075 1.626 -0.571 0.592 0.497 1.413 0.821 0.823 1.095 1.246 1.323 0.186 0.245 0.897 0.008 0.538 0.040 0.768 -0.347 -0.032 -2.031 -1.344 0.546 -1.173 -0.944 -0.435 -0.842 0.575 0.593 1.492 -1.251 -0.608 -0.366 -1.872 -0.798 -1.263 0.193 -1.021 -0.774 0.300 -0.457 -0.929 -0.873 1.229 -0.353 -0.481 -1.318 -1.555 1.075 0.075 -0.976 -1.179 1.094 -0.170 1.379 1.311 -0.827 -0.100 0.202 -0.367 -0.095 -2.140 0.817 0.054 -0.657 0.219 -1.528 0.741 1.186 -0.770 -0.162 0.609 -0.336 0.597 -0.558 0.418 -1.125 -0.936 -0.091 -0.261 0.474 -0.793 -0.179 -0.898 -0.410
0.620 -1.399 0.223 2.088 -0.254 -1.220 -0.480 -0.963 -0.066 1.361 1.067 -0.359 1.012 1.136 0.369 -2.288 -1.131 1.270 -1.173 1.375 -1.353 -0.392 0.550 -2.001 -0.615 -0.676 0.424 0.507 -0.360 -0.716 -0.249 -0.543 0.064 -0.961 -0.145 -0.562 0.129 1.131 0.271 -0.653 1.268 1.698 2.143 -0.861 -0.469 -1.974 -0.727 -0.418 0.187 0.050 -0.285 -1.431 -0.341 -0.084 -1.470 1.031 1.016 2.098 -0.376 -0.142 1.112 0.153 -0.773 0.853 0.129 0.388 0.393 -0.663 0.634 -1.177 1.828 -0.308 -1.385 0.835 0.036 -0.309 -0.095 1.004 -0.167 0.126 0.347 1.274 -0.544 -0.559 0.608 1.182 -1.134 0.424 -0.104 0.812 0.502 -0.777 0.127 0.323 0.522 -0.022 -1.740 2.520 0.760 0.764
1.142 -1.027 -0.357 -0.439 -1.783 0.892 1.757 -0.359 -0.257 -0.159 2.745 0.995 -1.384 -0.888 -0.192 0.963 -0.225 -0.909 -1.306 1.301 1.976 -0.180 0.133 -1.179 -1.651 -0.254 0.321 0.619 -0.291 0.491 0.382 1.073 1.963 0.683 0.410 -0.439 0.832 0.748 0.667 0.687 0.296 0.464 1.352 -0.408 0.074 -0.380 0.992 -0.785 -1.070 0.368 -1.306 0.705 0.292 -0.895 0.671 -0.563 -0.836 0.409 -0.570 1.198 -1.250 1.007 1.684 -0.196 -0.450 -0.234 -1.078 0.788 0.608 0.713 -0.657 -1.112 -0.665 -0.545 -0.083 -0.788 -1.795 -0.067 -0.525 0.192 0.421 2.381 0.868 0.765 0.113 -1.431 -0.678 1.013 -0.050 -0.207 -0.861 1.384 0.192 0.906 0.264 -0.728 -1.188 -0.415 -1.406 -0.793
1.576 -0.305 -1.885 0.156 0.470 -0.813 -0.327 0.683 -0.570 -0.993 0.765 -1.876 0.533 2.144 -1.871 -0.755 0.820 -0.022 -0.528 -0.743 0.233 -0.274 -0.854 0.392 0.087 0.501 0.944 2.122 1.664 -0.608 -0.563 0.741 -0.918 -1.102 -2.798 -0.250 0.568 -0.539 1.095 1.843 -0.199 -0.465 1.356 1.488 0.376 0.986 0.755 0.069 2.155 1.179 -0.960 0.252 -0.008 -1.103 -0.741 0.247 0.047 -0.299 0.267 1.175 -1.343 0.294 -0.848 0.945 0.051 0.413 0.665 0.526 -0.148 0.953 -1.148 -0.188 -0.931 0.971 1.036 0.973 -2.140 0.304 -0.324 -1.522 -0.862 2.414 0.130 -0.926 1.123 0.333 -1.158 -0.559 -1.100 1.690 -1.707 -1.715 -0.229 0.310 1.220 -0.893 -2.162 -1.349 2.042 0.414
-0.489 -0.737 -0.267 0.909 -0.309 0.540 0.280 -0.126 1.107 1.273 -1.499 1.375 0.805 -0.138 0.902 -0.717 0.392 0.374 0.428 -1.935 1.382 0.751 -0.971 -0.092 1.991 -0.748 0.712 1.544 1.200 -0.951 2.166 -1.149 -0.751 -0.071 0.014 -1.278 -0.804 0.308 -0.209 0.388 1.734 -1.428 0.467 -0.106 -0.682 -0.225 -0.027 0.305 -0.222 0.363 0.083 0.820 -0.505 0.703 -0.205 0.216 1.125 0.072 0.621 0.056 -1.223 -0.332 -1.273 -2.036 -0.123 -1.961 -2.155 -0.839 0.314 0.530 -0.488 0.208 -1.335 -0.931 0.598 -0.679 0.135 0.394 -0.758 1.699 0.194 0.347 -0.221 -1.701 0.154 -0.729 0.040 0.582 0.616 1.530 0.733 -0.823 0.735 0.327 0.548 -0.264 0.991 -0.021 -1.694 -0.363
-0.570 -0.693 0.664 -0.301 -0.761 1.105 -0.626 0.216 0.143 -1.656 -1.624 0.601 0.350 0.003 1.181 0.452 -0.142 0.140 -1.867 -0.505 1.118 0.260 -0.638 -0.843 -0.486 0.408 0.391 0.109 3.132 1.293 0.464 0.220 0.380 -1.283 1.453 0.906 -1.403 -0.265 -0.161 -2.663 -0.829 -1.234 0.660 -0.392 0.362 0.384 -0.369 2.068 -0.304 -0.262 1.602 -0.898 -0.613 -0.214 0.230 -0.418 1.112 0.937 -0.703 -0.975 2.141 -0.481 2.161 -1.601 -0.323 0.354 0.191 -1.807 0.009 -0.497 0.636 -0.010 0.193 -0.284 0.295 -2.767 0.256 -0.976 0.422 -1.341 -1.299 -1.165 1.035 1.043 -0.817 0.437 0.659 -1.188 -0.601 -0.075 -1.167 1.762 -0.031 0.412 0.023 1.540 0.964 1.943 0.747 -0.280
-2.790 2.154 -2.180 0.431 0.473 -0.097 -0.917 -1.367 0.609 0.409 -0.543 -1.921 -0.136 -0.866 0.859 0.805 -1.125 1.725 -2.406 0.034 0.548 -0.537 0.715 -1.777 0.797 -0.131 -0.860 -0.346 0.654 -3.226 -0.253 -0.176 -0.387 1.789 0.580 0.260 -1.021 0.884 0.425 -1.179 1.254 0.067 1.520 0.582 -0.321 0.218 -0.793 -0.597 -1.800 -0.275 0.506 0.402 0.166 0.705 -0.953 0.528 2.305 -1.079 -1.060 1.911 -0.282 -0.247 -0.256 -0.286 0.721 -0.370 -0.039 0.248 -1.804 0.518 1.497 -1.056 -0.249 -0.078 -0.647 0.288 -0.467 -1.297 1.753 -0.724 -1.462 -0.826 -3.360 0.958 -0.164 0.458 -2.331 0.456 0.696 0.103 0.298 -0.207 -0.970 -0.255 -0.140 0.793 -0.636 0.656 -2.247 0.033
0.442 0.935 -1.783 -0.499 0.349 0.622 -1.434 0.268 -0.674 0.351 -0.489 -0.445 -0.018 -0.606 1.540 -1.598 -0.251 0.083 -1.076 -0.510 -0.948 -1.151 0.942 2.017 0.885 0.691 -0.583 0.593 1.319 0.696 -0.693 -0.340 0.048 -1.339 0.392 0.872 -0.166 0.553 -0.749 -0.591 -1.499 1.833 1.501 1.201 -1.239 -0.494 -0.660 2.019 -0.568 0.618 -1.469 -1.628 0.001 0.372 0.167 -0.337 0.129 -0.367 -0.135 -1.098 0.962 0.956 1.936 -1.672 -0.294 -0.626 -0.469 0.298 0.027 -1.049 -1.533 -0.129 -0.280 1.121 0.488 1.467 0.426 0.802 0.766 -0.456 0.226 -0.059 -0.365 1.206 -1.140 0.807 0.131 1.507 0.977 0.705 -0.040 -0.614 0.353 0.078 -0.226 0.748 0.688 -0.321 -1.139 1.996
-0.745 -0.457 0.240 1.160 0.138 -0.887 0.225 -0.436 -0.013 0.424 -0.739 0.629 -0.359 -0.920 -0.651 -1.659 -0.358 0.948 0.893 0.884 -0.065 -1.565 0.891 -1.867 1.467 1.471 1.782 -0.250 0.755 -0.087 0.409 -1.358 0.196 -0.242 -0.492 -0.046 -0.526 -0.559 -0.908 -0.265 1.983 -0.692 -0.481 -0.635 1.055 -0.214 -1.063 0.252 0.049 -0.747 -1.578 1.673 -0.466 1.223 0.368 0.204 -0.126 -0.303 3.113 1.278 0.696 -0.333 0.652 0.197 -0.957 1.663 0.861 -0.559 -0.739 -2.124 0.355 0.364 -0.247 0.274 -0.515 1.272 0.118 1.072 0.931 1.032 1.317 0.049 -0.341 -2.076 0.365 1.898 2.097 1.101 0.780 0.347 0.743 0.860 -0.767 0.555 -0.164 -0.184 1.256 -0.347 0.351 0.679
