Time: 31/03/2021 18:27:32
Batch size: 100
Epoch num: 1001
Learning rate: 0.001
Leaky ReLU alpha: 0.1
Iteration per epoch: 120
Final loss: 0.19568
Train error rate: 0.05417
Test error rate: 0.12899
Hidden nodes:100 50 10


Initial weight:
# w1_0
-0.727 0.691 -0.507 0.801 0.427 0.518 0.733 0.952 0.660 -1.070 0.224 -0.270 -0.289 -0.515 0.118 0.165 -0.677 0.769 -1.992 -0.462 -0.695 1.511 -1.646 1.236 -0.368 -0.036 -0.324 0.662 -1.902 1.857 0.212 0.751 0.070 0.319 0.457 0.905 -0.197 0.394 -0.431 1.015 0.475 0.577 0.727 -1.427 0.349 -1.570 1.610 1.436 0.527 0.750 -1.253 2.518 0.803 1.275 -0.383 -1.421 -0.896 1.989 -1.560 0.028 -2.397 1.345 -0.031 1.578 1.426 0.412 0.300 -0.073 -0.465 1.183 -1.425 -2.066 -0.201 2.046 0.355 -1.684 -0.194 -2.386 -0.454 -0.597 -0.531 -0.870 1.560 -0.823 0.370 -0.393 0.255 0.485 -1.926 -0.203 -0.080 -0.504 0.353 0.454 -0.091 0.560 0.275 1.232 -1.047 0.016
0.337 0.124 -1.637 1.007 -0.784 1.302 -0.203 -0.403 0.750 0.028 -0.157 -1.864 0.300 -1.576 -1.166 0.789 -0.214 2.268 -0.799 1.226 0.863 1.387 0.648 0.673 0.221 0.225 0.266 -0.739 0.040 -1.268 -1.308 1.487 1.395 -0.136 0.698 -1.383 0.698 0.996 0.612 -0.777 0.186 -1.328 -1.181 0.499 -0.136 0.186 -0.479 -1.582 0.398 0.635 1.597 -1.106 -0.951 0.925 -1.697 1.558 0.207 0.544 1.276 0.496 -0.164 -1.516 -0.455 -0.553 0.152 0.803 -1.112 0.114 -0.221 1.606 0.501 -0.424 2.106 -1.477 -0.204 -0.130 0.844 1.230 0.028 -0.647 -1.498 -0.977 0.084 -0.018 2.000 -0.769 1.464 1.197 0.182 -1.285 -0.895 2.107 -0.619 -0.861 0.940 0.528 0.692 -0.953 -0.931 2.766
0.653 -0.404 -0.357 -1.206 -1.866 -0.337 -0.975 -0.663 -0.072 -0.128 0.896 -0.520 0.772 -0.604 -1.072 0.726 -0.500 -0.260 0.440 -0.201 -0.997 0.292 -0.673 0.657 0.782 0.011 -0.390 1.630 1.396 0.197 0.880 1.263 -1.063 0.426 0.388 -1.495 1.168 -1.254 -1.882 -0.046 -0.277 0.342 -0.220 0.948 1.369 -0.149 -0.336 0.682 -0.872 0.609 -0.779 -2.076 1.287 0.217 1.001 0.136 -0.834 -1.275 0.186 -0.944 0.131 1.261 -0.017 1.018 -0.713 -0.492 0.453 -0.158 0.058 0.140 0.578 0.351 0.305 -1.370 -1.539 -0.189 -0.737 -1.106 2.373 2.120 -0.883 0.092 -1.168 -0.649 0.806 0.528 -1.641 -0.216 -0.784 -0.289 1.518 -0.003 -0.557 0.177 -0.598 -0.326 -0.631 -1.344 -0.340 0.038
0.195 -0.553 -0.309 1.377 0.079 0.864 -0.294 -1.283 0.921 -1.207 -0.264 1.125 0.679 0.147 1.019 0.822 0.378 0.885 -0.225 0.058 -0.527 -1.759 -1.012 -0.104 0.166 -1.922 0.647 0.485 -0.289 -1.151 -0.939 -0.498 -0.609 -2.545 0.632 -0.776 0.099 2.556 1.519 0.888 -0.968 -0.350 -0.353 0.053 1.131 -1.198 1.009 0.296 -0.155 -0.528 -0.243 -0.537 -1.144 0.186 1.307 0.450 -0.087 1.706 -1.256 -0.353 -0.026 -1.152 0.078 1.981 0.786 -0.442 -0.703 -1.280 0.966 0.187 -0.714 0.315 -0.387 -2.062 -1.214 1.045 -0.146 0.199 -0.007 0.239 -0.638 0.723 -0.757 0.098 -0.370 0.021 1.203 -1.807 1.066 0.346 0.956 1.747 0.588 -1.472 -0.804 -0.960 0.246 0.906 0.691 0.673
0.660 0.014 0.194 1.216 0.449 -0.030 -0.853 0.408 0.009 0.066 0.148 0.377 0.303 0.619 -1.005 0.376 1.745 -0.041 0.172 0.770 1.311 1.118 -0.089 0.183 0.456 -1.141 0.535 -0.472 0.365 -0.709 1.380 -0.029 0.262 1.416 -1.523 0.300 -0.280 -1.206 -0.533 -0.032 -1.074 0.728 2.676 0.195 -0.464 0.787 -0.551 2.950 0.559 -0.456 -0.980 -0.051 -0.840 2.681 0.526 0.222 -0.636 -1.497 -0.021 -0.116 -0.393 0.173 -2.096 -0.417 -0.856 -0.010 -0.278 1.135 -0.145 0.260 -2.130 -0.642 0.646 1.115 -0.631 -1.546 0.745 -0.701 1.168 -0.967 0.308 -1.505 0.897 -0.827 -0.216 0.702 0.238 -1.853 0.143 0.229 1.091 0.412 -1.112 1.137 -0.852 1.444 -0.707 1.307 -0.840 0.742
1.838 -0.259 1.075 -0.688 -2.093 1.816 -1.160 0.042 0.590 1.936 0.378 1.039 0.579 -0.480 -1.049 -0.763 -0.534 2.289 -0.515 0.221 0.559 -0.444 0.014 -0.941 -0.636 1.592 -1.114 -0.837 -0.818 0.358 0.603 -0.100 -0.576 0.010 -0.407 -0.308 0.777 -0.861 0.815 -1.000 0.113 -1.047 1.372 -0.276 -0.999 -1.344 -2.961 -0.068 -1.376 0.204 1.663 0.064 0.665 -0.375 1.328 1.271 0.430 0.641 -0.479 0.064 1.698 -1.412 -0.372 -0.351 0.334 0.272 -1.413 1.605 0.590 0.045 0.099 0.353 0.149 -0.722 0.700 -0.237 0.413 -0.609 -0.444 -1.139 -3.309 0.449 0.402 -1.114 0.401 -0.763 -1.691 -0.618 -1.625 0.227 -1.712 -0.999 0.780 -0.724 -1.487 -1.297 0.394 -0.513 -1.366 0.206
1.732 0.273 -0.436 -0.350 0.392 0.396 -0.684 0.091 0.671 -0.934 1.613 -0.523 -0.393 -1.501 -0.325 0.494 -0.117 -1.380 0.354 0.910 -1.838 -1.188 -0.922 -0.767 -0.723 2.100 -0.421 0.303 1.003 0.275 0.855 -0.115 -0.022 0.027 -1.321 -1.692 -1.151 -0.791 -0.695 -0.070 0.944 0.293 0.193 -0.339 0.515 0.391 -0.865 -1.121 0.597 -1.697 -0.000 1.421 -0.494 1.720 -0.075 0.691 0.367 0.490 -0.653 -0.669 0.451 0.907 -1.058 -0.391 -0.705 -0.376 0.589 -0.160 -0.665 -0.719 0.035 -0.674 -0.398 -0.270 0.081 0.045 -0.751 0.094 0.952 1.122 0.082 1.068 0.435 -0.893 -0.912 -0.952 0.183 -0.109 0.075 -0.474 -2.310 0.866 0.909 -0.011 1.326 -0.968 0.056 0.614 -0.006 -0.613
-2.982 -0.650 0.944 0.689 -1.476 -1.451 -0.935 0.135 0.101 1.183 -0.353 1.937 -2.545 -1.401 -1.661 -2.130 0.636 0.751 0.405 0.185 -0.042 0.172 1.886 -0.972 -1.901 -0.148 1.142 -0.588 0.560 0.702 -0.474 -2.254 -1.602 0.866 -0.949 0.831 1.848 0.228 -0.645 -1.436 -1.278 -1.027 -1.162 -0.423 0.925 -0.213 -0.909 2.463 -0.068 -0.357 0.943 2.021 -0.599 -1.782 0.126 0.065 -0.132 -0.608 -0.299 -0.491 -1.061 -1.279 0.778 0.222 1.787 0.368 0.680 0.199 0.371 -0.604 -0.793 -2.212 -0.529 -0.562 0.065 -2.015 0.996 -1.075 0.051 0.142 -0.268 -2.284 -1.232 0.153 -0.414 -0.349 0.805 -1.041 1.741 1.681 -0.757 1.379 0.058 0.611 -0.566 0.358 0.260 -2.251 -0.259 0.381
0.341 0.585 1.928 0.144 -1.237 -0.426 -0.690 0.083 1.498 0.169 0.285 -0.861 0.563 -0.039 0.871 0.016 -0.985 1.059 -0.427 0.526 0.766 -2.680 -0.997 -0.123 1.218 0.828 0.042 -0.052 1.310 2.595 0.382 -0.038 -0.365 0.590 0.203 -1.776 -0.123 -0.655 1.737 -0.281 0.592 0.548 -0.414 -0.872 0.716 -0.174 0.594 -1.447 0.037 -0.664 1.178 -1.258 -0.980 -1.131 -1.706 -1.516 -0.515 2.462 -0.051 -0.393 -1.006 0.252 -0.273 1.497 1.223 1.311 -0.832 1.936 0.250 0.439 0.332 0.494 -0.291 -0.214 0.477 0.773 1.264 0.797 -0.592 0.020 1.498 0.619 0.218 0.491 0.818 1.225 0.365 -1.242 1.263 0.021 -0.406 -0.595 0.894 -1.495 0.940 1.103 1.334 -0.324 -1.193 0.785
-0.131 0.386 -1.581 0.360 -1.218 0.535 0.469 -0.799 0.697 0.522 -0.471 0.546 0.483 -1.148 -0.348 -0.384 0.510 1.006 -0.674 0.423 -0.250 -1.504 0.194 -0.826 0.078 -0.871 -1.479 0.667 -1.196 -0.938 -0.939 -0.636 1.796 -0.887 -0.256 -0.198 -0.899 -0.106 -2.012 0.933 0.254 1.615 -1.604 1.009 -0.547 0.128 -0.945 0.894 0.372 2.257 0.816 -0.188 -1.467 0.542 -1.315 0.708 0.651 1.557 1.066 -2.287 0.897 -0.498 0.385 0.474 -0.774 0.036 0.976 -0.364 -1.357 0.968 -1.243 -1.280 -0.656 -0.097 -0.402 0.312 0.151 0.896 -1.741 -1.225 0.204 -0.431 1.272 0.948 -0.128 0.477 0.227 -0.265 -0.424 0.486 0.581 0.851 0.536 0.745 -0.116 -0.361 -0.722 0.983 0.452 0.560
-0.010 1.211 -0.924 1.240 0.186 0.283 1.766 -0.649 0.323 -0.471 1.018 -1.006 2.193 -0.739 0.920 -0.824 0.184 1.283 -0.616 -0.216 0.451 -0.893 -0.424 -0.602 0.460 -1.169 1.508 -0.603 -0.702 -0.635 -0.239 -1.346 -0.494 -0.481 2.171 1.220 1.317 -1.213 0.612 -0.164 -0.154 -0.005 -0.271 1.564 0.542 -0.562 2.067 0.059 1.050 0.959 -0.818 -0.767 -0.110 -1.475 -0.020 -0.560 0.190 -0.138 0.471 0.387 -1.274 0.799 1.416 -0.669 1.145 1.281 -0.140 0.630 -0.929 -1.303 0.725 2.268 -2.484 -0.344 1.086 0.918 1.873 0.932 -1.060 0.850 -1.704 1.202 0.832 0.550 -0.286 0.406 -2.796 0.438 1.540 -0.598 0.322 -0.796 -1.231 1.992 -0.037 -0.231 -1.071 0.035 -1.365 -0.510
0.462 -1.328 1.624 0.270 1.320 -0.333 1.537 -0.676 0.528 -0.322 0.947 -1.974 -1.000 0.878 -0.769 0.290 -0.447 -0.157 0.622 0.694 0.798 -0.557 0.722 -0.116 -0.541 -0.419 -2.670 0.390 -1.453 0.224 0.913 -0.460 -0.566 -1.525 -0.573 0.342 0.026 -1.020 0.506 -0.395 0.992 -1.631 -0.712 -0.703 0.752 0.923 -0.059 -0.290 -0.498 -0.667 -1.294 0.051 -0.150 -1.156 0.847 -1.517 0.637 0.316 -1.797 -1.432 0.496 -0.589 -1.351 -0.725 -0.817 -0.553 0.124 0.879 -0.736 0.774 0.060 0.523 1.067 0.740 -1.372 -0.729 -0.173 1.540 0.270 0.895 -0.695 -1.106 0.589 -1.341 -0.111 0.128 -1.187 -0.302 -1.785 0.352 -0.694 1.109 -1.149 0.487 -1.365 0.932 0.887 -0.496 0.894 1.198
-0.744 -0.358 0.819 0.208 3.253 -1.223 -1.356 -1.005 0.569 -0.504 0.292 1.465 -0.236 -0.460 0.626 -0.038 -0.898 -0.731 0.955 -0.456 -0.287 0.168 -1.385 -0.762 -0.335 -0.236 -0.456 -2.800 -0.006 0.913 0.171 -0.349 0.886 -1.829 -0.021 1.211 0.802 -0.208 -0.147 0.148 0.205 -0.180 0.150 0.289 0.958 1.785 -1.969 -1.475 0.002 -2.247 0.212 0.936 -1.113 -0.556 2.147 1.734 -0.191 0.902 0.842 0.847 0.758 0.453 -0.283 -0.573 0.551 0.266 -0.840 0.523 -1.277 1.602 -0.236 -0.953 -1.792 -0.959 -0.862 0.210 0.349 0.921 0.194 2.171 -1.965 -0.030 0.537 -0.113 -0.702 1.549 -0.941 0.579 -1.293 0.851 0.647 0.408 1.012 -0.405 0.360 -0.824 -0.524 0.012 0.919 -0.249
0.163 -1.109 0.123 -0.118 -0.951 -0.554 -0.700 -0.192 0.049 0.341 -0.607 -1.407 0.020 -0.950 1.302 -1.061 -0.856 -0.061 0.313 1.858 -1.723 1.180 -0.365 0.200 -1.418 0.131 0.812 0.117 0.309 2.667 -0.906 0.468 -0.330 1.841 -0.121 1.210 -0.307 0.535 -0.879 1.239 -0.995 0.178 0.148 0.009 -1.315 1.786 -0.224 0.030 0.534 1.650 0.997 -1.170 -0.266 0.257 -0.710 -0.114 -2.016 -0.633 -1.427 -0.058 -0.039 -0.683 -1.080 -0.092 -0.188 0.735 -0.961 -1.513 0.902 -0.955 0.306 0.523 -0.771 0.270 -1.363 -0.304 1.777 0.065 0.819 0.244 -0.433 -1.019 0.792 -1.497 -1.656 -1.000 0.312 -0.696 1.082 0.836 -0.118 0.856 0.782 -0.879 -0.965 -0.522 -0.270 0.655 0.158 -0.630
0.838 -0.841 -0.133 0.064 -0.307 -1.541 1.098 2.232 0.891 1.136 0.384 -1.592 -1.330 -0.490 -1.826 0.196 0.118 1.829 1.792 -1.301 -0.536 -1.095 0.301 2.338 -0.257 0.628 -0.742 -0.224 1.115 0.759 -0.922 -0.350 1.010 -1.863 0.400 1.699 -2.417 0.367 -0.981 1.248 0.185 -1.348 0.324 0.734 0.661 -0.455 0.993 -1.391 -0.126 -0.998 0.155 -0.060 -1.217 -0.650 1.505 2.146 0.173 0.137 0.330 -0.579 -1.104 -0.478 1.482 1.597 -1.084 0.876 -1.418 -1.335 0.787 0.443 -0.592 0.808 -1.039 0.478 -0.458 0.104 0.170 0.134 -1.169 -0.620 -0.706 -2.199 -1.940 0.402 -0.085 0.362 -0.073 -0.826 -0.558 -0.736 -0.116 -0.787 0.898 0.214 1.251 0.830 -0.204 -1.381 0.829 -0.221
-0.590 1.579 0.256 -2.043 0.058 -0.921 -0.817 -1.612 2.562 -1.331 -2.527 -0.045 -0.893 -0.728 0.321 0.991 -1.803 0.380 -1.577 0.993 0.722 -0.908 -2.054 0.895 1.408 1.020 -0.262 -1.942 1.152 -0.546 -0.443 -0.946 1.108 -0.507 -0.045 0.617 -0.362 0.565 -0.292 -0.918 0.716 1.018 0.697 -0.071 -0.488 -0.959 0.507 -0.464 -0.480 -0.082 0.163 1.005 -1.472 1.027 -0.558 0.340 1.968 -0.985 -0.471 0.516 -0.615 -1.026 0.233 -0.361 -2.273 -0.257 0.370 -2.660 0.447 -1.489 -0.745 0.810 -1.610 -0.973 -1.458 -0.229 -1.880 -1.799 -0.286 -0.165 0.017 0.047 -0.086 -0.821 -1.203 0.199 -0.761 0.034 0.623 0.225 2.098 1.690 -0.203 1.784 0.015 -1.933 -0.887 -0.574 0.186 0.013
1.282 0.657 -0.623 1.039 1.544 1.147 -0.155 -0.331 1.228 0.690 -0.295 -1.220 -0.900 0.227 0.041 1.474 -0.705 1.285 0.840 0.891 0.194 1.439 -0.856 0.628 0.373 -0.527 -0.425 1.299 -1.406 1.833 0.523 1.029 0.552 0.351 0.806 -0.480 -0.552 0.843 1.356 0.577 -0.274 0.233 -1.109 0.091 0.008 -0.953 -0.595 -0.767 1.102 -0.133 -0.917 1.385 -0.003 0.272 -2.032 0.091 -0.555 0.439 -0.468 -0.749 1.117 -0.170 0.444 0.215 1.761 -0.243 -1.194 2.214 -0.778 0.329 1.778 -1.248 -0.429 0.734 -1.136 -0.604 0.748 0.386 1.149 0.809 -0.956 0.566 0.700 0.880 -0.319 0.041 1.069 -0.696 0.533 -1.285 -0.275 0.364 -0.613 -0.083 -0.214 -1.870 0.300 -0.053 0.965 1.650
1.504 0.331 0.339 -2.385 0.150 0.734 0.002 -0.282 -0.217 1.197 0.006 -1.191 -2.383 -0.096 1.671 1.100 -0.463 -1.261 0.612 -0.025 -0.381 0.925 -0.340 0.447 0.979 0.749 0.424 0.268 1.063 -0.024 0.082 0.164 -1.567 1.295 -0.670 1.111 -0.053 -0.891 0.316 0.364 -0.154 0.100 1.858 -0.993 -0.450 -0.257 -0.963 -0.645 -1.869 -0.336 1.121 0.734 1.089 -0.480 0.351 -0.589 -1.915 0.728 -0.779 0.762 1.745 2.410 -0.914 -1.577 1.002 1.007 0.029 -0.127 0.015 0.049 -1.157 -2.058 0.109 0.958 1.886 -0.365 0.303 -1.107 1.251 -1.224 -0.312 0.845 1.814 -1.247 0.877 -0.525 0.026 1.675 0.166 -0.621 0.043 0.501 -1.118 0.958 0.534 -0.701 1.118 0.166 -2.055 -0.500
-0.176 -1.743 0.787 0.249 -0.901 0.662 0.075 1.147 -0.006 -0.276 -1.311 0.118 -1.666 1.371 -0.152 -1.871 1.482 -1.178 0.431 0.969 -0.810 1.195 0.366 -0.601 -0.530 -0.972 -0.169 0.791 1.202 -1.822 1.601 2.381 -0.836 -1.117 -1.149 -0.812 0.853 0.612 1.755 -0.100 -0.906 0.034 0.692 0.354 -1.665 1.440 2.788 1.074 1.134 -0.948 0.555 -1.068 0.038 -0.573 -0.228 1.988 0.831 -0.592 -0.214 -1.160 -0.804 0.623 -0.073 -0.786 -0.082 -1.013 0.165 -0.184 1.313 -1.243 0.500 -0.681 0.976 0.213 -0.790 -2.304 1.562 1.434 0.029 1.685 0.799 -1.102 -0.588 1.025 -1.207 0.671 1.040 -1.385 -1.182 -0.213 -0.069 -2.016 -0.633 -0.069 -0.028 -0.007 0.160 0.031 1.696 0.697
-1.908 -0.367 0.638 -0.135 -0.026 -0.912 0.880 0.827 -0.217 0.523 0.687 0.753 -0.622 0.780 -0.202 1.629 1.536 -0.358 1.282 -1.200 0.526 1.828 -0.787 -0.350 0.221 -0.720 -0.928 -1.461 -0.391 1.709 -0.229 0.598 0.595 -0.419 -0.756 -0.287 -1.003 1.436 0.373 -0.056 0.099 -0.088 0.554 -1.109 -1.862 -0.209 0.173 0.697 -0.584 -0.732 0.225 0.495 1.118 -1.399 -1.016 -0.801 -1.389 1.130 -0.100 1.923 -0.871 0.912 -0.079 1.042 0.355 1.569 0.273 0.265 -1.610 -1.451 0.250 1.488 -0.863 -0.492 0.173 2.044 -1.635 -0.372 1.293 -1.278 -1.470 -0.149 -1.119 0.169 -1.025 -0.791 -1.213 0.209 0.082 -1.321 -0.135 -0.594 -0.840 -0.942 -0.918 -1.209 -0.442 0.140 1.373 -0.072
0.272 -0.496 -0.376 -0.567 -0.823 -2.149 0.533 -1.513 -0.851 -0.465 0.826 -0.786 0.686 -1.532 -0.021 -0.075 -0.093 1.249 0.013 1.527 0.503 0.462 0.357 1.276 0.489 -0.996 0.946 0.216 0.477 0.252 -1.288 0.319 0.677 1.142 -0.402 -0.063 -1.751 0.276 -0.989 0.213 -0.524 2.959 -0.414 -1.449 0.044 1.399 1.123 -0.098 -0.580 0.880 2.359 -1.156 -1.177 1.420 -0.133 0.128 -1.067 0.533 1.254 -1.147 1.574 -0.448 0.565 -0.445 1.490 -0.281 1.579 -0.287 0.745 -1.723 2.157 -1.413 -1.501 -0.960 -0.697 -1.184 1.525 -1.295 -1.273 0.599 0.839 -1.333 -1.161 0.118 -0.508 -0.632 0.585 0.824 1.951 1.024 1.482 -1.351 -0.931 0.402 0.737 1.058 -0.106 -0.624 1.164 0.156
-0.428 -0.507 0.094 0.874 -0.024 0.792 1.504 -1.115 -1.538 0.144 -0.973 -0.499 -0.626 -1.650 -1.159 0.020 0.346 -0.555 0.611 -0.400 0.458 -1.445 -0.054 -0.588 0.222 -1.607 -0.711 0.341 1.378 -0.675 -0.711 0.436 -0.909 1.588 -0.161 -0.682 0.574 0.394 0.949 0.094 0.500 -1.221 0.600 0.084 0.948 -1.266 -0.107 1.826 -0.121 0.706 -0.760 -1.607 1.547 0.142 -0.383 -0.666 2.312 -2.230 -1.626 0.652 -1.151 -0.247 0.101 -2.618 0.616 -0.586 -0.724 -0.318 -0.275 0.062 -0.794 -0.080 -2.215 0.572 -1.470 -1.581 1.082 0.591 -0.748 1.224 1.456 -1.274 -0.307 -1.165 -0.173 0.509 -0.871 0.810 0.553 -0.709 -2.255 1.480 0.272 0.365 -0.564 -0.137 -1.179 0.016 -0.545 0.331
-0.707 2.855 0.166 0.295 -0.318 1.380 -1.391 -0.225 0.163 0.924 0.096 -0.226 -1.065 0.031 -0.191 2.624 1.777 -0.718 1.094 0.469 -1.625 0.003 -1.349 -0.353 -2.427 -0.846 -0.882 0.048 1.432 -0.282 1.198 -0.592 -0.683 -0.500 2.770 -1.703 -1.508 2.213 -0.750 -0.248 0.505 -1.573 0.436 0.805 -0.184 0.214 1.007 -1.270 1.358 0.829 0.384 2.259 0.677 -0.571 -0.213 0.346 0.509 -0.568 -0.287 -0.225 0.131 -1.444 1.376 0.485 -0.105 0.317 -0.219 0.768 0.596 0.357 0.459 -1.437 0.615 -0.113 -0.329 0.965 0.515 0.816 0.533 1.746 1.480 1.212 1.552 -2.076 -0.400 0.704 1.076 0.417 0.821 0.986 2.347 0.661 -1.096 -0.243 -0.005 0.135 2.079 1.220 -0.687 0.082
-0.804 0.650 0.450 -0.795 -0.247 -1.313 0.947 -1.610 -0.042 -0.361 -0.791 -1.202 -0.593 0.341 1.043 1.174 -0.494 -0.813 2.218 -0.142 0.883 -1.669 0.664 0.305 -2.206 0.744 -2.033 -2.180 0.193 -0.449 0.420 -1.123 -0.042 1.095 0.359 -0.884 0.195 0.956 -0.075 0.031 0.534 0.790 -0.516 0.265 -0.222 -2.106 -0.204 -0.786 0.315 -0.133 0.030 0.835 -0.284 0.985 0.801 0.249 0.177 1.085 0.384 0.844 0.792 2.247 0.664 -0.433 -0.091 -1.335 -0.512 1.877 0.831 0.370 0.713 0.401 0.572 -0.120 -0.023 -0.549 -2.590 -1.077 -0.695 -0.118 0.376 -1.731 -0.670 -0.403 -0.101 0.847 0.231 1.920 -0.471 1.185 -1.318 0.647 0.161 0.315 0.757 1.900 -0.558 -0.614 -2.237 1.268
-0.904 0.549 1.203 -0.363 -0.808 0.439 0.958 -0.513 0.962 -0.975 -0.056 -1.656 -1.274 1.030 -0.281 1.472 0.567 -1.381 -1.457 0.939 1.150 1.699 2.252 -1.710 -1.268 1.440 0.552 -0.191 -0.087 0.794 0.567 2.642 -0.739 -1.891 -0.710 -0.137 -1.232 -2.610 -1.422 -1.475 -0.720 -0.976 -0.253 0.486 0.732 -1.584 -0.568 0.886 -1.898 1.215 -0.838 -0.225 -0.888 0.372 0.273 -1.205 -0.425 -1.196 -0.921 -0.090 0.020 -0.179 0.352 -1.204 -0.696 0.691 -0.088 1.322 -1.511 -0.835 0.289 0.890 -1.521 -0.031 -0.313 -2.756 0.042 -0.543 -0.814 0.919 1.253 1.200 0.450 -1.296 1.002 0.219 0.926 -0.535 -1.325 0.971 0.176 0.610 -1.471 -0.584 0.546 1.024 1.422 -0.439 0.802 -0.179
-1.845 0.065 1.059 1.671 0.628 -0.194 -1.406 0.474 1.760 0.618 0.624 -0.086 0.385 1.175 0.076 -1.160 -0.939 0.946 -0.800 -0.324 0.631 -0.162 0.973 -1.688 0.012 -0.156 -0.098 1.296 0.686 -0.211 -0.798 0.477 0.277 1.096 -0.065 1.730 0.062 0.392 -0.368 2.151 -0.152 0.736 0.132 -0.118 0.295 0.081 2.476 2.018 -0.155 0.222 0.125 0.027 -0.007 -0.933 1.024 0.473 0.217 -0.854 0.744 0.683 -0.363 -0.178 -1.105 -1.453 -1.771 1.766 -0.003 2.120 -0.911 -0.149 -0.397 1.521 -0.209 -0.314 -0.824 -0.265 -1.827 -0.689 -0.312 0.195 0.736 0.038 -0.067 1.669 0.623 0.214 0.427 0.255 1.178 -0.022 -1.033 0.889 1.017 -0.356 -0.147 0.389 0.573 0.447 0.713 0.809
-0.374 -2.856 -0.770 0.836 -0.325 1.085 0.228 0.273 -0.526 -0.269 1.531 1.929 0.389 1.138 1.236 -0.246 -0.718 -0.605 -0.497 1.037 -0.357 0.007 0.281 2.755 1.600 -0.965 -0.624 0.285 -0.654 1.598 0.312 0.782 -0.404 -0.382 1.021 -0.124 1.383 0.206 0.053 -0.287 0.084 -0.201 0.992 -0.518 -0.367 -0.473 1.218 -0.138 0.650 -1.711 -0.007 -0.164 -2.484 -1.106 0.554 -1.700 0.739 0.334 1.757 -0.442 1.121 0.705 0.582 -0.541 0.411 0.479 0.193 0.471 -0.019 -0.364 -1.883 0.470 -0.848 -1.449 -2.786 1.172 -0.289 0.399 0.579 0.733 -0.577 1.346 -1.023 1.355 0.278 -0.498 -0.201 0.278 -0.146 -0.048 -0.768 -0.979 0.894 -0.641 -1.793 -1.948 -0.912 1.096 -1.097 -1.120
0.380 -0.051 -2.111 2.374 -0.152 0.026 -0.013 0.544 -0.422 -0.180 -1.511 0.911 -1.327 -1.456 1.175 -2.390 -0.417 -0.098 -0.106 -0.051 -0.964 -0.094 -1.802 0.757 -0.360 -0.568 -0.268 2.044 0.504 -0.031 0.380 -0.127 -0.048 0.414 -1.137 0.641 -0.736 -0.335 0.622 -0.097 -0.528 -1.013 0.558 1.055 -0.091 -0.160 2.797 0.083 1.478 0.316 -0.078 0.267 0.002 3.166 0.264 0.652 -1.250 0.598 0.224 0.282 -0.338 1.413 1.180 0.193 2.142 0.359 1.185 -0.295 -1.026 0.375 -0.211 0.850 0.241 0.284 0.212 1.055 1.175 -0.632 -1.824 0.019 -0.914 1.807 -1.442 1.260 -1.769 0.860 0.453 -0.542 1.885 0.729 0.717 -1.225 0.210 0.231 -0.743 0.815 -0.800 -0.331 0.712 1.005
-0.169 -1.371 1.753 -0.491 0.699 0.453 -1.186 0.930 0.687 -0.072 0.147 0.347 -1.049 0.056 0.160 2.009 0.873 0.924 -1.250 0.491 -1.558 -1.200 -1.070 -1.449 0.054 0.363 -0.635 1.231 -1.032 -0.603 -2.233 -1.804 -0.134 2.942 -0.809 0.863 0.002 0.663 0.479 0.799 -0.364 0.668 1.706 -1.414 0.199 0.555 -0.287 0.440 2.743 -0.456 0.011 1.023 0.537 0.359 -0.684 -0.232 0.801 1.158 0.018 0.760 1.011 0.250 1.581 -1.372 -1.497 1.401 -0.598 -0.257 0.482 1.461 1.510 0.255 0.192 0.649 -1.707 -1.015 0.546 1.136 0.499 0.820 -0.100 0.155 0.859 -0.508 1.815 -0.156 -0.958 0.200 0.652 0.177 -0.855 -0.409 -0.055 0.407 -0.061 -0.322 0.062 0.403 2.039 -0.445
-0.422 0.107 -1.098 0.873 -0.249 0.399 -1.182 0.403 0.227 0.109 -0.465 0.835 -0.215 -0.802 -0.608 -0.557 -2.011 1.461 0.621 0.528 1.282 0.190 -1.448 0.357 1.255 -0.350 0.547 1.002 1.018 -0.390 1.235 0.567 -0.577 0.569 -1.160 -1.215 -0.366 2.760 1.490 -2.858 -0.738 0.308 -0.347 -0.710 1.764 -0.349 -0.152 -0.900 1.347 1.530 -3.478 -0.155 0.952 -0.145 -0.178 1.977 -0.617 -0.801 0.330 -0.829 1.243 -1.053 0.555 -0.672 1.146 1.367 -0.398 -0.678 -0.136 0.381 0.572 0.978 -0.909 -0.646 -0.108 -0.058 0.386 -1.033 0.472 -1.896 0.318 -0.711 0.742 -0.085 -1.803 -1.576 -0.585 0.077 1.648 -0.849 0.881 -2.499 -0.017 -1.131 0.140 0.447 0.832 -1.445 -0.482 -0.259
-0.372 -1.254 1.054 -0.143 -0.198 -0.244 2.875 1.244 -0.790 0.632 0.848 0.688 -1.431 -0.335 0.059 0.318 0.539 -1.811 0.142 0.113 1.624 0.811 1.901 1.301 0.610 1.085 -0.535 1.644 1.211 -1.575 0.628 1.355 -0.348 0.925 0.924 0.358 0.421 -0.146 1.608 1.013 0.956 -1.024 0.560 0.605 -1.003 1.074 -0.804 1.344 -0.633 -1.576 0.186 1.068 1.153 0.901 -0.790 0.463 -1.167 0.026 -0.042 -1.397 1.914 -1.185 1.148 0.556 -1.274 -0.878 1.608 -0.035 0.370 -0.103 1.812 0.258 -1.106 -0.871 -0.987 -0.495 1.569 0.421 -0.137 1.149 1.075 1.807 -2.443 -0.615 0.207 2.077 0.319 -0.444 0.572 0.863 -0.327 -1.417 0.471 0.708 -0.343 1.507 -0.928 0.904 0.681 0.179
0.308 0.405 1.178 -0.574 2.265 -1.343 -1.071 0.604 -0.018 0.867 -1.454 -0.741 1.484 -1.250 -0.303 1.788 1.195 1.232 0.137 1.812 -1.923 1.060 -0.454 1.439 -0.507 1.245 0.388 0.595 2.292 0.671 -1.248 -0.122 -0.546 -0.480 0.851 1.855 -0.101 0.156 -0.335 0.918 -0.969 -0.748 1.462 1.054 -0.576 2.533 0.196 -0.497 2.428 -0.646 0.263 -0.700 1.062 1.351 -2.003 -0.226 -0.022 0.389 -0.068 -1.873 1.376 -0.941 0.562 -1.253 -1.681 -0.709 0.526 0.082 0.282 -0.175 -1.372 1.927 -0.123 1.555 -0.053 0.854 1.365 0.635 -1.603 1.246 1.453 1.211 -0.592 -0.299 -0.418 -0.031 0.423 -0.209 -0.581 -1.098 -0.704 -0.137 1.643 -1.317 0.043 -0.561 -0.811 -1.047 -0.263 -0.654
-0.382 -0.277 -1.596 -0.416 1.423 1.430 -1.155 -0.277 2.405 -0.089 -1.037 -0.600 -0.848 1.555 -0.961 0.067 1.699 0.128 1.245 -1.215 0.378 0.958 -0.104 1.989 1.049 -0.266 -0.322 -1.280 1.555 0.164 -1.725 0.843 0.625 -0.131 -1.125 -0.503 -0.196 -1.502 0.695 -1.133 -2.076 -1.382 1.116 -0.230 0.923 1.664 2.511 -1.297 -1.335 0.196 0.232 -0.756 -1.073 -0.981 0.387 -0.238 -0.813 0.215 0.245 -1.840 -0.817 0.001 -0.486 -0.054 1.333 -0.562 -0.082 1.135 -0.853 0.315 -0.560 -1.821 -0.020 0.842 -1.231 0.410 -0.355 0.373 -0.080 -0.609 -0.324 0.664 -0.511 -0.000 2.666 1.030 -1.118 -0.078 -0.918 -0.101 0.216 -0.863 0.613 0.315 0.678 1.406 -1.095 -1.274 -0.543 0.369
-0.698 1.087 -0.033 -1.551 -0.250 1.001 0.144 1.214 -0.714 -0.551 1.530 -0.646 -0.810 -0.648 -2.163 1.030 -1.587 -0.066 -0.967 -0.780 0.859 2.441 -0.229 0.909 0.396 -0.463 -1.072 0.072 1.189 -0.312 -0.736 0.009 -0.596 -0.237 0.700 -0.250 -0.485 0.929 0.540 -0.252 -0.564 2.014 1.128 -0.064 0.015 -0.917 0.483 -0.537 -1.113 -0.163 -0.371 -0.256 -0.315 -0.351 0.139 -0.397 1.200 -0.851 -0.718 0.345 -0.554 1.901 -1.242 -1.061 -0.298 -1.015 -1.335 -0.092 0.285 1.011 -1.768 1.640 0.668 -1.722 -0.294 -0.015 -0.314 0.367 0.970 1.932 0.271 0.668 -0.251 -0.752 0.047 -1.170 1.556 -0.392 0.291 0.614 -0.319 0.998 -0.678 -0.642 0.657 -0.935 -2.293 0.765 -0.387 -0.829
-1.062 0.535 -0.159 0.692 0.726 0.663 -1.507 -0.996 -0.671 0.855 0.378 0.315 -0.911 1.001 -1.027 1.070 -1.984 1.382 -1.107 -1.125 0.849 -0.607 -0.694 -0.621 -0.685 -0.021 0.823 1.409 -0.417 -0.356 1.852 -1.362 0.190 -0.925 0.827 -0.279 1.104 -0.145 -0.306 0.494 0.259 -0.871 0.467 -0.754 0.166 0.734 -0.735 -0.114 -0.835 -0.572 0.865 0.024 1.061 -0.926 1.223 1.326 -1.368 1.127 0.327 -1.532 1.454 -1.194 0.018 -0.474 0.555 -0.325 1.431 1.102 1.004 0.141 -0.777 0.837 -0.206 -0.070 0.463 -1.067 -0.579 -1.902 -0.143 -1.364 0.024 -0.667 -1.939 1.835 -0.134 0.813 -0.465 0.434 -0.743 -0.263 -1.199 -0.370 -0.112 -1.594 1.297 -0.740 0.385 1.481 -0.624 -0.481
0.588 -0.406 -0.209 -0.363 -1.080 -0.646 -1.558 0.917 -1.316 -0.329 0.750 0.798 -0.619 1.009 -1.104 -0.364 -2.143 2.140 -0.461 0.176 1.725 -0.618 0.158 1.699 1.008 0.055 1.271 -0.131 -0.681 0.687 0.424 1.019 -0.129 0.457 -0.055 -2.060 -1.563 -0.990 0.167 0.789 -0.582 0.757 0.750 0.245 0.784 1.021 -0.923 -2.293 0.173 1.610 -0.171 -0.968 -1.519 0.191 0.192 -0.072 0.718 -1.516 0.178 -1.345 0.286 0.443 -0.074 -0.316 0.011 0.289 0.214 1.122 -1.050 0.037 0.221 -2.416 -0.931 -0.782 -0.094 -0.172 0.042 0.824 0.874 -0.872 -0.161 0.659 -2.161 -0.720 1.947 -0.824 0.989 1.715 0.943 -0.795 0.230 0.673 -0.639 0.488 0.648 0.780 -1.273 0.509 0.916 -1.629
0.301 0.154 0.593 1.486 0.007 -1.585 0.387 -0.541 -0.516 0.352 0.216 1.160 -1.357 1.706 -0.326 0.442 -0.030 0.859 0.380 -1.799 1.156 -0.157 0.085 -0.207 -0.440 1.059 -0.200 1.775 0.710 -1.264 -0.299 1.450 0.316 0.824 0.309 0.721 0.630 0.458 -0.885 -2.731 0.070 -0.890 0.327 1.593 0.135 -0.292 0.382 0.768 -0.274 0.901 -0.217 0.686 -0.106 -1.718 0.361 -1.214 0.713 -0.827 0.165 -0.137 0.308 0.153 -0.567 -0.506 -1.430 -0.423 0.485 -0.400 0.304 -0.968 0.095 -0.877 -0.423 0.945 0.082 0.143 -0.125 -0.320 0.403 -0.615 0.099 0.055 0.947 0.355 -0.171 0.518 0.095 0.078 -0.347 -0.297 1.069 -0.682 0.364 0.196 -0.016 1.174 -0.623 -0.904 -1.239 -0.881
-0.059 0.361 1.360 0.615 -0.740 -1.287 0.352 1.530 0.344 -0.812 -0.323 0.344 1.771 -0.282 0.179 -1.492 1.051 0.316 -0.200 -0.663 2.055 -0.506 -0.023 -0.963 1.162 -0.441 -1.243 -2.047 0.536 0.957 -1.230 -1.332 -0.247 0.174 -0.566 -0.352 0.080 0.077 -0.603 0.780 1.208 0.165 -0.364 0.086 0.136 -0.057 -0.011 1.446 -0.625 -1.395 -0.421 0.999 -0.936 0.510 -0.777 0.843 -0.976 0.968 0.572 -0.830 -1.180 1.734 0.348 2.275 -0.476 -1.025 0.682 -0.562 -0.981 0.385 0.496 -1.096 2.006 1.002 0.006 -0.079 -0.942 1.006 1.412 0.231 -0.560 -0.371 -0.187 0.216 -0.317 0.624 -0.273 0.304 -1.264 1.350 1.339 1.540 1.333 0.323 -0.869 0.089 0.753 -0.030 1.650 -0.104
0.815 -1.226 0.422 0.121 0.877 -0.573 1.172 -0.399 -0.162 1.624 0.065 -0.692 -0.420 0.120 -0.127 -0.434 0.662 -0.226 -0.770 0.162 -0.807 -0.780 0.626 0.583 2.965 -0.041 -0.545 0.358 -0.252 -0.370 0.716 -0.037 -0.623 -0.720 0.987 -0.673 0.488 1.984 -1.313 0.170 -1.309 0.121 0.964 1.110 -0.992 -0.566 -1.949 -0.587 -1.182 -0.753 -0.354 -1.963 1.801 -1.097 -0.787 -0.206 0.496 -0.567 -0.693 0.016 -0.788 -0.200 0.243 1.515 -0.900 0.981 -0.805 -1.226 1.931 -0.419 0.630 -0.835 0.187 -1.061 0.926 -2.003 -0.188 1.582 0.158 1.006 -0.529 -1.473 -1.327 -0.404 0.707 0.411 -0.132 -0.494 2.784 -0.194 -1.355 0.252 1.048 -1.228 -0.490 0.994 -0.273 -0.642 -1.299 -1.113
-1.011 -0.111 1.138 0.813 -1.639 1.100 -0.052 -0.079 1.563 -1.562 -0.666 -0.922 -1.007 1.416 -0.699 0.235 0.417 0.212 0.621 -0.421 1.037 -0.895 0.249 1.130 -0.044 0.293 0.709 -1.053 0.992 -0.813 -0.324 -1.156 -0.974 -1.479 -1.339 1.129 -2.172 0.190 0.448 -1.488 1.062 1.385 1.060 1.282 0.286 1.395 -0.063 0.953 0.029 0.289 -0.451 1.193 0.556 0.363 0.475 -2.243 -0.103 0.477 0.164 0.187 -0.068 -0.915 -0.513 -1.127 -0.224 -0.825 0.984 -1.010 0.029 1.202 -0.288 1.242 1.109 -2.171 1.425 -0.232 -0.308 -0.066 0.590 -0.103 2.431 0.046 0.280 -1.920 -0.358 -0.436 0.154 0.416 -0.721 0.790 -1.150 2.120 -0.997 -0.722 -0.846 0.588 -0.576 2.392 -1.597 -0.470
-0.548 0.491 0.948 -0.439 0.126 -0.047 0.158 -2.612 0.311 -0.691 1.396 -0.291 -0.860 1.088 -1.120 -0.101 -0.472 1.094 0.473 0.727 1.358 -0.338 -0.810 -1.051 -0.899 -0.375 0.590 0.975 0.354 1.100 -0.818 0.826 -1.240 -0.410 0.449 0.339 0.125 -0.169 1.703 2.775 -2.197 -0.152 0.975 -1.138 0.733 0.121 -1.094 -1.445 -0.549 -1.925 2.237 0.281 0.786 0.328 0.510 -0.094 0.120 -0.923 -0.122 -0.044 0.347 -1.680 -0.408 -0.689 0.936 2.911 0.669 -0.751 1.012 0.042 1.560 0.852 1.853 -0.071 0.784 -0.241 -0.236 -0.306 -2.021 0.989 0.842 1.604 -0.114 0.332 0.704 -0.159 -0.308 -0.456 -0.190 -0.571 0.800 1.817 -0.536 0.245 0.491 -1.847 -2.425 0.158 0.587 0.998
-0.519 -0.917 -2.279 -0.713 -1.781 0.693 -1.211 0.282 -1.129 -2.534 -1.474 -0.195 1.501 -0.022 0.748 -0.662 0.082 0.520 0.702 -0.666 1.356 0.099 -0.650 0.520 1.660 -0.952 0.195 0.797 -0.573 2.374 0.269 -0.485 0.904 -1.123 -1.934 -0.608 -2.007 1.037 1.017 0.443 -1.112 1.379 -0.509 -0.445 0.717 0.866 -0.647 0.571 -0.392 0.171 0.669 0.134 -0.750 0.700 -0.404 1.003 1.916 1.831 -0.617 1.494 0.203 -1.231 -0.063 1.045 2.219 -0.517 -0.024 -0.397 0.592 -1.605 -1.412 -0.171 -0.621 -0.481 0.169 -0.010 1.076 -0.589 0.841 -1.551 0.681 -0.681 0.220 1.180 -1.547 0.221 -0.259 -0.062 -0.926 -0.112 1.065 -0.025 0.263 0.062 0.299 -1.511 -0.875 0.316 -0.712 -0.780
-1.431 -0.766 -1.641 0.835 -0.304 -0.197 -1.743 -0.541 0.242 -0.555 -0.542 -1.401 -1.358 -1.881 2.003 -1.686 0.356 -1.448 0.980 -0.834 1.289 -0.140 1.042 -0.890 -0.510 2.149 0.168 0.950 0.387 0.860 1.068 1.019 -0.593 0.813 0.804 1.862 -2.123 -1.318 -0.689 1.126 -0.779 -0.941 -0.201 -0.428 -1.438 -1.179 0.522 0.514 0.410 -0.229 1.400 0.561 0.355 -0.183 -0.896 -0.783 -0.232 -0.762 -1.737 0.830 -0.667 1.111 -1.435 -1.574 -0.169 -0.822 -1.594 0.089 0.752 0.476 -0.750 -0.525 0.126 -0.554 -1.768 -1.249 -1.655 -0.265 0.467 -0.427 0.512 0.158 1.311 0.292 -1.449 0.992 0.846 -1.438 -0.847 -0.616 0.582 0.167 -0.709 0.415 0.169 -0.872 0.656 0.824 1.848 0.053
0.594 1.736 1.284 0.512 1.551 -0.210 -0.940 -0.267 -0.615 0.250 0.103 -0.114 -0.280 -0.854 -0.985 0.014 -1.025 -1.396 -0.176 -0.119 -1.032 0.789 -0.990 0.745 -1.475 -0.867 -0.743 1.903 1.532 -0.793 -0.842 0.311 -1.980 0.612 -0.563 0.185 -1.319 0.313 -0.551 -0.092 0.150 -0.987 0.077 0.296 -1.034 -0.211 0.772 1.033 0.772 -2.011 0.625 0.344 2.393 1.233 0.148 1.115 1.001 -1.583 -1.794 0.721 0.503 1.742 1.452 0.900 -0.133 -0.909 2.198 1.314 1.555 -0.637 -0.235 0.092 0.658 -0.924 -0.135 0.633 0.953 -2.887 1.156 -2.249 1.967 -1.390 -1.399 -3.572 -1.528 -0.170 -0.419 1.217 -1.331 -0.777 -0.750 -1.192 -0.257 0.281 -1.257 0.333 -0.771 0.705 0.958 0.430
-0.985 -0.930 -1.010 0.214 -0.707 0.669 0.621 1.752 -0.387 -1.128 -0.498 -1.057 -1.083 0.459 -0.679 0.760 -1.451 0.023 0.730 -0.184 0.628 0.072 -0.371 -0.849 -1.110 -0.176 1.181 -0.784 0.392 -1.449 0.783 0.031 -1.057 -0.260 0.947 1.115 -0.312 -0.510 -1.083 0.196 -0.301 1.583 -0.738 1.887 -2.644 2.062 -1.404 -1.403 0.453 -0.778 -0.443 0.441 1.939 0.850 0.425 -0.559 0.207 0.939 0.296 0.744 -0.225 -1.009 0.485 -0.417 0.433 0.500 -0.159 0.328 1.384 0.132 -0.397 -0.812 0.320 0.844 -1.359 0.059 0.338 -0.659 -1.458 0.057 -0.354 0.339 -2.313 -0.452 0.967 0.918 -0.568 -0.907 0.470 1.264 1.442 -1.511 -0.996 0.769 -0.379 -2.076 -1.128 -2.481 -0.211 0.330
0.194 1.181 -0.614 0.126 1.012 1.024 -0.244 1.950 0.988 0.226 -1.209 -0.359 1.846 0.080 -1.236 1.738 -0.623 -0.091 -0.526 0.702 -0.843 0.674 -1.766 0.762 2.046 -0.695 -0.494 0.273 -0.541 2.064 0.237 -2.256 1.290 0.306 -1.193 1.215 -0.065 -0.224 -1.450 -0.311 -0.389 -1.439 0.047 1.016 -0.771 -0.793 -0.390 1.969 0.301 -0.057 -0.216 0.054 -0.375 1.319 1.355 0.398 0.577 1.285 -0.353 1.399 -1.122 -0.228 0.900 -0.433 1.044 0.533 -2.751 1.017 -0.546 0.890 -0.169 0.766 0.380 1.145 0.294 1.584 -1.189 -1.379 -0.881 -0.950 -0.111 -0.590 -0.123 -0.701 -1.214 0.629 1.373 -1.191 1.022 0.055 -0.326 -0.371 -0.520 1.999 0.400 1.111 0.840 0.546 -0.135 1.662
0.826 1.710 -0.483 0.456 -0.555 1.958 -1.093 0.933 1.356 -0.372 0.961 -0.215 0.831 0.505 -0.016 1.192 -2.082 -2.577 0.956 0.712 0.776 0.384 0.354 0.854 -0.558 2.121 0.936 -0.569 0.799 0.107 -1.017 0.643 0.790 0.986 0.893 0.571 0.418 -0.301 0.217 -0.939 0.359 0.151 -0.115 -1.059 -0.149 -0.151 0.103 1.711 -1.319 -0.223 -1.740 1.032 0.863 -0.292 0.246 0.061 -1.158 0.842 -0.800 0.800 1.018 -0.194 -0.089 -1.899 1.308 0.247 -0.778 0.059 -1.685 -1.424 0.603 0.839 0.303 0.744 -0.805 -0.080 -0.037 0.591 -1.291 -0.747 -0.594 0.706 -1.056 -1.973 -0.635 0.922 -0.578 0.343 1.506 -0.284 0.438 0.552 0.591 -0.066 -1.359 -0.005 -0.092 0.298 1.313 -0.536
-0.227 -0.074 -1.141 0.892 1.318 -0.983 0.491 0.776 0.466 0.107 -0.314 -1.674 0.187 0.494 -0.433 -1.772 -2.617 -1.373 -0.313 -0.844 0.149 0.464 0.476 -1.339 -0.473 0.975 0.144 -1.706 -0.393 0.727 -0.292 -0.099 0.166 -0.400 0.484 -0.064 0.557 0.713 -0.554 -2.235 -1.183 0.513 0.526 -0.296 -0.104 0.038 -0.063 -0.025 0.624 0.419 0.393 -0.180 -0.865 -2.582 -0.099 0.719 0.141 -0.489 -0.904 -0.217 2.821 -0.410 0.434 -0.017 -0.269 -0.079 0.499 0.098 0.247 -0.256 -0.729 0.704 0.936 -0.742 -1.378 -0.183 0.470 0.852 0.086 -2.042 0.328 -0.286 1.101 -0.011 0.008 1.809 0.485 0.992 0.553 -1.377 -1.007 -0.327 0.557 -0.768 -0.995 0.584 -0.062 0.275 0.309 -0.162
-1.418 0.567 0.379 0.486 0.106 1.792 1.965 -0.452 0.515 -0.425 0.150 -0.224 0.808 -0.168 2.470 -0.890 0.733 -0.091 0.066 -0.263 -0.201 -0.702 -0.262 0.445 -1.720 0.323 -0.917 -0.286 2.444 -0.016 1.834 0.501 -1.388 0.293 1.217 1.553 -0.336 0.245 0.385 0.605 0.012 2.338 0.541 1.640 -0.358 -1.631 1.237 0.799 -3.206 0.482 0.675 -0.355 1.219 0.136 -1.508 0.634 -0.019 -0.394 1.172 -0.381 -0.571 -0.367 -1.599 0.330 -0.179 -2.162 1.930 -0.517 0.518 0.168 -1.264 -1.147 -0.046 -0.161 -1.029 0.028 0.480 1.237 0.261 0.862 -2.055 1.080 -0.694 1.685 0.867 -0.181 -1.425 0.479 -0.295 0.564 -0.686 0.413 0.196 -0.613 -0.272 0.053 0.910 0.371 1.655 0.485
0.972 -1.603 0.208 0.251 -1.313 0.534 0.044 0.135 -1.141 1.423 0.339 1.077 1.767 0.630 -0.444 -1.299 -0.837 -0.014 -0.801 0.516 0.098 -0.166 -0.748 -0.370 -0.457 -1.201 1.712 1.232 0.153 0.138 -0.948 0.547 0.858 -1.016 -1.241 -0.202 -1.524 -0.775 0.303 -0.735 2.231 0.204 -0.422 1.182 -0.090 0.895 0.192 -0.721 0.513 -0.026 1.225 2.075 0.067 0.098 -0.587 0.946 -0.704 0.175 -0.810 0.053 1.586 -0.347 -1.341 -0.483 1.063 -1.861 1.133 -0.689 0.156 0.607 -0.045 1.699 1.377 0.061 0.044 1.602 1.596 1.584 -0.081 -0.555 0.500 2.081 0.458 -1.106 1.041 -1.178 -0.255 -0.843 1.401 0.531 2.090 -0.457 1.867 -0.542 1.661 -0.792 0.280 0.794 0.686 0.517
-0.192 0.445 1.285 1.592 0.499 -0.381 0.728 -1.681 0.076 0.409 1.219 -0.940 0.483 -0.007 -1.429 1.360 -0.640 -0.452 -0.722 -0.741 -1.847 0.208 0.595 1.475 -0.137 0.150 -0.569 -0.405 1.286 1.252 -0.192 -0.319 0.068 -2.141 0.324 -1.151 -1.532 -0.509 1.144 0.455 1.090 1.237 1.708 1.242 0.701 -1.693 -1.331 -0.111 -0.125 1.353 0.621 1.053 -1.143 -0.660 0.778 -0.327 -0.025 1.403 0.656 -1.181 0.038 -0.791 1.200 -0.955 1.001 0.145 0.186 -0.252 1.363 -0.444 0.919 -0.499 0.658 0.216 -0.507 -0.561 -0.038 -0.998 3.340 -0.576 1.530 -0.290 -1.416 -0.106 -1.015 -1.228 0.380 0.431 0.669 -0.879 0.235 0.268 -1.569 0.497 0.895 -0.579 0.603 0.933 0.515 -0.301
0.735 0.661 -0.874 0.224 0.187 0.358 -0.903 0.192 0.299 -0.980 0.102 -0.434 -0.113 -1.736 0.335 1.228 -1.653 0.095 -2.118 0.726 -0.843 -0.758 -0.147 0.490 1.372 -0.618 -0.675 0.397 0.037 -0.071 -1.870 0.803 0.999 -2.567 -1.290 0.443 -0.076 -0.349 1.619 -0.049 -0.338 0.742 -1.609 -1.906 1.200 3.339 -0.675 0.773 -0.523 0.139 -1.630 -0.484 0.124 0.454 -0.052 0.403 -0.203 -1.119 -0.748 -1.817 -1.723 0.861 0.470 -0.365 0.935 -0.179 0.413 -0.372 0.029 -0.630 0.346 -0.332 -1.453 -0.115 -1.598 -0.513 1.088 0.509 -1.370 2.475 0.512 -0.352 0.448 -0.852 0.110 0.121 -1.034 1.122 -0.756 2.549 -1.097 -2.062 -0.190 0.601 0.150 -0.027 -0.176 -0.592 -1.805 -0.990
1.183 -1.642 0.190 -0.151 1.045 0.295 0.094 1.900 -2.700 -0.102 -0.314 -0.400 -0.444 -0.190 -1.792 -0.234 -0.268 2.398 0.714 0.617 0.635 0.622 0.356 -0.248 0.958 0.650 -0.458 1.363 -0.592 0.496 -1.785 -1.221 -0.242 -0.227 1.497 1.191 -0.660 0.414 -0.320 -0.682 -0.173 -0.423 -0.924 0.653 0.332 0.338 -0.178 -0.882 -1.747 -0.650 1.423 -0.122 0.795 -1.020 -1.464 1.178 -1.334 -0.571 -0.105 0.650 -0.024 1.961 -1.298 -0.183 -1.209 0.385 -0.143 -0.586 -0.238 0.824 -2.321 1.153 -0.832 -0.076 -0.233 0.883 -1.153 1.470 -1.183 -1.615 -0.528 0.319 -1.057 -1.029 -0.721 -0.222 1.198 1.028 -1.118 -0.974 -0.800 1.131 1.801 -0.640 -0.711 -0.460 0.703 -0.065 0.434 1.517
2.569 1.223 -0.043 -0.821 0.289 -0.409 -0.342 0.957 0.045 -0.195 1.014 -0.010 -0.008 0.946 -0.438 -0.452 0.547 0.438 1.497 -3.000 1.233 -0.414 -0.507 0.329 -1.567 -0.635 -1.352 -0.636 0.244 -0.235 0.458 0.448 0.425 -0.430 -0.209 -0.255 -1.052 -0.354 0.359 0.624 -0.294 1.171 -1.355 -0.058 -0.205 -0.297 -0.164 -1.854 0.065 0.578 1.658 -0.489 -0.607 -1.533 -0.245 -1.870 -0.607 0.138 -0.041 2.490 0.588 0.839 -0.409 -0.134 -0.058 0.569 0.198 -0.495 0.902 1.004 -0.318 0.192 0.669 0.230 0.226 0.342 0.216 0.723 -0.223 -0.384 0.512 -0.333 -1.887 0.541 0.954 0.550 0.892 -0.211 -0.649 0.288 0.624 0.658 -0.547 -0.652 -0.282 1.055 -0.216 -0.624 1.126 0.131
-0.564 -0.923 0.282 -0.818 0.542 0.515 0.347 1.177 1.128 0.774 -1.080 -0.691 -1.305 -0.310 -0.186 0.534 0.960 -1.126 -1.835 1.689 0.137 1.197 0.120 -0.638 -0.689 -1.862 -0.595 -0.149 1.191 1.680 0.516 -1.631 2.360 0.028 -0.453 -1.357 1.209 -0.322 0.218 0.997 0.212 -1.725 -0.009 0.254 0.055 0.759 -1.256 -0.105 -0.122 1.952 -1.393 1.028 -0.693 -1.247 2.419 -0.789 0.046 -1.796 -0.110 -0.168 0.863 -0.076 -0.172 0.425 -1.478 -1.784 -0.084 -0.699 -1.080 -0.478 -0.192 0.747 -2.113 1.169 0.418 -1.039 0.587 -1.357 -0.659 0.136 1.571 -1.839 -0.650 0.137 0.217 -0.369 -0.200 -1.672 -1.877 1.927 0.362 -1.143 -1.168 2.980 1.081 -0.449 0.494 1.033 1.269 1.081
0.532 -0.081 -0.902 0.054 -0.045 -1.092 -0.916 1.526 -0.273 -0.209 -0.756 0.441 -0.787 0.391 0.697 -0.978 1.094 -0.500 -1.193 2.542 -0.899 0.009 -0.083 0.694 -2.278 -0.578 -1.044 0.815 -1.230 0.054 -1.489 -0.042 -1.240 -1.779 -0.523 -1.908 -0.396 0.521 -0.473 -0.663 -0.230 -0.247 -0.272 -0.740 -0.443 0.631 0.793 0.516 1.357 0.168 0.649 -0.049 -0.833 -0.488 0.342 0.922 -0.773 0.601 1.185 1.560 -1.267 1.256 -1.990 -1.389 -0.144 1.077 -0.145 1.282 0.439 0.271 -0.111 1.030 0.468 1.307 -0.040 0.650 -0.465 -0.943 0.301 -0.777 -0.378 2.509 0.015 -0.226 -1.746 0.434 -1.427 -0.852 0.428 1.264 -0.270 1.044 0.080 -1.092 -0.288 0.644 0.825 -0.418 2.053 -0.582
0.603 -0.260 0.221 -1.264 0.144 -0.176 0.188 0.571 -0.548 -0.683 -0.364 0.329 0.357 -0.867 1.663 -1.350 -1.204 -0.643 -2.388 -0.384 0.410 -0.807 -0.197 -1.063 -0.439 -0.270 0.356 -0.154 0.338 0.321 0.050 0.104 -0.899 -1.766 0.942 0.186 -0.192 -1.327 -0.359 -0.718 -0.608 0.848 0.526 -0.496 1.631 -0.752 0.078 -0.092 -0.137 0.283 -0.321 0.228 0.661 -0.259 0.409 -1.720 1.741 0.032 -1.609 -0.989 1.798 -1.621 0.101 -1.336 0.222 0.308 0.424 -0.049 -0.237 -1.354 0.069 2.673 1.464 1.269 -0.895 0.488 -1.434 -0.083 -0.516 -0.438 -0.278 0.972 -0.120 1.064 -0.951 0.832 2.907 0.614 -0.951 0.899 0.546 1.811 -0.545 -0.847 -0.693 1.127 -0.658 -2.018 0.114 -0.828
0.122 1.150 1.361 -1.085 0.557 1.082 -0.225 -0.521 -0.319 1.006 0.257 0.386 -0.812 0.653 -0.728 1.314 -0.899 1.252 -0.129 0.586 0.313 -0.281 0.136 0.616 -0.778 1.339 0.153 -1.384 -1.737 -1.217 -0.553 0.281 -1.620 -0.171 -1.683 0.143 -0.576 0.518 0.334 0.992 1.139 -2.639 -0.208 -1.021 -0.233 -0.424 -0.659 -1.238 0.012 1.241 0.348 1.382 0.948 -0.526 0.725 0.160 -1.773 1.789 -1.166 1.510 1.202 0.399 1.024 -0.367 0.394 -1.767 -0.601 1.285 -0.458 -1.031 -0.726 -0.144 -1.141 0.804 0.957 1.087 -0.200 0.108 -0.467 2.735 2.407 -0.563 -1.310 -1.134 -1.191 1.106 -0.740 -0.398 -1.352 0.604 0.909 -0.718 1.531 -1.064 0.417 -0.961 -1.879 -0.665 0.640 -0.764
-0.576 0.207 -0.861 -0.441 -0.296 -1.540 -0.549 -0.803 0.840 -1.629 -0.070 -0.381 1.451 -1.453 -0.167 0.498 -0.594 0.193 -0.602 0.524 0.407 -0.530 -1.430 0.374 0.666 -1.274 -0.829 -0.698 0.180 -0.945 0.249 0.647 -1.922 2.076 -0.121 0.114 -0.617 -0.567 -0.175 -0.371 -0.624 0.255 1.222 -1.775 1.031 1.526 0.486 -2.841 -0.648 0.526 0.598 0.671 1.459 0.186 -1.991 0.880 -0.037 -1.266 -0.288 -0.179 -0.507 -1.106 0.787 -0.186 0.455 0.103 -0.535 -0.231 0.563 0.759 1.579 0.827 -1.547 -0.178 -0.102 0.352 -0.198 1.366 -0.098 -0.080 -0.031 -0.497 1.776 -0.262 -1.362 0.829 0.557 -0.818 1.470 -0.456 0.157 0.830 -1.177 -0.232 -0.959 0.595 0.463 -1.112 -1.085 -1.148
-0.463 -0.115 -0.067 -0.238 0.003 -1.600 1.732 0.279 0.413 1.096 -1.581 -1.760 -0.821 -0.680 0.572 0.156 -0.941 -0.593 0.529 1.094 -0.964 -0.330 -1.700 1.020 -1.252 -1.119 -0.862 0.951 -1.132 0.011 1.581 1.365 -0.459 0.237 0.581 1.140 0.436 -0.657 0.056 1.599 -0.657 0.148 -0.064 0.979 -0.175 -2.228 -1.463 1.620 0.959 -0.641 -1.989 -0.265 0.590 -1.979 0.056 0.638 0.376 -0.844 -1.792 -1.457 -1.082 0.409 -1.552 -1.309 0.501 -0.340 -1.471 -0.795 0.384 0.093 1.523 0.090 -0.203 -0.451 -0.309 -0.336 -0.537 0.464 -0.154 -0.568 -1.077 -0.857 0.615 0.473 -1.091 0.291 1.211 -1.763 0.756 -0.201 0.702 -0.720 -0.599 -0.162 -0.051 0.166 -0.662 0.100 0.754 2.211
1.479 0.422 0.974 0.524 0.539 -0.346 -0.073 0.581 0.260 -0.866 1.473 0.409 0.870 1.756 1.985 1.004 -0.513 0.990 -0.601 -0.513 0.008 0.788 -1.429 -1.058 0.329 0.886 1.481 -0.295 1.127 0.436 -1.026 2.471 2.085 0.106 1.602 -1.569 -0.191 -2.133 -1.417 -0.350 0.686 -1.174 -0.792 0.983 0.282 0.098 -1.009 0.565 1.526 1.265 0.221 -0.891 -0.421 0.556 -1.342 -0.423 -1.352 0.990 0.106 1.135 2.869 -0.240 -1.428 0.412 -0.531 -1.143 -0.680 -1.425 1.024 -1.245 1.555 1.216 -1.266 0.228 1.015 -0.364 -1.162 -0.750 1.798 0.074 -0.573 0.121 -1.492 0.641 1.386 -1.471 0.153 -0.496 -0.945 -0.576 0.931 -1.031 -0.269 -0.759 1.586 1.317 -0.345 -0.932 1.629 2.753
0.442 0.146 0.183 0.023 0.062 -1.452 -0.539 0.691 -1.611 -0.571 -1.441 2.367 1.287 -1.657 -0.049 -0.001 -0.116 -1.687 1.422 -0.482 -1.877 -2.285 0.735 -1.043 1.637 -0.105 0.015 0.061 -1.115 -0.784 0.055 -0.741 -0.563 -0.441 0.638 -0.352 0.467 1.171 -0.665 0.574 -1.807 -1.303 0.013 -0.960 0.035 -1.305 -0.229 0.767 0.044 0.877 -0.247 0.191 -0.078 -0.884 -0.799 0.828 -0.536 0.880 -0.503 -0.413 -0.421 0.601 0.428 0.804 2.198 1.622 0.967 0.682 -0.986 0.000 1.127 -0.710 0.330 -0.011 -0.530 -0.772 0.364 0.068 0.164 -0.606 0.541 -1.630 -0.548 0.062 0.383 0.001 -0.108 -1.766 1.048 0.198 -0.293 -0.379 1.667 0.125 0.115 -0.578 0.166 0.637 -0.619 -1.768
-0.449 -1.744 -0.283 1.251 0.144 0.389 -0.540 1.274 0.716 0.207 0.663 0.746 0.956 1.633 -2.309 -2.121 -0.905 -0.914 -0.844 0.299 -0.946 -1.172 1.331 1.158 -0.498 -1.040 -0.132 1.043 -0.129 -0.894 0.977 -0.856 -0.986 -0.621 -1.229 -1.569 -0.078 1.124 -1.413 0.596 0.674 -0.755 -0.113 2.574 -0.933 -0.190 -1.974 -0.125 0.043 0.076 0.203 -0.927 -0.972 1.366 -1.191 -0.508 0.067 0.060 -1.016 0.411 1.174 -0.032 -0.278 -0.328 -0.457 -1.172 -0.675 0.612 0.341 -0.498 1.379 -1.302 0.853 -0.833 -1.006 0.285 0.549 -0.143 -1.703 -0.658 0.307 -1.352 -0.432 1.112 -0.801 -0.681 0.650 0.701 1.461 0.807 1.730 -0.502 -0.936 0.732 1.319 -0.453 -0.819 0.999 -0.263 -0.382
-0.093 -0.983 1.261 -0.247 -1.503 -2.017 -1.307 -0.531 0.387 -0.484 -1.401 -1.290 -0.018 0.870 0.716 0.997 -0.974 -0.318 1.119 -0.094 -0.548 -2.365 1.313 0.582 1.876 -0.672 -1.677 0.532 0.345 -0.439 0.242 0.867 -0.372 -0.034 -1.042 -1.343 -1.920 -0.061 -0.013 -1.430 1.763 -0.584 -0.894 -0.170 -0.289 0.427 1.861 0.122 -0.920 1.916 -0.927 1.290 -1.919 -1.183 1.236 -0.383 -0.515 0.055 -1.570 0.371 1.624 1.504 -0.095 0.663 -0.081 0.836 0.505 0.210 -0.374 -1.250 2.353 -0.620 -0.476 1.129 -1.006 0.848 1.569 1.467 -0.713 0.497 -0.621 -0.335 1.030 0.981 2.658 -0.150 -1.583 -1.443 1.110 -0.459 -0.545 -0.420 -0.341 1.606 0.555 0.194 1.913 1.417 -0.105 -0.239
-0.878 -1.532 -0.061 -1.110 -0.715 -0.115 -0.452 0.441 -0.349 -0.226 0.001 0.673 1.019 0.903 1.390 0.241 1.718 0.235 0.015 -0.058 -0.546 1.122 0.499 1.169 0.219 0.192 -0.706 0.510 -0.656 2.083 1.384 0.387 -0.247 1.176 1.739 -1.325 0.114 0.227 1.250 -1.906 2.705 0.240 0.653 -0.756 0.187 -0.464 -0.550 -0.852 -2.730 1.111 0.372 0.734 -0.357 -1.145 -0.987 -1.097 0.923 -0.551 0.535 -1.304 1.219 0.032 -0.367 -1.611 0.772 -1.050 -0.777 -1.845 0.011 1.596 -0.063 -0.214 -0.936 0.816 1.219 0.125 0.016 -1.053 0.039 -1.617 -0.879 0.171 0.541 -0.485 0.380 1.798 -1.077 -1.648 -1.200 0.839 0.807 0.026 0.311 -0.074 -0.428 0.101 0.792 -2.326 1.188 -1.450
0.118 0.800 -0.096 0.612 1.446 1.225 -0.835 1.244 0.268 -0.442 0.605 -0.524 0.255 -1.431 -1.415 0.194 -1.021 0.942 -1.115 1.656 0.385 1.844 -0.747 0.752 -0.103 0.881 0.034 0.549 -1.747 0.108 -2.156 0.068 1.311 0.286 -1.461 -1.712 0.428 -1.404 -0.153 0.045 -0.273 0.908 0.465 0.576 0.775 0.230 -0.336 2.371 0.751 0.105 0.417 0.985 -0.507 -0.301 0.015 0.337 0.301 -0.070 -0.308 1.045 -0.272 1.320 0.418 -1.434 0.348 0.982 1.986 1.947 -1.128 0.297 1.245 -1.164 0.467 -0.405 -0.066 -0.086 0.485 0.956 0.842 0.541 0.586 1.181 0.001 -0.210 0.116 -1.164 -0.225 -0.157 -1.098 -0.982 0.883 0.491 -0.350 -1.229 -0.129 -0.439 -1.426 0.006 0.095 -1.576
-1.010 1.225 -0.034 1.022 -2.461 -1.051 -0.056 -0.427 -1.082 -1.359 -1.040 1.148 0.960 -1.228 1.597 -0.196 0.287 -2.451 -0.106 -0.674 0.960 -2.351 -0.258 1.557 -0.214 0.427 0.609 0.849 0.840 0.661 1.808 -1.394 -0.512 -0.815 1.222 0.732 0.985 -1.057 0.694 -0.018 -0.546 -1.643 1.141 -0.133 -0.012 -1.015 1.919 0.552 1.266 -0.410 -1.116 1.140 0.198 0.353 0.326 -0.177 0.729 -1.049 -0.696 -0.538 -0.067 -0.670 -1.662 -0.767 -0.082 -2.194 0.423 -0.059 -0.606 -0.459 -0.786 -0.742 -0.053 0.356 0.688 -0.576 -1.129 -0.315 -3.492 0.252 -0.396 0.097 -0.826 -1.263 0.043 0.533 -2.336 -2.838 -0.967 -0.204 0.827 -1.168 1.785 -0.292 -1.303 0.745 -1.082 -0.438 0.248 0.171
0.159 -0.742 -0.156 -0.387 -1.256 -1.394 -0.113 0.059 1.595 -1.524 -0.307 -0.650 -1.100 1.046 1.636 -1.726 -0.891 0.275 -0.077 -1.234 -0.328 0.258 0.841 -0.607 1.231 -0.168 -1.138 -0.470 0.453 2.381 -0.905 -0.407 0.271 0.570 0.041 1.232 0.872 -0.287 -1.546 0.391 -0.121 -1.259 1.032 0.156 1.047 -0.277 2.497 1.712 -0.709 0.432 -0.241 0.014 -1.020 -0.110 0.616 0.820 -0.012 0.585 0.881 1.264 2.668 2.109 0.115 1.236 -1.589 1.298 0.083 0.448 0.785 -1.303 0.591 0.434 -0.411 -0.363 -0.013 -0.224 -0.266 -0.602 0.426 -0.079 -0.439 -0.488 -0.257 -0.122 -0.340 1.862 -0.645 0.807 -1.055 -1.084 -1.684 0.299 -0.092 -0.464 -0.592 -0.490 0.660 0.739 -0.037 0.010
0.391 -2.046 -0.188 0.041 0.170 1.900 -0.315 0.250 0.217 -1.992 0.961 0.246 0.063 0.046 -1.040 1.146 1.697 0.721 0.643 0.143 0.255 -0.955 0.140 0.149 -0.085 0.914 0.386 1.050 -0.086 -1.083 1.170 -0.470 -0.452 -0.998 0.931 1.793 0.539 2.902 1.253 1.133 -1.066 1.630 0.097 1.033 -0.041 -0.136 0.652 -0.279 -0.280 0.102 1.642 0.431 2.034 -0.420 -0.174 1.030 0.780 -1.150 0.056 1.016 0.146 -0.592 -0.861 -0.226 1.501 -0.917 0.142 0.216 0.126 -0.338 0.510 0.587 -0.175 -0.240 0.685 0.044 -1.578 -0.148 0.123 -1.501 -0.524 0.383 -0.486 -0.202 -0.311 -0.636 0.268 -0.482 0.458 0.156 0.454 0.939 0.423 0.894 0.375 -1.382 0.606 -0.249 0.037 0.191
-0.970 -0.192 -0.713 1.025 2.476 0.333 -0.477 1.250 1.718 0.436 1.223 -1.444 -0.590 2.213 -0.789 1.335 -0.137 -1.752 -0.290 -0.736 1.134 1.656 1.174 0.162 1.192 0.374 -1.606 -0.030 -0.266 0.355 0.281 -0.461 0.518 -1.215 -0.166 1.769 1.585 0.246 -0.043 -1.409 0.996 2.271 -0.883 1.255 -0.878 -0.305 -1.175 0.646 0.181 0.776 0.656 0.077 -1.245 0.152 -0.570 0.958 0.269 -0.487 -0.502 1.126 1.062 -0.059 -1.083 1.668 1.176 -1.468 0.192 -0.349 0.982 0.685 -0.629 -2.011 -1.351 -0.171 0.525 0.181 1.136 -0.038 -0.077 0.313 -0.290 0.030 0.339 -1.071 -1.111 0.168 -0.598 0.364 -0.098 0.955 -1.144 0.138 0.018 -1.733 1.243 0.471 -0.116 -1.453 0.035 -1.146
-0.115 0.590 -1.370 0.804 1.218 -0.205 0.692 0.972 -0.184 -0.583 1.872 1.072 -0.669 0.128 1.059 -0.734 0.182 0.185 -1.725 -0.485 -0.221 1.248 0.824 -0.431 -1.316 0.202 1.823 -0.333 -0.417 0.416 -0.354 -0.142 -0.214 0.078 -0.803 -0.101 -0.098 2.137 0.496 -2.079 -0.045 2.332 -0.267 0.299 -0.798 -0.845 2.347 -2.321 0.038 -0.309 0.599 1.788 -0.477 -0.406 -0.350 0.122 -1.239 1.331 -0.301 -0.707 0.436 0.243 1.067 -1.005 -0.725 -0.575 0.347 -0.840 -1.249 -1.423 0.546 0.775 -0.193 -0.081 0.378 0.114 -0.335 0.199 0.065 0.504 -0.821 0.438 -0.305 -1.494 0.184 -0.747 0.339 -1.168 -0.720 1.794 1.069 -0.232 0.458 -0.240 0.358 -1.062 0.492 0.793 -1.060 1.287
-0.255 0.733 -0.716 0.210 -0.837 -0.139 0.863 -1.172 -0.003 0.630 -2.033 -0.774 1.043 -0.099 -0.026 -0.055 0.808 1.389 -0.833 -1.340 -2.143 0.260 -0.331 0.382 0.304 0.156 -0.615 0.501 -0.309 0.854 -0.146 1.440 0.692 -0.471 -3.267 -1.040 -0.949 1.138 -0.437 -0.962 -0.179 -1.532 0.289 0.510 0.021 1.932 0.001 0.865 -0.886 0.440 0.433 -0.810 0.078 0.870 0.801 -0.242 0.922 1.164 -0.549 1.161 1.458 0.059 -0.789 2.597 -0.580 -0.991 0.528 0.384 0.204 -0.491 -0.196 -1.543 -0.900 -1.717 0.600 -0.093 -0.586 0.566 0.677 1.293 1.638 1.592 -0.602 -0.252 -0.205 -0.875 -2.987 0.277 -0.700 0.953 -0.632 1.146 0.820 0.990 -0.497 -0.553 -1.047 -0.180 1.343 -2.298
-0.090 2.302 -1.097 -0.557 1.137 -0.020 -1.277 -1.000 -2.089 0.428 0.657 0.259 -0.266 -3.045 -0.265 -0.447 1.668 0.349 0.588 0.730 -1.935 -0.343 -0.215 1.118 -1.618 -0.107 -0.513 1.372 0.383 -0.169 0.619 2.499 1.403 -0.602 -1.023 -0.898 1.700 0.099 2.292 1.298 1.292 -1.175 0.854 -1.595 -1.385 -1.764 1.086 -0.835 -0.375 -1.900 0.626 1.106 0.204 0.484 -0.897 -1.809 0.435 0.193 0.568 -0.366 0.338 -0.037 0.686 -1.140 -0.083 0.343 0.550 0.492 0.584 0.712 0.373 -0.048 0.418 0.490 0.257 -0.833 -0.823 -1.543 -1.241 -0.153 0.974 -0.238 0.281 0.412 0.286 -0.414 2.256 -0.610 1.283 -3.577 1.000 0.330 0.858 1.207 -1.005 0.275 -0.790 -0.219 -0.394 -0.527
-0.459 0.383 1.617 1.720 -1.028 0.079 -0.267 -2.370 -0.161 0.435 -0.324 -1.484 0.618 -0.288 1.740 -0.837 0.706 0.587 0.608 0.207 -0.827 -0.723 0.547 -0.563 -0.395 0.335 -0.613 -0.456 0.222 0.327 1.132 0.734 1.149 0.941 -0.873 0.694 -0.124 1.824 0.228 -0.838 1.419 0.484 -0.600 0.709 -0.174 -0.995 -0.970 -0.609 -0.336 0.971 -0.351 -0.530 -0.086 -0.292 -0.125 2.382 1.604 0.849 -1.902 -0.184 1.341 1.155 0.984 1.002 0.072 -0.065 1.042 -0.317 -0.416 1.327 0.796 -0.709 0.370 0.626 0.922 -0.728 0.915 -0.735 -0.725 -3.557 -1.198 0.445 2.127 -0.108 -0.924 1.130 1.008 1.656 -1.219 -0.424 0.330 -0.045 -0.236 1.299 -0.778 0.103 0.695 0.716 0.011 1.331
-0.169 0.721 -1.341 0.037 0.031 0.950 -0.088 -0.279 -0.989 -2.307 -0.223 1.248 -0.032 -0.992 0.281 0.603 -1.508 -0.193 -1.135 0.971 -1.404 -0.446 -0.031 -0.911 -1.318 -0.326 -0.053 -0.014 0.043 0.683 0.044 -1.055 -0.652 0.887 -0.012 -1.400 -1.044 0.143 -0.847 -0.060 0.669 -1.118 -1.488 0.500 0.593 1.873 0.021 -0.569 0.481 -1.234 -1.204 0.140 0.175 2.213 -0.716 0.025 1.804 -0.934 -0.854 0.662 -0.655 0.455 1.245 -1.148 0.175 0.367 -1.141 -0.613 -0.446 -0.695 -1.536 0.428 -1.423 0.136 0.718 0.899 -0.360 -1.603 1.776 0.554 0.129 1.570 -0.480 -0.449 0.259 0.483 1.623 -0.234 -0.927 1.370 1.071 0.051 1.710 0.180 -0.488 0.695 0.394 -0.376 0.302 -0.662
-0.690 -1.170 0.924 -1.164 -0.244 -1.095 -0.913 -0.268 0.001 -0.421 -1.085 -0.106 -0.012 -0.785 -0.815 -0.573 -1.567 1.978 1.452 0.191 0.739 -0.407 0.226 -0.210 -0.025 1.271 0.688 -2.213 -0.626 -0.563 0.413 -0.915 0.291 0.701 -1.050 0.231 0.883 -1.031 0.812 -0.627 0.478 -0.481 1.085 -1.171 0.063 0.493 1.198 -0.322 -0.585 0.808 0.618 -0.719 -1.108 -0.251 -0.935 1.027 0.682 -0.429 -1.727 0.626 1.466 0.252 0.262 -0.139 0.745 -0.689 0.388 0.686 -0.360 0.898 -0.829 -0.598 -0.744 0.041 -1.090 -0.780 -0.263 -0.298 -0.086 0.367 -0.209 1.195 1.495 -0.646 -0.155 0.290 -0.573 -0.707 0.393 1.167 -0.283 0.160 0.910 -0.257 -0.197 -1.493 0.183 -0.272 -0.595 0.689
-1.519 -0.194 -0.174 -0.959 -0.068 -1.242 -2.245 0.185 0.501 0.124 2.445 0.188 -0.459 0.014 0.468 -3.468 -2.004 -1.608 -0.738 -0.736 0.773 0.588 0.672 -0.224 -0.559 0.500 -0.947 -0.250 -0.710 1.997 -0.937 0.440 -0.168 1.215 -1.605 -0.421 -0.225 -0.068 0.611 -1.232 -0.908 -1.334 -0.397 -2.122 0.368 2.149 0.870 -0.444 -0.316 -3.042 2.437 0.076 0.070 0.955 -0.154 -2.118 -0.877 0.207 -0.335 -1.172 -0.502 0.691 0.902 0.322 -2.131 0.013 1.689 -2.346 1.321 0.642 -0.591 -1.343 -0.169 -0.084 0.505 -1.172 0.756 0.822 -0.829 0.912 -0.743 0.465 0.612 0.063 0.327 -1.225 0.459 0.447 -1.434 1.209 -0.320 -1.694 -2.027 1.077 0.549 0.103 1.074 0.724 0.120 2.443
0.338 1.339 0.955 1.396 0.066 -0.298 -1.195 0.303 0.492 0.579 1.209 0.064 -1.209 1.284 0.063 -1.736 1.912 -1.224 -0.382 -1.492 2.127 -0.189 0.745 0.754 -2.039 1.073 -1.139 -0.583 -0.247 -0.187 1.023 -1.096 0.317 -0.505 1.446 0.603 -0.459 0.902 -0.331 0.431 0.642 0.013 0.234 -0.331 -0.673 0.031 1.927 0.223 0.561 0.377 -1.660 2.257 -0.162 -0.027 -0.101 -0.092 1.372 -0.860 -1.173 0.910 -0.813 -1.581 0.952 -0.454 -1.230 1.915 2.003 -2.267 -0.760 0.707 0.607 -0.865 1.091 0.848 0.096 -1.094 1.703 1.405 -1.573 1.190 1.666 0.107 -0.794 -0.879 0.648 -0.863 -1.525 1.683 -0.279 -0.501 0.854 -0.075 -0.508 0.603 -0.527 2.239 0.971 0.537 -1.200 0.233
1.296 -0.093 -1.396 -0.472 -1.564 -0.575 -0.336 -0.965 -2.215 -0.525 1.067 -0.030 -0.560 0.757 0.046 -0.079 -0.638 0.706 1.339 0.004 0.487 0.078 1.350 0.301 0.168 0.299 0.549 -0.412 -0.088 -0.685 -0.602 -0.043 2.126 -1.448 -0.989 -0.124 1.208 -0.044 0.851 -2.469 -0.926 1.370 0.319 0.166 0.404 -0.482 -0.442 1.684 2.192 0.396 0.393 -0.562 -0.618 -1.699 -0.495 -1.195 -0.315 -1.320 0.084 0.141 0.140 -1.061 0.473 -0.899 0.979 -0.969 0.395 0.675 0.472 -0.802 0.268 -0.553 0.571 0.536 0.841 1.150 0.386 -1.672 -1.256 0.765 -0.279 1.842 0.024 -0.693 -0.344 -0.199 -1.082 0.315 -0.663 0.747 1.053 0.068 0.304 -0.448 0.097 -0.341 0.562 0.460 0.319 0.603
-1.199 -0.341 1.389 1.460 -2.568 -0.838 0.113 -1.432 0.398 1.720 -0.379 -0.627 -1.376 1.436 1.291 -0.441 1.013 -0.726 0.142 0.040 -0.525 1.663 0.156 -1.097 0.882 0.399 -0.908 -0.814 2.325 0.318 0.337 1.477 -0.480 -0.427 -1.069 1.068 -0.714 -0.246 -0.261 0.222 -1.123 0.419 1.838 -0.287 -0.776 -0.438 1.103 1.154 0.381 0.472 -0.092 0.824 -1.575 1.770 -0.183 0.737 1.448 -1.243 -0.450 0.817 -1.288 0.152 0.781 0.659 -0.290 2.469 -0.228 0.422 0.764 -0.305 -0.943 -0.083 -0.173 -1.711 -0.001 1.067 0.092 0.795 -1.869 -0.562 -0.091 -0.567 1.339 0.156 -0.516 1.231 0.305 0.271 -0.200 0.933 0.516 -0.933 0.567 0.814 1.255 1.580 -1.287 1.150 1.516 -1.075
1.766 -0.280 -1.723 0.145 -0.904 2.105 0.089 -2.084 -0.925 0.179 0.301 0.534 -0.135 0.661 -0.822 -0.541 0.569 1.259 0.272 -0.018 0.034 -0.473 0.918 -1.258 0.473 -1.249 0.533 0.575 -1.200 1.389 -0.030 -2.967 -0.841 0.121 -0.201 1.285 -0.058 -1.283 -1.355 1.126 -0.228 0.039 1.477 -1.950 -0.747 1.224 -0.484 -0.998 -0.063 1.081 0.454 0.684 -0.479 -1.330 -0.656 -1.161 -0.595 0.477 -1.003 0.782 1.353 -1.068 0.272 0.780 0.081 -0.208 -0.562 0.731 2.153 0.300 -0.455 0.281 -0.673 2.368 -1.784 -1.323 -0.533 0.424 1.615 0.928 0.141 -1.867 -0.703 0.909 0.819 -0.177 -0.012 -0.111 -2.493 1.061 0.025 -1.249 -1.710 -0.582 0.557 1.184 0.863 0.805 -1.230 2.569
1.859 -1.497 -1.611 1.934 0.528 -0.263 0.880 0.410 1.123 -0.794 0.573 0.400 0.122 -1.496 0.428 2.028 -0.229 -0.601 0.089 0.348 0.891 -1.889 -0.756 0.374 0.947 -0.052 1.125 -0.444 -1.571 0.146 -0.384 0.332 0.235 0.710 0.278 1.141 -0.729 -0.200 -0.615 -0.048 -0.001 -0.611 -0.058 0.159 0.731 -1.814 0.087 -0.892 0.890 1.624 -1.021 1.313 0.861 -1.006 -0.698 -0.300 1.575 1.084 1.351 0.824 -1.058 -0.982 -1.216 0.427 -0.608 -1.123 -0.986 0.748 -0.079 -0.446 -1.570 -0.265 -1.247 0.714 0.243 2.151 0.612 -0.735 0.223 1.625 1.066 -0.017 -0.113 -0.568 1.890 -0.157 -0.396 0.053 -1.178 -0.685 0.003 0.251 1.083 1.184 0.660 1.361 0.183 -0.011 1.292 -0.264
0.914 1.940 1.510 -0.433 -1.322 1.108 -1.588 -0.496 -0.247 0.102 1.578 0.870 0.567 0.476 0.143 -1.045 2.072 -0.161 0.869 -0.827 0.328 -0.582 -0.281 0.119 -0.214 -0.241 -0.258 0.764 0.190 0.040 -1.394 -0.113 0.807 1.545 -0.180 -0.761 -2.986 0.807 -0.494 0.317 0.673 0.419 1.313 0.853 1.612 0.887 -1.043 2.691 0.195 -1.894 0.442 0.180 1.817 -0.707 1.309 1.089 -0.210 0.751 0.729 0.585 0.780 -0.733 0.637 -0.917 1.164 -0.681 -0.141 -0.032 0.060 0.019 -2.444 0.444 -1.519 -0.437 0.229 -0.284 -1.116 -1.493 1.482 -0.631 0.344 0.969 0.646 -0.511 -0.777 0.279 0.800 -0.920 -0.279 -1.345 0.255 0.409 0.003 0.059 -0.012 -0.155 -1.489 1.535 1.596 -0.664
-0.834 0.749 0.887 -0.135 -0.023 -0.744 0.445 0.774 -1.094 0.914 1.155 -0.061 1.437 -1.042 0.877 -1.061 0.882 -0.528 1.138 -0.755 0.658 -0.087 -2.462 -0.950 -0.258 2.267 0.603 0.694 -0.107 -0.506 -1.570 0.490 -1.391 -2.552 -0.867 -1.369 -0.753 0.873 1.550 -0.670 -0.128 0.107 0.880 0.270 0.077 -0.965 0.848 -1.126 0.885 -0.383 0.153 -1.298 0.489 -0.470 -0.138 -0.872 0.487 -0.241 -0.955 1.189 -0.222 -0.186 0.842 1.106 1.304 -0.027 -0.406 0.242 -0.611 0.116 0.050 0.542 -0.839 -1.038 0.127 -0.490 -1.952 -1.051 -1.087 -0.199 0.551 -2.098 -0.189 0.269 0.500 -0.319 -0.274 0.620 -1.545 0.094 0.093 -1.819 -1.821 -0.521 -0.345 -0.171 -2.293 0.122 -0.215 1.925
1.543 0.350 -0.626 -0.097 0.527 -1.733 0.049 -0.209 0.597 2.785 0.116 0.446 0.438 1.305 -1.670 0.731 0.013 1.621 0.009 0.985 -0.084 -1.229 -0.192 -1.065 0.587 -1.051 -0.129 -0.101 1.413 -1.354 0.877 0.008 -0.308 -0.391 2.571 2.013 -0.428 -1.423 0.421 0.252 -0.284 -0.535 0.322 -1.008 2.105 -1.361 -1.098 0.763 -0.082 -0.827 -1.406 2.058 1.051 -2.841 0.308 -0.720 1.764 1.487 0.575 0.399 -0.905 0.991 -0.013 -0.397 0.638 0.061 -1.869 -0.052 0.157 0.746 -0.296 -0.422 -0.679 -0.283 0.209 0.834 0.559 0.447 -1.809 -0.641 0.728 0.126 0.121 -0.371 1.408 -1.390 -0.273 -0.807 -0.495 -0.050 0.149 1.289 1.682 -0.962 -0.457 -0.650 -1.729 0.437 -0.508 -0.955
-0.353 0.879 -1.136 0.837 -0.757 1.364 1.035 0.336 -0.945 -1.467 -1.834 -0.312 -0.582 0.444 -0.278 -1.356 -1.367 -1.255 1.532 2.074 0.287 1.944 1.908 1.222 1.862 -0.731 -2.075 0.885 0.342 -1.074 -0.355 -0.844 -0.405 -0.428 -1.478 -1.558 -0.007 1.411 -1.055 -0.112 0.486 0.150 1.451 0.774 0.406 -1.765 1.426 -2.483 1.392 -0.096 -0.623 0.113 -0.904 -0.994 -0.813 -1.538 1.880 1.072 -0.191 0.641 0.199 -1.110 -0.486 -1.943 -0.049 0.745 -1.018 -0.949 0.654 -0.456 1.559 -1.802 -1.536 -0.657 0.509 -1.374 0.810 0.745 -0.197 -0.347 -0.592 -0.611 -1.071 -0.495 1.043 -0.406 0.738 -0.351 1.118 0.398 0.807 2.744 1.647 -0.623 -0.013 -1.518 0.095 -0.654 -0.747 0.239
-0.840 -0.220 0.732 1.600 0.418 -0.079 0.329 1.284 -1.147 0.088 2.915 -0.787 0.323 -0.952 -1.278 0.008 -0.870 1.709 0.252 -0.092 -0.306 -1.216 0.704 -0.758 0.794 0.926 -1.608 0.808 -0.058 0.326 -0.381 -0.407 -0.071 0.042 1.324 -0.035 -0.685 1.859 -0.209 -0.168 -1.185 -0.634 -0.946 1.080 0.666 -0.599 0.732 0.345 -0.489 0.100 0.551 1.409 -0.327 -1.558 1.263 0.092 0.769 -0.173 0.027 -0.542 -0.117 1.053 -1.360 -2.073 0.491 -0.940 -0.233 -0.280 -0.292 0.504 -0.072 1.313 0.317 0.015 -0.159 0.023 1.322 -0.641 -0.759 -1.248 0.684 -0.139 -0.129 -0.170 -0.004 0.600 1.471 -1.381 -0.095 0.543 -1.373 -0.239 -0.240 -0.227 0.262 1.067 0.752 -0.342 1.084 -0.399
-1.082 -1.110 -1.406 2.240 -0.968 -1.508 1.230 1.530 1.870 0.736 1.071 2.045 1.208 -0.641 0.524 1.715 2.132 0.920 0.952 -0.317 1.325 1.560 0.168 -0.458 1.067 -0.152 1.125 0.324 -1.943 -0.020 -0.530 1.247 0.956 0.633 -0.366 -0.664 -1.903 -1.034 -0.257 -1.406 -1.320 -0.264 0.489 2.181 0.581 0.539 -0.370 1.368 3.135 -0.755 0.807 0.256 0.237 -1.639 -1.187 -0.465 0.366 1.776 1.029 -0.129 0.197 1.669 0.018 -1.008 1.384 1.976 0.588 1.068 -0.299 -0.183 -2.409 -1.026 -2.027 -0.149 -1.430 -0.969 -1.545 -0.046 0.396 -0.220 0.851 1.148 -1.115 -1.015 2.089 1.620 0.068 1.008 0.477 1.425 0.191 -0.472 -0.291 0.188 -0.562 1.300 -0.022 -2.616 -0.408 -0.393
0.442 -0.469 0.654 -0.398 1.172 2.010 0.371 -0.637 0.682 0.164 -0.655 1.916 1.360 -0.840 0.781 0.140 -1.704 0.369 0.142 0.105 1.068 -0.744 -0.554 -0.142 0.319 -0.067 0.061 1.505 -0.445 -0.282 0.329 -0.007 0.911 -1.074 0.120 0.481 0.395 1.094 0.459 -0.450 0.736 -0.216 0.090 0.836 -0.328 -1.691 -0.700 -0.194 1.214 0.030 0.200 -0.302 0.727 -1.486 0.423 0.003 0.313 1.061 0.918 -0.559 -0.727 -0.983 -0.986 -0.939 -1.293 0.488 -1.617 0.531 0.556 0.020 -2.818 3.112 0.925 -0.074 2.490 0.327 -2.275 1.592 1.718 -1.117 -1.422 0.171 1.085 -1.071 -0.740 1.157 0.074 -0.623 -0.673 0.046 -0.731 -1.687 1.240 0.191 -0.274 -0.921 -0.748 2.295 -0.545 0.091
0.946 -0.566 0.051 -0.605 2.402 2.683 -0.473 -0.355 -0.693 -0.940 1.261 1.048 0.383 -1.400 -1.311 0.592 0.415 1.015 -0.862 -0.246 -0.708 0.512 -1.056 -0.570 1.084 -0.593 -1.293 0.000 0.093 -0.508 0.375 1.480 -0.653 -1.091 0.646 1.135 0.847 0.173 -0.905 1.235 1.361 -0.556 -0.323 0.784 0.793 -0.681 0.818 0.463 0.226 0.946 0.763 1.660 0.672 -0.627 -0.123 1.492 -1.452 0.071 -0.008 0.179 0.074 1.070 -0.610 1.980 -0.647 -1.699 -2.042 1.046 1.081 -1.512 0.342 0.101 -0.430 0.786 0.411 2.831 -1.283 -0.914 -0.444 0.354 -1.176 -0.062 0.426 0.178 0.223 -0.779 -0.850 1.404 -1.237 -0.199 1.467 -0.191 -1.203 -0.143 -0.878 0.767 -0.029 -1.650 0.455 -0.617
0.702 0.451 -0.009 0.735 -0.511 -0.674 0.445 0.970 0.913 0.756 1.182 -0.198 2.653 -0.229 0.491 -1.019 -0.359 -1.021 -0.975 1.372 -0.329 0.948 -0.095 -0.066 0.329 0.163 -0.609 -0.278 3.504 -0.855 -1.153 -0.780 -0.639 1.923 -0.398 -0.165 -1.927 0.527 0.055 -1.382 -0.235 0.973 0.087 0.337 0.115 1.177 -0.340 -0.225 -1.316 -0.805 1.013 1.118 0.907 0.710 1.245 0.228 0.399 -0.427 0.724 -1.287 -0.027 -0.371 0.086 -1.315 0.695 -0.448 -0.031 -0.341 1.121 1.049 -0.451 -1.003 -1.079 -0.110 -0.196 0.325 3.110 0.065 1.762 0.662 2.507 -0.953 2.174 1.502 -0.515 1.189 -0.638 -0.607 0.600 1.437 1.349 0.290 0.888 -0.450 0.665 -0.830 0.503 -0.532 -1.154 0.033
-0.609 0.723 -0.099 -0.179 0.855 0.647 1.380 1.456 0.904 -0.306 -0.312 1.698 0.113 0.352 -0.819 -1.767 -0.502 -0.285 -0.120 0.510 -1.936 -0.161 -0.766 1.209 -0.820 1.756 -0.428 0.336 0.619 -1.028 1.436 -1.173 -0.000 0.250 0.470 -0.519 -0.661 -0.470 2.417 0.470 1.477 0.270 -2.752 -0.920 -0.871 -2.016 -1.426 -0.748 -0.150 -0.595 1.853 -2.470 1.503 -1.167 -1.742 0.931 0.515 0.659 -1.694 -0.248 0.177 0.133 1.158 -2.338 1.654 -1.273 0.669 -0.449 -0.329 -1.142 1.342 1.232 -1.200 -0.111 0.857 1.498 1.186 -0.703 -0.438 0.468 0.300 -0.969 -0.588 0.114 -0.925 -0.501 0.648 -1.204 -0.760 0.060 0.904 -0.195 0.291 1.963 0.512 1.084 -1.352 0.209 0.926 -0.951
-2.762 0.057 0.953 -1.102 1.392 0.955 0.631 -1.311 -0.047 -0.300 1.173 -0.253 1.797 -0.381 -0.762 0.286 -1.592 0.363 0.523 0.495 -0.487 0.151 -0.417 -1.700 1.422 1.330 -0.075 -0.406 0.751 -0.453 1.329 0.495 1.480 3.079 0.550 -0.288 -0.612 0.125 0.519 -1.101 0.493 0.489 -0.614 -1.987 -0.592 0.291 -0.409 -0.455 0.402 1.762 0.569 0.244 -0.513 1.073 -0.856 1.438 0.317 0.444 2.209 0.549 0.661 0.023 -0.207 0.730 -0.238 0.317 -0.045 -0.994 -0.916 -0.524 -0.991 1.264 -1.328 -0.325 -1.277 -0.721 1.901 0.774 0.153 -1.332 0.818 -0.543 0.313 -0.580 1.680 3.029 -0.755 0.367 1.445 -0.818 0.918 -0.662 0.746 -1.087 -0.471 0.187 0.293 2.413 0.634 0.795
-1.497 1.632 -0.422 -0.578 -0.165 0.556 -0.709 -0.781 -0.647 0.279 0.165 0.764 0.670 0.761 -0.046 -0.583 0.681 0.222 1.111 1.021 0.489 1.202 -1.212 0.030 0.437 -0.334 -0.236 -1.123 0.531 0.448 -0.451 1.078 -0.125 -1.300 1.100 0.592 -0.467 -1.022 0.050 -0.901 -0.240 -2.064 -2.139 1.742 1.551 0.216 -0.257 -0.131 -0.783 1.204 -2.296 1.206 1.155 -0.293 0.990 1.385 -1.915 -0.096 1.522 0.337 0.029 1.612 0.840 1.360 0.620 0.012 0.350 0.677 0.676 -1.141 0.946 0.049 -0.478 -1.221 -0.636 -0.714 0.034 0.259 -0.476 0.142 0.311 -2.090 0.288 -0.359 -0.887 -0.344 1.224 -0.315 -1.920 0.914 -1.594 0.303 1.302 0.464 0.308 0.811 -2.169 -0.524 0.596 0.621
-1.157 -0.106 0.993 0.686 -0.245 -1.624 -0.697 -2.249 1.048 -2.380 1.982 0.827 1.467 -1.083 -0.887 -0.764 0.344 -0.002 0.252 0.713 -0.242 -0.940 -0.835 0.439 0.661 0.898 0.360 -0.666 -1.411 -0.540 -0.357 -0.675 1.020 0.691 0.480 0.423 -0.501 -1.389 -1.086 -0.215 -1.525 0.070 0.802 1.322 -0.816 0.764 -0.291 -1.139 1.112 0.095 0.046 1.835 0.998 -0.007 -0.404 0.873 -0.682 1.292 1.070 0.138 1.499 -0.969 0.142 0.311 3.007 -1.028 2.798 -1.015 0.866 -0.278 -0.010 -0.252 -0.070 0.753 0.676 0.165 -1.226 -1.260 0.490 1.883 -0.283 -0.964 0.001 0.086 -1.033 -0.190 -0.436 0.990 0.226 1.678 0.966 -1.320 -0.469 1.450 1.920 0.098 0.173 -0.290 -0.440 -0.626
1.164 0.141 0.370 0.624 -0.066 -0.171 1.760 -0.486 1.665 1.327 0.941 -1.193 -0.289 0.367 0.001 -0.188 -1.109 2.318 -0.890 1.092 1.345 2.050 0.549 -1.062 -2.121 -0.713 -1.218 0.876 0.243 -1.167 1.380 0.794 -0.277 -0.395 0.996 0.588 1.284 -0.412 -0.944 1.411 0.781 1.044 -1.339 0.197 -0.293 0.825 1.775 1.111 0.507 0.854 0.998 0.334 0.411 0.140 -0.565 -0.380 0.705 1.346 -0.181 1.731 -0.617 1.083 0.006 -0.765 -0.857 1.935 0.372 -1.278 0.362 1.735 0.601 -0.068 -0.187 -0.459 -0.953 1.522 0.792 -1.131 0.251 -0.911 -0.249 1.051 -0.697 1.519 0.608 -0.774 -1.150 -0.303 0.938 -2.350 -0.786 -0.994 0.128 -0.062 0.327 -1.848 0.513 -2.367 0.746 1.399
0.323 0.226 1.245 0.173 1.490 0.564 -0.655 -0.891 0.389 -0.506 -1.018 -0.732 0.093 -0.758 -1.325 -1.161 0.328 -0.279 0.387 0.753 -0.211 0.589 -0.438 -1.728 -0.060 -0.486 -0.510 1.028 -0.275 1.494 1.138 1.903 -0.708 -1.929 1.142 0.648 -0.478 1.351 -0.190 -0.104 0.838 1.233 0.471 -0.007 -0.256 0.780 -1.014 0.581 -0.125 0.032 -1.650 -1.135 -0.533 -1.060 -0.493 -1.003 -1.468 1.242 -0.728 0.584 -0.633 0.880 -1.375 -0.203 -0.572 -0.244 -1.300 0.821 -0.601 -0.082 -0.333 -0.486 1.842 -2.404 0.187 -1.386 -0.138 0.622 1.047 0.522 1.724 -0.098 -0.500 -0.977 0.680 0.474 -0.796 -0.733 -2.103 0.863 -0.276 -1.134 1.321 -2.822 0.153 1.123 0.560 -0.021 -1.215 -0.681
1.170 1.307 2.269 -0.465 -0.382 -0.523 0.192 1.624 0.555 1.017 -0.258 -0.533 -1.573 -0.325 -0.981 -1.221 -0.564 0.252 -1.437 0.765 -1.469 -0.199 0.413 0.812 0.668 1.365 -0.966 -0.702 -1.116 -0.629 0.310 1.609 -0.294 1.408 -1.409 -1.267 -0.021 1.980 -0.780 -0.466 -1.589 0.350 -1.224 -1.443 -0.702 2.196 1.009 2.690 0.179 -0.052 -0.154 0.160 -1.098 -1.330 -0.388 0.548 0.487 -0.342 0.269 1.191 -0.232 -0.345 -0.727 0.339 0.202 -0.058 0.810 1.293 -1.944 0.154 1.865 -0.577 -0.158 0.549 -0.093 0.655 -0.046 -1.766 -2.238 1.335 1.221 -0.158 -0.257 0.116 -0.009 -0.100 0.669 -2.139 0.828 -1.728 1.168 -2.415 2.348 -0.033 -0.072 -0.127 2.042 -1.870 0.674 -0.372
-1.509 2.039 -0.239 0.869 0.428 1.657 -0.397 0.450 1.362 0.338 1.529 0.578 -0.132 0.645 2.570 -0.245 1.798 0.653 1.483 0.355 0.208 0.776 -0.243 -1.337 0.152 2.369 -0.299 0.480 -0.093 -0.136 1.337 -0.315 -0.531 -0.226 -0.870 -0.189 -0.287 1.519 0.099 -1.467 0.429 1.785 -0.281 -0.256 -0.225 -1.256 -1.876 0.261 0.656 -1.167 1.784 2.710 1.881 -0.032 -1.815 0.148 -0.739 0.329 -0.810 1.286 0.398 1.071 0.939 1.670 1.370 0.467 -0.351 -0.289 0.729 0.595 1.528 0.375 -0.046 -1.253 -2.062 0.027 -0.195 1.682 0.282 0.457 1.301 1.388 -0.588 -0.414 -0.107 -1.829 0.487 -0.075 -0.175 0.045 0.798 0.381 -0.070 -0.620 -1.536 1.801 -0.957 0.084 1.393 -0.161
1.421 0.992 1.299 0.151 0.044 -0.429 0.563 -1.094 -0.239 -1.471 -0.213 2.134 -0.757 -0.469 1.668 0.688 -0.295 0.593 -0.159 -0.515 -0.461 -1.170 -0.247 -0.357 1.918 1.759 0.083 0.583 1.506 1.527 0.649 -0.761 0.114 0.414 1.651 -0.193 0.881 1.744 0.283 0.170 -0.227 0.407 0.168 -0.920 0.466 0.947 -0.251 1.645 0.115 -0.125 0.132 0.327 -0.926 0.221 -1.179 0.726 0.273 0.917 0.456 -0.854 0.057 0.308 -1.691 0.857 0.703 -0.103 3.174 -0.697 0.791 -1.617 -0.958 -0.417 0.401 0.361 0.389 -0.028 -0.590 0.694 -0.093 1.316 -0.857 1.524 -1.562 0.780 -0.075 -0.216 0.271 1.697 -0.435 -0.177 -0.385 -0.437 -0.648 -1.105 1.167 -0.554 -0.065 0.424 -1.517 0.563
-2.501 0.773 1.745 -1.079 -0.971 0.271 -0.280 0.116 0.608 -1.099 -0.087 -0.828 -1.065 1.053 -0.945 0.764 2.423 0.381 1.857 -0.476 -0.095 -1.468 -1.091 0.040 -0.018 1.192 0.329 -0.379 0.804 1.400 0.005 0.674 -0.408 2.627 0.618 0.084 -1.697 0.242 -0.271 -0.069 -0.430 -0.303 -0.521 -0.100 -1.009 0.594 -0.361 0.156 -0.741 0.510 0.941 0.293 1.583 1.050 0.525 -2.071 -1.138 -1.260 -0.522 2.005 -0.303 0.931 0.232 0.956 -1.965 0.201 0.139 0.529 0.795 -0.137 -0.533 1.648 0.910 -0.250 -0.387 -1.001 -0.742 -0.978 -0.760 -1.326 -0.401 0.812 1.097 -0.932 2.255 -0.510 0.160 -1.973 -0.412 1.681 0.785 -0.141 -2.232 -0.565 0.855 1.067 -0.162 1.674 -0.789 0.579
0.499 -0.913 0.735 -1.126 -0.326 -0.018 0.895 2.110 0.633 1.691 -1.007 0.345 0.730 -0.671 1.025 0.120 -1.471 0.383 0.153 -0.699 -0.354 -0.391 -0.592 0.441 0.729 -0.516 -1.362 -1.320 -0.480 -0.275 0.275 0.336 -3.858 -0.728 0.859 -0.726 -1.877 -1.015 -0.046 0.012 -0.594 0.112 -1.450 0.328 -0.014 1.002 0.361 0.562 0.222 -1.049 0.755 1.434 0.267 1.246 -1.607 0.752 1.025 1.106 0.430 -0.338 1.121 -0.483 -0.912 2.002 -0.009 1.425 -0.153 0.601 -0.481 0.266 0.423 0.477 1.064 -0.843 1.003 0.417 -0.343 0.250 -0.821 -0.085 0.707 -1.913 -0.674 0.102 -0.578 -0.111 1.440 0.705 -0.549 -0.080 0.782 -0.653 0.058 -1.098 1.002 -1.043 -0.547 2.436 -0.519 -0.256
0.200 0.505 0.288 -0.064 0.620 0.238 -1.177 0.253 1.065 0.948 -1.387 0.111 -0.663 0.124 0.644 0.476 -1.843 -0.849 0.118 -2.089 0.197 0.025 -0.749 -0.532 1.265 0.245 -0.001 1.387 0.290 -0.779 0.996 1.454 -1.071 0.798 -0.833 -0.463 -0.921 0.435 0.044 -0.307 0.709 0.897 -0.932 -0.601 0.129 -1.244 -1.533 -1.324 -0.119 -0.370 -0.933 0.347 -1.280 1.281 -0.034 -0.422 -0.317 -0.923 -0.232 0.991 -0.493 2.115 1.417 -0.605 -0.579 0.280 0.720 0.069 0.664 0.800 -0.132 0.537 0.349 -0.702 0.439 0.413 0.027 0.063 -1.205 -1.045 0.543 1.095 0.595 -2.338 1.927 0.669 0.359 -0.097 0.197 -0.487 0.893 0.932 0.498 -0.942 -0.410 0.044 0.865 -0.000 0.252 -0.026
-1.169 1.306 0.624 2.201 -0.115 -0.601 1.351 -0.237 0.220 1.272 0.511 -0.261 -1.487 2.504 2.943 0.061 0.367 -0.664 1.066 0.296 2.049 0.672 1.593 -0.565 1.697 1.481 0.879 -0.853 -0.289 0.411 1.811 -1.295 0.362 -0.909 -1.739 -1.375 1.434 -0.122 0.497 0.808 -1.122 -0.821 0.428 0.764 0.218 0.111 0.593 -0.192 -0.606 0.655 -0.351 0.805 0.320 -0.422 1.202 1.395 -2.458 1.333 -0.565 2.013 1.493 -0.254 0.939 0.457 -0.712 0.162 -0.775 0.266 1.209 0.050 -0.479 -1.180 -0.295 0.488 0.330 -1.632 0.809 1.379 2.529 -0.293 0.554 -0.916 0.770 -0.179 1.546 -0.068 1.020 0.391 1.040 -0.414 -0.225 0.513 0.171 -0.649 -0.400 1.713 1.820 1.096 0.020 0.527
0.553 -0.694 -0.907 0.242 -0.914 -1.510 -0.408 0.363 0.636 1.769 1.404 -0.625 1.801 -0.454 1.034 0.277 0.834 -0.605 1.308 -2.355 0.524 -0.722 0.934 0.556 0.221 0.340 -0.644 -1.183 -3.346 -0.471 -0.366 0.171 0.181 -2.781 0.303 -0.466 2.218 -1.166 -0.901 -0.673 2.129 0.892 0.644 -1.535 1.216 -0.835 1.478 3.048 0.973 1.046 0.732 -0.420 0.279 -1.406 -0.510 0.149 0.528 -0.851 0.044 0.619 0.228 0.690 -1.259 -0.802 0.226 0.611 0.922 0.682 0.606 -0.105 -1.362 0.591 2.155 0.431 -0.602 0.135 -1.466 0.113 -0.573 -0.061 -0.148 0.570 0.677 0.090 1.366 -1.440 -0.082 1.722 -0.109 -0.454 -0.983 0.151 -0.273 0.266 0.313 -0.128 0.874 1.871 -0.564 -0.418
-0.920 0.011 0.282 0.521 1.129 -0.775 -0.305 0.667 -0.128 -1.237 1.087 0.095 1.180 0.091 -0.741 0.460 -1.030 0.986 1.063 -0.697 0.083 0.257 -0.079 -0.666 0.978 0.458 1.811 0.309 -1.083 1.500 -0.511 -1.321 0.769 -0.317 0.810 0.276 -0.121 -0.211 0.572 -0.270 -2.470 -1.421 0.728 -1.892 -0.561 -2.282 0.042 1.000 0.076 -0.433 -0.549 0.891 1.740 0.723 -0.624 -0.800 -0.397 0.456 -0.719 0.253 -0.217 -0.473 -0.416 0.711 -1.276 0.329 0.789 0.632 0.515 -1.713 -0.424 0.370 0.245 -1.002 2.600 1.076 -0.483 0.286 0.252 2.509 -0.033 0.281 0.738 -2.234 -1.594 0.217 -0.587 -1.489 0.757 -0.328 -0.702 1.382 1.553 0.183 1.032 0.652 0.204 -0.711 0.818 -0.164
-0.590 0.479 0.301 -1.949 0.067 0.395 0.543 -0.110 -0.953 -0.350 1.875 -0.405 0.838 0.788 0.997 1.812 -2.241 -0.621 -0.159 0.451 1.041 0.374 0.974 0.303 -2.831 -0.120 0.354 -1.065 -0.796 0.075 2.010 0.894 -0.918 -0.937 -0.081 1.194 0.126 1.054 2.446 0.554 0.681 -1.745 1.391 0.906 0.972 -1.165 0.158 -0.474 0.180 -0.549 -0.484 -0.474 -0.068 1.054 0.768 -0.151 -0.166 -0.675 -0.445 1.148 1.390 -0.446 0.469 -0.805 -0.322 0.539 1.524 -2.981 -2.713 -0.271 -0.776 0.188 -0.964 0.553 -1.654 -2.936 0.606 0.226 -1.112 0.586 0.790 0.076 -1.666 1.060 -0.798 -0.710 -0.322 0.854 -0.276 -0.511 -0.013 -1.178 -0.279 0.880 1.626 1.785 -0.262 -0.289 2.059 0.103
2.000 0.155 -1.177 0.509 -0.452 0.286 0.091 -0.969 0.466 -1.698 1.334 0.053 -2.036 -0.164 -0.765 1.093 0.210 0.206 1.880 -0.805 -2.280 0.193 -0.738 -0.173 0.007 -1.914 0.637 1.967 -0.360 -0.037 -0.478 0.433 0.867 -0.210 -1.397 -0.909 -1.050 0.893 -0.641 -0.412 -0.864 -0.215 1.050 0.337 -0.311 0.933 -0.778 1.285 0.343 -0.381 -0.384 0.243 0.292 0.759 1.010 -0.606 -0.662 0.650 1.276 -2.380 -1.664 -1.361 0.439 -1.354 1.217 1.972 -0.721 0.097 1.192 -0.814 -0.824 1.712 1.877 0.930 -0.566 1.049 -0.397 -0.119 -2.736 -0.477 -0.490 0.339 0.270 1.219 -0.748 0.238 -0.297 -1.341 -0.945 -2.159 0.573 -0.110 -1.733 -0.428 -0.584 1.603 0.429 -1.028 -0.340 -1.084
-0.460 1.106 -0.442 -1.552 0.249 0.350 0.663 -1.411 0.109 -1.135 1.070 0.784 0.529 -0.854 1.061 -1.371 -0.039 -1.924 1.068 -0.457 0.383 2.222 -1.258 0.252 2.261 0.318 -0.012 1.167 -1.084 -0.540 0.057 0.894 0.352 0.098 1.577 0.260 -0.086 -0.443 -0.990 0.922 0.855 1.005 0.799 -1.209 -0.540 0.724 0.145 0.312 -0.158 1.074 -0.173 0.316 -0.055 0.479 0.594 0.055 -1.150 -0.442 0.186 -1.275 -0.088 -0.703 -0.991 2.019 -1.462 3.046 1.001 0.778 0.610 0.101 -1.065 -0.117 -0.030 0.777 -0.528 -1.589 -0.847 -1.006 -0.908 0.427 2.131 -0.117 0.037 -0.344 -0.107 0.564 0.466 1.971 0.090 1.637 0.872 1.349 2.755 -0.219 -0.900 0.503 0.528 -0.468 1.054 1.178
-0.203 -0.960 -1.137 0.148 -1.745 -0.638 0.131 -2.165 -0.757 1.453 0.521 -0.010 -0.431 -0.483 0.374 0.829 1.025 -1.210 -0.083 0.647 0.386 -0.565 0.104 -0.781 -1.592 -0.095 -0.166 2.710 -0.233 -1.227 0.909 -0.950 1.066 -0.253 -1.277 -0.311 -0.386 0.457 -0.096 1.100 -1.882 2.072 0.194 1.018 -0.407 3.164 0.898 1.079 -0.881 1.300 -1.427 0.649 -0.017 1.180 1.957 -0.695 1.055 -0.743 -1.807 -1.956 -0.002 0.037 -0.556 0.910 1.078 -1.026 -0.454 -0.963 -0.233 0.215 0.718 -0.755 -1.006 1.699 -0.490 -0.170 -0.120 -0.209 -2.068 -0.607 0.977 -0.432 0.214 0.188 0.601 -1.386 -0.703 1.027 -0.517 -1.461 0.505 -0.728 -0.735 0.541 -1.163 -2.080 0.758 0.354 -0.858 0.459
-0.855 0.968 -1.435 0.460 1.139 -0.219 -0.580 0.291 1.050 -1.404 -0.764 0.250 0.382 -1.290 -0.311 -1.706 -1.178 1.922 0.700 -0.684 -0.579 0.572 1.539 -0.846 1.050 0.093 0.890 0.528 -0.287 -1.650 -1.610 -0.456 0.461 -0.257 0.195 -1.090 -0.078 0.215 -0.005 1.800 -0.713 -1.050 0.688 1.413 -0.361 -0.950 0.340 -0.430 0.491 0.348 -1.984 0.281 -0.250 1.125 -1.503 -0.592 1.186 -1.882 -1.880 0.666 -0.320 1.001 -0.429 -2.041 0.162 -2.037 0.090 0.126 1.053 -0.472 -0.333 -1.345 1.123 0.352 -0.793 -0.189 0.507 -1.435 0.976 -0.530 0.378 0.739 -1.328 0.407 0.419 0.230 0.063 -0.206 -0.416 0.571 -0.281 0.173 0.309 0.215 -0.637 0.321 -0.971 -0.650 -0.047 0.310
-0.081 -0.166 0.689 1.078 -0.320 -0.154 -1.711 0.586 0.671 -0.434 0.964 0.243 -0.526 0.870 -0.842 1.434 1.484 -0.628 0.133 1.264 -0.107 1.236 1.862 2.083 -1.470 0.419 1.441 0.212 1.524 0.242 -1.087 -0.706 -0.012 0.821 -0.525 0.293 -0.676 0.913 -1.255 1.543 -0.740 -1.356 -0.847 -0.674 -1.229 -1.093 1.097 -1.139 -0.588 -0.073 0.357 0.774 -0.824 -2.106 0.873 -1.495 -1.499 -0.321 0.698 1.353 -0.196 -0.942 -1.185 1.079 0.051 -0.699 -0.271 2.280 -0.180 0.009 0.390 0.622 -1.401 -0.749 -1.407 0.543 -0.142 0.060 -0.401 -0.643 -1.256 1.385 0.208 0.060 -2.321 0.064 0.004 -0.556 -0.172 0.144 -0.134 -0.857 0.466 -0.021 0.847 -0.059 1.090 0.897 -0.608 -0.106
-0.651 -0.458 0.150 0.740 -1.502 1.796 -1.480 0.144 -0.673 2.158 1.898 0.200 -0.233 -0.798 -1.208 -1.446 -2.049 -0.762 0.714 -0.322 -1.067 -0.094 0.511 0.482 0.943 -2.182 -1.803 -0.034 -0.106 0.668 0.388 -1.573 -1.670 -0.601 0.916 1.016 -0.400 0.780 0.039 -0.346 0.136 -0.573 -0.137 0.096 -0.721 -1.307 0.611 -0.795 -0.798 -1.076 2.090 0.094 0.580 0.039 -0.542 -1.390 -0.629 -0.520 -0.941 0.552 -0.475 1.789 -0.599 -2.101 0.372 -1.608 0.783 0.180 0.243 0.216 -1.827 1.682 -0.292 0.827 -1.554 -0.580 1.625 0.023 -2.559 -0.580 0.588 0.393 0.523 0.329 -1.129 -0.193 0.581 0.100 0.964 0.577 1.816 -0.712 0.568 -1.604 1.276 -1.555 -0.799 0.386 0.292 0.969
-0.326 1.724 -0.141 0.931 -0.082 -0.591 -0.916 -1.330 0.140 -0.924 -1.038 0.460 0.253 -0.329 0.467 -0.319 -1.362 0.491 -1.307 -0.317 -0.003 -2.380 -0.116 1.843 0.586 -0.191 -0.829 0.201 -0.658 -0.807 -0.222 0.897 0.560 0.346 0.324 0.743 -1.212 -1.078 -0.559 -0.005 0.015 -1.064 0.347 0.031 -0.601 -1.393 1.242 -0.057 0.155 -0.171 -1.359 -1.351 -1.061 0.493 0.500 0.472 -0.236 -0.756 -0.773 0.297 1.187 -1.614 0.852 0.737 -0.336 -0.083 0.314 0.575 0.255 0.629 -2.544 0.303 -1.675 0.496 0.776 -0.141 -1.014 0.656 1.458 0.262 -0.459 -0.333 -0.979 -0.366 -0.773 -0.989 1.479 0.315 -2.316 -0.503 -1.001 0.486 -1.590 0.696 -0.849 -0.003 1.031 -0.263 -1.249 0.649
-1.477 0.299 1.698 -2.277 0.914 0.101 -0.255 0.663 0.324 -2.167 1.760 -1.300 0.466 -0.541 -0.801 0.807 0.895 -0.722 -0.361 -1.391 0.512 1.786 -0.112 -0.783 0.048 0.388 -0.816 -0.967 -0.364 -0.765 -0.183 2.958 -0.328 0.970 1.009 -1.710 0.252 0.171 1.336 1.602 0.816 -0.488 1.227 1.029 0.846 -1.595 0.340 -0.778 0.118 1.110 1.597 0.540 -0.697 -0.296 1.452 0.142 -0.854 -0.653 0.781 1.729 1.454 0.540 -0.466 -1.360 -0.916 -1.265 0.487 0.275 -0.644 0.742 -0.659 0.133 0.584 -0.164 0.341 2.124 -0.533 -0.528 -0.866 0.714 -1.777 0.354 -1.476 1.399 0.531 0.493 1.675 0.671 -1.203 0.019 -0.064 0.833 0.708 -0.579 0.513 -0.476 -2.394 0.662 -0.305 0.888
1.255 0.175 -0.068 0.617 -0.497 -0.239 0.447 -1.046 1.330 0.285 0.549 -0.956 -1.410 -0.905 2.652 0.304 1.762 1.327 0.495 -0.528 -1.038 -1.179 -0.662 1.275 0.088 0.315 -0.268 0.814 -1.822 0.294 -0.245 0.721 -1.015 1.618 -0.597 -0.693 -1.876 1.892 -0.428 1.229 0.365 -0.446 1.162 -0.621 -0.402 0.539 -1.226 -0.096 0.980 0.196 -1.807 0.817 0.097 -0.677 -0.405 0.683 1.562 1.058 0.590 -0.130 -1.335 1.096 -0.001 1.753 -0.156 -2.433 0.768 0.126 0.693 -1.276 1.101 1.804 -0.531 0.797 0.033 -0.046 -0.610 1.989 0.289 -0.198 0.664 -0.026 0.473 -1.407 -0.930 0.254 -1.488 -0.558 1.109 1.888 -0.548 0.092 -0.751 -0.303 0.884 1.234 -1.451 2.026 -2.245 -0.388
-0.671 1.904 0.864 -0.426 0.440 -0.785 -1.273 -0.559 -1.879 -2.447 -0.660 -0.245 -0.322 -1.232 0.126 0.028 0.211 1.327 -0.219 1.630 0.390 1.420 -0.111 0.906 0.140 0.736 -0.090 -2.056 -0.764 0.099 -0.840 -0.392 0.951 -0.163 0.565 0.412 1.707 -0.882 1.759 -0.941 1.425 -0.011 -2.120 -1.581 -0.295 0.694 1.237 1.499 0.930 -0.278 -1.101 2.013 0.272 -1.043 -0.465 -2.465 1.752 -1.357 1.270 -0.475 0.986 0.439 0.129 -1.388 -0.795 1.663 1.472 1.270 -0.885 -1.644 -0.591 -0.571 0.686 0.807 -0.115 0.541 -1.270 -1.441 -0.357 -0.984 -0.066 -0.804 -0.624 -0.070 0.213 1.393 1.003 -1.194 -0.813 0.812 -0.102 -0.466 -0.745 0.576 1.305 -0.293 0.541 0.743 0.079 0.064
-1.741 0.019 -1.515 -0.991 -1.075 0.832 0.248 -0.465 -1.039 0.482 0.458 -1.215 -1.139 -0.172 0.236 0.216 -1.616 -0.703 -0.082 1.306 -0.544 -0.823 0.749 0.182 -1.126 1.078 -0.403 1.087 0.060 1.025 -0.789 1.177 0.702 0.076 0.843 -1.559 -1.946 2.075 0.848 0.343 -1.552 1.158 -1.126 0.782 0.779 -0.704 -0.567 -0.394 1.379 1.646 0.218 -0.206 -0.528 -0.416 1.899 1.147 -2.005 -0.224 0.611 -0.704 1.048 2.611 -0.198 1.364 -0.986 1.073 -0.644 1.284 0.216 -1.771 0.424 1.389 0.759 -0.730 -0.338 -0.666 -0.473 0.237 -1.127 0.079 0.511 0.000 -0.322 0.085 1.116 -0.541 -0.813 -0.221 0.713 0.462 -0.210 0.094 -0.461 0.547 -0.821 0.329 -0.574 -0.419 0.307 1.062
0.768 1.683 0.431 -1.100 -0.138 0.096 1.606 -0.662 0.379 -0.428 0.548 0.577 -1.312 0.232 2.210 0.738 -0.542 -2.626 0.010 1.289 -0.502 0.516 -1.120 -1.240 -2.063 2.780 -0.448 -0.813 1.649 1.412 -1.689 -0.150 0.969 0.243 -0.727 -0.057 0.545 0.503 0.218 -1.740 0.247 0.266 -0.426 0.565 0.113 0.195 0.612 -1.650 -0.014 1.589 1.113 -0.340 -1.257 -0.035 1.449 -0.869 0.512 -1.722 -0.389 0.821 -0.661 0.524 2.169 0.518 -1.139 1.658 -0.038 0.592 -0.226 1.268 0.223 -2.091 1.197 2.916 -1.824 0.726 -0.417 -0.576 -1.254 0.766 -0.338 1.862 1.096 -0.751 -1.424 -1.736 2.034 -2.233 -0.207 -0.416 3.486 0.087 0.220 -1.128 -0.284 1.552 0.284 -0.936 0.422 0.656
0.387 0.516 -1.353 2.105 -0.117 0.478 0.519 -0.102 -0.137 -0.320 0.507 -0.750 -0.970 -0.070 1.128 -1.020 -1.473 0.906 -0.356 -1.459 0.412 1.304 -0.536 0.645 0.425 0.725 -0.924 -0.433 0.566 0.722 -0.655 -0.057 0.024 -0.747 -0.309 0.441 0.182 -0.363 -0.462 0.056 -1.404 -1.456 -0.687 -1.148 -0.014 -0.097 -0.117 0.697 -1.377 0.959 0.084 0.016 1.803 0.772 -0.559 0.053 1.511 -1.068 -1.061 0.745 0.369 1.444 0.711 -1.051 0.295 0.069 1.403 -0.802 0.334 0.261 0.886 -0.133 -0.607 -0.731 -2.110 -0.879 0.607 0.869 -0.688 1.872 -2.753 -1.197 -0.342 -0.527 0.421 1.097 0.216 1.070 0.870 -0.751 1.632 1.443 0.036 0.013 -1.242 -1.230 -0.282 1.008 -0.820 0.523
0.269 -0.496 0.812 1.057 0.962 0.879 0.952 -1.561 0.619 -0.111 -0.048 -0.421 0.994 -0.875 -0.511 0.925 -0.813 0.478 -0.071 -1.081 2.565 -1.516 -0.090 0.270 -0.422 -0.651 1.386 0.686 0.122 0.761 0.303 -0.278 -0.125 1.169 1.165 -0.848 0.291 -1.341 0.625 1.006 -0.511 0.195 0.957 -0.326 -0.925 -1.952 1.979 0.103 -0.272 -1.846 -0.721 -1.222 0.547 -0.661 1.436 -1.182 0.605 -0.265 0.620 -1.692 0.403 -0.641 1.486 -0.275 0.573 1.883 0.928 0.847 -0.191 -0.495 0.029 -0.989 -0.011 0.388 0.756 0.504 -0.834 -1.193 1.549 2.399 -0.026 1.764 -0.155 1.129 -0.106 -1.158 0.492 -0.035 -0.514 0.174 -0.084 -0.411 0.917 0.344 0.747 0.063 -0.855 -0.073 -1.673 1.215
1.697 -0.281 -1.334 -0.889 2.248 -0.133 0.567 0.959 -0.342 0.426 0.171 -0.475 1.891 -0.129 -0.147 0.779 -0.371 -0.410 -0.452 0.830 -1.150 0.142 -0.761 -0.073 -0.620 0.383 -0.376 0.259 -2.333 0.508 0.867 1.509 0.545 -0.555 -1.701 0.893 -1.576 0.274 -0.454 0.501 -0.815 1.923 -0.934 0.145 -0.707 0.258 0.281 0.016 0.486 -0.779 1.218 -0.807 0.610 0.264 -0.743 -0.778 -2.571 0.664 -0.819 -0.616 -1.437 0.691 -0.786 -0.993 -0.724 -0.704 0.664 -0.630 0.744 0.336 -0.483 0.514 -0.508 0.386 -0.298 -0.743 1.583 2.066 1.703 1.166 0.277 0.421 -0.459 1.313 0.438 -0.374 -2.064 0.414 -1.269 -1.334 -0.916 0.089 -1.641 -1.111 -0.408 -0.561 -0.629 -0.267 -0.467 -1.000
1.694 -1.617 1.767 -1.694 -0.082 -0.881 -0.503 -0.592 1.342 1.608 -0.653 1.312 0.281 0.222 -0.539 -0.370 -0.576 0.760 0.188 -0.366 0.242 0.819 -2.715 -1.097 -2.142 2.093 0.978 -0.019 0.149 0.509 -0.235 0.703 0.031 -0.826 -0.233 0.449 0.494 1.055 1.206 -0.428 0.210 -0.849 1.317 -0.309 -0.332 -0.993 -1.629 -0.639 0.666 0.252 0.283 1.644 0.251 -1.729 0.039 -0.817 0.526 1.398 1.544 -0.376 -0.548 -0.498 -0.787 1.175 -0.145 -0.081 0.251 -0.267 -1.028 -1.567 -1.046 -0.042 -2.359 0.259 1.698 -0.672 -1.651 0.429 -1.438 -1.151 -1.081 0.446 1.431 0.694 1.736 -0.009 -0.933 -0.288 -0.387 1.564 1.144 -0.756 0.004 0.910 -0.130 0.397 0.671 -0.413 -0.828 2.303
-0.798 -1.966 -0.765 1.041 1.468 0.273 0.641 -0.344 -0.473 -1.090 1.663 1.055 -1.107 0.394 -0.411 -1.178 -1.359 -0.634 -0.022 1.805 -0.123 -1.489 0.571 0.974 0.302 -0.212 -0.516 0.409 -0.011 -0.620 0.079 0.050 0.787 -0.839 1.126 1.113 0.319 -0.475 -0.823 -0.935 0.386 1.191 -0.537 0.678 -1.073 -1.873 -0.008 -0.245 -0.202 -1.095 1.022 0.968 0.529 -1.022 -0.568 0.239 -0.400 1.263 0.338 1.118 0.983 2.119 1.490 -0.334 -0.901 -0.677 -2.398 -1.443 0.659 -0.713 -0.477 -0.294 1.638 -1.032 -2.513 1.205 -1.144 0.726 -0.943 -0.626 1.330 -0.979 1.381 -0.799 -0.016 -0.018 0.918 0.491 -0.657 -0.716 0.136 0.040 -0.611 -0.975 0.182 1.215 -0.248 0.278 -0.854 -0.690
-0.624 -1.189 0.783 0.429 1.006 -2.026 -1.030 0.951 -1.190 0.249 0.139 0.839 0.867 -0.349 0.081 -3.261 -0.081 0.085 2.037 -0.306 0.222 -1.186 1.070 1.075 -1.525 0.304 0.149 -0.761 1.041 0.016 -0.162 1.028 0.032 -0.157 -0.441 1.368 -0.473 1.288 1.565 -0.863 0.331 0.753 0.350 1.213 0.264 0.589 -0.249 -0.801 -0.943 0.475 0.865 -0.124 -0.025 -2.102 -0.060 0.884 -0.910 0.464 0.030 0.604 -0.617 0.931 0.710 -0.213 1.444 -0.343 0.987 1.682 -0.276 0.066 -1.241 -0.026 0.114 -1.084 1.020 1.406 -0.759 0.121 -0.566 -0.784 -1.566 1.576 0.137 1.033 1.094 -0.357 0.572 1.089 0.341 0.793 -1.394 -0.128 -0.463 -1.590 -1.209 -0.234 -0.450 -0.356 -1.176 0.093
1.672 1.255 -0.643 1.584 -0.657 1.614 -0.478 -0.751 -0.235 0.138 0.766 -0.217 1.311 -1.242 -0.676 -0.216 -1.264 0.399 0.233 -0.088 -0.544 -1.245 -0.879 0.304 -0.026 -0.059 -0.525 -0.511 -1.378 0.333 -0.329 -1.116 -0.921 -1.677 -0.347 0.582 1.082 -0.232 1.731 0.286 -0.627 -1.240 -0.146 1.073 1.462 1.523 -0.635 -1.031 -0.169 -0.144 2.885 0.128 2.103 -1.408 -0.978 1.200 0.262 -0.814 -0.948 0.070 -1.014 0.192 0.974 -0.988 0.045 -0.293 0.801 1.787 -0.791 0.253 0.477 1.830 0.692 -0.954 -0.202 1.052 0.953 -2.297 -1.546 0.435 -0.211 0.659 -0.501 1.601 -0.015 -1.296 0.076 -1.413 0.119 1.488 0.286 -1.212 0.143 0.362 0.591 -1.426 -2.318 -0.029 -1.090 -0.044
-0.115 -1.095 1.280 0.920 0.220 -0.959 1.463 1.049 1.658 1.392 -0.376 -0.262 0.578 0.873 0.931 -0.491 0.553 -0.454 0.675 -0.377 0.746 -1.307 -2.057 0.971 -0.580 -0.601 -0.585 -2.680 -1.157 -0.443 0.615 1.969 0.223 1.089 0.396 0.363 -0.654 -1.773 -1.887 0.653 1.245 -2.269 -1.679 -1.479 -0.597 -1.372 1.064 0.239 0.905 -0.619 -0.234 -0.402 -0.916 -0.790 -1.395 -1.110 -0.578 -1.139 -1.790 0.884 2.632 0.220 -1.997 0.229 -1.614 -1.544 0.695 1.099 -0.223 -0.577 -0.183 0.457 -0.664 0.233 -0.268 1.109 0.656 0.204 0.358 1.699 -0.761 -0.313 1.468 1.197 1.159 -2.325 0.044 0.996 0.741 0.514 0.781 0.230 0.182 0.095 0.477 0.740 0.505 1.626 -0.222 -0.078
0.952 0.733 -0.192 -0.367 0.481 -0.749 -0.308 2.026 1.181 1.527 1.419 0.867 0.166 -0.269 -0.782 0.111 0.028 -0.308 1.221 1.456 -0.227 -0.395 -0.719 -1.632 1.633 -0.040 -0.340 -0.868 0.687 -2.330 0.105 -1.104 -0.120 0.285 -0.941 -0.303 -0.114 0.119 -0.709 0.072 -0.245 0.750 1.258 0.039 0.299 -0.731 1.753 -1.288 0.192 -0.437 0.462 -0.102 -1.441 1.228 0.461 -0.487 0.584 -0.492 -0.641 -2.318 -0.921 -0.040 -0.707 -1.172 1.348 0.487 0.728 2.720 -0.119 1.161 -1.539 -1.166 -1.728 -1.717 -1.009 0.803 -0.605 -0.116 -0.778 0.038 1.270 1.210 1.819 -0.010 0.389 1.086 1.684 0.990 0.756 1.643 0.119 -0.142 -0.038 0.100 0.590 1.846 0.911 -1.753 -0.634 -0.097
-0.187 0.264 0.335 0.585 -1.147 1.437 1.477 1.227 1.121 -0.249 0.542 -2.181 -2.359 1.460 0.303 -0.234 0.327 -1.726 -0.615 0.529 0.906 -0.010 -0.148 0.343 0.944 0.533 0.709 0.118 -0.779 -0.363 -1.415 1.007 0.053 -0.571 -0.143 0.785 1.134 1.224 0.057 -0.649 -0.848 0.801 -0.667 -1.946 0.442 1.504 -0.464 -0.196 -0.359 -0.205 1.021 0.929 0.453 0.359 -1.114 -0.734 -0.120 0.336 -0.738 0.992 -1.256 -0.764 -0.080 0.062 1.327 0.455 -0.105 0.287 0.718 1.249 -1.230 -0.838 -2.001 0.781 1.406 0.817 0.268 -0.440 1.383 0.312 1.042 1.723 0.804 -1.479 -0.179 1.191 0.505 1.388 0.415 -0.177 -0.109 1.782 -0.109 -0.314 -0.387 1.470 0.788 -0.087 -1.930 -0.215
0.677 0.169 -2.831 -1.543 0.518 0.189 -0.343 -1.586 -1.194 -0.640 1.901 -1.024 -2.305 -0.465 -1.113 0.608 -1.789 -0.101 1.485 -2.434 -2.004 -0.977 -0.135 -1.517 0.443 -1.381 -1.022 -0.570 1.910 1.086 -0.179 0.197 -0.055 0.379 -0.880 -0.954 0.531 0.843 0.841 0.416 -1.205 0.204 -0.229 1.672 1.989 -0.650 0.135 0.596 0.483 -1.365 0.998 1.751 -0.153 -0.684 0.377 0.579 -0.559 0.718 -2.162 0.988 1.414 0.189 -0.604 0.338 2.206 -0.214 0.585 -0.003 -0.218 -2.094 1.081 -0.965 -0.229 0.503 0.633 0.823 1.513 -1.851 -3.712 1.460 -0.207 1.283 0.092 -0.489 1.267 -0.855 1.680 -0.532 -1.457 1.098 1.803 1.032 -0.006 -1.976 -0.097 0.773 0.081 0.454 0.271 1.102
1.230 -0.262 -0.086 -0.135 -0.442 0.578 -0.691 0.704 -0.657 -0.295 1.304 -0.111 0.056 -0.163 -0.429 1.500 1.082 0.587 0.105 -0.370 0.791 -1.029 1.264 0.677 -0.510 -0.631 0.462 -0.410 1.978 0.124 -1.050 0.539 0.371 -0.132 1.868 0.512 1.232 1.665 1.073 0.876 0.037 0.861 0.187 1.417 -1.801 0.096 -0.073 -0.377 0.613 0.400 -0.392 -0.364 -0.371 -0.459 -0.133 -1.392 -1.653 -0.653 1.030 0.023 0.680 -1.260 -1.079 -0.393 0.167 -0.147 1.543 0.094 0.787 1.658 -0.873 0.396 -1.119 0.005 -1.127 1.337 -1.028 0.292 1.076 -0.592 2.043 -1.913 -0.338 -0.208 1.239 -1.278 0.769 -0.915 0.671 0.470 0.081 -1.137 -0.504 1.306 -0.061 0.676 -0.169 -0.058 -1.941 -0.010
-0.761 0.232 0.036 0.771 -0.647 -0.055 3.777 -1.036 0.000 -0.442 -0.110 0.675 0.585 1.257 -0.672 -0.022 -2.430 0.958 -1.015 -0.986 1.087 0.107 -0.809 1.742 0.558 -0.080 -0.451 -0.183 0.427 0.231 1.032 -1.057 -2.093 -0.385 -0.217 1.149 -1.657 -0.169 -0.280 -0.142 -1.274 0.438 -0.756 -0.182 0.982 0.338 -1.069 -0.002 -0.646 -0.602 -0.597 0.381 -1.326 -0.457 -1.294 0.120 -1.325 -0.242 -0.404 1.778 0.196 -1.614 -1.358 -0.412 0.480 0.555 0.810 1.128 0.556 0.624 1.765 0.610 0.609 -0.563 -1.177 -0.116 0.547 0.700 -0.515 0.850 -0.306 -0.875 -1.338 0.110 -0.238 1.569 0.938 -0.579 0.350 -0.769 2.200 -0.486 -0.141 -0.721 0.587 0.557 0.358 0.874 -0.059 0.771
-0.100 -0.523 0.557 -0.543 1.614 0.882 -1.150 -1.201 -1.135 1.338 -0.564 0.439 0.820 -0.739 0.507 -2.516 -0.255 2.494 -0.843 -0.022 1.739 -0.731 -0.206 -0.765 0.970 -0.624 0.928 0.773 0.329 0.681 -0.299 -0.860 -0.065 0.111 0.094 0.759 -0.479 -0.840 -0.859 -0.082 -0.370 -1.186 0.172 0.410 0.903 0.761 -0.678 -2.132 -0.818 -1.036 -1.522 -0.384 1.073 -0.541 -0.897 -0.089 0.124 -1.574 -0.452 1.465 0.134 0.157 0.806 -1.467 1.516 0.413 1.721 0.264 1.104 1.117 -1.740 -0.909 1.088 -0.191 0.317 -0.900 1.036 1.756 -0.795 0.321 0.204 -0.703 1.170 -1.270 1.010 -0.288 -0.827 -0.963 0.430 -0.266 1.136 1.494 0.477 0.528 -1.730 0.647 -0.726 0.031 -1.555 0.372
0.659 0.912 -0.262 -1.602 -0.355 -0.221 -0.635 -1.337 1.038 1.221 1.908 1.429 -1.717 0.744 -0.213 0.345 -0.693 0.699 1.966 0.558 0.505 -1.290 1.561 1.154 1.626 -2.109 0.881 0.405 -0.584 1.709 1.058 1.190 -1.817 -0.363 0.496 -0.218 0.873 0.642 -1.058 0.149 1.006 0.396 0.175 0.326 0.330 3.500 -0.823 1.463 0.439 -1.250 -1.611 0.206 -0.596 0.285 -0.875 0.075 1.880 -0.928 0.349 -1.516 0.099 -1.241 0.500 0.327 -1.100 0.126 1.299 -0.676 -1.973 0.572 -1.523 -0.943 0.767 -1.264 1.157 -2.018 -0.070 1.248 0.894 -0.491 -1.315 0.558 0.585 0.696 -1.207 -1.007 -1.170 0.166 1.899 -1.276 1.961 0.191 1.056 -0.329 0.986 -0.842 0.203 -0.665 0.060 -0.224
0.192 -0.401 0.117 0.217 1.197 -0.305 1.234 0.949 -0.299 -0.208 0.298 -2.208 -0.934 -0.979 -1.013 -1.039 -1.386 -1.157 -0.695 0.493 -0.078 0.225 0.232 0.305 0.654 0.292 -0.028 0.353 0.582 -1.211 -2.234 -0.300 -0.233 1.667 -0.176 1.880 -0.163 1.019 -0.520 1.130 1.159 -0.139 -1.377 -0.155 2.189 0.367 -0.738 1.073 -1.186 0.271 -0.466 0.277 0.050 -0.783 -2.127 1.848 -0.407 1.567 -0.184 1.212 1.813 0.088 0.699 -1.049 -0.936 0.483 -0.286 -1.243 0.310 -0.852 -0.750 -0.710 0.644 0.122 0.510 -0.029 -0.474 0.100 -2.318 -0.939 -1.359 1.074 -0.280 -1.035 -2.281 1.380 0.214 -1.252 -1.030 -1.369 -0.393 0.455 0.555 -0.168 0.467 -0.344 -0.626 0.002 0.848 1.253
0.551 -0.003 -1.843 0.794 -1.527 -0.380 0.090 -0.707 -0.418 1.619 1.192 0.908 1.005 0.536 -0.075 -1.000 -0.206 -0.341 -0.046 -0.951 -0.224 0.432 1.102 -0.288 0.140 -1.104 -0.472 0.885 -0.990 -1.239 -1.188 -1.260 -1.794 1.116 -0.756 0.724 0.262 1.268 1.454 -0.066 -0.681 0.857 0.063 -0.874 0.534 0.782 0.660 -1.696 0.138 2.580 -0.180 2.241 -0.488 1.035 0.319 -1.751 -0.135 0.022 1.388 -0.681 -0.742 0.375 -0.901 -0.346 -0.429 -0.244 0.726 -0.528 -0.856 1.109 -1.218 -1.169 1.297 -0.753 -0.286 0.907 1.022 0.605 -1.308 1.164 1.198 -0.226 0.985 -0.953 0.562 -0.773 -2.381 0.482 -2.239 -1.604 -1.835 0.884 1.458 -1.148 0.834 -0.706 0.510 -0.091 0.277 -0.272
-0.376 -0.833 -0.281 0.428 2.169 0.281 0.402 2.971 -1.936 0.037 -1.954 -0.542 -0.920 0.033 1.602 1.016 0.463 -0.644 0.638 0.618 -0.589 0.003 1.115 -0.860 1.713 -0.180 0.166 0.704 1.106 -0.439 2.293 -0.086 0.415 0.420 -0.805 1.176 -1.075 -0.051 0.244 -0.691 0.574 0.573 -0.255 -2.214 -1.073 -1.215 1.422 -0.016 -1.615 0.709 0.664 0.438 1.028 -0.427 0.274 -0.930 0.072 -0.086 1.525 -0.938 -0.953 -2.081 -1.389 -0.555 -0.117 0.825 -0.176 2.529 0.339 -1.166 -0.771 -0.259 2.936 -0.842 -0.137 -0.054 -0.975 1.036 -1.278 -0.897 0.357 1.129 -1.485 -1.227 -0.526 -0.021 -1.997 0.693 -0.079 -1.702 -1.173 1.891 -1.740 1.589 -0.415 -0.056 -1.155 1.711 0.233 0.649
0.595 -0.357 -0.503 -0.626 -0.428 -0.366 -1.105 0.316 -0.813 -0.728 1.326 -1.323 2.136 -0.928 -0.680 -0.046 -0.139 1.342 0.034 -1.131 0.560 -1.365 -1.630 -0.330 -0.539 -0.647 0.647 0.907 1.024 0.104 0.004 -0.832 0.572 -0.472 1.417 -0.713 0.395 0.732 0.213 0.941 -1.153 -0.989 -1.043 -1.003 -0.084 -0.571 -0.119 1.083 1.210 -1.197 0.324 -1.412 -0.637 0.291 0.334 1.618 0.197 -0.343 -0.976 -0.949 -0.557 -0.165 0.855 -0.250 2.452 1.006 2.354 -1.347 0.428 0.029 0.607 -0.472 0.963 -1.725 0.848 -0.507 -0.712 -1.417 -1.554 0.257 0.220 -0.405 -0.884 0.064 0.133 0.314 0.678 0.344 0.271 -0.994 -0.944 -1.192 -1.612 -0.117 0.522 0.880 1.470 -0.026 1.539 0.000
-0.472 -0.499 -1.280 1.685 -0.732 0.258 -0.364 0.647 -0.784 -1.193 0.502 -0.418 0.641 -0.234 -1.054 0.919 -0.229 0.089 0.985 -1.619 0.025 0.071 0.772 1.016 -0.497 1.138 0.528 -0.371 0.954 -0.554 -1.740 -1.637 -0.266 1.223 -1.093 0.677 -0.383 -0.886 -0.393 0.931 0.622 -0.743 0.769 -1.309 -0.341 -1.371 0.730 0.990 0.768 0.448 1.272 -1.371 -0.738 -0.547 0.499 0.151 0.216 0.274 0.300 0.356 0.807 0.551 -0.081 -0.700 -0.233 -0.887 -0.363 -2.201 -1.082 -0.730 -1.455 1.752 -0.575 -0.582 0.332 -0.947 -0.564 -1.086 -0.957 0.982 -0.373 -0.254 -1.371 0.868 -0.364 0.510 0.407 0.289 -0.580 0.233 -0.497 1.762 -1.276 1.367 1.355 -0.926 0.127 -0.139 0.530 -1.137
-0.118 -0.351 -0.200 -0.889 -0.533 1.340 -0.308 0.937 -0.528 0.322 -0.062 -1.520 0.785 0.859 0.076 0.824 1.783 -1.153 -0.839 -3.297 -1.149 0.567 0.557 0.011 1.309 0.752 -0.076 0.052 0.590 -0.619 1.075 -0.965 -1.150 0.874 -0.813 -0.578 1.402 -0.918 0.250 -0.411 0.189 0.082 1.358 -0.928 0.322 -1.456 0.497 -0.164 -0.771 0.562 0.898 0.760 1.996 -0.574 2.048 0.524 -1.406 1.105 -0.843 0.463 0.929 2.347 -0.270 0.370 0.990 0.576 -0.788 0.269 -0.403 -1.324 0.136 1.682 -0.424 0.673 1.349 -0.766 -0.327 1.279 0.374 -1.524 0.250 2.280 -0.959 0.685 1.370 1.218 -0.810 0.113 -0.317 0.743 -1.224 -2.207 -0.255 -0.226 -0.717 1.199 0.864 1.691 1.642 -0.333
-0.320 0.575 0.163 -0.608 0.019 -1.104 -1.086 -1.369 1.601 -0.240 -0.834 -0.296 0.915 -0.380 -0.505 -0.389 0.537 0.576 -0.738 -1.495 0.339 0.955 0.255 -0.761 -0.477 0.034 0.417 0.969 -0.202 -0.556 -0.280 -0.548 0.004 0.623 -1.289 0.515 0.914 0.845 0.725 -0.906 0.083 0.198 -0.099 0.655 -1.769 -0.732 -0.238 1.448 0.259 -0.794 1.411 -1.135 -1.141 -0.822 0.546 0.263 -1.522 0.134 0.189 -1.308 -0.068 0.267 0.060 -0.890 0.440 1.308 -0.412 -0.654 0.830 -1.738 0.660 1.842 -0.465 -0.454 -0.249 -0.970 0.748 1.886 0.895 2.242 0.575 0.646 1.631 -1.173 0.702 1.527 -1.335 2.805 0.314 -1.101 -1.132 -0.235 0.064 0.187 -0.093 0.583 -0.532 0.558 -0.570 -0.750
-0.407 -1.176 -1.302 -1.946 -0.372 -0.718 0.674 -0.714 1.531 0.359 0.588 -0.036 0.674 0.541 0.912 -0.354 0.104 0.335 -2.003 0.500 -0.772 -1.406 0.534 -0.140 0.925 0.600 0.214 -0.581 0.591 -0.311 -0.061 -0.021 1.115 -0.994 0.982 -0.605 1.443 -1.457 -0.500 0.089 -1.220 0.981 -2.474 -0.497 0.313 -0.227 -1.082 -0.246 -0.207 -0.853 0.245 1.382 -0.011 0.136 0.031 0.517 1.910 0.721 0.921 -0.212 0.115 -0.331 0.304 -0.320 0.221 0.877 -0.691 1.661 0.825 1.626 0.588 0.122 0.817 0.083 -0.692 1.346 -0.060 0.024 -0.732 0.075 0.496 0.123 -0.050 -0.033 0.929 -0.867 -0.089 0.080 -1.561 0.964 -1.410 1.233 -0.404 0.012 1.862 0.236 -1.012 -0.714 -0.004 -1.820
-0.991 -1.169 0.059 -0.047 -1.095 -0.127 0.224 -0.233 0.178 -0.588 1.260 -1.947 -1.651 1.038 1.926 1.094 -1.426 0.641 0.469 -0.732 -0.533 -0.861 -0.151 -0.533 0.272 0.199 0.544 1.793 0.124 1.439 -0.737 -1.867 0.865 -1.606 1.028 0.840 -1.575 -1.090 2.739 0.114 1.506 -1.334 -1.089 2.427 -1.104 -0.334 -0.284 -0.381 1.018 1.162 0.138 -0.163 0.383 -1.682 -0.911 1.486 -0.906 -0.880 -1.109 -0.372 -0.761 0.403 0.145 -0.007 1.092 0.236 -0.755 -1.754 1.415 0.378 -0.148 -0.410 0.009 -0.141 -1.221 -0.662 -1.196 -0.056 0.232 0.088 1.090 0.717 0.292 -0.327 0.654 -0.647 0.296 0.829 0.004 0.115 -0.587 0.380 -0.452 0.508 -1.218 1.283 0.786 0.111 1.523 -1.248
0.725 -0.244 1.402 -2.286 0.094 -1.293 -0.402 -0.693 0.186 -0.903 -1.469 0.238 -1.957 0.214 -0.949 2.769 -0.730 0.456 0.932 -0.631 0.998 0.115 0.045 -0.663 -0.362 0.777 0.509 -1.119 1.019 -1.113 -0.400 1.020 -0.513 -0.862 0.996 0.782 0.288 0.109 1.292 0.908 -0.502 0.340 -0.377 0.057 -0.020 -0.684 1.741 0.464 -1.739 0.112 0.401 1.174 -0.313 0.381 -0.004 0.236 1.185 1.544 -0.943 -0.401 1.222 0.265 0.256 0.467 0.408 0.773 1.369 0.531 -1.419 -1.647 0.702 -0.763 0.234 1.211 -1.255 -0.473 1.090 -1.532 -1.814 0.848 -1.819 -2.027 2.774 -0.904 -0.374 -1.828 -0.725 -0.387 -1.680 -3.324 1.049 -0.455 0.013 -0.494 1.645 0.344 0.401 -0.333 0.769 0.569
0.978 -0.268 0.936 -1.205 -1.160 0.583 -1.189 -1.002 -0.368 0.637 0.393 1.589 -1.587 0.464 -0.989 -0.366 -0.307 -0.034 0.591 0.213 0.748 -1.421 0.063 -1.117 -0.828 -0.036 -1.649 2.240 -1.754 -0.366 -0.795 1.466 -1.034 0.658 -0.135 -0.237 1.207 -2.836 1.704 0.830 -0.902 -0.229 -0.067 -0.959 -1.825 1.169 1.612 -1.531 0.710 -0.288 1.774 0.231 1.112 2.065 2.714 1.032 0.356 -0.845 -0.967 1.943 -0.628 0.062 -0.010 -1.296 0.140 0.633 0.261 2.059 0.685 0.529 -0.757 1.186 -0.243 0.309 -2.851 -1.076 -0.234 0.022 0.136 -0.075 1.128 -0.006 1.845 0.455 0.957 -1.296 -0.519 -0.867 -0.555 0.268 -0.648 0.393 -0.192 0.643 2.512 0.323 0.355 -0.063 0.080 -0.236
1.033 -0.032 0.368 0.121 0.494 0.426 -0.979 1.028 -0.371 -0.303 -0.630 -1.939 1.174 -0.839 0.058 -0.794 1.381 -0.495 -0.549 0.063 -0.045 -0.173 -2.909 0.772 -0.792 0.345 1.587 1.376 -1.622 0.259 0.475 1.287 0.046 0.732 -0.194 1.029 0.811 0.760 -0.350 0.959 -0.493 0.649 -0.503 0.281 -0.303 0.199 0.610 1.335 -1.262 -0.268 -0.326 1.580 -0.473 0.050 0.306 1.855 -0.663 -1.477 -1.089 -0.547 -1.658 1.569 -0.479 0.073 0.031 -1.768 -0.494 -0.182 1.106 -1.211 -0.362 -0.276 -2.019 1.102 0.235 0.648 -0.333 -0.374 0.827 -0.895 -1.071 0.266 -0.979 0.338 -0.307 1.236 0.498 2.291 0.205 0.319 0.383 1.256 0.519 -0.115 2.483 -2.183 1.788 1.272 0.116 -0.217
-0.668 -0.645 3.586 -0.597 0.292 -0.695 0.516 0.787 -1.059 -0.232 -0.538 0.933 0.663 0.023 -1.476 -2.514 -0.444 -0.053 -1.011 -0.573 -0.684 0.376 1.709 -1.418 0.762 0.516 0.119 1.074 0.619 -0.533 -1.964 -0.765 0.640 -2.462 -0.892 -0.728 1.309 0.283 -0.449 0.011 0.133 0.159 -0.888 -0.861 -2.448 -1.589 -0.347 0.192 0.894 0.121 1.042 1.847 -0.522 0.396 -0.315 -0.160 -0.571 0.827 -0.347 2.046 -1.705 -0.069 0.532 -1.643 1.185 -0.779 -1.351 -1.089 -0.800 0.848 1.997 -1.062 0.937 1.003 0.861 0.708 0.026 0.134 1.082 -0.651 -1.999 -1.902 -0.587 1.941 0.036 0.092 -0.310 1.503 -0.548 -0.894 -0.091 1.333 1.434 -0.700 0.000 0.398 1.736 0.837 0.532 0.653
-0.635 -1.020 0.123 0.601 -0.641 -0.918 0.494 -1.522 0.613 -0.760 -1.129 0.346 0.109 0.207 -0.726 1.123 -0.660 0.391 0.026 0.337 -0.234 -0.080 -1.579 0.925 0.051 0.567 0.969 0.166 -0.425 0.613 0.690 0.243 2.479 1.032 -0.023 -0.880 0.293 0.173 -0.970 0.309 0.202 -0.082 1.160 -2.196 -0.028 -0.098 -0.031 0.213 -2.536 -0.517 1.399 1.187 -0.233 0.678 -0.551 -1.148 1.240 -0.685 -0.495 -1.103 -1.603 -2.135 0.161 -2.143 -1.542 0.515 1.435 0.284 -0.722 1.769 -1.239 -0.805 0.794 -1.845 -0.275 1.182 -0.397 1.504 -1.177 -1.124 -1.546 1.376 -2.136 -0.054 0.023 -1.222 -1.779 -0.366 1.348 -0.706 0.016 -0.150 -0.840 0.382 -1.955 -0.517 1.613 -1.570 -2.157 -1.653
-1.361 0.190 -1.565 0.065 0.165 -1.094 0.551 0.350 -1.638 -0.239 -0.299 -1.233 0.774 0.675 0.012 1.195 -1.100 0.004 0.073 -0.718 -0.070 0.271 -0.759 -0.533 -1.028 -0.379 -0.236 0.089 2.556 0.665 -0.473 0.736 -0.322 -0.184 0.738 -0.407 0.829 -0.391 -0.190 -0.740 -0.948 -1.532 -1.832 -0.392 -0.243 -0.158 2.292 -0.011 -0.446 -0.623 1.180 0.237 1.317 -0.328 -0.745 -0.553 -0.820 1.771 -0.886 1.507 -0.061 -0.802 0.445 -0.313 1.143 -1.204 1.280 0.513 -0.717 0.124 -0.810 0.428 1.836 0.327 -0.663 1.323 1.153 0.317 1.247 -0.195 -0.245 -1.057 0.679 -2.339 1.089 0.997 1.457 0.483 -0.176 -0.111 -0.414 2.133 -0.883 0.395 -0.084 0.224 0.777 0.736 -0.738 0.147
-0.062 0.515 -0.748 0.750 1.139 -0.767 0.975 -1.008 1.444 0.687 1.702 2.394 0.491 -0.142 -1.199 -1.371 1.859 -1.214 1.608 -0.378 1.274 0.158 0.541 3.300 -0.616 -0.516 -0.646 0.087 1.440 0.057 -1.647 -1.090 -0.580 -1.263 -0.103 -0.074 0.087 1.385 0.164 1.266 -0.825 0.221 -0.009 -0.447 1.842 0.983 0.390 2.636 -0.011 -0.443 0.617 0.644 2.128 -0.075 0.932 -0.561 -0.666 2.233 -1.815 0.730 -0.702 1.848 -0.125 1.013 1.309 -1.421 1.422 0.871 -0.211 -0.954 0.748 -1.459 0.287 -0.722 0.186 0.891 0.850 0.212 0.830 -1.989 -0.350 -0.610 0.693 0.282 -0.032 -0.628 -1.089 1.534 -0.825 -0.165 -0.795 0.776 -0.438 0.988 0.428 -0.332 -0.906 1.380 -0.143 -0.205
-0.881 0.582 -0.724 -1.021 0.574 0.629 -0.517 -0.430 0.664 0.296 0.777 -0.404 0.238 -1.599 -1.238 -0.483 -0.215 -0.596 -0.181 -1.671 -0.166 0.867 0.201 -0.629 -0.060 -1.225 -0.767 0.452 -0.894 0.276 1.395 0.696 0.421 0.527 0.495 0.347 -0.053 0.741 -1.226 0.748 -0.310 0.909 2.478 0.707 -1.345 -0.856 -1.129 -0.399 -0.687 -0.655 1.515 -0.000 0.340 -0.283 0.844 0.260 0.545 -1.288 2.094 -0.266 -0.585 0.340 2.478 0.656 0.037 -0.113 -0.265 -0.412 0.810 -0.177 -0.427 -0.138 -0.367 0.885 -1.090 -0.700 1.855 1.368 1.254 1.040 -0.875 0.031 1.248 0.915 0.619 1.646 -1.434 -0.602 -0.360 -1.038 -0.017 1.708 -1.173 1.215 -1.626 -0.776 0.764 -0.230 -0.202 0.966
0.642 -0.471 -0.841 -0.886 -0.548 -1.596 -0.703 0.278 -0.291 -1.366 -0.087 0.557 0.492 -0.065 1.440 0.587 -0.434 -2.050 0.251 0.673 0.682 -0.289 0.495 0.136 0.571 0.961 -0.214 -0.285 -0.676 -0.622 -0.553 -0.914 1.000 -0.276 0.663 0.844 -0.235 -0.092 1.487 0.260 -0.172 -0.100 0.915 1.005 -0.545 -1.269 2.182 -0.011 -0.719 1.228 2.769 -0.594 0.440 0.194 0.755 -0.967 -1.338 0.837 2.221 -1.327 -0.834 2.196 0.619 0.471 0.861 -0.016 0.448 -0.626 0.746 -1.629 -0.479 -0.362 1.931 -0.025 0.226 -0.880 -0.602 -1.567 -1.344 -1.244 0.499 0.029 -0.646 0.667 -0.324 -0.819 -1.561 1.469 -1.773 -1.636 0.411 1.705 0.354 -0.290 -0.149 0.805 0.505 -0.112 -0.584 0.011
-0.966 1.077 -0.917 -0.411 -2.143 -0.597 0.663 0.430 -1.562 1.728 1.959 -1.337 0.536 -0.771 0.228 0.501 -0.604 -0.379 -1.381 0.444 -1.041 -0.497 0.552 -0.889 0.174 0.131 -0.022 -1.446 -0.026 -2.060 -0.884 -0.542 -0.329 1.471 -1.261 -0.435 -1.408 -0.463 -0.990 -0.711 1.026 -0.628 0.282 0.053 0.694 -0.347 0.547 0.911 0.387 -0.518 -0.645 -0.777 -1.060 -0.198 -1.372 0.399 -0.181 0.907 -1.515 1.213 0.378 -0.435 0.445 -0.597 0.222 -1.187 0.049 -1.279 0.040 0.320 -0.890 1.016 1.187 -1.178 -0.133 0.021 -0.449 0.702 -0.568 -0.289 1.643 -0.383 -0.161 0.086 -0.424 -0.043 -0.695 0.847 -0.315 0.751 -0.606 -2.401 -0.512 0.970 -1.324 -0.348 0.844 -0.127 0.614 -0.307
