Time: 31/03/2021 16:19:56
Batch size: 100
Epoch num: 1000
Learning rate: 0.001
Leaky ReLU alpha: 0.1
Iteration per epoch: 120
Final loss: 0.21890
Train error rate: 0.06200
Test error rate: 0.13159
Hidden nodes:100 50 10


Initial weight:
# w1_0
0.246 0.092 -1.186 0.897 -0.702 -0.333 0.671 -0.323 -0.632 -1.636 0.120 -1.169 -1.804 0.057 0.414 -0.554 0.032 -2.753 1.321 -1.783 1.346 0.819 -0.255 -0.021 -0.969 -0.014 -0.025 -0.413 0.352 2.013 -0.557 0.627 -0.371 1.714 1.687 -1.603 0.537 -0.829 -0.044 -0.290 -0.675 1.462 0.908 -1.838 1.621 1.928 1.590 -0.575 0.459 -1.538 -0.658 -1.328 -0.768 -0.223 -1.495 0.820 -0.159 -0.080 0.305 0.892 0.070 -1.047 -0.057 -0.070 0.234 -0.191 -0.604 1.325 -1.362 0.129 1.050 0.049 1.335 0.158 2.448 0.622 0.282 1.976 0.960 1.359 0.711 0.356 -1.827 1.992 0.535 1.161 -0.437 -1.564 1.405 -0.542 0.182 -0.352 1.558 -0.688 -1.604 -2.156 0.760 -0.078 -0.492 -0.261
-0.359 -1.172 -1.158 0.463 -0.034 -0.197 -0.976 -1.317 -1.133 0.877 -0.052 1.017 -0.369 0.243 -0.191 -1.057 0.228 0.452 0.423 -0.305 0.743 -0.624 -1.144 -1.889 -1.269 -0.595 0.474 -1.710 -0.770 0.311 -0.242 1.200 1.590 -0.335 -1.417 -0.515 1.122 0.987 0.035 0.013 -0.502 0.137 -1.284 0.163 -0.468 -0.125 -0.039 1.157 -0.857 -1.329 0.191 1.082 -0.393 0.276 1.733 -0.910 0.912 -0.594 0.120 0.077 -1.070 -0.730 -2.744 0.027 -1.531 -0.949 0.985 -0.252 -1.221 0.213 1.109 0.896 -0.300 0.616 0.872 1.022 -1.913 -0.392 2.334 -0.753 -0.790 -0.563 -0.134 -0.650 0.649 2.761 0.105 2.438 0.046 -0.568 0.349 -1.453 -2.100 -0.846 -0.042 -0.805 0.429 0.253 0.990 -0.244
-0.769 0.603 0.516 -0.742 -0.470 -0.473 1.478 0.443 -0.620 -0.955 0.677 0.453 -1.167 -1.129 -0.235 -0.539 0.011 -1.238 -0.471 0.296 -0.188 -0.585 0.507 -1.994 -0.493 0.931 1.086 0.902 -1.421 0.548 -0.231 -1.375 -0.445 -0.904 0.721 0.473 0.695 -1.918 0.119 -0.394 0.835 -0.653 0.392 -0.369 1.255 -0.203 0.075 0.455 0.780 -1.003 -1.133 0.247 -0.741 -0.990 0.279 0.788 0.073 -0.543 2.169 -0.006 -0.050 0.307 3.020 -0.247 0.379 1.207 -1.027 0.634 -0.132 -1.364 0.730 0.408 0.058 0.124 0.089 -0.910 0.704 1.147 1.840 -1.366 1.844 -0.488 1.309 0.399 -0.492 -0.799 0.308 1.121 0.771 -1.770 0.737 0.788 -1.776 -0.282 0.569 -1.808 -0.258 0.578 0.702 0.370
0.699 1.133 0.095 0.267 0.019 -0.843 0.057 0.332 0.803 -2.017 -0.741 0.911 0.922 1.784 -2.201 0.168 -0.791 0.746 -0.412 -0.151 -0.927 -0.869 1.315 -0.181 -0.578 -0.027 0.444 0.694 1.228 -0.443 -0.299 -0.738 -1.559 -1.075 -0.075 0.836 0.239 1.109 0.995 -0.883 -1.432 0.212 1.235 -1.252 -1.278 0.599 -0.316 0.154 0.019 -1.033 -1.091 -0.323 1.098 -0.240 0.680 -0.681 0.483 0.808 0.468 0.437 -1.186 0.667 0.402 -1.698 -0.740 0.311 0.448 0.456 -0.488 -1.326 -0.602 -0.507 -1.175 -0.096 0.092 -1.112 0.832 0.890 -3.395 0.336 -0.977 -1.032 -0.167 0.360 0.469 0.119 -0.013 -0.023 -1.682 0.840 -0.792 -1.078 -0.236 0.323 -0.400 0.009 -0.302 0.723 2.567 1.742
0.640 0.654 -1.308 0.943 -1.068 0.076 0.420 -1.109 0.446 2.293 0.110 -0.057 -0.416 -1.216 1.451 0.200 1.266 -0.063 1.901 0.871 -0.129 0.293 -1.117 -0.373 0.252 -0.034 0.221 -0.238 -1.249 0.976 -1.857 -0.514 -0.944 0.277 0.037 0.110 0.653 -0.385 0.809 -0.424 -1.353 -2.162 0.619 1.350 -0.011 -0.035 1.003 -0.984 0.146 0.385 0.967 2.132 2.211 1.369 0.142 -0.373 -0.442 -0.386 -1.600 -0.450 -0.109 -1.995 -2.336 1.200 2.158 -0.293 -1.040 -0.940 -0.662 -0.258 -0.080 -0.061 0.305 -3.206 2.211 0.408 -1.628 0.038 0.430 -0.628 0.875 -0.645 0.108 -0.596 -1.083 -0.060 -0.721 -0.500 -0.969 1.139 1.751 -0.300 0.499 -2.043 -0.134 -1.736 0.429 -1.826 -0.390 -1.703
0.079 0.462 -1.131 1.351 -1.067 -0.908 1.714 0.200 0.117 -1.648 -1.380 0.768 -0.110 0.559 0.397 0.279 1.125 -0.285 2.528 1.112 -0.594 -0.808 -0.451 1.080 -0.798 1.115 0.693 1.024 -0.603 0.661 -1.654 1.702 -0.755 0.231 0.101 -0.194 -0.019 0.174 0.768 0.293 0.523 0.058 -0.774 0.196 -0.057 0.913 -0.642 0.672 0.265 -2.105 -0.613 -1.878 -0.517 0.903 0.657 0.130 1.117 0.071 -0.613 -2.614 -0.132 1.980 -0.831 0.867 0.410 -1.829 -0.572 -0.111 0.513 -0.218 -0.982 -0.876 -0.050 -0.340 1.389 -0.482 -0.689 0.428 0.810 0.451 0.202 -1.324 -1.261 1.097 0.768 0.195 0.225 -0.424 0.951 0.493 1.267 -0.115 -0.369 1.444 1.304 0.259 -0.843 0.441 -1.378 -0.092
0.027 -1.327 0.684 0.065 0.257 -0.774 0.671 -0.782 0.243 -1.425 1.498 0.716 -0.573 0.628 0.002 0.642 -1.348 -1.376 0.268 -0.463 0.607 -0.931 -1.283 -1.740 -1.160 0.009 0.263 -0.129 0.364 -0.953 -0.618 1.787 1.433 1.071 -0.552 -0.117 -0.391 -0.623 -1.069 0.923 0.336 -1.300 -0.324 0.221 0.084 -0.067 -0.915 -0.277 -0.158 -0.938 0.477 0.192 0.607 -1.518 -0.013 -0.308 0.952 -1.704 0.120 1.011 -0.551 1.926 -0.009 0.686 -1.531 1.833 0.995 2.105 -0.353 -0.779 -0.425 -0.270 -0.322 0.236 1.781 -0.085 -0.633 -1.046 0.318 1.514 1.654 -0.889 0.064 -1.040 0.778 1.321 -1.291 0.462 0.080 1.051 -0.072 -2.194 -1.701 -1.024 -1.185 -0.101 1.337 0.637 -0.216 0.553
1.182 -0.979 0.368 -0.524 -0.790 -1.020 -1.133 -0.985 0.404 0.033 1.136 1.440 0.312 0.586 -1.813 -0.689 0.282 -1.300 0.568 0.770 1.193 -0.718 -0.025 -0.804 1.371 0.466 -0.086 -0.936 -1.255 -0.404 1.062 0.530 1.613 0.643 0.378 -0.977 -0.909 -0.637 -1.115 1.340 0.039 -0.700 -0.148 -1.211 1.598 -1.910 0.651 0.411 -0.480 0.571 1.242 0.787 -0.070 -1.394 1.348 -0.271 -0.162 0.250 0.378 -0.508 -1.625 0.617 -0.164 0.405 0.343 -1.699 0.177 -0.762 2.403 -1.793 1.392 -0.630 0.085 -0.214 0.444 0.305 -0.360 -0.287 -0.758 -0.317 -0.880 -1.095 1.628 0.553 2.110 -0.493 -0.739 3.048 -2.364 0.415 -1.200 0.057 1.089 0.750 -0.619 0.034 -0.083 -1.645 0.678 -0.288
0.870 -1.274 -0.479 -0.749 -0.038 -0.078 -0.067 -0.150 0.107 -0.938 -1.151 -0.286 2.042 0.148 2.033 -0.571 -0.274 0.379 0.600 0.283 0.205 0.702 -1.407 0.075 1.046 1.291 0.260 1.007 0.155 0.782 1.713 0.303 1.039 -0.515 -0.988 0.217 -1.245 0.454 2.034 0.494 -0.029 0.481 1.462 0.003 0.228 0.986 -1.334 -1.292 1.484 0.545 0.186 0.757 -0.333 -0.564 0.670 0.877 0.504 -0.264 -0.518 -0.304 -0.587 0.686 -0.971 0.056 0.228 0.007 -0.729 -1.903 -0.991 -1.568 -0.155 -0.330 0.380 1.123 2.127 -1.088 -0.410 0.075 -0.638 -0.720 -0.438 1.532 1.704 -1.728 -0.054 1.960 1.391 1.179 -0.660 0.445 -0.172 0.255 0.270 -2.666 -0.725 -1.067 1.680 0.401 -0.869 -0.442
1.166 -0.555 0.157 -1.063 -0.950 1.298 1.403 -0.037 1.501 1.417 0.799 -0.641 0.293 -0.475 -0.255 -0.435 0.018 1.469 0.463 0.725 -0.241 -0.495 0.742 -1.014 0.217 -0.442 -0.637 0.173 0.127 1.603 0.582 -0.075 -2.571 0.111 1.416 -0.786 1.888 1.281 -0.870 0.776 -0.581 -2.638 -1.617 -1.035 -0.029 -0.060 1.273 1.122 0.366 0.863 0.702 0.386 2.031 -0.583 1.373 0.625 -1.375 -1.393 0.628 -0.437 0.495 -0.036 1.356 0.918 0.597 -1.164 0.120 -0.834 -1.341 -0.004 1.283 -0.742 -0.288 -0.030 0.217 1.752 -0.946 0.239 0.987 0.491 -1.346 -1.511 0.869 -2.248 0.149 -0.075 1.123 -1.175 -1.743 1.044 -0.030 -0.987 0.063 -1.358 -0.240 0.189 0.542 0.976 0.712 0.608
-0.257 0.401 2.413 -0.111 -0.697 -0.354 0.490 1.081 -0.585 1.110 2.506 0.280 -1.001 -0.850 -0.745 1.257 -0.070 -1.059 0.308 -1.385 0.876 -0.222 -1.874 -1.226 -1.197 0.730 0.660 1.780 -0.887 0.705 0.834 0.888 -0.786 0.066 -1.205 0.274 1.393 -1.710 -1.495 0.464 -0.043 -0.745 0.811 -0.838 0.896 0.572 1.956 -1.155 -0.578 -0.760 0.446 0.858 -1.245 0.353 -0.291 0.311 0.361 1.623 0.672 -0.623 -0.427 0.307 0.314 -0.170 0.196 -0.630 0.750 -0.791 1.671 -1.898 1.015 0.111 -1.296 -0.727 -1.122 1.028 -0.935 0.419 -1.081 0.408 0.509 -0.229 -0.702 0.546 -0.759 -0.133 -0.510 -1.292 1.282 2.259 -0.064 -1.417 0.784 0.121 1.320 1.241 0.751 0.332 -1.910 -1.336
0.496 -0.527 0.847 -0.622 -0.843 0.615 -0.378 -0.272 -0.795 -0.141 -0.247 -1.862 -1.097 0.382 -1.306 -0.393 0.605 1.947 0.995 -1.219 0.764 0.221 -1.408 0.693 0.393 -0.917 1.110 0.003 0.529 -0.243 0.196 -1.195 -0.346 -0.828 -0.421 1.725 1.607 1.165 0.723 -0.951 -0.641 -0.483 1.039 0.123 -0.728 0.400 -0.739 -0.917 1.829 0.896 0.551 0.088 -0.557 -1.406 -0.857 -0.035 -0.417 -1.548 -0.666 0.197 -0.446 -0.169 0.525 -0.255 -0.261 0.251 1.330 2.653 0.478 -1.065 1.204 0.188 -1.113 0.721 0.247 1.186 0.846 -0.135 -1.593 -0.950 1.078 0.762 -1.082 0.260 0.251 -1.216 -2.007 0.777 -1.893 0.295 0.491 -1.045 1.234 0.528 0.607 0.633 -0.895 1.084 -1.168 -2.989
1.611 -0.209 0.213 -0.734 0.748 -0.913 -0.739 -1.319 -2.623 -1.831 1.068 0.713 -0.328 0.210 0.622 0.665 -0.134 0.768 -0.997 1.017 0.471 -0.001 0.317 0.724 0.075 0.116 -0.972 -1.159 -1.177 0.167 -1.231 0.486 0.467 0.781 1.635 3.149 1.143 0.065 0.421 -0.254 -0.094 -0.790 0.658 0.805 0.704 0.176 0.206 -0.541 0.921 0.076 -2.079 1.536 -0.072 -0.260 0.376 -0.986 1.642 -1.236 -0.658 0.642 1.106 0.730 -0.209 0.274 1.246 -1.026 -0.196 0.918 0.129 0.927 0.608 0.314 0.760 0.807 0.043 -0.059 0.140 0.758 -1.036 1.192 -1.191 0.022 1.995 0.088 -1.398 0.451 -1.296 0.182 1.519 -0.200 0.397 -0.680 -1.364 -0.072 1.574 -0.146 0.383 0.006 0.034 -0.411
0.150 -0.407 -0.259 -0.783 -1.248 0.451 1.801 -0.596 0.595 -0.227 -0.678 1.098 1.247 -1.225 -0.672 0.973 -1.154 -1.087 -0.557 0.778 1.270 -0.284 -2.069 -1.054 0.713 1.384 -0.925 -1.391 -1.761 0.343 1.291 -0.306 0.776 0.377 0.102 0.511 0.600 1.456 0.153 0.066 0.943 -0.550 0.875 -1.771 0.082 1.709 0.047 1.584 0.799 -2.422 -1.055 -0.292 2.467 -0.130 0.540 -0.946 -1.822 1.685 0.301 0.819 -1.171 -0.586 -0.887 -0.355 -1.249 0.566 -1.286 -0.682 -0.137 -2.044 0.564 -1.043 -1.434 0.179 0.040 0.123 -1.683 1.368 0.105 -1.005 -0.217 0.324 0.289 -0.262 -0.295 1.245 1.058 0.073 -0.747 1.357 0.861 2.161 -0.273 -0.377 -0.068 0.525 -0.192 -0.419 0.776 -0.170
1.612 -0.139 0.182 1.228 0.219 1.173 -0.733 -1.270 -1.498 0.897 1.606 1.867 0.884 0.529 -0.152 0.414 -0.082 -0.569 0.487 -2.136 0.085 -0.429 0.369 -0.224 0.132 1.370 -1.527 2.452 0.116 -2.192 0.667 -0.543 1.289 -0.483 -0.091 0.060 -1.758 3.199 0.473 0.623 0.622 1.464 -1.301 -1.797 -1.230 1.336 0.335 0.320 -0.441 0.005 -0.716 -1.833 -0.670 -0.757 0.121 -0.081 0.121 -0.859 -0.922 -0.803 -0.939 -0.804 -1.081 -0.878 -1.427 0.795 1.157 1.380 0.182 -0.258 -0.877 0.854 1.160 0.257 0.229 0.761 0.936 -0.258 0.659 -0.370 0.166 -0.056 1.109 -0.515 -0.521 -0.375 1.250 1.226 2.097 1.179 -0.305 -0.568 1.299 -0.751 0.719 0.156 -0.376 -1.878 -0.279 0.529
0.488 0.653 0.036 -1.789 -0.224 -0.529 -0.638 -1.073 -0.661 0.431 1.631 -0.709 0.965 2.222 -0.696 0.120 -1.764 1.386 -0.020 -0.991 -1.643 -0.226 0.288 0.003 0.164 0.427 -0.839 0.253 -1.281 0.210 -0.848 -0.012 -0.323 0.236 -0.521 1.212 -0.659 1.264 -1.654 -0.202 -0.151 0.381 0.234 -0.571 0.071 1.243 -1.448 -0.848 -0.120 -0.118 -1.073 -1.391 1.772 -1.939 0.934 -0.704 -2.457 0.563 1.241 0.308 0.433 -0.804 0.097 -0.852 -1.090 -0.695 -1.088 0.769 -0.464 -2.362 -0.589 0.284 1.494 1.476 -0.554 0.091 -0.326 1.512 -1.368 -0.296 -0.845 0.626 1.027 -1.368 1.351 -2.300 -0.797 0.639 1.743 0.690 -0.735 1.534 0.034 -0.344 1.257 0.756 1.224 -0.338 -1.832 0.903
-0.670 -0.674 -0.728 0.223 0.008 -1.800 -0.534 -2.350 0.856 1.418 0.499 1.108 -0.831 0.550 0.715 -0.651 0.034 -0.028 -0.982 0.627 0.969 0.190 -0.698 2.204 0.834 -1.362 -2.555 -1.258 -1.596 -1.114 0.317 -1.626 -0.147 1.280 0.629 1.587 -1.592 2.419 -0.890 0.675 0.385 0.555 -0.019 -0.410 1.054 0.314 0.462 -0.929 -1.155 -1.491 0.030 0.269 -0.045 -0.348 -0.302 1.258 0.913 -1.002 1.877 0.341 1.400 -0.039 -0.523 0.135 0.323 -2.005 1.071 0.686 -0.637 -0.336 1.329 -0.405 -0.700 0.888 1.917 0.907 0.045 -0.218 1.454 -1.042 0.450 -2.482 0.671 -1.256 -0.556 -1.509 -0.487 0.617 0.985 0.208 0.812 -0.239 0.508 0.674 -1.287 -0.768 0.649 0.364 -0.763 -0.078
1.650 -0.451 0.549 -0.274 -0.799 1.969 1.182 -2.074 -0.806 1.508 2.008 -1.665 -0.821 -1.226 -0.155 0.430 0.778 -1.765 -1.590 -1.703 0.020 -1.233 0.374 -0.851 2.395 -1.633 -0.391 1.065 1.571 1.928 -0.398 -1.303 -0.014 1.168 -0.003 -0.048 -1.296 -0.912 2.538 -0.891 -1.263 -0.430 -0.775 -0.257 -0.589 0.315 -0.090 -0.683 -0.900 -1.985 1.022 0.634 0.258 -0.971 -0.244 -1.204 -0.443 1.352 0.371 -0.394 -0.078 0.067 1.016 0.755 1.618 1.117 0.950 2.242 0.104 -0.471 -0.465 -0.478 -0.741 -0.602 0.013 0.539 -1.076 0.437 1.245 1.121 -0.590 0.998 -0.201 -0.657 -0.393 -1.893 0.638 1.151 1.159 0.611 -0.178 -0.338 0.165 1.417 -0.263 0.359 0.068 0.150 0.498 -0.367
-0.118 2.524 -0.542 0.903 -1.559 0.577 0.772 -1.112 -0.063 -0.508 -1.499 -0.507 -0.662 -1.943 1.184 -0.116 -1.375 -0.319 0.472 -0.556 0.644 -1.225 1.787 -0.309 -0.184 -0.598 0.590 0.078 0.696 -0.201 1.509 1.952 1.233 -0.161 -1.533 1.140 -0.866 -0.698 -0.407 -0.237 -0.701 1.808 1.256 0.879 1.028 -1.447 -1.284 0.823 -0.997 -0.518 -0.918 -0.265 -0.868 -0.044 -0.328 1.189 -0.455 -0.204 0.377 -0.340 0.130 1.324 1.250 0.800 -1.285 0.144 0.573 -1.012 -0.097 -0.058 0.485 0.908 -0.911 -0.240 -1.442 0.369 -1.181 -2.177 -0.580 1.451 0.575 -0.119 -0.163 -0.878 -0.241 -0.827 0.643 -0.743 0.926 -2.266 1.044 -0.191 -0.236 1.528 -0.732 0.280 -0.809 -0.509 -0.182 0.035
0.557 1.038 0.491 1.547 1.486 -1.073 0.098 0.511 0.746 0.669 -0.728 -0.333 1.102 -0.036 0.625 -0.931 0.245 -2.253 0.130 0.134 -0.972 0.994 -0.606 -1.621 0.640 -1.326 0.240 -0.193 0.754 -1.039 0.148 0.519 -1.907 0.620 -0.566 -0.510 0.635 -0.342 0.119 -0.921 -1.314 -0.733 1.264 0.482 -0.421 -1.696 -0.964 -1.007 0.526 -0.498 0.528 -1.625 1.064 -1.926 -0.097 -1.014 0.380 0.159 -1.097 -1.037 0.053 -1.259 -0.435 -1.801 0.357 -0.771 -1.774 0.764 2.256 0.396 0.111 2.265 -0.199 -0.019 -0.560 1.689 -0.254 -0.245 -0.044 1.372 0.670 -0.129 -1.730 0.012 -1.232 0.085 -0.319 -1.621 -0.567 -1.697 0.405 -0.586 -1.102 -0.100 -0.479 -0.767 0.419 -0.719 0.666 0.809
1.193 -1.695 -2.043 -0.072 0.707 -0.499 1.439 1.533 0.169 -0.910 -0.193 -1.166 1.160 0.465 -0.536 0.235 -1.206 1.042 -1.385 0.865 -0.583 0.111 0.047 0.535 -0.052 -0.343 1.362 0.099 -0.179 0.774 0.421 -0.755 0.795 -0.874 1.108 -0.510 -0.117 0.577 1.051 0.746 0.160 -1.603 -1.312 0.765 -2.064 -2.319 -1.240 0.630 -0.812 -0.801 -0.194 -0.237 1.402 0.597 -0.106 -0.950 0.964 -0.195 1.148 -0.116 -0.100 -0.973 0.277 1.098 0.082 0.254 -0.440 0.287 -1.535 -1.206 -2.273 -0.007 -0.751 -0.077 -0.252 0.701 -0.090 0.217 1.099 1.037 -0.315 -0.527 1.141 -0.943 0.485 0.502 -0.906 -0.743 -0.519 -1.891 -1.246 0.362 -0.371 -0.692 -0.488 -0.285 2.650 -0.333 -0.761 -0.239
0.748 0.049 1.088 0.195 2.460 0.254 1.446 -0.133 -0.115 0.655 -0.165 -1.082 1.698 -3.318 -0.100 0.056 -0.417 0.356 -0.613 -0.767 -0.108 -0.518 -0.775 1.069 1.156 -1.012 -0.672 0.044 -0.848 0.697 1.800 0.104 -0.836 0.143 0.118 1.521 0.770 -0.883 -0.374 -0.813 0.475 0.497 1.373 1.377 -1.675 0.433 0.593 1.356 -1.637 1.158 0.695 -0.806 -0.382 0.487 -0.085 1.730 -0.385 -0.493 0.080 -1.096 1.425 -1.853 -1.080 -0.272 -1.272 1.167 -0.612 -0.658 1.091 -0.250 0.154 -1.507 -0.684 -2.016 1.435 -1.748 -1.017 0.640 1.460 -0.305 -0.022 -1.070 -1.476 1.635 0.267 0.099 0.535 1.434 -1.007 0.882 -0.528 -0.150 -0.341 0.443 1.704 1.272 0.564 -0.559 -0.847 -0.111
1.708 -1.132 1.769 -1.334 -0.990 1.114 1.718 -0.472 -0.443 0.144 0.560 0.905 0.014 0.619 0.246 -0.124 0.128 0.128 0.418 -0.183 1.665 0.292 0.238 -1.004 -0.763 1.298 0.920 0.644 -0.061 -0.619 1.443 0.692 -0.058 1.728 -0.292 -0.835 1.797 -0.861 0.472 -1.535 0.172 -1.040 0.982 0.464 -1.810 0.000 0.591 -2.483 0.716 0.528 1.912 0.277 -0.501 0.410 0.224 0.608 1.339 -0.026 0.977 0.788 -0.417 -0.859 0.462 -0.051 0.388 -0.448 0.686 1.449 0.304 1.328 1.845 1.232 0.284 1.097 0.092 -2.203 -0.322 0.509 -1.641 -0.415 0.243 -0.826 0.828 -0.505 -0.467 -0.692 -0.693 -0.304 -0.208 -0.306 -0.918 -1.033 0.850 1.585 -0.415 0.282 -0.496 2.312 1.119 1.054
-0.256 -0.597 -1.083 -1.034 0.267 0.497 -0.384 -1.646 1.240 0.789 -0.372 -1.436 1.858 0.399 -1.102 -0.540 0.081 0.457 0.423 0.815 -0.407 -0.128 0.700 -1.007 0.818 -1.331 0.998 -1.518 -0.037 1.199 0.373 0.504 0.750 -0.710 -1.331 0.611 -0.612 -0.203 -0.263 0.208 -1.305 -0.486 -0.845 -1.360 -0.250 -0.382 -0.154 -0.651 -0.694 -0.583 2.101 -0.837 0.080 1.574 -0.675 1.685 0.700 0.130 0.184 -0.904 1.029 0.119 -0.620 -2.121 -0.488 -0.913 0.076 -1.190 -0.589 -1.410 -2.011 -1.484 -0.480 -0.844 0.259 -0.211 0.230 0.761 0.920 -0.763 1.552 -0.456 -2.566 -0.273 -0.132 0.435 -0.859 0.048 -0.367 -0.257 -0.211 0.355 -0.658 1.690 -0.760 0.207 0.606 1.258 -0.954 1.210
1.112 -0.283 -2.377 -0.884 1.201 -0.543 0.964 -0.142 -0.096 -0.251 -0.482 -0.769 -1.918 -0.149 0.663 0.293 -0.544 0.907 0.110 -0.110 0.611 -2.866 -0.672 0.854 0.515 -1.270 0.892 0.179 -0.191 -0.717 1.004 -0.130 -0.910 -1.460 0.423 -1.144 -0.387 0.306 0.866 1.110 -0.603 -0.061 0.641 -0.459 -0.909 -0.994 -1.404 1.959 1.223 -0.487 -2.742 1.464 -0.603 0.021 0.091 2.115 -0.408 0.248 0.905 -0.356 0.268 -0.641 0.121 1.081 1.918 2.250 0.050 -0.128 1.496 0.791 -1.130 -0.147 0.900 -1.014 -0.052 -0.784 -0.612 -1.156 0.173 -0.998 1.560 -1.384 -0.591 1.339 0.509 0.911 -0.813 -1.055 -1.408 -0.086 -0.582 -1.134 -1.347 2.185 -1.266 -1.052 -0.043 1.337 1.120 -0.347
-0.242 0.312 -0.062 0.198 -1.216 0.932 -0.196 -1.440 1.040 0.552 -1.775 1.333 -0.872 2.087 0.175 1.888 -0.312 -2.821 -0.233 1.202 -0.374 0.041 0.259 -0.397 -0.469 -0.326 0.383 -0.404 0.191 0.968 0.601 -0.369 -0.120 -0.525 -1.490 -0.388 -0.481 0.236 0.032 1.249 -1.902 0.246 1.704 1.146 0.818 -0.808 2.155 -0.250 -1.038 -1.242 0.595 -0.341 -0.344 0.651 0.208 -1.609 0.845 -1.921 0.373 0.339 0.223 -0.377 1.884 -0.066 -1.022 0.770 0.186 0.051 -0.380 0.132 0.081 -0.875 1.188 -0.668 -1.501 -2.298 -0.755 -1.600 0.198 0.225 1.727 0.943 0.444 -0.294 0.550 -0.235 -0.409 -1.557 0.892 -0.696 -1.175 -0.346 0.998 -0.297 0.197 -0.059 -0.565 0.121 0.034 1.133
1.137 1.114 -0.212 -0.665 -1.355 1.228 0.276 -1.248 1.027 -0.917 -0.255 -2.281 -0.777 -1.265 0.416 -0.805 0.558 -0.562 0.622 -1.064 0.132 0.690 -0.583 0.286 0.014 1.478 -0.927 -0.261 -1.483 -0.522 -0.735 -0.989 -0.681 0.326 2.118 -0.247 0.806 1.592 -0.154 0.989 0.781 -0.295 0.040 2.267 0.372 -1.570 0.345 -0.098 0.100 1.081 -0.037 -0.090 1.276 0.432 -0.781 0.867 -0.499 -0.026 0.029 -0.783 -2.104 -0.008 0.104 -0.533 -0.712 0.498 1.377 -1.188 0.587 -0.470 0.301 -1.549 0.803 0.134 -0.002 0.996 -1.633 1.097 1.676 -0.721 0.914 0.279 0.186 -0.350 0.629 -0.852 -0.903 -1.071 -0.183 -1.239 1.175 0.214 0.602 0.194 0.447 -0.837 0.500 -0.239 -0.566 1.224
0.988 0.207 0.241 0.194 -0.286 -1.506 0.704 0.350 -1.332 -0.705 0.001 -1.241 0.663 -0.745 0.067 -0.664 0.722 -1.234 0.924 0.617 0.269 2.011 1.389 -0.545 -0.036 -0.129 1.021 1.423 -0.371 2.501 0.076 -0.194 0.178 -0.610 0.451 1.789 -1.722 -1.232 1.106 0.726 0.074 0.953 1.391 -0.009 0.214 0.326 0.321 -0.511 -0.617 -1.400 -1.385 0.073 -0.205 -1.461 0.469 -0.879 0.425 -0.459 -0.177 0.374 -1.423 2.614 0.297 2.045 0.275 0.749 -0.974 -0.732 -0.864 -0.355 0.426 -0.131 0.795 -0.547 1.838 0.804 1.495 0.129 0.642 -0.222 0.111 -2.660 -2.807 0.461 -0.999 0.044 -0.025 2.314 1.939 -0.158 -0.263 -0.301 -0.486 0.498 0.706 -1.452 -0.541 0.211 0.430 -3.411
-1.531 0.541 0.953 -1.643 0.179 1.327 1.134 -0.559 -0.015 -0.102 -0.022 -0.197 -0.708 0.035 0.803 -0.226 -0.275 0.865 2.508 -0.826 0.719 0.047 -0.653 0.601 -0.669 0.279 0.166 0.422 -0.289 0.835 -0.467 -0.335 -0.788 0.314 0.213 2.453 -0.501 0.348 -0.165 -0.504 1.888 -0.086 -1.997 -0.424 1.662 -1.358 -0.234 -2.222 0.358 -0.065 0.771 -1.373 -1.233 1.120 1.056 -0.312 -0.559 -0.124 -0.794 1.034 -0.703 -2.069 0.648 -1.920 -0.039 -0.245 -2.474 -1.257 -0.656 0.076 0.828 -1.045 -0.389 0.190 0.324 -0.537 1.380 -0.607 -1.865 -0.954 -0.256 -0.998 -0.781 0.581 -3.590 -0.030 0.902 -1.273 -0.536 1.012 -0.536 -0.085 0.406 1.942 1.346 1.358 0.055 0.481 0.289 -0.500
0.922 0.281 -0.312 -0.228 -0.086 -2.394 -0.162 1.231 -0.990 -0.406 0.601 0.601 -0.630 -0.103 0.223 1.044 -1.124 0.410 0.072 -0.847 0.181 -0.464 -1.063 0.791 0.697 -0.083 0.234 -0.653 -0.500 0.598 -0.252 2.384 -2.275 -0.195 0.244 -1.266 -0.316 -0.451 0.294 -0.807 0.176 0.008 -0.410 -0.454 1.622 1.795 -1.467 2.175 -1.071 -0.091 0.757 0.028 -0.621 1.951 -0.660 0.941 -0.011 -0.707 1.826 -0.845 0.486 -0.435 -1.323 -0.915 -0.844 1.254 1.341 1.958 2.098 0.034 0.996 -0.592 0.078 1.116 0.443 -1.600 -2.369 -1.019 -1.012 1.044 -0.984 0.199 -0.092 0.753 -0.279 -0.040 0.101 0.069 0.314 2.197 -0.862 0.548 0.095 0.252 -1.585 -0.046 0.066 0.109 -1.376 -1.034
1.051 -0.817 1.456 -2.709 -1.537 1.172 1.054 0.791 -1.462 -0.390 0.823 0.260 -0.632 1.448 -0.477 0.537 -1.162 0.306 1.064 -0.457 0.745 0.551 -0.052 1.424 -0.134 0.761 0.239 0.128 0.119 0.276 -0.801 1.453 0.473 0.590 -0.262 0.518 0.944 0.463 -0.165 -0.371 1.413 0.254 -0.107 0.240 1.126 -0.671 -0.110 0.841 -0.364 0.756 -1.151 -0.565 0.428 2.001 0.355 2.653 1.520 -0.268 -0.634 -0.379 -1.614 -0.358 0.246 0.377 0.532 0.600 1.019 -1.190 0.954 -0.983 -0.868 -2.067 -0.612 -0.130 1.912 -0.449 -0.251 -0.603 -0.267 -1.831 0.900 -0.564 -2.146 -1.473 0.248 0.699 -0.685 -0.117 1.418 -0.827 1.529 -1.974 0.190 0.157 0.908 1.703 -1.064 0.135 -0.889 -1.239
-0.681 0.208 -0.221 -0.887 1.510 1.253 0.394 1.610 -0.077 -0.339 0.427 0.389 1.161 -0.227 -0.515 1.012 0.141 0.249 1.197 0.764 -1.354 0.129 -0.292 0.739 1.107 -0.313 0.866 0.787 1.217 1.019 -1.902 -0.998 0.986 0.411 0.433 0.482 -1.552 -0.038 0.410 0.322 -0.438 -0.173 1.363 1.227 0.627 -1.101 -0.809 0.465 -1.820 1.608 0.673 -0.403 -0.450 -0.654 1.000 0.197 -0.073 -0.489 -0.801 0.081 0.989 -0.183 -0.500 -0.054 -2.343 -1.744 0.981 1.043 -0.652 -1.019 0.166 0.201 1.955 -0.616 -1.061 -0.835 -1.309 -1.618 0.467 0.574 1.712 0.993 0.683 0.362 0.000 -1.533 0.010 -0.690 1.610 -0.813 -0.276 -0.216 -1.046 1.106 -0.634 -0.156 -0.844 1.500 -0.016 1.803
-0.506 0.611 -0.612 -0.047 0.870 -1.864 3.217 -0.724 0.019 0.086 1.539 -1.729 -1.195 2.271 -0.844 1.811 -0.846 0.002 -0.018 0.550 0.549 0.206 0.651 1.780 0.229 0.060 2.472 -0.633 0.638 -1.548 2.049 -0.695 0.022 1.617 -0.348 0.881 0.178 1.025 1.717 -0.668 -0.986 0.996 -1.354 0.728 -1.709 -0.516 -0.332 0.944 2.506 -0.139 0.549 -1.128 1.517 0.334 1.532 -0.872 0.209 0.688 -0.609 0.481 -1.489 -0.738 0.641 2.380 -1.207 -0.771 -0.738 0.922 1.803 1.363 1.560 0.691 -0.695 0.918 0.425 2.288 0.163 -0.627 0.024 -0.583 -2.152 -1.098 1.492 1.252 -0.388 1.016 -0.020 0.423 0.874 1.340 0.268 -1.305 -0.060 0.544 0.169 -1.267 -0.293 2.083 -0.945 0.333
0.208 1.661 1.206 -1.607 -0.153 -1.117 0.367 -3.009 -1.964 1.124 0.509 -1.257 -1.241 0.969 -0.852 -1.258 0.047 -0.450 -1.234 -1.283 -0.287 1.028 -0.346 -0.282 0.099 0.392 1.300 -0.411 1.218 0.871 -1.514 -0.750 -0.010 -0.290 -0.319 0.555 -1.327 -1.458 0.806 -0.413 -1.226 -0.678 0.394 -1.328 0.160 1.058 0.017 -1.794 -0.421 -1.304 0.019 -1.113 -0.876 -0.067 0.864 0.604 0.760 0.130 -0.322 -0.471 -0.685 0.207 1.922 -0.997 -0.475 -0.441 -0.633 0.403 -0.548 0.498 0.237 -0.794 1.168 1.699 -0.136 -1.114 1.102 0.286 0.575 0.678 0.233 -2.037 1.249 1.172 -0.085 0.701 0.517 -1.301 -0.253 -0.332 -1.099 0.494 -0.559 0.221 0.763 -1.256 0.814 1.275 -0.211 -1.233
1.051 -0.952 -0.328 0.770 -0.115 0.285 -1.376 0.480 0.296 0.366 0.104 1.021 -0.233 0.002 -0.347 0.295 -1.072 0.473 -0.927 0.451 -0.434 0.874 -0.478 0.070 -1.377 -0.214 -1.889 0.176 -1.889 0.179 0.207 -2.008 -1.018 -0.628 1.045 1.743 -0.317 0.341 0.920 -0.220 0.458 3.055 -0.226 0.951 -1.544 -0.060 0.961 -1.400 0.102 0.778 0.261 -0.809 -0.543 1.435 -1.117 -0.354 0.128 -0.903 -0.224 1.062 1.115 -0.087 1.709 -0.958 0.861 0.642 0.531 0.571 0.855 0.461 -0.976 -0.229 -0.489 0.730 -0.171 -0.431 0.433 1.979 -0.451 0.419 -2.194 -0.126 -0.351 0.399 0.417 -0.187 1.544 -2.058 -0.453 -1.260 0.574 0.758 -0.532 -1.214 0.411 1.705 -0.331 -0.733 -0.396 -1.218
-0.080 -0.643 -0.528 1.788 -1.839 0.829 1.147 -0.910 1.346 -0.432 0.592 0.831 -0.055 0.844 -0.081 0.626 0.387 0.304 -0.276 -0.447 1.672 0.391 0.656 0.242 1.249 -1.366 -1.304 0.589 0.330 -0.247 0.760 -0.187 -0.230 0.284 0.831 -0.859 1.494 -0.294 1.342 -0.385 0.678 1.217 -0.547 0.006 -0.841 -0.342 0.647 -1.854 0.031 0.396 0.106 1.815 1.025 -0.363 0.383 -2.525 1.348 1.139 1.062 -0.161 1.040 0.010 -0.174 -0.926 -1.299 -0.490 0.112 0.398 -0.451 -0.343 0.191 -0.746 -0.129 -0.288 -0.758 1.326 0.552 1.246 -0.348 -0.831 1.097 -0.050 1.297 0.842 -0.806 0.385 -0.349 1.437 -0.998 -1.222 0.581 0.741 0.527 0.554 0.119 -0.630 1.539 0.492 -0.276 -1.445
-0.923 -1.520 0.349 1.138 -1.529 -0.855 -2.299 -0.083 -0.207 0.606 0.810 -0.875 0.714 1.790 -0.788 -0.546 0.214 0.158 -0.681 0.220 0.692 0.210 1.083 0.451 -1.028 1.030 -1.419 -0.847 -1.031 0.254 0.014 -0.013 0.102 -0.078 0.164 1.713 -2.160 1.176 -0.172 -1.474 1.067 -0.617 -0.339 -0.940 -0.318 -1.599 0.442 -0.456 1.282 0.789 2.533 0.156 0.144 0.494 -0.836 -2.055 -0.077 0.725 1.020 0.198 2.575 -0.402 -0.728 -0.501 -0.986 0.485 -0.099 0.060 0.664 -0.855 0.207 0.648 -0.680 0.724 -0.099 1.124 -0.997 0.198 0.731 0.158 -0.514 -0.673 0.539 -0.247 0.234 0.551 -0.503 0.561 -0.691 0.206 0.082 -0.693 0.481 -0.107 -2.098 -0.262 0.489 0.874 0.502 0.027
0.466 -0.958 -0.301 -0.562 -0.093 -0.219 -1.635 -0.415 1.908 1.240 -0.551 -0.892 0.386 -0.681 0.549 -0.287 -1.129 -0.154 -1.146 -1.027 -0.483 -0.262 -1.264 -1.471 -1.122 -0.219 -0.553 0.614 1.895 0.950 -1.362 -2.865 -0.012 0.254 -0.276 -0.543 2.518 1.027 0.307 -0.953 -0.606 -1.580 1.189 -0.397 1.502 -0.082 -0.587 0.234 0.465 1.136 0.546 0.005 -0.577 1.283 0.674 0.517 -1.080 -1.708 -0.649 0.297 -0.306 1.684 1.484 0.631 0.030 -0.421 0.225 0.105 1.301 -0.775 2.058 0.798 -1.982 0.705 -0.383 0.049 1.208 -0.874 -1.200 -0.809 0.164 0.404 -0.657 0.028 -0.241 1.862 -0.873 -0.745 -0.812 1.100 -0.412 1.216 0.106 -1.678 -1.046 0.147 -1.240 1.284 0.913 -0.543
1.674 0.367 -0.034 1.795 -0.072 -1.443 -0.176 -0.697 0.192 0.289 -0.891 -0.407 0.674 0.170 -2.089 -0.304 -1.253 0.648 2.508 0.033 1.291 -1.504 -1.232 -0.821 -1.108 -0.783 -0.543 1.807 -1.577 0.461 -0.908 0.647 -1.554 -1.211 -0.651 -0.380 -0.759 -0.879 0.348 0.044 0.948 0.847 -0.981 0.909 -0.615 -1.324 -1.025 -1.412 0.719 0.167 0.642 0.565 0.889 -0.119 -0.424 0.110 -0.936 1.615 0.480 1.858 0.491 -0.829 0.213 -0.108 1.417 0.611 -1.790 -1.510 -1.232 1.159 -0.482 -0.672 -0.981 1.149 0.613 1.290 0.394 -1.571 -0.344 -0.106 -0.203 -1.113 -0.980 1.004 -1.264 0.229 -0.556 1.267 -0.213 -0.579 -0.674 2.844 0.291 0.542 -0.288 0.315 0.172 0.119 -0.110 -0.314
1.415 0.174 -1.948 -2.039 0.313 -0.381 -0.012 1.382 0.120 0.012 1.273 0.547 1.722 -0.166 0.017 0.238 0.218 -1.400 0.060 0.473 -1.545 -0.204 -0.040 -0.218 0.342 1.396 -0.767 0.673 2.016 -1.405 0.732 0.512 -2.164 1.583 -1.117 0.463 0.786 -0.220 -0.057 1.143 -0.160 0.264 1.763 0.270 -0.471 0.060 0.753 -0.634 -0.110 -1.847 1.279 0.633 0.431 -0.259 0.038 0.976 0.488 -1.878 0.644 -0.516 1.098 -1.064 0.762 0.853 1.189 0.859 -0.033 -0.181 0.652 -0.045 -0.743 -0.679 -0.758 0.627 -0.306 -0.678 -0.096 0.511 -0.554 -0.947 -1.134 -0.874 1.397 0.749 1.032 -0.347 0.370 -0.201 -0.110 0.896 -1.800 -0.531 -0.854 0.122 -2.173 -0.244 -0.295 0.759 -0.578 -1.484
-0.332 0.219 0.191 -0.253 1.048 1.388 1.216 0.068 -0.618 0.041 0.119 -0.965 -0.951 0.476 0.261 -0.264 0.380 -0.857 0.330 -0.322 -1.029 1.474 -0.182 0.177 0.924 1.048 -0.044 0.635 -0.639 -0.270 -0.667 0.683 0.406 -1.658 0.095 0.628 -0.994 0.808 -0.453 -0.659 -1.870 -0.877 -0.515 0.462 0.122 -0.040 0.805 0.399 -0.072 0.219 -0.643 -1.160 -0.286 -0.590 1.097 -0.427 0.303 0.933 -0.048 -0.025 -1.701 0.058 1.591 0.161 1.594 1.527 0.451 -0.385 -0.752 0.669 -0.379 0.001 -0.647 -1.236 -0.642 -1.604 -0.852 -0.141 0.186 -0.713 -0.513 -0.502 1.877 -0.597 0.555 0.332 -1.570 0.590 0.582 0.824 0.984 0.232 -0.513 -0.215 0.671 0.312 0.930 1.178 0.939 -0.804
-0.478 -0.076 -0.229 -0.215 0.576 -0.220 -2.287 0.211 1.676 0.086 -0.234 0.204 0.711 0.226 -0.091 1.169 0.749 0.302 0.531 -0.928 -0.473 0.378 -0.911 -0.165 -0.770 -0.076 -0.919 -1.195 -0.836 1.184 -0.652 0.037 0.439 0.261 -2.567 -0.168 -0.057 -0.868 -0.499 0.136 0.321 -1.539 -0.857 0.829 0.296 -1.163 1.701 0.784 0.939 -0.740 -0.785 0.646 -0.324 0.188 0.843 -0.846 0.308 1.873 -1.877 -0.114 -0.747 1.147 -1.053 0.077 -0.785 -0.733 1.217 1.234 -1.171 -0.407 -1.023 1.675 -0.188 0.608 0.328 -1.212 0.187 0.144 -1.577 0.402 0.949 2.361 0.224 -2.368 -1.023 -1.029 0.641 0.006 0.747 0.692 -0.833 -0.844 1.087 1.253 0.127 0.123 0.681 0.564 -0.348 -0.323
-0.692 -1.627 1.050 0.435 1.611 -0.466 1.127 0.030 0.290 1.209 -0.592 0.136 0.706 0.387 0.122 -0.382 -1.432 -0.449 0.934 -0.230 0.800 1.893 -0.297 0.195 0.171 0.291 -0.687 -0.506 0.282 1.198 0.017 -1.200 -0.902 0.822 -0.063 -0.230 1.808 0.547 -1.951 0.507 -2.317 1.416 -1.762 0.846 0.059 -0.949 -0.334 0.112 0.063 -1.380 0.446 -0.656 0.143 2.540 0.817 -1.479 -0.029 -1.380 -0.833 -1.874 -2.687 1.022 0.620 -0.161 0.539 -0.056 -0.704 0.053 -0.743 0.938 -1.567 1.544 1.299 0.582 0.128 0.358 -0.626 -0.967 0.852 -0.026 -1.598 0.997 -0.390 -2.163 0.160 -0.366 -0.694 0.523 -2.178 -0.446 -0.380 -0.431 1.735 1.966 -1.100 0.512 -0.509 0.790 0.593 -1.850
0.212 -0.322 0.926 -1.371 -1.630 -0.066 -0.054 0.286 2.737 -0.586 -0.722 0.187 -1.029 0.312 -0.488 0.572 1.801 1.853 -0.608 -0.616 1.355 1.195 -0.452 0.611 0.210 -0.271 -0.548 0.259 0.544 -0.206 -0.982 -0.086 -1.382 -0.284 0.355 -0.829 -1.182 1.509 -0.333 -0.432 -0.038 -0.286 -1.216 1.586 0.112 -0.142 -0.030 -0.408 -0.344 -0.449 -0.846 -0.945 -0.465 -0.183 -0.682 0.358 -0.270 1.322 1.225 -0.630 0.793 -0.389 0.673 0.556 0.613 -0.431 -0.137 -0.584 -1.146 1.057 0.966 0.745 0.606 0.972 0.395 -1.523 0.705 0.441 -0.472 -0.565 -0.809 -0.527 -0.441 0.825 0.592 -1.185 0.040 1.136 -0.296 -1.072 1.559 -0.026 -0.839 -1.016 -1.078 -1.468 0.784 0.868 -0.549 -1.438
-0.821 -0.969 -1.792 0.479 -0.627 0.074 0.102 -0.459 0.377 -0.968 2.013 0.703 -0.898 1.572 1.313 0.824 0.070 1.806 -0.821 1.368 0.089 -1.465 -1.365 0.143 0.226 -0.391 0.566 0.347 -0.962 0.477 2.353 -0.509 1.626 0.583 1.798 0.114 -1.913 -0.645 1.328 0.645 0.028 -0.238 -1.499 1.041 0.341 -0.430 0.753 -2.155 -0.410 -0.206 -1.132 -0.692 -1.133 -0.312 -1.124 -0.692 -0.056 -0.874 -0.208 -0.433 0.856 0.636 -0.530 -1.549 -0.406 2.115 -1.973 -1.179 0.855 0.710 0.502 0.600 -1.784 0.480 -0.966 0.595 -0.019 -0.154 -1.664 -0.552 -0.640 1.066 -0.267 -0.222 -0.922 -0.565 -0.159 0.176 -0.683 -0.851 1.281 1.546 0.885 0.591 1.115 -0.212 -0.363 0.051 0.615 -1.023
-0.535 -0.080 0.733 -0.737 0.350 -1.091 -0.761 0.058 -0.454 0.423 0.987 -0.439 -1.234 1.243 -0.530 -0.862 -0.426 -0.341 -0.031 0.795 -0.304 -0.300 -1.503 -2.148 -0.218 -1.349 -1.411 0.640 0.701 -1.933 0.907 0.289 -0.915 0.176 0.447 0.573 0.108 -0.228 0.412 0.894 -0.791 -1.013 0.710 1.269 -0.960 -0.901 -1.030 1.780 -0.985 1.257 2.127 0.330 -1.007 0.162 -0.725 0.334 -0.151 0.185 0.096 -0.219 0.451 -0.989 0.566 0.936 -1.130 -0.940 0.564 0.129 2.773 0.552 1.133 -0.868 1.877 0.695 -1.250 -0.206 -1.413 -0.955 -0.421 1.725 -1.308 -0.436 -1.359 -1.284 0.324 0.543 -0.262 0.510 1.068 1.993 0.604 0.515 0.173 1.527 0.863 -0.895 -0.402 0.687 -0.699 -0.416
-0.464 -0.875 -1.390 -0.453 1.313 -0.459 0.404 -0.291 0.350 -0.706 -0.501 -1.093 -0.829 0.170 0.395 -1.981 -0.482 -0.888 -0.432 -1.148 -0.522 -1.145 0.506 1.177 -1.169 1.271 0.981 -0.834 1.226 0.679 0.405 0.776 -1.174 0.770 -0.050 1.033 -1.129 0.071 0.389 0.420 -0.505 -0.972 -1.307 -1.732 0.648 -0.145 1.052 0.709 -0.076 0.348 -0.395 -0.487 -0.778 0.047 -0.997 -0.525 1.675 -0.477 -0.630 -0.908 0.741 -2.334 1.324 -0.321 0.476 -0.684 -0.608 2.111 1.105 -0.151 0.197 -1.201 0.337 -0.324 -0.097 0.280 -0.954 0.445 1.148 -0.972 1.518 0.506 0.679 -0.522 1.425 -0.539 0.523 -0.818 1.755 -0.393 0.044 1.227 -0.716 -1.841 -0.074 -1.766 -2.079 -1.283 0.504 -0.620
0.491 -0.399 -0.382 -0.994 0.387 0.409 0.505 -0.407 -0.570 -0.489 -0.486 -1.095 -0.835 1.416 -1.384 1.371 0.066 0.140 -1.444 0.665 1.948 0.296 -0.834 0.459 0.257 -0.932 0.807 -0.144 0.353 0.096 0.408 -0.567 1.188 -0.664 -1.811 -0.700 0.584 1.390 0.713 0.714 0.856 -0.225 -2.149 -0.269 -0.420 -0.239 2.570 -0.038 0.014 1.022 0.109 1.434 0.125 -0.230 0.089 1.412 0.329 -0.740 -0.173 -0.794 -0.844 1.688 0.027 0.818 0.938 1.584 0.950 0.817 0.762 -0.832 -0.652 0.698 0.407 -0.252 -0.100 0.202 -0.428 -0.617 1.088 1.146 -2.740 -1.051 0.181 -0.473 -1.026 -1.151 -0.609 -1.970 0.563 -0.890 -1.651 -0.639 0.500 -0.873 1.319 1.129 0.034 0.262 1.079 0.486
-0.219 -0.341 -0.961 0.602 -0.588 0.307 0.325 0.693 -0.640 1.350 -0.960 -1.175 -1.009 -0.516 -1.897 0.016 0.745 0.071 -1.679 2.096 1.885 0.010 0.526 -0.153 -1.820 0.959 0.494 0.409 -0.466 0.845 -1.499 -0.189 0.748 0.909 -0.607 1.158 -1.210 0.020 2.106 -1.373 0.204 -1.442 -3.466 0.825 -0.661 -0.180 0.810 1.198 -0.046 -0.748 -0.945 -0.625 -1.164 -0.599 0.700 -1.340 1.929 0.290 0.494 1.072 0.058 -0.338 -0.516 0.694 0.391 -0.691 -0.793 -0.313 -0.946 0.177 -0.325 0.531 -2.252 0.272 0.593 -1.113 -0.405 0.527 0.089 -1.509 1.325 -1.383 -0.233 0.892 1.152 -0.756 -1.393 -0.055 -0.223 -2.445 -1.802 -0.380 -1.326 -1.017 -0.961 0.356 -0.533 -0.447 -0.557 0.494
-0.589 0.344 0.030 0.361 -1.676 -0.542 0.616 -1.357 1.342 -0.224 1.415 -0.238 -0.879 1.555 0.335 -0.607 -0.688 -1.100 0.171 0.415 0.145 0.163 0.705 -0.490 1.553 -1.519 -0.639 -0.744 0.106 0.346 0.757 -0.295 1.112 0.187 0.489 0.197 0.039 0.008 -0.125 0.332 0.978 -0.099 -0.875 -1.116 -0.441 0.160 0.697 1.181 0.516 0.079 -0.169 -1.018 -0.553 0.239 0.028 0.367 1.904 0.062 -0.489 0.379 -0.575 0.495 -0.395 0.861 -0.584 1.078 -1.927 2.236 -0.518 0.871 -0.067 0.406 -0.883 -2.157 0.140 0.321 -0.991 -0.195 1.383 -0.188 1.008 1.986 -0.407 1.266 0.128 -0.056 -0.066 -0.022 -1.235 1.383 -1.209 0.444 1.365 -0.869 -0.088 -0.920 -1.610 -0.948 -0.983 0.224
-0.082 -0.605 -0.801 1.053 0.024 1.137 1.906 0.003 1.807 -0.590 -0.690 0.398 -1.590 -0.362 1.139 2.247 1.552 0.959 0.709 -0.390 1.731 -0.515 -1.234 -0.439 0.435 -0.420 1.535 -0.232 -1.172 -0.493 -1.703 0.750 -1.255 -0.665 -0.748 -0.183 0.204 -1.164 -1.149 -0.581 1.101 0.746 0.290 1.739 -2.084 0.250 0.256 0.519 1.095 2.474 -0.158 -0.458 0.512 0.821 -1.400 0.860 -0.042 -0.580 0.014 0.298 0.124 0.393 -1.384 -1.086 0.585 -0.138 0.325 1.640 0.282 -0.999 -1.769 0.397 -1.047 -0.334 -0.922 1.244 -1.046 -0.229 -1.166 -0.359 -0.807 -0.810 -2.200 -0.849 -0.835 -0.075 1.349 0.165 1.268 0.925 0.396 1.605 -1.051 -0.563 -0.297 -0.071 -0.905 -0.624 -0.574 0.258
1.377 -0.391 -0.445 0.169 -0.431 0.975 1.676 -0.061 1.252 -1.331 -0.130 0.824 1.658 -0.049 -1.326 -0.859 0.319 0.064 0.034 0.942 0.551 -0.761 -1.129 1.726 0.859 -1.404 0.214 -2.698 -1.030 0.362 0.712 -0.091 -1.389 0.139 -0.358 0.195 0.673 0.913 1.125 -0.691 -0.497 0.513 0.450 0.604 -1.414 1.043 0.282 -1.925 -1.309 -0.241 0.335 2.127 0.327 2.286 -1.524 0.226 -0.572 -0.141 0.445 1.804 0.588 -1.820 -0.183 -0.934 0.942 0.321 -0.360 0.608 1.457 0.318 -0.925 -0.475 0.722 1.382 1.434 0.687 -1.070 0.055 -1.834 0.228 -0.363 1.562 0.444 1.825 1.034 -0.249 1.348 -0.190 -0.029 0.478 -0.361 -0.600 -0.249 -1.219 0.726 -0.741 1.255 0.479 0.291 -0.334
0.964 0.518 -1.604 1.028 1.947 0.885 -0.223 -0.842 -0.351 -0.650 0.524 0.003 1.147 -1.357 1.245 -1.336 -0.264 -0.928 -0.502 -0.262 1.752 0.075 -0.575 -1.215 1.017 -0.667 -0.035 1.151 1.247 -1.235 0.102 -0.362 -0.901 1.960 0.561 0.883 0.452 -0.335 1.051 -0.607 -3.081 -0.335 0.305 0.082 0.436 -0.306 1.427 0.340 -0.097 -1.621 1.397 -1.379 -1.974 0.376 -0.471 -0.519 1.560 0.823 1.001 1.088 -0.567 0.226 2.286 -0.747 -0.923 0.904 1.027 0.249 -1.591 0.581 0.142 -1.474 -0.744 -0.549 -0.136 -0.830 -1.014 -1.939 -0.075 1.219 0.509 0.117 0.846 -2.450 -0.412 0.676 0.027 -0.799 2.437 -0.219 0.645 0.268 0.205 -0.452 -0.264 0.920 1.094 0.099 -0.932 -1.626
0.352 0.169 -0.120 2.009 1.920 -0.594 0.228 -0.062 -1.816 -2.644 0.604 -0.360 -1.258 -0.572 -0.713 0.334 -0.955 -0.421 1.944 -0.695 -1.103 0.172 -0.515 -2.118 -0.195 -0.349 1.065 -0.086 0.650 0.510 -3.509 -1.060 -1.264 1.475 -0.484 -0.969 0.486 0.526 -0.587 0.806 -0.974 -0.785 -0.329 -1.093 0.191 -1.243 1.121 -0.220 -0.458 0.546 2.347 -0.504 -2.332 -0.097 -0.586 0.539 -1.517 -0.669 0.699 0.652 -1.803 0.437 -2.636 -0.307 0.450 0.416 0.867 0.716 1.065 -0.485 2.605 1.177 -1.328 -1.980 0.115 -0.157 -0.264 0.865 -0.341 -0.283 -0.023 -0.266 0.219 -0.525 0.479 0.365 -0.493 0.604 -1.355 -0.756 0.813 -0.552 -0.538 -0.709 0.635 0.685 1.361 -0.483 -0.632 -0.565
1.971 -0.068 -0.347 -0.602 1.705 0.053 -0.758 -1.979 -2.378 -1.173 0.831 -0.158 0.506 0.640 -0.999 -0.427 0.068 -0.039 -1.685 0.635 -1.629 0.124 4.153 -0.508 0.734 1.316 -0.425 -0.865 0.371 -0.682 2.023 0.511 0.910 0.202 -0.111 -1.165 -0.806 -1.093 -0.517 -0.007 1.305 0.712 -0.638 0.733 -1.422 -0.070 1.520 -0.474 0.599 0.449 -0.393 0.620 0.011 -0.105 0.006 -0.054 -0.625 -0.652 0.050 0.302 0.487 -1.790 -0.007 1.701 -1.838 -2.575 2.327 -1.594 0.253 -0.394 -1.838 0.878 -0.675 1.211 1.379 -0.117 -0.512 0.157 0.859 -0.798 -1.409 -0.755 -0.109 -0.038 -1.008 0.525 -0.217 1.286 -0.603 1.218 0.699 0.477 -0.909 -1.531 -0.459 1.243 -0.168 -1.873 0.736 -1.883
1.287 -1.396 0.943 0.150 -0.687 0.609 1.090 1.026 1.865 0.608 0.322 1.852 -1.751 -0.287 -0.950 0.356 -0.386 -0.329 -0.596 -0.954 -0.861 -0.598 -0.867 0.358 1.486 -0.854 -0.205 -0.278 -1.084 -0.536 -0.261 -0.549 1.303 0.488 0.520 -0.129 0.181 0.235 -0.694 -0.938 -0.401 0.482 1.243 -0.418 0.598 -0.883 0.954 -0.475 0.522 -0.973 -1.675 -0.284 -1.228 -0.965 0.632 0.255 0.423 0.233 -0.599 0.631 0.779 -0.456 0.442 0.890 0.612 -1.629 -0.311 -0.232 -0.770 -0.975 0.342 -0.095 1.319 -1.695 0.947 1.320 -0.399 -0.127 -0.889 3.165 -2.011 1.295 0.827 0.217 -0.343 0.341 -0.571 0.503 0.332 -1.034 0.302 -0.816 -0.358 -0.589 -0.390 0.524 1.826 0.272 0.209 -0.999
0.521 0.774 -0.633 0.238 -0.632 -0.742 -0.641 -0.040 -1.276 0.823 -0.431 -1.411 -1.331 -1.697 0.182 1.557 1.255 -1.530 1.465 0.964 0.077 -1.847 0.722 -0.127 -0.373 -0.485 -0.268 -0.905 0.728 0.928 -0.579 -0.900 1.940 -0.213 -0.808 -0.876 -0.376 -0.476 -1.451 0.147 0.748 0.232 3.202 0.554 -1.261 1.717 -0.392 -0.606 0.094 0.467 1.475 -0.471 0.962 0.103 -2.334 -2.091 -0.598 1.714 -1.004 0.979 0.058 1.288 0.720 -0.446 -0.771 0.583 -0.054 0.984 0.275 -0.757 -1.402 0.674 -0.494 1.259 0.710 -0.916 -0.169 -0.969 -2.259 -0.803 1.984 0.067 -0.879 0.525 -2.951 -1.881 0.921 1.219 2.186 -1.714 -0.185 -0.493 -0.208 -0.472 -0.943 -1.329 0.011 2.455 0.170 0.347
0.780 1.079 -0.091 -0.183 0.507 -0.197 -0.505 -0.094 0.974 -1.137 -0.536 -1.097 -0.588 0.400 -0.142 1.040 -1.731 1.298 0.460 1.265 0.402 0.327 -2.699 0.116 -0.165 -0.922 0.620 -0.229 0.915 -0.339 0.283 0.522 0.741 -1.325 -0.014 1.088 0.124 -0.468 0.663 0.249 -0.130 -0.234 0.026 0.408 0.592 -0.297 -0.035 0.045 0.081 1.309 0.669 -1.195 0.471 -0.759 -0.113 -0.170 -0.116 1.639 -0.945 -0.044 0.340 0.387 1.865 1.658 -0.128 -0.033 1.664 -2.817 -0.792 0.747 -1.157 1.623 -0.230 -1.014 -0.959 1.661 -0.325 0.488 0.657 1.582 1.620 0.081 0.114 0.231 -0.017 -1.680 -0.629 -0.542 -0.208 -0.109 0.978 -1.389 -0.854 0.681 0.138 -0.442 0.613 0.283 -0.980 1.222
1.527 -0.216 0.243 0.620 0.310 -2.570 0.224 -0.798 1.679 -2.164 -1.032 -2.360 -0.021 0.513 0.149 0.878 -0.700 0.153 -1.949 -0.789 -0.974 -0.456 0.651 1.466 -0.684 0.159 -0.996 0.352 -0.274 0.462 -0.276 -0.221 1.871 -0.096 -1.653 1.764 1.054 0.760 -0.356 -0.820 2.335 -0.866 0.619 0.147 1.185 -1.073 2.253 0.563 -0.726 -0.236 0.435 -0.632 0.232 2.705 -1.336 0.058 0.743 2.444 0.563 -0.047 2.262 -0.999 0.045 0.560 -2.015 0.483 0.645 0.260 0.465 0.088 -0.461 0.534 -0.840 -0.378 -0.502 -1.797 -0.894 0.644 0.793 0.453 -0.572 -0.621 -0.548 0.077 1.193 0.300 -0.166 -0.789 1.048 -0.838 -0.818 -1.100 1.850 -1.369 -1.418 -0.234 -0.769 -0.073 -1.060 -0.932
-1.985 0.217 0.140 0.816 -1.635 -0.471 0.821 0.383 -0.398 -0.604 0.367 0.032 0.042 -1.111 -0.107 0.251 -1.185 1.610 -0.334 -0.884 0.412 0.723 0.381 1.223 1.529 0.372 -0.804 0.626 0.740 -0.321 -1.313 -0.019 -0.787 1.000 0.159 -1.095 -0.454 1.409 1.514 -1.096 -0.617 -0.168 2.037 0.327 -1.595 -2.077 -0.227 0.313 0.647 -1.467 -0.476 -0.161 1.736 -0.863 2.208 0.784 0.768 -1.444 -1.028 1.059 1.122 -0.681 0.574 1.676 0.185 -0.178 0.891 0.760 -0.273 0.409 2.931 -0.325 0.450 1.411 0.819 1.172 2.207 -0.858 -1.586 -0.035 1.066 1.239 0.583 0.532 2.246 0.259 0.188 0.117 -0.535 -0.419 -0.616 1.883 0.094 0.169 -1.461 -0.125 0.378 -0.400 -1.827 -0.283
1.791 -0.012 -0.503 -1.695 -0.542 -0.435 -0.766 0.277 -0.452 -0.687 0.991 0.634 -1.018 0.853 0.298 -1.276 -0.784 0.454 -0.206 -1.091 0.057 0.698 -0.117 -0.174 0.538 0.905 0.170 0.966 1.338 1.062 -0.372 -0.473 0.618 0.215 0.019 -0.415 0.616 -1.051 1.059 1.070 -0.184 2.985 -0.400 -0.088 -1.342 -0.097 -0.812 0.796 -0.779 -0.313 0.380 -1.560 0.445 0.471 0.119 -0.847 -1.820 1.563 0.012 1.931 -0.959 0.295 0.549 -0.655 0.185 -0.293 0.693 0.289 -1.209 -0.842 0.165 -0.461 1.535 1.145 -1.438 0.080 -0.494 -1.355 -0.500 -1.558 0.716 1.396 2.717 -0.270 -1.571 -0.572 -0.164 -1.272 0.941 -1.024 1.329 -0.049 -1.305 -1.175 -0.773 -0.320 0.384 0.611 2.033 0.361
0.678 0.049 0.727 1.470 0.938 -1.348 -1.595 -1.915 1.087 0.468 -0.106 0.707 1.744 -0.305 1.685 0.701 0.379 0.231 -0.155 -0.150 -0.279 -1.617 -0.086 -0.200 0.068 0.537 -0.513 0.525 -0.550 -0.137 -1.469 -1.034 1.616 2.183 1.999 -0.062 0.413 1.126 -1.914 -0.235 1.768 -0.508 -0.579 1.839 -1.539 -1.446 -1.603 0.638 0.323 0.430 0.502 0.902 0.139 0.178 -0.245 1.695 -1.868 0.617 -0.132 -0.067 0.900 1.117 -0.228 1.112 -3.595 -0.563 -0.398 0.296 1.174 0.231 -1.589 0.792 1.249 -0.497 1.147 1.691 0.035 2.141 -0.472 -0.053 0.511 -0.771 0.858 0.396 -0.702 0.742 -0.259 0.948 0.328 0.308 0.350 -1.255 -0.708 0.684 -1.891 0.107 0.568 -0.928 2.041 1.217
-1.364 -1.724 0.136 -0.433 1.735 -1.778 0.210 1.511 -0.365 1.424 -1.441 -1.076 -0.825 -0.169 0.874 0.372 1.086 1.263 -0.878 -0.768 0.208 1.396 -0.558 0.151 -0.617 1.040 -0.844 -0.104 1.549 -0.891 0.495 -1.807 0.216 -0.330 -0.221 0.307 -0.051 0.434 0.298 -1.851 -0.978 1.443 0.221 0.780 -1.190 0.025 0.226 -2.388 -0.274 0.057 0.110 -1.417 0.136 0.127 -0.120 0.056 0.647 1.082 -1.589 0.554 -2.424 -0.851 -1.571 0.469 -1.003 -1.204 -0.105 0.257 -0.961 -0.622 0.481 -0.338 -0.586 0.058 1.157 1.796 -1.222 -0.282 -0.729 -0.378 0.018 -0.645 0.818 0.781 0.712 -1.133 -0.897 0.428 0.225 -0.970 -0.817 1.588 0.243 0.116 -0.707 -0.495 -0.593 -1.076 -1.196 0.906
0.350 0.617 0.185 -0.199 -0.056 1.173 1.263 -0.966 -0.069 1.149 -0.868 -0.790 -0.164 -0.700 0.739 -0.923 -0.157 1.595 0.521 -0.503 1.853 -2.401 0.910 -0.837 -0.461 -0.375 -0.568 -1.303 0.555 -1.405 -0.405 -0.815 -0.873 1.430 -0.513 -0.910 -1.555 0.321 1.050 -0.189 0.824 -0.201 0.368 -0.416 1.564 0.003 -0.558 2.088 -0.406 1.630 0.073 0.744 1.720 0.722 -1.119 -1.241 0.759 -1.569 -0.963 0.223 0.411 -1.694 -0.169 0.187 0.364 1.168 0.123 0.684 0.439 -0.379 -1.910 -1.001 -0.851 1.142 -0.437 -2.216 0.910 2.941 -1.251 -2.645 -1.285 -1.888 -0.185 -0.743 -1.055 -0.967 -1.070 -1.311 2.156 1.240 -0.571 -1.390 1.039 0.061 1.216 0.841 1.313 -0.344 1.052 -0.221
0.921 0.893 -0.930 0.710 -0.143 0.852 -0.561 1.974 2.202 0.501 0.493 0.056 -0.575 -0.710 0.752 1.266 -0.577 0.609 -0.395 -0.708 1.211 1.034 -0.690 0.607 -0.220 1.027 0.013 -0.523 0.207 0.733 0.604 -0.360 -0.278 0.227 1.353 -0.729 -1.616 -0.392 -0.050 -0.457 0.494 -0.630 -0.568 0.958 -0.169 0.430 1.086 -0.761 1.211 1.333 0.353 0.430 -2.162 1.420 -0.113 -1.708 -0.402 0.597 -0.039 1.010 1.779 -1.760 -1.240 -0.245 -1.422 -1.158 -0.768 -0.048 -0.729 1.341 -0.498 -1.675 0.503 0.187 -1.702 -0.881 0.543 0.438 1.837 -0.094 -1.102 1.031 0.336 0.942 0.266 -2.553 -0.088 0.939 1.246 0.061 -0.128 1.332 0.056 -0.148 -1.358 1.953 1.337 0.044 2.430 -0.140
-1.166 -0.290 -0.276 1.342 -0.241 0.012 1.327 -0.700 0.010 -0.084 0.015 1.050 0.660 -0.965 1.959 -0.758 -0.244 -0.957 1.212 -0.434 0.820 1.024 -1.055 -0.053 0.925 -0.314 1.335 -1.496 -1.840 0.176 -0.475 -0.112 -0.512 0.393 0.378 -0.388 0.595 -0.126 -1.082 -0.663 0.610 0.293 0.511 -0.107 -0.696 1.714 0.001 1.748 0.072 1.427 0.267 -0.382 -0.198 0.947 0.373 -0.283 -0.868 -0.504 -0.902 0.045 -0.761 1.059 0.090 -1.598 -0.849 -0.325 1.039 -1.061 -1.671 0.582 1.469 0.116 -0.136 -0.444 -0.096 0.486 0.018 -0.365 -0.232 -0.329 -0.053 1.505 0.199 0.676 0.317 -0.020 0.439 0.343 1.703 1.439 -0.756 1.401 0.680 -1.434 0.023 0.149 -0.208 0.440 0.384 0.077
0.832 -0.511 0.322 -0.513 -0.007 -0.859 1.703 0.659 0.089 -0.466 0.404 0.342 0.613 -0.054 -2.518 1.012 0.329 -0.930 0.196 -1.029 -0.330 -1.091 -0.523 -0.926 0.023 0.578 0.445 1.147 -0.066 -1.089 0.777 -0.002 -0.048 0.715 0.366 -0.452 -0.155 1.647 -0.852 -0.731 -1.343 1.779 0.918 -0.190 -0.827 -0.439 2.275 1.026 -0.666 -1.390 -0.546 0.306 -0.265 -1.017 0.967 -0.521 -1.975 -1.040 0.059 3.021 1.575 1.601 -0.628 -0.525 -1.210 1.647 -0.493 0.161 -0.649 -1.150 -0.003 -1.156 0.473 0.179 -2.489 -0.524 -0.764 -0.780 -1.224 -0.014 -0.532 -1.324 -1.448 0.283 0.101 -0.496 -1.693 -1.313 -0.386 0.809 0.406 0.491 0.525 1.510 0.525 0.638 0.003 1.051 0.127 -0.425
-1.232 1.017 0.563 0.734 -0.147 1.557 1.699 1.398 1.164 -1.025 0.875 -0.161 0.265 -0.636 0.088 0.684 0.240 -0.385 -0.714 1.471 -0.150 0.833 -2.320 -0.162 -0.877 -2.404 0.655 -2.547 0.389 1.556 1.362 -0.814 0.121 2.233 1.629 -1.177 0.164 -2.789 -0.776 -1.196 -0.976 1.019 0.367 -1.379 1.567 -0.228 -1.132 -0.192 -0.263 1.992 -0.941 1.206 0.031 -1.131 0.276 0.742 0.096 0.554 -0.471 -2.325 -0.801 0.265 -0.940 -0.336 -0.561 -0.483 0.672 -1.316 0.302 -0.003 -0.524 0.720 0.329 -1.762 1.018 -0.367 0.654 -0.531 0.854 -1.429 1.197 0.556 0.215 -0.569 0.170 0.279 0.878 -0.902 0.771 0.457 -0.680 0.022 -0.961 -0.317 -1.462 -0.063 1.013 1.367 1.949 -0.008
-0.660 0.796 -0.959 0.035 0.726 -0.033 -0.851 -1.512 1.076 -0.710 0.423 0.317 0.776 -1.616 0.174 1.007 -0.105 0.090 1.553 -0.165 1.202 0.855 0.541 2.039 -1.641 1.942 -0.741 0.039 -0.365 -0.644 0.360 -0.661 0.619 0.058 -0.476 -0.873 -0.581 -0.619 0.300 0.250 -0.231 -2.125 0.114 1.801 -0.384 0.715 -0.067 0.174 1.307 -0.292 3.150 -0.009 -0.478 0.368 0.165 -1.142 1.215 -1.537 -0.628 -1.062 -1.048 -2.389 0.874 -1.125 0.717 -1.285 0.843 -0.743 0.897 -0.158 -0.512 -1.587 -0.490 -2.381 -1.020 -0.728 0.141 -0.847 -1.833 -1.259 -1.355 -0.139 0.115 -2.687 0.019 0.334 0.038 -1.425 1.651 0.575 0.647 0.558 0.160 -1.967 0.842 1.023 1.819 0.261 0.007 0.121
0.103 1.813 -0.573 -1.696 -0.682 1.740 -0.108 0.076 -0.604 -1.882 1.025 -0.330 -0.455 0.620 0.416 -0.106 -2.134 0.533 1.670 -0.215 0.930 1.503 -1.185 -0.767 1.234 0.377 0.653 0.257 -2.459 1.170 0.846 1.827 0.915 1.166 -0.697 0.359 1.820 0.699 0.083 0.201 -0.822 0.049 0.747 -0.896 -0.179 -1.307 1.785 -0.168 -1.207 -0.406 -1.390 -0.328 -1.066 0.576 -0.035 -0.146 1.230 0.085 1.302 -3.549 -0.361 0.257 1.004 -0.188 -0.733 2.257 -0.526 0.092 -0.276 -1.382 0.221 -0.235 0.460 -1.266 -0.119 -0.357 -1.278 -0.775 -0.445 -1.513 0.290 0.749 0.453 0.062 1.240 -0.688 1.378 0.624 -2.481 -0.145 0.831 1.584 1.437 0.161 0.305 0.323 -0.185 0.233 -0.479 0.296
-0.574 0.123 -0.422 -2.216 -0.066 -1.512 0.584 -1.446 -0.208 -0.323 -2.124 1.176 -0.981 1.458 -1.163 -0.573 -1.376 -1.066 0.155 -0.032 2.114 -0.647 -1.179 0.114 -0.899 -0.492 0.168 0.547 1.095 0.120 -0.038 -0.702 -0.725 0.825 0.362 -1.512 -0.311 2.513 0.869 -1.430 1.355 -1.028 2.030 0.172 0.298 -0.096 -0.141 0.301 1.458 -0.088 -0.316 -0.209 0.288 0.066 -0.512 0.214 -0.145 0.116 -1.004 0.441 0.596 1.340 -0.170 0.658 -1.088 -1.385 -1.372 0.751 -2.098 0.977 0.582 0.333 0.904 -0.385 1.291 -0.535 0.323 0.427 -0.528 0.385 0.384 0.156 0.453 0.995 -0.258 -0.918 0.262 1.082 1.667 -0.136 -1.000 -2.110 1.270 0.082 -0.586 -1.790 1.723 0.693 -0.577 -0.218
-0.548 -0.635 0.900 -0.558 -0.179 -0.971 -0.089 0.886 0.625 0.432 -0.344 -0.093 1.760 1.231 -1.032 0.133 -0.431 -1.336 -0.012 -1.862 0.813 0.930 -0.123 -0.671 -0.453 -0.776 1.021 -1.170 -1.986 2.013 -0.278 -0.125 -2.332 0.958 -0.369 -0.475 -0.802 -0.958 0.758 1.163 0.379 0.696 -1.213 -1.084 0.332 -0.348 0.395 0.881 0.142 0.779 2.618 0.485 -0.773 1.485 -1.275 -0.396 -0.889 -0.590 -0.400 -0.477 0.117 -0.083 2.091 0.598 -0.389 1.802 -0.624 0.696 0.921 -1.131 1.715 -0.985 0.675 1.365 3.109 0.958 -1.621 1.656 -0.522 -0.963 0.137 -2.214 0.268 1.767 -2.148 1.223 -0.439 0.121 -0.568 -0.922 0.625 0.480 -0.324 -0.171 1.460 -1.141 1.826 0.162 -0.334 -1.409
2.347 -0.152 -0.429 -0.189 -1.337 -0.869 -1.424 0.652 -0.531 -0.630 -0.331 2.833 -0.203 2.003 -1.212 -0.026 0.059 -0.171 0.395 -0.715 -2.064 -0.742 0.951 0.075 -1.540 -0.639 -0.260 -0.265 -0.337 0.890 -0.686 -0.341 0.297 0.041 0.363 -0.629 -0.965 0.965 1.688 0.175 1.620 0.509 -1.097 -1.097 1.083 0.096 2.670 0.537 0.251 -1.237 -1.604 -0.145 -1.170 0.463 1.627 0.016 2.622 -1.184 -0.865 -1.671 -0.381 -1.914 -2.813 0.275 0.239 0.613 0.128 -0.969 -0.220 -0.708 0.758 -2.283 0.354 -0.939 1.025 0.031 0.365 -0.186 2.498 -0.449 -0.490 -0.006 -0.053 -1.025 -1.011 1.850 -0.634 1.080 -0.394 -0.809 0.745 0.319 0.460 0.423 0.378 0.521 0.053 0.208 1.204 1.570
-0.150 -1.057 1.362 -0.461 1.542 0.779 -3.556 -0.004 1.633 0.505 0.929 1.189 0.391 0.029 0.022 0.354 1.629 2.305 -0.758 -1.014 -0.375 -0.262 -0.723 -0.280 0.127 1.105 -1.250 -0.255 -0.339 -1.433 -0.896 1.137 -0.183 -0.685 -1.690 -1.684 0.664 0.285 0.301 -0.325 1.352 1.042 -0.648 -0.330 0.508 0.212 -1.801 0.669 -0.698 -1.195 0.053 -0.191 -0.531 0.870 1.734 -1.098 1.638 0.483 -0.328 -1.424 -0.275 -1.267 -0.777 0.071 0.185 0.073 -1.188 -0.463 -1.192 0.192 0.145 0.358 0.063 -1.146 -0.562 -0.859 -0.773 -2.331 0.771 -0.185 2.138 0.315 -0.186 1.090 0.502 -0.162 -2.066 1.097 -0.241 -0.251 1.848 1.020 0.211 0.532 -0.757 1.538 0.104 1.390 -0.508 -0.594
-0.708 0.022 -1.282 0.763 -0.115 0.505 0.540 1.158 -0.141 -0.101 -1.231 -0.845 -2.885 -0.137 -1.884 -1.325 -1.167 -0.870 -1.205 -0.412 0.514 -0.314 -0.745 -1.268 0.171 -1.961 -0.525 -0.236 0.609 0.771 -1.344 1.121 -0.512 0.708 0.119 -1.243 -0.334 -0.442 1.489 -0.179 0.288 0.030 1.311 0.142 0.900 -0.420 -0.020 -0.656 0.893 -0.506 0.722 0.140 0.338 1.595 -1.203 0.752 -1.715 1.222 1.695 0.163 -0.399 -0.732 -0.936 -0.135 0.338 1.786 -0.763 -0.090 0.743 -0.691 -0.206 -0.389 0.439 0.688 -0.506 -1.482 -1.707 1.578 0.162 -0.340 0.142 0.316 -0.238 0.890 -1.997 -1.476 -0.315 0.195 0.623 0.924 0.823 0.073 0.984 -0.131 0.210 -0.691 1.243 -0.293 -0.811 -2.624
0.694 -0.193 -2.910 0.622 -0.031 -0.988 -0.766 -0.887 0.548 -0.238 -1.578 1.015 1.675 -0.252 -0.171 0.826 -0.456 1.329 -0.500 -2.326 -2.070 0.549 -1.474 0.016 0.149 -0.663 0.537 -0.586 -0.065 -0.468 -0.147 0.219 -0.751 -1.027 0.439 1.357 -0.854 0.373 -0.041 -0.382 -1.260 -0.151 -1.643 -1.325 0.538 -0.626 -1.105 0.961 -0.231 -0.069 0.996 -0.757 -0.481 -1.688 0.792 -0.153 -1.384 1.428 -0.078 -0.159 -0.657 -1.160 0.095 0.066 0.508 -0.400 0.513 -0.999 -0.835 -0.387 -0.500 1.021 -0.128 -2.365 2.097 -0.022 -0.061 0.417 1.236 0.333 -0.419 -1.147 -0.756 1.455 0.669 -0.733 -0.480 1.905 -1.053 -0.441 -0.045 -0.084 -0.745 0.274 1.525 1.127 -0.857 -0.537 0.820 -0.816
0.956 1.204 -1.260 0.241 -0.246 -1.114 -1.653 -0.735 -0.872 -1.568 0.892 -1.299 -0.434 1.426 1.374 -0.220 -0.553 1.560 1.047 -0.432 0.269 0.154 0.145 -1.271 -0.457 1.173 -0.187 0.308 1.946 -1.780 -0.055 1.056 -0.243 0.909 0.407 0.152 -0.212 1.391 1.199 1.257 -0.721 -0.148 0.717 0.718 -0.756 -1.775 -0.379 1.364 -0.260 0.253 -0.315 0.376 0.248 0.763 -1.892 -0.473 0.030 0.937 -1.004 1.845 -0.799 -1.424 0.061 -0.842 1.241 1.868 0.229 -0.569 0.646 -1.843 -1.199 -0.069 -1.183 0.369 1.695 0.469 -0.022 0.448 1.489 0.258 -0.283 2.293 0.059 -1.752 -0.990 -0.994 1.576 1.235 1.357 -0.004 -0.294 -0.877 0.753 -0.236 -1.861 0.242 -0.509 0.538 -0.473 -0.158
-1.799 -1.310 0.061 -1.770 -1.190 0.146 -1.373 -0.066 0.922 0.493 1.170 1.212 -0.026 -0.868 -1.203 0.608 0.170 0.084 0.430 -1.006 -1.989 1.071 -1.538 -0.508 -1.688 -0.759 0.600 -0.949 0.005 1.029 1.390 2.560 0.524 0.621 0.128 0.082 -0.547 1.442 0.679 -1.308 0.069 0.090 -0.805 -0.076 0.319 0.506 0.529 1.919 1.082 0.330 -0.229 0.954 -1.293 1.260 0.755 1.339 -1.272 1.027 1.321 0.963 -0.059 -0.478 -0.210 0.210 1.630 0.626 0.303 2.128 0.368 1.198 -1.311 2.326 -1.304 0.025 -0.838 0.489 -0.131 0.958 -0.100 -2.042 0.071 0.830 1.636 -1.593 1.974 0.801 -0.764 -0.135 -1.439 1.482 0.109 1.299 -1.696 -1.269 0.423 -0.867 -1.200 -0.736 1.356 -1.622
1.532 -1.199 0.054 -1.926 0.006 2.284 -1.617 0.553 0.653 2.391 -0.430 0.572 -0.993 -0.961 0.204 -0.420 0.745 -0.784 0.326 0.264 -0.495 0.384 -0.009 1.004 -0.293 2.234 1.140 -1.121 -0.935 -0.739 0.302 -1.768 0.355 0.825 0.602 -0.168 1.687 0.798 -1.153 -0.122 2.057 0.788 -1.379 -1.857 0.111 0.556 0.582 0.713 -0.510 -0.982 0.920 -0.327 -0.733 -0.185 1.636 -0.712 1.543 0.382 -0.015 -0.923 1.706 1.208 0.216 1.306 -0.634 -1.828 1.508 0.533 -0.576 -0.442 -0.186 2.102 0.191 -0.638 -0.320 -1.284 0.046 1.816 -0.184 -0.160 -1.089 -1.855 1.581 -0.296 0.664 -0.213 0.905 0.405 -1.169 0.469 0.159 -0.455 -1.142 0.368 0.624 0.458 0.490 -0.165 0.398 -0.303
-0.879 0.836 -1.022 0.442 -0.054 -0.943 0.320 -0.819 -0.969 -0.737 -0.702 -0.920 -0.193 -0.950 -1.342 0.880 0.437 2.480 -1.158 -0.031 0.490 0.868 0.336 -0.463 -0.131 -1.119 0.436 -1.079 0.090 -0.580 -1.242 0.403 -0.553 -0.197 0.722 0.820 1.173 0.860 -0.233 1.923 -0.418 0.526 -1.286 0.256 2.105 0.867 -1.139 0.687 0.133 1.314 0.014 -1.155 1.128 -0.006 -0.841 0.076 1.635 0.876 0.721 -1.477 -0.881 0.012 0.364 -0.574 -1.347 0.224 -0.387 0.130 -1.002 0.268 -1.293 -0.041 -0.596 0.405 0.690 -2.296 -0.872 -0.506 0.057 -0.187 0.701 -1.080 -0.760 0.464 1.519 -1.963 -0.662 -1.446 -1.899 0.091 1.594 0.764 0.362 -0.332 1.832 1.486 1.092 1.066 -1.151 0.457
1.260 1.080 -0.327 -0.034 1.252 -0.505 0.592 0.109 -0.377 0.301 0.609 -0.785 0.041 -0.420 0.781 -0.174 -0.685 0.572 1.226 -0.160 1.581 -1.936 1.677 -0.513 0.292 -1.449 0.195 0.941 0.286 -0.706 1.899 0.434 0.946 0.524 0.562 1.460 -1.017 -0.690 2.146 1.542 -0.521 -1.861 0.007 3.770 0.400 1.695 0.281 -0.245 -0.733 -1.810 -0.830 1.386 -0.321 -0.234 -0.086 0.416 0.285 -0.761 -0.716 0.481 0.124 0.638 0.299 0.184 0.249 -0.006 -0.177 -0.608 0.535 -0.364 -0.315 -1.362 0.239 -0.776 -0.202 -0.036 -0.391 1.244 -0.573 -1.952 -0.253 1.667 0.322 0.284 0.661 -0.829 -0.255 -0.225 0.165 0.056 1.274 0.862 -0.365 0.574 1.440 -0.148 -1.012 -0.609 1.574 0.950
-0.060 -1.463 0.619 0.939 1.308 0.984 1.996 0.426 -1.297 0.198 1.351 -0.291 -1.391 -0.420 0.953 -0.038 0.199 0.764 2.232 -1.207 -1.459 1.187 -2.444 -0.588 -1.086 -0.496 -1.357 -0.855 -0.132 -0.819 -1.374 1.150 0.469 -0.529 0.008 -0.703 0.140 1.402 2.176 -0.630 2.029 1.961 -0.437 1.037 -0.289 0.655 0.317 1.848 -0.179 1.438 0.501 0.413 -2.105 0.871 1.486 0.227 0.190 1.083 -0.947 -0.756 0.265 0.219 0.760 -0.122 -0.486 -1.127 -0.180 0.664 1.306 -0.573 -2.062 0.742 0.245 0.185 1.791 0.645 0.320 0.894 -0.669 0.036 0.152 -0.862 1.509 -0.062 -0.035 1.880 1.073 -0.020 -2.299 -0.386 2.011 1.307 1.886 -1.372 0.235 1.356 -1.074 0.108 -0.367 -1.185
-0.302 2.119 -0.491 0.265 -2.252 0.067 -0.795 0.002 -0.863 0.123 1.122 -0.361 -0.573 2.024 1.285 -2.375 0.801 -0.016 0.755 0.928 -1.394 -0.053 -0.021 3.004 -1.425 0.186 -0.458 0.680 -0.544 -0.233 -0.160 -1.427 0.610 -0.538 -0.887 -0.531 0.766 1.456 -0.664 0.597 -1.159 -1.450 -0.433 -0.844 -0.404 0.306 -0.639 -0.389 -0.252 -0.862 0.736 0.064 0.949 -0.084 -0.487 0.389 -1.567 -0.481 0.776 -1.360 -2.063 -0.697 -0.290 1.398 0.815 -1.303 0.516 0.364 -1.472 0.638 -0.299 0.626 0.009 -1.763 -0.941 -0.594 0.012 -0.336 0.682 0.301 1.868 0.310 -1.239 -0.386 0.293 0.978 0.679 -0.067 -1.033 0.469 0.582 -0.788 -0.065 -1.098 -0.380 0.265 -0.424 -1.786 -0.190 0.060
1.400 1.252 0.095 0.756 0.745 -0.954 1.425 0.970 1.121 0.256 1.019 -0.937 -1.813 -0.407 -0.182 0.674 0.462 1.056 -1.050 0.340 -0.175 -0.023 -0.864 1.099 0.038 0.027 0.084 1.418 -1.463 -0.355 -0.912 1.049 -1.085 -0.471 -0.098 1.887 0.554 -1.327 0.205 -0.414 2.317 1.175 -0.152 1.010 1.027 1.342 -0.703 -0.685 2.298 -0.401 -0.996 -0.615 0.514 -0.865 -0.347 -0.509 0.737 -0.882 -0.801 -0.200 -0.004 0.504 0.282 1.746 1.716 0.113 -1.649 -1.421 1.056 -0.560 -0.184 -1.426 -0.728 -0.924 -0.552 -1.296 -1.834 1.581 0.591 1.737 -0.697 -0.113 2.316 1.008 1.019 -1.515 1.281 0.648 0.228 -0.831 0.918 0.781 1.000 -0.333 -1.752 1.444 0.606 -0.240 0.543 -1.668
0.980 2.927 1.522 -1.353 0.988 -0.254 -0.938 0.135 -0.091 -0.829 -0.783 -0.929 0.210 -0.304 -1.956 -1.185 -0.300 0.413 -0.602 -1.187 0.330 1.695 0.269 0.153 1.072 -0.079 -1.575 0.004 0.314 0.478 -1.701 -0.705 -0.258 0.583 -0.857 0.138 -0.333 0.159 -0.584 -0.630 -0.090 -1.133 0.008 -0.476 -0.478 0.099 0.749 -2.475 -0.837 -0.151 -0.642 -0.635 0.159 -0.680 -2.066 0.797 -0.385 -0.275 -0.386 -0.077 -0.487 -0.096 0.121 -0.849 -0.764 0.744 -0.303 0.799 0.016 1.890 -1.657 1.629 0.746 1.709 0.239 -0.650 -1.047 -0.509 -0.777 -1.070 -0.830 -0.673 -1.875 1.327 2.138 0.818 -0.868 0.227 1.314 -1.262 0.197 1.019 0.552 -0.878 -0.547 0.460 1.091 1.323 0.001 1.201
-0.192 -1.522 0.449 1.055 1.451 -0.255 -2.312 -0.005 -0.169 -0.657 -0.144 1.800 0.834 0.064 1.057 1.339 0.449 -1.228 1.004 -0.428 0.850 0.255 -0.464 0.020 1.721 1.020 -0.018 0.476 0.948 0.980 0.260 -0.818 0.130 -1.700 0.263 1.560 2.046 0.526 -0.807 0.594 0.500 0.752 0.378 0.520 0.126 1.560 1.820 -0.036 0.686 1.433 -0.599 -0.152 -0.119 -0.489 -0.001 -1.089 -0.470 -0.544 1.694 0.931 -0.899 -1.004 -1.083 -2.622 0.390 -0.928 -0.873 1.053 0.889 -0.852 -1.344 1.300 1.036 -1.906 2.201 1.387 0.316 -0.654 1.240 1.600 -0.777 0.974 -0.868 -0.691 -1.179 -1.908 -0.702 -0.241 -0.391 0.587 -0.325 -0.250 0.399 -0.182 1.518 1.027 -1.364 -1.457 0.597 -1.646
2.093 -1.357 0.053 0.079 0.733 0.832 -0.386 0.202 -1.400 -0.932 2.444 0.999 1.066 -1.612 0.350 1.857 0.972 -0.617 -0.799 1.047 1.349 -0.732 0.240 0.462 0.095 -1.307 0.321 -1.520 -0.219 -0.249 1.498 -0.308 0.618 -1.483 -0.251 0.243 0.660 -1.552 -0.895 0.485 -0.093 0.959 -1.040 -0.780 2.063 0.467 0.374 1.340 0.460 -1.344 0.310 0.903 0.332 -0.250 1.980 1.721 0.407 0.369 -0.073 -0.808 0.622 1.042 -1.608 -1.038 -0.718 -0.691 -1.790 1.074 -1.069 -2.166 0.340 0.532 -0.384 -0.430 -0.610 -0.195 0.114 -0.256 -0.462 -0.166 -0.358 0.543 1.339 0.831 -0.426 -1.053 -1.502 -0.660 0.449 -0.507 1.056 1.168 0.403 0.366 0.008 0.035 -0.848 -0.871 1.077 0.366
0.203 1.768 -0.701 0.251 0.208 0.350 -0.268 -1.439 -0.528 0.081 -1.407 2.057 1.304 0.230 1.418 0.594 -0.041 -0.239 -1.359 1.083 -1.043 0.104 2.423 -0.110 -0.031 0.396 0.305 0.503 -0.001 1.121 1.366 1.054 1.971 -0.361 0.327 -1.128 -2.564 -0.147 -1.200 -0.313 0.640 0.372 0.369 -1.212 -0.091 0.193 0.877 -0.758 1.909 0.364 0.114 0.608 -0.188 -0.105 0.254 0.340 -0.491 -0.580 0.556 -0.107 0.791 1.264 -1.667 -0.596 0.079 -0.743 -1.970 0.215 -2.154 0.428 -1.447 0.951 -1.116 0.198 0.354 0.060 0.428 -1.603 -0.270 0.700 -0.678 -0.851 -1.655 0.395 0.592 0.225 0.332 0.904 -0.436 0.617 -0.425 -0.917 -0.367 -1.786 -2.695 -0.002 -0.851 -1.205 -0.548 -0.351
-0.674 -0.462 -0.353 -1.262 -0.130 0.708 0.005 -1.110 -1.553 1.163 1.314 -1.095 -1.009 0.783 1.097 0.616 2.621 -1.128 2.009 -0.444 0.095 0.719 -0.780 0.426 1.371 -1.646 0.121 0.276 0.356 -0.129 0.430 0.282 1.304 -0.958 -0.906 -0.274 0.224 1.792 -1.236 -1.425 -0.065 0.661 -0.155 -0.183 0.264 -0.876 -0.440 0.033 0.316 -1.186 1.507 -0.135 -0.890 1.135 1.000 1.575 -0.417 -0.019 0.276 -1.777 -1.221 1.756 -1.233 -0.209 -1.205 -0.570 0.353 -0.459 -0.240 0.867 -0.725 -0.853 -1.759 -2.125 0.873 -1.538 -2.157 -0.824 0.920 1.130 -0.502 -0.064 0.281 0.048 0.433 -0.519 -0.143 -1.142 2.036 -1.049 -0.412 -1.083 1.721 -0.006 1.007 0.303 -0.923 -0.479 -0.335 0.524
0.095 -0.652 0.214 0.788 -0.530 -1.017 -1.639 0.205 0.041 1.014 -0.123 1.374 1.060 -0.123 1.077 0.399 -0.776 -0.009 -1.332 0.467 0.003 -0.061 0.476 0.058 0.411 0.050 -0.268 -0.317 -0.840 -2.560 0.587 -2.211 -1.698 -0.328 1.527 -1.098 0.086 0.913 -1.216 -0.707 -2.027 -0.320 0.464 -1.246 -0.159 -1.267 -0.711 1.422 1.488 0.888 0.125 -0.349 -0.137 -0.809 -0.041 -0.356 -1.507 -0.018 -0.297 -0.782 0.173 0.163 3.005 -0.167 -0.009 -0.627 -1.776 0.270 0.868 -0.583 1.163 -1.377 -0.030 -0.156 -0.929 0.418 0.109 0.017 -0.293 0.674 0.338 1.389 1.750 -0.361 0.722 -0.909 -0.325 -0.051 0.297 -0.309 -0.895 -2.198 0.066 0.206 0.341 -1.935 -0.159 0.949 1.634 0.896
-1.726 -1.153 -1.596 -0.482 -0.098 0.747 -0.755 0.514 -0.182 0.097 0.825 -0.440 -0.329 1.886 0.309 0.421 1.316 0.410 -0.091 -0.133 0.007 0.563 -0.879 1.057 0.868 0.029 -0.358 1.520 0.068 -1.162 -1.168 -0.086 -2.803 -0.350 -0.282 -0.262 -0.519 0.491 1.715 1.682 1.126 -0.229 0.827 1.503 -0.992 -0.334 -0.261 -2.847 1.018 -0.417 0.634 -0.260 -0.731 1.815 -0.987 0.446 -0.036 -1.132 -1.053 0.759 -0.825 -0.976 0.370 3.433 0.368 -0.268 1.016 3.271 -0.828 -0.213 0.781 0.043 -0.195 -0.051 0.836 0.062 -0.524 -0.016 -1.128 0.394 -0.194 -0.799 0.793 2.385 1.234 -0.307 2.328 -0.498 1.935 0.877 0.504 0.108 0.911 -0.454 1.884 2.044 -0.622 0.676 0.515 0.935
-1.244 -0.134 0.127 0.585 0.870 0.076 0.155 0.069 -0.650 0.150 -2.109 0.789 0.227 1.096 -1.650 1.731 -1.132 0.316 -0.095 0.757 -0.238 -0.070 0.285 -1.227 1.217 -2.002 0.726 0.425 0.234 -0.699 2.365 -1.815 0.649 0.884 -1.015 1.237 -1.085 -0.221 -0.493 -1.193 1.036 -0.424 -0.190 -0.810 0.079 1.390 0.274 0.724 0.571 1.777 -0.597 0.380 -1.809 -0.876 -0.208 -1.267 0.654 1.273 -0.573 -1.043 0.463 -0.632 0.371 1.299 0.123 0.681 -0.254 -0.327 -0.342 0.425 -0.260 -0.970 1.243 0.353 -0.902 -1.987 1.533 0.256 -0.516 -2.681 1.192 0.538 0.887 0.657 -1.765 1.369 0.610 0.038 0.946 -0.003 0.706 -1.697 -0.491 0.001 -0.433 -0.585 -0.495 1.374 0.471 -1.170
-0.439 1.048 -0.508 -1.119 -0.332 1.531 0.952 0.315 1.103 -0.658 0.807 -0.208 0.481 0.481 1.236 -1.433 -0.480 0.772 0.743 -0.106 -1.357 0.392 -0.144 0.002 0.763 -0.828 1.001 -0.815 -1.675 0.140 -1.222 -0.484 -0.164 1.228 -0.568 0.616 1.269 0.963 0.557 0.349 0.514 0.785 -1.068 -0.043 1.534 -0.389 0.888 0.001 1.344 -1.219 0.879 0.030 0.224 -1.154 0.232 -1.037 -1.917 1.247 -0.413 1.614 -0.927 -0.466 -0.864 -1.335 -1.470 0.480 0.838 -0.008 -0.059 -1.762 -0.847 0.608 -0.471 -1.258 -0.909 -0.071 0.086 2.084 -0.548 1.266 -1.298 -1.560 2.088 0.306 -1.188 1.300 0.850 -0.839 -0.211 -1.671 -1.329 -1.220 0.582 1.045 -0.898 1.476 0.234 -1.087 -0.514 -1.098
-1.250 0.683 0.515 1.180 0.361 1.298 0.974 -0.864 0.726 -0.471 0.077 0.627 -1.257 -0.794 0.112 -0.628 1.539 -0.984 0.482 2.313 -0.684 0.844 -1.203 -2.390 -0.658 0.658 -2.122 0.594 -0.919 -1.139 0.377 1.068 0.638 -0.459 0.348 -0.126 -0.068 -1.602 -0.171 0.349 0.070 0.332 -0.149 -0.104 -0.307 -1.084 -0.913 0.332 -0.772 1.871 0.114 -0.408 -1.116 1.545 -0.034 -1.295 0.434 1.639 1.979 0.480 -0.470 -0.148 -1.630 1.051 1.708 1.100 0.583 1.240 0.514 -1.344 -0.276 -1.576 0.582 1.346 -1.892 -1.332 -0.060 -0.863 1.281 -1.535 0.196 -0.354 0.406 1.218 0.206 0.321 0.310 -2.160 -0.024 0.464 -1.152 -1.419 -0.541 1.679 -0.804 -1.005 0.033 0.578 -0.246 -0.591
-1.406 -0.614 -0.261 -0.899 -2.270 -0.562 -2.407 -0.241 -0.738 0.862 -0.638 -0.330 1.276 -0.401 2.294 0.001 0.939 -0.267 1.902 1.554 -0.728 0.449 0.145 0.970 -2.189 -0.388 -1.753 0.709 0.781 0.284 0.432 0.361 -1.887 0.572 0.207 0.309 -0.885 -0.724 0.848 0.636 0.602 0.074 0.838 -0.072 0.198 0.400 0.333 -1.105 -1.177 1.935 0.350 0.122 -1.536 -0.427 -0.067 0.779 -0.961 0.045 0.292 -0.939 -0.116 0.800 1.633 0.177 -0.097 1.022 -0.284 1.840 -1.114 1.042 0.001 -1.033 1.028 0.160 0.205 0.356 0.881 -0.928 -0.729 1.159 -0.733 0.783 -0.065 -0.998 0.422 1.111 0.530 1.028 -1.438 1.247 0.333 1.921 0.411 -0.605 -0.237 -1.984 0.670 1.985 -0.542 -0.295
-1.473 -0.640 -0.423 0.984 1.681 0.902 1.975 0.931 0.910 -0.460 1.776 -0.100 -0.522 -0.403 -0.780 0.344 -0.773 0.533 -0.264 0.264 1.313 -0.570 0.142 0.676 0.144 1.566 -0.453 -0.176 -0.845 -2.130 0.657 1.200 0.190 -0.706 0.392 -0.361 0.518 0.310 -1.017 0.347 -1.566 0.338 -0.462 0.260 -0.948 0.087 2.238 -1.024 -0.363 -0.769 -2.583 -0.090 0.304 -0.511 1.017 -0.658 0.769 1.611 0.657 -0.570 -0.448 0.233 1.453 -1.837 1.060 -1.264 0.610 -0.169 0.625 -0.208 -0.663 0.332 -0.445 0.217 0.818 -0.298 -1.883 -0.685 0.133 -1.145 -0.157 0.154 -0.337 -1.601 2.255 -1.217 1.158 0.283 0.726 0.347 1.017 -0.462 -0.027 -0.827 -0.374 1.644 0.135 -0.431 -0.807 0.348
0.754 -0.519 -0.994 -0.451 0.231 -1.527 -1.107 -0.352 0.635 -1.049 -1.023 0.580 0.267 -0.672 1.798 0.735 -0.896 -0.775 1.013 -0.381 0.113 0.253 -1.057 -1.612 0.305 0.680 -0.232 -0.918 -0.122 -1.012 -0.817 -1.717 -0.703 0.654 -0.009 0.031 -1.089 0.410 -0.778 -0.445 0.729 -1.738 -0.831 -1.414 -1.997 1.702 -0.955 0.635 -0.661 0.590 0.177 0.543 0.022 -0.394 -0.342 1.243 -0.135 -1.502 -0.135 -0.166 0.375 1.271 0.283 0.138 0.603 0.540 0.776 0.385 0.140 0.238 -0.384 -1.203 -0.185 2.006 -1.158 -0.860 0.197 -0.145 -0.296 1.738 -0.622 0.022 0.281 0.063 0.446 1.010 -1.719 0.015 0.890 1.410 0.411 2.907 -0.738 1.607 -0.509 0.690 -1.915 -0.312 -1.985 0.855
-0.162 0.590 -1.049 0.123 0.873 0.228 -0.597 -0.092 1.027 0.476 2.916 -0.961 -0.117 0.293 1.249 -1.054 -0.556 1.159 0.791 -1.249 -1.384 0.063 -0.625 -0.487 1.330 -2.562 0.973 -1.129 0.048 0.303 -1.170 -0.987 1.090 -0.517 2.242 -0.147 -0.086 -0.474 -0.699 -0.137 -1.226 -0.313 -0.158 1.143 -0.213 -2.018 0.001 -0.129 -0.928 -0.154 1.358 1.963 -1.318 -0.492 -0.268 -0.319 0.293 -0.219 -1.936 -0.715 0.278 3.349 -0.083 -1.385 -0.350 1.011 -0.510 -0.733 1.364 0.404 -0.015 0.985 2.487 0.513 -0.154 -0.224 -1.978 0.848 1.193 0.340 -1.591 -0.219 -1.945 -0.773 -0.440 1.611 0.805 1.021 -0.333 0.012 -0.000 0.188 0.612 -2.082 -2.259 0.410 0.743 -0.519 1.629 -0.264
1.117 0.014 -0.767 -2.027 0.054 -2.452 -1.157 -1.339 0.311 -0.422 -0.635 1.153 -0.977 1.753 0.019 0.457 0.842 0.295 -0.194 -0.541 0.498 -1.917 1.105 -0.256 -0.022 1.495 -1.980 0.620 -0.541 -1.394 -0.012 0.824 0.822 -0.436 0.018 0.587 -0.203 0.682 -0.824 -0.775 -0.881 -0.662 -0.399 0.820 -0.662 0.111 -2.208 -2.647 -0.546 -0.580 -0.808 0.572 0.237 -0.633 0.977 -0.078 -0.682 0.236 -0.428 -0.335 -0.204 0.464 -0.638 -0.897 1.077 0.984 -0.180 -1.291 -1.089 -0.501 2.630 -2.155 -1.152 -0.459 0.789 -0.679 1.280 1.218 0.386 0.291 -0.594 0.668 1.133 0.819 0.257 -1.682 -0.361 0.961 -0.816 -0.258 0.391 -0.989 1.135 -1.911 -1.357 -0.463 -1.247 -0.834 1.793 1.146
-0.087 -1.063 0.704 1.194 -0.368 -1.293 0.854 -0.392 0.840 1.029 -2.083 1.035 -0.507 0.942 -0.780 -1.663 0.016 0.902 -0.551 0.438 0.616 -1.422 0.738 -0.574 0.859 0.903 -1.850 -0.035 0.371 -0.027 -0.123 0.051 -0.345 1.867 -1.398 -0.045 0.427 0.249 0.032 -1.381 -2.565 1.601 1.443 1.665 -0.336 -0.678 -0.614 -0.301 0.651 -2.386 -1.455 -0.310 1.016 -0.715 -0.818 0.904 -0.716 -0.237 0.671 0.548 0.474 -0.657 0.514 0.564 0.692 0.396 1.268 -0.032 1.163 -0.537 -0.648 -0.999 -1.242 -0.457 1.488 -0.819 0.277 1.905 0.047 -1.402 0.268 0.746 0.589 0.015 0.909 -0.902 -1.123 0.194 -0.324 0.490 0.733 -0.400 0.149 -0.966 0.837 0.841 -0.280 0.630 -0.496 0.347
-2.386 0.463 -0.392 2.627 0.682 -0.884 -0.628 1.671 -0.809 -0.263 0.517 2.691 -0.248 -0.084 -0.431 -0.576 -0.656 -1.083 0.215 -0.065 -1.217 -0.540 0.128 0.970 -0.446 0.437 -0.198 0.014 1.151 0.483 0.188 -1.054 0.597 -0.014 2.236 -0.938 0.354 0.918 -0.445 -0.980 0.482 0.416 -0.581 1.503 -0.359 -0.883 0.083 0.893 1.501 -0.239 0.637 -0.245 -0.297 0.918 -0.881 0.641 0.120 1.228 -0.207 -0.064 1.040 0.191 -0.805 0.337 1.856 0.186 -0.374 0.117 -0.495 1.432 0.223 -0.929 -1.345 -0.780 -1.053 0.191 -1.420 -1.268 -0.229 0.910 0.086 -1.049 1.060 0.330 0.720 1.357 0.327 0.378 1.746 -0.529 0.815 -1.184 -1.147 -1.887 -0.695 0.590 2.215 -0.736 -0.386 0.068
0.580 1.354 -0.611 -1.327 2.026 0.685 -0.335 -2.117 2.003 1.025 -1.019 -0.082 1.721 0.233 1.218 -0.090 -0.419 2.045 1.603 1.976 -1.137 1.851 2.063 -0.343 -0.030 -0.528 -0.544 0.945 0.966 0.573 2.052 -0.078 0.508 -0.090 -0.725 0.434 -2.168 -0.462 -2.340 -0.778 -0.583 1.259 -0.739 0.704 1.074 0.526 0.089 -0.063 -0.963 0.318 -0.050 -0.302 0.562 -0.942 0.401 0.589 -0.374 0.855 -0.307 0.108 1.611 0.990 -2.508 0.897 2.128 0.402 -1.007 0.048 0.719 0.454 0.569 0.223 -0.069 0.169 -0.338 -0.760 -0.432 0.493 0.245 0.967 0.809 -0.258 -0.284 0.061 0.824 1.378 0.492 -0.552 -0.336 -1.079 0.280 0.884 -0.714 -0.592 1.798 -1.414 -1.851 0.648 2.025 1.481
0.641 -0.377 1.149 -0.408 -0.511 0.455 -0.661 -1.153 -0.049 -0.095 -1.097 -0.886 0.247 -0.065 -1.666 -0.509 0.916 0.379 0.414 1.142 1.573 -1.864 1.045 -0.933 0.789 0.863 2.083 -0.038 -1.270 0.112 -1.273 -0.894 0.633 0.224 -0.318 0.492 0.958 -1.487 -1.733 -0.970 -0.263 -0.234 -0.820 0.529 0.229 -0.661 -3.118 -0.266 0.961 -0.221 1.683 -2.206 0.247 0.259 -1.308 -0.817 0.142 1.333 -0.472 2.193 2.027 -0.188 -0.908 -0.356 -0.828 -1.314 1.818 1.470 2.555 -1.345 0.989 1.620 1.515 -2.004 -1.731 -0.534 -0.047 0.808 -0.303 1.244 1.070 -0.773 -1.188 -0.348 1.317 -0.520 -1.216 -0.775 -1.099 2.030 0.726 0.006 0.847 -0.595 0.478 0.721 -0.243 -0.387 -1.326 -0.143
-0.101 0.199 -0.193 0.359 -0.636 0.784 -0.900 -0.497 -0.170 2.034 -0.550 0.859 -0.488 -0.718 -0.212 -0.773 -0.221 0.897 0.888 -1.532 0.306 -0.660 0.271 0.177 -0.254 -0.166 -1.852 0.803 0.629 -0.296 0.363 -1.396 0.131 0.238 1.229 -2.178 -0.752 0.800 0.823 0.097 0.006 0.936 0.885 0.309 -0.195 1.062 0.495 -0.855 -0.415 -0.651 -0.418 0.290 0.607 1.492 -1.325 -1.582 0.872 0.995 0.261 0.012 0.912 -0.355 -0.450 -0.879 0.570 -0.225 0.272 -0.582 -0.086 0.315 0.016 -1.009 1.596 -0.215 0.927 -0.614 2.743 1.144 0.179 0.016 -0.822 -0.395 -2.211 2.044 -1.108 -0.485 2.217 1.580 0.604 -0.527 -1.234 -0.110 0.032 -0.142 -1.658 -0.496 0.215 1.640 -1.763 0.864
0.032 -0.603 1.579 0.154 0.875 -1.502 -2.427 0.995 1.582 -1.396 0.587 -0.215 1.018 0.158 -1.111 1.269 0.962 -0.565 0.102 0.396 0.041 0.057 -0.625 0.361 -0.040 0.715 0.732 1.278 -1.116 0.887 -0.140 -0.479 -0.050 -1.272 0.784 0.268 -2.209 2.399 1.208 -0.947 1.362 1.127 0.061 3.521 -0.374 -0.472 0.280 0.227 -1.401 1.051 -2.626 0.383 1.167 2.101 0.098 0.384 -0.402 -1.349 -0.927 -0.701 0.775 1.661 -0.508 1.386 0.641 0.025 0.499 0.366 0.991 -0.184 0.520 -1.316 -0.843 -1.843 -1.145 -0.156 -0.074 -1.137 -1.666 -0.627 -0.195 0.260 0.987 0.028 0.534 0.102 -0.507 1.078 1.939 0.062 -0.385 -1.583 -0.358 -0.995 0.208 1.343 -0.262 -0.357 0.240 -0.387
1.654 -1.135 -0.789 0.914 0.753 -0.186 0.624 0.703 -1.878 -0.972 -0.845 -0.045 -0.508 -0.626 0.568 -0.347 1.871 2.337 -0.696 -1.357 -1.068 -1.003 1.107 -0.284 -0.695 -1.493 -0.489 -0.279 1.368 1.010 -0.556 -0.166 1.655 0.741 0.832 0.357 -0.685 -0.354 1.026 -0.730 0.169 -0.686 -1.053 0.553 0.050 -0.798 1.014 0.680 -0.387 0.474 -0.316 -0.581 -1.126 0.326 -0.163 -0.424 -1.010 -1.341 -1.321 0.279 1.505 -0.673 -2.920 -0.933 0.112 -0.220 2.002 -1.294 0.614 -0.988 -0.138 0.007 -0.420 -1.145 -1.870 -1.007 0.880 0.485 -0.035 0.463 0.587 -1.120 1.170 1.636 -0.759 -0.597 -1.745 0.439 -0.207 0.334 0.605 0.488 0.303 -0.796 -0.494 1.434 -0.676 -0.554 1.652 -1.013
-0.591 -0.086 -0.271 -2.296 -1.451 -0.421 -0.056 -2.118 -0.260 2.228 -0.338 -1.726 -0.553 0.355 1.195 1.869 -1.126 -0.635 0.065 1.457 1.164 -0.862 0.420 -0.431 0.280 -0.861 -0.681 -0.637 0.537 0.050 -0.151 -0.797 -1.513 -0.567 0.923 -1.960 0.380 -0.015 -0.392 -0.567 1.777 1.406 0.410 -0.222 -0.236 1.061 0.522 0.284 0.716 0.318 -0.285 0.049 -0.360 0.273 -1.518 0.477 -0.141 1.229 -0.528 -0.401 -2.052 1.110 -0.324 -0.723 -1.933 0.231 0.292 -0.083 2.609 0.662 0.113 1.276 0.696 1.335 0.168 -0.929 0.048 -2.479 -0.663 0.518 0.479 2.005 -3.383 0.874 0.299 -0.254 -1.314 0.999 1.799 0.454 -0.524 -1.662 -1.037 0.914 0.244 -1.445 -1.938 -1.882 1.186 -0.061
0.572 -0.241 -0.796 -0.884 -0.991 0.618 0.686 0.464 0.741 -1.582 -0.238 0.441 0.487 0.350 -0.261 -0.497 -0.547 1.412 0.502 -1.330 -0.448 0.797 -0.052 -0.915 -1.068 -0.661 -0.286 -0.585 1.782 -1.117 -0.021 1.641 0.023 0.290 0.208 -0.846 -0.480 0.204 -2.873 -1.326 1.498 -0.493 -0.694 1.329 -0.325 0.618 1.488 -0.234 -0.023 0.231 0.383 -0.407 0.848 -0.175 -1.223 0.653 0.899 -2.569 -0.276 1.399 1.595 1.037 -1.176 -0.052 -0.043 -2.609 0.370 -0.426 0.524 -0.589 -1.107 0.577 -1.215 1.517 -0.148 2.483 -0.160 -0.397 -0.763 -0.075 -0.277 0.197 -1.838 1.827 1.100 1.163 1.321 0.706 0.110 0.365 -0.477 0.401 -0.642 1.204 0.486 0.235 -1.491 2.233 2.420 0.096
-0.489 -1.596 0.386 -0.238 1.011 -0.528 -0.890 -0.948 -1.617 0.218 2.765 1.691 -0.021 1.119 -1.181 -0.097 -0.155 0.154 0.026 -1.042 0.225 -0.188 -1.159 -1.529 -0.640 -0.649 -1.043 -0.615 -0.184 -0.612 -0.824 0.828 -1.247 0.157 2.598 0.194 1.872 -0.678 -0.577 -1.725 -1.212 0.505 -0.240 0.182 1.036 -0.305 0.148 -0.408 0.916 -2.312 0.337 -0.715 -0.785 0.248 -0.979 -2.050 0.797 1.222 -0.724 -2.294 0.628 -1.791 -1.314 2.545 0.600 -1.349 -0.583 -0.485 0.131 -0.284 -0.439 -0.717 1.601 1.761 0.103 -0.518 -1.597 0.181 -0.144 -0.449 -1.414 -0.501 -0.677 0.186 1.311 -2.270 -0.714 -2.714 -0.203 -0.884 0.494 -1.069 -1.354 -0.382 -0.950 -1.291 0.941 0.679 -0.950 -1.016
-1.574 -0.658 0.001 -0.127 1.908 1.963 0.534 -0.551 1.029 -1.479 0.846 -0.548 0.112 -0.903 -0.488 -0.420 -0.848 0.306 2.721 -0.205 -0.546 -0.728 -0.518 -0.427 -2.822 -0.423 -0.022 0.836 -0.521 -0.184 -0.618 -1.021 -0.038 -2.030 0.423 0.316 -1.126 -0.981 0.171 -0.089 1.483 1.245 -1.585 0.341 -0.505 -0.771 -0.329 -1.419 -2.115 0.248 -1.561 0.499 -0.016 -1.251 0.410 -1.352 -1.494 -0.610 0.939 -0.125 -0.761 0.253 -0.568 -0.723 -0.822 1.598 0.598 1.828 -0.330 1.610 0.207 -0.080 0.274 0.824 -1.197 0.205 -0.459 -1.352 1.453 0.071 -0.733 1.266 -2.180 -0.859 -0.665 -0.331 -1.547 1.529 1.463 1.614 0.132 -0.939 0.177 -0.987 -0.330 0.282 0.263 0.599 -2.419 -0.668
1.104 -1.524 0.204 2.003 -1.187 0.302 -0.526 0.029 -0.007 1.760 0.311 -0.830 1.395 -1.593 -0.986 -0.151 -0.516 -0.500 1.090 3.696 1.396 0.216 1.058 -0.421 -0.512 0.388 0.141 1.444 -0.691 -0.764 0.331 0.428 -1.534 -1.510 1.193 1.662 0.148 -0.754 0.451 -0.973 -1.146 0.650 -0.855 -0.518 0.108 -1.326 -2.598 1.409 0.078 0.510 0.638 -0.033 0.264 0.626 -0.031 -0.334 1.257 -1.514 -0.490 0.879 -1.139 -0.551 -0.652 -1.409 1.515 0.251 -0.039 -2.092 0.037 -2.565 -0.966 0.519 -0.696 0.294 -0.689 0.442 1.875 0.321 -0.518 0.240 -0.554 0.544 1.820 0.788 0.465 0.507 -0.878 -1.156 1.023 -0.647 0.406 1.512 -0.503 -0.443 0.453 0.666 -0.853 -1.574 0.124 1.173
-0.426 -1.227 0.191 0.403 -1.287 -0.120 -1.112 1.325 0.271 1.505 0.151 0.535 0.768 -0.748 -2.092 0.972 -0.529 -0.091 0.087 1.710 0.399 1.284 0.930 -0.468 -1.273 -0.056 -0.309 1.624 1.491 0.395 -0.950 -1.569 -1.302 0.880 -0.237 0.409 1.029 0.692 0.662 -0.075 1.881 -0.494 1.514 -0.608 1.565 2.264 0.680 -1.403 -0.102 0.316 -0.481 0.061 -0.638 -0.687 0.793 -0.574 0.884 -0.233 -1.166 -0.324 0.238 -1.586 -1.276 -1.586 0.034 -0.633 -0.586 1.385 1.440 -0.601 -0.298 -1.284 -0.787 0.580 1.491 0.506 2.083 0.081 -0.393 0.004 -0.462 -1.455 1.098 -0.570 1.225 0.711 0.672 0.038 -0.033 -0.678 -0.631 0.028 0.037 -1.421 1.365 -1.301 1.405 1.407 0.455 -0.163
-1.999 0.143 -0.354 -0.293 2.160 1.388 0.113 -0.184 -0.351 0.590 -1.069 0.147 0.452 0.974 0.374 -1.353 -0.712 -0.329 0.159 -1.078 -0.325 0.881 -1.394 0.218 1.197 0.870 -0.549 -1.130 0.476 -0.578 2.321 0.944 1.038 0.446 -0.069 0.583 0.297 -1.343 -0.652 0.235 -0.335 0.218 1.370 0.994 -0.153 2.658 -2.315 -0.770 -1.183 -0.149 -1.269 -1.215 -0.760 -0.661 -1.150 1.671 -0.790 -0.032 0.216 0.053 -1.033 0.525 0.343 -0.738 0.491 -0.695 -1.680 0.885 -0.701 0.929 0.157 -1.406 -1.489 -0.082 -1.799 0.055 1.272 -0.827 2.113 1.283 -0.985 0.376 -0.260 0.696 -1.602 -0.976 -0.783 -0.556 -1.083 -0.976 -0.792 0.711 -0.654 0.825 -1.059 0.525 -1.087 2.466 0.389 0.515
-0.941 -0.076 1.650 0.991 1.128 0.515 -0.060 0.356 1.523 -0.774 -1.708 -0.523 0.450 0.833 1.096 -0.008 1.123 0.244 0.729 0.773 -0.071 1.397 0.329 -0.530 0.921 -1.007 0.964 -0.615 0.068 0.805 -0.491 0.871 -0.592 -0.053 -2.929 1.581 -1.144 -0.416 1.118 -0.480 -0.568 2.014 -0.239 0.169 0.295 -0.567 0.527 -1.408 0.930 0.142 0.300 -1.321 0.611 -1.313 -1.895 -0.176 -0.776 -0.285 1.826 2.231 -0.654 1.039 -0.626 0.896 -0.863 0.494 0.609 -0.172 -0.230 1.849 0.806 -0.316 0.225 -0.188 0.279 0.540 1.954 -1.050 0.783 -1.431 0.325 -0.821 -0.586 -2.145 1.608 0.898 1.251 -0.436 0.647 -0.583 -0.930 -0.609 -0.431 -2.784 0.379 -0.108 0.447 0.235 1.755 -0.301
-1.817 -0.653 -0.241 -0.457 -0.282 1.293 1.053 0.419 0.212 0.529 -0.424 -0.897 -0.420 -0.577 -0.853 -1.361 -0.336 0.274 0.688 0.460 -0.429 -0.418 0.559 0.077 0.686 -0.775 0.702 1.742 -0.013 -0.990 0.734 -2.707 0.477 0.238 1.606 -0.149 -1.904 1.269 0.177 0.636 0.286 -0.421 -0.913 0.098 1.453 -0.944 -1.200 -0.252 0.340 -1.187 0.759 -0.645 2.567 0.084 -0.122 -1.276 0.507 -0.276 0.263 -0.151 0.787 0.524 -0.620 1.196 0.299 1.107 0.981 0.176 -0.840 1.623 -0.380 1.194 2.600 -0.855 1.092 0.103 -0.468 1.977 -0.084 0.113 0.141 0.273 -0.101 0.812 2.611 -1.083 0.329 1.100 1.983 0.096 -0.434 1.192 0.391 -0.263 -0.254 0.757 1.245 1.452 -2.129 0.417
-0.212 -0.222 0.206 -0.445 -0.580 -1.221 0.230 -0.249 0.102 0.643 0.550 -0.732 -1.713 2.047 1.109 -1.485 -0.844 -0.834 0.200 -0.765 0.132 -0.339 0.327 -0.321 -0.930 0.969 -1.065 -1.433 -0.210 -0.308 0.597 -0.401 -0.412 -1.480 1.223 -1.880 -0.702 -1.366 -1.214 0.331 -0.819 1.255 2.516 0.683 -1.519 -1.031 -1.148 0.462 0.747 -1.273 0.550 -0.976 0.220 0.429 2.224 1.474 1.071 -0.168 -0.923 2.485 -1.089 0.263 -0.234 -0.021 0.277 1.296 0.399 -1.587 -1.325 0.059 0.537 -1.125 0.587 0.096 0.355 -0.393 0.923 0.975 -1.473 1.614 -0.310 -0.540 -1.981 1.638 2.936 -0.745 0.526 -0.328 0.821 0.595 0.237 -0.018 0.749 -0.970 -0.820 0.672 0.429 -0.384 1.323 -0.157
-0.185 -1.485 -0.683 -1.656 -0.937 0.066 0.429 0.012 -0.286 0.464 -1.080 -0.559 -0.140 -0.517 0.495 1.206 -3.061 -0.147 0.635 -0.140 0.754 -0.083 -0.683 -0.669 -1.351 -0.758 0.371 -1.874 -0.009 2.062 -0.093 -0.230 0.467 -1.508 0.279 -1.026 -0.464 -1.293 0.940 -1.121 0.468 -0.685 0.721 0.162 -0.699 1.609 1.301 -0.505 -1.546 -0.346 0.713 -1.003 1.100 -0.969 -0.850 -0.024 1.336 -1.063 0.738 0.085 0.986 -0.969 0.193 0.463 0.269 -1.533 -0.469 0.572 0.182 0.613 0.004 -0.275 0.027 -0.056 1.255 0.782 1.618 -0.324 0.164 1.193 -1.183 2.447 -0.565 1.415 -0.215 -0.427 0.151 -0.683 1.243 1.682 0.349 -1.179 -0.245 1.558 -0.116 -0.670 0.718 -0.418 -1.259 -0.827
-0.160 0.490 -0.087 0.748 0.686 0.648 1.134 -0.900 -1.188 0.238 -0.362 0.318 -1.341 -0.323 0.208 0.252 -0.012 -1.105 1.677 -0.712 -0.197 -2.095 -0.410 0.014 2.623 1.324 -0.343 0.105 1.619 1.207 -1.697 -1.027 -2.153 -0.664 -1.053 -0.732 -1.697 0.415 0.529 0.167 2.124 -0.825 -0.671 -0.900 -0.670 -1.518 1.998 2.054 0.557 1.450 0.435 -0.513 -0.232 -0.152 -0.682 0.267 -0.426 -0.419 -0.445 -0.195 1.225 0.769 -0.595 -0.599 0.686 0.128 -0.369 0.709 -2.030 1.129 -0.811 1.095 0.188 -0.654 -0.367 0.688 1.829 -1.314 -0.617 2.327 -0.048 2.408 -0.734 0.210 1.567 1.315 -0.757 0.629 -1.078 0.527 -1.619 -0.273 1.801 0.922 0.341 -1.425 -1.157 -1.242 -1.196 -0.337
3.150 0.001 -0.524 -0.677 -2.423 0.910 -0.304 -0.439 1.352 0.742 -1.452 -0.280 0.542 1.643 1.030 -0.049 -0.485 -0.627 -0.030 -0.456 -1.046 0.089 1.083 0.004 0.901 -1.217 -1.764 0.965 0.765 0.589 0.492 -0.431 -0.680 1.313 1.203 -0.731 1.281 -0.919 0.775 -0.545 -1.291 0.756 -0.114 0.018 0.029 2.607 0.642 -0.158 1.098 2.159 0.566 -1.981 1.599 -0.446 -1.440 -0.010 0.537 -0.423 -1.378 -1.817 -0.537 -0.768 -1.006 -0.476 -1.054 1.116 0.305 1.281 -0.133 1.523 0.130 1.151 -1.279 -1.122 -0.030 -0.220 0.499 1.045 0.996 -0.957 0.829 -0.754 0.549 1.718 2.284 0.066 0.530 -1.330 0.387 1.447 -1.476 -0.738 0.660 -0.356 -0.669 -1.165 0.496 0.736 2.111 -1.632
-1.310 0.005 0.870 0.467 1.048 0.416 1.572 -2.563 -0.507 -0.042 -0.954 -0.205 0.130 1.777 0.270 0.948 -0.047 -1.539 -0.095 -0.782 -0.208 -1.228 -0.556 0.250 1.414 -0.171 0.254 -0.604 1.897 1.469 -1.952 -0.487 0.212 -0.095 -0.969 -0.710 1.177 -0.391 1.465 0.699 0.586 -0.417 0.748 0.846 -0.220 0.044 -2.023 0.223 0.168 0.151 0.545 -0.864 0.525 -0.508 -0.110 1.949 -1.472 -1.285 -0.116 -0.768 0.961 0.053 -0.201 -0.250 1.133 0.784 1.729 0.648 1.116 -0.512 0.613 -1.165 -0.992 -2.029 -1.177 1.387 0.564 -1.116 1.965 0.377 -2.407 -0.175 0.002 -0.696 -1.515 0.901 -0.007 -0.443 0.380 -0.200 -1.596 -0.096 0.255 0.960 0.252 1.407 0.271 -1.324 0.980 0.565
-1.080 -0.127 -0.564 -0.434 -1.752 0.165 -0.328 -1.467 1.302 -0.852 -2.652 0.553 0.321 1.068 -1.575 0.003 -0.731 -0.365 -0.878 -1.767 2.269 -0.246 0.516 -0.928 0.266 -0.287 0.030 0.553 -0.039 -2.009 -0.183 0.395 -0.443 0.603 1.525 0.287 -1.960 -0.877 0.788 -2.392 -1.378 -1.793 0.493 1.680 0.724 0.614 0.139 0.064 0.582 -1.282 2.139 0.829 0.863 0.975 -1.312 -1.202 0.493 -1.451 2.102 2.279 -1.084 -1.404 -1.092 1.568 -0.201 -0.071 0.213 0.422 -0.496 -0.286 0.055 -0.551 0.371 -0.485 -0.550 0.551 -0.183 -2.106 0.419 -0.517 -0.844 0.055 0.785 0.763 -0.903 -0.000 1.240 -1.787 0.151 0.524 0.507 0.818 0.226 -2.368 -1.066 0.559 0.540 -0.699 -2.111 1.346
1.152 0.988 0.029 0.161 -1.002 -0.066 0.515 1.071 0.027 0.636 0.566 -0.227 0.638 -1.260 0.626 -0.339 0.875 0.017 -0.586 1.227 -0.238 -0.425 -0.702 -0.883 -0.276 1.915 -1.030 0.843 1.183 1.325 -1.163 0.471 -1.000 0.776 -1.328 -1.252 -0.857 1.670 -2.030 -1.409 -0.665 -0.556 0.699 -0.329 0.798 0.085 0.087 -0.159 -1.271 0.437 0.883 0.205 1.420 1.536 -1.559 -1.510 1.600 0.668 -0.470 -0.712 1.058 -1.119 1.530 -0.223 0.001 1.022 0.096 0.816 0.861 1.807 -0.285 0.231 0.343 -1.994 -0.281 1.573 -2.397 -0.141 -0.718 0.529 1.607 -0.166 -0.640 0.418 -1.127 -1.124 1.482 0.158 -0.318 -0.572 0.686 -0.219 0.878 1.130 0.566 -1.025 -0.705 0.588 1.271 0.125
-0.699 1.743 -0.641 0.404 1.069 -1.316 0.317 1.319 -2.150 1.127 -1.885 1.214 -2.548 -1.025 -0.701 -0.828 -0.371 -1.603 -0.375 -0.535 0.567 0.334 -0.767 -0.466 -0.098 -1.901 0.155 -0.943 0.569 0.197 -0.485 -0.425 -1.292 0.967 -0.112 1.131 0.567 -1.491 -1.019 -2.483 1.021 -1.403 0.485 1.621 0.772 0.333 -0.536 -0.111 -0.364 0.184 -0.754 1.157 -0.231 0.257 1.105 -0.679 -1.781 -0.707 1.286 1.104 -1.261 -0.344 0.756 -0.273 -1.035 1.411 1.184 1.033 -2.251 1.280 -0.460 -1.758 1.093 0.772 -0.589 -1.394 -0.334 -2.153 -1.368 1.945 -1.178 -0.125 1.456 -0.177 0.342 0.440 -0.610 1.508 -0.300 -0.623 0.532 -1.466 1.437 -0.230 0.014 1.321 1.174 -0.265 -0.973 1.134
-1.009 0.194 -0.051 -1.195 0.695 0.757 -0.596 1.736 0.498 -0.727 1.816 -0.944 1.355 -0.142 1.044 0.289 0.112 -0.803 1.224 1.113 -0.646 -0.254 -1.031 -0.711 -0.811 0.085 0.660 -0.417 0.706 -0.348 -0.306 1.824 0.682 0.539 1.063 0.756 -0.700 -0.451 -0.178 -0.791 -0.268 -0.655 0.741 0.243 -0.560 2.471 -0.428 0.412 -0.948 -1.036 -1.138 0.483 -0.802 1.612 -0.161 -0.566 1.403 -0.053 1.524 0.736 0.692 0.686 1.101 -0.011 -0.743 -0.947 1.352 -0.181 2.211 -1.271 -0.506 0.173 1.035 0.291 -0.125 -0.202 1.279 0.879 0.624 -0.462 -0.426 -1.198 -0.269 0.407 0.142 0.025 -0.288 0.518 -0.787 2.617 -1.341 -0.475 1.428 0.744 0.374 0.655 -0.984 0.248 0.056 -1.616
-1.450 0.883 -0.940 0.719 -1.459 0.767 -1.534 -0.911 1.358 -2.110 -1.011 -0.552 1.001 -0.159 -0.364 0.332 -0.772 -0.717 2.113 -0.990 -0.634 0.605 0.272 -1.185 -1.331 -1.669 -1.215 -0.239 -2.040 -0.286 0.737 -0.208 -0.580 -0.903 -1.713 1.137 -0.239 -0.219 0.449 1.103 -0.504 -0.161 0.302 0.276 1.700 -1.098 1.045 0.778 -0.078 1.958 0.104 1.517 0.699 0.226 -0.884 -0.750 -0.914 -0.700 -1.013 -0.480 -0.245 -1.682 0.592 1.598 1.360 1.614 0.817 0.626 -0.020 0.113 0.548 2.434 1.241 -0.013 -0.127 -0.699 -0.339 -1.393 0.861 0.876 1.018 -0.329 0.345 0.932 -0.846 -0.041 -0.445 -0.278 -0.160 -0.134 1.158 0.979 0.330 0.408 0.120 1.112 0.333 0.094 0.390 -0.285
0.760 1.601 -0.569 0.018 -0.481 -0.604 0.091 2.262 -0.583 -1.866 -1.277 1.185 -0.609 0.820 0.810 0.600 -0.701 -0.568 -1.113 -0.103 0.821 -1.881 -1.919 -1.637 0.563 0.054 0.037 -1.504 0.720 1.451 1.121 0.830 -0.322 -1.506 -1.062 0.215 0.297 -0.458 -0.033 2.665 -0.160 -0.125 0.601 1.120 -0.063 -0.921 0.138 -0.225 -0.104 -0.820 -0.498 0.553 -1.480 -1.859 -0.531 -0.589 0.590 2.488 0.293 0.490 -0.766 -0.792 1.733 -1.504 1.086 -1.231 -1.064 -0.831 0.014 -0.430 -0.987 1.241 0.326 -0.245 -1.433 -0.656 0.635 0.867 -0.437 -0.511 -0.390 -1.704 0.865 -0.236 -1.432 -1.910 0.887 0.540 -0.611 0.029 2.038 -0.738 0.038 -0.024 0.588 -0.058 0.139 -1.343 -1.294 -0.568
0.139 1.141 -1.134 -0.123 -1.608 0.017 -0.398 -2.080 -1.152 1.580 -2.127 0.937 0.064 -1.331 -0.453 1.015 0.790 0.799 -0.261 -0.836 -2.614 0.049 0.203 -0.831 0.115 -2.099 -0.381 0.785 -1.026 -0.651 -1.394 -0.805 0.090 -0.166 -0.679 0.589 -2.602 -0.215 -0.283 -1.581 -1.750 -1.301 0.272 0.920 0.357 -0.511 0.351 -0.102 -1.190 0.644 -0.578 -2.118 0.866 0.513 0.789 -0.030 -0.304 -0.287 0.462 0.315 -0.201 -0.889 -1.499 0.375 0.271 0.895 1.256 1.835 0.197 -3.018 0.564 0.061 -0.387 0.206 1.824 0.118 -0.123 1.640 1.604 0.545 1.281 -1.221 1.848 -0.850 -0.224 -0.761 -0.508 -0.712 -0.839 0.144 -0.821 0.399 0.486 1.313 -0.086 -0.512 1.215 0.123 -0.154 1.670
-0.680 -0.487 1.205 0.229 0.363 -0.521 1.371 -0.391 -0.202 -1.536 -1.272 1.765 0.153 -0.980 0.719 -0.680 0.320 0.202 -0.012 -0.622 -0.816 -0.727 -0.248 -0.832 0.269 -0.073 -0.224 -0.592 0.260 0.034 -0.549 2.428 -1.952 -1.140 0.159 -0.183 1.512 -0.668 1.171 0.417 1.070 -0.024 0.123 -0.939 0.520 -0.344 -0.141 -0.808 0.034 0.714 0.214 -0.334 -0.857 0.970 -0.735 -1.839 0.324 1.879 -1.229 -2.118 0.826 0.292 0.359 1.602 -1.092 0.201 -1.671 -1.049 1.344 -2.682 0.358 -0.028 0.501 0.171 1.081 0.242 0.889 0.077 0.521 1.143 -1.539 1.699 0.470 -0.001 0.197 -0.759 -2.302 0.718 0.428 0.485 -0.974 0.684 -0.057 -1.079 -1.432 0.613 -0.501 1.540 -0.555 0.650
-0.159 -0.422 -1.117 -1.093 -1.541 3.327 -0.301 -0.475 0.864 -0.901 0.629 1.100 -0.259 -1.110 0.408 1.054 0.362 1.726 1.579 -1.016 1.501 -1.215 1.155 1.083 1.341 0.125 -2.078 0.887 -1.057 1.156 -0.377 0.613 -0.603 -0.172 1.187 -0.991 0.107 -0.151 0.206 -0.155 -0.839 -0.022 0.534 0.204 1.044 -0.031 0.365 -0.951 -2.120 -0.617 -0.126 1.456 0.733 0.287 -0.122 -0.292 1.021 1.228 2.113 -0.373 0.798 0.553 -0.900 -0.409 0.131 -0.593 0.187 0.540 1.593 -1.135 0.789 0.076 0.670 -0.000 0.121 -0.990 -0.025 0.693 0.276 -0.671 1.294 -0.009 -0.945 -0.050 1.127 -1.796 0.041 0.046 1.773 -0.160 0.705 1.035 -0.286 -0.981 1.359 -0.336 0.281 -0.474 0.596 0.601
0.674 -0.297 0.041 0.767 0.754 0.267 1.296 0.157 -0.739 -0.404 -0.051 0.555 0.023 -1.151 0.061 0.071 -1.180 -1.145 1.736 -2.473 -0.969 1.429 0.303 -1.275 -0.570 -2.563 -0.239 0.841 -0.273 -0.022 0.162 2.384 0.307 -0.181 -0.049 -0.881 0.652 -0.836 -0.243 -1.285 -1.093 1.267 -0.870 1.432 -1.350 -1.447 -0.213 0.202 1.105 1.140 0.163 -0.101 -1.346 -0.012 -0.420 1.302 0.189 0.994 -1.393 -0.621 -0.659 -0.470 0.724 -1.682 -3.104 0.697 0.928 -0.152 -0.147 0.453 -0.300 0.099 -0.314 1.313 -1.140 0.194 1.351 -0.826 -2.123 1.630 -0.626 1.152 -0.894 -0.351 -0.659 -0.458 -0.798 -1.070 0.695 -2.544 1.587 -0.545 -0.733 -0.079 -0.016 -1.671 -0.535 0.115 -0.361 -1.997
-1.425 -1.053 -0.069 -0.794 0.154 0.285 0.578 -1.118 0.949 1.529 -0.224 -0.269 1.685 -0.783 1.373 -0.110 -0.395 -0.721 0.292 -1.848 1.211 -0.314 1.773 -0.020 -1.949 0.448 -0.797 0.571 0.982 -0.799 -1.381 -0.198 -0.737 0.629 0.390 -0.090 0.439 -0.026 -1.140 0.092 -0.132 -0.170 1.264 -1.870 -1.286 0.329 -1.987 0.951 -0.544 0.098 -0.694 -0.486 -1.443 1.449 -0.074 -0.385 0.181 0.657 -1.112 2.197 -1.700 -0.263 -0.017 -1.184 -0.619 1.280 0.395 1.033 0.082 -0.575 1.453 -1.083 -0.401 -1.653 0.194 -0.572 -0.062 -0.696 -0.196 0.796 0.253 -0.221 0.810 -0.021 0.487 1.171 0.349 -1.359 0.091 0.644 1.064 1.209 -0.350 -0.146 -2.053 0.132 -1.043 0.684 1.078 -0.785
-0.377 -1.693 -0.173 -0.741 0.777 1.002 1.839 -0.901 -1.270 1.901 -1.692 -0.640 -1.067 0.598 -0.112 1.257 -1.161 -0.541 3.216 -0.107 -0.265 1.779 -1.296 1.118 -0.577 0.025 0.983 -0.174 -0.664 -0.338 2.091 -1.126 0.977 1.427 -0.751 -0.075 0.281 1.583 -1.124 -0.351 -2.075 -0.112 0.523 0.072 0.860 -1.732 1.657 -0.049 1.147 -0.181 0.048 -0.318 0.180 -1.575 0.122 0.171 0.115 -0.708 -1.151 -0.023 1.075 1.030 -0.976 -1.039 0.600 0.862 0.107 0.138 0.482 -0.198 1.698 -0.383 0.081 -1.212 0.538 -0.407 0.622 -0.809 -0.864 0.423 -1.651 0.804 -1.525 -1.063 0.648 1.286 0.017 0.645 0.785 1.273 0.087 0.118 -0.316 -0.958 -0.497 -0.801 2.109 0.389 -0.246 0.326
-2.125 -1.026 -0.104 -0.153 0.265 0.001 -2.241 0.432 0.112 0.962 0.129 -0.466 0.563 0.010 -0.909 1.291 1.095 -1.290 0.895 -0.539 -0.514 1.326 0.960 -1.523 0.471 -0.712 0.637 -1.051 -0.699 -0.345 -0.595 -1.311 1.049 0.794 0.717 0.040 0.351 0.462 1.250 -0.312 0.118 0.144 0.405 -1.279 -1.803 0.258 0.040 0.915 -0.777 -0.760 0.384 -0.091 -0.072 1.418 1.704 -0.587 0.346 1.175 -1.803 -0.296 -0.716 -0.363 -1.815 -0.465 1.193 0.017 -2.425 -0.393 0.766 -0.279 0.945 0.539 1.351 0.882 -1.016 -0.901 1.076 -0.554 0.127 1.341 -0.032 0.458 -1.890 -2.179 0.856 -0.942 0.872 -1.394 -0.692 -0.483 0.516 2.532 -0.725 -0.625 0.373 -2.037 -0.081 -0.745 0.265 -1.731
2.412 1.027 -0.536 -0.229 -0.344 1.339 -1.197 0.655 -0.438 0.264 0.546 0.146 -1.342 -1.273 0.129 -1.327 -1.806 -0.716 0.365 -0.029 -1.216 0.113 0.133 -1.255 -0.445 -0.116 0.806 1.218 -0.757 0.021 -0.901 -0.754 -0.231 -1.422 -2.333 -0.382 -1.201 0.452 -1.030 -0.694 -0.075 -0.947 -2.293 0.478 0.292 -0.093 1.158 -0.400 1.994 -0.261 -0.283 0.131 -1.896 1.135 0.406 0.529 -0.221 2.612 0.149 -0.938 0.031 0.288 0.989 1.013 0.066 -0.898 -1.188 -1.023 -0.896 -0.490 0.101 -1.713 -1.040 0.829 -0.199 -0.546 -0.271 -0.647 -0.509 0.477 1.604 1.644 -0.448 -0.996 0.330 -1.603 0.213 0.505 -0.630 1.801 -0.195 -2.659 -0.725 0.661 0.912 1.178 0.311 -0.649 0.708 0.611
0.864 1.249 -1.281 -0.062 -0.266 -1.835 0.563 -0.031 0.198 -0.829 -1.975 -0.269 0.332 -0.803 0.513 0.343 -1.184 0.130 0.093 -0.789 -0.341 0.603 0.582 -0.023 -0.140 -0.007 -0.725 -0.537 0.224 -1.219 1.325 1.335 -0.935 -0.000 -0.015 -2.001 -1.235 0.279 0.108 0.943 -0.693 0.516 0.181 0.454 -0.646 0.119 0.308 0.833 0.413 -1.256 1.428 -0.056 -1.500 -0.250 0.542 -0.883 -0.223 1.263 0.388 1.467 -0.641 -0.890 -0.942 -1.443 1.516 -0.749 0.759 -0.723 -0.374 -1.159 -0.779 -0.277 0.312 -0.516 1.795 -0.242 0.269 -0.804 2.383 -0.825 -0.121 -1.645 -1.935 0.056 -1.008 -0.989 -0.662 -0.634 -0.248 -1.021 -0.302 0.923 -0.038 2.059 1.126 -0.124 1.174 -1.136 0.324 -0.376
0.136 1.204 0.813 -0.296 1.654 -2.474 -0.663 -0.133 -2.013 1.456 0.838 0.233 0.437 1.364 0.644 -2.404 -1.650 -0.572 -0.476 1.412 1.172 -1.504 0.042 0.219 -0.007 -0.048 -0.663 0.693 0.331 -0.097 0.353 -0.112 0.831 1.688 0.050 0.093 -0.836 -1.475 0.276 -0.043 1.072 -1.371 0.051 -0.075 -1.381 0.446 -1.244 -1.062 -0.544 -0.181 0.022 0.098 0.070 0.728 0.740 -0.703 -0.445 -1.120 -0.593 0.016 -0.226 0.233 -0.651 -1.241 -0.379 0.798 -0.614 -0.269 0.482 -1.025 0.172 0.335 -0.978 -0.506 1.083 0.109 0.058 0.171 0.028 -0.244 -0.933 0.292 0.426 -1.010 -0.832 1.214 -1.662 -0.907 -0.809 -0.610 -0.331 -1.286 0.407 -1.099 1.218 0.075 0.906 0.715 -1.756 -0.842
-1.239 1.558 -0.183 -0.797 -0.780 -0.459 -0.661 -0.343 1.121 -1.563 -1.969 0.728 1.049 0.960 -1.199 -0.199 -0.408 -0.066 0.459 1.022 0.101 -0.392 -0.473 -0.551 1.500 1.364 1.285 0.601 0.299 -0.766 -0.350 0.647 1.586 1.286 0.931 -0.209 1.192 -1.878 -0.099 -1.382 0.080 -0.235 -1.324 1.027 -1.409 1.710 0.590 -0.869 -0.091 1.539 -1.107 0.705 0.205 -1.427 -0.575 -2.527 -2.539 1.104 -0.622 -0.015 0.159 -0.503 -1.263 1.214 1.004 1.999 -0.468 -1.157 -0.283 -0.290 -0.399 -0.523 0.241 -0.318 -1.035 0.492 -0.727 0.619 0.596 -2.337 -0.576 -0.537 -0.773 -0.822 -1.416 0.406 0.263 1.118 -0.488 -0.457 -1.359 1.829 -1.392 -1.036 -0.322 0.205 -1.449 1.587 -0.729 0.242
-0.343 -1.585 -0.380 -0.503 -0.463 0.323 -1.567 1.255 1.379 -1.223 -0.205 1.016 -0.204 -0.470 0.335 0.228 0.249 -0.331 0.397 -0.246 -0.015 -2.075 0.784 -0.744 0.540 0.719 -1.006 1.012 -1.232 -1.895 0.568 -1.156 1.480 0.547 1.326 -0.271 0.022 1.777 -0.344 0.582 0.400 0.439 -0.033 0.212 1.924 2.515 0.115 1.497 1.588 1.122 -0.913 1.038 0.927 -0.294 0.579 -0.669 -0.448 -0.362 -0.327 -0.370 0.167 -0.240 -0.395 0.461 1.105 0.039 0.205 0.701 -3.187 -0.963 0.889 -0.296 2.171 0.343 -0.008 -1.644 -0.798 -1.322 -0.553 1.069 1.356 -1.017 0.783 -0.598 0.217 0.089 1.670 -0.256 1.385 0.740 -1.223 -0.128 0.283 1.031 0.861 -0.911 0.085 0.146 -0.239 -2.737
-0.630 -0.695 0.576 0.285 -1.569 0.085 0.722 1.234 -3.081 -0.042 -0.340 -0.584 -0.452 -0.424 0.270 0.810 0.303 -1.389 -1.552 0.445 1.247 -0.166 0.320 0.198 -1.104 -0.407 -1.093 -0.762 -0.910 0.081 0.434 -0.865 0.885 -0.868 0.063 1.495 1.147 -1.349 -1.190 -0.415 -0.763 0.246 -0.364 -1.169 0.193 -1.473 -0.216 1.584 -0.708 0.803 -0.640 -0.448 0.320 -0.259 -0.233 -1.297 0.616 0.054 -0.403 0.716 -2.418 0.749 -1.193 1.468 1.092 -0.301 0.545 0.346 -0.528 -0.600 -0.302 0.349 0.403 1.985 0.690 0.214 -0.524 0.947 -1.007 0.153 -0.952 2.067 -0.586 -2.348 -0.245 -0.751 -0.478 1.152 -2.659 0.652 -1.602 1.088 -0.405 0.801 0.124 1.399 0.335 -1.669 -0.079 0.083
1.741 0.298 1.140 -0.125 0.728 -0.027 0.101 -0.928 1.232 0.077 0.189 -0.361 0.778 -0.294 -1.096 1.159 -0.317 -0.731 -1.620 1.119 0.662 -1.662 -0.005 -0.108 -0.171 1.146 -0.899 -0.990 0.533 -2.413 -1.501 0.136 0.772 -1.580 -0.364 -0.145 -0.291 1.094 -1.439 0.736 -0.547 0.021 0.894 -0.473 -0.214 -1.225 0.493 -0.555 0.221 -0.831 2.514 -0.199 -3.132 -0.896 0.203 0.393 -0.312 -1.648 0.097 -1.707 -0.930 -0.197 1.349 -0.165 0.233 0.829 0.787 -1.537 0.877 -0.512 1.237 -1.261 -0.990 0.306 0.215 -0.524 -0.367 0.546 1.016 -0.216 -2.030 -0.775 -0.744 0.390 1.067 -0.467 -0.078 -0.130 1.108 -0.925 -0.415 -0.061 0.468 0.418 0.560 0.999 0.554 0.466 0.450 -0.527
1.013 0.440 -1.677 1.008 -0.349 -0.527 0.956 -1.582 0.908 1.118 -0.129 0.514 -0.641 -0.159 1.255 0.418 -1.628 -0.886 0.768 0.301 0.307 0.200 0.961 -2.101 0.193 0.097 0.773 -0.898 1.410 -0.744 0.309 -1.038 0.684 -0.557 0.151 -0.720 0.306 -0.004 0.918 -0.301 -0.064 1.755 -0.035 2.761 -0.240 -0.516 -0.815 0.040 0.288 -1.439 0.308 2.101 0.848 -0.118 -1.607 1.314 -0.663 -0.556 -0.825 0.517 0.855 0.577 0.847 0.908 -0.896 0.863 0.684 -0.007 0.474 1.016 0.232 0.815 -1.177 0.908 0.964 -0.618 -0.671 0.425 0.168 0.684 1.026 -0.422 -0.224 -0.859 -0.359 -0.658 0.048 0.239 -0.070 0.973 -1.089 1.399 0.902 1.542 -2.105 -0.635 -0.027 -0.553 -1.990 0.368
-0.492 -0.167 -0.426 0.340 -1.691 -1.074 -1.005 -2.324 0.758 -0.097 0.341 1.342 -2.302 0.191 -0.366 -0.348 0.839 -0.372 0.607 -0.924 0.264 -0.153 -0.147 -0.490 -0.846 -0.060 -0.559 0.452 -0.804 0.225 0.041 0.464 -0.867 -0.440 -0.195 -0.042 -0.080 -1.336 1.451 -0.561 1.301 0.133 -0.993 -0.284 1.267 -0.983 0.553 -2.023 0.804 -0.553 -0.982 -0.040 -0.334 -0.761 -0.730 0.540 0.542 0.120 0.080 -0.344 0.120 -0.108 -1.423 -0.124 0.855 -0.665 1.330 -0.761 0.137 -0.682 1.238 0.155 -1.602 -0.096 -1.310 -0.351 -0.414 -0.526 -0.124 -0.420 0.560 -0.564 -0.200 -0.100 -0.024 -1.711 -0.218 0.659 -0.813 2.146 -1.480 0.553 0.084 -0.268 2.182 0.727 -0.500 -0.505 -0.671 1.678
-0.719 -1.468 -0.264 0.588 0.508 0.168 -1.196 -0.046 0.714 -0.422 0.658 -0.532 -0.086 0.720 0.650 1.307 -0.015 0.832 0.886 1.249 0.974 0.465 -1.402 0.228 -1.221 1.264 -0.366 0.436 1.150 -0.664 -0.584 -1.188 0.035 -0.103 0.432 0.093 -1.067 -0.263 -0.854 2.633 -0.027 0.224 0.433 -1.258 -1.177 -0.011 -0.017 -0.169 1.918 2.396 0.496 0.296 -1.562 -0.271 0.328 1.177 -2.766 -1.789 0.378 -1.341 -1.793 -0.285 -0.832 0.148 -1.014 -1.272 0.992 -0.956 0.226 1.287 0.767 -0.594 -0.860 0.598 0.913 0.407 1.453 0.098 -1.002 -0.270 -0.768 0.747 -1.150 0.612 0.726 0.196 -1.046 0.258 -1.065 0.995 -0.196 0.761 0.739 -0.997 -0.454 -0.325 1.158 1.179 -0.101 -0.341
-0.713 1.666 1.021 -1.149 1.203 -1.824 -0.295 -1.290 0.093 0.779 0.778 -0.903 0.572 -0.336 -1.092 1.256 -1.741 0.128 -0.798 0.406 -0.667 0.652 0.986 -1.004 -2.061 0.977 0.796 0.772 -0.519 1.315 0.498 1.757 -0.617 -0.764 -0.289 0.465 1.789 -1.571 -0.489 -0.903 0.980 -0.200 -1.058 -1.815 0.481 0.850 -0.413 0.374 -0.355 -1.612 -1.461 0.126 -1.296 -0.944 0.678 -0.029 -0.568 -2.803 -1.150 -0.459 -0.678 -0.658 1.451 0.000 -0.721 2.551 0.222 -0.024 -0.822 -0.063 0.636 -0.363 -0.314 0.927 -0.528 0.750 0.901 -1.472 0.370 0.043 0.521 -1.412 0.714 0.083 -0.199 0.129 2.184 -0.275 0.125 -3.113 -1.084 -0.022 1.712 -0.888 0.554 -1.896 0.940 0.230 -0.425 -2.507
-0.056 -1.110 -0.423 -0.210 -0.127 0.847 0.666 0.110 1.394 -1.325 0.153 -0.359 -1.829 -0.566 -1.309 1.455 -1.255 0.518 1.170 1.343 0.254 1.104 -1.935 0.382 0.013 1.732 -0.081 -0.229 1.036 -0.062 -0.607 0.503 1.994 1.088 0.052 1.476 -0.515 -1.607 -0.263 0.528 -0.660 1.071 0.444 1.713 0.858 -0.284 0.389 -1.056 -0.266 0.417 -0.546 0.660 -1.619 -0.345 0.797 -1.362 0.279 -0.036 1.155 1.748 -0.902 -1.051 -1.510 -3.299 -0.122 -0.029 0.733 -1.026 1.143 -0.423 0.378 -1.247 0.576 -0.363 0.675 -0.233 -0.035 -1.588 2.464 -0.493 -0.174 0.495 -0.681 -0.465 0.415 -0.318 2.682 0.506 -1.213 0.739 0.412 -1.966 1.567 0.341 -0.295 -0.217 -0.998 -0.148 1.514 -1.287
0.820 -1.838 -0.202 0.063 -0.765 0.805 -1.059 -1.106 -0.038 1.179 1.141 -0.726 -0.320 -1.973 -0.227 -0.431 0.654 0.285 0.752 -0.002 0.099 -0.741 -1.297 0.237 -0.793 0.510 0.230 0.494 -1.362 -1.286 -0.265 2.115 -0.529 0.040 0.785 0.684 -0.871 -0.752 0.719 1.342 -0.109 -2.741 0.043 0.876 -1.150 -0.107 1.145 -0.167 -0.322 -1.210 1.219 0.616 1.201 -0.016 0.139 0.386 1.398 0.021 2.042 0.475 1.988 -0.421 0.119 1.265 -2.577 1.894 0.168 0.278 1.327 -0.271 -0.648 2.131 -0.144 1.716 0.283 -0.178 -0.223 -2.274 -1.855 -0.055 0.794 0.181 0.569 -0.982 -0.370 2.185 -0.539 1.608 0.239 -0.365 -0.562 -0.344 -0.762 0.032 0.547 0.196 1.361 -1.083 1.509 -0.135
-0.946 0.402 -0.156 0.072 -0.169 0.274 0.073 -0.360 -0.175 -0.905 -0.385 -0.464 -0.909 -0.449 0.523 0.229 -1.775 0.365 -0.292 -0.205 -0.048 -1.215 0.033 -0.316 0.170 -1.034 -0.009 1.181 1.543 1.272 -0.249 -0.338 0.041 1.080 0.419 -0.163 0.824 -1.979 0.234 0.275 1.153 2.482 -0.929 0.694 -1.670 1.334 0.530 1.321 -0.967 0.751 -0.942 0.667 0.598 -0.463 1.723 -0.633 0.472 0.479 0.274 0.112 -0.603 -0.352 0.928 0.882 1.062 0.694 -0.162 -0.136 0.063 1.098 0.497 -0.536 0.141 -0.124 1.301 0.937 1.151 -0.260 -0.492 -0.545 0.648 0.112 -0.917 1.342 -0.054 -0.790 -0.309 0.073 1.434 -1.420 -0.686 0.673 -0.303 -1.008 0.012 -1.688 0.810 0.104 0.159 0.500
1.128 2.011 0.572 0.346 -0.583 -2.965 -0.766 1.072 -0.955 -0.935 0.300 0.457 0.842 0.289 -0.098 0.156 0.732 0.696 -0.783 1.031 -1.427 0.109 1.886 0.784 0.143 -1.560 -0.502 0.566 0.828 -0.485 -1.305 -0.290 -1.597 1.933 -1.273 -0.955 -1.381 0.713 -0.251 0.947 -0.983 -0.149 1.841 -1.121 1.975 -0.293 -0.085 -0.473 -0.324 1.170 -0.886 0.646 0.205 -1.547 0.392 1.082 -0.484 -0.688 0.590 0.276 1.303 0.291 -0.825 4.063 -1.364 -0.977 0.651 0.187 -2.414 -0.183 0.827 1.690 0.522 0.621 0.444 -0.932 0.076 -1.211 -0.226 0.867 1.127 1.089 0.070 -1.201 -0.350 1.759 1.178 0.667 0.000 0.198 -0.187 0.776 0.503 -2.829 0.558 0.055 -0.769 0.683 -1.385 0.101
-0.012 -1.158 -0.226 1.667 1.219 -0.737 1.878 1.187 -1.864 -0.556 -0.292 0.041 0.414 -2.390 1.429 1.500 -0.773 -1.130 0.651 0.243 -1.081 -1.891 1.258 -0.636 0.554 1.413 0.117 1.548 0.410 0.708 -1.259 -0.182 -1.495 -0.514 -0.694 0.267 -1.875 -2.111 1.055 -0.572 0.954 -0.130 -0.345 0.305 -0.334 -1.116 -0.018 -0.755 -1.707 2.102 0.362 0.437 0.984 0.303 0.411 -0.870 -0.478 2.063 1.628 -1.098 -0.540 1.295 -2.385 -0.584 0.147 0.451 -0.229 -0.101 0.309 0.251 -0.445 -0.197 -0.950 -0.234 0.705 0.948 0.748 -1.376 0.878 -0.630 -1.221 1.315 -1.243 0.806 -1.981 -1.761 0.707 0.860 0.612 0.175 -1.143 1.609 0.021 -3.067 -0.146 -0.259 0.388 -0.927 0.278 2.498
-1.491 -0.173 1.831 -1.142 -0.497 -2.265 0.941 -0.424 0.584 -3.412 -0.951 -0.943 0.141 -0.385 0.032 -0.192 -2.155 0.943 0.388 -0.895 -0.259 1.566 0.313 -0.586 -0.066 -0.260 -0.425 -0.165 -0.007 1.047 -1.616 0.252 0.203 0.874 -0.828 0.157 -1.311 -2.367 0.065 0.401 -0.532 0.829 1.232 1.014 -0.896 0.500 -0.174 -1.468 1.261 0.898 -0.160 -0.254 0.885 -1.641 0.226 -0.045 0.442 0.417 0.192 0.047 1.159 -0.990 0.184 0.509 -0.123 0.532 -0.681 -0.766 -0.028 0.484 -0.218 -0.174 -0.604 0.522 -1.080 -1.561 1.223 -0.448 -0.398 1.078 1.179 -1.692 -0.558 -0.644 -1.857 0.796 -0.372 0.425 -0.614 1.091 -0.988 0.389 -0.645 -0.890 0.164 0.697 -0.929 1.436 1.406 0.085
-0.973 -0.767 1.375 -1.474 2.182 -1.538 -0.603 0.567 -0.277 -1.240 0.608 1.110 -1.864 2.123 -0.634 -0.754 0.452 -1.109 -0.570 1.931 -1.666 -1.253 -0.920 0.305 -0.021 -0.184 0.749 -0.624 -2.864 -0.374 0.041 -0.463 1.388 0.591 0.342 1.725 -2.020 -0.093 -0.642 -0.514 1.306 -0.463 2.203 -1.420 0.828 -0.330 0.632 -0.504 -1.079 1.070 1.112 -0.316 0.931 1.538 0.334 -0.214 1.316 -1.932 0.037 0.542 1.236 0.098 -0.005 2.097 2.374 0.791 0.905 1.165 -0.537 -1.620 -0.550 -1.220 -0.511 0.941 0.227 0.455 0.068 0.196 -0.869 -0.512 1.612 -0.646 -0.374 -0.571 -0.576 0.328 -0.883 0.573 0.082 2.360 -0.712 1.160 0.940 -1.224 0.330 0.794 -1.593 0.634 0.274 -1.044
0.441 0.320 -2.289 0.796 -0.856 1.113 -1.358 1.003 -0.299 1.091 -1.038 0.227 -1.094 0.130 -0.417 0.612 0.416 -0.183 1.125 1.320 0.291 -0.423 -0.270 0.041 -0.759 0.085 0.414 0.926 -1.785 -0.370 -1.217 1.230 -0.002 0.308 0.802 0.959 0.691 -0.042 1.102 0.200 1.057 0.280 0.237 -1.038 -0.615 0.938 -0.395 1.624 -0.545 -0.013 -0.831 1.402 1.377 -1.499 -1.210 0.215 1.206 0.622 -1.567 -0.002 -1.694 -0.347 1.470 0.073 1.572 0.621 -0.465 -0.748 1.086 -0.947 -0.707 1.091 0.636 0.482 -1.269 0.241 0.323 0.111 0.136 -0.072 -2.238 -0.621 -0.278 1.274 -1.337 0.712 0.840 -0.456 1.026 1.570 0.456 1.331 0.557 -1.370 -1.437 -0.611 -0.254 1.125 0.220 0.335
1.389 -1.878 1.423 -0.631 -0.044 0.157 0.028 0.830 0.706 1.077 0.959 -0.733 -0.248 1.234 0.604 0.077 0.117 0.001 0.525 1.167 -1.141 0.831 -0.437 -0.698 1.427 -0.296 -1.347 0.380 -0.762 0.677 0.282 0.515 0.752 -0.731 0.111 -0.376 0.336 -0.932 -0.957 -1.701 -0.213 -0.516 0.574 0.077 -0.106 0.768 -1.049 0.401 0.321 -0.248 -0.228 -0.442 1.094 -0.819 0.917 -0.357 -0.409 0.010 1.944 1.139 0.268 -1.981 0.066 -0.189 -1.818 0.446 -1.466 0.703 -0.836 0.228 0.208 0.070 -0.297 -0.307 -1.667 2.806 -0.033 -0.236 2.097 -0.907 0.586 -0.945 -0.808 0.844 -0.216 0.345 -0.190 0.371 0.991 -0.550 0.070 0.909 -0.472 -0.933 -0.136 -0.184 -0.449 0.554 -0.976 -0.135
